~o
<STREAMINFO> 1 16
<VECSIZE> 16<NULLD><USER><DIAGC>
~h "Monkey"
<BEGINHMM>
<NUMSTATES> 6
<STATE> 2
<NUMMIXES> 2
<MIXTURE> 1 5.386629e-01
<MEAN> 16
 6.238458e-01 -7.459243e-01 1.944173e+00 -1.419753e-01 -6.218196e-01 1.835869e+00 6.238458e-01 -7.459243e-01 1.944173e+00 -1.419753e-01 -6.218196e-01 1.835869e+00 1.108977e-01 1.155127e-01 9.553761e-02 7.340920e-02
<VARIANCE> 16
 7.492317e-03 1.000000e-03 4.273436e-03 2.606858e-03 1.029217e-03 3.216066e-03 7.492317e-03 1.000000e-03 4.273436e-03 2.606858e-03 1.029217e-03 3.216066e-03 1.000000e-03 1.000000e-03 1.000000e-03 1.000000e-03
<GCONST> -6.987526e+01
<MIXTURE> 2 4.613373e-01
<MEAN> 16
 5.657822e-01 -6.726799e-01 1.751165e+00 -2.914388e-01 -6.136644e-01 1.816150e+00 5.657822e-01 -6.726799e-01 1.751165e+00 -2.914388e-01 -6.136644e-01 1.816150e+00 1.205697e-01 9.874332e-02 9.874069e-02 6.848654e-02
<VARIANCE> 16
 2.773531e-03 1.915431e-03 9.508673e-03 2.712011e-02 1.629489e-02 1.279206e-02 2.773531e-03 1.915431e-03 9.508673e-03 2.712011e-02 1.629489e-02 1.279206e-02 1.000000e-03 1.000000e-03 1.000000e-03 1.000000e-03
<GCONST> -5.599362e+01
<STATE> 3
<NUMMIXES> 2
<MIXTURE> 1 7.224090e-01
<MEAN> 16
 6.145008e-01 -7.447255e-01 1.947307e+00 -1.464929e-01 -6.173161e-01 1.825462e+00 -8.177101e-04 2.137938e-03 2.556404e-04 -2.316161e-04 2.310515e-03 -7.743079e-04 1.140144e-01 1.156875e-01 1.022679e-01 7.494115e-02
<VARIANCE> 16
 6.024156e-03 1.000000e-03 4.117757e-03 1.826280e-03 1.000000e-03 2.387837e-03 1.000000e-03 1.000000e-03 1.000000e-03 1.000000e-03 1.000000e-03 1.000000e-03 1.000000e-03 1.000000e-03 1.000000e-03 1.000000e-03
<GCONST> -7.643430e+01
<MIXTURE> 2 2.775900e-01
<MEAN> 16
 5.891464e-01 -7.114080e-01 1.830126e+00 -2.762149e-01 -6.586539e-01 1.865084e+00 -5.256492e-04 1.085484e-03 1.944607e-03 3.204969e-04 3.005877e-03 -5.047841e-03 1.181173e-01 1.028482e-01 9.910806e-02 6.903483e-02
<VARIANCE> 16
 2.649988e-03 2.134173e-03 1.079687e-02 2.159372e-02 1.408712e-02 1.499857e-02 1.000000e-03 1.000000e-03 1.400956e-03 1.000000e-03 1.000000e-03 5.644161e-03 1.000000e-03 1.000000e-03 1.000000e-03 1.000000e-03
<GCONST> -6.651277e+01
<STATE> 4
<NUMMIXES> 2
<MIXTURE> 1 7.009904e-01
<MEAN> 16
 4.784350e-01 -6.586221e-01 1.869265e+00 -1.283225e-01 -5.924907e-01 1.821270e+00 -3.210307e-02 1.541184e-02 -5.376410e-03 -3.703833e-03 5.472752e-03 -7.925079e-05 1.119657e-01 1.097470e-01 8.521808e-02 7.283956e-02
<VARIANCE> 16
 1.000799e-02 1.858467e-03 1.160867e-02 3.547274e-03 4.473123e-03 6.600768e-03 1.610592e-03 1.405806e-03 3.098010e-03 1.000000e-03 1.000000e-03 1.659358e-03 1.000000e-03 1.000000e-03 1.000000e-03 1.000000e-03
<GCONST> -6.863731e+01
<MIXTURE> 2 2.990098e-01
<MEAN> 16
 5.591578e-01 -6.291457e-01 1.689889e+00 -4.472923e-01 -6.706409e-01 1.808493e+00 -1.700818e-03 4.334326e-03 1.955718e-04 -3.178018e-03 7.791499e-03 -1.929642e-02 1.152205e-01 9.813623e-02 1.241130e-01 6.268497e-02
<VARIANCE> 16
 1.000000e-03 1.000000e-03 2.892522e-03 1.000000e-03 1.103419e-03 4.506161e-03 1.000000e-03 1.000000e-03 1.000000e-03 1.000000e-03 1.000000e-03 1.293377e-03 1.000000e-03 1.000000e-03 1.000000e-03 1.000000e-03
<GCONST> -7.819480e+01
<STATE> 5
<MEAN> 16
 3.819860e-01 -6.511462e-01 1.897432e+00 -1.634090e-01 -2.178884e-01 1.814985e+00 -3.310904e-03 5.662197e-03 1.456217e-03 -3.964809e-03 1.823862e-02 1.241310e-03 1.260595e-01 1.085781e-01 8.176775e-02 7.932866e-02
<VARIANCE> 16
 2.199851e-02 3.591575e-03 1.005669e-02 1.293563e-02 1.264784e-01 1.273338e-02 1.000000e-03 1.000000e-03 3.133528e-03 1.000000e-03 4.119470e-03 2.978262e-03 1.000000e-03 1.000000e-03 1.000000e-03 1.000000e-03
<GCONST> -6.084675e+01
<TRANSP> 6
 0.000000e+00 1.000000e+00 0.000000e+00 0.000000e+00 0.000000e+00 0.000000e+00
 0.000000e+00 0.000000e+00 1.000000e+00 0.000000e+00 0.000000e+00 0.000000e+00
 0.000000e+00 0.000000e+00 8.083166e-01 1.916834e-01 0.000000e+00 0.000000e+00
 0.000000e+00 0.000000e+00 0.000000e+00 7.644052e-01 2.355948e-01 0.000000e+00
 0.000000e+00 0.000000e+00 0.000000e+00 0.000000e+00 8.772390e-01 1.227610e-01
 0.000000e+00 0.000000e+00 0.000000e+00 0.000000e+00 0.000000e+00 0.000000e+00
<ENDHMM>
~h "fence"
<BEGINHMM>
<NUMSTATES> 6
<STATE> 2
<NUMMIXES> 2
<MIXTURE> 1 3.637324e-01
<MEAN> 16
 4.220414e-01 -3.069261e-01 1.995922e+00 -3.584879e-01 -1.813096e-01 1.888682e+00 7.912079e-03 -1.100459e-02 2.006342e-02 -3.648614e-03 -5.721404e-03 1.365392e-02 1.137145e-01 1.546195e-01 9.440982e-02 9.284589e-02
<VARIANCE> 16
 8.269041e-03 1.943213e-02 1.566061e-02 2.133364e-03 1.195336e-02 6.857442e-03 1.000000e-03 1.000000e-03 4.605368e-03 1.000000e-03 1.000000e-03 3.794790e-03 1.229454e-03 1.000000e-03 1.000000e-03 1.000000e-03
<GCONST> -6.505599e+01
<MIXTURE> 2 6.362638e-01
<MEAN> 16
 2.323364e-01 -2.471289e-01 1.803040e+00 -2.891552e-01 -2.598717e-01 1.745134e+00 -4.180055e-03 2.251593e-03 -1.283664e-02 1.166567e-03 -3.623914e-05 -9.627601e-03 8.771220e-02 1.447848e-01 8.138082e-02 8.699741e-02
<VARIANCE> 16
 3.305887e-02 1.743540e-02 1.539056e-02 1.915269e-03 5.640924e-03 9.059866e-03 1.000000e-03 1.633989e-03 2.899467e-03 1.000000e-03 1.000000e-03 2.199576e-03 1.000000e-03 1.000000e-03 1.000000e-03 1.000000e-03
<GCONST> -6.509993e+01
<STATE> 3
<NUMMIXES> 2
<MIXTURE> 1 4.378928e-01
<MEAN> 16
 2.916652e-01 -6.578290e-02 1.908235e+00 -3.496594e-01 -1.054178e-01 1.845838e+00 1.868097e-03 -1.737925e-03 7.798668e-03 -1.290811e-03 -2.021354e-03 6.683021e-03 1.165310e-01 1.625193e-01 9.156863e-02 9.564102e-02
<VARIANCE> 16
 4.042323e-02 5.931121e-02 1.213592e-02 4.480802e-03 2.717462e-03 1.129303e-02 1.831641e-03 3.034688e-03 4.889361e-03 1.000000e-03 1.000000e-03 4.220605e-03 1.000000e-03 1.000000e-03 1.000000e-03 1.000000e-03
<GCONST> -6.117364e+01
<MIXTURE> 2 5.620995e-01
<MEAN> 16
 1.655229e-01 -7.210504e-02 1.728100e+00 -3.915758e-01 -9.480855e-02 1.695585e+00 -4.313740e-03 -1.598899e-03 -5.952505e-03 1.098404e-03 -4.387089e-04 -5.006450e-03 1.003387e-01 1.369911e-01 7.641380e-02 9.062169e-02
<VARIANCE> 16
 5.974100e-02 1.017320e-02 5.111248e-03 7.523113e-03 3.506631e-03 4.764529e-03 1.000000e-03 1.000000e-03 1.184587e-03 1.000000e-03 1.000000e-03 1.180790e-03 1.000000e-03 1.000000e-03 1.000000e-03 1.000000e-03
<GCONST> -6.790742e+01
<STATE> 4
<NUMMIXES> 2
<MIXTURE> 1 7.304156e-01
<MEAN> 16
 2.132965e-01 -9.388353e-02 1.521955e+00 -3.475454e-01 -3.582793e-02 1.447923e+00 -6.117539e-05 -1.972094e-04 -1.484772e-03 3.914137e-04 -7.910557e-04 -8.845321e-04 9.538127e-02 1.423696e-01 8.143160e-02 8.575882e-02
<VARIANCE> 16
 3.924331e-02 2.926087e-02 2.814177e-02 6.681122e-03 2.233876e-03 1.407812e-02 1.000000e-03 1.000000e-03 1.014393e-03 1.000000e-03 1.000000e-03 1.000000e-03 1.000000e-03 1.000000e-03 1.000000e-03 1.000000e-03
<GCONST> -6.537283e+01
<MIXTURE> 2 2.695771e-01
<MEAN> 16
 2.757124e-01 -3.750565e-01 1.729959e+00 -2.866169e-01 -2.929003e-01 1.664917e+00 3.585489e-02 -4.246970e-02 1.918113e-02 6.140301e-03 -3.872617e-02 1.253596e-02 9.712148e-02 1.099325e-01 7.665905e-02 7.441381e-02
<VARIANCE> 16
 8.617737e-02 4.377670e-02 3.169698e-02 1.177812e-02 3.133984e-02 2.851129e-02 2.976756e-03 3.313157e-03 7.848464e-03 1.370950e-03 1.716055e-03 6.384576e-03 1.000000e-03 1.482326e-03 1.000000e-03 1.000000e-03
<GCONST> -5.271281e+01
<STATE> 5
<MEAN> 16
 5.854763e-01 -7.005632e-01 1.861708e+00 -1.843307e-01 -6.068073e-01 1.797233e+00 4.338421e-03 -4.393026e-03 -8.536548e-05 2.437442e-03 -4.922331e-03 1.713213e-03 1.157085e-01 1.110996e-01 9.791945e-02 7.511090e-02
<VARIANCE> 16
 1.760232e-02 3.489703e-03 1.428884e-02 1.510807e-02 5.093202e-03 6.517903e-03 1.000000e-03 1.000000e-03 1.281704e-03 1.000000e-03 1.000000e-03 1.268666e-03 1.000000e-03 1.000000e-03 1.000000e-03 1.000000e-03
<GCONST> -6.763689e+01
<TRANSP> 6
 0.000000e+00 1.000000e+00 0.000000e+00 0.000000e+00 0.000000e+00 0.000000e+00
 0.000000e+00 9.552769e-01 4.472309e-02 0.000000e+00 0.000000e+00 0.000000e+00
 0.000000e+00 0.000000e+00 9.787010e-01 2.129903e-02 0.000000e+00 0.000000e+00
 0.000000e+00 0.000000e+00 0.000000e+00 9.670468e-01 3.295325e-02 0.000000e+00
 0.000000e+00 0.000000e+00 0.000000e+00 0.000000e+00 9.595734e-01 4.042654e-02
 0.000000e+00 0.000000e+00 0.000000e+00 0.000000e+00 0.000000e+00 0.000000e+00
<ENDHMM>
~h "Car"
<BEGINHMM>
<NUMSTATES> 6
<STATE> 2
<NUMMIXES> 2
<MIXTURE> 1 4.847870e-01
<MEAN> 16
 6.270217e-01 -7.444580e-01 1.935118e+00 -1.439250e-01 -6.185415e-01 1.838418e+00 6.270217e-01 -7.444580e-01 1.935118e+00 -1.439250e-01 -6.185415e-01 1.838418e+00 1.085091e-01 1.152506e-01 9.624873e-02 7.888936e-02
<VARIANCE> 16
 7.036332e-03 1.000000e-03 3.477505e-03 2.865049e-03 1.304442e-03 3.157366e-03 7.036332e-03 1.000000e-03 3.477505e-03 2.865049e-03 1.304442e-03 3.157366e-03 1.000000e-03 1.000000e-03 1.000000e-03 1.000000e-03
<GCONST> -6.978706e+01
<MIXTURE> 2 5.152131e-01
<MEAN> 16
 5.727495e-01 -6.808583e-01 1.753937e+00 -2.890600e-01 -6.227469e-01 1.814661e+00 5.727495e-01 -6.808583e-01 1.753937e+00 -2.890600e-01 -6.227469e-01 1.814661e+00 1.199635e-01 9.522584e-02 1.008478e-01 6.938413e-02
<VARIANCE> 16
 2.722234e-03 1.753880e-03 9.211788e-03 2.381071e-02 1.690304e-02 1.302257e-02 2.722234e-03 1.753880e-03 9.211788e-03 2.381071e-02 1.690304e-02 1.302257e-02 1.000000e-03 1.004891e-03 1.000000e-03 1.000000e-03
<GCONST> -5.641702e+01
<STATE> 3
<NUMMIXES> 2
<MIXTURE> 1 3.426741e-01
<MEAN> 16
 6.002829e-01 -7.344578e-01 1.931866e+00 -9.461056e-02 -1.370517e-01 1.779141e+00 1.088032e-03 -1.587542e-03 6.615884e-03 9.871376e-04 1.369477e-02 4.581201e-03 1.205387e-01 1.147760e-01 9.156270e-02 8.159328e-02
<VARIANCE> 16
 4.218308e-03 1.073527e-03 6.562492e-03 1.059075e-02 1.122000e-01 8.038999e-03 1.000000e-03 1.000000e-03 4.526888e-03 1.843790e-03 5.260578e-03 5.074956e-03 1.000000e-03 1.000000e-03 1.000000e-03 1.000000e-03
<GCONST> -6.315532e+01
<MIXTURE> 2 6.573251e-01
<MEAN> 16
 5.959021e-01 -7.146669e-01 1.833637e+00 -2.651140e-01 -4.989864e-01 1.809511e+00 -2.014630e-04 2.489464e-03 -3.333080e-03 -2.153760e-03 2.458003e-03 -6.277411e-03 1.230003e-01 9.907638e-02 9.301887e-02 7.466765e-02
<VARIANCE> 16
 1.527969e-03 1.431338e-03 9.008680e-03 2.181442e-02 8.233967e-02 1.771029e-02 1.000000e-03 1.000000e-03 1.005977e-03 1.000000e-03 1.000000e-03 1.359003e-03 1.000000e-03 1.000000e-03 1.000000e-03 1.000000e-03
<GCONST> -6.745704e+01
<STATE> 4
<NUMMIXES> 2
<MIXTURE> 1 6.142358e-01
<MEAN> 16
 6.153947e-01 -7.350578e-01 1.933488e+00 -1.733633e-01 -5.988442e-01 1.840185e+00 -1.803957e-03 4.669364e-03 2.128397e-04 -1.447041e-03 4.843004e-03 -1.837588e-03 1.151561e-01 1.110210e-01 1.111617e-01 7.870682e-02
<VARIANCE> 16
 5.452249e-03 1.218478e-03 4.454912e-03 5.170503e-03 8.082071e-03 5.824105e-03 1.000000e-03 1.000000e-03 1.000000e-03 1.000000e-03 1.000000e-03 1.000000e-03 1.000000e-03 1.000000e-03 1.000000e-03 1.000000e-03
<GCONST> -7.223579e+01
<MIXTURE> 2 3.857636e-01
<MEAN> 16
 5.422999e-01 -6.391553e-01 1.668738e+00 -3.497334e-01 -6.334932e-01 1.770515e+00 -2.658485e-03 3.559249e-03 -5.314418e-05 -9.232886e-04 7.490806e-03 -1.212863e-02 1.163136e-01 9.653941e-02 1.235264e-01 6.238006e-02
<VARIANCE> 16
 1.101556e-03 1.041854e-03 1.858026e-03 2.091242e-02 3.816250e-03 5.065985e-03 1.000000e-03 1.000000e-03 1.000000e-03 1.000000e-03 1.000000e-03 1.020520e-03 1.000000e-03 1.000000e-03 1.000000e-03 1.000000e-03
<GCONST> -7.433834e+01
<STATE> 5
<MEAN> 16
 3.875936e-01 -6.278272e-01 1.878324e+00 -1.793903e-01 -5.963769e-01 1.833043e+00 -2.150867e-02 1.421634e-02 -2.328674e-04 -5.400065e-03 7.912323e-03 1.223759e-04 1.167530e-01 1.122422e-01 8.251786e-02 7.403465e-02
<VARIANCE> 16
 1.945595e-02 2.088720e-03 9.265248e-03 7.552484e-03 7.541433e-03 6.606951e-03 1.320483e-03 1.157294e-03 3.175805e-03 1.000000e-03 1.000000e-03 2.137182e-03 1.000000e-03 1.000000e-03 1.000000e-03 1.000000e-03
<GCONST> -6.691753e+01
<TRANSP> 6
 0.000000e+00 1.000000e+00 0.000000e+00 0.000000e+00 0.000000e+00 0.000000e+00
 0.000000e+00 0.000000e+00 1.000000e+00 0.000000e+00 0.000000e+00 0.000000e+00
 0.000000e+00 0.000000e+00 7.765732e-01 2.234268e-01 0.000000e+00 0.000000e+00
 0.000000e+00 0.000000e+00 0.000000e+00 7.972482e-01 2.027518e-01 0.000000e+00
 0.000000e+00 0.000000e+00 0.000000e+00 0.000000e+00 7.871012e-01 2.128988e-01
 0.000000e+00 0.000000e+00 0.000000e+00 0.000000e+00 0.000000e+00 0.000000e+00
<ENDHMM>
~h "Man"
<BEGINHMM>
<NUMSTATES> 6
<STATE> 2
<NUMMIXES> 2
<MIXTURE> 1 1.692662e-01
<MEAN> 16
 6.628478e-01 -7.226468e-01 1.968111e+00 -1.606713e-01 -5.440816e-01 1.827219e+00 6.628478e-01 -7.226468e-01 1.968111e+00 -1.606713e-01 -5.440816e-01 1.827219e+00 1.099568e-01 1.031135e-01 9.982619e-02 7.459591e-02
<VARIANCE> 16
 1.179178e-01 4.282744e-02 5.880266e-03 1.619299e-02 5.055423e-02 1.991149e-02 1.179178e-01 4.282744e-02 5.880266e-03 1.619299e-02 5.055423e-02 1.991149e-02 1.040702e-03 1.000000e-03 1.000000e-03 1.000000e-03
<GCONST> -4.108278e+01
<MIXTURE> 2 8.307338e-01
<MEAN> 16
 5.719581e-01 -7.003716e-01 1.821964e+00 -2.271083e-01 -6.300024e-01 1.816546e+00 5.719581e-01 -7.003716e-01 1.821964e+00 -2.271083e-01 -6.300024e-01 1.816546e+00 1.155945e-01 1.057492e-01 1.004867e-01 7.096481e-02
<VARIANCE> 16
 2.338342e-03 2.127776e-03 1.675223e-02 2.090433e-02 4.966592e-03 7.147706e-03 2.338342e-03 2.127776e-03 1.675223e-02 2.090433e-02 4.966592e-03 7.147706e-03 1.000000e-03 1.000000e-03 1.000000e-03 1.000000e-03
<GCONST> -5.905299e+01
<STATE> 3
<NUMMIXES> 2
<MIXTURE> 1 5.724285e-01
<MEAN> 16
 7.584577e-01 -4.724585e-01 2.190617e+00 -2.664572e-01 -5.146352e-01 1.885265e+00 1.253469e+00 -4.121535e-01 8.768255e-02 5.472158e-01 -8.119950e-01 -1.796974e-02 1.154202e-01 1.142068e-01 1.060865e-01 7.748653e-02
<VARIANCE> 16
 1.294706e-01 3.391707e-02 1.249427e-01 5.812046e-02 2.971718e-02 4.595772e-02 7.061789e-01 7.875218e-02 1.267436e-01 2.023391e-01 2.975338e-01 1.983802e-01 1.000000e-03 1.000000e-03 1.000000e-03 1.000000e-03
<GCONST> -2.455686e+01
<MIXTURE> 2 4.275716e-01
<MEAN> 16
 -8.564646e-01 1.564142e-01 2.192635e+00 -1.016714e+00 6.060877e-01 1.935553e+00 -1.675706e+00 5.500343e-01 -1.169331e-01 -7.316542e-01 1.086485e+00 2.435729e-02 7.667577e-02 6.536065e-02 6.301457e-02 7.536563e-02
<VARIANCE> 16
 2.078487e-02 2.432732e-02 2.383334e-01 4.330137e-02 7.648620e-02 3.014802e-01 2.340991e-01 2.847570e-02 1.580454e-01 1.348130e-01 9.810527e-02 2.521481e-01 1.000000e-03 1.000000e-03 1.000000e-03 1.000000e-03
<GCONST> -2.671693e+01
<STATE> 4
<NUMMIXES> 2
<MIXTURE> 1 6.690667e-01
<MEAN> 16
 4.754372e-01 -6.858484e-01 1.923331e+00 -1.392850e-01 -6.160111e-01 1.851507e+00 -9.176130e-03 4.153769e-03 2.307547e-03 -1.538096e-03 1.340150e-03 2.618269e-03 1.168717e-01 1.139654e-01 9.024152e-02 7.440679e-02
<VARIANCE> 16
 2.985027e-02 4.366293e-03 5.549914e-03 2.703975e-03 1.000000e-03 4.417860e-03 1.000000e-03 1.000000e-03 1.000000e-03 1.000000e-03 1.000000e-03 1.000000e-03 1.000000e-03 1.000000e-03 1.000000e-03 1.000000e-03
<GCONST> -7.205379e+01
<MIXTURE> 2 3.309326e-01
<MEAN> 16
 5.052293e-01 -6.537840e-01 1.762722e+00 -2.616089e-01 -6.112206e-01 1.802148e+00 -1.339202e-02 8.625070e-03 -8.408182e-03 -1.545501e-03 7.716938e-03 -1.602567e-02 1.196864e-01 9.955494e-02 1.031781e-01 6.877618e-02
<VARIANCE> 16
 1.096475e-02 1.626945e-03 1.069710e-02 2.684342e-02 7.358516e-03 8.757157e-03 1.251141e-03 1.058290e-03 3.290056e-03 1.000000e-03 1.000000e-03 3.232667e-03 1.000000e-03 1.000000e-03 1.000000e-03 1.000000e-03
<GCONST> -6.576602e+01
<STATE> 5
<MEAN> 16
 4.489157e-01 -6.622965e-01 1.873273e+00 -1.494707e-01 -5.168598e-02 1.787405e+00 -1.982243e-03 4.549015e-03 2.016215e-03 -2.156645e-03 2.490254e-02 1.920591e-03 1.219861e-01 1.026422e-01 9.488380e-02 8.323338e-02
<VARIANCE> 16
 2.108402e-02 4.832692e-03 1.897932e-02 1.509707e-02 1.023857e-01 2.240017e-02 1.000000e-03 1.000000e-03 3.012500e-03 1.000000e-03 5.909596e-03 2.924111e-03 1.000000e-03 1.000000e-03 1.000000e-03 1.000000e-03
<GCONST> -5.914613e+01
<TRANSP> 6
 0.000000e+00 1.000000e+00 0.000000e+00 0.000000e+00 0.000000e+00 0.000000e+00
 0.000000e+00 0.000000e+00 1.000000e+00 0.000000e+00 0.000000e+00 0.000000e+00
 0.000000e+00 0.000000e+00 8.593422e-01 1.406578e-01 0.000000e+00 0.000000e+00
 0.000000e+00 0.000000e+00 0.000000e+00 9.066045e-01 9.339549e-02 0.000000e+00
 0.000000e+00 0.000000e+00 0.000000e+00 0.000000e+00 8.563439e-01 1.436561e-01
 0.000000e+00 0.000000e+00 0.000000e+00 0.000000e+00 0.000000e+00 0.000000e+00
<ENDHMM>
~h "car"
<BEGINHMM>
<NUMSTATES> 6
<STATE> 2
<NUMMIXES> 2
<MIXTURE> 1 4.900796e-01
<MEAN> 16
 3.232544e-01 -4.586535e-01 2.077271e+00 -2.620087e-01 6.207814e-02 1.862711e+00 2.852737e-03 -1.293409e-03 3.596868e-03 -4.834148e-04 -8.437392e-03 5.412209e-04 1.011304e-01 1.353818e-01 9.289345e-02 8.483033e-02
<VARIANCE> 16
 1.195258e-02 5.694135e-03 1.499240e-02 1.076346e-03 8.647137e-03 9.647180e-03 1.000000e-03 1.000000e-03 1.000000e-03 1.000000e-03 1.000000e-03 1.000000e-03 1.000000e-03 1.000000e-03 1.000000e-03 1.000000e-03
<GCONST> -6.969267e+01
<MIXTURE> 2 5.099139e-01
<MEAN> 16
 2.804744e-01 -2.517301e-01 1.869950e+00 -2.986504e-01 -9.489469e-02 1.827401e+00 4.767216e-03 -1.596737e-02 -2.859275e-03 7.716386e-04 -4.828087e-04 -6.036899e-03 8.536328e-02 9.692072e-02 7.966375e-02 8.371953e-02
<VARIANCE> 16
 2.187014e-02 2.263901e-02 1.986815e-02 4.626409e-03 4.373195e-02 1.341915e-02 1.000000e-03 1.012989e-03 4.300328e-03 1.000000e-03 1.000000e-03 3.543449e-03 1.000000e-03 1.000000e-03 1.000000e-03 1.000000e-03
<GCONST> -6.128090e+01
<STATE> 3
<NUMMIXES> 2
<MIXTURE> 1 7.032782e-01
<MEAN> 16
 3.289529e-01 4.995546e-02 1.896556e+00 -3.078373e-01 4.936376e-02 1.869523e+00 2.062683e-03 9.747538e-04 -1.764973e-03 -1.134635e-03 -1.961841e-03 -2.384958e-04 1.159396e-01 1.371021e-01 8.845486e-02 8.187085e-02
<VARIANCE> 16
 2.489506e-02 2.341838e-02 1.376633e-02 2.084640e-03 1.558844e-03 1.397363e-02 1.000000e-03 1.767223e-03 1.000000e-03 1.000000e-03 1.000000e-03 1.000000e-03 1.000000e-03 1.000000e-03 1.000000e-03 1.000000e-03
<GCONST> -6.774252e+01
<MIXTURE> 2 2.967127e-01
<MEAN> 16
 2.873291e-01 -8.496457e-02 1.908422e+00 -2.692452e-01 -3.367610e-02 1.879253e+00 1.285432e-02 -1.200274e-02 6.748043e-03 -6.232703e-04 -1.397641e-02 5.150333e-03 1.126858e-01 1.183847e-01 8.509336e-02 8.467785e-02
<VARIANCE> 16
 8.577800e-02 7.949228e-02 1.969890e-02 1.388211e-02 3.300897e-02 1.763129e-02 4.266413e-03 6.119309e-03 1.203909e-02 1.711336e-03 1.663846e-03 1.006077e-02 1.000000e-03 1.000000e-03 1.000000e-03 1.000000e-03
<GCONST> -5.120758e+01
<STATE> 4
<NUMMIXES> 2
<MIXTURE> 1 7.232480e-01
<MEAN> 16
 1.788863e-01 -1.657127e-02 1.730174e+00 -4.092679e-01 -4.994475e-02 1.669757e+00 -1.452862e-03 -2.228958e-03 -1.422093e-03 -2.827589e-04 -1.188110e-03 -5.653989e-04 9.065364e-02 1.173847e-01 6.877050e-02 7.931099e-02
<VARIANCE> 16
 3.128976e-02 1.439716e-02 7.522178e-03 2.321697e-03 3.509477e-03 3.466150e-03 1.000000e-03 1.000000e-03 1.000000e-03 1.000000e-03 1.000000e-03 1.000000e-03 1.000000e-03 1.000000e-03 1.000000e-03 1.000000e-03
<GCONST> -6.964907e+01
<MIXTURE> 2 2.767435e-01
<MEAN> 16
 2.384463e-01 -1.996757e-01 1.807374e+00 -3.636582e-01 -1.803508e-01 1.701777e+00 8.397328e-03 -2.712764e-02 8.524134e-03 8.143139e-03 -2.824334e-02 4.992839e-03 1.020579e-01 1.048558e-01 7.862632e-02 7.970414e-02
<VARIANCE> 16
 5.879786e-02 7.774297e-02 2.929503e-02 1.061036e-02 3.125616e-02 1.093842e-02 3.447312e-03 4.704362e-03 1.077361e-02 1.043445e-03 1.977902e-03 7.449113e-03 1.000000e-03 1.000000e-03 1.000000e-03 1.000000e-03
<GCONST> -5.322095e+01
<STATE> 5
<MEAN> 16
 5.809816e-01 -6.946366e-01 1.855557e+00 -1.935899e-01 -6.069117e-01 1.814155e+00 4.401157e-03 -5.447281e-03 4.405935e-04 3.394997e-03 -6.315873e-03 1.834440e-03 1.163018e-01 1.076467e-01 9.751622e-02 7.495385e-02
<VARIANCE> 16
 1.533560e-02 3.180382e-03 1.538958e-02 1.836994e-02 5.066650e-03 6.902503e-03 1.000000e-03 1.000000e-03 1.555706e-03 1.000000e-03 1.000000e-03 1.644506e-03 1.000000e-03 1.000000e-03 1.000000e-03 1.000000e-03
<GCONST> -6.709254e+01
<TRANSP> 6
 0.000000e+00 1.000000e+00 0.000000e+00 0.000000e+00 0.000000e+00 0.000000e+00
 0.000000e+00 9.107963e-01 8.920365e-02 0.000000e+00 0.000000e+00 0.000000e+00
 0.000000e+00 0.000000e+00 9.492062e-01 5.079383e-02 0.000000e+00 0.000000e+00
 0.000000e+00 0.000000e+00 0.000000e+00 9.605219e-01 3.947810e-02 0.000000e+00
 0.000000e+00 0.000000e+00 0.000000e+00 0.000000e+00 9.596484e-01 4.035155e-02
 0.000000e+00 0.000000e+00 0.000000e+00 0.000000e+00 0.000000e+00 0.000000e+00
<ENDHMM>
~h "weaves_and_bumps_into"
<BEGINHMM>
<NUMSTATES> 6
<STATE> 2
<NUMMIXES> 2
<MIXTURE> 1 3.709266e-01
<MEAN> 16
 2.998353e-01 -2.679937e-01 1.870615e+00 -2.259593e-01 -2.058520e-01 1.825210e+00 -3.735779e-02 6.991094e-02 -1.885445e-02 6.649062e-03 6.501467e-02 -1.648946e-02 1.096131e-01 9.761327e-02 8.632067e-02 8.183117e-02
<VARIANCE> 16
 2.412454e-02 4.295246e-02 4.636593e-02 1.611138e-02 3.457118e-02 4.287448e-02 5.172314e-03 7.568974e-03 1.825788e-02 5.245693e-03 8.483562e-03 1.617559e-02 1.181776e-03 1.000000e-03 1.000000e-03 1.000000e-03
<GCONST> -4.693931e+01
<MIXTURE> 2 6.290724e-01
<MEAN> 16
 4.378356e-01 -4.082191e-01 1.896009e+00 -3.768727e-01 -3.588554e-01 1.868415e+00 -1.387291e-02 2.183141e-02 -2.396833e-03 1.310113e-03 2.400859e-02 -2.816396e-03 9.304950e-02 9.017830e-02 7.907162e-02 7.890244e-02
<VARIANCE> 16
 5.088800e-03 1.064108e-02 4.825834e-02 9.047383e-03 1.148937e-02 4.635968e-02 1.000000e-03 1.609607e-03 4.417043e-03 1.000000e-03 1.611924e-03 3.937423e-03 1.000000e-03 1.000000e-03 1.000000e-03 1.000000e-03
<GCONST> -6.095998e+01
<STATE> 3
<NUMMIXES> 2
<MIXTURE> 1 3.483148e-01
<MEAN> 16
 2.200852e-01 -1.247474e-01 1.844538e+00 -2.214687e-01 -1.151220e-01 1.796920e+00 2.270448e-03 4.069702e-03 2.494166e-02 -4.937064e-03 1.484164e-03 2.266568e-02 9.476539e-02 9.299996e-02 8.512449e-02 7.606880e-02
<VARIANCE> 16
 2.181701e-02 4.989759e-02 1.830886e-02 1.161879e-02 2.539526e-02 1.136556e-02 1.033118e-03 3.152956e-03 5.845674e-03 1.000000e-03 1.999708e-03 5.285459e-03 1.000000e-03 1.000000e-03 1.000000e-03 1.000000e-03
<GCONST> -5.779565e+01
<MIXTURE> 2 6.516829e-01
<MEAN> 16
 2.334857e-01 -2.206483e-01 1.769492e+00 -2.764655e-01 -2.114590e-01 1.719046e+00 -4.020126e-03 1.817589e-03 -1.476961e-02 1.987736e-03 3.877675e-03 -1.355174e-02 8.312994e-02 8.330300e-02 7.881302e-02 7.795531e-02
<VARIANCE> 16
 1.728695e-02 1.342305e-02 1.012670e-02 2.567773e-03 3.988099e-03 8.530279e-03 1.000000e-03 1.000000e-03 2.734056e-03 1.000000e-03 1.000000e-03 2.350593e-03 1.000000e-03 1.000000e-03 1.000000e-03 1.000000e-03
<GCONST> -6.702553e+01
<STATE> 4
<NUMMIXES> 2
<MIXTURE> 1 3.495495e-01
<MEAN> 16
 2.552671e-01 -1.564316e-01 1.599177e+00 -3.221020e-01 1.565692e-02 1.472071e+00 5.434801e-03 -3.126796e-03 5.544172e-03 -4.868503e-03 2.820536e-03 3.160018e-03 9.030586e-02 1.114191e-01 8.375665e-02 8.782159e-02
<VARIANCE> 16
 1.877729e-02 5.261868e-02 2.408443e-02 1.013390e-02 1.562448e-02 1.822208e-02 1.433099e-03 2.710346e-03 3.012178e-03 1.000000e-03 1.234703e-03 2.119470e-03 1.000000e-03 1.000000e-03 1.000000e-03 1.000000e-03
<GCONST> -5.965184e+01
<MIXTURE> 2 6.504486e-01
<MEAN> 16
 2.015629e-01 -2.088377e-02 1.361136e+00 -2.965065e-01 2.368172e-02 1.352281e+00 -6.496076e-04 6.256916e-04 -4.196434e-03 9.972971e-04 1.083402e-04 -3.613614e-03 8.426148e-02 1.014585e-01 8.278207e-02 8.361535e-02
<VARIANCE> 16
 2.441517e-02 1.689902e-02 1.155590e-02 6.441591e-03 3.553496e-03 4.592906e-03 1.000000e-03 1.000000e-03 1.047745e-03 1.000000e-03 1.000000e-03 1.000000e-03 1.000000e-03 1.000000e-03 1.000000e-03 1.000000e-03
<GCONST> -6.794654e+01
<STATE> 5
<MEAN> 16
 3.159261e-01 -2.320776e-01 1.866527e+00 -2.437556e-01 1.980486e-02 1.810180e+00 1.475779e-02 -7.038492e-03 1.929169e-02 -1.269751e-02 4.128450e-03 1.733067e-02 1.134294e-01 1.126773e-01 8.488657e-02 8.602116e-02
<VARIANCE> 16
 1.487646e-02 8.491509e-02 3.400626e-02 1.630582e-02 5.269680e-02 2.697153e-02 6.558302e-03 5.019093e-03 1.291968e-02 2.383956e-03 7.036043e-03 9.052961e-03 1.035949e-03 1.000000e-03 1.000000e-03 1.000000e-03
<GCONST> -4.928827e+01
<TRANSP> 6
 0.000000e+00 1.000000e+00 0.000000e+00 0.000000e+00 0.000000e+00 0.000000e+00
 0.000000e+00 8.807559e-01 1.192441e-01 0.000000e+00 0.000000e+00 0.000000e+00
 0.000000e+00 0.000000e+00 9.375685e-01 6.243147e-02 0.000000e+00 0.000000e+00
 0.000000e+00 0.000000e+00 0.000000e+00 9.550659e-01 4.493411e-02 0.000000e+00
 0.000000e+00 0.000000e+00 0.000000e+00 0.000000e+00 7.131004e-01 2.868996e-01
 0.000000e+00 0.000000e+00 0.000000e+00 0.000000e+00 0.000000e+00 0.000000e+00
<ENDHMM>
~h "man"
<BEGINHMM>
<NUMSTATES> 6
<STATE> 2
<NUMMIXES> 2
<MIXTURE> 1 5.296330e-01
<MEAN> 16
 3.597139e-01 -5.937978e-01 1.942710e+00 -3.740347e-01 -1.549606e-01 1.856508e+00 3.862403e-03 2.039777e-03 1.313657e-02 -7.735032e-03 -6.591507e-03 8.560278e-03 1.156061e-01 9.084760e-02 8.279528e-02 9.654781e-02
<VARIANCE> 16
 2.143876e-02 1.765536e-02 1.393142e-02 9.098923e-03 4.881270e-03 1.669144e-02 1.000000e-03 1.000000e-03 2.988848e-03 1.000000e-03 1.000000e-03 1.543241e-03 1.000000e-03 1.000000e-03 1.000000e-03 1.000000e-03
<GCONST> -6.441044e+01
<MIXTURE> 2 4.703619e-01
<MEAN> 16
 3.950779e-01 -5.790113e-01 1.721452e+00 -3.508873e-01 -9.145126e-02 1.576886e+00 -5.884045e-03 9.767949e-03 -1.856215e-02 -6.910993e-03 -1.498299e-03 -1.559195e-02 1.179347e-01 7.018509e-02 9.077852e-02 9.013757e-02
<VARIANCE> 16
 1.003103e-02 5.462135e-03 1.243077e-02 1.900818e-02 7.612874e-03 1.531894e-02 1.000000e-03 1.000000e-03 2.971404e-03 1.000000e-03 1.000000e-03 1.261099e-03 1.000000e-03 1.000000e-03 1.000000e-03 1.000000e-03
<GCONST> -6.556954e+01
<STATE> 3
<NUMMIXES> 2
<MIXTURE> 1 5.079590e-01
<MEAN> 16
 2.186579e-01 -4.142301e-02 1.924225e+00 -3.708607e-01 -1.372251e-01 1.957052e+00 5.348893e-03 -3.267276e-04 1.171041e-02 -2.836146e-03 -2.555602e-03 1.145070e-02 1.086025e-01 9.873261e-02 8.463044e-02 1.014735e-01
<VARIANCE> 16
 4.843437e-02 3.963894e-02 8.944629e-03 7.542874e-03 7.290171e-03 1.124667e-02 1.135918e-03 2.432326e-03 3.158743e-03 1.000000e-03 1.000000e-03 2.957546e-03 1.000000e-03 1.000000e-03 1.000000e-03 1.000000e-03
<GCONST> -6.168896e+01
<MIXTURE> 2 4.920318e-01
<MEAN> 16
 1.401132e-01 -6.363127e-02 1.738503e+00 -3.883168e-01 -1.442619e-01 1.732229e+00 -8.463962e-03 6.677874e-03 -1.513661e-02 5.703995e-03 1.199379e-03 -1.242214e-02 9.523877e-02 7.305070e-02 7.229247e-02 8.759812e-02
<VARIANCE> 16
 4.584404e-02 1.980507e-02 8.882944e-03 8.765794e-03 3.661757e-03 7.784415e-03 1.980648e-03 2.457886e-03 3.763318e-03 1.000000e-03 1.000000e-03 3.172886e-03 1.000000e-03 1.000000e-03 1.000000e-03 1.000000e-03
<GCONST> -6.253915e+01
<STATE> 4
<NUMMIXES> 2
<MIXTURE> 1 7.049659e-01
<MEAN> 16
 1.987779e-01 -5.733743e-03 1.504297e+00 -3.364703e-01 -1.717568e-02 1.504774e+00 -4.211557e-04 1.019881e-03 -2.239104e-03 8.793843e-04 -9.819755e-04 -6.737658e-04 9.368487e-02 7.447217e-02 7.994732e-02 9.309353e-02
<VARIANCE> 16
 3.390054e-02 1.503091e-02 1.876896e-02 9.138453e-03 1.506293e-03 9.340242e-03 1.000000e-03 1.000000e-03 1.000000e-03 1.000000e-03 1.000000e-03 1.000000e-03 1.000000e-03 1.000000e-03 1.000000e-03 1.000000e-03
<GCONST> -6.709584e+01
<MIXTURE> 2 2.950244e-01
<MEAN> 16
 3.621546e-01 -3.817820e-01 1.700168e+00 -2.947125e-01 -2.990227e-01 1.669194e+00 3.049320e-02 -4.394598e-02 1.603663e-02 5.892234e-03 -4.201069e-02 8.114663e-03 1.014798e-01 8.249889e-02 7.778620e-02 7.568210e-02
<VARIANCE> 16
 5.456507e-02 5.514206e-02 3.318988e-02 1.698575e-02 4.459013e-02 2.982816e-02 3.022449e-03 3.491808e-03 8.864355e-03 1.519651e-03 3.000036e-03 8.338133e-03 1.000000e-03 1.000000e-03 1.000000e-03 1.000000e-03
<GCONST> -5.140469e+01
<STATE> 5
<MEAN> 16
 5.850983e-01 -6.947509e-01 1.855371e+00 -1.869581e-01 -6.046315e-01 1.813240e+00 5.020772e-03 -5.152648e-03 3.501948e-04 2.169675e-03 -5.135250e-03 1.327466e-03 1.162786e-01 1.071374e-01 9.571526e-02 7.565548e-02
<VARIANCE> 16
 1.655394e-02 3.492029e-03 1.527020e-02 1.685313e-02 4.888860e-03 7.360485e-03 1.000000e-03 1.000000e-03 1.788811e-03 1.000000e-03 1.000000e-03 1.424450e-03 1.000000e-03 1.000000e-03 1.000000e-03 1.000000e-03
<GCONST> -6.699209e+01
<TRANSP> 6
 0.000000e+00 1.000000e+00 0.000000e+00 0.000000e+00 0.000000e+00 0.000000e+00
 0.000000e+00 9.256441e-01 7.435588e-02 0.000000e+00 0.000000e+00 0.000000e+00
 0.000000e+00 0.000000e+00 9.725164e-01 2.748367e-02 0.000000e+00 0.000000e+00
 0.000000e+00 0.000000e+00 0.000000e+00 9.574426e-01 4.255743e-02 0.000000e+00
 0.000000e+00 0.000000e+00 0.000000e+00 0.000000e+00 9.561348e-01 4.386522e-02
 0.000000e+00 0.000000e+00 0.000000e+00 0.000000e+00 0.000000e+00 0.000000e+00
<ENDHMM>
~h "monkey"
<BEGINHMM>
<NUMSTATES> 6
<STATE> 2
<NUMMIXES> 2
<MIXTURE> 1 3.492209e-01
<MEAN> 16
 3.917546e-01 -5.042896e-01 2.211945e+00 -2.661710e-01 -1.782774e-02 1.990580e+00 5.064423e-04 -2.112562e-05 4.706911e-03 1.091665e-03 -8.006729e-03 3.293537e-03 1.083247e-01 1.179909e-01 8.958514e-02 7.985844e-02
<VARIANCE> 16
 7.428989e-03 2.592905e-03 8.772106e-03 1.064598e-03 1.835274e-02 4.064401e-03 1.000000e-03 1.000000e-03 2.286577e-03 1.000000e-03 1.000000e-03 1.371801e-03 1.509884e-03 1.000000e-03 1.000000e-03 1.000000e-03
<GCONST> -7.005846e+01
<MIXTURE> 2 6.507785e-01
<MEAN> 16
 3.039685e-01 -3.944786e-01 1.958959e+00 -3.424924e-01 1.169890e-02 1.741652e+00 1.074770e-03 -3.068561e-04 -5.729150e-03 -2.355861e-04 -1.810478e-03 -5.258746e-03 1.056340e-01 1.007444e-01 9.030711e-02 6.739751e-02
<VARIANCE> 16
 9.780742e-03 7.925751e-03 1.839767e-02 9.549741e-03 9.276637e-03 1.560044e-02 1.000000e-03 1.000000e-03 1.704494e-03 1.000000e-03 1.000000e-03 1.039153e-03 1.299687e-03 1.000000e-03 1.000000e-03 1.000000e-03
<GCONST> -6.579018e+01
<STATE> 3
<NUMMIXES> 2
<MIXTURE> 1 3.921255e-01
<MEAN> 16
 2.952298e-01 1.357394e-02 1.998434e+00 -3.009975e-01 -2.124438e-02 1.971916e+00 2.278316e-03 7.135963e-03 3.487422e-03 -2.168984e-03 -1.572929e-03 6.582169e-03 1.169141e-01 1.194518e-01 9.345429e-02 8.057264e-02
<VARIANCE> 16
 3.556319e-02 3.510801e-02 1.117442e-02 7.096044e-03 3.269411e-03 1.150692e-02 2.389292e-03 4.244214e-03 6.516821e-03 1.000000e-03 1.000000e-03 5.688491e-03 1.000000e-03 1.000000e-03 1.000000e-03 1.000000e-03
<GCONST> -6.005821e+01
<MIXTURE> 2 6.078602e-01
<MEAN> 16
 1.493733e-01 -2.919834e-02 1.806805e+00 -3.359027e-01 -5.941546e-02 1.792650e+00 -2.533414e-03 -2.476175e-04 -6.274633e-03 2.267412e-03 -1.227485e-03 -4.482939e-03 9.917616e-02 1.002069e-01 7.804517e-02 6.578469e-02
<VARIANCE> 16
 4.581024e-02 2.118738e-02 9.351004e-03 1.189803e-02 6.547637e-03 8.718386e-03 1.000000e-03 1.020615e-03 1.744280e-03 1.000000e-03 1.000000e-03 1.478830e-03 1.000000e-03 1.000000e-03 1.000000e-03 1.000000e-03
<GCONST> -6.451575e+01
<STATE> 4
<NUMMIXES> 2
<MIXTURE> 1 5.605369e-01
<MEAN> 16
 2.192588e-01 1.273627e-02 1.583535e+00 -3.031061e-01 6.475222e-02 1.584458e+00 1.590811e-04 3.925069e-04 -1.921629e-03 -3.295883e-04 -9.183194e-04 -1.679616e-04 1.030352e-01 1.016310e-01 8.168966e-02 6.930047e-02
<VARIANCE> 16
 3.160014e-02 1.219569e-02 1.272485e-02 3.655827e-03 2.026720e-03 7.948303e-03 1.000000e-03 1.010759e-03 1.000000e-03 1.000000e-03 1.000000e-03 1.000000e-03 1.000000e-03 1.000000e-03 1.000000e-03 1.000000e-03
<GCONST> -6.853386e+01
<MIXTURE> 2 4.394597e-01
<MEAN> 16
 4.108028e-01 -4.694571e-01 1.786803e+00 -2.558419e-01 -3.391254e-01 1.742245e+00 3.038895e-02 -5.316210e-02 1.455798e-02 9.420259e-03 -4.823799e-02 5.391445e-03 1.075984e-01 8.997874e-02 7.927296e-02 6.994990e-02
<VARIANCE> 16
 5.147655e-02 3.137349e-02 2.678968e-02 1.173534e-02 3.747740e-02 2.498147e-02 1.813520e-03 2.647018e-03 9.033673e-03 1.000000e-03 2.257802e-03 6.372263e-03 1.000000e-03 1.000000e-03 1.000000e-03 1.000000e-03
<GCONST> -5.470247e+01
<STATE> 5
<MEAN> 16
 5.889715e-01 -6.991524e-01 1.854322e+00 -1.969620e-01 -6.142895e-01 1.807773e+00 3.380883e-03 -3.927951e-03 1.997375e-05 1.445950e-03 -4.029738e-03 1.466142e-03 1.144650e-01 1.099527e-01 9.673870e-02 7.439940e-02
<VARIANCE> 16
 1.153636e-02 2.938969e-03 1.621003e-02 1.860476e-02 4.540425e-03 5.708064e-03 1.000000e-03 1.000000e-03 1.102468e-03 1.000000e-03 1.000000e-03 1.337471e-03 1.000000e-03 1.000000e-03 1.000000e-03 1.000000e-03
<GCONST> -6.824221e+01
<TRANSP> 6
 0.000000e+00 1.000000e+00 0.000000e+00 0.000000e+00 0.000000e+00 0.000000e+00
 0.000000e+00 9.268744e-01 7.312560e-02 0.000000e+00 0.000000e+00 0.000000e+00
 0.000000e+00 0.000000e+00 9.727597e-01 2.724027e-02 0.000000e+00 0.000000e+00
 0.000000e+00 0.000000e+00 0.000000e+00 9.402722e-01 5.972782e-02 0.000000e+00
 0.000000e+00 0.000000e+00 0.000000e+00 0.000000e+00 9.586781e-01 4.132195e-02
 0.000000e+00 0.000000e+00 0.000000e+00 0.000000e+00 0.000000e+00 0.000000e+00
<ENDHMM>
~h "bumps_into_each_other"
<BEGINHMM>
<NUMSTATES> 6
<STATE> 2
<NUMMIXES> 2
<MIXTURE> 1 3.611424e-01
<MEAN> 16
 3.610057e-01 -4.195020e-01 2.037848e+00 -3.046490e-01 -2.564062e-01 1.963224e+00 -7.869001e-03 2.285704e-02 1.891424e-02 -1.366893e-02 4.324118e-02 1.395331e-02 1.085447e-01 9.445731e-02 9.210093e-02 8.227633e-02
<VARIANCE> 16
 1.483615e-02 2.463918e-02 3.065446e-02 1.302189e-02 4.467140e-02 3.881084e-02 3.751419e-03 6.316056e-03 1.238178e-02 3.456619e-03 6.943863e-03 1.201693e-02 1.344899e-03 1.000000e-03 1.019101e-03 1.000000e-03
<GCONST> -5.010805e+01
<MIXTURE> 2 6.388556e-01
<MEAN> 16
 4.471985e-01 -3.898127e-01 1.894947e+00 -4.201091e-01 -3.429315e-01 1.888330e+00 -1.030567e-02 1.562888e-02 -5.270553e-03 2.839516e-03 1.960486e-02 -9.020573e-03 8.834866e-02 8.867676e-02 8.250205e-02 8.170704e-02
<VARIANCE> 16
 4.897168e-03 1.129338e-02 4.464331e-02 6.080282e-03 1.261084e-02 4.030579e-02 1.000000e-03 1.000000e-03 3.236134e-03 1.000000e-03 1.217760e-03 3.193700e-03 1.000000e-03 1.000000e-03 1.000000e-03 1.000000e-03
<GCONST> -6.273780e+01
<STATE> 3
<NUMMIXES> 2
<MIXTURE> 1 4.940007e-01
<MEAN> 16
 3.159952e-01 -1.825797e-01 1.955040e+00 -2.478777e-01 -1.168763e-01 1.893147e+00 7.553582e-03 -2.744388e-03 2.704792e-02 -5.479898e-03 -7.265595e-04 2.575575e-02 9.476297e-02 1.016609e-01 9.131427e-02 8.633383e-02
<VARIANCE> 16
 1.146602e-02 4.872998e-02 1.062337e-02 5.966932e-03 3.522868e-02 8.237697e-03 1.000000e-03 2.065389e-03 4.344987e-03 1.000000e-03 1.106335e-03 3.942683e-03 1.000000e-03 1.000000e-03 1.000000e-03 1.000000e-03
<GCONST> -6.130525e+01
<MIXTURE> 2 5.059924e-01
<MEAN> 16
 2.968464e-01 -1.624546e-01 1.794870e+00 -2.188375e-01 -1.496174e-01 1.756544e+00 -1.070200e-02 1.199795e-02 -3.088072e-02 4.948054e-03 7.882032e-03 -2.798042e-02 8.020110e-02 8.610544e-02 7.468650e-02 7.174791e-02
<VARIANCE> 16
 1.163717e-02 2.729839e-02 6.998065e-03 6.592489e-03 1.587197e-02 6.727614e-03 1.129616e-03 3.898031e-03 5.219248e-03 1.000000e-03 2.950377e-03 4.639953e-03 1.000000e-03 1.000000e-03 1.000000e-03 1.000000e-03
<GCONST> -6.110335e+01
<STATE> 4
<NUMMIXES> 2
<MIXTURE> 1 4.258776e-01
<MEAN> 16
 3.179430e-01 -1.065058e-01 1.635307e+00 -3.500566e-01 8.093883e-02 1.555503e+00 9.464422e-03 -4.143313e-03 9.486314e-03 -9.338870e-03 4.399748e-04 8.174860e-03 9.628151e-02 1.126155e-01 8.420932e-02 8.231327e-02
<VARIANCE> 16
 1.386002e-02 5.815538e-02 2.315679e-02 8.527769e-03 1.063946e-02 1.419256e-02 1.000000e-03 1.000000e-03 1.499709e-03 1.000000e-03 1.000000e-03 1.060373e-03 1.000000e-03 1.000000e-03 1.000000e-03 1.000000e-03
<GCONST> -6.365913e+01
<MIXTURE> 2 5.741196e-01
<MEAN> 16
 2.333372e-01 -6.669009e-03 1.445364e+00 -3.037518e-01 5.959838e-02 1.432373e+00 -4.762222e-03 5.781180e-03 -9.482753e-03 4.507772e-03 1.455479e-03 -7.599717e-03 7.994970e-02 1.009341e-01 7.411753e-02 8.107371e-02
<VARIANCE> 16
 1.321117e-02 2.438636e-02 7.833590e-03 1.023501e-02 4.777130e-03 3.614615e-03 1.000000e-03 2.024036e-03 1.425350e-03 1.000000e-03 1.000000e-03 1.169875e-03 1.000000e-03 1.000000e-03 1.000000e-03 1.000000e-03
<GCONST> -6.689350e+01
<STATE> 5
<MEAN> 16
 4.368482e-01 -3.258874e-01 1.781377e+00 -3.467552e-01 -1.180914e-01 1.719217e+00 1.778193e-02 -4.385448e-02 3.230487e-02 -6.206394e-03 -3.834223e-02 2.287195e-02 9.330684e-02 9.195913e-02 8.089464e-02 7.856107e-02
<VARIANCE> 16
 1.630397e-02 3.551254e-02 5.656846e-02 1.454940e-02 3.527853e-02 4.009237e-02 1.000000e-03 1.722186e-03 6.296577e-03 1.000000e-03 3.229348e-03 5.542103e-03 1.000000e-03 1.000000e-03 1.000000e-03 1.000000e-03
<GCONST> -5.552105e+01
<TRANSP> 6
 0.000000e+00 1.000000e+00 0.000000e+00 0.000000e+00 0.000000e+00 0.000000e+00
 0.000000e+00 8.853126e-01 1.146875e-01 0.000000e+00 0.000000e+00 0.000000e+00
 0.000000e+00 0.000000e+00 9.640604e-01 3.593956e-02 0.000000e+00 0.000000e+00
 0.000000e+00 0.000000e+00 0.000000e+00 9.459370e-01 5.406299e-02 0.000000e+00
 0.000000e+00 0.000000e+00 0.000000e+00 0.000000e+00 4.780916e-01 5.219083e-01
 0.000000e+00 0.000000e+00 0.000000e+00 0.000000e+00 0.000000e+00 0.000000e+00
<ENDHMM>
~h "jumps_on"
<BEGINHMM>
<NUMSTATES> 6
<STATE> 2
<NUMMIXES> 2
<MIXTURE> 1 4.481794e-01
<MEAN> 16
 3.817949e-01 -3.973347e-01 2.085615e+00 -3.258351e-01 -3.338156e-01 2.051568e+00 -8.611385e-03 2.543877e-02 1.942497e-02 -4.041418e-03 3.296620e-02 1.386264e-02 9.739332e-02 9.553204e-02 9.137693e-02 8.523982e-02
<VARIANCE> 16
 1.343245e-02 1.784004e-02 3.079804e-02 1.068251e-02 3.851433e-02 3.094395e-02 2.457640e-03 5.875091e-03 1.012066e-02 3.028702e-03 1.031374e-02 1.093277e-02 1.087489e-03 1.000000e-03 1.000000e-03 1.000000e-03
<GCONST> -5.185792e+01
<MIXTURE> 2 5.518187e-01
<MEAN> 16
 3.893837e-01 -3.981245e-01 1.811273e+00 -3.195315e-01 -3.350336e-01 1.791005e+00 -2.183683e-02 3.438540e-02 -2.419615e-02 5.342948e-03 3.470440e-02 -2.254199e-02 9.227678e-02 8.774502e-02 7.769427e-02 7.713456e-02
<VARIANCE> 16
 1.109786e-02 1.162906e-02 3.208260e-02 1.821337e-02 2.018172e-02 3.150429e-02 1.000000e-03 2.100086e-03 3.763699e-03 1.000000e-03 1.798290e-03 3.159969e-03 1.000000e-03 1.000000e-03 1.000000e-03 1.000000e-03
<GCONST> -5.962765e+01
<STATE> 3
<NUMMIXES> 2
<MIXTURE> 1 5.281656e-01
<MEAN> 16
 2.917274e-01 -1.726642e-01 1.900099e+00 -2.394956e-01 -1.256597e-01 1.811942e+00 4.670344e-03 1.115710e-03 2.706187e-02 -4.435239e-03 -1.452772e-03 2.553681e-02 9.864433e-02 1.065972e-01 8.602358e-02 8.909438e-02
<VARIANCE> 16
 1.473766e-02 5.411794e-02 9.469426e-03 3.414612e-03 2.187776e-02 1.106505e-02 1.000000e-03 1.458448e-03 3.253542e-03 1.000000e-03 1.000000e-03 2.871372e-03 1.000000e-03 1.000000e-03 1.000000e-03 1.000000e-03
<GCONST> -6.285919e+01
<MIXTURE> 2 4.718321e-01
<MEAN> 16
 2.644949e-01 -1.364694e-01 1.757483e+00 -2.122196e-01 -1.408819e-01 1.703577e+00 -1.887447e-02 2.523985e-02 -3.731989e-02 8.066202e-03 1.148613e-02 -3.256377e-02 8.665378e-02 9.284009e-02 7.555676e-02 7.494521e-02
<VARIANCE> 16
 1.197525e-02 3.579491e-02 7.894480e-03 4.183081e-03 1.712055e-02 8.012359e-03 1.001992e-03 3.954178e-03 4.351342e-03 1.000000e-03 2.570758e-03 3.890266e-03 1.000000e-03 1.000000e-03 1.000000e-03 1.000000e-03
<GCONST> -6.148901e+01
<STATE> 4
<NUMMIXES> 2
<MIXTURE> 1 4.788332e-01
<MEAN> 16
 1.878424e-01 -8.454650e-02 1.653770e+00 -2.134914e-01 1.126887e-02 1.503262e+00 -1.759948e-03 2.782785e-03 3.466310e-03 -3.758286e-04 1.161212e-03 2.749692e-03 9.886691e-02 1.113521e-01 8.597457e-02 8.718580e-02
<VARIANCE> 16
 3.265811e-02 6.455808e-02 2.226792e-02 7.641802e-03 7.719828e-03 1.681032e-02 1.000000e-03 1.806094e-03 3.373692e-03 1.000000e-03 1.000000e-03 2.100673e-03 1.000000e-03 1.010028e-03 1.000000e-03 1.000000e-03
<GCONST> -6.090242e+01
<MIXTURE> 2 5.211633e-01
<MEAN> 16
 3.557666e-02 5.423036e-02 1.415867e+00 -1.560984e-01 -1.828069e-02 1.375401e+00 -5.882896e-03 4.342738e-03 -4.431824e-03 1.521084e-03 -1.015091e-04 -3.933830e-03 9.075965e-02 9.044754e-02 6.943884e-02 8.020638e-02
<VARIANCE> 16
 3.967564e-02 2.943487e-02 1.238834e-02 3.959878e-03 3.208868e-03 7.344007e-03 1.000000e-03 1.081280e-03 1.000000e-03 1.000000e-03 1.000000e-03 1.000000e-03 1.000000e-03 1.000000e-03 1.000000e-03 1.000000e-03
<GCONST> -6.692422e+01
<STATE> 5
<MEAN> 16
 -1.043675e-01 -3.153624e-02 1.722330e+00 -6.593068e-02 -1.055685e-01 1.706776e+00 8.245790e-03 -9.098725e-03 7.219335e-04 -3.743521e-03 5.832526e-04 1.905766e-03 9.222816e-02 9.274371e-02 7.182337e-02 8.240718e-02
<VARIANCE> 16
 3.224923e-02 3.179776e-02 1.675766e-02 1.713484e-02 1.875861e-02 1.867583e-02 4.239619e-03 1.838905e-03 5.497302e-03 6.096199e-03 3.042985e-03 7.773274e-03 1.000000e-03 1.796225e-03 1.000000e-03 1.000000e-03
<GCONST> -5.335153e+01
<TRANSP> 6
 0.000000e+00 1.000000e+00 0.000000e+00 0.000000e+00 0.000000e+00 0.000000e+00
 0.000000e+00 8.677533e-01 1.322467e-01 0.000000e+00 0.000000e+00 0.000000e+00
 0.000000e+00 0.000000e+00 9.444162e-01 5.558386e-02 0.000000e+00 0.000000e+00
 0.000000e+00 0.000000e+00 0.000000e+00 9.671180e-01 3.288204e-02 0.000000e+00
 0.000000e+00 0.000000e+00 0.000000e+00 0.000000e+00 8.659095e-01 1.340906e-01
 0.000000e+00 0.000000e+00 0.000000e+00 0.000000e+00 0.000000e+00 0.000000e+00
<ENDHMM>
~h "house"
<BEGINHMM>
<NUMSTATES> 6
<STATE> 2
<NUMMIXES> 2
<MIXTURE> 1 4.419626e-01
<MEAN> 16
 2.715514e-01 3.998031e-02 1.925614e+00 -2.426117e-01 6.056886e-02 1.916016e+00 1.261771e-02 -1.880918e-02 2.509034e-02 -1.205920e-02 -1.703611e-02 2.273258e-02 1.597039e-01 1.498170e-01 9.513143e-02 9.812893e-02
<VARIANCE> 16
 1.086950e-02 5.417976e-02 1.564797e-02 8.996590e-03 4.489127e-02 1.534311e-02 1.000000e-03 1.628644e-03 4.031682e-03 1.000000e-03 1.950583e-03 3.559786e-03 1.000000e-03 1.000000e-03 1.000000e-03 1.000000e-03
<GCONST> -5.943793e+01
<MIXTURE> 2 5.580339e-01
<MEAN> 16
 2.959294e-01 -4.114358e-01 1.956917e+00 -2.969650e-01 -4.100258e-02 1.829753e+00 -2.052394e-03 -7.318883e-03 -1.514004e-02 5.154882e-04 8.376769e-03 -1.861799e-02 1.137939e-01 1.284511e-01 8.375304e-02 1.006940e-01
<VARIANCE> 16
 4.033444e-03 2.821999e-02 1.976543e-02 2.133479e-03 3.302407e-02 1.363389e-02 1.000000e-03 1.506474e-03 6.554532e-03 1.000000e-03 2.034071e-03 4.277572e-03 1.176568e-03 1.000000e-03 1.000000e-03 1.000000e-03
<GCONST> -6.191597e+01
<STATE> 3
<NUMMIXES> 2
<MIXTURE> 1 4.123042e-01
<MEAN> 16
 3.063248e-01 -4.507725e-02 1.936754e+00 -3.044539e-01 5.405160e-02 1.831665e+00 4.198144e-03 4.702059e-03 1.172997e-02 -3.453240e-03 -1.013469e-03 1.123596e-02 1.160411e-01 1.246372e-01 8.919901e-02 1.064640e-01
<VARIANCE> 16
 2.731470e-02 5.110971e-02 1.203733e-02 2.516102e-03 2.508989e-03 1.006370e-02 2.090555e-03 4.096005e-03 6.535019e-03 1.000000e-03 1.000000e-03 4.998671e-03 1.000000e-03 1.000000e-03 1.000000e-03 1.000000e-03
<GCONST> -6.160333e+01
<MIXTURE> 2 5.876921e-01
<MEAN> 16
 1.917597e-01 -5.058338e-02 1.778674e+00 -3.526124e-01 -1.190804e-02 1.657468e+00 -4.897303e-03 -6.897977e-04 -1.024243e-02 1.838267e-03 -2.217446e-03 -8.226262e-03 1.041540e-01 1.103733e-01 7.588981e-02 9.274698e-02
<VARIANCE> 16
 3.357694e-02 1.996696e-02 1.218167e-02 2.392212e-03 5.337610e-03 6.593456e-03 1.000000e-03 1.000000e-03 2.680805e-03 1.000000e-03 1.000000e-03 2.146576e-03 1.000000e-03 1.000000e-03 1.000000e-03 1.000000e-03
<GCONST> -6.592714e+01
<STATE> 4
<NUMMIXES> 2
<MIXTURE> 1 6.627356e-01
<MEAN> 16
 1.788411e-01 -1.031782e-01 1.675277e+00 -2.325130e-01 -1.521944e-03 1.620552e+00 8.358721e-04 -2.533664e-03 -1.902936e-04 8.241406e-04 -8.506733e-04 -8.460932e-05 9.403837e-02 8.557282e-02 7.767641e-02 9.080489e-02
<VARIANCE> 16
 5.622035e-02 2.934446e-02 1.254956e-02 6.841987e-03 2.562735e-02 6.563263e-03 1.000000e-03 1.000000e-03 1.000000e-03 1.000000e-03 1.000000e-03 1.000000e-03 1.000000e-03 1.000000e-03 1.000000e-03 1.000000e-03
<GCONST> -6.413176e+01
<MIXTURE> 2 3.372560e-01
<MEAN> 16
 3.199430e-01 -3.028562e-01 1.752155e+00 -2.844262e-01 -1.948044e-01 1.684087e+00 2.280805e-02 -3.824569e-02 1.087064e-02 4.777669e-03 -3.286939e-02 6.857895e-03 1.013867e-01 8.975089e-02 7.892703e-02 8.467227e-02
<VARIANCE> 16
 6.246434e-02 5.307156e-02 2.905988e-02 1.058095e-02 3.868411e-02 2.487240e-02 3.363086e-03 3.341013e-03 1.225535e-02 1.207320e-03 2.176032e-03 9.322938e-03 1.019555e-03 1.000000e-03 1.000000e-03 1.000000e-03
<GCONST> -5.227137e+01
<STATE> 5
<MEAN> 16
 5.867358e-01 -6.965104e-01 1.859213e+00 -1.980457e-01 -6.005120e-01 1.811427e+00 4.774669e-03 -4.786889e-03 4.638467e-04 2.369873e-03 -6.726974e-03 3.129239e-03 1.157134e-01 1.085615e-01 9.781752e-02 7.215341e-02
<VARIANCE> 16
 1.767923e-02 3.256335e-03 1.589281e-02 1.722842e-02 6.703717e-03 7.954479e-03 1.000000e-03 1.000000e-03 1.280068e-03 1.000000e-03 1.000000e-03 1.361733e-03 1.000000e-03 1.000000e-03 1.000000e-03 1.000000e-03
<GCONST> -6.692057e+01
<TRANSP> 6
 0.000000e+00 1.000000e+00 0.000000e+00 0.000000e+00 0.000000e+00 0.000000e+00
 0.000000e+00 9.443387e-01 5.566121e-02 0.000000e+00 0.000000e+00 0.000000e+00
 0.000000e+00 0.000000e+00 9.750688e-01 2.493121e-02 0.000000e+00 0.000000e+00
 0.000000e+00 0.000000e+00 0.000000e+00 9.648281e-01 3.517185e-02 0.000000e+00
 0.000000e+00 0.000000e+00 0.000000e+00 0.000000e+00 9.617131e-01 3.828692e-02
 0.000000e+00 0.000000e+00 0.000000e+00 0.000000e+00 0.000000e+00 0.000000e+00
<ENDHMM>
~h "bumps_into"
<BEGINHMM>
<NUMSTATES> 6
<STATE> 2
<NUMMIXES> 2
<MIXTURE> 1 4.919955e-01
<MEAN> 16
 3.496923e-01 -3.893766e-01 2.087062e+00 -3.575538e-01 -3.306987e-01 2.056188e+00 5.499945e-04 9.206802e-03 2.636879e-02 -6.251998e-03 1.378945e-02 2.092808e-02 8.885971e-02 8.636056e-02 8.383308e-02 8.676145e-02
<VARIANCE> 16
 2.055773e-02 2.741126e-02 1.984994e-02 1.577934e-02 1.749614e-02 1.665916e-02 1.544024e-03 2.497756e-03 8.199245e-03 2.148062e-03 2.666406e-03 8.131593e-03 1.000000e-03 1.000000e-03 1.000000e-03 1.000000e-03
<GCONST> -5.606714e+01
<MIXTURE> 2 5.080042e-01
<MEAN> 16
 4.164293e-01 -4.091853e-01 1.781984e+00 -3.314162e-01 -3.574453e-01 1.756909e+00 -2.474071e-02 3.777077e-02 -2.602777e-02 2.910295e-03 4.097471e-02 -2.617964e-02 9.332112e-02 8.947863e-02 7.975745e-02 7.759812e-02
<VARIANCE> 16
 1.300560e-02 1.184759e-02 2.595881e-02 1.886759e-02 1.448883e-02 2.458696e-02 1.000000e-03 2.303096e-03 3.466757e-03 1.000000e-03 1.974538e-03 3.223181e-03 1.000000e-03 1.000000e-03 1.000000e-03 1.000000e-03
<GCONST> -6.008282e+01
<STATE> 3
<NUMMIXES> 2
<MIXTURE> 1 1.649638e-01
<MEAN> 16
 2.884178e-01 -2.140201e-01 1.839933e+00 -2.159936e-01 -1.448708e-01 1.781807e+00 -2.951304e-02 4.886960e-02 -1.989307e-02 6.935044e-03 5.722445e-02 -1.588402e-02 1.024315e-01 9.600587e-02 8.188703e-02 7.659773e-02
<VARIANCE> 16
 2.088693e-02 3.902356e-02 2.380476e-02 8.535513e-03 2.206865e-02 1.876983e-02 5.874213e-03 1.112541e-02 2.068551e-02 3.673922e-03 1.586133e-02 1.871801e-02 1.195273e-03 1.000000e-03 1.000000e-03 1.000000e-03
<GCONST> -4.869199e+01
<MIXTURE> 2 8.350316e-01
<MEAN> 16
 2.947845e-01 -1.669498e-01 1.812454e+00 -2.496677e-01 -1.595266e-01 1.759461e+00 -3.496607e-03 7.427475e-03 -2.274601e-03 6.620776e-04 3.759293e-03 -1.120663e-03 8.524342e-02 9.328621e-02 7.961426e-02 7.394046e-02
<VARIANCE> 16
 1.216449e-02 2.714755e-02 1.059789e-02 3.385438e-03 8.166499e-03 8.400360e-03 1.000000e-03 1.899215e-03 2.525495e-03 1.000000e-03 1.017722e-03 2.252888e-03 1.000000e-03 1.000000e-03 1.000000e-03 1.000000e-03
<GCONST> -6.511214e+01
<STATE> 4
<NUMMIXES> 2
<MIXTURE> 1 1.438307e-01
<MEAN> 16
 1.562483e-01 -5.196912e-02 1.689911e+00 -1.942246e-01 2.280495e-02 1.656596e+00 9.922357e-03 9.984315e-03 1.083664e-02 -1.182189e-02 2.294607e-02 1.054106e-02 1.108076e-01 1.086949e-01 8.330759e-02 8.093700e-02
<VARIANCE> 16
 3.363047e-02 5.433929e-02 4.374749e-02 2.110684e-02 1.834444e-02 3.551355e-02 1.004771e-02 4.027877e-03 1.130644e-02 9.654269e-03 4.561598e-03 1.030022e-02 1.000000e-03 1.000000e-03 1.000000e-03 1.000000e-03
<GCONST> -4.805690e+01
<MIXTURE> 2 8.561673e-01
<MEAN> 16
 2.268055e-01 -4.699258e-02 1.477024e+00 -3.006704e-01 3.178407e-02 1.406818e+00 -4.045895e-04 4.399346e-04 -2.251374e-03 7.423808e-04 2.011793e-03 -2.464078e-03 8.835366e-02 1.035277e-01 7.748881e-02 8.385594e-02
<VARIANCE> 16
 2.103833e-02 2.978041e-02 1.837741e-02 9.033867e-03 5.368881e-03 1.174140e-02 1.000000e-03 1.089658e-03 1.286837e-03 1.000000e-03 1.000000e-03 1.006051e-03 1.000000e-03 1.000000e-03 1.000000e-03 1.000000e-03
<GCONST> -6.507793e+01
<STATE> 5
<MEAN> 16
 2.891544e-01 -2.573142e-01 1.830864e+00 -2.037578e-01 9.196301e-02 1.787672e+00 5.887522e-03 -8.658207e-03 7.773560e-03 -8.255010e-03 1.010546e-04 7.777785e-03 1.187479e-01 1.182603e-01 9.214499e-02 8.602270e-02
<VARIANCE> 16
 1.110981e-02 1.123058e-01 2.498911e-02 1.162573e-02 3.204442e-02 2.646405e-02 1.000000e-03 1.726708e-03 1.372044e-03 1.000000e-03 3.280811e-03 1.185654e-03 1.019998e-03 1.000000e-03 1.000000e-03 1.000000e-03
<GCONST> -5.933373e+01
<TRANSP> 6
 0.000000e+00 1.000000e+00 0.000000e+00 0.000000e+00 0.000000e+00 0.000000e+00
 0.000000e+00 8.708798e-01 1.291202e-01 0.000000e+00 0.000000e+00 0.000000e+00
 0.000000e+00 0.000000e+00 9.249102e-01 7.508977e-02 0.000000e+00 0.000000e+00
 0.000000e+00 0.000000e+00 0.000000e+00 9.430900e-01 5.691005e-02 0.000000e+00
 0.000000e+00 0.000000e+00 0.000000e+00 0.000000e+00 6.589344e-01 3.410656e-01
 0.000000e+00 0.000000e+00 0.000000e+00 0.000000e+00 0.000000e+00 0.000000e+00
<ENDHMM>
~h "goes_to"
<BEGINHMM>
<NUMSTATES> 6
<STATE> 2
<NUMMIXES> 2
<MIXTURE> 1 5.039169e-01
<MEAN> 16
 3.494798e-01 -3.491791e-01 2.002088e+00 -2.334432e-01 -2.313662e-01 1.963878e+00 -4.978287e-03 2.433514e-02 1.891655e-02 -2.340318e-03 2.502792e-02 1.630330e-02 1.044725e-01 9.652931e-02 8.956017e-02 8.291647e-02
<VARIANCE> 16
 1.707545e-02 6.130135e-02 2.903105e-02 2.660508e-02 8.178111e-02 2.898683e-02 2.339425e-03 6.455291e-03 1.185475e-02 3.092233e-03 7.459824e-03 1.097547e-02 1.010079e-03 1.000000e-03 1.000000e-03 1.000000e-03
<GCONST> -4.901261e+01
<MIXTURE> 2 4.960803e-01
<MEAN> 16
 4.282358e-01 -4.216116e-01 1.798798e+00 -3.305151e-01 -3.474927e-01 1.778206e+00 -2.894231e-02 4.630240e-02 -3.002143e-02 4.422898e-03 4.746170e-02 -2.617743e-02 9.235567e-02 8.697455e-02 7.610548e-02 7.427331e-02
<VARIANCE> 16
 8.786908e-03 1.273429e-02 3.882727e-02 1.765637e-02 2.485464e-02 3.716310e-02 1.000000e-03 2.774766e-03 3.954062e-03 1.000000e-03 2.809755e-03 3.376989e-03 1.000000e-03 1.000000e-03 1.000000e-03 1.000000e-03
<GCONST> -5.839653e+01
<STATE> 3
<NUMMIXES> 2
<MIXTURE> 1 4.807068e-01
<MEAN> 16
 2.870681e-01 -2.766108e-01 1.942625e+00 -2.956434e-01 -2.114809e-01 1.878265e+00 2.457199e-03 3.371891e-05 1.946283e-02 -5.260095e-03 -2.001682e-03 1.782146e-02 8.777115e-02 9.459154e-02 8.628806e-02 8.328763e-02
<VARIANCE> 16
 1.850831e-02 3.203576e-02 1.316786e-02 7.436784e-03 7.509629e-03 7.270973e-03 1.000000e-03 1.141446e-03 2.737029e-03 1.000000e-03 1.000000e-03 2.365975e-03 1.000000e-03 1.000000e-03 1.000000e-03 1.000000e-03
<GCONST> -6.414833e+01
<MIXTURE> 2 5.192872e-01
<MEAN> 16
 1.992735e-01 -1.851779e-01 1.761211e+00 -2.383163e-01 -1.919436e-01 1.742499e+00 -1.132976e-02 8.182413e-03 -2.046636e-02 5.040056e-03 6.732086e-03 -1.814101e-02 8.836184e-02 9.156943e-02 7.227550e-02 7.594059e-02
<VARIANCE> 16
 3.205832e-02 1.736413e-02 7.199674e-03 6.457706e-03 4.208570e-03 6.734053e-03 1.000000e-03 2.450331e-03 2.941547e-03 1.000000e-03 1.000000e-03 2.644175e-03 1.000000e-03 1.000000e-03 1.000000e-03 1.000000e-03
<GCONST> -6.466496e+01
<STATE> 4
<NUMMIXES> 2
<MIXTURE> 1 4.504538e-01
<MEAN> 16
 2.501630e-01 -1.825160e-01 1.595330e+00 -2.890500e-01 7.327762e-03 1.469857e+00 -1.832459e-03 3.833236e-03 -1.017057e-03 -1.853956e-04 3.086488e-03 -3.188254e-03 9.048133e-02 1.023295e-01 7.867189e-02 8.333805e-02
<VARIANCE> 16
 1.394387e-02 5.134914e-02 2.021434e-02 8.384063e-03 1.061599e-02 2.235148e-02 1.000000e-03 2.217337e-03 2.913992e-03 1.000000e-03 1.000000e-03 2.054090e-03 1.000000e-03 1.000000e-03 1.000000e-03 1.000000e-03
<GCONST> -6.135673e+01
<MIXTURE> 2 5.495414e-01
<MEAN> 16
 9.441841e-02 1.570726e-02 1.388350e+00 -2.871093e-01 2.030863e-02 1.375535e+00 -5.031217e-03 1.488920e-03 -2.713650e-03 1.585301e-04 4.745661e-04 -1.016123e-03 8.866542e-02 9.497759e-02 7.690459e-02 8.080932e-02
<VARIANCE> 16
 4.864641e-02 7.485845e-03 7.870584e-03 6.232421e-03 2.598094e-03 6.393996e-03 1.000000e-03 1.000000e-03 1.000000e-03 1.000000e-03 1.000000e-03 1.000000e-03 1.000000e-03 1.000000e-03 1.000000e-03 1.000000e-03
<GCONST> -6.851743e+01
<STATE> 5
<MEAN> 16
 1.933938e-01 -1.473678e-01 1.704790e+00 -2.357479e-01 -2.082221e-01 1.731077e+00 1.768648e-02 -6.206585e-03 6.300784e-03 -1.404139e-02 -3.706872e-03 1.061342e-02 9.790873e-02 1.009479e-01 7.910230e-02 7.724455e-02
<VARIANCE> 16
 4.548986e-02 3.608837e-02 4.683113e-02 2.500864e-02 9.678102e-02 3.677851e-02 1.012632e-02 4.919332e-03 1.224514e-02 7.162191e-03 5.137173e-03 1.082120e-02 1.000000e-03 1.163538e-03 1.000000e-03 1.000000e-03
<GCONST> -4.591973e+01
<TRANSP> 6
 0.000000e+00 1.000000e+00 0.000000e+00 0.000000e+00 0.000000e+00 0.000000e+00
 0.000000e+00 8.771405e-01 1.228596e-01 0.000000e+00 0.000000e+00 0.000000e+00
 0.000000e+00 0.000000e+00 9.391141e-01 6.088592e-02 0.000000e+00 0.000000e+00
 0.000000e+00 0.000000e+00 0.000000e+00 9.536665e-01 4.633352e-02 0.000000e+00
 0.000000e+00 0.000000e+00 0.000000e+00 0.000000e+00 7.307200e-01 2.692800e-01
 0.000000e+00 0.000000e+00 0.000000e+00 0.000000e+00 0.000000e+00 0.000000e+00
<ENDHMM>
