~o
<STREAMINFO> 1 16
<VECSIZE> 16<NULLD><USER><DIAGC>
~h "Monkey"
<BEGINHMM>
<NUMSTATES> 6
<STATE> 2
<NUMMIXES> 2
<MIXTURE> 1 5.339569e-01
<MEAN> 16
 6.242270e-01 -7.462094e-01 1.944340e+00 -1.420316e-01 -6.225482e-01 1.835887e+00 6.242270e-01 -7.462094e-01 1.944340e+00 -1.420316e-01 -6.225482e-01 1.835887e+00 1.106403e-01 1.157134e-01 9.541756e-02 7.318303e-02
<VARIANCE> 16
 7.501315e-03 1.000000e-03 4.271861e-03 2.577231e-03 1.000000e-03 3.191332e-03 7.501315e-03 1.000000e-03 4.271861e-03 2.577231e-03 1.000000e-03 3.191332e-03 1.000000e-03 1.000000e-03 1.000000e-03 1.000000e-03
<GCONST> -6.996950e+01
<MIXTURE> 2 4.660433e-01
<MEAN> 16
 5.659317e-01 -6.730927e-01 1.752922e+00 -2.898650e-01 -6.129118e-01 1.816329e+00 5.659317e-01 -6.730927e-01 1.752922e+00 -2.898650e-01 -6.129118e-01 1.816329e+00 1.207670e-01 9.868262e-02 9.884589e-02 6.879538e-02
<VARIANCE> 16
 2.794000e-03 1.917204e-03 9.756883e-03 2.714895e-02 1.620578e-02 1.272680e-02 2.794000e-03 1.917204e-03 9.756883e-03 2.714895e-02 1.620578e-02 1.272680e-02 1.000000e-03 1.000000e-03 1.000000e-03 1.000000e-03
<GCONST> -5.594460e+01
<STATE> 3
<NUMMIXES> 2
<MIXTURE> 1 7.228711e-01
<MEAN> 16
 6.143337e-01 -7.447107e-01 1.947294e+00 -1.463613e-01 -6.172873e-01 1.825487e+00 -7.876280e-04 2.110174e-03 2.839689e-04 -2.401821e-04 2.302911e-03 -7.624621e-04 1.140159e-01 1.156599e-01 1.022707e-01 7.494009e-02
<VARIANCE> 16
 6.037388e-03 1.000000e-03 4.120117e-03 1.833495e-03 1.000000e-03 2.391282e-03 1.000000e-03 1.000000e-03 1.000000e-03 1.000000e-03 1.000000e-03 1.000000e-03 1.000000e-03 1.000000e-03 1.000000e-03 1.000000e-03
<GCONST> -7.642615e+01
<MIXTURE> 2 2.771296e-01
<MEAN> 16
 5.891065e-01 -7.110215e-01 1.828595e+00 -2.767634e-01 -6.588115e-01 1.864529e+00 -4.262837e-04 1.017819e-03 2.002472e-03 2.298281e-04 2.847773e-03 -4.747624e-03 1.180644e-01 1.026931e-01 9.916269e-02 6.888741e-02
<VARIANCE> 16
 2.625556e-03 2.138588e-03 1.070375e-02 2.176442e-02 1.409806e-02 1.518128e-02 1.000000e-03 1.000000e-03 1.332243e-03 1.000000e-03 1.000000e-03 5.526426e-03 1.000000e-03 1.000000e-03 1.000000e-03 1.000000e-03
<GCONST> -6.657925e+01
<STATE> 4
<NUMMIXES> 2
<MIXTURE> 1 7.648343e-01
<MEAN> 16
 4.179604e-01 -6.494516e-01 1.869267e+00 -1.380381e-01 -6.028726e-01 1.826469e+00 -2.545075e-02 1.194959e-02 -4.475109e-03 -3.471994e-03 3.949999e-03 -1.393441e-04 1.161602e-01 1.128841e-01 8.120988e-02 7.148989e-02
<VARIANCE> 16
 1.693549e-02 1.732227e-03 9.912149e-03 3.085741e-03 3.576194e-03 5.679163e-03 1.406504e-03 1.158404e-03 3.023574e-03 1.000000e-03 1.000000e-03 1.613806e-03 1.000000e-03 1.000000e-03 1.000000e-03 1.000000e-03
<GCONST> -6.923440e+01
<MIXTURE> 2 2.351647e-01
<MEAN> 16
 5.589984e-01 -6.289960e-01 1.689430e+00 -4.471868e-01 -6.707085e-01 1.808484e+00 -1.686731e-03 4.283329e-03 1.847921e-04 -3.198496e-03 7.679944e-03 -1.922361e-02 1.152458e-01 9.805007e-02 1.241822e-01 6.270530e-02
<VARIANCE> 16
 1.000000e-03 1.000000e-03 2.840638e-03 1.000000e-03 1.080118e-03 4.409526e-03 1.000000e-03 1.000000e-03 1.000000e-03 1.000000e-03 1.000000e-03 1.292988e-03 1.000000e-03 1.000000e-03 1.000000e-03 1.000000e-03
<GCONST> -7.825623e+01
<STATE> 5
<MEAN> 16
 4.019947e-01 -6.550276e-01 1.902022e+00 -1.637124e-01 -1.519843e-01 1.810848e+00 -2.684406e-03 6.360671e-03 1.918403e-03 -4.216814e-03 2.142459e-02 1.289229e-03 1.259461e-01 1.065113e-01 8.358464e-02 8.111896e-02
<VARIANCE> 16
 2.271521e-02 4.022543e-03 1.066488e-02 1.485642e-02 1.147788e-01 1.418417e-02 1.000000e-03 1.000000e-03 3.239305e-03 1.000000e-03 4.728434e-03 3.260864e-03 1.000000e-03 1.000000e-03 1.000000e-03 1.000000e-03
<GCONST> -6.023164e+01
<TRANSP> 6
 0.000000e+00 1.000000e+00 0.000000e+00 0.000000e+00 0.000000e+00 0.000000e+00
 0.000000e+00 0.000000e+00 1.000000e+00 0.000000e+00 0.000000e+00 0.000000e+00
 0.000000e+00 0.000000e+00 8.084011e-01 1.915989e-01 0.000000e+00 0.000000e+00
 0.000000e+00 0.000000e+00 0.000000e+00 8.140417e-01 1.859583e-01 0.000000e+00
 0.000000e+00 0.000000e+00 0.000000e+00 0.000000e+00 8.582152e-01 1.417849e-01
 0.000000e+00 0.000000e+00 0.000000e+00 0.000000e+00 0.000000e+00 0.000000e+00
<ENDHMM>
~h "fence"
<BEGINHMM>
<NUMSTATES> 6
<STATE> 2
<NUMMIXES> 2
<MIXTURE> 1 3.651727e-01
<MEAN> 16
 4.211972e-01 -3.065798e-01 1.995279e+00 -3.581103e-01 -1.815211e-01 1.887629e+00 7.566491e-03 -1.064137e-02 1.866848e-02 -3.385399e-03 -5.785619e-03 1.234366e-02 1.136334e-01 1.548187e-01 9.435703e-02 9.279459e-02
<VARIANCE> 16
 8.509989e-03 1.947151e-02 1.552787e-02 2.127519e-03 1.195179e-02 6.515435e-03 1.000000e-03 1.000000e-03 4.751666e-03 1.000000e-03 1.000000e-03 3.918329e-03 1.227364e-03 1.000000e-03 1.000000e-03 1.000000e-03
<GCONST> -6.502618e+01
<MIXTURE> 2 6.348202e-01
<MEAN> 16
 2.253856e-01 -2.478101e-01 1.801754e+00 -2.874236e-01 -2.624204e-01 1.743327e+00 -4.132372e-03 1.919498e-03 -1.230743e-02 1.209798e-03 -7.144873e-05 -9.093270e-03 8.746322e-02 1.448734e-01 8.120753e-02 8.684248e-02
<VARIANCE> 16
 3.532567e-02 1.723477e-02 1.486321e-02 2.164901e-03 5.186479e-03 9.117430e-03 1.000000e-03 1.631055e-03 2.723694e-03 1.000000e-03 1.000000e-03 2.075605e-03 1.000000e-03 1.000000e-03 1.000000e-03 1.000000e-03
<GCONST> -6.515754e+01
<STATE> 3
<NUMMIXES> 2
<MIXTURE> 1 4.481039e-01
<MEAN> 16
 2.851284e-01 -6.563059e-02 1.902736e+00 -3.500426e-01 -1.053296e-01 1.840014e+00 1.318154e-03 -1.360349e-03 6.032074e-03 -9.374294e-04 -1.857310e-03 5.011720e-03 1.158290e-01 1.614342e-01 9.101173e-02 9.539118e-02
<VARIANCE> 16
 4.212308e-02 5.837467e-02 1.304132e-02 4.628568e-03 2.780788e-03 1.229883e-02 2.096556e-03 3.083717e-03 5.250152e-03 1.000000e-03 1.000000e-03 4.507864e-03 1.000000e-03 1.000000e-03 1.000000e-03 1.000000e-03
<GCONST> -6.064746e+01
<MIXTURE> 2 5.518886e-01
<MEAN> 16
 1.667523e-01 -7.333808e-02 1.729292e+00 -3.911402e-01 -9.515803e-02 1.697201e+00 -4.002969e-03 -1.722526e-03 -4.766295e-03 1.020636e-03 -5.606136e-04 -3.829193e-03 1.004475e-01 1.371625e-01 7.652604e-02 9.056760e-02
<VARIANCE> 16
 5.978182e-02 9.864465e-03 4.983233e-03 7.644464e-03 3.419795e-03 4.748692e-03 1.000000e-03 1.000000e-03 1.000000e-03 1.000000e-03 1.000000e-03 1.000000e-03 1.000000e-03 1.000000e-03 1.000000e-03 1.000000e-03
<GCONST> -6.831091e+01
<STATE> 4
<NUMMIXES> 2
<MIXTURE> 1 7.290362e-01
<MEAN> 16
 2.104943e-01 -9.247078e-02 1.524541e+00 -3.466305e-01 -3.989901e-02 1.451681e+00 -2.530982e-04 1.870225e-04 -1.991072e-03 5.057722e-04 -6.886168e-04 -9.615275e-04 9.655556e-02 1.419144e-01 8.139059e-02 8.573667e-02
<VARIANCE> 16
 4.113610e-02 2.868425e-02 2.874609e-02 6.883344e-03 1.953577e-03 1.431271e-02 1.000000e-03 1.000000e-03 1.029018e-03 1.000000e-03 1.000000e-03 1.000000e-03 1.000000e-03 1.000000e-03 1.000000e-03 1.000000e-03
<GCONST> -6.539780e+01
<MIXTURE> 2 2.709580e-01
<MEAN> 16
 3.040505e-01 -3.943423e-01 1.738846e+00 -2.891084e-01 -3.072540e-01 1.674510e+00 3.793841e-02 -4.475598e-02 2.040619e-02 6.357841e-03 -4.119472e-02 1.369437e-02 9.846904e-02 1.089149e-01 7.693034e-02 7.429575e-02
<VARIANCE> 16
 8.035504e-02 4.334308e-02 3.242861e-02 1.167295e-02 3.103519e-02 2.783903e-02 2.663075e-03 2.965824e-03 7.816866e-03 1.379516e-03 1.711611e-03 6.465921e-03 1.000000e-03 1.468202e-03 1.000000e-03 1.000000e-03
<GCONST> -5.303191e+01
<STATE> 5
<MEAN> 16
 5.858975e-01 -7.010727e-01 1.861667e+00 -1.838812e-01 -6.076469e-01 1.797503e+00 4.283797e-03 -4.252333e-03 -1.806864e-04 2.351544e-03 -4.654761e-03 1.706567e-03 1.156854e-01 1.110951e-01 9.796549e-02 7.509856e-02
<VARIANCE> 16
 1.749556e-02 3.434707e-03 1.423431e-02 1.508161e-02 4.909623e-03 6.447969e-03 1.000000e-03 1.000000e-03 1.264860e-03 1.000000e-03 1.000000e-03 1.251416e-03 1.000000e-03 1.000000e-03 1.000000e-03 1.000000e-03
<GCONST> -6.773885e+01
<TRANSP> 6
 0.000000e+00 1.000000e+00 0.000000e+00 0.000000e+00 0.000000e+00 0.000000e+00
 0.000000e+00 9.553002e-01 4.469987e-02 0.000000e+00 0.000000e+00 0.000000e+00
 0.000000e+00 0.000000e+00 9.787775e-01 2.122245e-02 0.000000e+00 0.000000e+00
 0.000000e+00 0.000000e+00 0.000000e+00 9.651167e-01 3.488329e-02 0.000000e+00
 0.000000e+00 0.000000e+00 0.000000e+00 0.000000e+00 9.593141e-01 4.068590e-02
 0.000000e+00 0.000000e+00 0.000000e+00 0.000000e+00 0.000000e+00 0.000000e+00
<ENDHMM>
~h "Car"
<BEGINHMM>
<NUMSTATES> 6
<STATE> 2
<NUMMIXES> 2
<MIXTURE> 1 4.694547e-01
<MEAN> 16
 6.278147e-01 -7.457173e-01 1.936926e+00 -1.442365e-01 -6.222811e-01 1.839352e+00 6.278147e-01 -7.457173e-01 1.936926e+00 -1.442365e-01 -6.222811e-01 1.839352e+00 1.074858e-01 1.153656e-01 9.612653e-02 7.790042e-02
<VARIANCE> 16
 7.230258e-03 1.000000e-03 3.423030e-03 2.910292e-03 1.000000e-03 3.148435e-03 7.230258e-03 1.000000e-03 3.423030e-03 2.910292e-03 1.000000e-03 3.148435e-03 1.000000e-03 1.000000e-03 1.000000e-03 1.000000e-03
<GCONST> -7.027013e+01
<MIXTURE> 2 5.305454e-01
<MEAN> 16
 5.736163e-01 -6.815820e-01 1.757572e+00 -2.845902e-01 -6.193166e-01 1.814522e+00 5.736163e-01 -6.815820e-01 1.757572e+00 -2.845902e-01 -6.193166e-01 1.814522e+00 1.205379e-01 9.570280e-02 1.008230e-01 7.053386e-02
<VARIANCE> 16
 2.682968e-03 1.726383e-03 9.446964e-03 2.383405e-02 1.687106e-02 1.272165e-02 2.682968e-03 1.726383e-03 9.446964e-03 2.383405e-02 1.687106e-02 1.272165e-02 1.000000e-03 1.000000e-03 1.000000e-03 1.000000e-03
<GCONST> -5.648072e+01
<STATE> 3
<NUMMIXES> 2
<MIXTURE> 1 3.339509e-01
<MEAN> 16
 6.002976e-01 -7.311907e-01 1.926481e+00 -9.379146e-02 -1.191747e-01 1.773854e+00 6.731328e-04 -3.748018e-04 5.607344e-03 1.740495e-03 1.507659e-02 1.984977e-03 1.221676e-01 1.148106e-01 9.187006e-02 8.154189e-02
<VARIANCE> 16
 4.036416e-03 1.227872e-03 6.867137e-03 1.084701e-02 1.073306e-01 8.274628e-03 1.000000e-03 1.000000e-03 4.938112e-03 2.004855e-03 5.490785e-03 5.825612e-03 1.000000e-03 1.000000e-03 1.000000e-03 1.000000e-03
<GCONST> -6.265979e+01
<MIXTURE> 2 6.660491e-01
<MEAN> 16
 5.962969e-01 -7.175325e-01 1.839162e+00 -2.644981e-01 -5.146065e-01 1.816202e+00 2.550239e-04 1.853775e-03 -2.019816e-03 -2.098030e-03 2.285183e-03 -4.366674e-03 1.219612e-01 9.886236e-02 9.287964e-02 7.431854e-02
<VARIANCE> 16
 1.645516e-03 1.393864e-03 9.426540e-03 2.117946e-02 7.712234e-02 1.776615e-02 1.000000e-03 1.000000e-03 1.000000e-03 1.000000e-03 1.000000e-03 1.082896e-03 1.000000e-03 1.000000e-03 1.000000e-03 1.000000e-03
<GCONST> -6.768904e+01
<STATE> 4
<NUMMIXES> 2
<MIXTURE> 1 6.050152e-01
<MEAN> 16
 6.157629e-01 -7.343035e-01 1.935048e+00 -1.700633e-01 -5.954484e-01 1.837737e+00 -2.118182e-03 4.983184e-03 5.139633e-05 -1.762977e-03 4.982048e-03 -1.755952e-03 1.151802e-01 1.117829e-01 1.114317e-01 7.906275e-02
<VARIANCE> 16
 5.547545e-03 1.284775e-03 4.270258e-03 4.615773e-03 7.617340e-03 5.173686e-03 1.000000e-03 1.000000e-03 1.000000e-03 1.000000e-03 1.000000e-03 1.000000e-03 1.000000e-03 1.000000e-03 1.000000e-03 1.000000e-03
<GCONST> -7.249895e+01
<MIXTURE> 2 3.949840e-01
<MEAN> 16
 5.423954e-01 -6.394520e-01 1.669819e+00 -3.488863e-01 -6.329143e-01 1.769941e+00 -2.891802e-03 3.846571e-03 -5.859218e-04 -9.601620e-04 7.397168e-03 -1.307974e-02 1.163931e-01 9.667284e-02 1.235182e-01 6.267126e-02
<VARIANCE> 16
 1.140757e-03 1.038764e-03 1.946449e-03 2.108618e-02 3.859448e-03 5.106157e-03 1.000000e-03 1.000000e-03 1.000000e-03 1.000000e-03 1.000000e-03 1.223405e-03 1.000000e-03 1.000000e-03 1.000000e-03 1.000000e-03
<GCONST> -7.405109e+01
<STATE> 5
<MEAN> 16
 3.863885e-01 -6.270692e-01 1.878437e+00 -1.797203e-01 -5.956805e-01 1.832975e+00 -2.150263e-02 1.431190e-02 -2.108121e-04 -5.462790e-03 8.144451e-03 9.806205e-05 1.167373e-01 1.121391e-01 8.234924e-02 7.413919e-02
<VARIANCE> 16
 1.936334e-02 2.092440e-03 9.224847e-03 7.600384e-03 7.582381e-03 6.593655e-03 1.332479e-03 1.179275e-03 3.198889e-03 1.000000e-03 1.000000e-03 2.125118e-03 1.000000e-03 1.000000e-03 1.000000e-03 1.000000e-03
<GCONST> -6.688573e+01
<TRANSP> 6
 0.000000e+00 1.000000e+00 0.000000e+00 0.000000e+00 0.000000e+00 0.000000e+00
 0.000000e+00 0.000000e+00 1.000000e+00 0.000000e+00 0.000000e+00 0.000000e+00
 0.000000e+00 0.000000e+00 7.807670e-01 2.192330e-01 0.000000e+00 0.000000e+00
 0.000000e+00 0.000000e+00 0.000000e+00 7.958081e-01 2.041919e-01 0.000000e+00
 0.000000e+00 0.000000e+00 0.000000e+00 0.000000e+00 7.861328e-01 2.138672e-01
 0.000000e+00 0.000000e+00 0.000000e+00 0.000000e+00 0.000000e+00 0.000000e+00
<ENDHMM>
~h "Man"
<BEGINHMM>
<NUMSTATES> 6
<STATE> 2
<NUMMIXES> 2
<MIXTURE> 1 1.650746e-01
<MEAN> 16
 6.619077e-01 -7.220414e-01 1.967520e+00 -1.613804e-01 -5.421507e-01 1.826484e+00 6.619077e-01 -7.220414e-01 1.967520e+00 -1.613804e-01 -5.421507e-01 1.826484e+00 1.099261e-01 1.030638e-01 9.973674e-02 7.464383e-02
<VARIANCE> 16
 1.208581e-01 4.389165e-02 5.967617e-03 1.655409e-02 5.166127e-02 2.033066e-02 1.208581e-01 4.389165e-02 5.967617e-03 1.655409e-02 5.166127e-02 2.033066e-02 1.062362e-03 1.000000e-03 1.000000e-03 1.000000e-03
<GCONST> -4.080524e+01
<MIXTURE> 2 8.349251e-01
<MEAN> 16
 5.726003e-01 -7.006031e-01 1.822814e+00 -2.266347e-01 -6.299528e-01 1.816745e+00 5.726003e-01 -7.006031e-01 1.822814e+00 -2.266347e-01 -6.299528e-01 1.816745e+00 1.155723e-01 1.057458e-01 1.005010e-01 7.097358e-02
<VARIANCE> 16
 2.411935e-03 2.129399e-03 1.682101e-02 2.084975e-02 4.947311e-03 7.132443e-03 2.411935e-03 2.129399e-03 1.682101e-02 2.084975e-02 4.947311e-03 7.132443e-03 1.000000e-03 1.000000e-03 1.000000e-03 1.000000e-03
<GCONST> -5.899858e+01
<STATE> 3
<NUMMIXES> 2
<MIXTURE> 1 5.737453e-01
<MEAN> 16
 7.555718e-01 -4.720230e-01 2.187364e+00 -2.664897e-01 -5.144511e-01 1.882172e+00 1.249689e+00 -4.107265e-01 8.458609e-02 5.456175e-01 -8.100650e-01 -2.128034e-02 1.153050e-01 1.141115e-01 1.060382e-01 7.750418e-02
<VARIANCE> 16
 1.327653e-01 3.384849e-02 1.294491e-01 5.803845e-02 2.967665e-02 4.940495e-02 7.119662e-01 7.960387e-02 1.303990e-01 2.032690e-01 2.988661e-01 2.018763e-01 1.000000e-03 1.000000e-03 1.000000e-03 1.000000e-03
<GCONST> -2.435490e+01
<MIXTURE> 2 4.262547e-01
<MEAN> 16
 -8.579840e-01 1.582137e-01 2.197323e+00 -1.019274e+00 6.098097e-01 1.939780e+00 -1.679678e+00 5.511000e-01 -1.134325e-01 -7.333730e-01 1.089792e+00 2.876288e-02 7.667920e-02 6.535485e-02 6.292924e-02 7.534678e-02
<VARIANCE> 16
 2.009970e-02 2.344567e-02 2.325910e-01 4.149178e-02 7.266639e-02 2.972942e-01 2.302027e-01 2.822147e-02 1.548836e-01 1.343708e-01 9.521196e-02 2.473395e-01 1.000000e-03 1.000000e-03 1.000000e-03 1.000000e-03
<GCONST> -2.701810e+01
<STATE> 4
<NUMMIXES> 2
<MIXTURE> 1 6.852243e-01
<MEAN> 16
 4.715752e-01 -6.838417e-01 1.921543e+00 -1.396739e-01 -6.162820e-01 1.850401e+00 -1.038192e-02 4.789158e-03 1.988135e-03 -1.602280e-03 1.260272e-03 2.536618e-03 1.166736e-01 1.140891e-01 8.961680e-02 7.425622e-02
<VARIANCE> 16
 2.991851e-02 4.379296e-03 5.679099e-03 2.688310e-03 1.000000e-03 4.429177e-03 1.000000e-03 1.000000e-03 1.000000e-03 1.000000e-03 1.000000e-03 1.000000e-03 1.000000e-03 1.000000e-03 1.000000e-03 1.000000e-03
<GCONST> -7.202877e+01
<MIXTURE> 2 3.147748e-01
<MEAN> 16
 5.185174e-01 -6.570298e-01 1.755120e+00 -2.726706e-01 -6.103631e-01 1.798681e+00 -1.045689e-02 7.195362e-03 -7.984152e-03 -1.400317e-03 8.979836e-03 -1.727130e-02 1.209773e-01 9.813367e-02 1.062694e-01 6.903855e-02
<VARIANCE> 16
 8.447173e-03 1.617987e-03 1.002217e-02 2.742998e-02 8.054492e-03 1.022497e-02 1.000000e-03 1.000000e-03 3.174263e-03 1.000000e-03 1.000000e-03 3.473827e-03 1.000000e-03 1.000000e-03 1.000000e-03 1.000000e-03
<GCONST> -6.607521e+01
<STATE> 5
<MEAN> 16
 4.459086e-01 -6.625977e-01 1.875854e+00 -1.467257e-01 -4.358302e-02 1.790291e+00 -2.016905e-03 4.772654e-03 2.099100e-03 -2.298963e-03 2.480683e-02 2.383071e-03 1.218538e-01 1.027478e-01 9.429215e-02 8.341523e-02
<VARIANCE> 16
 2.116493e-02 4.841636e-03 1.892663e-02 1.455932e-02 9.885608e-02 2.172001e-02 1.000000e-03 1.000000e-03 3.133555e-03 1.000000e-03 5.960726e-03 2.883949e-03 1.000000e-03 1.000000e-03 1.000000e-03 1.000000e-03
<GCONST> -5.921124e+01
<TRANSP> 6
 0.000000e+00 1.000000e+00 0.000000e+00 0.000000e+00 0.000000e+00 0.000000e+00
 0.000000e+00 0.000000e+00 1.000000e+00 0.000000e+00 0.000000e+00 0.000000e+00
 0.000000e+00 0.000000e+00 8.592933e-01 1.407066e-01 0.000000e+00 0.000000e+00
 0.000000e+00 0.000000e+00 0.000000e+00 9.074532e-01 9.254684e-02 0.000000e+00
 0.000000e+00 0.000000e+00 0.000000e+00 0.000000e+00 8.545126e-01 1.454873e-01
 0.000000e+00 0.000000e+00 0.000000e+00 0.000000e+00 0.000000e+00 0.000000e+00
<ENDHMM>
~h "car"
<BEGINHMM>
<NUMSTATES> 6
<STATE> 2
<NUMMIXES> 2
<MIXTURE> 1 5.195202e-01
<MEAN> 16
 3.223277e-01 -4.562785e-01 2.073601e+00 -2.614496e-01 6.651386e-02 1.860415e+00 2.815966e-03 -1.305494e-03 3.374639e-03 -4.077669e-04 -8.520943e-03 3.875257e-04 1.011181e-01 1.357933e-01 9.273162e-02 8.464687e-02
<VARIANCE> 16
 1.179407e-02 5.894159e-03 1.526045e-02 1.044752e-03 7.847483e-03 9.782341e-03 1.000000e-03 1.000000e-03 1.000000e-03 1.000000e-03 1.000000e-03 1.000000e-03 1.000000e-03 1.000000e-03 1.000000e-03 1.000000e-03
<GCONST> -6.976669e+01
<MIXTURE> 2 4.804770e-01
<MEAN> 16
 2.805420e-01 -2.513745e-01 1.865796e+00 -3.013718e-01 -8.526092e-02 1.825090e+00 4.812705e-03 -1.694858e-02 -2.650941e-03 4.266164e-04 -9.001939e-05 -6.418239e-03 8.624644e-02 9.899680e-02 7.840635e-02 8.387845e-02
<VARIANCE> 16
 2.368366e-02 2.354944e-02 2.001833e-02 4.779446e-03 4.606699e-02 1.390510e-02 1.000000e-03 1.006982e-03 4.603439e-03 1.000000e-03 1.000000e-03 3.820589e-03 1.000000e-03 1.000000e-03 1.000000e-03 1.000000e-03
<GCONST> -6.089668e+01
<STATE> 3
<NUMMIXES> 2
<MIXTURE> 1 7.107881e-01
<MEAN> 16
 3.284408e-01 5.055841e-02 1.896705e+00 -3.078364e-01 4.953609e-02 1.869645e+00 1.878505e-03 1.045963e-03 -1.945387e-03 -1.118736e-03 -1.885746e-03 -4.031683e-04 1.159160e-01 1.371044e-01 8.846842e-02 8.185826e-02
<VARIANCE> 16
 2.479723e-02 2.308810e-02 1.363072e-02 2.080111e-03 1.515702e-03 1.383987e-02 1.000000e-03 1.722925e-03 1.000000e-03 1.000000e-03 1.000000e-03 1.000000e-03 1.000000e-03 1.000000e-03 1.000000e-03 1.000000e-03
<GCONST> -6.783581e+01
<MIXTURE> 2 2.892048e-01
<MEAN> 16
 2.694933e-01 -5.957158e-02 1.906936e+00 -2.683455e-01 -2.104145e-02 1.883381e+00 1.221307e-02 -9.046826e-03 6.428263e-03 -1.372054e-03 -1.202975e-02 5.927220e-03 1.128134e-01 1.195313e-01 8.534078e-02 8.464210e-02
<VARIANCE> 16
 8.317196e-02 7.195839e-02 1.998147e-02 1.443890e-02 3.188851e-02 1.819562e-02 4.325320e-03 6.105906e-03 1.189286e-02 1.782290e-03 1.596233e-03 1.017446e-02 1.000000e-03 1.000000e-03 1.000000e-03 1.000000e-03
<GCONST> -5.127779e+01
<STATE> 4
<NUMMIXES> 2
<MIXTURE> 1 7.147971e-01
<MEAN> 16
 1.798655e-01 -1.647799e-02 1.728280e+00 -4.097087e-01 -5.018765e-02 1.668977e+00 -1.547252e-03 -2.325721e-03 -2.139308e-03 -8.355859e-05 -1.289148e-03 -1.236634e-03 9.067063e-02 1.175308e-01 6.875533e-02 7.939785e-02
<VARIANCE> 16
 3.124648e-02 1.405358e-02 7.303921e-03 2.237083e-03 3.478787e-03 3.430716e-03 1.000000e-03 1.000000e-03 1.037752e-03 1.000000e-03 1.000000e-03 1.000000e-03 1.000000e-03 1.000000e-03 1.000000e-03 1.000000e-03
<GCONST> -6.972318e+01
<MIXTURE> 2 2.851914e-01
<MEAN> 16
 2.553532e-01 -2.307513e-01 1.827973e+00 -3.505798e-01 -2.042369e-01 1.719832e+00 1.013682e-02 -2.905139e-02 1.154550e-02 8.897547e-03 -3.103911e-02 7.145865e-03 1.041632e-01 1.037873e-01 7.959419e-02 7.947932e-02
<VARIANCE> 16
 6.367669e-02 8.449368e-02 2.734464e-02 1.173081e-02 3.380964e-02 1.022932e-02 3.456588e-03 4.725129e-03 1.121661e-02 1.022069e-03 2.094204e-03 7.512900e-03 1.000000e-03 1.000000e-03 1.000000e-03 1.000000e-03
<GCONST> -5.292262e+01
<STATE> 5
<MEAN> 16
 5.833741e-01 -6.954551e-01 1.855782e+00 -1.934334e-01 -6.077619e-01 1.814625e+00 4.196240e-03 -5.108604e-03 3.718606e-05 3.233031e-03 -5.676766e-03 1.552830e-03 1.162162e-01 1.077107e-01 9.769425e-02 7.497244e-02
<VARIANCE> 16
 1.450471e-02 3.113485e-03 1.540496e-02 1.845266e-02 4.935958e-03 6.857560e-03 1.000000e-03 1.000000e-03 1.405159e-03 1.000000e-03 1.000000e-03 1.604071e-03 1.000000e-03 1.000000e-03 1.000000e-03 1.000000e-03
<GCONST> -6.732335e+01
<TRANSP> 6
 0.000000e+00 1.000000e+00 0.000000e+00 0.000000e+00 0.000000e+00 0.000000e+00
 0.000000e+00 9.059286e-01 9.407145e-02 0.000000e+00 0.000000e+00 0.000000e+00
 0.000000e+00 0.000000e+00 9.483085e-01 5.169149e-02 0.000000e+00 0.000000e+00
 0.000000e+00 0.000000e+00 0.000000e+00 9.612102e-01 3.878979e-02 0.000000e+00
 0.000000e+00 0.000000e+00 0.000000e+00 0.000000e+00 9.591739e-01 4.082611e-02
 0.000000e+00 0.000000e+00 0.000000e+00 0.000000e+00 0.000000e+00 0.000000e+00
<ENDHMM>
~h "weaves_and_bumps_into"
<BEGINHMM>
<NUMSTATES> 6
<STATE> 2
<NUMMIXES> 2
<MIXTURE> 1 3.853934e-01
<MEAN> 16
 2.936104e-01 -2.617185e-01 1.845953e+00 -2.217286e-01 -2.013578e-01 1.801754e+00 -3.852124e-02 7.006592e-02 -2.258778e-02 8.075275e-03 6.479307e-02 -2.007250e-02 1.100286e-01 9.772743e-02 8.623503e-02 8.211834e-02
<VARIANCE> 16
 2.580021e-02 4.401340e-02 4.922518e-02 1.675955e-02 3.464955e-02 4.436619e-02 5.152326e-03 7.181180e-03 1.732140e-02 5.420950e-03 8.047186e-03 1.528955e-02 1.156261e-03 1.000000e-03 1.000000e-03 1.000000e-03
<GCONST> -4.691924e+01
<MIXTURE> 2 6.146048e-01
<MEAN> 16
 4.369445e-01 -4.064899e-01 1.902533e+00 -3.792603e-01 -3.588502e-01 1.875548e+00 -1.268485e-02 2.001287e-02 2.063201e-04 1.016033e-03 2.243861e-02 -4.949691e-04 9.295872e-02 9.047309e-02 7.937642e-02 7.931384e-02
<VARIANCE> 16
 5.109279e-03 1.068301e-02 4.824611e-02 8.599838e-03 1.119138e-02 4.622398e-02 1.000000e-03 1.518976e-03 4.447670e-03 1.000000e-03 1.537711e-03 4.001282e-03 1.000000e-03 1.000000e-03 1.000000e-03 1.000000e-03
<GCONST> -6.111432e+01
<STATE> 3
<NUMMIXES> 2
<MIXTURE> 1 3.574142e-01
<MEAN> 16
 2.203926e-01 -1.263353e-01 1.835449e+00 -2.189311e-01 -1.144840e-01 1.789464e+00 6.582168e-04 4.745896e-03 1.782734e-02 -3.851729e-03 2.811361e-03 1.611495e-02 9.316089e-02 9.166463e-02 8.396799e-02 7.539701e-02
<VARIANCE> 16
 2.168489e-02 4.913242e-02 1.914935e-02 1.144333e-02 2.511204e-02 1.223534e-02 1.158077e-03 3.270801e-03 6.935735e-03 1.000000e-03 2.096922e-03 6.192818e-03 1.000000e-03 1.000000e-03 1.000000e-03 1.000000e-03
<GCONST> -5.719723e+01
<MIXTURE> 2 6.425827e-01
<MEAN> 16
 2.324654e-01 -2.216765e-01 1.775524e+00 -2.778307e-01 -2.127609e-01 1.724276e+00 -2.849054e-03 1.075856e-03 -1.132010e-02 1.272924e-03 3.038065e-03 -1.027011e-02 8.361854e-02 8.401033e-02 7.937040e-02 7.816026e-02
<VARIANCE> 16
 1.727584e-02 1.346210e-02 1.051827e-02 2.278402e-03 3.480559e-03 8.922044e-03 1.000000e-03 1.000000e-03 2.306426e-03 1.000000e-03 1.000000e-03 1.999025e-03 1.000000e-03 1.000000e-03 1.000000e-03 1.000000e-03
<GCONST> -6.752821e+01
<STATE> 4
<NUMMIXES> 2
<MIXTURE> 1 3.512760e-01
<MEAN> 16
 2.580695e-01 -1.628576e-01 1.601153e+00 -3.224924e-01 1.375204e-02 1.470766e+00 4.850604e-03 -3.057968e-03 4.631973e-03 -4.395076e-03 2.544110e-03 2.241542e-03 8.946144e-02 1.110374e-01 8.337184e-02 8.726969e-02
<VARIANCE> 16
 1.786221e-02 5.189414e-02 2.354901e-02 9.779909e-03 1.549459e-02 1.850020e-02 1.284119e-03 2.696985e-03 3.044258e-03 1.000000e-03 1.232526e-03 2.137339e-03 1.000000e-03 1.000000e-03 1.000000e-03 1.000000e-03
<GCONST> -5.986439e+01
<MIXTURE> 2 6.487210e-01
<MEAN> 16
 2.015045e-01 -1.768396e-02 1.359757e+00 -2.976171e-01 2.452841e-02 1.352760e+00 -1.986918e-04 4.163066e-04 -3.622355e-03 5.809680e-04 4.588705e-05 -3.025621e-03 8.437222e-02 1.014386e-01 8.280770e-02 8.367461e-02
<VARIANCE> 16
 2.457703e-02 1.627377e-02 1.134581e-02 6.246365e-03 3.584706e-03 4.658122e-03 1.000000e-03 1.000000e-03 1.028994e-03 1.000000e-03 1.000000e-03 1.000000e-03 1.000000e-03 1.000000e-03 1.000000e-03 1.000000e-03
<GCONST> -6.802197e+01
<STATE> 5
<MEAN> 16
 3.177589e-01 -2.379000e-01 1.870783e+00 -2.442157e-01 1.891926e-02 1.814188e+00 1.468548e-02 -7.107898e-03 1.947436e-02 -1.281987e-02 3.747013e-03 1.738326e-02 1.132255e-01 1.127780e-01 8.481550e-02 8.612524e-02
<VARIANCE> 16
 1.426791e-02 8.540454e-02 3.380039e-02 1.627655e-02 5.270522e-02 2.708451e-02 6.505413e-03 5.002939e-03 1.283867e-02 2.285381e-03 7.078458e-03 9.010331e-03 1.036169e-03 1.000000e-03 1.000000e-03 1.000000e-03
<GCONST> -4.938616e+01
<TRANSP> 6
 0.000000e+00 1.000000e+00 0.000000e+00 0.000000e+00 0.000000e+00 0.000000e+00
 0.000000e+00 8.826817e-01 1.173183e-01 0.000000e+00 0.000000e+00 0.000000e+00
 0.000000e+00 0.000000e+00 9.377111e-01 6.228892e-02 0.000000e+00 0.000000e+00
 0.000000e+00 0.000000e+00 0.000000e+00 9.549401e-01 4.505992e-02 0.000000e+00
 0.000000e+00 0.000000e+00 0.000000e+00 0.000000e+00 7.126021e-01 2.873979e-01
 0.000000e+00 0.000000e+00 0.000000e+00 0.000000e+00 0.000000e+00 0.000000e+00
<ENDHMM>
~h "man"
<BEGINHMM>
<NUMSTATES> 6
<STATE> 2
<NUMMIXES> 2
<MIXTURE> 1 5.458418e-01
<MEAN> 16
 3.592897e-01 -5.953415e-01 1.937694e+00 -3.788238e-01 -1.553190e-01 1.849535e+00 3.269232e-03 2.581796e-03 1.141199e-02 -7.451850e-03 -6.081095e-03 7.522071e-03 1.155722e-01 9.009370e-02 8.286747e-02 9.616717e-02
<VARIANCE> 16
 2.132879e-02 1.710423e-02 1.402548e-02 8.298310e-03 4.697478e-03 1.697589e-02 1.000000e-03 1.000000e-03 3.045466e-03 1.000000e-03 1.000000e-03 1.567522e-03 1.000000e-03 1.000000e-03 1.000000e-03 1.000000e-03
<GCONST> -6.451978e+01
<MIXTURE> 2 4.541524e-01
<MEAN> 16
 3.999860e-01 -5.700112e-01 1.710058e+00 -3.479273e-01 -8.660929e-02 1.563561e+00 -5.816194e-03 1.017695e-02 -1.765495e-02 -6.835633e-03 -1.232518e-03 -1.531493e-02 1.174726e-01 6.979883e-02 9.078101e-02 9.052218e-02
<VARIANCE> 16
 9.266831e-03 6.106013e-03 1.217338e-02 1.924173e-02 7.603738e-03 1.398670e-02 1.000000e-03 1.000000e-03 3.011768e-03 1.000000e-03 1.000000e-03 1.301388e-03 1.000000e-03 1.000000e-03 1.000000e-03 1.000000e-03
<GCONST> -6.559330e+01
<STATE> 3
<NUMMIXES> 2
<MIXTURE> 1 5.080389e-01
<MEAN> 16
 2.152221e-01 -3.854407e-02 1.921974e+00 -3.722502e-01 -1.368435e-01 1.955301e+00 4.912947e-03 3.553198e-05 1.099021e-02 -2.591458e-03 -2.294596e-03 1.076001e-02 1.087587e-01 9.869514e-02 8.454915e-02 1.015010e-01
<VARIANCE> 16
 4.837753e-02 3.928107e-02 8.808824e-03 7.439506e-03 7.057732e-03 1.114502e-02 1.110832e-03 2.377808e-03 3.043287e-03 1.000000e-03 1.000000e-03 2.842685e-03 1.000000e-03 1.000000e-03 1.000000e-03 1.000000e-03
<GCONST> -6.189163e+01
<MIXTURE> 2 4.919508e-01
<MEAN> 16
 1.396059e-01 -6.053919e-02 1.736424e+00 -3.906790e-01 -1.425873e-01 1.729278e+00 -8.525772e-03 6.684295e-03 -1.459210e-02 5.553512e-03 1.064174e-03 -1.180587e-02 9.539638e-02 7.310248e-02 7.224756e-02 8.766845e-02
<VARIANCE> 16
 4.596892e-02 1.948691e-02 8.831758e-03 8.517270e-03 3.678285e-03 7.664871e-03 1.965566e-03 2.534683e-03 3.697856e-03 1.000000e-03 1.000000e-03 3.072323e-03 1.000000e-03 1.000000e-03 1.000000e-03 1.000000e-03
<GCONST> -6.262477e+01
<STATE> 4
<NUMMIXES> 2
<MIXTURE> 1 6.936598e-01
<MEAN> 16
 1.971307e-01 -2.277920e-03 1.501895e+00 -3.346365e-01 -1.647085e-02 1.504081e+00 -2.467233e-04 9.723391e-04 -2.287016e-03 7.940216e-04 -9.862470e-04 -7.265633e-04 9.360263e-02 7.445251e-02 8.005927e-02 9.284718e-02
<VARIANCE> 16
 3.357493e-02 1.365317e-02 1.846362e-02 9.086944e-03 1.614188e-03 9.271303e-03 1.000000e-03 1.000000e-03 1.000000e-03 1.000000e-03 1.000000e-03 1.000000e-03 1.000000e-03 1.000000e-03 1.000000e-03 1.000000e-03
<GCONST> -6.716191e+01
<MIXTURE> 2 3.063322e-01
<MEAN> 16
 3.695748e-01 -3.965799e-01 1.725000e+00 -2.875301e-01 -3.143808e-01 1.692675e+00 3.074615e-02 -4.407732e-02 1.578920e-02 6.079472e-03 -4.189708e-02 8.242154e-03 1.030289e-01 8.449350e-02 7.861180e-02 7.555740e-02
<VARIANCE> 16
 5.370977e-02 5.220828e-02 3.531881e-02 1.724606e-02 4.487660e-02 3.312578e-02 2.912732e-03 3.147668e-03 9.355961e-03 1.541209e-03 3.060955e-03 8.629417e-03 1.000000e-03 1.000000e-03 1.000000e-03 1.000000e-03
<GCONST> -5.130475e+01
<STATE> 5
<MEAN> 16
 5.883741e-01 -6.960419e-01 1.855320e+00 -1.867970e-01 -6.055598e-01 1.813331e+00 4.770091e-03 -4.901687e-03 3.730459e-04 2.049677e-03 -4.730032e-03 1.306178e-03 1.161764e-01 1.072203e-01 9.588260e-02 7.561950e-02
<VARIANCE> 16
 1.534468e-02 3.394638e-03 1.527542e-02 1.695371e-02 4.734666e-03 7.304185e-03 1.000000e-03 1.000000e-03 1.632588e-03 1.000000e-03 1.000000e-03 1.370008e-03 1.000000e-03 1.000000e-03 1.000000e-03 1.000000e-03
<GCONST> -6.726002e+01
<TRANSP> 6
 0.000000e+00 1.000000e+00 0.000000e+00 0.000000e+00 0.000000e+00 0.000000e+00
 0.000000e+00 9.261256e-01 7.387440e-02 0.000000e+00 0.000000e+00 0.000000e+00
 0.000000e+00 0.000000e+00 9.722635e-01 2.773653e-02 0.000000e+00 0.000000e+00
 0.000000e+00 0.000000e+00 0.000000e+00 9.578988e-01 4.210121e-02 0.000000e+00
 0.000000e+00 0.000000e+00 0.000000e+00 0.000000e+00 9.554286e-01 4.457140e-02
 0.000000e+00 0.000000e+00 0.000000e+00 0.000000e+00 0.000000e+00 0.000000e+00
<ENDHMM>
~h "monkey"
<BEGINHMM>
<NUMSTATES> 6
<STATE> 2
<NUMMIXES> 2
<MIXTURE> 1 3.347115e-01
<MEAN> 16
 3.934339e-01 -5.046140e-01 2.215003e+00 -2.666383e-01 -1.828706e-02 1.992797e+00 6.642202e-04 3.401915e-05 4.843158e-03 1.010765e-03 -7.967811e-03 3.519022e-03 1.081830e-01 1.182174e-01 8.969504e-02 8.000443e-02
<VARIANCE> 16
 7.325307e-03 2.614234e-03 8.409264e-03 1.028925e-03 1.836280e-02 3.822403e-03 1.000000e-03 1.000000e-03 2.283526e-03 1.000000e-03 1.000000e-03 1.368485e-03 1.504854e-03 1.000000e-03 1.000000e-03 1.000000e-03
<GCONST> -7.020857e+01
<MIXTURE> 2 6.652859e-01
<MEAN> 16
 3.080241e-01 -3.911978e-01 1.962160e+00 -3.395387e-01 1.344411e-02 1.741175e+00 8.478294e-04 3.114801e-05 -5.939893e-03 -2.637070e-04 -1.940546e-03 -5.163325e-03 1.057861e-01 1.005559e-01 9.014717e-02 6.726908e-02
<VARIANCE> 16
 1.050636e-02 8.215107e-03 1.817951e-02 9.884575e-03 8.207715e-03 1.513373e-02 1.000000e-03 1.000000e-03 1.896571e-03 1.000000e-03 1.000000e-03 1.124712e-03 1.294197e-03 1.000000e-03 1.000000e-03 1.000000e-03
<GCONST> -6.563136e+01
<STATE> 3
<NUMMIXES> 2
<MIXTURE> 1 3.871312e-01
<MEAN> 16
 2.897289e-01 1.398765e-02 1.994029e+00 -3.001586e-01 -2.138779e-02 1.969738e+00 1.640382e-03 7.917692e-03 1.698228e-03 -1.599376e-03 -1.340461e-03 5.118318e-03 1.166219e-01 1.191206e-01 9.305301e-02 8.042564e-02
<VARIANCE> 16
 3.667875e-02 3.444571e-02 1.250542e-02 7.381362e-03 3.286817e-03 1.268263e-02 2.596732e-03 4.431849e-03 7.160075e-03 1.000000e-03 1.000000e-03 6.273308e-03 1.000000e-03 1.000000e-03 1.000000e-03 1.000000e-03
<GCONST> -5.947330e+01
<MIXTURE> 2 6.128608e-01
<MEAN> 16
 1.545866e-01 -2.394458e-02 1.810788e+00 -3.363758e-01 -5.717302e-02 1.796137e+00 -2.041864e-03 -7.255260e-04 -4.758693e-03 1.795614e-03 -1.413532e-03 -3.282845e-03 9.993368e-02 1.008926e-01 7.828169e-02 6.607480e-02
<VARIANCE> 16
 4.680100e-02 2.097729e-02 9.762553e-03 1.164774e-02 6.063270e-03 9.093692e-03 1.000000e-03 1.000000e-03 1.411671e-03 1.000000e-03 1.000000e-03 1.191411e-03 1.000000e-03 1.000000e-03 1.000000e-03 1.000000e-03
<GCONST> -6.496530e+01
<STATE> 4
<NUMMIXES> 2
<MIXTURE> 1 5.241643e-01
<MEAN> 16
 2.039401e-01 2.377448e-02 1.604756e+00 -2.929977e-01 6.149389e-02 1.606541e+00 -7.927535e-04 8.156112e-04 -1.991326e-03 -2.701206e-04 -8.228893e-04 -1.917351e-04 1.046298e-01 1.002330e-01 8.079652e-02 6.781764e-02
<VARIANCE> 16
 3.475172e-02 7.979636e-03 1.035819e-02 5.011037e-03 2.104229e-03 5.640140e-03 1.000000e-03 1.000000e-03 1.000000e-03 1.000000e-03 1.000000e-03 1.000000e-03 1.000000e-03 1.000000e-03 1.000000e-03 1.000000e-03
<GCONST> -6.906966e+01
<MIXTURE> 2 4.758354e-01
<MEAN> 16
 4.031105e-01 -4.729323e-01 1.786564e+00 -2.534662e-01 -3.511518e-01 1.744879e+00 3.092569e-02 -5.209691e-02 1.394864e-02 9.085779e-03 -4.789440e-02 5.398537e-03 1.080391e-01 9.045673e-02 7.916006e-02 6.998573e-02
<VARIANCE> 16
 5.237441e-02 3.115253e-02 2.733971e-02 1.200023e-02 3.784335e-02 2.432414e-02 1.833107e-03 2.534580e-03 8.874148e-03 1.000000e-03 2.302248e-03 6.337215e-03 1.000000e-03 1.000000e-03 1.000000e-03 1.000000e-03
<GCONST> -5.470304e+01
<STATE> 5
<MEAN> 16
 5.921503e-01 -7.000523e-01 1.854518e+00 -1.974161e-01 -6.147243e-01 1.807820e+00 3.188466e-03 -3.866035e-03 -1.379854e-05 1.401557e-03 -3.906798e-03 1.507492e-03 1.143400e-01 1.099422e-01 9.693875e-02 7.435175e-02
<VARIANCE> 16
 1.036235e-02 2.882346e-03 1.629208e-02 1.874556e-02 4.528474e-03 5.705042e-03 1.000000e-03 1.000000e-03 1.067589e-03 1.000000e-03 1.000000e-03 1.324752e-03 1.000000e-03 1.000000e-03 1.000000e-03 1.000000e-03
<GCONST> -6.840128e+01
<TRANSP> 6
 0.000000e+00 1.000000e+00 0.000000e+00 0.000000e+00 0.000000e+00 0.000000e+00
 0.000000e+00 9.285107e-01 7.148926e-02 0.000000e+00 0.000000e+00 0.000000e+00
 0.000000e+00 0.000000e+00 9.724060e-01 2.759402e-02 0.000000e+00 0.000000e+00
 0.000000e+00 0.000000e+00 0.000000e+00 9.379251e-01 6.207493e-02 0.000000e+00
 0.000000e+00 0.000000e+00 0.000000e+00 0.000000e+00 9.582272e-01 4.177285e-02
 0.000000e+00 0.000000e+00 0.000000e+00 0.000000e+00 0.000000e+00 0.000000e+00
<ENDHMM>
~h "bumps_into_each_other"
<BEGINHMM>
<NUMSTATES> 6
<STATE> 2
<NUMMIXES> 2
<MIXTURE> 1 3.616502e-01
<MEAN> 16
 3.609628e-01 -4.137264e-01 2.022445e+00 -3.024303e-01 -2.631672e-01 1.953098e+00 -1.109637e-02 2.750409e-02 8.209068e-03 -1.184512e-02 4.627247e-02 3.954855e-03 1.064027e-01 9.350883e-02 9.146092e-02 8.121193e-02
<VARIANCE> 16
 1.509833e-02 2.428431e-02 3.579923e-02 1.328791e-02 3.937786e-02 4.030973e-02 3.828375e-03 6.682022e-03 1.338304e-02 3.566721e-03 7.088451e-03 1.289537e-02 1.338453e-03 1.000000e-03 1.031839e-03 1.000000e-03
<GCONST> -4.973337e+01
<MIXTURE> 2 6.383469e-01
<MEAN> 16
 4.475226e-01 -3.895414e-01 1.904736e+00 -4.244128e-01 -3.451940e-01 1.898721e+00 -8.630911e-03 1.331032e-02 2.665996e-04 1.826198e-03 1.708553e-02 -4.050637e-03 8.868393e-02 8.926123e-02 8.269699e-02 8.224613e-02
<VARIANCE> 16
 4.802304e-03 1.149845e-02 4.436899e-02 5.154594e-03 1.247974e-02 3.974376e-02 1.000000e-03 1.000000e-03 2.957643e-03 1.000000e-03 1.059542e-03 2.986480e-03 1.000000e-03 1.000000e-03 1.000000e-03 1.000000e-03
<GCONST> -6.323144e+01
<STATE> 3
<NUMMIXES> 2
<MIXTURE> 1 5.118520e-01
<MEAN> 16
 3.143821e-01 -1.906715e-01 1.957054e+00 -2.497385e-01 -1.252842e-01 1.892955e+00 6.691016e-03 -2.430458e-03 2.451323e-02 -4.981338e-03 -2.718254e-04 2.339314e-02 9.336855e-02 9.995979e-02 9.154823e-02 8.629800e-02
<VARIANCE> 16
 1.160691e-02 4.751122e-02 1.125402e-02 6.064679e-03 3.361976e-02 7.987500e-03 1.000000e-03 1.840514e-03 4.101218e-03 1.000000e-03 1.000000e-03 3.683054e-03 1.000000e-03 1.000000e-03 1.000000e-03 1.000000e-03
<GCONST> -6.166422e+01
<MIXTURE> 2 4.881405e-01
<MEAN> 16
 2.963796e-01 -1.599564e-01 1.794556e+00 -2.187216e-01 -1.480990e-01 1.756434e+00 -1.060928e-02 1.239754e-02 -3.043758e-02 4.984915e-03 7.762045e-03 -2.747576e-02 8.000618e-02 8.581011e-02 7.467949e-02 7.147534e-02
<VARIANCE> 16
 1.163897e-02 2.797327e-02 7.068049e-03 6.506209e-03 1.592644e-02 6.889921e-03 1.193394e-03 4.061079e-03 5.303677e-03 1.000000e-03 3.131352e-03 4.710488e-03 1.000000e-03 1.000000e-03 1.000000e-03 1.000000e-03
<GCONST> -6.086816e+01
<STATE> 4
<NUMMIXES> 2
<MIXTURE> 1 4.301630e-01
<MEAN> 16
 3.166820e-01 -1.116373e-01 1.637927e+00 -3.489906e-01 8.027179e-02 1.555238e+00 8.786157e-03 -4.108046e-03 8.701527e-03 -8.682439e-03 8.881057e-04 7.581115e-03 9.669024e-02 1.125233e-01 8.446892e-02 8.227516e-02
<VARIANCE> 16
 1.358003e-02 5.807992e-02 2.232933e-02 8.357136e-03 1.058238e-02 1.385495e-02 1.000000e-03 1.000000e-03 1.529391e-03 1.000000e-03 1.000000e-03 1.069389e-03 1.000000e-03 1.000000e-03 1.000000e-03 1.000000e-03
<GCONST> -6.373883e+01
<MIXTURE> 2 5.698346e-01
<MEAN> 16
 2.336067e-01 -3.825938e-03 1.442778e+00 -3.032562e-01 5.986663e-02 1.431841e+00 -4.370740e-03 5.797112e-03 -9.035662e-03 4.141957e-03 1.542963e-03 -7.166117e-03 7.997522e-02 1.008213e-01 7.397486e-02 8.113024e-02
<VARIANCE> 16
 1.332565e-02 2.388236e-02 7.426814e-03 1.047961e-02 5.027329e-03 3.557534e-03 1.000000e-03 2.020036e-03 1.418495e-03 1.000000e-03 1.000000e-03 1.182100e-03 1.000000e-03 1.000000e-03 1.000000e-03 1.000000e-03
<GCONST> -6.689674e+01
<STATE> 5
<MEAN> 16
 4.337147e-01 -3.218622e-01 1.778242e+00 -3.432568e-01 -1.025429e-01 1.719453e+00 1.829915e-02 -4.366404e-02 3.397521e-02 -7.266101e-03 -3.750571e-02 2.524284e-02 9.623698e-02 9.347362e-02 8.131500e-02 7.928239e-02
<VARIANCE> 16
 1.659901e-02 3.645791e-02 5.149461e-02 1.514608e-02 3.907808e-02 3.905199e-02 1.000000e-03 1.788007e-03 6.484584e-03 1.000000e-03 3.239508e-03 5.772712e-03 1.010541e-03 1.000000e-03 1.000000e-03 1.000000e-03
<GCONST> -5.533330e+01
<TRANSP> 6
 0.000000e+00 1.000000e+00 0.000000e+00 0.000000e+00 0.000000e+00 0.000000e+00
 0.000000e+00 8.836229e-01 1.163771e-01 0.000000e+00 0.000000e+00 0.000000e+00
 0.000000e+00 0.000000e+00 9.647644e-01 3.523562e-02 0.000000e+00 0.000000e+00
 0.000000e+00 0.000000e+00 0.000000e+00 9.461430e-01 5.385702e-02 0.000000e+00
 0.000000e+00 0.000000e+00 0.000000e+00 0.000000e+00 4.713284e-01 5.286716e-01
 0.000000e+00 0.000000e+00 0.000000e+00 0.000000e+00 0.000000e+00 0.000000e+00
<ENDHMM>
~h "jumps_on"
<BEGINHMM>
<NUMSTATES> 6
<STATE> 2
<NUMMIXES> 2
<MIXTURE> 1 4.389692e-01
<MEAN> 16
 3.827888e-01 -3.966079e-01 2.081797e+00 -3.264642e-01 -3.343387e-01 2.048229e+00 -9.580871e-03 2.666133e-02 1.802288e-02 -4.376904e-03 3.383500e-02 1.343732e-02 9.752011e-02 9.514988e-02 9.135379e-02 8.477119e-02
<VARIANCE> 16
 1.327790e-02 1.767768e-02 3.255946e-02 1.068156e-02 3.809656e-02 3.276541e-02 2.576200e-03 6.112711e-03 1.070577e-02 3.205142e-03 1.053747e-02 1.141226e-02 1.080989e-03 1.000000e-03 1.000000e-03 1.000000e-03
<GCONST> -5.151884e+01
<MIXTURE> 2 5.610294e-01
<MEAN> 16
 3.857727e-01 -3.949516e-01 1.823473e+00 -3.211203e-01 -3.352954e-01 1.805728e+00 -1.996339e-02 3.168666e-02 -2.130557e-02 4.760122e-03 3.260330e-02 -2.063226e-02 9.101206e-02 8.829732e-02 7.781857e-02 7.773641e-02
<VARIANCE> 16
 1.119939e-02 1.160256e-02 3.293070e-02 1.797575e-02 1.986857e-02 3.081400e-02 1.000000e-03 1.964851e-03 3.442717e-03 1.000000e-03 1.677216e-03 2.910325e-03 1.000000e-03 1.000000e-03 1.000000e-03 1.000000e-03
<GCONST> -5.995336e+01
<STATE> 3
<NUMMIXES> 2
<MIXTURE> 1 5.417953e-01
<MEAN> 16
 2.880961e-01 -1.713001e-01 1.894921e+00 -2.398994e-01 -1.311701e-01 1.812302e+00 4.347182e-03 6.119204e-04 2.581567e-02 -4.246708e-03 -1.294148e-03 2.461322e-02 9.736847e-02 1.065367e-01 8.543108e-02 8.926553e-02
<VARIANCE> 16
 1.420921e-02 5.270822e-02 9.436834e-03 3.251972e-03 2.140888e-02 1.087174e-02 1.000000e-03 1.407420e-03 3.137713e-03 1.000000e-03 1.000000e-03 2.766886e-03 1.000000e-03 1.000000e-03 1.000000e-03 1.000000e-03
<GCONST> -6.312256e+01
<MIXTURE> 2 4.582021e-01
<MEAN> 16
 2.622594e-01 -1.279326e-01 1.755276e+00 -2.118511e-01 -1.403112e-01 1.705059e+00 -1.947278e-02 2.718650e-02 -3.823027e-02 8.300673e-03 1.189168e-02 -3.336386e-02 8.682997e-02 9.282852e-02 7.523488e-02 7.476692e-02
<VARIANCE> 16
 1.184470e-02 3.554592e-02 7.917784e-03 4.282929e-03 1.725679e-02 8.032601e-03 1.007092e-03 4.148794e-03 4.522591e-03 1.000000e-03 2.767480e-03 4.090812e-03 1.000000e-03 1.000000e-03 1.000000e-03 1.000000e-03
<GCONST> -6.125424e+01
<STATE> 4
<NUMMIXES> 2
<MIXTURE> 1 4.715246e-01
<MEAN> 16
 2.109779e-01 -1.082229e-01 1.645416e+00 -2.202943e-01 5.798342e-03 1.487960e+00 -1.857185e-03 3.296179e-03 3.059265e-03 -3.034080e-04 1.488981e-03 2.319095e-03 9.893478e-02 1.105753e-01 8.701927e-02 8.862334e-02
<VARIANCE> 16
 2.660045e-02 6.549164e-02 2.357825e-02 7.663934e-03 8.117953e-03 1.678756e-02 1.000000e-03 1.798455e-03 3.351097e-03 1.000000e-03 1.000000e-03 2.153148e-03 1.000000e-03 1.088359e-03 1.000000e-03 1.000000e-03
<GCONST> -6.089582e+01
<MIXTURE> 2 5.284742e-01
<MEAN> 16
 2.967968e-02 5.970392e-02 1.412689e+00 -1.544031e-01 -1.887901e-02 1.374662e+00 -5.706630e-03 4.073868e-03 -4.022465e-03 1.393454e-03 -2.229445e-04 -3.600163e-03 9.079185e-02 9.048527e-02 6.919517e-02 8.025987e-02
<VARIANCE> 16
 3.947049e-02 2.782005e-02 1.187702e-02 3.810821e-03 3.186539e-03 7.181644e-03 1.000000e-03 1.093068e-03 1.000000e-03 1.000000e-03 1.000000e-03 1.000000e-03 1.000000e-03 1.000000e-03 1.000000e-03 1.000000e-03
<GCONST> -6.708485e+01
<STATE> 5
<MEAN> 16
 -1.071882e-01 -2.196840e-02 1.721918e+00 -7.153483e-02 -9.930027e-02 1.703122e+00 7.174619e-03 -8.862988e-03 8.235406e-04 -3.383659e-03 7.268218e-04 1.528308e-03 9.225021e-02 9.476463e-02 7.176118e-02 8.291718e-02
<VARIANCE> 16
 3.184976e-02 3.280331e-02 1.637888e-02 1.717272e-02 1.864101e-02 1.815921e-02 4.031184e-03 1.873352e-03 5.549886e-03 5.857234e-03 2.903528e-03 7.564972e-03 1.000000e-03 1.790846e-03 1.000000e-03 1.000000e-03
<GCONST> -5.352726e+01
<TRANSP> 6
 0.000000e+00 1.000000e+00 0.000000e+00 0.000000e+00 0.000000e+00 0.000000e+00
 0.000000e+00 8.683134e-01 1.316866e-01 0.000000e+00 0.000000e+00 0.000000e+00
 0.000000e+00 0.000000e+00 9.431828e-01 5.681720e-02 0.000000e+00 0.000000e+00
 0.000000e+00 0.000000e+00 0.000000e+00 9.657568e-01 3.424317e-02 0.000000e+00
 0.000000e+00 0.000000e+00 0.000000e+00 0.000000e+00 8.719059e-01 1.280942e-01
 0.000000e+00 0.000000e+00 0.000000e+00 0.000000e+00 0.000000e+00 0.000000e+00
<ENDHMM>
~h "house"
<BEGINHMM>
<NUMSTATES> 6
<STATE> 2
<NUMMIXES> 2
<MIXTURE> 1 4.358815e-01
<MEAN> 16
 2.645607e-01 6.315459e-02 1.911817e+00 -2.386291e-01 7.700773e-02 1.904233e+00 1.247620e-02 -1.921210e-02 2.090922e-02 -1.195761e-02 -1.832688e-02 1.998270e-02 1.583499e-01 1.483909e-01 9.462687e-02 9.739459e-02
<VARIANCE> 16
 1.107204e-02 4.401603e-02 1.547342e-02 9.230465e-03 3.807693e-02 1.611778e-02 1.000000e-03 1.656018e-03 3.554474e-03 1.000000e-03 1.941678e-03 3.353787e-03 1.000000e-03 1.000000e-03 1.000000e-03 1.000000e-03
<GCONST> -5.990165e+01
<MIXTURE> 2 5.641143e-01
<MEAN> 16
 2.998630e-01 -4.206986e-01 1.965636e+00 -2.963408e-01 -4.974733e-02 1.838400e+00 -1.451995e-03 -6.886181e-03 -1.116495e-02 1.417783e-04 8.759886e-03 -1.549976e-02 1.154938e-01 1.298329e-01 8.457803e-02 1.011328e-01
<VARIANCE> 16
 4.069102e-03 2.507782e-02 1.886914e-02 2.067529e-03 3.573254e-02 1.408938e-02 1.000000e-03 1.520084e-03 7.121829e-03 1.000000e-03 1.967988e-03 4.589264e-03 1.259964e-03 1.000000e-03 1.000000e-03 1.000000e-03
<GCONST> -6.179354e+01
<STATE> 3
<NUMMIXES> 2
<MIXTURE> 1 4.168944e-01
<MEAN> 16
 2.989756e-01 -4.063064e-02 1.933201e+00 -3.051921e-01 5.311337e-02 1.828319e+00 3.104574e-03 4.996833e-03 1.011074e-02 -3.043133e-03 -1.067822e-03 9.707657e-03 1.158274e-01 1.243127e-01 8.884533e-02 1.060647e-01
<VARIANCE> 16
 2.833990e-02 5.000484e-02 1.269162e-02 2.688206e-03 2.657509e-03 1.050389e-02 2.275212e-03 4.074759e-03 6.932763e-03 1.000000e-03 1.000000e-03 5.355752e-03 1.000000e-03 1.000000e-03 1.000000e-03 1.000000e-03
<GCONST> -6.116140e+01
<MIXTURE> 2 5.830997e-01
<MEAN> 16
 1.926323e-01 -5.319202e-02 1.778891e+00 -3.527811e-01 -1.285490e-02 1.658302e+00 -4.260342e-03 -1.038514e-03 -9.324533e-03 1.567675e-03 -2.095662e-03 -7.410276e-03 1.042032e-01 1.103320e-01 7.590376e-02 9.273633e-02
<VARIANCE> 16
 3.475196e-02 1.981713e-02 1.188920e-02 2.300016e-03 5.496785e-03 6.615100e-03 1.000000e-03 1.000000e-03 2.391854e-03 1.000000e-03 1.000000e-03 1.907470e-03 1.000000e-03 1.000000e-03 1.000000e-03 1.000000e-03
<GCONST> -6.616336e+01
<STATE> 4
<NUMMIXES> 2
<MIXTURE> 1 6.696502e-01
<MEAN> 16
 1.824249e-01 -9.586041e-02 1.668629e+00 -2.317068e-01 4.159851e-03 1.613978e+00 7.208214e-04 -2.045651e-03 -1.313852e-03 8.147656e-04 -6.119292e-04 -1.112139e-03 9.437845e-02 8.598383e-02 7.727537e-02 9.060406e-02
<VARIANCE> 16
 5.416888e-02 2.941610e-02 1.268407e-02 6.902647e-03 2.538631e-02 6.162461e-03 1.000000e-03 1.000000e-03 1.002597e-03 1.000000e-03 1.000000e-03 1.000000e-03 1.000000e-03 1.000000e-03 1.000000e-03 1.000000e-03
<GCONST> -6.421688e+01
<MIXTURE> 2 3.303472e-01
<MEAN> 16
 3.346253e-01 -3.353513e-01 1.779565e+00 -2.773314e-01 -2.235658e-01 1.707717e+00 2.403997e-02 -4.012568e-02 1.434609e-02 5.908547e-03 -3.633932e-02 1.000364e-02 1.043810e-01 9.067384e-02 7.960114e-02 8.352795e-02
<VARIANCE> 16
 6.563529e-02 5.566441e-02 2.613754e-02 1.137788e-02 3.907647e-02 2.231264e-02 3.346481e-03 3.199663e-03 1.242167e-02 1.308411e-03 2.281181e-03 9.360055e-03 1.047257e-03 1.000000e-03 1.000000e-03 1.000000e-03
<GCONST> -5.218236e+01
<STATE> 5
<MEAN> 16
 5.893295e-01 -6.982130e-01 1.859064e+00 -1.977556e-01 -6.037229e-01 1.812549e+00 4.585668e-03 -4.407393e-03 1.659807e-06 2.136552e-03 -5.706218e-03 2.771141e-03 1.154019e-01 1.087640e-01 9.807758e-02 7.202569e-02
<VARIANCE> 16
 1.678976e-02 3.135198e-03 1.593053e-02 1.738791e-02 6.003676e-03 7.805328e-03 1.000000e-03 1.000000e-03 1.144281e-03 1.000000e-03 1.000000e-03 1.282749e-03 1.000000e-03 1.000000e-03 1.000000e-03 1.000000e-03
<GCONST> -6.729962e+01
<TRANSP> 6
 0.000000e+00 1.000000e+00 0.000000e+00 0.000000e+00 0.000000e+00 0.000000e+00
 0.000000e+00 9.448906e-01 5.510940e-02 0.000000e+00 0.000000e+00 0.000000e+00
 0.000000e+00 0.000000e+00 9.751856e-01 2.481434e-02 0.000000e+00 0.000000e+00
 0.000000e+00 0.000000e+00 0.000000e+00 9.650779e-01 3.492215e-02 0.000000e+00
 0.000000e+00 0.000000e+00 0.000000e+00 0.000000e+00 9.608577e-01 3.914229e-02
 0.000000e+00 0.000000e+00 0.000000e+00 0.000000e+00 0.000000e+00 0.000000e+00
<ENDHMM>
~h "bumps_into"
<BEGINHMM>
<NUMSTATES> 6
<STATE> 2
<NUMMIXES> 2
<MIXTURE> 1 5.083334e-01
<MEAN> 16
 3.510059e-01 -3.903169e-01 2.082291e+00 -3.579578e-01 -3.314286e-01 2.052485e+00 9.229829e-05 9.407127e-03 2.503617e-02 -5.877113e-03 1.359014e-02 2.024058e-02 8.877350e-02 8.656495e-02 8.358512e-02 8.676156e-02
<VARIANCE> 16
 1.982128e-02 2.649010e-02 1.934478e-02 1.552993e-02 1.732040e-02 1.627022e-02 1.406730e-03 2.358912e-03 7.759053e-03 2.059118e-03 2.556371e-03 7.727885e-03 1.000000e-03 1.000000e-03 1.000000e-03 1.000000e-03
<GCONST> -5.655408e+01
<MIXTURE> 2 4.916668e-01
<MEAN> 16
 4.151701e-01 -4.059060e-01 1.768205e+00 -3.292893e-01 -3.533170e-01 1.742403e+00 -2.617239e-02 3.973806e-02 -2.768494e-02 3.199231e-03 4.311059e-02 -2.782581e-02 9.290133e-02 8.884094e-02 7.910603e-02 7.730124e-02
<VARIANCE> 16
 1.245915e-02 1.222715e-02 2.440053e-02 1.859648e-02 1.514355e-02 2.281608e-02 1.000000e-03 2.416192e-03 3.633373e-03 1.000000e-03 1.969731e-03 3.411354e-03 1.000000e-03 1.000000e-03 1.000000e-03 1.000000e-03
<GCONST> -6.005197e+01
<STATE> 3
<NUMMIXES> 2
<MIXTURE> 1 1.692297e-01
<MEAN> 16
 2.784162e-01 -2.038894e-01 1.820284e+00 -2.141384e-01 -1.432227e-01 1.766381e+00 -2.711938e-02 4.726734e-02 -2.303203e-02 6.871399e-03 5.389054e-02 -1.860409e-02 1.009200e-01 9.392250e-02 8.090059e-02 7.593382e-02
<VARIANCE> 16
 2.200802e-02 3.573274e-02 2.620892e-02 9.026147e-03 2.073004e-02 2.001001e-02 6.272092e-03 1.011638e-02 1.975238e-02 4.050569e-03 1.485519e-02 1.789037e-02 1.187590e-03 1.000000e-03 1.000000e-03 1.000000e-03
<GCONST> -4.866961e+01
<MIXTURE> 2 8.307649e-01
<MEAN> 16
 2.821943e-01 -1.695890e-01 1.813960e+00 -2.479464e-01 -1.619947e-01 1.764049e+00 -2.798851e-03 6.022119e-03 -1.286490e-03 5.909216e-04 2.874606e-03 -2.064745e-04 8.544313e-02 9.275922e-02 8.019537e-02 7.531346e-02
<VARIANCE> 16
 1.501526e-02 2.629515e-02 1.009685e-02 3.427782e-03 7.502374e-03 8.080377e-03 1.000000e-03 1.744682e-03 2.479565e-03 1.000000e-03 1.000000e-03 2.245241e-03 1.000000e-03 1.000000e-03 1.000000e-03 1.000000e-03
<GCONST> -6.521734e+01
<STATE> 4
<NUMMIXES> 2
<MIXTURE> 1 1.454912e-01
<MEAN> 16
 1.325459e-01 -3.316019e-02 1.656675e+00 -1.870293e-01 3.338516e-02 1.626049e+00 5.256803e-03 1.185780e-02 7.225088e-03 -7.504922e-03 2.120284e-02 6.102239e-03 1.068023e-01 1.070520e-01 8.127683e-02 7.984743e-02
<VARIANCE> 16
 3.641932e-02 4.999080e-02 4.530581e-02 2.195422e-02 1.676791e-02 3.751718e-02 8.869432e-03 4.476067e-03 1.005566e-02 8.268288e-03 3.978434e-03 8.921355e-03 1.000000e-03 1.000000e-03 1.000000e-03 1.000000e-03
<GCONST> -4.859320e+01
<MIXTURE> 2 8.545061e-01
<MEAN> 16
 2.400283e-01 -5.759329e-02 1.474549e+00 -3.128373e-01 3.481429e-02 1.404447e+00 1.389049e-03 -2.036108e-03 -1.028890e-03 -2.120113e-04 5.204740e-04 -1.736972e-03 8.763952e-02 1.070758e-01 7.871942e-02 8.376913e-02
<VARIANCE> 16
 1.952502e-02 3.192605e-02 1.673187e-02 6.651813e-03 4.632199e-03 9.168452e-03 1.000000e-03 1.118465e-03 1.143472e-03 1.000000e-03 1.000000e-03 1.000000e-03 1.000000e-03 1.000000e-03 1.000000e-03 1.000000e-03
<GCONST> -6.597591e+01
<STATE> 5
<MEAN> 16
 3.008358e-01 -2.844060e-01 1.835076e+00 -2.052021e-01 8.839744e-02 1.785517e+00 4.957606e-03 -8.521236e-03 8.786825e-03 -7.197663e-03 -7.315441e-04 7.862991e-03 1.176792e-01 1.177208e-01 9.117366e-02 8.543389e-02
<VARIANCE> 16
 1.281572e-02 1.107413e-01 2.291733e-02 1.246945e-02 3.393067e-02 2.735028e-02 1.000000e-03 1.781573e-03 1.416682e-03 1.000000e-03 3.434168e-03 1.186297e-03 1.073887e-03 1.000000e-03 1.000000e-03 1.000000e-03
<GCONST> -5.897026e+01
<TRANSP> 6
 0.000000e+00 1.000000e+00 0.000000e+00 0.000000e+00 0.000000e+00 0.000000e+00
 0.000000e+00 8.733392e-01 1.266608e-01 0.000000e+00 0.000000e+00 0.000000e+00
 0.000000e+00 0.000000e+00 9.300424e-01 6.995755e-02 0.000000e+00 0.000000e+00
 0.000000e+00 0.000000e+00 0.000000e+00 9.501384e-01 4.986158e-02 0.000000e+00
 0.000000e+00 0.000000e+00 0.000000e+00 0.000000e+00 6.527584e-01 3.472416e-01
 0.000000e+00 0.000000e+00 0.000000e+00 0.000000e+00 0.000000e+00 0.000000e+00
<ENDHMM>
~h "goes_to"
<BEGINHMM>
<NUMSTATES> 6
<STATE> 2
<NUMMIXES> 2
<MIXTURE> 1 4.994480e-01
<MEAN> 16
 3.406286e-01 -3.406041e-01 1.987548e+00 -2.225273e-01 -2.192013e-01 1.948170e+00 -6.662055e-03 2.603311e-02 1.566006e-02 -1.332241e-03 2.614362e-02 1.328701e-02 1.037800e-01 9.583088e-02 8.906832e-02 8.269572e-02
<VARIANCE> 16
 1.670745e-02 6.186618e-02 2.958335e-02 2.551146e-02 8.064827e-02 2.897133e-02 2.461938e-03 6.917726e-03 1.242714e-02 3.080650e-03 7.953170e-03 1.133506e-02 1.032746e-03 1.000000e-03 1.000000e-03 1.000000e-03
<GCONST> -4.878073e+01
<MIXTURE> 2 5.005487e-01
<MEAN> 16
 4.303025e-01 -4.257585e-01 1.814503e+00 -3.362263e-01 -3.558758e-01 1.796071e+00 -2.660675e-02 4.280801e-02 -2.641418e-02 3.272059e-03 4.405589e-02 -2.256258e-02 9.212077e-02 8.716384e-02 7.647427e-02 7.437073e-02
<VARIANCE> 16
 8.558813e-03 1.173797e-02 4.282922e-02 1.740412e-02 2.360929e-02 4.171106e-02 1.000000e-03 2.435831e-03 3.629561e-03 1.000000e-03 2.453957e-03 3.018651e-03 1.000000e-03 1.000000e-03 1.000000e-03 1.000000e-03
<GCONST> -5.882002e+01
<STATE> 3
<NUMMIXES> 2
<MIXTURE> 1 4.775198e-01
<MEAN> 16
 2.879131e-01 -2.820520e-01 1.944666e+00 -2.987551e-01 -2.118339e-01 1.879641e+00 2.291855e-03 -2.216333e-04 1.841814e-02 -5.138503e-03 -1.849965e-03 1.692001e-02 8.783537e-02 9.440043e-02 8.654393e-02 8.365862e-02
<VARIANCE> 16
 1.888067e-02 3.063777e-02 1.299758e-02 7.157186e-03 6.902882e-03 7.217207e-03 1.000000e-03 1.009759e-03 2.673855e-03 1.000000e-03 1.000000e-03 2.345799e-03 1.000000e-03 1.000000e-03 1.000000e-03 1.000000e-03
<GCONST> -6.447054e+01
<MIXTURE> 2 5.224767e-01
<MEAN> 16
 2.006452e-01 -1.819542e-01 1.760647e+00 -2.380222e-01 -1.917303e-01 1.741608e+00 -1.116948e-02 8.384828e-03 -1.930816e-02 4.832282e-03 6.704302e-03 -1.700985e-02 8.848055e-02 9.186162e-02 7.225040e-02 7.571248e-02
<VARIANCE> 16
 3.171979e-02 1.810106e-02 7.122973e-03 6.190205e-03 4.141498e-03 6.583928e-03 1.000000e-03 2.542668e-03 3.044129e-03 1.000000e-03 1.000000e-03 2.738377e-03 1.000000e-03 1.000000e-03 1.000000e-03 1.000000e-03
<GCONST> -6.461937e+01
<STATE> 4
<NUMMIXES> 2
<MIXTURE> 1 4.730439e-01
<MEAN> 16
 2.505250e-01 -1.821820e-01 1.589602e+00 -2.897539e-01 6.838764e-03 1.465907e+00 -1.855909e-03 4.110758e-03 -1.843878e-03 1.023248e-04 3.237335e-03 -3.806217e-03 8.920205e-02 1.021908e-01 7.797575e-02 8.307858e-02
<VARIANCE> 16
 1.330878e-02 4.992682e-02 2.022298e-02 8.090071e-03 1.017979e-02 2.219215e-02 1.000000e-03 2.181450e-03 2.806091e-03 1.000000e-03 1.000000e-03 1.979127e-03 1.000000e-03 1.000000e-03 1.000000e-03 1.000000e-03
<GCONST> -6.160704e+01
<MIXTURE> 2 5.269545e-01
<MEAN> 16
 8.859669e-02 2.230993e-02 1.385144e+00 -2.870857e-01 2.093543e-02 1.376087e+00 -5.272258e-03 1.183373e-03 -2.276965e-03 4.821420e-05 4.507182e-04 -6.231241e-04 8.949713e-02 9.471418e-02 7.722375e-02 8.083266e-02
<VARIANCE> 16
 4.957689e-02 5.658791e-03 7.583031e-03 6.326338e-03 2.536281e-03 6.433752e-03 1.000000e-03 1.000000e-03 1.000000e-03 1.000000e-03 1.000000e-03 1.000000e-03 1.000000e-03 1.000000e-03 1.000000e-03 1.000000e-03
<GCONST> -6.881843e+01
<STATE> 5
<MEAN> 16
 1.932715e-01 -1.445231e-01 1.709310e+00 -2.327558e-01 -2.029044e-01 1.734196e+00 1.630224e-02 -4.831866e-03 7.268083e-03 -1.399291e-02 -1.684453e-03 1.093752e-02 9.834952e-02 1.014363e-01 7.945583e-02 7.779309e-02
<VARIANCE> 16
 4.579649e-02 3.593903e-02 4.571074e-02 2.523337e-02 9.671336e-02 3.624539e-02 9.983493e-03 4.845207e-03 1.226274e-02 7.215234e-03 4.876351e-03 1.066247e-02 1.000000e-03 1.152773e-03 1.000000e-03 1.000000e-03
<GCONST> -4.604448e+01
<TRANSP> 6
 0.000000e+00 1.000000e+00 0.000000e+00 0.000000e+00 0.000000e+00 0.000000e+00
 0.000000e+00 8.786471e-01 1.213529e-01 0.000000e+00 0.000000e+00 0.000000e+00
 0.000000e+00 0.000000e+00 9.385963e-01 6.140369e-02 0.000000e+00 0.000000e+00
 0.000000e+00 0.000000e+00 0.000000e+00 9.537427e-01 4.625727e-02 0.000000e+00
 0.000000e+00 0.000000e+00 0.000000e+00 0.000000e+00 7.299976e-01 2.700024e-01
 0.000000e+00 0.000000e+00 0.000000e+00 0.000000e+00 0.000000e+00 0.000000e+00
<ENDHMM>
