~o
<STREAMINFO> 1 16
<VECSIZE> 16<NULLD><USER><DIAGC>
~h "Monkey"
<BEGINHMM>
<NUMSTATES> 6
<STATE> 2
<NUMMIXES> 2
<MIXTURE> 1 5.981569e-01
<MEAN> 16
 6.218455e-01 -7.423675e-01 1.936972e+00 -1.421233e-01 -6.020573e-01 1.826505e+00 6.218455e-01 -7.423675e-01 1.936972e+00 -1.421233e-01 -6.020573e-01 1.826505e+00 1.125570e-01 1.135586e-01 9.531970e-02 7.488429e-02
<VARIANCE> 16
 7.321896e-03 1.000000e-03 4.693858e-03 2.845030e-03 6.320551e-03 4.326654e-03 7.321896e-03 1.000000e-03 4.693858e-03 2.845030e-03 6.320551e-03 4.326654e-03 1.000000e-03 1.000000e-03 1.000000e-03 1.000000e-03
<GCONST> -6.533546e+01
<MIXTURE> 2 4.018429e-01
<MEAN> 16
 5.601631e-01 -6.671301e-01 1.733307e+00 -3.133472e-01 -6.418738e-01 1.827169e+00 5.601631e-01 -6.671301e-01 1.733307e+00 -3.133472e-01 -6.418738e-01 1.827169e+00 1.195318e-01 9.916919e-02 9.953929e-02 6.556199e-02
<VARIANCE> 16
 2.137654e-03 1.640313e-03 7.883933e-03 2.667333e-02 9.771544e-03 1.279689e-02 2.137654e-03 1.640313e-03 7.883933e-03 2.667333e-02 9.771544e-03 1.279689e-02 1.000000e-03 1.000000e-03 1.000000e-03 1.000000e-03
<GCONST> -5.825453e+01
<STATE> 3
<NUMMIXES> 2
<MIXTURE> 1 6.909899e-01
<MEAN> 16
 6.114660e-01 -7.416735e-01 1.946454e+00 -1.430556e-01 -6.151859e-01 1.827438e+00 -2.226055e-03 2.638963e-03 1.839883e-03 -6.709229e-04 2.093350e-03 1.744597e-03 1.147251e-01 1.154749e-01 1.020008e-01 7.508132e-02
<VARIANCE> 16
 6.090350e-03 1.000000e-03 4.105994e-03 1.836431e-03 1.024792e-03 2.420224e-03 1.000000e-03 1.000000e-03 1.000000e-03 1.000000e-03 1.000000e-03 1.000000e-03 1.000000e-03 1.000000e-03 1.000000e-03 1.000000e-03
<GCONST> -7.638273e+01
<MIXTURE> 2 3.090099e-01
<MEAN> 16
 5.887765e-01 -7.143448e-01 1.845009e+00 -2.305127e-01 -6.517972e-01 1.852190e+00 -4.676498e-03 4.567089e-03 -2.987493e-03 4.779224e-04 1.573046e-03 -7.108589e-03 1.169107e-01 1.043974e-01 9.584352e-02 6.922210e-02
<VARIANCE> 16
 3.802127e-03 2.277511e-03 1.186544e-02 2.010597e-02 1.154477e-02 1.340111e-02 1.000000e-03 1.000000e-03 1.701158e-03 1.000000e-03 1.000000e-03 4.581137e-03 1.000000e-03 1.000000e-03 1.000000e-03 1.000000e-03
<GCONST> -6.638994e+01
<STATE> 4
<NUMMIXES> 2
<MIXTURE> 1 4.649663e-01
<MEAN> 16
 5.437902e-01 -6.699337e-01 1.865785e+00 -1.677072e-01 -5.742983e-01 1.810694e+00 -2.237080e-02 1.948249e-02 4.268785e-03 -4.657238e-03 1.147165e-02 4.736627e-03 1.158557e-01 1.062790e-01 9.606014e-02 7.608848e-02
<VARIANCE> 16
 3.156927e-03 2.167891e-03 1.375470e-02 1.255170e-02 8.656397e-03 9.035762e-03 1.528683e-03 1.345210e-03 1.403435e-03 1.000000e-03 1.000000e-03 1.124562e-03 1.000000e-03 1.000000e-03 1.027252e-03 1.000000e-03
<GCONST> -6.847981e+01
<MIXTURE> 2 5.350334e-01
<MEAN> 16
 5.519558e-01 -6.351762e-01 1.706598e+00 -3.872986e-01 -6.563820e-01 1.798823e+00 -6.315038e-03 6.990050e-03 -3.650726e-03 -2.932512e-03 6.340195e-03 -1.948567e-02 1.120675e-01 9.995200e-02 1.173041e-01 6.317223e-02
<VARIANCE> 16
 1.130977e-03 1.000000e-03 5.633143e-03 1.792835e-02 2.595159e-03 5.512250e-03 1.000000e-03 1.000000e-03 1.000000e-03 1.000000e-03 1.000000e-03 1.276973e-03 1.000000e-03 1.000000e-03 1.000000e-03 1.000000e-03
<GCONST> -7.347481e+01
<STATE> 5
<MEAN> 16
 3.797759e-01 -6.508974e-01 1.898321e+00 -1.596352e-01 -2.687739e-01 1.822413e+00 -7.488750e-03 5.082238e-03 -2.381692e-04 -4.091814e-03 1.538921e-02 1.080494e-04 1.239532e-01 1.092765e-01 8.044086e-02 7.804914e-02
<VARIANCE> 16
 2.007312e-02 3.289983e-03 9.306225e-03 1.178208e-02 1.269365e-01 1.084642e-02 1.000000e-03 1.000000e-03 3.264571e-03 1.000000e-03 3.576607e-03 2.961057e-03 1.000000e-03 1.000000e-03 1.000000e-03 1.000000e-03
<GCONST> -6.145992e+01
<TRANSP> 6
 0.000000e+00 1.000000e+00 0.000000e+00 0.000000e+00 0.000000e+00 0.000000e+00
 0.000000e+00 0.000000e+00 1.000000e+00 0.000000e+00 0.000000e+00 0.000000e+00
 0.000000e+00 0.000000e+00 8.149320e-01 1.850680e-01 0.000000e+00 0.000000e+00
 0.000000e+00 0.000000e+00 0.000000e+00 6.626449e-01 3.373551e-01 0.000000e+00
 0.000000e+00 0.000000e+00 0.000000e+00 0.000000e+00 8.902954e-01 1.097047e-01
 0.000000e+00 0.000000e+00 0.000000e+00 0.000000e+00 0.000000e+00 0.000000e+00
<ENDHMM>
~h "fence"
<BEGINHMM>
<NUMSTATES> 6
<STATE> 2
<NUMMIXES> 2
<MIXTURE> 1 4.205558e-01
<MEAN> 16
 4.180909e-01 -2.984534e-01 1.982975e+00 -3.538153e-01 -1.782093e-01 1.878839e+00 9.294614e-03 -1.120483e-02 2.643546e-02 -5.937113e-03 -6.333520e-03 2.058556e-02 1.144524e-01 1.542561e-01 9.471384e-02 9.320761e-02
<VARIANCE> 16
 8.525989e-03 1.932706e-02 1.590102e-02 2.320955e-03 1.194138e-02 9.582345e-03 1.000000e-03 1.000000e-03 3.491159e-03 1.000000e-03 1.000000e-03 2.909786e-03 1.202798e-03 1.000000e-03 1.000000e-03 1.000000e-03
<GCONST> -6.516217e+01
<MIXTURE> 2 5.794390e-01
<MEAN> 16
 2.773903e-01 -2.628929e-01 1.843299e+00 -3.023031e-01 -2.553818e-01 1.765506e+00 -5.278236e-03 3.729313e-03 -2.039232e-02 2.147142e-03 1.036588e-04 -1.677269e-02 8.392544e-02 1.452964e-01 8.282892e-02 8.704948e-02
<VARIANCE> 16
 2.116166e-02 1.775798e-02 1.768813e-02 2.565862e-03 8.533708e-03 1.030645e-02 1.000000e-03 1.945697e-03 3.444682e-03 1.000000e-03 1.000000e-03 2.568591e-03 1.000000e-03 1.000000e-03 1.000000e-03 1.000000e-03
<GCONST> -6.405124e+01
<STATE> 3
<NUMMIXES> 2
<MIXTURE> 1 4.573732e-01
<MEAN> 16
 3.019739e-01 -6.458394e-02 1.905458e+00 -3.487370e-01 -1.074282e-01 1.850072e+00 5.871911e-03 -4.504930e-03 1.930957e-02 -3.403281e-03 -3.398297e-03 1.700840e-02 1.183033e-01 1.630062e-01 9.233928e-02 9.597873e-02
<VARIANCE> 16
 3.672625e-02 5.584904e-02 1.298797e-02 4.302092e-03 3.312855e-03 1.092113e-02 1.300537e-03 2.699269e-03 3.455443e-03 1.000000e-03 1.000000e-03 2.954336e-03 1.000000e-03 1.000000e-03 1.000000e-03 1.000000e-03
<GCONST> -6.230130e+01
<MIXTURE> 2 5.426207e-01
<MEAN> 16
 1.782140e-01 -8.499307e-02 1.751411e+00 -3.635460e-01 -1.197554e-01 1.709831e+00 -5.976902e-03 -9.516196e-04 -1.590702e-02 3.427081e-03 1.158419e-05 -1.445502e-02 9.879714e-02 1.372248e-01 7.740286e-02 8.922121e-02
<VARIANCE> 16
 5.463047e-02 1.978914e-02 6.609278e-03 8.906384e-03 6.964658e-03 5.613269e-03 1.520041e-03 1.267654e-03 2.650123e-03 1.000000e-03 1.000000e-03 2.492856e-03 1.000000e-03 1.000000e-03 1.000000e-03 1.000000e-03
<GCONST> -6.384717e+01
<STATE> 4
<NUMMIXES> 2
<MIXTURE> 1 6.297448e-01
<MEAN> 16
 1.897397e-01 -9.759486e-02 1.598918e+00 -3.826877e-01 -4.861439e-02 1.547110e+00 2.764971e-04 -1.307377e-03 5.118660e-03 -1.377866e-03 -7.242900e-04 5.024606e-03 9.790118e-02 1.426910e-01 7.991422e-02 8.608431e-02
<VARIANCE> 16
 4.661985e-02 2.207285e-02 2.258692e-02 6.987854e-03 2.636603e-03 1.729337e-02 1.000000e-03 1.000000e-03 1.000000e-03 1.000000e-03 1.000000e-03 1.000000e-03 1.000000e-03 1.000000e-03 1.000000e-03 1.000000e-03
<GCONST> -6.530032e+01
<MIXTURE> 2 3.702448e-01
<MEAN> 16
 1.602755e-01 -1.992353e-01 1.583786e+00 -3.222884e-01 -1.304824e-01 1.532624e+00 1.174042e-02 -1.906134e-02 -5.285586e-03 5.526993e-03 -1.393276e-02 -6.866078e-03 9.264208e-02 1.210613e-01 7.447556e-02 7.986683e-02
<VARIANCE> 16
 7.504006e-02 3.639466e-02 3.044579e-02 9.805816e-03 2.153148e-02 2.658024e-02 2.551526e-03 2.267773e-03 3.706665e-03 1.000000e-03 1.000000e-03 2.944610e-03 1.000000e-03 1.384844e-03 1.000000e-03 1.000000e-03
<GCONST> -5.668582e+01
<STATE> 5
<MEAN> 16
 5.752032e-01 -6.920081e-01 1.858675e+00 -1.885026e-01 -5.948681e-01 1.793595e+00 6.417374e-03 -7.416130e-03 2.859656e-03 3.586526e-03 -8.915643e-03 3.553047e-03 1.156453e-01 1.108057e-01 9.696835e-02 7.516040e-02
<VARIANCE> 16
 2.096251e-02 4.566796e-03 1.490015e-02 1.506349e-02 7.653448e-03 7.415608e-03 1.000000e-03 1.000000e-03 1.892641e-03 1.000000e-03 1.000000e-03 1.730548e-03 1.000000e-03 1.000000e-03 1.000000e-03 1.000000e-03
<GCONST> -6.591771e+01
<TRANSP> 6
 0.000000e+00 1.000000e+00 0.000000e+00 0.000000e+00 0.000000e+00 0.000000e+00
 0.000000e+00 9.520236e-01 4.797638e-02 0.000000e+00 0.000000e+00 0.000000e+00
 0.000000e+00 0.000000e+00 9.769871e-01 2.301289e-02 0.000000e+00 0.000000e+00
 0.000000e+00 0.000000e+00 0.000000e+00 9.656742e-01 3.432583e-02 0.000000e+00
 0.000000e+00 0.000000e+00 0.000000e+00 0.000000e+00 9.626800e-01 3.731996e-02
 0.000000e+00 0.000000e+00 0.000000e+00 0.000000e+00 0.000000e+00 0.000000e+00
<ENDHMM>
~h "Car"
<BEGINHMM>
<NUMSTATES> 6
<STATE> 2
<NUMMIXES> 2
<MIXTURE> 1 5.635719e-01
<MEAN> 16
 6.248003e-01 -7.394370e-01 1.924073e+00 -1.472511e-01 -5.942481e-01 1.821627e+00 6.248003e-01 -7.394370e-01 1.924073e+00 -1.472511e-01 -5.942481e-01 1.821627e+00 1.111988e-01 1.130236e-01 9.650905e-02 8.118679e-02
<VARIANCE> 16
 6.572855e-03 1.000000e-03 4.026073e-03 3.706829e-03 8.389403e-03 5.194790e-03 6.572855e-03 1.000000e-03 4.026073e-03 3.706829e-03 8.389403e-03 5.194790e-03 1.000000e-03 1.000000e-03 1.000000e-03 1.000000e-03
<GCONST> -6.439697e+01
<MIXTURE> 2 4.364281e-01
<MEAN> 16
 5.658208e-01 -6.758609e-01 1.735492e+00 -3.109651e-01 -6.548769e-01 1.832055e+00 5.658208e-01 -6.758609e-01 1.735492e+00 -3.109651e-01 -6.548769e-01 1.832055e+00 1.185580e-01 9.448669e-02 1.013418e-01 6.470145e-02
<VARIANCE> 16
 2.267220e-03 1.747740e-03 8.283104e-03 2.345495e-02 8.508414e-03 1.243417e-02 2.267220e-03 1.747740e-03 8.283104e-03 2.345495e-02 8.508414e-03 1.243417e-02 1.000000e-03 1.124900e-03 1.000000e-03 1.000000e-03
<GCONST> -5.838500e+01
<STATE> 3
<NUMMIXES> 2
<MIXTURE> 1 4.433110e-01
<MEAN> 16
 6.026508e-01 -7.332637e-01 1.927343e+00 -1.214842e-01 -1.755299e-01 1.785813e+00 3.190943e-03 -4.303844e-03 1.630098e-02 -1.769909e-03 1.373009e-02 1.199009e-02 1.253007e-01 1.130666e-01 9.207687e-02 8.259731e-02
<VARIANCE> 16
 3.189940e-03 1.000000e-03 6.084188e-03 1.507482e-02 1.146718e-01 8.707597e-03 1.000000e-03 1.000000e-03 3.373614e-03 1.673239e-03 4.516590e-03 3.984148e-03 1.000000e-03 1.000000e-03 1.000000e-03 1.000000e-03
<GCONST> -6.391224e+01
<MIXTURE> 2 5.566878e-01
<MEAN> 16
 5.864765e-01 -7.063825e-01 1.829306e+00 -2.404003e-01 -4.065997e-01 1.766053e+00 -2.591273e-03 6.000537e-03 -1.342928e-02 -1.833361e-03 1.952574e-03 -1.534597e-02 1.222356e-01 9.955201e-02 9.392081e-02 7.737090e-02
<VARIANCE> 16
 1.868629e-03 1.647685e-03 1.024115e-02 2.247389e-02 8.856762e-02 1.639203e-02 1.000000e-03 1.000000e-03 1.831201e-03 1.000000e-03 1.000000e-03 1.939898e-03 1.000000e-03 1.000000e-03 1.000000e-03 1.000000e-03
<GCONST> -6.600655e+01
<STATE> 4
<NUMMIXES> 2
<MIXTURE> 1 5.940779e-01
<MEAN> 16
 6.014836e-01 -7.296265e-01 1.893786e+00 -2.030231e-01 -6.221007e-01 1.853233e+00 4.823161e-04 3.157280e-03 2.099281e-03 -1.743172e-03 3.710952e-03 1.282148e-03 1.171602e-01 1.058403e-01 1.097244e-01 7.771915e-02
<VARIANCE> 16
 3.900719e-03 1.310577e-03 1.001974e-02 9.177279e-03 1.355108e-02 9.981667e-03 1.000000e-03 1.000000e-03 1.000000e-03 1.000000e-03 1.000000e-03 1.000000e-03 1.000000e-03 1.000000e-03 1.000000e-03 1.000000e-03
<GCONST> -7.005792e+01
<MIXTURE> 2 4.059211e-01
<MEAN> 16
 5.511849e-01 -6.405938e-01 1.685216e+00 -3.712486e-01 -6.451132e-01 1.783364e+00 -2.895012e-03 4.620460e-03 -1.064370e-03 -1.188724e-03 7.055839e-03 -1.409897e-02 1.168546e-01 9.619971e-02 1.205787e-01 6.201218e-02
<VARIANCE> 16
 1.226233e-03 1.348124e-03 4.134493e-03 1.773940e-02 3.487483e-03 6.205182e-03 1.000000e-03 1.000000e-03 1.000000e-03 1.000000e-03 1.000000e-03 1.030587e-03 1.000000e-03 1.000000e-03 1.000000e-03 1.000000e-03
<GCONST> -7.321555e+01
<STATE> 5
<MEAN> 16
 4.211708e-01 -6.437537e-01 1.887836e+00 -1.744955e-01 -5.999566e-01 1.830565e+00 -1.978597e-02 1.204868e-02 -8.054655e-04 -4.084793e-03 6.268050e-03 -5.891134e-04 1.156302e-01 1.136742e-01 8.585475e-02 7.407298e-02
<VARIANCE> 16
 2.626761e-02 3.589714e-03 8.678896e-03 6.815462e-03 6.353993e-03 5.954226e-03 1.214086e-03 1.000000e-03 2.658165e-03 1.000000e-03 1.000000e-03 1.899719e-03 1.000000e-03 1.000000e-03 1.000000e-03 1.000000e-03
<GCONST> -6.704504e+01
<TRANSP> 6
 0.000000e+00 1.000000e+00 0.000000e+00 0.000000e+00 0.000000e+00 0.000000e+00
 0.000000e+00 0.000000e+00 1.000000e+00 0.000000e+00 0.000000e+00 0.000000e+00
 0.000000e+00 0.000000e+00 7.566482e-01 2.433518e-01 0.000000e+00 0.000000e+00
 0.000000e+00 0.000000e+00 0.000000e+00 7.912872e-01 2.087128e-01 0.000000e+00
 0.000000e+00 0.000000e+00 0.000000e+00 0.000000e+00 8.103427e-01 1.896572e-01
 0.000000e+00 0.000000e+00 0.000000e+00 0.000000e+00 0.000000e+00 0.000000e+00
<ENDHMM>
~h "Man"
<BEGINHMM>
<NUMSTATES> 6
<STATE> 2
<NUMMIXES> 2
<MIXTURE> 1 2.558072e-01
<MEAN> 16
 6.533744e-01 -7.260295e-01 1.966003e+00 -1.510811e-01 -5.677896e-01 1.834702e+00 6.533744e-01 -7.260295e-01 1.966003e+00 -1.510811e-01 -5.677896e-01 1.834702e+00 1.111232e-01 1.063727e-01 1.007426e-01 7.599823e-02
<VARIANCE> 16
 7.926679e-02 2.855286e-02 4.954548e-03 1.202131e-02 3.561829e-02 1.405868e-02 7.926679e-02 2.855286e-02 4.954548e-03 1.202131e-02 3.561829e-02 1.405868e-02 1.000000e-03 1.000000e-03 1.000000e-03 1.000000e-03
<GCONST> -4.506273e+01
<MIXTURE> 2 7.441930e-01
<MEAN> 16
 5.646449e-01 -6.966184e-01 1.805693e+00 -2.381306e-01 -6.318446e-01 1.812733e+00 5.646449e-01 -6.966184e-01 1.805693e+00 -2.381306e-01 -6.318446e-01 1.812733e+00 1.158492e-01 1.049354e-01 1.002485e-01 7.006052e-02
<VARIANCE> 16
 1.730743e-03 2.174138e-03 1.579641e-02 2.178175e-02 5.144708e-03 7.573330e-03 1.730743e-03 2.174138e-03 1.579641e-02 2.178175e-02 5.144708e-03 7.573330e-03 1.000000e-03 1.000000e-03 1.000000e-03 1.000000e-03
<GCONST> -5.946078e+01
<STATE> 3
<NUMMIXES> 2
<MIXTURE> 1 5.709751e-01
<MEAN> 16
 7.613979e-01 -4.727700e-01 2.193814e+00 -2.664147e-01 -5.151201e-01 1.888780e+00 1.257744e+00 -4.138128e-01 9.081561e-02 5.491596e-01 -8.147046e-01 -1.426150e-02 1.155134e-01 1.143491e-01 1.061650e-01 7.747801e-02
<VARIANCE> 16
 1.263197e-01 3.397270e-02 1.208671e-01 5.822005e-02 2.970780e-02 4.223100e-02 7.003013e-01 7.783122e-02 1.235076e-01 2.012213e-01 2.952681e-01 1.947588e-01 1.000000e-03 1.000000e-03 1.000000e-03 1.000000e-03
<GCONST> -2.477378e+01
<MIXTURE> 2 4.290250e-01
<MEAN> 16
 -8.547904e-01 1.545643e-01 2.188102e+00 -1.014237e+00 6.022803e-01 1.931168e+00 -1.671512e+00 5.489299e-01 -1.202237e-01 -7.300410e-01 1.083100e+00 1.980613e-02 7.672191e-02 6.536444e-02 6.307787e-02 7.539316e-02
<VARIANCE> 16
 2.161919e-02 2.523772e-02 2.434713e-01 4.493292e-02 8.038270e-02 3.059151e-01 2.384271e-01 2.874395e-02 1.606789e-01 1.351186e-01 1.010591e-01 2.571838e-01 1.000000e-03 1.000000e-03 1.000000e-03 1.000000e-03
<GCONST> -2.642230e+01
<STATE> 4
<NUMMIXES> 2
<MIXTURE> 1 5.706634e-01
<MEAN> 16
 4.968125e-01 -6.935359e-01 1.939423e+00 -1.334239e-01 -6.122626e-01 1.858016e+00 -4.013096e-03 3.198010e-03 1.012872e-02 -2.231497e-03 1.832687e-03 8.421691e-03 1.194163e-01 1.127179e-01 9.602834e-02 7.546955e-02
<VARIANCE> 16
 3.029411e-02 4.289627e-03 5.249213e-03 2.885110e-03 1.100296e-03 4.704001e-03 1.000000e-03 1.000000e-03 1.073336e-03 1.000000e-03 1.000000e-03 1.000000e-03 1.000000e-03 1.000000e-03 1.000000e-03 1.000000e-03
<GCONST> -7.181850e+01
<MIXTURE> 2 4.293346e-01
<MEAN> 16
 4.403650e-01 -6.611162e-01 1.852109e+00 -1.670223e-01 -6.184950e-01 1.814973e+00 -2.277834e-02 8.468997e-03 -1.675133e-02 -5.004716e-04 2.777836e-03 -1.294376e-02 1.127042e-01 1.124969e-01 8.294374e-02 6.994963e-02
<VARIANCE> 16
 2.345032e-02 3.230996e-03 9.993893e-03 8.812785e-03 2.810953e-03 4.725049e-03 1.510724e-03 1.000000e-03 1.937976e-03 1.000000e-03 1.000000e-03 1.396301e-03 1.000000e-03 1.000000e-03 1.000000e-03 1.000000e-03
<GCONST> -6.831774e+01
<STATE> 5
<MEAN> 16
 4.767427e-01 -6.651887e-01 1.840144e+00 -1.887482e-01 -1.888914e-01 1.789958e+00 -2.063894e-03 4.109673e-03 1.278950e-03 -2.261584e-03 2.046164e-02 -2.629956e-03 1.232970e-01 1.003549e-01 9.973919e-02 7.971267e-02
<VARIANCE> 16
 1.776398e-02 3.748830e-03 1.856338e-02 2.237901e-02 1.314450e-01 1.903676e-02 1.000000e-03 1.000000e-03 2.517950e-03 1.000000e-03 4.652188e-03 2.774296e-03 1.000000e-03 1.000000e-03 1.000000e-03 1.000000e-03
<GCONST> -5.958398e+01
<TRANSP> 6
 0.000000e+00 1.000000e+00 0.000000e+00 0.000000e+00 0.000000e+00 0.000000e+00
 0.000000e+00 0.000000e+00 1.000000e+00 0.000000e+00 0.000000e+00 0.000000e+00
 0.000000e+00 0.000000e+00 8.593572e-01 1.406428e-01 0.000000e+00 0.000000e+00
 0.000000e+00 0.000000e+00 0.000000e+00 8.844684e-01 1.155316e-01 0.000000e+00
 0.000000e+00 0.000000e+00 0.000000e+00 0.000000e+00 8.838537e-01 1.161463e-01
 0.000000e+00 0.000000e+00 0.000000e+00 0.000000e+00 0.000000e+00 0.000000e+00
<ENDHMM>
~h "car"
<BEGINHMM>
<NUMSTATES> 6
<STATE> 2
<NUMMIXES> 2
<MIXTURE> 1 5.436655e-01
<MEAN> 16
 3.311389e-01 -4.563417e-01 2.101655e+00 -2.672768e-01 4.316326e-02 1.892837e+00 4.683857e-03 -1.202731e-03 9.033698e-03 -1.646931e-03 -7.587160e-03 5.542792e-03 1.013684e-01 1.326384e-01 9.384104e-02 8.572561e-02
<VARIANCE> 16
 1.226010e-02 7.776131e-03 1.265618e-02 1.164497e-03 1.384304e-02 7.719987e-03 1.000000e-03 1.000000e-03 1.463927e-03 1.000000e-03 1.000000e-03 1.000000e-03 1.000000e-03 1.000000e-03 1.000000e-03 1.000000e-03
<GCONST> -6.881750e+01
<MIXTURE> 2 4.563288e-01
<MEAN> 16
 3.061639e-01 -2.904947e-01 1.883690e+00 -2.932670e-01 -4.621435e-02 1.800845e+00 8.789760e-04 -1.098634e-02 -8.937540e-03 1.339534e-03 -5.016688e-03 -1.123767e-02 8.044890e-02 1.056894e-01 7.975090e-02 8.133378e-02
<VARIANCE> 16
 1.078724e-02 2.259780e-02 2.122801e-02 5.220627e-03 5.013998e-02 1.358687e-02 1.000000e-03 1.000000e-03 3.183425e-03 1.000000e-03 1.000000e-03 2.555732e-03 1.000000e-03 1.000000e-03 1.000000e-03 1.000000e-03
<GCONST> -6.229369e+01
<STATE> 3
<NUMMIXES> 2
<MIXTURE> 1 6.103222e-01
<MEAN> 16
 3.254507e-01 5.692764e-02 1.919227e+00 -3.104386e-01 4.885546e-02 1.896350e+00 5.629614e-03 1.213485e-03 7.738079e-03 -3.881751e-03 -1.919170e-03 8.676246e-03 1.182773e-01 1.380126e-01 8.954463e-02 8.298381e-02
<VARIANCE> 16
 2.806196e-02 2.476087e-02 1.334458e-02 2.812068e-03 3.464090e-03 1.327004e-02 1.000000e-03 2.449149e-03 2.008299e-03 1.000000e-03 1.000000e-03 1.785889e-03 1.000000e-03 1.000000e-03 1.000000e-03 1.000000e-03
<GCONST> -6.494844e+01
<MIXTURE> 2 3.896704e-01
<MEAN> 16
 2.754897e-01 -1.454733e-01 1.848318e+00 -2.986450e-01 -1.111788e-01 1.818652e+00 3.084515e-03 -1.028311e-02 -1.316766e-02 4.651799e-03 -8.174752e-03 -1.310197e-02 9.965579e-02 1.063192e-01 8.231211e-02 8.190142e-02
<VARIANCE> 16
 5.621321e-02 4.580926e-02 1.603914e-02 1.068133e-02 2.306847e-02 1.339827e-02 3.513712e-03 3.196092e-03 8.024340e-03 1.000000e-03 1.000000e-03 6.157020e-03 1.000000e-03 1.000000e-03 1.000000e-03 1.000000e-03
<GCONST> -5.606862e+01
<STATE> 4
<NUMMIXES> 2
<MIXTURE> 1 6.293792e-01
<MEAN> 16
 1.857352e-01 -1.758416e-02 1.723365e+00 -4.029054e-01 -3.677742e-02 1.651000e+00 1.197995e-03 -1.359387e-03 1.099329e-02 -3.020998e-03 -9.618209e-04 1.032920e-02 9.470341e-02 1.189208e-01 7.222395e-02 8.139286e-02
<VARIANCE> 16
 3.136759e-02 2.098383e-02 1.802868e-02 2.795970e-03 4.163004e-03 8.930334e-03 1.002633e-03 1.000000e-03 1.490135e-03 1.000000e-03 1.000000e-03 1.079911e-03 1.000000e-03 1.000000e-03 1.000000e-03 1.000000e-03
<GCONST> -6.661432e+01
<MIXTURE> 2 3.706069e-01
<MEAN> 16
 2.282018e-01 -1.203758e-01 1.625034e+00 -3.527939e-01 -6.220545e-02 1.563952e+00 2.081078e-05 -1.440289e-02 -1.899560e-02 8.377390e-03 -1.319016e-02 -1.838139e-02 8.809510e-02 1.088125e-01 7.303181e-02 8.258691e-02
<VARIANCE> 16
 4.415375e-02 4.714663e-02 3.185714e-02 6.203945e-03 2.700631e-02 2.229018e-02 1.368126e-03 2.644013e-03 3.983596e-03 1.000000e-03 1.048598e-03 2.906378e-03 1.000000e-03 1.000000e-03 1.000000e-03 1.000000e-03
<GCONST> -5.800817e+01
<STATE> 5
<MEAN> 16
 5.778631e-01 -6.923144e-01 1.855734e+00 -1.944641e-01 -6.031530e-01 1.813464e+00 4.949452e-03 -6.931994e-03 2.098564e-03 3.807801e-03 -8.134977e-03 2.980183e-03 1.163211e-01 1.072999e-01 9.731305e-02 7.490873e-02
<VARIANCE> 16
 1.671990e-02 3.449037e-03 1.547694e-02 1.812182e-02 5.766461e-03 7.124871e-03 1.000000e-03 1.000000e-03 1.860916e-03 1.000000e-03 1.000000e-03 1.806894e-03 1.000000e-03 1.000000e-03 1.000000e-03 1.000000e-03
<GCONST> -6.649857e+01
<TRANSP> 6
 0.000000e+00 1.000000e+00 0.000000e+00 0.000000e+00 0.000000e+00 0.000000e+00
 0.000000e+00 8.943957e-01 1.056043e-01 0.000000e+00 0.000000e+00 0.000000e+00
 0.000000e+00 0.000000e+00 9.570057e-01 4.299423e-02 0.000000e+00 0.000000e+00
 0.000000e+00 0.000000e+00 0.000000e+00 9.674818e-01 3.251825e-02 0.000000e+00
 0.000000e+00 0.000000e+00 0.000000e+00 0.000000e+00 9.605253e-01 3.947468e-02
 0.000000e+00 0.000000e+00 0.000000e+00 0.000000e+00 0.000000e+00 0.000000e+00
<ENDHMM>
~h "weaves_and_bumps_into"
<BEGINHMM>
<NUMSTATES> 6
<STATE> 2
<NUMMIXES> 2
<MIXTURE> 1 4.032659e-01
<MEAN> 16
 3.293171e-01 -3.229972e-01 1.987307e+00 -2.690943e-01 -2.647845e-01 1.946221e+00 -2.357535e-02 5.318760e-02 2.301295e-02 -2.463338e-03 5.242438e-02 2.137931e-02 1.060660e-01 9.794820e-02 8.771645e-02 8.450654e-02
<VARIANCE> 16
 2.127675e-02 2.985206e-02 3.929463e-02 1.813800e-02 2.628231e-02 3.825011e-02 4.877801e-03 7.787989e-03 1.523025e-02 4.547456e-03 8.383111e-03 1.387211e-02 1.134355e-03 1.000000e-03 1.000000e-03 1.000000e-03
<GCONST> -4.842476e+01
<MIXTURE> 2 5.967326e-01
<MEAN> 16
 4.372722e-01 -4.121770e-01 1.835114e+00 -3.590474e-01 -3.510655e-01 1.808663e+00 -2.414850e-02 3.684193e-02 -2.892265e-02 5.133045e-03 3.733797e-02 -2.665703e-02 9.308977e-02 8.792640e-02 7.728614e-02 7.604719e-02
<VARIANCE> 16
 5.849296e-03 1.162632e-02 4.716517e-02 1.213797e-02 1.502808e-02 4.642185e-02 1.000000e-03 2.246295e-03 5.513919e-03 1.000000e-03 2.161124e-03 4.617055e-03 1.000000e-03 1.000000e-03 1.000000e-03 1.000000e-03
<GCONST> -5.918383e+01
<STATE> 3
<NUMMIXES> 2
<MIXTURE> 1 4.070247e-01
<MEAN> 16
 2.278768e-01 -1.429555e-01 1.852777e+00 -2.429464e-01 -1.266721e-01 1.798522e+00 2.862881e-03 2.870000e-03 3.055103e-02 -5.668658e-03 7.984280e-04 2.780296e-02 9.716700e-02 9.602430e-02 8.730457e-02 7.861259e-02
<VARIANCE> 16
 2.200170e-02 4.653978e-02 1.493677e-02 1.088515e-02 2.435442e-02 9.727552e-03 1.005034e-03 2.328103e-03 4.013609e-03 1.000000e-03 1.395726e-03 3.622429e-03 1.000000e-03 1.000000e-03 1.000000e-03 1.000000e-03
<GCONST> -5.976740e+01
<MIXTURE> 2 5.929761e-01
<MEAN> 16
 2.407685e-01 -2.102556e-01 1.751424e+00 -2.771531e-01 -2.008094e-01 1.701515e+00 -6.440371e-03 3.009362e-03 -2.387346e-02 4.119677e-03 6.446717e-03 -2.215684e-02 8.164855e-02 8.181451e-02 7.622265e-02 7.673477e-02
<VARIANCE> 16
 1.656689e-02 1.606129e-02 9.093940e-03 4.140413e-03 7.476534e-03 7.394748e-03 1.000000e-03 1.448116e-03 3.339818e-03 1.000000e-03 1.000000e-03 2.858936e-03 1.000000e-03 1.000000e-03 1.000000e-03 1.000000e-03
<GCONST> -6.526667e+01
<STATE> 4
<NUMMIXES> 2
<MIXTURE> 1 3.999828e-01
<MEAN> 16
 2.392109e-01 -9.223615e-02 1.550484e+00 -3.268457e-01 2.907131e-02 1.457113e+00 8.454950e-03 -2.109788e-03 1.393468e-02 -6.537901e-03 2.124862e-03 1.120215e-02 9.347162e-02 1.139803e-01 8.439829e-02 8.934125e-02
<VARIANCE> 16
 2.475530e-02 5.021995e-02 3.165040e-02 9.837207e-03 1.303212e-02 1.607884e-02 1.422253e-03 2.224520e-03 2.000979e-03 1.000000e-03 1.000000e-03 1.320445e-03 1.000000e-03 1.000000e-03 1.000000e-03 1.000000e-03
<GCONST> -6.078337e+01
<MIXTURE> 2 6.000172e-01
<MEAN> 16
 2.080449e-01 -5.054541e-02 1.372688e+00 -2.968062e-01 1.106668e-02 1.347014e+00 -3.594071e-03 1.169544e-03 -1.057433e-02 3.103883e-03 -5.000531e-05 -9.067396e-03 8.320087e-02 1.039494e-01 8.163058e-02 8.337214e-02
<VARIANCE> 16
 2.309583e-02 2.184410e-02 1.499695e-02 5.846534e-03 3.942099e-03 4.104143e-03 1.000000e-03 1.000000e-03 1.283952e-03 1.000000e-03 1.000000e-03 1.000000e-03 1.000000e-03 1.000000e-03 1.000000e-03 1.000000e-03
<GCONST> -6.738712e+01
<STATE> 5
<MEAN> 16
 3.110115e-01 -2.252700e-01 1.843297e+00 -2.441222e-01 2.528285e-02 1.787747e+00 1.500932e-02 -6.639508e-03 1.995057e-02 -1.221728e-02 3.376687e-03 1.796990e-02 1.116224e-01 1.113957e-01 8.531856e-02 8.552653e-02
<VARIANCE> 16
 1.687929e-02 8.418109e-02 3.778654e-02 1.723576e-02 5.499712e-02 2.817778e-02 6.619973e-03 5.003859e-03 1.260785e-02 2.885635e-03 6.869458e-03 8.688231e-03 1.000000e-03 1.000000e-03 1.000000e-03 1.000000e-03
<GCONST> -4.885082e+01
<TRANSP> 6
 0.000000e+00 1.000000e+00 0.000000e+00 0.000000e+00 0.000000e+00 0.000000e+00
 0.000000e+00 8.682927e-01 1.317074e-01 0.000000e+00 0.000000e+00 0.000000e+00
 0.000000e+00 0.000000e+00 9.429650e-01 5.703500e-02 0.000000e+00 0.000000e+00
 0.000000e+00 0.000000e+00 0.000000e+00 9.583880e-01 4.161198e-02 0.000000e+00
 0.000000e+00 0.000000e+00 0.000000e+00 0.000000e+00 7.280741e-01 2.719259e-01
 0.000000e+00 0.000000e+00 0.000000e+00 0.000000e+00 0.000000e+00 0.000000e+00
<ENDHMM>
~h "man"
<BEGINHMM>
<NUMSTATES> 6
<STATE> 2
<NUMMIXES> 2
<MIXTURE> 1 4.896194e-01
<MEAN> 16
 3.738711e-01 -5.882221e-01 1.931131e+00 -3.425212e-01 -1.383606e-01 1.845803e+00 5.728506e-03 8.757089e-04 2.084343e-02 -9.777009e-03 -8.617998e-03 1.207309e-02 1.181287e-01 9.040504e-02 8.673457e-02 9.695503e-02
<VARIANCE> 16
 2.048320e-02 1.600519e-02 1.848999e-02 1.600145e-02 7.305367e-03 2.483973e-02 1.000000e-03 1.000000e-03 2.573873e-03 1.000000e-03 1.000000e-03 1.370548e-03 1.000000e-03 1.000000e-03 1.000000e-03 1.000000e-03
<GCONST> -6.317395e+01
<MIXTURE> 2 5.103751e-01
<MEAN> 16
 3.645855e-01 -6.002727e-01 1.791055e+00 -3.714522e-01 -1.233095e-01 1.664210e+00 -5.344394e-03 8.337656e-03 -2.169660e-02 -6.311725e-03 -2.516640e-03 -1.685883e-02 1.167143e-01 7.353314e-02 8.510295e-02 9.089390e-02
<VARIANCE> 16
 1.122855e-02 5.216736e-03 1.505189e-02 1.541245e-02 8.450720e-03 2.645328e-02 1.000000e-03 1.000000e-03 2.535891e-03 1.000000e-03 1.000000e-03 1.234889e-03 1.000000e-03 1.000000e-03 1.000000e-03 1.000000e-03
<GCONST> -6.504989e+01
<STATE> 3
<NUMMIXES> 2
<MIXTURE> 1 5.006677e-01
<MEAN> 16
 2.308720e-01 -4.620330e-02 1.918007e+00 -3.673347e-01 -1.367914e-01 1.952289e+00 7.825193e-03 -1.715952e-03 1.709572e-02 -3.974588e-03 -3.583573e-03 1.662843e-02 1.088300e-01 9.991841e-02 8.447891e-02 1.008585e-01
<VARIANCE> 16
 4.605525e-02 4.098990e-02 1.003457e-02 7.804042e-03 7.525212e-03 1.220135e-02 1.198531e-03 2.757902e-03 3.246461e-03 1.000000e-03 1.000000e-03 3.112969e-03 1.000000e-03 1.000000e-03 1.000000e-03 1.000000e-03
<GCONST> -6.118570e+01
<MIXTURE> 2 4.993202e-01
<MEAN> 16
 1.450843e-01 -9.166120e-02 1.755760e+00 -3.694224e-01 -1.553778e-01 1.753210e+00 -8.160301e-03 3.403212e-03 -2.073287e-02 7.618084e-03 6.737749e-05 -1.819085e-02 9.450415e-02 7.470584e-02 7.223602e-02 8.633288e-02
<VARIANCE> 16
 4.561866e-02 2.270584e-02 1.015617e-02 9.286494e-03 5.019120e-03 9.317467e-03 1.912201e-03 2.507906e-03 4.027816e-03 1.000000e-03 1.000000e-03 3.595137e-03 1.000000e-03 1.000000e-03 1.000000e-03 1.000000e-03
<GCONST> -6.154282e+01
<STATE> 4
<NUMMIXES> 2
<MIXTURE> 1 5.856334e-01
<MEAN> 16
 2.337101e-01 -4.788987e-02 1.553579e+00 -3.504731e-01 -3.078217e-02 1.532304e+00 2.711212e-03 -2.715408e-04 8.576415e-03 -1.193188e-03 -1.792034e-03 7.391750e-03 9.913991e-02 7.574668e-02 8.042610e-02 9.362390e-02
<VARIANCE> 16
 3.696302e-02 3.670807e-02 2.508486e-02 1.144505e-02 4.259101e-03 1.251238e-02 1.000000e-03 1.000000e-03 1.072916e-03 1.000000e-03 1.000000e-03 1.000000e-03 1.000000e-03 1.000000e-03 1.000000e-03 1.000000e-03
<GCONST> -6.419917e+01
<MIXTURE> 2 4.143601e-01
<MEAN> 16
 2.637996e-01 -1.314306e-01 1.502149e+00 -3.395237e-01 -1.028068e-01 1.500487e+00 6.352101e-03 -1.110471e-02 -1.190579e-02 4.069238e-03 -1.360213e-02 -1.126210e-02 9.053010e-02 7.255463e-02 7.634801e-02 8.436551e-02
<VARIANCE> 16
 4.149078e-02 5.123198e-02 2.113583e-02 1.194643e-02 2.789934e-02 1.280475e-02 1.655433e-03 2.554817e-03 2.608372e-03 1.000000e-03 1.162684e-03 2.239265e-03 1.000000e-03 1.000000e-03 1.000000e-03 1.000000e-03
<GCONST> -5.868875e+01
<STATE> 5
<MEAN> 16
 5.753700e-01 -6.872928e-01 1.853040e+00 -1.917985e-01 -5.959178e-01 1.809709e+00 6.527775e-03 -8.185968e-03 3.366708e-03 2.750291e-03 -9.435284e-03 3.679242e-03 1.162555e-01 1.063733e-01 9.480977e-02 7.525708e-02
<VARIANCE> 16
 1.973648e-02 4.503559e-03 1.577444e-02 1.707720e-02 6.783785e-03 8.165389e-03 1.000000e-03 1.000000e-03 2.583202e-03 1.000000e-03 1.023339e-03 1.959056e-03 1.000000e-03 1.000000e-03 1.000000e-03 1.000000e-03
<GCONST> -6.537558e+01
<TRANSP> 6
 0.000000e+00 1.000000e+00 0.000000e+00 0.000000e+00 0.000000e+00 0.000000e+00
 0.000000e+00 9.209068e-01 7.909322e-02 0.000000e+00 0.000000e+00 0.000000e+00
 0.000000e+00 0.000000e+00 9.736389e-01 2.636116e-02 0.000000e+00 0.000000e+00
 0.000000e+00 0.000000e+00 0.000000e+00 9.477861e-01 5.221391e-02 0.000000e+00
 0.000000e+00 0.000000e+00 0.000000e+00 0.000000e+00 9.592806e-01 4.071939e-02
 0.000000e+00 0.000000e+00 0.000000e+00 0.000000e+00 0.000000e+00 0.000000e+00
<ENDHMM>
~h "monkey"
<BEGINHMM>
<NUMSTATES> 6
<STATE> 2
<NUMMIXES> 2
<MIXTURE> 1 4.708307e-01
<MEAN> 16
 3.809955e-01 -4.903804e-01 2.177064e+00 -2.662127e-01 -7.153403e-03 1.949926e+00 4.412601e-03 1.582755e-03 9.944816e-03 3.208622e-04 -6.778859e-03 7.545273e-03 1.135387e-01 1.146141e-01 8.934163e-02 7.803039e-02
<VARIANCE> 16
 7.568410e-03 3.343319e-03 1.255026e-02 2.104753e-03 1.726998e-02 1.090015e-02 1.000000e-03 1.000000e-03 2.037441e-03 1.000000e-03 1.000000e-03 1.156540e-03 1.634919e-03 1.000000e-03 1.000000e-03 1.000000e-03
<GCONST> -6.802670e+01
<MIXTURE> 2 5.291660e-01
<MEAN> 16
 2.991304e-01 -4.092022e-01 1.973650e+00 -3.515171e-01 -2.213128e-02 1.782469e+00 -2.428383e-03 -4.565276e-03 -1.224660e-02 9.004407e-04 -2.289252e-03 -1.156889e-02 9.704129e-02 1.002413e-01 9.063574e-02 6.723829e-02
<VARIANCE> 16
 1.087735e-02 6.610114e-03 1.636737e-02 9.528072e-03 1.743565e-02 1.237599e-02 1.000000e-03 1.000000e-03 1.468166e-03 1.000000e-03 1.000000e-03 1.089606e-03 1.055550e-03 1.000000e-03 1.000000e-03 1.000000e-03
<GCONST> -6.589507e+01
<STATE> 3
<NUMMIXES> 2
<MIXTURE> 1 4.529484e-01
<MEAN> 16
 3.000651e-01 8.755001e-03 1.987524e+00 -3.032556e-01 -2.571488e-02 1.958706e+00 6.829095e-03 1.863932e-03 1.283687e-02 -4.156989e-03 -3.479632e-03 1.407903e-02 1.169859e-01 1.184618e-01 9.283242e-02 7.961657e-02
<VARIANCE> 16
 3.503495e-02 3.862834e-02 1.132336e-02 7.587442e-03 4.279977e-03 1.103208e-02 1.498860e-03 3.526250e-03 4.292117e-03 1.000000e-03 1.000000e-03 3.594266e-03 1.000000e-03 1.000000e-03 1.000000e-03 1.000000e-03
<GCONST> -6.119855e+01
<MIXTURE> 2 5.470424e-01
<MEAN> 16
 1.372930e-01 -5.684197e-02 1.806020e+00 -3.345926e-01 -7.503203e-02 1.789122e+00 -5.679002e-03 9.544576e-04 -1.521522e-02 4.640338e-03 -9.283039e-04 -1.227459e-02 9.648478e-02 9.764490e-02 7.739295e-02 6.485719e-02
<VARIANCE> 16
 4.608409e-02 2.261266e-02 8.233348e-03 1.184625e-02 8.344880e-03 7.774967e-03 1.522119e-03 1.510138e-03 3.335224e-03 1.000000e-03 1.000000e-03 2.887377e-03 1.000000e-03 1.000000e-03 1.000000e-03 1.000000e-03
<GCONST> -6.231913e+01
<STATE> 4
<NUMMIXES> 2
<MIXTURE> 1 6.346740e-01
<MEAN> 16
 2.345611e-01 -3.322216e-02 1.603730e+00 -3.009447e-01 4.370958e-02 1.582923e+00 1.388208e-03 -4.863235e-04 3.347388e-03 -7.189834e-04 -8.211571e-04 3.538067e-03 1.029592e-01 1.007490e-01 8.249196e-02 6.735531e-02
<VARIANCE> 16
 3.048738e-02 2.591401e-02 1.621656e-02 2.835680e-03 4.251895e-03 1.097239e-02 1.000000e-03 1.000000e-03 1.000000e-03 1.000000e-03 1.000000e-03 1.000000e-03 1.000000e-03 1.000000e-03 1.000000e-03 1.000000e-03
<GCONST> -6.677490e+01
<MIXTURE> 2 3.653198e-01
<MEAN> 16
 3.510675e-01 -3.442617e-01 1.704642e+00 -2.694388e-01 -2.124891e-01 1.659993e+00 2.102546e-02 -4.241256e-02 1.702594e-03 1.033832e-02 -3.902145e-02 -2.521160e-03 9.843257e-02 8.795921e-02 7.651350e-02 6.735150e-02
<VARIANCE> 16
 4.767411e-02 5.427304e-02 2.502707e-02 9.549019e-03 4.661896e-02 2.324999e-02 2.061745e-03 3.920432e-03 7.301328e-03 1.000000e-03 2.155596e-03 5.209677e-03 1.000000e-03 1.000000e-03 1.000000e-03 1.000000e-03
<GCONST> -5.429854e+01
<STATE> 5
<MEAN> 16
 5.777976e-01 -6.938450e-01 1.854870e+00 -1.953960e-01 -6.088243e-01 1.809616e+00 4.610373e-03 -5.273842e-03 8.139379e-04 1.937277e-03 -5.925525e-03 1.516468e-03 1.149539e-01 1.094357e-01 9.583312e-02 7.438898e-02
<VARIANCE> 16
 1.609587e-02 3.334630e-03 1.625104e-02 1.785556e-02 5.326176e-03 6.146116e-03 1.000000e-03 1.000000e-03 1.523098e-03 1.000000e-03 1.000000e-03 1.559292e-03 1.000000e-03 1.000000e-03 1.000000e-03 1.000000e-03
<GCONST> -6.711123e+01
<TRANSP> 6
 0.000000e+00 1.000000e+00 0.000000e+00 0.000000e+00 0.000000e+00 0.000000e+00
 0.000000e+00 9.232474e-01 7.675259e-02 0.000000e+00 0.000000e+00 0.000000e+00
 0.000000e+00 0.000000e+00 9.738333e-01 2.616666e-02 0.000000e+00 0.000000e+00
 0.000000e+00 0.000000e+00 0.000000e+00 9.382167e-01 6.178324e-02 0.000000e+00
 0.000000e+00 0.000000e+00 0.000000e+00 0.000000e+00 9.613558e-01 3.864415e-02
 0.000000e+00 0.000000e+00 0.000000e+00 0.000000e+00 0.000000e+00 0.000000e+00
<ENDHMM>
~h "bumps_into_each_other"
<BEGINHMM>
<NUMSTATES> 6
<STATE> 2
<NUMMIXES> 2
<MIXTURE> 1 4.520657e-01
<MEAN> 16
 4.067716e-01 -4.576302e-01 2.016490e+00 -3.294571e-01 -2.219211e-01 1.931871e+00 3.133947e-03 1.030851e-02 4.186504e-02 -1.159544e-02 2.780463e-02 3.649395e-02 1.139833e-01 9.606315e-02 9.663078e-02 8.553521e-02
<VARIANCE> 16
 1.168533e-02 1.997977e-02 3.265363e-02 1.613079e-02 6.916426e-02 5.248492e-02 1.109513e-03 1.563385e-03 5.749969e-03 2.160529e-03 4.806609e-03 5.538727e-03 1.618099e-03 1.000000e-03 1.000000e-03 1.000000e-03
<GCONST> -5.436797e+01
<MIXTURE> 2 5.479332e-01
<MEAN> 16
 4.415414e-01 -4.045444e-01 1.863395e+00 -3.946894e-01 -3.255469e-01 1.841374e+00 -2.091114e-02 2.726358e-02 -2.909430e-02 5.475624e-03 3.398268e-02 -3.011785e-02 8.822250e-02 8.696688e-02 8.076555e-02 8.021612e-02
<VARIANCE> 16
 6.195677e-03 1.105775e-02 4.244298e-02 9.931871e-03 1.842410e-02 4.017220e-02 1.000000e-03 2.183627e-03 4.455636e-03 1.000000e-03 2.164618e-03 4.269457e-03 1.000000e-03 1.000000e-03 1.000000e-03 1.000000e-03
<GCONST> -5.974144e+01
<STATE> 3
<NUMMIXES> 2
<MIXTURE> 1 4.736287e-01
<MEAN> 16
 3.260872e-01 -1.485309e-01 1.944504e+00 -2.506993e-01 -1.100930e-01 1.887331e+00 8.815884e-03 -1.253424e-04 3.059081e-02 -6.429939e-03 -2.315440e-03 2.930392e-02 9.625916e-02 1.037575e-01 9.115887e-02 8.447265e-02
<VARIANCE> 16
 1.180397e-02 4.659941e-02 1.281423e-02 5.706243e-03 3.054442e-02 1.034195e-02 1.093752e-03 2.992200e-03 4.793125e-03 1.000000e-03 1.621574e-03 4.313147e-03 1.000000e-03 1.000000e-03 1.000000e-03 1.000000e-03
<GCONST> -6.006266e+01
<MIXTURE> 2 5.263650e-01
<MEAN> 16
 2.896251e-01 -1.774919e-01 1.804854e+00 -2.250582e-01 -1.678862e-01 1.767889e+00 -1.087662e-02 9.143123e-03 -3.177794e-02 5.181624e-03 7.821667e-03 -2.937056e-02 7.902539e-02 8.383399e-02 7.460102e-02 7.356931e-02
<VARIANCE> 16
 1.019186e-02 2.330694e-02 8.182950e-03 7.423785e-03 1.514330e-02 7.312526e-03 1.072940e-03 3.426438e-03 4.812859e-03 1.000000e-03 2.345517e-03 4.223070e-03 1.000000e-03 1.000000e-03 1.000000e-03 1.000000e-03
<GCONST> -6.166755e+01
<STATE> 4
<NUMMIXES> 2
<MIXTURE> 1 4.825862e-01
<MEAN> 16
 3.078908e-01 -5.295110e-02 1.612018e+00 -3.392349e-01 6.819719e-02 1.558732e+00 9.102530e-03 -2.334900e-03 1.170516e-02 -9.254958e-03 4.740401e-04 1.121870e-02 9.710222e-02 1.075251e-01 8.289293e-02 8.477485e-02
<VARIANCE> 16
 1.602098e-02 4.538617e-02 2.396503e-02 1.177780e-02 1.012068e-02 1.438976e-02 1.000000e-03 1.000000e-03 1.177518e-03 1.000000e-03 1.000000e-03 1.000000e-03 1.000000e-03 1.000000e-03 1.000000e-03 1.000000e-03
<GCONST> -6.374163e+01
<MIXTURE> 2 5.174122e-01
<MEAN> 16
 2.408819e-01 -3.054671e-02 1.472507e+00 -3.073068e-01 5.497003e-02 1.448553e+00 -6.130583e-03 5.200721e-03 -1.377721e-02 5.554132e-03 5.456081e-04 -1.180668e-02 7.969963e-02 1.005098e-01 7.443070e-02 8.088040e-02
<VARIANCE> 16
 1.243275e-02 2.696084e-02 1.177379e-02 8.866498e-03 4.320882e-03 5.686639e-03 1.000000e-03 2.069903e-03 1.366674e-03 1.000000e-03 1.000000e-03 1.092890e-03 1.000000e-03 1.000000e-03 1.000000e-03 1.000000e-03
<GCONST> -6.632489e+01
<STATE> 5
<MEAN> 16
 4.453624e-01 -3.099023e-01 1.738318e+00 -3.685378e-01 -1.578533e-01 1.689487e+00 2.032095e-02 -5.228864e-02 3.397710e-02 -6.834969e-03 -4.495065e-02 2.320375e-02 8.883353e-02 8.977097e-02 7.649795e-02 7.638662e-02
<VARIANCE> 16
 1.415092e-02 2.806188e-02 4.568923e-02 1.307266e-02 3.530149e-02 3.584483e-02 1.000000e-03 1.612369e-03 6.087947e-03 1.000000e-03 3.218477e-03 5.960155e-03 1.000000e-03 1.000000e-03 1.000000e-03 1.000000e-03
<GCONST> -5.636034e+01
<TRANSP> 6
 0.000000e+00 1.000000e+00 0.000000e+00 0.000000e+00 0.000000e+00 0.000000e+00
 0.000000e+00 8.906200e-01 1.093800e-01 0.000000e+00 0.000000e+00 0.000000e+00
 0.000000e+00 0.000000e+00 9.645675e-01 3.543250e-02 0.000000e+00 0.000000e+00
 0.000000e+00 0.000000e+00 0.000000e+00 9.529338e-01 4.706615e-02 0.000000e+00
 0.000000e+00 0.000000e+00 0.000000e+00 0.000000e+00 5.746948e-01 4.253052e-01
 0.000000e+00 0.000000e+00 0.000000e+00 0.000000e+00 0.000000e+00 0.000000e+00
<ENDHMM>
~h "jumps_on"
<BEGINHMM>
<NUMSTATES> 6
<STATE> 2
<NUMMIXES> 2
<MIXTURE> 1 4.545931e-01
<MEAN> 16
 3.757992e-01 -3.928500e-01 2.070407e+00 -3.175502e-01 -3.207389e-01 2.032233e+00 -5.442647e-03 2.748760e-02 3.117326e-02 -4.968240e-03 3.162816e-02 2.443145e-02 9.968242e-02 9.719346e-02 9.093510e-02 8.673764e-02
<VARIANCE> 16
 1.406948e-02 2.021902e-02 2.959888e-02 1.125386e-02 3.617584e-02 2.943324e-02 2.213364e-03 5.579762e-03 8.188200e-03 2.710786e-03 9.774489e-03 9.247145e-03 1.144226e-03 1.000000e-03 1.000000e-03 1.000000e-03
<GCONST> -5.243605e+01
<MIXTURE> 2 5.454059e-01
<MEAN> 16
 3.959285e-01 -4.053788e-01 1.813958e+00 -3.168622e-01 -3.469971e-01 1.796072e+00 -2.814905e-02 4.132974e-02 -3.595237e-02 7.190381e-03 3.925785e-02 -3.212818e-02 9.170596e-02 8.692220e-02 7.713035e-02 7.527700e-02
<VARIANCE> 16
 1.042983e-02 1.264462e-02 3.710038e-02 1.842746e-02 2.446037e-02 3.701641e-02 1.046951e-03 2.960778e-03 4.766654e-03 1.000000e-03 2.648079e-03 4.072175e-03 1.000000e-03 1.000000e-03 1.000000e-03 1.000000e-03
<GCONST> -5.782928e+01
<STATE> 3
<NUMMIXES> 2
<MIXTURE> 1 4.893852e-01
<MEAN> 16
 2.952476e-01 -1.498190e-01 1.895880e+00 -2.377775e-01 -8.445050e-02 1.805400e+00 4.475713e-03 3.520869e-03 2.990043e-02 -4.906267e-03 -8.481228e-04 2.793233e-02 1.052143e-01 1.106198e-01 8.694077e-02 8.902810e-02
<VARIANCE> 16
 1.494232e-02 6.095282e-02 1.013882e-02 4.237832e-03 2.494956e-02 1.138976e-02 1.000000e-03 2.192795e-03 3.679214e-03 1.000000e-03 1.000000e-03 3.213267e-03 1.009057e-03 1.000000e-03 1.000000e-03 1.000000e-03
<GCONST> -6.162959e+01
<MIXTURE> 2 5.106140e-01
<MEAN> 16
 2.729242e-01 -1.635026e-01 1.767519e+00 -2.172786e-01 -1.405688e-01 1.698004e+00 -1.444930e-02 1.548844e-02 -3.427685e-02 6.693345e-03 7.301892e-03 -2.992455e-02 8.568653e-02 9.241823e-02 7.752711e-02 7.653864e-02
<VARIANCE> 16
 1.266320e-02 3.508166e-02 8.399341e-03 4.810424e-03 1.879891e-02 8.521374e-03 1.000000e-03 2.673508e-03 3.798732e-03 1.000000e-03 1.535175e-03 3.330585e-03 1.000000e-03 1.000000e-03 1.000000e-03 1.000000e-03
<GCONST> -6.229651e+01
<STATE> 4
<NUMMIXES> 2
<MIXTURE> 1 4.495530e-01
<MEAN> 16
 1.437761e-01 -2.890566e-02 1.635348e+00 -2.061425e-01 1.064314e-02 1.508675e+00 4.286019e-05 2.776629e-03 1.240079e-02 -2.139831e-03 2.159334e-05 1.029610e-02 9.858091e-02 1.161505e-01 8.419520e-02 8.697604e-02
<VARIANCE> 16
 3.712244e-02 5.935862e-02 2.432315e-02 8.409874e-03 8.305488e-03 1.624606e-02 1.000000e-03 1.676174e-03 2.776313e-03 1.000000e-03 1.000000e-03 1.729837e-03 1.000000e-03 1.016301e-03 1.000000e-03 1.000000e-03
<GCONST> -6.109280e+01
<MIXTURE> 2 5.504454e-01
<MEAN> 16
 6.559096e-02 9.924536e-03 1.435600e+00 -1.711414e-01 -1.930994e-02 1.373468e+00 -6.162126e-03 3.281094e-03 -1.063061e-02 2.570504e-03 2.307915e-04 -9.409104e-03 9.058244e-02 9.323865e-02 7.105123e-02 8.146807e-02
<VARIANCE> 16
 4.344227e-02 4.099540e-02 1.609122e-02 5.801054e-03 3.349524e-03 6.753833e-03 1.000000e-03 1.266367e-03 1.117084e-03 1.000000e-03 1.000000e-03 1.000000e-03 1.000000e-03 1.000000e-03 1.000000e-03 1.000000e-03
<GCONST> -6.563104e+01
<STATE> 5
<MEAN> 16
 -7.557525e-02 -4.973961e-02 1.733946e+00 -9.554972e-02 -1.306593e-01 1.717166e+00 1.693340e-02 -1.713651e-02 1.996119e-03 -5.165639e-03 -3.890259e-03 3.838552e-03 9.098059e-02 8.794320e-02 7.091562e-02 8.158866e-02
<VARIANCE> 16
 4.874706e-02 3.696483e-02 1.764396e-02 2.013516e-02 2.377520e-02 1.750647e-02 5.305245e-03 2.781693e-03 6.537294e-03 5.242259e-03 3.548592e-03 8.190273e-03 1.000000e-03 1.464210e-03 1.000000e-03 1.000000e-03
<GCONST> -5.174052e+01
<TRANSP> 6
 0.000000e+00 1.000000e+00 0.000000e+00 0.000000e+00 0.000000e+00 0.000000e+00
 0.000000e+00 8.694764e-01 1.305237e-01 0.000000e+00 0.000000e+00 0.000000e+00
 0.000000e+00 0.000000e+00 9.534606e-01 4.653946e-02 0.000000e+00 0.000000e+00
 0.000000e+00 0.000000e+00 0.000000e+00 9.699886e-01 3.001141e-02 0.000000e+00
 0.000000e+00 0.000000e+00 0.000000e+00 0.000000e+00 8.881550e-01 1.118450e-01
 0.000000e+00 0.000000e+00 0.000000e+00 0.000000e+00 0.000000e+00 0.000000e+00
<ENDHMM>
~h "house"
<BEGINHMM>
<NUMSTATES> 6
<STATE> 2
<NUMMIXES> 2
<MIXTURE> 1 4.831314e-01
<MEAN> 16
 2.828539e-01 -3.265624e-02 1.967248e+00 -2.520072e-01 3.917229e-02 1.943831e+00 1.273106e-02 -1.554783e-02 3.604719e-02 -1.215170e-02 -8.529879e-03 2.968090e-02 1.591911e-01 1.524299e-01 9.596574e-02 1.005614e-01
<VARIANCE> 16
 1.013041e-02 8.435740e-02 1.358281e-02 8.276291e-03 5.412942e-02 1.140094e-02 1.000000e-03 1.427099e-03 4.531655e-03 1.000000e-03 2.089400e-03 3.676789e-03 1.000000e-03 1.000000e-03 1.000000e-03 1.000000e-03
<GCONST> -5.931453e+01
<MIXTURE> 2 5.168670e-01
<MEAN> 16
 2.987595e-01 -3.434507e-01 1.942428e+00 -3.017321e-01 -7.382071e-02 1.842543e+00 -2.817772e-03 -1.642444e-02 -2.673496e-02 1.247045e-03 -1.356259e-03 -2.878718e-02 1.125176e-01 1.275913e-01 8.431216e-02 9.557945e-02
<VARIANCE> 16
 5.305174e-03 4.490703e-02 2.535943e-02 3.167700e-03 3.282081e-02 1.196876e-02 1.000000e-03 1.667083e-03 5.773524e-03 1.000000e-03 2.791672e-03 4.165101e-03 1.280124e-03 1.000000e-03 1.000000e-03 1.000000e-03
<GCONST> -6.032056e+01
<STATE> 3
<NUMMIXES> 2
<MIXTURE> 1 4.218570e-01
<MEAN> 16
 3.156341e-01 -1.011801e-01 1.947503e+00 -3.026292e-01 5.709335e-02 1.828578e+00 8.780256e-03 2.006948e-03 2.212043e-02 -5.209597e-03 -6.154203e-04 1.976540e-02 1.173487e-01 1.252053e-01 8.936609e-02 1.079934e-01
<VARIANCE> 16
 2.379643e-02 6.588950e-02 1.108163e-02 2.217674e-03 2.418295e-03 1.008490e-02 1.363365e-03 3.206834e-03 4.825038e-03 1.000000e-03 1.000000e-03 3.462024e-03 1.000000e-03 1.000000e-03 1.000000e-03 1.000000e-03
<GCONST> -6.307378e+01
<MIXTURE> 2 5.781366e-01
<MEAN> 16
 2.186645e-01 -5.721967e-02 1.797341e+00 -3.467106e-01 -7.622909e-03 1.667649e+00 -7.978594e-03 1.399452e-03 -1.946336e-02 3.313329e-03 -2.736353e-03 -1.605505e-02 1.041011e-01 1.115381e-01 7.685981e-02 9.363629e-02
<VARIANCE> 16
 2.751256e-02 2.773592e-02 1.174558e-02 2.830016e-03 6.441479e-03 7.719951e-03 1.406460e-03 1.662418e-03 4.329636e-03 1.000000e-03 1.000000e-03 3.222772e-03 1.000000e-03 1.000000e-03 1.000000e-03 1.000000e-03
<GCONST> -6.358529e+01
<STATE> 4
<NUMMIXES> 2
<MIXTURE> 1 5.105976e-01
<MEAN> 16
 1.582856e-01 -1.182285e-01 1.703007e+00 -2.637429e-01 -2.468494e-02 1.644697e+00 6.593071e-03 -7.806673e-03 1.818062e-02 -2.526789e-03 -3.814154e-03 1.638692e-02 9.811916e-02 8.942123e-02 7.892815e-02 9.183994e-02
<VARIANCE> 16
 6.367258e-02 3.615270e-02 1.741716e-02 8.823930e-03 2.646084e-02 1.490170e-02 1.000000e-03 1.000000e-03 2.252912e-03 1.000000e-03 1.000000e-03 1.956828e-03 1.000000e-03 1.000000e-03 1.000000e-03 1.000000e-03
<GCONST> -6.088094e+01
<MIXTURE> 2 4.893897e-01
<MEAN> 16
 2.542296e-01 -1.780111e-01 1.601637e+00 -2.964794e-01 -8.784556e-02 1.518515e+00 5.666904e-03 -1.433338e-02 -1.415535e-02 5.666737e-03 -1.167092e-02 -1.429466e-02 9.116860e-02 8.679014e-02 7.756797e-02 8.635207e-02
<VARIANCE> 16
 4.294397e-02 4.020736e-02 3.265636e-02 5.945673e-03 2.702200e-02 3.473663e-02 1.939164e-03 2.464792e-03 3.936243e-03 1.000000e-03 1.036167e-03 2.854342e-03 1.000000e-03 1.000000e-03 1.000000e-03 1.000000e-03
<GCONST> -5.753200e+01
<STATE> 5
<MEAN> 16
 5.837946e-01 -6.939384e-01 1.859084e+00 -1.995711e-01 -5.963708e-01 1.809936e+00 5.227771e-03 -5.901516e-03 1.510214e-03 2.671080e-03 -8.450394e-03 3.976375e-03 1.158372e-01 1.082701e-01 9.752407e-02 7.230365e-02
<VARIANCE> 16
 1.864679e-02 3.516151e-03 1.591921e-02 1.732968e-02 7.573385e-03 8.334697e-03 1.000000e-03 1.000000e-03 1.441509e-03 1.000000e-03 1.000000e-03 1.506520e-03 1.000000e-03 1.000000e-03 1.000000e-03 1.000000e-03
<GCONST> -6.639451e+01
<TRANSP> 6
 0.000000e+00 1.000000e+00 0.000000e+00 0.000000e+00 0.000000e+00 0.000000e+00
 0.000000e+00 9.356029e-01 6.439708e-02 0.000000e+00 0.000000e+00 0.000000e+00
 0.000000e+00 0.000000e+00 9.754369e-01 2.456317e-02 0.000000e+00 0.000000e+00
 0.000000e+00 0.000000e+00 0.000000e+00 9.702656e-01 2.973444e-02 0.000000e+00
 0.000000e+00 0.000000e+00 0.000000e+00 0.000000e+00 9.627085e-01 3.729153e-02
 0.000000e+00 0.000000e+00 0.000000e+00 0.000000e+00 0.000000e+00 0.000000e+00
<ENDHMM>
~h "bumps_into"
<BEGINHMM>
<NUMSTATES> 6
<STATE> 2
<NUMMIXES> 2
<MIXTURE> 1 4.387759e-01
<MEAN> 16
 3.903129e-01 -4.161985e-01 2.065295e+00 -3.484205e-01 -3.469493e-01 2.025238e+00 3.138408e-03 1.524223e-02 3.897492e-02 -1.093369e-02 2.049821e-02 3.163560e-02 9.628028e-02 9.214753e-02 8.729549e-02 8.670972e-02
<VARIANCE> 16
 1.715796e-02 2.169870e-02 2.475730e-02 1.520479e-02 1.695709e-02 2.545001e-02 1.952316e-03 2.934265e-03 9.372057e-03 2.134186e-03 3.259119e-03 9.081218e-03 1.000000e-03 1.000000e-03 1.000000e-03 1.000000e-03
<GCONST> -5.507125e+01
<MIXTURE> 2 5.612235e-01
<MEAN> 16
 4.213351e-01 -4.207517e-01 1.830448e+00 -3.481125e-01 -3.743578e-01 1.800123e+00 -2.087091e-02 2.907004e-02 -2.572478e-02 5.030222e-03 3.064538e-02 -2.583717e-02 8.873782e-02 8.738585e-02 7.907018e-02 7.596204e-02
<VARIANCE> 16
 1.043881e-02 1.236210e-02 3.995210e-02 1.848557e-02 1.548805e-02 3.775775e-02 1.000000e-03 1.965693e-03 3.364868e-03 1.000000e-03 1.752909e-03 3.161613e-03 1.000000e-03 1.000000e-03 1.000000e-03 1.000000e-03
<GCONST> -5.968037e+01
<STATE> 3
<NUMMIXES> 2
<MIXTURE> 1 3.282134e-01
<MEAN> 16
 3.175664e-01 -2.057102e-01 1.885544e+00 -2.099423e-01 -1.600214e-01 1.811138e+00 -2.946440e-02 5.913861e-02 6.558497e-04 5.268477e-03 6.193282e-02 3.655085e-03 1.098970e-01 1.002145e-01 8.700743e-02 8.162314e-02
<VARIANCE> 16
 1.570713e-02 5.084247e-02 1.430835e-02 5.824803e-03 2.745658e-02 1.293323e-02 4.162361e-03 9.569408e-03 1.507329e-02 3.385964e-03 1.568182e-02 1.409182e-02 1.173791e-03 1.000000e-03 1.000000e-03 1.000000e-03
<GCONST> -5.096428e+01
<MIXTURE> 2 6.717857e-01
<MEAN> 16
 3.230385e-01 -1.603272e-01 1.763624e+00 -2.493151e-01 -1.499099e-01 1.707760e+00 -1.669097e-02 2.608397e-02 -2.179887e-02 4.450749e-03 2.044895e-02 -1.860091e-02 7.891365e-02 7.844227e-02 7.252000e-02 7.152724e-02
<VARIANCE> 16
 5.466654e-03 2.881793e-02 1.397254e-02 5.459789e-03 1.625578e-02 1.023462e-02 1.000000e-03 3.788053e-03 3.755543e-03 1.000000e-03 3.474558e-03 3.505656e-03 1.000000e-03 1.000000e-03 1.000000e-03 1.000000e-03
<GCONST> -6.145473e+01
<STATE> 4
<NUMMIXES> 2
<MIXTURE> 1 3.721515e-01
<MEAN> 16
 1.861918e-01 -2.409781e-02 1.744652e+00 -1.828203e-01 5.045074e-02 1.715903e+00 2.336887e-02 1.610861e-02 3.780975e-02 -2.776632e-02 2.535521e-02 3.970962e-02 1.241263e-01 1.184036e-01 8.837361e-02 8.681452e-02
<VARIANCE> 16
 2.119296e-02 7.256568e-02 3.894447e-02 1.157224e-02 2.961447e-02 3.015398e-02 7.262618e-03 2.005683e-03 7.257472e-03 6.323806e-03 3.203620e-03 7.248953e-03 1.000000e-03 1.000000e-03 1.000000e-03 1.000000e-03
<GCONST> -5.122435e+01
<MIXTURE> 2 6.278477e-01
<MEAN> 16
 1.046102e-01 -3.150120e-02 1.530136e+00 -1.442006e-01 -2.508897e-02 1.533789e+00 -1.730418e-02 1.484572e-02 -2.387986e-02 1.465365e-02 1.850569e-02 -2.168338e-02 8.496500e-02 8.225384e-02 7.174058e-02 6.950851e-02
<VARIANCE> 16
 1.862949e-02 1.752174e-02 2.886133e-02 1.569613e-02 1.135881e-02 2.355302e-02 3.021469e-03 1.347283e-03 4.001422e-03 3.357269e-03 1.043702e-03 3.340594e-03 1.000000e-03 1.000000e-03 1.000000e-03 1.000000e-03
<GCONST> -5.837417e+01
<STATE> 5
<MEAN> 16
 2.796769e-01 -2.077618e-01 1.834441e+00 -2.109823e-01 4.086967e-02 1.801714e+00 5.565270e-03 -1.094855e-02 7.838669e-03 -7.965803e-03 1.344617e-03 7.644888e-03 1.095322e-01 1.132640e-01 8.677486e-02 8.358802e-02
<VARIANCE> 16
 9.551562e-03 1.008139e-01 2.191780e-02 8.759039e-03 4.125854e-02 2.087520e-02 1.000000e-03 1.752318e-03 1.941952e-03 1.000000e-03 3.666521e-03 1.769900e-03 1.081220e-03 1.000000e-03 1.000000e-03 1.000000e-03
<GCONST> -5.905938e+01
<TRANSP> 6
 0.000000e+00 1.000000e+00 0.000000e+00 0.000000e+00 0.000000e+00 0.000000e+00
 0.000000e+00 8.557196e-01 1.442805e-01 0.000000e+00 0.000000e+00 0.000000e+00
 0.000000e+00 0.000000e+00 8.326637e-01 1.673363e-01 0.000000e+00 0.000000e+00
 0.000000e+00 0.000000e+00 0.000000e+00 8.060575e-01 1.939426e-01 0.000000e+00
 0.000000e+00 0.000000e+00 0.000000e+00 0.000000e+00 7.746442e-01 2.253558e-01
 0.000000e+00 0.000000e+00 0.000000e+00 0.000000e+00 0.000000e+00 0.000000e+00
<ENDHMM>
~h "goes_to"
<BEGINHMM>
<NUMSTATES> 6
<STATE> 2
<NUMMIXES> 2
<MIXTURE> 1 4.684109e-01
<MEAN> 16
 3.666599e-01 -3.917048e-01 2.015300e+00 -2.459571e-01 -2.475790e-01 1.967623e+00 -2.355054e-03 2.357583e-02 3.509393e-02 -5.575757e-03 2.909144e-02 3.169972e-02 1.053726e-01 9.799010e-02 9.040853e-02 8.390856e-02
<VARIANCE> 16
 1.845884e-02 5.198839e-02 3.028054e-02 2.717258e-02 8.689667e-02 3.137217e-02 2.003287e-03 5.846509e-03 7.934831e-03 2.966792e-03 6.710851e-03 7.277293e-03 1.214903e-03 1.000000e-03 1.000000e-03 1.000000e-03
<GCONST> -4.992561e+01
<MIXTURE> 2 5.315866e-01
<MEAN> 16
 4.121467e-01 -4.051302e-01 1.806437e+00 -3.122415e-01 -3.233285e-01 1.780419e+00 -3.156733e-02 4.668373e-02 -4.182858e-02 8.415349e-03 4.823536e-02 -3.734062e-02 9.106061e-02 8.587312e-02 7.650343e-02 7.476804e-02
<VARIANCE> 16
 1.026780e-02 1.821886e-02 4.126981e-02 1.930920e-02 3.218036e-02 3.730204e-02 1.382000e-03 3.507558e-03 6.407470e-03 1.000000e-03 3.654886e-03 5.634988e-03 1.000000e-03 1.000000e-03 1.000000e-03 1.000000e-03
<GCONST> -5.565450e+01
<STATE> 3
<NUMMIXES> 2
<MIXTURE> 1 4.442843e-01
<MEAN> 16
 2.799225e-01 -2.018842e-01 1.888713e+00 -2.671713e-01 -1.704439e-01 1.840003e+00 2.275975e-03 3.989940e-03 2.599071e-02 -5.425593e-03 -1.369817e-03 2.406583e-02 9.247693e-02 9.797449e-02 8.603949e-02 7.990857e-02
<VARIANCE> 16
 1.706341e-02 4.026765e-02 1.334421e-02 7.131752e-03 1.439059e-02 9.547701e-03 1.000000e-03 1.897860e-03 2.853524e-03 1.000000e-03 1.303764e-03 2.579385e-03 1.000000e-03 1.000000e-03 1.000000e-03 1.000000e-03
<GCONST> -6.220497e+01
<MIXTURE> 2 5.557131e-01
<MEAN> 16
 2.199346e-01 -1.961350e-01 1.760185e+00 -2.472381e-01 -1.879470e-01 1.738428e+00 -1.178533e-02 7.325498e-03 -2.448493e-02 5.997020e-03 7.259921e-03 -2.231370e-02 8.563484e-02 8.878578e-02 7.270592e-02 7.586925e-02
<VARIANCE> 16
 3.058541e-02 1.927127e-02 1.002550e-02 8.159253e-03 6.314405e-03 8.671871e-03 1.000000e-03 1.929693e-03 2.823747e-03 1.000000e-03 1.000000e-03 2.506513e-03 1.000000e-03 1.000000e-03 1.000000e-03 1.000000e-03
<GCONST> -6.371740e+01
<STATE> 4
<NUMMIXES> 2
<MIXTURE> 1 4.104707e-01
<MEAN> 16
 2.194941e-01 -1.147557e-01 1.587272e+00 -2.856708e-01 1.881198e-02 1.486529e+00 1.987215e-03 3.711868e-04 1.184434e-02 -4.625694e-03 1.517940e-03 9.882686e-03 9.425632e-02 1.039639e-01 8.074963e-02 8.625905e-02
<VARIANCE> 16
 2.502417e-02 4.960734e-02 2.335957e-02 1.156395e-02 9.496944e-03 1.746945e-02 1.000000e-03 2.057663e-03 2.057376e-03 1.000000e-03 1.000000e-03 1.326636e-03 1.000000e-03 1.000000e-03 1.000000e-03 1.000000e-03
<GCONST> -6.155811e+01
<MIXTURE> 2 5.895256e-01
<MEAN> 16
 1.085260e-01 -3.443816e-02 1.409145e+00 -2.900107e-01 1.139804e-02 1.372931e+00 -6.398974e-03 2.777646e-03 -1.030356e-02 2.643750e-03 4.180942e-04 -8.778728e-03 8.695003e-02 9.412406e-02 7.706421e-02 8.212650e-02
<VARIANCE> 16
 4.676787e-02 2.207779e-02 1.056099e-02 6.060036e-03 2.745087e-03 6.654250e-03 1.000000e-03 1.000000e-03 1.000000e-03 1.000000e-03 1.000000e-03 1.000000e-03 1.000000e-03 1.000000e-03 1.000000e-03 1.000000e-03
<GCONST> -6.711434e+01
<STATE> 5
<MEAN> 16
 2.097732e-01 -1.801712e-01 1.686982e+00 -2.622426e-01 -2.430891e-01 1.716466e+00 2.962222e-02 -1.732874e-02 1.107296e-02 -1.862439e-02 -1.542580e-02 1.779008e-02 9.470481e-02 9.904342e-02 7.749977e-02 7.672925e-02
<VARIANCE> 16
 4.179130e-02 3.489367e-02 5.128127e-02 2.537194e-02 9.540502e-02 3.850198e-02 9.616425e-03 4.710097e-03 1.221559e-02 6.880425e-03 5.550973e-03 1.142959e-02 1.000000e-03 1.159151e-03 1.000000e-03 1.000000e-03
<GCONST> -4.591081e+01
<TRANSP> 6
 0.000000e+00 1.000000e+00 0.000000e+00 0.000000e+00 0.000000e+00 0.000000e+00
 0.000000e+00 8.791249e-01 1.208751e-01 0.000000e+00 0.000000e+00 0.000000e+00
 0.000000e+00 0.000000e+00 9.365062e-01 6.349381e-02 0.000000e+00 0.000000e+00
 0.000000e+00 0.000000e+00 0.000000e+00 9.588187e-01 4.118123e-02 0.000000e+00
 0.000000e+00 0.000000e+00 0.000000e+00 0.000000e+00 7.339234e-01 2.660765e-01
 0.000000e+00 0.000000e+00 0.000000e+00 0.000000e+00 0.000000e+00 0.000000e+00
<ENDHMM>
