~o
<STREAMINFO> 1 16
<VECSIZE> 16<NULLD><USER><DIAGC>
~h "Monkey"
<BEGINHMM>
<NUMSTATES> 6
<STATE> 2
<NUMMIXES> 2
<MIXTURE> 1 5.448439e-01
<MEAN> 16
 6.243679e-01 -7.462147e-01 1.944187e+00 -1.421632e-01 -6.196782e-01 1.835855e+00 6.243679e-01 -7.462147e-01 1.944187e+00 -1.421632e-01 -6.196782e-01 1.835855e+00 1.107765e-01 1.154585e-01 9.532910e-02 7.370801e-02
<VARIANCE> 16
 7.539093e-03 1.000000e-03 4.257316e-03 2.651927e-03 1.425795e-03 3.239117e-03 7.539093e-03 1.000000e-03 4.257316e-03 2.651927e-03 1.425795e-03 3.239117e-03 1.000000e-03 1.000000e-03 1.000000e-03 1.000000e-03
<GCONST> -6.916994e+01
<MIXTURE> 2 4.551560e-01
<MEAN> 16
 5.643687e-01 -6.713375e-01 1.748526e+00 -2.932436e-01 -6.161169e-01 1.815899e+00 5.643687e-01 -6.713375e-01 1.748526e+00 -2.932436e-01 -6.161169e-01 1.815899e+00 1.208462e-01 9.858040e-02 9.903380e-02 6.806201e-02
<VARIANCE> 16
 2.532756e-03 1.788528e-03 9.079718e-03 2.715965e-02 1.605689e-02 1.288984e-02 2.532756e-03 1.788528e-03 9.079718e-03 2.715965e-02 1.605689e-02 1.288984e-02 1.000000e-03 1.000000e-03 1.000000e-03 1.000000e-03
<GCONST> -5.641595e+01
<STATE> 3
<NUMMIXES> 2
<MIXTURE> 1 7.205427e-01
<MEAN> 16
 6.145675e-01 -7.446547e-01 1.947284e+00 -1.465018e-01 -6.173338e-01 1.825500e+00 -8.927846e-04 2.206851e-03 2.290141e-04 -2.330777e-04 2.308910e-03 -7.338220e-04 1.140455e-01 1.157114e-01 1.022657e-01 7.492954e-02
<VARIANCE> 16
 6.012199e-03 1.000000e-03 4.111452e-03 1.823525e-03 1.000000e-03 2.385190e-03 1.000000e-03 1.000000e-03 1.000000e-03 1.000000e-03 1.000000e-03 1.000000e-03 1.000000e-03 1.000000e-03 1.000000e-03 1.000000e-03
<GCONST> -7.644044e+01
<MIXTURE> 2 2.794573e-01
<MEAN> 16
 5.888397e-01 -7.116064e-01 1.831569e+00 -2.731268e-01 -6.578389e-01 1.864634e+00 -7.217231e-04 1.213674e-03 2.174397e-03 3.455588e-04 3.018361e-03 -5.005044e-03 1.182303e-01 1.030122e-01 9.896023e-02 6.915985e-02
<VARIANCE> 16
 2.729062e-03 2.133153e-03 1.091206e-02 2.162786e-02 1.400344e-02 1.487121e-02 1.000000e-03 1.000000e-03 1.548631e-03 1.000000e-03 1.000000e-03 5.769832e-03 1.000000e-03 1.000000e-03 1.000000e-03 1.000000e-03
<GCONST> -6.636391e+01
<STATE> 4
<NUMMIXES> 2
<MIXTURE> 1 6.685460e-01
<MEAN> 16
 5.017761e-01 -6.607454e-01 1.867844e+00 -1.263572e-01 -5.878484e-01 1.816686e+00 -3.309861e-02 1.721481e-02 -4.308050e-03 -3.710986e-03 6.094198e-03 3.075197e-04 1.103855e-01 1.086745e-01 8.707830e-02 7.327894e-02
<VARIANCE> 16
 6.861845e-03 1.904341e-03 1.258560e-02 3.766975e-03 5.007123e-03 6.981608e-03 1.676429e-03 1.446080e-03 2.661530e-03 1.000000e-03 1.000000e-03 1.511535e-03 1.049086e-03 1.000000e-03 1.000000e-03 1.000000e-03
<GCONST> -6.880951e+01
<MIXTURE> 2 3.314548e-01
<MEAN> 16
 5.593683e-01 -6.293033e-01 1.690687e+00 -4.474766e-01 -6.704303e-01 1.808310e+00 -1.738490e-03 4.432905e-03 2.310362e-04 -3.149727e-03 7.982149e-03 -1.937665e-02 1.152010e-01 9.824793e-02 1.240280e-01 6.263483e-02
<VARIANCE> 16
 1.000000e-03 1.000000e-03 2.981629e-03 1.000000e-03 1.161285e-03 4.692352e-03 1.000000e-03 1.000000e-03 1.000000e-03 1.000000e-03 1.000000e-03 1.291704e-03 1.000000e-03 1.000000e-03 1.000000e-03 1.000000e-03
<GCONST> -7.807416e+01
<STATE> 5
<MEAN> 16
 3.789394e-01 -6.509129e-01 1.896449e+00 -1.622299e-01 -2.354257e-01 1.816379e+00 -4.218364e-03 5.394382e-03 7.728386e-04 -3.857750e-03 1.736838e-02 1.066891e-03 1.257869e-01 1.089887e-01 8.137728e-02 7.891624e-02
<VARIANCE> 16
 2.122031e-02 3.456465e-03 9.797757e-03 1.244003e-02 1.281265e-01 1.232937e-02 1.000000e-03 1.000000e-03 3.222486e-03 1.000000e-03 3.930991e-03 2.926950e-03 1.000000e-03 1.000000e-03 1.000000e-03 1.000000e-03
<GCONST> -6.104177e+01
<TRANSP> 6
 0.000000e+00 1.000000e+00 0.000000e+00 0.000000e+00 0.000000e+00 0.000000e+00
 0.000000e+00 0.000000e+00 1.000000e+00 0.000000e+00 0.000000e+00 0.000000e+00
 0.000000e+00 0.000000e+00 8.087754e-01 1.912246e-01 0.000000e+00 0.000000e+00
 0.000000e+00 0.000000e+00 0.000000e+00 7.408181e-01 2.591819e-01 0.000000e+00
 0.000000e+00 0.000000e+00 0.000000e+00 0.000000e+00 8.820804e-01 1.179195e-01
 0.000000e+00 0.000000e+00 0.000000e+00 0.000000e+00 0.000000e+00 0.000000e+00
<ENDHMM>
~h "fence"
<BEGINHMM>
<NUMSTATES> 6
<STATE> 2
<NUMMIXES> 2
<MIXTURE> 1 3.615887e-01
<MEAN> 16
 4.227128e-01 -3.070360e-01 1.996694e+00 -3.585360e-01 -1.810162e-01 1.890794e+00 8.572898e-03 -1.145266e-02 2.231502e-02 -4.213033e-03 -5.609919e-03 1.582796e-02 1.134690e-01 1.541427e-01 9.438702e-02 9.301507e-02
<VARIANCE> 16
 7.962104e-03 1.926178e-02 1.566031e-02 2.158407e-03 1.177661e-02 7.410603e-03 1.000000e-03 1.000000e-03 4.495727e-03 1.000000e-03 1.000000e-03 3.614094e-03 1.243572e-03 1.000000e-03 1.000000e-03 1.000000e-03
<GCONST> -6.508975e+01
<MIXTURE> 2 6.384047e-01
<MEAN> 16
 2.334769e-01 -2.480265e-01 1.805120e+00 -2.896922e-01 -2.585940e-01 1.746949e+00 -4.429835e-03 2.617280e-03 -1.390439e-02 1.242575e-03 4.615591e-05 -1.056424e-02 8.761723e-02 1.447206e-01 8.142745e-02 8.704957e-02
<VARIANCE> 16
 3.241228e-02 1.735364e-02 1.571671e-02 1.894812e-03 5.784829e-03 9.070522e-03 1.000000e-03 1.656540e-03 3.078934e-03 1.000000e-03 1.000000e-03 2.339721e-03 1.000000e-03 1.000000e-03 1.000000e-03 1.000000e-03
<GCONST> -6.495226e+01
<STATE> 3
<NUMMIXES> 2
<MIXTURE> 1 4.263458e-01
<MEAN> 16
 2.970642e-01 -6.573282e-02 1.912352e+00 -3.494102e-01 -1.053861e-01 1.850275e+00 2.511272e-03 -2.270749e-03 9.967599e-03 -1.716687e-03 -2.136003e-03 8.642301e-03 1.172238e-01 1.633120e-01 9.203147e-02 9.579252e-02
<VARIANCE> 16
 3.905417e-02 5.966422e-02 1.151506e-02 4.376014e-03 2.653855e-03 1.073899e-02 1.616399e-03 3.002951e-03 4.401444e-03 1.000000e-03 1.000000e-03 3.846191e-03 1.000000e-03 1.000000e-03 1.000000e-03 1.000000e-03
<GCONST> -6.168587e+01
<MIXTURE> 2 5.736462e-01
<MEAN> 16
 1.642255e-01 -7.035185e-02 1.727869e+00 -3.916218e-01 -9.477869e-02 1.695115e+00 -4.682585e-03 -1.288506e-03 -7.262925e-03 1.343860e-03 -3.880833e-04 -6.218091e-03 1.002887e-01 1.368577e-01 7.634877e-02 9.058056e-02
<VARIANCE> 16
 5.982387e-02 1.061863e-02 5.219017e-03 7.493883e-03 3.575772e-03 4.728525e-03 1.075327e-03 1.000000e-03 1.450510e-03 1.000000e-03 1.000000e-03 1.431537e-03 1.000000e-03 1.000000e-03 1.000000e-03 1.000000e-03
<GCONST> -6.736656e+01
<STATE> 4
<NUMMIXES> 2
<MIXTURE> 1 7.265201e-01
<MEAN> 16
 2.159835e-01 -9.350309e-02 1.522153e+00 -3.486917e-01 -3.406665e-02 1.449627e+00 -2.158232e-04 -4.184731e-04 -1.264426e-03 3.774909e-04 -6.962101e-04 -7.986267e-04 9.517059e-02 1.427675e-01 8.178066e-02 8.593840e-02
<VARIANCE> 16
 3.809133e-02 2.917469e-02 2.776944e-02 6.705145e-03 2.273769e-03 1.404430e-02 1.000000e-03 1.000000e-03 1.000000e-03 1.000000e-03 1.000000e-03 1.000000e-03 1.000000e-03 1.000000e-03 1.000000e-03 1.000000e-03
<GCONST> -6.541430e+01
<MIXTURE> 2 2.734766e-01
<MEAN> 16
 2.558280e-01 -3.543798e-01 1.717422e+00 -2.895007e-01 -2.745359e-01 1.650911e+00 3.552759e-02 -4.186511e-02 1.832027e-02 5.569019e-03 -3.698127e-02 1.204369e-02 9.606135e-02 1.102285e-01 7.606919e-02 7.455727e-02
<VARIANCE> 16
 8.808091e-02 4.422163e-02 3.229146e-02 1.161219e-02 3.096101e-02 2.997791e-02 3.074939e-03 3.451903e-03 7.872788e-03 1.379605e-03 1.684636e-03 6.316870e-03 1.000000e-03 1.536680e-03 1.000000e-03 1.000000e-03
<GCONST> -5.254872e+01
<STATE> 5
<MEAN> 16
 5.839800e-01 -6.992656e-01 1.861596e+00 -1.850355e-01 -6.049720e-01 1.796930e+00 4.518256e-03 -4.697461e-03 1.198142e-04 2.663092e-03 -5.527889e-03 1.662188e-03 1.157211e-01 1.110720e-01 9.782445e-02 7.513906e-02
<VARIANCE> 16
 1.807027e-02 3.634571e-03 1.443346e-02 1.509029e-02 5.483723e-03 6.649050e-03 1.000000e-03 1.000000e-03 1.340113e-03 1.000000e-03 1.000000e-03 1.340561e-03 1.000000e-03 1.000000e-03 1.000000e-03 1.000000e-03
<GCONST> -6.736759e+01
<TRANSP> 6
 0.000000e+00 1.000000e+00 0.000000e+00 0.000000e+00 0.000000e+00 0.000000e+00
 0.000000e+00 9.557348e-01 4.426515e-02 0.000000e+00 0.000000e+00 0.000000e+00
 0.000000e+00 0.000000e+00 9.786338e-01 2.136626e-02 0.000000e+00 0.000000e+00
 0.000000e+00 0.000000e+00 0.000000e+00 9.665768e-01 3.342319e-02 0.000000e+00
 0.000000e+00 0.000000e+00 0.000000e+00 0.000000e+00 9.601761e-01 3.982397e-02
 0.000000e+00 0.000000e+00 0.000000e+00 0.000000e+00 0.000000e+00 0.000000e+00
<ENDHMM>
~h "Car"
<BEGINHMM>
<NUMSTATES> 6
<STATE> 2
<NUMMIXES> 2
<MIXTURE> 1 5.106755e-01
<MEAN> 16
 6.258661e-01 -7.425652e-01 1.931557e+00 -1.432002e-01 -6.124342e-01 1.834875e+00 6.258661e-01 -7.425652e-01 1.931557e+00 -1.432002e-01 -6.124342e-01 1.834875e+00 1.095692e-01 1.146271e-01 9.634592e-02 8.079400e-02
<VARIANCE> 16
 6.760178e-03 1.000000e-03 3.647694e-03 2.842417e-03 2.142293e-03 3.428950e-03 6.760178e-03 1.000000e-03 3.647694e-03 2.842417e-03 2.142293e-03 3.428950e-03 1.000000e-03 1.000000e-03 1.000000e-03 1.000000e-03
<GCONST> -6.863020e+01
<MIXTURE> 2 4.893247e-01
<MEAN> 16
 5.710843e-01 -6.794689e-01 1.748068e+00 -2.974951e-01 -6.293432e-01 1.817102e+00 5.710843e-01 -6.794689e-01 1.748068e+00 -2.974951e-01 -6.293432e-01 1.817102e+00 1.194631e-01 9.481706e-02 1.009897e-01 6.689350e-02
<VARIANCE> 16
 2.753107e-03 1.784639e-03 8.899894e-03 2.353676e-02 1.671691e-02 1.338784e-02 2.753107e-03 1.784639e-03 8.899894e-03 2.353676e-02 1.671691e-02 1.338784e-02 1.000000e-03 1.032939e-03 1.000000e-03 1.000000e-03
<GCONST> -5.639101e+01
<STATE> 3
<NUMMIXES> 2
<MIXTURE> 1 3.679241e-01
<MEAN> 16
 6.004753e-01 -7.356350e-01 1.933877e+00 -9.825824e-02 -1.517749e-01 1.781779e+00 1.721992e-03 -2.433227e-03 8.553742e-03 5.151705e-04 1.334625e-02 6.537293e-03 1.202364e-01 1.146953e-01 9.143088e-02 8.156471e-02
<VARIANCE> 16
 4.172837e-03 1.000000e-03 6.318439e-03 1.076209e-02 1.151526e-01 7.967495e-03 1.000000e-03 1.000000e-03 4.336172e-03 1.780220e-03 5.088121e-03 4.736361e-03 1.000000e-03 1.000000e-03 1.000000e-03 1.000000e-03
<GCONST> -6.342243e+01
<MIXTURE> 2 6.320764e-01
<MEAN> 16
 5.931075e-01 -7.095959e-01 1.827629e+00 -2.599646e-01 -4.588848e-01 1.787511e+00 -7.944114e-04 3.370858e-03 -5.102445e-03 -2.238794e-03 2.663501e-03 -8.557960e-03 1.248626e-01 1.005437e-01 9.358843e-02 7.594789e-02
<VARIANCE> 16
 1.444039e-03 1.466011e-03 8.907304e-03 2.294285e-02 8.746083e-02 1.705357e-02 1.000000e-03 1.000000e-03 1.262260e-03 1.000000e-03 1.000000e-03 1.576202e-03 1.000000e-03 1.000000e-03 1.000000e-03 1.000000e-03
<GCONST> -6.705271e+01
<STATE> 4
<NUMMIXES> 2
<MIXTURE> 1 6.329647e-01
<MEAN> 16
 6.155943e-01 -7.359311e-01 1.926776e+00 -1.851100e-01 -6.108187e-01 1.849924e+00 -1.478489e-03 4.285110e-03 1.738824e-04 -1.388376e-03 4.287796e-03 -1.452102e-03 1.150704e-01 1.084308e-01 1.095976e-01 7.798292e-02
<VARIANCE> 16
 5.162197e-03 1.167401e-03 5.261272e-03 6.569545e-03 9.453157e-03 7.315746e-03 1.000000e-03 1.000000e-03 1.000000e-03 1.000000e-03 1.000000e-03 1.000000e-03 1.000000e-03 1.000000e-03 1.000000e-03 1.000000e-03
<GCONST> -7.154272e+01
<MIXTURE> 2 3.670352e-01
<MEAN> 16
 5.429834e-01 -6.390278e-01 1.668928e+00 -3.523498e-01 -6.347868e-01 1.771174e+00 -2.538708e-03 3.430918e-03 7.902248e-05 -9.262125e-04 7.440541e-03 -1.200866e-02 1.162233e-01 9.650816e-02 1.234189e-01 6.219643e-02
<VARIANCE> 16
 1.082915e-03 1.043543e-03 1.891581e-03 2.060548e-02 3.747386e-03 5.057170e-03 1.000000e-03 1.000000e-03 1.000000e-03 1.000000e-03 1.000000e-03 1.000000e-03 1.000000e-03 1.000000e-03 1.000000e-03 1.000000e-03
<GCONST> -7.439094e+01
<STATE> 5
<MEAN> 16
 3.884338e-01 -6.284089e-01 1.877890e+00 -1.792184e-01 -5.968773e-01 1.832744e+00 -2.145465e-02 1.403827e-02 -2.508406e-04 -5.282449e-03 7.695711e-03 9.567918e-05 1.168496e-01 1.123446e-01 8.270469e-02 7.399671e-02
<VARIANCE> 16
 1.953091e-02 2.086365e-03 9.320263e-03 7.540869e-03 7.439660e-03 6.633667e-03 1.313485e-03 1.131402e-03 3.131826e-03 1.000000e-03 1.000000e-03 2.136471e-03 1.000000e-03 1.000000e-03 1.000000e-03 1.000000e-03
<GCONST> -6.696221e+01
<TRANSP> 6
 0.000000e+00 1.000000e+00 0.000000e+00 0.000000e+00 0.000000e+00 0.000000e+00
 0.000000e+00 0.000000e+00 1.000000e+00 0.000000e+00 0.000000e+00 0.000000e+00
 0.000000e+00 0.000000e+00 7.673094e-01 2.326906e-01 0.000000e+00 0.000000e+00
 0.000000e+00 0.000000e+00 0.000000e+00 8.059558e-01 1.940442e-01 0.000000e+00
 0.000000e+00 0.000000e+00 0.000000e+00 0.000000e+00 7.876241e-01 2.123759e-01
 0.000000e+00 0.000000e+00 0.000000e+00 0.000000e+00 0.000000e+00 0.000000e+00
<ENDHMM>
~h "Man"
<BEGINHMM>
<NUMSTATES> 6
<STATE> 2
<NUMMIXES> 2
<MIXTURE> 1 1.752132e-01
<MEAN> 16
 6.637440e-01 -7.233154e-01 1.968613e+00 -1.596994e-01 -5.464668e-01 1.828061e+00 6.637440e-01 -7.233154e-01 1.968613e+00 -1.596994e-01 -5.464668e-01 1.828061e+00 1.100992e-01 1.032551e-01 1.000445e-01 7.454433e-02
<VARIANCE> 16
 1.139745e-01 4.139927e-02 5.737850e-03 1.571673e-02 4.905352e-02 1.933024e-02 1.139745e-01 4.139927e-02 5.737850e-03 1.571673e-02 4.905352e-02 1.933024e-02 1.012038e-03 1.000000e-03 1.000000e-03 1.000000e-03
<GCONST> -4.147482e+01
<MIXTURE> 2 8.247866e-01
<MEAN> 16
 5.711125e-01 -7.000690e-01 1.820803e+00 -2.277938e-01 -6.301153e-01 1.816291e+00 5.711125e-01 -7.000690e-01 1.820803e+00 -2.277938e-01 -6.301153e-01 1.816291e+00 1.156049e-01 1.057381e-01 1.004451e-01 7.094957e-02
<VARIANCE> 16
 2.247645e-03 2.127626e-03 1.667432e-02 2.097955e-02 4.989322e-03 7.174306e-03 2.247645e-03 2.127626e-03 1.667432e-02 2.097955e-02 4.989322e-03 7.174306e-03 1.000000e-03 1.000000e-03 1.000000e-03 1.000000e-03
<GCONST> -5.911783e+01
<STATE> 3
<NUMMIXES> 2
<MIXTURE> 1 5.721319e-01
<MEAN> 16
 7.593700e-01 -4.728193e-01 2.191482e+00 -2.663671e-01 -5.147644e-01 1.886511e+00 1.253922e+00 -4.123833e-01 8.879741e-02 5.473616e-01 -8.121014e-01 -1.653329e-02 1.154706e-01 1.142517e-01 1.061237e-01 7.748006e-02
<VARIANCE> 16
 1.281668e-01 3.397395e-02 1.233788e-01 5.811643e-02 2.971719e-02 4.462969e-02 7.046368e-01 7.849518e-02 1.253705e-01 2.020970e-01 2.972900e-01 1.969551e-01 1.000000e-03 1.000000e-03 1.000000e-03 1.000000e-03
<GCONST> -2.463287e+01
<MIXTURE> 2 4.278679e-01
<MEAN> 16
 -8.559142e-01 1.557428e-01 2.190955e+00 -1.015787e+00 6.047277e-01 1.933988e+00 -1.674254e+00 5.496319e-01 -1.181746e-01 -7.310342e-01 1.085277e+00 2.272674e-02 7.668134e-02 6.536447e-02 6.305037e-02 7.537614e-02
<VARIANCE> 16
 2.103779e-02 2.466281e-02 2.403245e-01 4.394310e-02 7.786981e-02 3.030438e-01 2.355223e-01 2.857720e-02 1.591136e-01 1.349625e-01 9.915172e-02 2.539432e-01 1.000000e-03 1.000000e-03 1.000000e-03 1.000000e-03
<GCONST> -2.660984e+01
<STATE> 4
<NUMMIXES> 2
<MIXTURE> 1 6.460312e-01
<MEAN> 16
 4.820361e-01 -6.891260e-01 1.926258e+00 -1.386650e-01 -6.156884e-01 1.853193e+00 -7.704631e-03 3.486062e-03 3.001265e-03 -1.528446e-03 1.427127e-03 3.102807e-03 1.173241e-01 1.137592e-01 9.132641e-02 7.462743e-02
<VARIANCE> 16
 2.964745e-02 4.306711e-03 5.386349e-03 2.710705e-03 1.000000e-03 4.400006e-03 1.000000e-03 1.000000e-03 1.000000e-03 1.000000e-03 1.000000e-03 1.000000e-03 1.000000e-03 1.000000e-03 1.000000e-03 1.000000e-03
<GCONST> -7.210582e+01
<MIXTURE> 2 3.539684e-01
<MEAN> 16
 4.857395e-01 -6.510482e-01 1.776463e+00 -2.404345e-01 -6.106754e-01 1.808936e+00 -1.646383e-02 9.687543e-03 -9.264380e-03 -1.485519e-03 5.848500e-03 -1.398110e-02 1.178059e-01 1.014564e-01 9.824716e-02 6.876881e-02
<VARIANCE> 16
 1.436959e-02 1.740666e-03 1.136499e-02 2.501561e-02 6.667952e-03 7.154764e-03 1.458919e-03 1.134872e-03 3.204882e-03 1.000000e-03 1.000000e-03 2.791223e-03 1.000000e-03 1.000000e-03 1.000000e-03 1.000000e-03
<GCONST> -6.568817e+01
<STATE> 5
<MEAN> 16
 4.540485e-01 -6.623052e-01 1.869677e+00 -1.574509e-01 -7.013149e-02 1.783765e+00 -1.962676e-03 4.209369e-03 2.019007e-03 -2.108781e-03 2.463403e-02 8.377388e-04 1.222922e-01 1.022198e-01 9.599322e-02 8.269078e-02
<VARIANCE> 16
 2.076028e-02 4.726914e-03 1.914568e-02 1.661226e-02 1.086024e-01 2.262320e-02 1.000000e-03 1.000000e-03 2.955477e-03 1.000000e-03 5.718827e-03 3.005247e-03 1.000000e-03 1.000000e-03 1.000000e-03 1.000000e-03
<GCONST> -5.903507e+01
<TRANSP> 6
 0.000000e+00 1.000000e+00 0.000000e+00 0.000000e+00 0.000000e+00 0.000000e+00
 0.000000e+00 0.000000e+00 1.000000e+00 0.000000e+00 0.000000e+00 0.000000e+00
 0.000000e+00 0.000000e+00 8.594220e-01 1.405781e-01 0.000000e+00 0.000000e+00
 0.000000e+00 0.000000e+00 0.000000e+00 9.046284e-01 9.537160e-02 0.000000e+00
 0.000000e+00 0.000000e+00 0.000000e+00 0.000000e+00 8.612064e-01 1.387936e-01
 0.000000e+00 0.000000e+00 0.000000e+00 0.000000e+00 0.000000e+00 0.000000e+00
<ENDHMM>
~h "car"
<BEGINHMM>
<NUMSTATES> 6
<STATE> 2
<NUMMIXES> 2
<MIXTURE> 1 4.717835e-01
<MEAN> 16
 3.246619e-01 -4.613074e-01 2.082479e+00 -2.628575e-01 5.616819e-02 1.866525e+00 3.088464e-03 -1.068586e-03 4.013349e-03 -6.380224e-04 -8.232744e-03 1.017402e-03 1.012463e-01 1.347858e-01 9.316777e-02 8.506390e-02
<VARIANCE> 16
 1.216913e-02 5.563680e-03 1.464024e-02 1.123035e-03 9.547814e-03 9.493805e-03 1.000000e-03 1.000000e-03 1.000000e-03 1.000000e-03 1.000000e-03 1.000000e-03 1.000000e-03 1.000000e-03 1.000000e-03 1.000000e-03
<GCONST> -6.959614e+01
<MIXTURE> 2 5.282122e-01
<MEAN> 16
 2.750167e-01 -2.460060e-01 1.868408e+00 -2.967897e-01 -9.423891e-02 1.827717e+00 4.543898e-03 -1.437551e-02 -2.588475e-03 6.281447e-04 -5.763876e-04 -5.610419e-03 8.561336e-02 9.809376e-02 8.023337e-02 8.310432e-02
<VARIANCE> 16
 2.045020e-02 2.230518e-02 1.944245e-02 4.321008e-03 4.272664e-02 1.276818e-02 1.000000e-03 1.000000e-03 4.079771e-03 1.000000e-03 1.000000e-03 3.347705e-03 1.000000e-03 1.000000e-03 1.000000e-03 1.000000e-03
<GCONST> -6.164820e+01
<STATE> 3
<NUMMIXES> 2
<MIXTURE> 1 7.043551e-01
<MEAN> 16
 3.291098e-01 5.065482e-02 1.896809e+00 -3.078947e-01 4.965208e-02 1.869978e+00 2.317761e-03 1.208939e-03 -1.272292e-03 -1.270912e-03 -2.087304e-03 1.939076e-04 1.159893e-01 1.371494e-01 8.845700e-02 8.196016e-02
<VARIANCE> 16
 2.487730e-02 2.365836e-02 1.409385e-02 2.099272e-03 1.652735e-03 1.426997e-02 1.000000e-03 1.854647e-03 1.000000e-03 1.000000e-03 1.000000e-03 1.000000e-03 1.000000e-03 1.000000e-03 1.000000e-03 1.000000e-03
<GCONST> -6.757478e+01
<MIXTURE> 2 2.956398e-01
<MEAN> 16
 2.914643e-01 -9.561742e-02 1.906774e+00 -2.684475e-01 -3.891198e-02 1.876355e+00 1.272758e-02 -1.340851e-02 5.967430e-03 1.493168e-05 -1.452734e-02 3.748837e-03 1.126857e-01 1.175340e-01 8.502356e-02 8.458322e-02
<VARIANCE> 16
 8.666082e-02 8.114684e-02 1.938937e-02 1.367104e-02 3.338977e-02 1.698734e-02 4.296588e-03 5.948719e-03 1.214957e-02 1.702724e-03 1.688130e-03 1.013687e-02 1.000000e-03 1.000000e-03 1.000000e-03 1.000000e-03
<GCONST> -5.122875e+01
<STATE> 4
<NUMMIXES> 2
<MIXTURE> 1 6.691865e-01
<MEAN> 16
 1.888981e-01 -1.808535e-02 1.722889e+00 -4.043261e-01 -4.414046e-02 1.659994e+00 -1.062447e-03 -2.139892e-03 -9.957405e-05 -5.352544e-04 -1.042877e-03 6.014114e-04 9.120750e-02 1.174978e-01 6.926358e-02 7.933666e-02
<VARIANCE> 16
 3.132379e-02 1.542420e-02 9.485498e-03 2.654333e-03 3.943869e-03 4.973669e-03 1.000000e-03 1.000000e-03 1.000000e-03 1.000000e-03 1.000000e-03 1.000000e-03 1.000000e-03 1.000000e-03 1.000000e-03 1.000000e-03
<GCONST> -6.873547e+01
<MIXTURE> 2 3.307999e-01
<MEAN> 16
 2.458515e-01 -1.550440e-01 1.704116e+00 -3.660562e-01 -1.114471e-01 1.611981e+00 5.949595e-03 -1.924853e-02 3.334581e-03 5.773892e-03 -2.024068e-02 8.193878e-04 9.694118e-02 1.091711e-01 7.802819e-02 8.378706e-02
<VARIANCE> 16
 4.829285e-02 6.623373e-02 4.605610e-02 8.201726e-03 3.249463e-02 2.592722e-02 2.744236e-03 3.818815e-03 8.069100e-03 1.000000e-03 1.559186e-03 5.656908e-03 1.000000e-03 1.000000e-03 1.000000e-03 1.000000e-03
<GCONST> -5.376248e+01
<STATE> 5
<MEAN> 16
 5.803341e-01 -6.944863e-01 1.855441e+00 -1.936292e-01 -6.067737e-01 1.814116e+00 4.469766e-03 -5.611275e-03 5.967341e-04 3.430157e-03 -6.543437e-03 1.986978e-03 1.163051e-01 1.076251e-01 9.746089e-02 7.494354e-02
<VARIANCE> 16
 1.558496e-02 3.190367e-03 1.539879e-02 1.834705e-02 5.086804e-03 6.905131e-03 1.000000e-03 1.000000e-03 1.575628e-03 1.000000e-03 1.000000e-03 1.655211e-03 1.000000e-03 1.000000e-03 1.000000e-03 1.000000e-03
<GCONST> -6.705036e+01
<TRANSP> 6
 0.000000e+00 1.000000e+00 0.000000e+00 0.000000e+00 0.000000e+00 0.000000e+00
 0.000000e+00 9.136828e-01 8.631725e-02 0.000000e+00 0.000000e+00 0.000000e+00
 0.000000e+00 0.000000e+00 9.495367e-01 5.046331e-02 0.000000e+00 0.000000e+00
 0.000000e+00 0.000000e+00 0.000000e+00 9.660158e-01 3.398422e-02 0.000000e+00
 0.000000e+00 0.000000e+00 0.000000e+00 0.000000e+00 9.597339e-01 4.026610e-02
 0.000000e+00 0.000000e+00 0.000000e+00 0.000000e+00 0.000000e+00 0.000000e+00
<ENDHMM>
~h "weaves_and_bumps_into"
<BEGINHMM>
<NUMSTATES> 6
<STATE> 2
<NUMMIXES> 2
<MIXTURE> 1 3.616345e-01
<MEAN> 16
 3.009204e-01 -2.842908e-01 1.891988e+00 -2.293007e-01 -2.192118e-01 1.847010e+00 -3.721750e-02 7.140785e-02 -1.359281e-02 5.827464e-03 6.715643e-02 -1.145571e-02 1.078796e-01 9.689803e-02 8.563719e-02 8.195170e-02
<VARIANCE> 16
 2.391351e-02 3.762903e-02 4.773200e-02 1.619332e-02 3.040316e-02 4.491626e-02 5.298451e-03 7.771571e-03 1.908058e-02 5.462124e-03 8.743330e-03 1.709753e-02 1.150760e-03 1.000000e-03 1.000000e-03 1.000000e-03
<GCONST> -4.693425e+01
<MIXTURE> 2 6.383628e-01
<MEAN> 16
 4.378006e-01 -4.110520e-01 1.887335e+00 -3.754310e-01 -3.595538e-01 1.862593e+00 -1.580065e-02 2.509667e-02 -5.984541e-03 1.747419e-03 2.702177e-02 -6.111129e-03 9.326275e-02 9.009110e-02 7.886198e-02 7.759298e-02
<VARIANCE> 16
 5.212939e-03 1.078267e-02 4.993939e-02 9.809023e-03 1.223971e-02 4.771571e-02 1.000000e-03 1.706825e-03 4.439814e-03 1.000000e-03 1.716374e-03 3.938620e-03 1.000000e-03 1.000000e-03 1.000000e-03 1.000000e-03
<GCONST> -6.058862e+01
<STATE> 3
<NUMMIXES> 2
<MIXTURE> 1 3.554274e-01
<MEAN> 16
 2.245122e-01 -1.268690e-01 1.852612e+00 -2.264656e-01 -1.167878e-01 1.802637e+00 3.470470e-03 2.995441e-03 2.918995e-02 -5.784267e-03 -3.690230e-05 2.650258e-02 9.678231e-02 9.456656e-02 8.659709e-02 7.700127e-02
<VARIANCE> 16
 2.230341e-02 5.050147e-02 1.730660e-02 1.184193e-02 2.673090e-02 1.047041e-02 1.015323e-03 2.904830e-03 5.001775e-03 1.000000e-03 1.842600e-03 4.540200e-03 1.010860e-03 1.000000e-03 1.000000e-03 1.000000e-03
<GCONST> -5.830788e+01
<MIXTURE> 2 6.445675e-01
<MEAN> 16
 2.373764e-01 -2.210811e-01 1.765580e+00 -2.763803e-01 -2.113166e-01 1.715257e+00 -4.915779e-03 2.494934e-03 -1.780512e-02 2.615159e-03 4.545082e-03 -1.635670e-02 8.290404e-02 8.277901e-02 7.821418e-02 7.799131e-02
<VARIANCE> 16
 1.758447e-02 1.371574e-02 9.786025e-03 2.847300e-03 4.703822e-03 8.204918e-03 1.000000e-03 1.087532e-03 3.057637e-03 1.000000e-03 1.000000e-03 2.601552e-03 1.000000e-03 1.000000e-03 1.000000e-03 1.000000e-03
<GCONST> -6.649440e+01
<STATE> 4
<NUMMIXES> 2
<MIXTURE> 1 3.473800e-01
<MEAN> 16
 2.541748e-01 -1.494028e-01 1.595990e+00 -3.227887e-01 1.672494e-02 1.470836e+00 6.348603e-03 -3.572628e-03 7.580145e-03 -5.514618e-03 2.711297e-03 5.095716e-03 9.076390e-02 1.120422e-01 8.411069e-02 8.843239e-02
<VARIANCE> 16
 1.969481e-02 5.350311e-02 2.504116e-02 1.017887e-02 1.574714e-02 1.794094e-02 1.493979e-03 2.700036e-03 2.889876e-03 1.000000e-03 1.219729e-03 1.998157e-03 1.000000e-03 1.000000e-03 1.000000e-03 1.000000e-03
<GCONST> -5.962661e+01
<MIXTURE> 2 6.526222e-01
<MEAN> 16
 2.014788e-01 -2.557179e-02 1.362092e+00 -2.957536e-01 2.144687e-02 1.350778e+00 -1.141056e-03 8.596448e-04 -5.151470e-03 1.382969e-03 1.154705e-04 -4.497817e-03 8.419221e-02 1.019448e-01 8.236109e-02 8.342179e-02
<VARIANCE> 16
 2.414374e-02 1.763150e-02 1.184582e-02 6.336008e-03 3.551580e-03 4.422542e-03 1.000000e-03 1.000000e-03 1.082083e-03 1.000000e-03 1.000000e-03 1.000000e-03 1.000000e-03 1.000000e-03 1.000000e-03 1.000000e-03
<GCONST> -6.791312e+01
<STATE> 5
<MEAN> 16
 3.145683e-01 -2.268168e-01 1.862895e+00 -2.433245e-01 2.008079e-02 1.807128e+00 1.456062e-02 -6.902549e-03 1.901584e-02 -1.246557e-02 4.557973e-03 1.718442e-02 1.135072e-01 1.126888e-01 8.497183e-02 8.583794e-02
<VARIANCE> 16
 1.539531e-02 8.490662e-02 3.400768e-02 1.637740e-02 5.294934e-02 2.668340e-02 6.560378e-03 5.011891e-03 1.290557e-02 2.438674e-03 7.029587e-03 9.006702e-03 1.034385e-03 1.000000e-03 1.000000e-03 1.000000e-03
<GCONST> -4.924269e+01
<TRANSP> 6
 0.000000e+00 1.000000e+00 0.000000e+00 0.000000e+00 0.000000e+00 0.000000e+00
 0.000000e+00 8.750569e-01 1.249431e-01 0.000000e+00 0.000000e+00 0.000000e+00
 0.000000e+00 0.000000e+00 9.393154e-01 6.068460e-02 0.000000e+00 0.000000e+00
 0.000000e+00 0.000000e+00 0.000000e+00 9.554985e-01 4.450150e-02 0.000000e+00
 0.000000e+00 0.000000e+00 0.000000e+00 0.000000e+00 7.141131e-01 2.858869e-01
 0.000000e+00 0.000000e+00 0.000000e+00 0.000000e+00 0.000000e+00 0.000000e+00
<ENDHMM>
~h "man"
<BEGINHMM>
<NUMSTATES> 6
<STATE> 2
<NUMMIXES> 2
<MIXTURE> 1 5.138876e-01
<MEAN> 16
 3.606273e-01 -5.910797e-01 1.947250e+00 -3.686885e-01 -1.539745e-01 1.864133e+00 4.628403e-03 1.361807e-03 1.575829e-02 -8.116182e-03 -7.203527e-03 9.774721e-03 1.156586e-01 9.168795e-02 8.298762e-02 9.713927e-02
<VARIANCE> 16
 2.138846e-02 1.813748e-02 1.442656e-02 1.007833e-02 5.314418e-03 1.656310e-02 1.000000e-03 1.000000e-03 2.876019e-03 1.000000e-03 1.000000e-03 1.504935e-03 1.000000e-03 1.000000e-03 1.000000e-03 1.000000e-03
<GCONST> -6.423501e+01
<MIXTURE> 2 4.861079e-01
<MEAN> 16
 3.867874e-01 -5.861622e-01 1.736243e+00 -3.548317e-01 -9.699231e-02 1.595689e+00 -5.797384e-03 8.896019e-03 -1.947067e-02 -6.987608e-03 -1.757567e-03 -1.601882e-02 1.182990e-01 7.103350e-02 9.007241e-02 9.024512e-02
<VARIANCE> 16
 1.069461e-02 4.972762e-03 1.201582e-02 1.870518e-02 7.511121e-03 1.746485e-02 1.000000e-03 1.000000e-03 2.831759e-03 1.000000e-03 1.000000e-03 1.214966e-03 1.000000e-03 1.000000e-03 1.000000e-03 1.000000e-03
<GCONST> -6.561713e+01
<STATE> 3
<NUMMIXES> 2
<MIXTURE> 1 5.084705e-01
<MEAN> 16
 2.219943e-01 -4.456545e-02 1.925173e+00 -3.708683e-01 -1.388499e-01 1.958240e+00 6.027978e-03 -9.261821e-04 1.268665e-02 -2.962055e-03 -2.980076e-03 1.237637e-02 1.086090e-01 9.877341e-02 8.470134e-02 1.014185e-01
<VARIANCE> 16
 4.824451e-02 4.039264e-02 8.878058e-03 7.450025e-03 7.364776e-03 1.121886e-02 1.169391e-03 2.477475e-03 3.240767e-03 1.000000e-03 1.000000e-03 3.042349e-03 1.000000e-03 1.000000e-03 1.000000e-03 1.000000e-03
<GCONST> -6.158486e+01
<MIXTURE> 2 4.915177e-01
<MEAN> 16
 1.394305e-01 -6.498018e-02 1.740608e+00 -3.867794e-01 -1.462676e-01 1.735883e+00 -8.413995e-03 6.375032e-03 -1.585337e-02 5.892559e-03 1.210292e-03 -1.330694e-02 9.518246e-02 7.303597e-02 7.231960e-02 8.729254e-02
<VARIANCE> 16
 4.540586e-02 2.034520e-02 8.924296e-03 8.969109e-03 3.682013e-03 7.961263e-03 1.996517e-03 2.434460e-03 3.828413e-03 1.000000e-03 1.000000e-03 3.257716e-03 1.000000e-03 1.000000e-03 1.000000e-03 1.000000e-03
<GCONST> -6.242435e+01
<STATE> 4
<NUMMIXES> 2
<MIXTURE> 1 7.171413e-01
<MEAN> 16
 1.993093e-01 -1.060148e-02 1.510117e+00 -3.370743e-01 -1.784890e-02 1.507333e+00 -5.079980e-04 1.112773e-03 -2.089349e-03 8.810089e-04 -9.683440e-04 -5.072167e-04 9.396207e-02 7.456759e-02 7.986141e-02 9.342597e-02
<VARIANCE> 16
 3.444597e-02 1.679866e-02 1.984911e-02 9.147462e-03 1.400022e-03 9.562352e-03 1.000000e-03 1.000000e-03 1.000000e-03 1.000000e-03 1.000000e-03 1.000000e-03 1.000000e-03 1.000000e-03 1.000000e-03 1.000000e-03
<GCONST> -6.696141e+01
<MIXTURE> 2 2.828482e-01
<MEAN> 16
 3.477464e-01 -3.496247e-01 1.671320e+00 -3.026391e-01 -2.677446e-01 1.641770e+00 2.861246e-02 -4.094119e-02 1.474175e-02 5.291870e-03 -3.968378e-02 6.866054e-03 9.954646e-02 8.053416e-02 7.729845e-02 7.640597e-02
<VARIANCE> 16
 5.490058e-02 5.987972e-02 3.165654e-02 1.728500e-02 4.537826e-02 2.739613e-02 3.196481e-03 4.033220e-03 8.325080e-03 1.470000e-03 3.007185e-03 7.876752e-03 1.000000e-03 1.000000e-03 1.000000e-03 1.000000e-03
<GCONST> -5.136390e+01
<STATE> 5
<MEAN> 16
 5.825247e-01 -6.933632e-01 1.855896e+00 -1.875969e-01 -6.032497e-01 1.813016e+00 5.277575e-03 -5.556823e-03 5.409010e-04 2.305753e-03 -5.907029e-03 1.549465e-03 1.162903e-01 1.069723e-01 9.544980e-02 7.561874e-02
<VARIANCE> 16
 1.751131e-02 3.621745e-03 1.537835e-02 1.675227e-02 5.192983e-03 7.497878e-03 1.000000e-03 1.000000e-03 1.981571e-03 1.000000e-03 1.000000e-03 1.537705e-03 1.000000e-03 1.000000e-03 1.000000e-03 1.000000e-03
<GCONST> -6.664065e+01
<TRANSP> 6
 0.000000e+00 1.000000e+00 0.000000e+00 0.000000e+00 0.000000e+00 0.000000e+00
 0.000000e+00 9.241703e-01 7.582974e-02 0.000000e+00 0.000000e+00 0.000000e+00
 0.000000e+00 0.000000e+00 9.725096e-01 2.749037e-02 0.000000e+00 0.000000e+00
 0.000000e+00 0.000000e+00 0.000000e+00 9.573547e-01 4.264534e-02 0.000000e+00
 0.000000e+00 0.000000e+00 0.000000e+00 0.000000e+00 9.570019e-01 4.299818e-02
 0.000000e+00 0.000000e+00 0.000000e+00 0.000000e+00 0.000000e+00 0.000000e+00
<ENDHMM>
~h "monkey"
<BEGINHMM>
<NUMSTATES> 6
<STATE> 2
<NUMMIXES> 2
<MIXTURE> 1 3.691145e-01
<MEAN> 16
 3.887714e-01 -5.038159e-01 2.206818e+00 -2.660112e-01 -1.730913e-02 1.986902e+00 5.112486e-04 8.253089e-05 4.703397e-03 1.179757e-03 -8.094228e-03 3.232146e-03 1.084287e-01 1.174579e-01 8.933409e-02 7.961406e-02
<VARIANCE> 16
 7.479357e-03 2.560428e-03 9.303910e-03 1.155262e-03 1.824525e-02 4.536093e-03 1.000000e-03 1.000000e-03 2.257060e-03 1.000000e-03 1.000000e-03 1.362170e-03 1.531567e-03 1.000000e-03 1.000000e-03 1.000000e-03
<GCONST> -6.982556e+01
<MIXTURE> 2 6.308845e-01
<MEAN> 16
 3.035881e-01 -3.967569e-01 1.959115e+00 -3.433937e-01 9.116792e-03 1.743266e+00 9.310910e-04 -3.709129e-04 -5.594597e-03 -2.282622e-04 -1.440774e-03 -5.395864e-03 1.051368e-01 1.005897e-01 9.031692e-02 6.747649e-02
<VARIANCE> 16
 9.522763e-03 7.179619e-03 1.797584e-02 9.580080e-03 1.004937e-02 1.489468e-02 1.000000e-03 1.000000e-03 1.542120e-03 1.000000e-03 1.000000e-03 1.000000e-03 1.324979e-03 1.000000e-03 1.000000e-03 1.000000e-03
<GCONST> -6.602134e+01
<STATE> 3
<NUMMIXES> 2
<MIXTURE> 1 3.995258e-01
<MEAN> 16
 2.992665e-01 1.212410e-02 2.000232e+00 -3.022982e-01 -2.192813e-02 1.971648e+00 3.558925e-03 6.046381e-03 5.740705e-03 -2.909048e-03 -1.961793e-03 8.500505e-03 1.168993e-01 1.195233e-01 9.362079e-02 8.044128e-02
<VARIANCE> 16
 3.442558e-02 3.575119e-02 1.038828e-02 6.960268e-03 3.385109e-03 1.076783e-02 2.046120e-03 4.009641e-03 5.841374e-03 1.000000e-03 1.000000e-03 5.056624e-03 1.000000e-03 1.000000e-03 1.000000e-03 1.000000e-03
<GCONST> -6.063552e+01
<MIXTURE> 2 6.004624e-01
<MEAN> 16
 1.456981e-01 -3.494222e-02 1.804204e+00 -3.348001e-01 -6.250048e-02 1.789846e+00 -3.339326e-03 3.991704e-04 -8.191005e-03 2.877652e-03 -8.620572e-04 -6.112284e-03 9.861248e-02 9.953468e-02 7.798330e-02 6.562350e-02
<VARIANCE> 16
 4.481230e-02 2.125711e-02 8.887019e-03 1.201293e-02 6.871843e-03 8.278402e-03 1.113493e-03 1.097680e-03 2.097216e-03 1.000000e-03 1.000000e-03 1.797832e-03 1.000000e-03 1.000000e-03 1.000000e-03 1.000000e-03
<GCONST> -6.401933e+01
<STATE> 4
<NUMMIXES> 2
<MIXTURE> 1 6.017938e-01
<MEAN> 16
 2.235035e-01 -1.754078e-03 1.574352e+00 -2.977747e-01 6.173164e-02 1.564415e+00 1.271432e-05 7.244151e-04 -2.039243e-03 -2.223515e-04 -6.853146e-04 -2.905275e-04 1.019175e-01 1.013246e-01 8.101900e-02 6.856644e-02
<VARIANCE> 16
 2.924464e-02 1.776041e-02 1.471839e-02 3.512691e-03 1.954787e-03 9.679402e-03 1.000000e-03 1.000000e-03 1.000000e-03 1.000000e-03 1.000000e-03 1.000000e-03 1.000000e-03 1.000000e-03 1.000000e-03 1.000000e-03
<GCONST> -6.797963e+01
<MIXTURE> 2 3.982053e-01
<MEAN> 16
 4.134457e-01 -4.605072e-01 1.784407e+00 -2.585380e-01 -3.253040e-01 1.738445e+00 3.077913e-02 -5.423993e-02 1.520903e-02 9.495526e-03 -4.867915e-02 5.782574e-03 1.070969e-01 8.980036e-02 7.920802e-02 6.965069e-02
<VARIANCE> 16
 5.151946e-02 3.292976e-02 2.727382e-02 1.148577e-02 3.803681e-02 2.549469e-02 1.929923e-03 2.803739e-03 9.195152e-03 1.000000e-03 2.189317e-03 6.462729e-03 1.000000e-03 1.000000e-03 1.000000e-03 1.000000e-03
<GCONST> -5.450091e+01
<STATE> 5
<MEAN> 16
 5.861918e-01 -6.983115e-01 1.854083e+00 -1.965061e-01 -6.138306e-01 1.808051e+00 3.577775e-03 -4.020954e-03 2.259593e-05 1.494467e-03 -4.120422e-03 1.357436e-03 1.145222e-01 1.098763e-01 9.656196e-02 7.440951e-02
<VARIANCE> 16
 1.257122e-02 2.990520e-03 1.615886e-02 1.846273e-02 4.567346e-03 5.762555e-03 1.000000e-03 1.000000e-03 1.142983e-03 1.000000e-03 1.000000e-03 1.362041e-03 1.000000e-03 1.000000e-03 1.000000e-03 1.000000e-03
<GCONST> -6.808003e+01
<TRANSP> 6
 0.000000e+00 1.000000e+00 0.000000e+00 0.000000e+00 0.000000e+00 0.000000e+00
 0.000000e+00 9.254541e-01 7.454579e-02 0.000000e+00 0.000000e+00 0.000000e+00
 0.000000e+00 0.000000e+00 9.732337e-01 2.676625e-02 0.000000e+00 0.000000e+00
 0.000000e+00 0.000000e+00 0.000000e+00 9.443253e-01 5.567477e-02 0.000000e+00
 0.000000e+00 0.000000e+00 0.000000e+00 0.000000e+00 9.591571e-01 4.084289e-02
 0.000000e+00 0.000000e+00 0.000000e+00 0.000000e+00 0.000000e+00 0.000000e+00
<ENDHMM>
~h "bumps_into_each_other"
<BEGINHMM>
<NUMSTATES> 6
<STATE> 2
<NUMMIXES> 2
<MIXTURE> 1 3.725013e-01
<MEAN> 16
 3.681714e-01 -4.341775e-01 2.046446e+00 -3.089488e-01 -2.416327e-01 1.971166e+00 -2.599125e-03 1.584109e-02 3.264803e-02 -1.492172e-02 3.773978e-02 2.784969e-02 1.097352e-01 9.615122e-02 9.253456e-02 8.370867e-02
<VARIANCE> 16
 1.387529e-02 2.549002e-02 2.745261e-02 1.412028e-02 5.615857e-02 3.728013e-02 3.224695e-03 5.161510e-03 1.010504e-02 3.219051e-03 6.611675e-03 1.009848e-02 1.290604e-03 1.000000e-03 1.000000e-03 1.000000e-03
<GCONST> -5.089243e+01
<MIXTURE> 2 6.274981e-01
<MEAN> 16
 4.465173e-01 -3.890515e-01 1.883684e+00 -4.143125e-01 -3.399106e-01 1.876378e+00 -1.282286e-02 1.898725e-02 -1.301296e-02 4.078598e-03 2.260508e-02 -1.598574e-02 8.798099e-02 8.784570e-02 8.213147e-02 8.112805e-02
<VARIANCE> 16
 5.089346e-03 1.107092e-02 4.417798e-02 7.327671e-03 1.266260e-02 4.045172e-02 1.000000e-03 1.312654e-03 3.625191e-03 1.000000e-03 1.366928e-03 3.471127e-03 1.000000e-03 1.000000e-03 1.000000e-03 1.000000e-03
<GCONST> -6.195094e+01
<STATE> 3
<NUMMIXES> 2
<MIXTURE> 1 4.846101e-01
<MEAN> 16
 3.175031e-01 -1.721917e-01 1.955227e+00 -2.489832e-01 -1.169690e-01 1.894749e+00 7.889114e-03 -2.322603e-03 2.852650e-02 -5.725286e-03 -1.315354e-03 2.713801e-02 9.511850e-02 1.020828e-01 9.126802e-02 8.609343e-02
<VARIANCE> 16
 1.145305e-02 4.732455e-02 1.080425e-02 5.684820e-03 3.401602e-02 8.337267e-03 1.000000e-03 2.324824e-03 4.519363e-03 1.000000e-03 1.306731e-03 4.115966e-03 1.000000e-03 1.000000e-03 1.000000e-03 1.000000e-03
<GCONST> -6.102305e+01
<MIXTURE> 2 5.153807e-01
<MEAN> 16
 2.954004e-01 -1.649715e-01 1.796256e+00 -2.190116e-01 -1.523583e-01 1.757899e+00 -1.079897e-02 1.151793e-02 -3.159501e-02 4.981023e-03 8.254075e-03 -2.875874e-02 8.009741e-02 8.601788e-02 7.474489e-02 7.210323e-02
<VARIANCE> 16
 1.143706e-02 2.636806e-02 7.043963e-03 6.673234e-03 1.579429e-02 6.720957e-03 1.087363e-03 3.742001e-03 5.103275e-03 1.000000e-03 2.757756e-03 4.512846e-03 1.000000e-03 1.000000e-03 1.000000e-03 1.000000e-03
<GCONST> -6.133928e+01
<STATE> 4
<NUMMIXES> 2
<MIXTURE> 1 4.252508e-01
<MEAN> 16
 3.182516e-01 -1.012437e-01 1.632046e+00 -3.493780e-01 8.190855e-02 1.555586e+00 1.008609e-02 -4.216333e-03 1.035517e-02 -9.936584e-03 4.598772e-04 9.000204e-03 9.621329e-02 1.125829e-01 8.397511e-02 8.245254e-02
<VARIANCE> 16
 1.413706e-02 5.799996e-02 2.391728e-02 9.011314e-03 1.087617e-02 1.450221e-02 1.000000e-03 1.000000e-03 1.465685e-03 1.000000e-03 1.000000e-03 1.053861e-03 1.000000e-03 1.000000e-03 1.000000e-03 1.000000e-03
<GCONST> -6.354007e+01
<MIXTURE> 2 5.747468e-01
<MEAN> 16
 2.332642e-01 -1.002341e-02 1.448382e+00 -3.042559e-01 5.927968e-02 1.433113e+00 -5.189632e-03 5.782466e-03 -1.008723e-02 4.873632e-03 1.335426e-03 -8.171759e-03 7.990249e-02 1.010307e-01 7.424946e-02 8.095855e-02
<VARIANCE> 16
 1.304157e-02 2.491846e-02 8.320319e-03 9.931627e-03 4.526380e-03 3.703667e-03 1.000000e-03 2.031079e-03 1.430843e-03 1.000000e-03 1.000000e-03 1.152572e-03 1.000000e-03 1.000000e-03 1.000000e-03 1.000000e-03
<GCONST> -6.689181e+01
<STATE> 5
<MEAN> 16
 4.351899e-01 -3.209077e-01 1.759616e+00 -3.498608e-01 -1.226688e-01 1.703891e+00 1.749958e-02 -4.571139e-02 3.045447e-02 -6.608964e-03 -4.042317e-02 2.138180e-02 9.206724e-02 9.164413e-02 7.974254e-02 7.740826e-02
<VARIANCE> 16
 1.659121e-02 3.389621e-02 5.094926e-02 1.464555e-02 3.517784e-02 3.802873e-02 1.000000e-03 1.646633e-03 6.146754e-03 1.000000e-03 3.307629e-03 5.591350e-03 1.000000e-03 1.000000e-03 1.000000e-03 1.000000e-03
<GCONST> -5.574005e+01
<TRANSP> 6
 0.000000e+00 1.000000e+00 0.000000e+00 0.000000e+00 0.000000e+00 0.000000e+00
 0.000000e+00 8.871558e-01 1.128442e-01 0.000000e+00 0.000000e+00 0.000000e+00
 0.000000e+00 0.000000e+00 9.638581e-01 3.614194e-02 0.000000e+00 0.000000e+00
 0.000000e+00 0.000000e+00 0.000000e+00 9.459438e-01 5.405613e-02 0.000000e+00
 0.000000e+00 0.000000e+00 0.000000e+00 0.000000e+00 4.707572e-01 5.292428e-01
 0.000000e+00 0.000000e+00 0.000000e+00 0.000000e+00 0.000000e+00 0.000000e+00
<ENDHMM>
~h "jumps_on"
<BEGINHMM>
<NUMSTATES> 6
<STATE> 2
<NUMMIXES> 2
<MIXTURE> 1 4.509310e-01
<MEAN> 16
 3.808376e-01 -3.975376e-01 2.087520e+00 -3.252380e-01 -3.333020e-01 2.053333e+00 -7.746999e-03 2.488522e-02 2.185246e-02 -3.596503e-03 3.290123e-02 1.545188e-02 9.750420e-02 9.587153e-02 9.140794e-02 8.558071e-02
<VARIANCE> 16
 1.354231e-02 1.797765e-02 3.013037e-02 1.067343e-02 3.887554e-02 3.009409e-02 2.391567e-03 5.738860e-03 9.660568e-03 2.896552e-03 1.023086e-02 1.062977e-02 1.097729e-03 1.000000e-03 1.000000e-03 1.000000e-03
<GCONST> -5.205203e+01
<MIXTURE> 2 5.490671e-01
<MEAN> 16
 3.941509e-01 -4.019130e-01 1.804854e+00 -3.200171e-01 -3.367838e-01 1.783305e+00 -2.368571e-02 3.688559e-02 -2.733980e-02 5.674856e-03 3.644032e-02 -2.490115e-02 9.322567e-02 8.749825e-02 7.776897e-02 7.662392e-02
<VARIANCE> 16
 1.092409e-02 1.181893e-02 3.175964e-02 1.836461e-02 2.094738e-02 3.188292e-02 1.000000e-03 2.239044e-03 4.102430e-03 1.000000e-03 1.931216e-03 3.423239e-03 1.000000e-03 1.000000e-03 1.000000e-03 1.000000e-03
<GCONST> -5.927831e+01
<STATE> 3
<NUMMIXES> 2
<MIXTURE> 1 5.113176e-01
<MEAN> 16
 2.926792e-01 -1.638688e-01 1.899697e+00 -2.402069e-01 -1.219732e-01 1.813409e+00 5.381033e-03 3.137581e-04 2.957107e-02 -5.101734e-03 -2.228099e-03 2.765898e-02 1.016235e-01 1.068817e-01 8.654395e-02 8.969567e-02
<VARIANCE> 16
 1.497110e-02 5.421286e-02 9.692938e-03 3.839761e-03 2.284417e-02 1.111884e-02 1.000000e-03 1.574246e-03 3.641487e-03 1.000000e-03 1.000000e-03 3.225470e-03 1.018521e-03 1.000000e-03 1.000000e-03 1.000000e-03
<GCONST> -6.232927e+01
<MIXTURE> 2 4.886808e-01
<MEAN> 16
 2.679588e-01 -1.439775e-01 1.757086e+00 -2.132475e-01 -1.442271e-01 1.699227e+00 -1.813360e-02 2.294918e-02 -3.725541e-02 7.818968e-03 1.062136e-02 -3.257561e-02 8.717810e-02 9.199697e-02 7.625995e-02 7.569055e-02
<VARIANCE> 16
 1.235713e-02 3.515016e-02 7.666753e-03 4.077421e-03 1.738857e-02 7.991609e-03 1.014481e-03 3.653637e-03 4.375936e-03 1.000000e-03 2.273640e-03 3.910884e-03 1.000000e-03 1.000000e-03 1.000000e-03 1.000000e-03
<GCONST> -6.169627e+01
<STATE> 4
<NUMMIXES> 2
<MIXTURE> 1 4.835406e-01
<MEAN> 16
 1.783379e-01 -7.635254e-02 1.657753e+00 -2.051958e-01 1.874405e-02 1.513689e+00 -1.544387e-03 2.249052e-03 4.242020e-03 -5.229356e-04 8.615180e-04 3.385664e-03 9.779900e-02 1.124246e-01 8.532501e-02 8.719736e-02
<VARIANCE> 16
 3.463649e-02 6.326660e-02 2.148782e-02 7.986665e-03 8.276008e-03 1.628614e-02 1.000000e-03 1.763366e-03 3.306565e-03 1.000000e-03 1.000000e-03 2.115474e-03 1.000000e-03 1.000000e-03 1.000000e-03 1.000000e-03
<GCONST> -6.086444e+01
<MIXTURE> 2 5.164557e-01
<MEAN> 16
 4.212292e-02 4.681092e-02 1.420141e+00 -1.573408e-01 -1.740311e-02 1.376234e+00 -6.011070e-03 4.516420e-03 -5.027983e-03 1.635192e-03 2.762576e-05 -4.430880e-03 9.055983e-02 9.042523e-02 6.963409e-02 8.016385e-02
<VARIANCE> 16
 4.006335e-02 3.176190e-02 1.302490e-02 4.120100e-03 3.294914e-03 7.332467e-03 1.000000e-03 1.071125e-03 1.000000e-03 1.000000e-03 1.000000e-03 1.000000e-03 1.000000e-03 1.000000e-03 1.000000e-03 1.000000e-03
<GCONST> -6.673318e+01
<STATE> 5
<MEAN> 16
 -1.064408e-01 -3.823683e-02 1.722330e+00 -6.782504e-02 -1.125461e-01 1.707946e+00 9.195912e-03 -9.828611e-03 8.502351e-04 -3.904225e-03 3.677050e-04 2.390811e-03 9.185821e-02 8.981425e-02 7.147317e-02 8.194506e-02
<VARIANCE> 16
 3.395308e-02 3.179751e-02 1.688807e-02 1.724870e-02 1.928821e-02 1.881547e-02 4.335694e-03 1.945267e-03 5.520374e-03 6.177134e-03 3.134706e-03 7.799011e-03 1.000000e-03 1.633652e-03 1.000000e-03 1.000000e-03
<GCONST> -5.321624e+01
<TRANSP> 6
 0.000000e+00 1.000000e+00 0.000000e+00 0.000000e+00 0.000000e+00 0.000000e+00
 0.000000e+00 8.662817e-01 1.337183e-01 0.000000e+00 0.000000e+00 0.000000e+00
 0.000000e+00 0.000000e+00 9.483144e-01 5.168560e-02 0.000000e+00 0.000000e+00
 0.000000e+00 0.000000e+00 0.000000e+00 9.683444e-01 3.165557e-02 0.000000e+00
 0.000000e+00 0.000000e+00 0.000000e+00 0.000000e+00 8.678626e-01 1.321374e-01
 0.000000e+00 0.000000e+00 0.000000e+00 0.000000e+00 0.000000e+00 0.000000e+00
<ENDHMM>
~h "house"
<BEGINHMM>
<NUMSTATES> 6
<STATE> 2
<NUMMIXES> 2
<MIXTURE> 1 4.460224e-01
<MEAN> 16
 2.753725e-01 2.404316e-02 1.936569e+00 -2.456171e-01 5.409957e-02 1.924353e+00 1.265347e-02 -1.794634e-02 2.830590e-02 -1.198250e-02 -1.538430e-02 2.472361e-02 1.602722e-01 1.511006e-01 9.542001e-02 9.874425e-02
<VARIANCE> 16
 1.080489e-02 6.257265e-02 1.539474e-02 8.776397e-03 4.853282e-02 1.454816e-02 1.000000e-03 1.613122e-03 4.303415e-03 1.000000e-03 1.980416e-03 3.660849e-03 1.000000e-03 1.000000e-03 1.000000e-03 1.000000e-03
<GCONST> -5.921735e+01
<MIXTURE> 2 5.539738e-01
<MEAN> 16
 2.926358e-01 -4.023442e-01 1.951462e+00 -2.979445e-01 -4.097378e-02 1.827441e+00 -2.518530e-03 -8.595555e-03 -1.859690e-02 9.269315e-04 7.225274e-03 -2.135539e-02 1.132715e-01 1.278329e-01 8.347952e-02 1.000282e-01
<VARIANCE> 16
 4.035527e-03 3.156617e-02 2.055469e-02 2.270255e-03 3.229701e-02 1.305075e-02 1.000000e-03 1.503453e-03 6.195665e-03 1.000000e-03 2.183354e-03 4.106450e-03 1.146390e-03 1.000000e-03 1.000000e-03 1.000000e-03
<GCONST> -6.182238e+01
<STATE> 3
<NUMMIXES> 2
<MIXTURE> 1 4.075603e-01
<MEAN> 16
 3.129699e-01 -5.483670e-02 1.940752e+00 -3.036019e-01 5.488064e-02 1.833771e+00 5.662002e-03 4.200826e-03 1.351361e-02 -3.894948e-03 -8.861182e-04 1.291440e-02 1.162575e-01 1.249465e-01 8.938903e-02 1.069921e-01
<VARIANCE> 16
 2.634515e-02 5.358668e-02 1.143672e-02 2.380006e-03 2.365939e-03 9.832586e-03 1.853392e-03 4.047854e-03 6.118617e-03 1.000000e-03 1.000000e-03 4.583211e-03 1.000000e-03 1.000000e-03 1.000000e-03 1.000000e-03
<GCONST> -6.206572e+01
<MIXTURE> 2 5.924359e-01
<MEAN> 16
 1.947713e-01 -4.903976e-02 1.777776e+00 -3.528970e-01 -1.122563e-02 1.656788e+00 -5.607321e-03 -3.319962e-04 -1.127032e-02 2.191235e-03 -2.202430e-03 -9.210536e-03 1.047606e-01 1.110329e-01 7.615653e-02 9.281862e-02
<VARIANCE> 16
 3.201599e-02 2.049101e-02 1.259120e-02 2.602210e-03 5.448864e-03 6.597180e-03 1.165014e-03 1.000000e-03 3.012406e-03 1.000000e-03 1.000000e-03 2.429502e-03 1.000000e-03 1.000000e-03 1.000000e-03 1.000000e-03
<GCONST> -6.541727e+01
<STATE> 4
<NUMMIXES> 2
<MIXTURE> 1 5.952489e-01
<MEAN> 16
 1.784378e-01 -1.083651e-01 1.679979e+00 -2.429613e-01 -7.287965e-03 1.624396e+00 1.659072e-03 -3.834182e-03 1.769776e-03 5.702985e-04 -1.360617e-03 1.544311e-03 9.546022e-02 8.532713e-02 7.812298e-02 9.180095e-02
<VARIANCE> 16
 5.826442e-02 2.945754e-02 1.317013e-02 6.725058e-03 2.543924e-02 8.011836e-03 1.000000e-03 1.000000e-03 1.000000e-03 1.000000e-03 1.000000e-03 1.000000e-03 1.000000e-03 1.000000e-03 1.000000e-03 1.000000e-03
<GCONST> -6.386911e+01
<MIXTURE> 2 4.047380e-01
<MEAN> 16
 3.016362e-01 -2.323485e-01 1.658242e+00 -3.011809e-01 -1.289259e-01 1.573843e+00 1.681392e-02 -2.828551e-02 4.912850e-03 3.424335e-03 -2.354738e-02 1.858395e-03 9.695510e-02 9.085967e-02 7.975459e-02 8.667441e-02
<VARIANCE> 16
 5.045224e-02 5.379268e-02 4.112712e-02 8.942108e-03 3.609421e-02 4.436397e-02 2.850380e-03 3.094816e-03 9.065720e-03 1.000000e-03 1.729354e-03 6.617074e-03 1.000000e-03 1.000000e-03 1.000000e-03 1.000000e-03
<GCONST> -5.310681e+01
<STATE> 5
<MEAN> 16
 5.852754e-01 -6.951627e-01 1.859185e+00 -1.989547e-01 -5.980935e-01 1.810585e+00 4.978467e-03 -5.268478e-03 9.144554e-04 2.549198e-03 -7.583908e-03 3.522581e-03 1.158179e-01 1.084088e-01 9.762614e-02 7.225289e-02
<VARIANCE> 16
 1.813771e-02 3.385172e-03 1.591543e-02 1.727467e-02 7.228852e-03 8.156064e-03 1.000000e-03 1.000000e-03 1.354884e-03 1.000000e-03 1.000000e-03 1.434956e-03 1.000000e-03 1.000000e-03 1.000000e-03 1.000000e-03
<GCONST> -6.664244e+01
<TRANSP> 6
 0.000000e+00 1.000000e+00 0.000000e+00 0.000000e+00 0.000000e+00 0.000000e+00
 0.000000e+00 9.425673e-01 5.743269e-02 0.000000e+00 0.000000e+00 0.000000e+00
 0.000000e+00 0.000000e+00 9.752029e-01 2.479710e-02 0.000000e+00 0.000000e+00
 0.000000e+00 0.000000e+00 0.000000e+00 9.662777e-01 3.372234e-02 0.000000e+00
 0.000000e+00 0.000000e+00 0.000000e+00 0.000000e+00 9.622833e-01 3.771675e-02
 0.000000e+00 0.000000e+00 0.000000e+00 0.000000e+00 0.000000e+00 0.000000e+00
<ENDHMM>
~h "bumps_into"
<BEGINHMM>
<NUMSTATES> 6
<STATE> 2
<NUMMIXES> 2
<MIXTURE> 1 4.682998e-01
<MEAN> 16
 3.510020e-01 -3.866173e-01 2.089307e+00 -3.566734e-01 -3.332893e-01 2.057673e+00 1.742920e-03 9.250661e-03 2.895895e-02 -7.440537e-03 1.419315e-02 2.266710e-02 8.934436e-02 8.629715e-02 8.429388e-02 8.678553e-02
<VARIANCE> 16
 2.132820e-02 2.826598e-02 2.097942e-02 1.614811e-02 1.733236e-02 1.756501e-02 1.787303e-03 2.705721e-03 8.782758e-03 2.087269e-03 2.824563e-03 8.586599e-03 1.000000e-03 1.000000e-03 1.000000e-03 1.000000e-03
<GCONST> -5.549926e+01
<MIXTURE> 2 5.317006e-01
<MEAN> 16
 4.158384e-01 -4.109329e-01 1.793439e+00 -3.344335e-01 -3.597561e-01 1.769783e+00 -2.339864e-02 3.579023e-02 -2.472612e-02 3.037488e-03 3.882233e-02 -2.479686e-02 9.298842e-02 8.959948e-02 8.015203e-02 7.794732e-02
<VARIANCE> 16
 1.349032e-02 1.178988e-02 2.894712e-02 1.889541e-02 1.438211e-02 2.740985e-02 1.000000e-03 2.173694e-03 3.344820e-03 1.000000e-03 1.940980e-03 3.119349e-03 1.000000e-03 1.000000e-03 1.000000e-03 1.000000e-03
<GCONST> -5.998291e+01
<STATE> 3
<NUMMIXES> 2
<MIXTURE> 1 1.774142e-01
<MEAN> 16
 2.937964e-01 -2.232073e-01 1.859318e+00 -2.150347e-01 -1.482415e-01 1.797149e+00 -2.935334e-02 4.978370e-02 -1.498563e-02 5.446764e-03 5.794841e-02 -1.121158e-02 1.035056e-01 9.732191e-02 8.321439e-02 7.766501e-02
<VARIANCE> 16
 1.963162e-02 4.315283e-02 1.878922e-02 8.144417e-03 2.274120e-02 1.624335e-02 5.440700e-03 1.132857e-02 2.077661e-02 3.937660e-03 1.654458e-02 1.914474e-02 1.201643e-03 1.000000e-03 1.000000e-03 1.000000e-03
<GCONST> -4.896626e+01
<MIXTURE> 2 8.225833e-01
<MEAN> 16
 3.098366e-01 -1.690295e-01 1.807570e+00 -2.501021e-01 -1.571017e-01 1.748771e+00 -5.069955e-03 9.343178e-03 -3.721744e-03 1.060472e-03 4.963624e-03 -2.581776e-03 8.343951e-02 9.250040e-02 7.891789e-02 7.336146e-02
<VARIANCE> 16
 9.373712e-03 2.794033e-02 1.056615e-02 3.582691e-03 9.269420e-03 8.474779e-03 1.000000e-03 2.136574e-03 2.665707e-03 1.000000e-03 1.231063e-03 2.354313e-03 1.000000e-03 1.000000e-03 1.000000e-03 1.000000e-03
<GCONST> -6.474870e+01
<STATE> 4
<NUMMIXES> 2
<MIXTURE> 1 2.067167e-01
<MEAN> 16
 1.830953e-01 -7.354642e-02 1.736559e+00 -1.983482e-01 1.899848e-02 1.696755e+00 1.462375e-02 1.073861e-02 1.790009e-02 -2.080093e-02 2.624223e-02 1.729521e-02 1.142045e-01 1.113685e-01 8.560842e-02 8.323756e-02
<VARIANCE> 16
 2.780335e-02 6.115561e-02 4.138364e-02 1.739088e-02 1.962705e-02 3.321865e-02 1.010171e-02 3.409527e-03 1.241037e-02 1.019046e-02 4.946228e-03 1.165549e-02 1.000000e-03 1.000000e-03 1.000000e-03 1.000000e-03
<GCONST> -4.818696e+01
<MIXTURE> 2 7.932840e-01
<MEAN> 16
 1.570046e-01 -2.890337e-02 1.471110e+00 -2.491859e-01 2.573997e-02 1.426611e+00 -5.319544e-03 5.436635e-03 -6.172036e-03 4.223804e-03 6.927296e-03 -5.041581e-03 8.461133e-02 9.467952e-02 7.469030e-02 7.964788e-02
<VARIANCE> 16
 2.034692e-02 2.436144e-02 2.087278e-02 1.263467e-02 7.733534e-03 1.941527e-02 1.069918e-03 1.200628e-03 1.797986e-03 1.000000e-03 1.000000e-03 1.441608e-03 1.000000e-03 1.000000e-03 1.000000e-03 1.000000e-03
<GCONST> -6.312276e+01
<STATE> 5
<MEAN> 16
 2.810065e-01 -2.165134e-01 1.814737e+00 -2.141217e-01 8.798146e-02 1.781030e+00 7.664744e-03 -9.923334e-03 6.590012e-03 -9.147992e-03 3.222666e-05 7.333608e-03 1.185380e-01 1.196454e-01 9.046739e-02 8.567030e-02
<VARIANCE> 16
 9.739241e-03 1.172055e-01 2.791353e-02 1.163508e-02 3.243771e-02 2.574621e-02 1.000000e-03 1.690917e-03 1.445459e-03 1.000000e-03 3.067905e-03 1.285133e-03 1.034098e-03 1.000000e-03 1.000000e-03 1.000000e-03
<GCONST> -5.926814e+01
<TRANSP> 6
 0.000000e+00 1.000000e+00 0.000000e+00 0.000000e+00 0.000000e+00 0.000000e+00
 0.000000e+00 8.685085e-01 1.314915e-01 0.000000e+00 0.000000e+00 0.000000e+00
 0.000000e+00 0.000000e+00 9.150342e-01 8.496582e-02 0.000000e+00 0.000000e+00
 0.000000e+00 0.000000e+00 0.000000e+00 8.971108e-01 1.028892e-01 0.000000e+00
 0.000000e+00 0.000000e+00 0.000000e+00 0.000000e+00 6.923722e-01 3.076279e-01
 0.000000e+00 0.000000e+00 0.000000e+00 0.000000e+00 0.000000e+00 0.000000e+00
<ENDHMM>
~h "goes_to"
<BEGINHMM>
<NUMSTATES> 6
<STATE> 2
<NUMMIXES> 2
<MIXTURE> 1 4.979797e-01
<MEAN> 16
 3.527173e-01 -3.596807e-01 2.013369e+00 -2.387894e-01 -2.418425e-01 1.975445e+00 -3.458217e-03 2.198779e-02 2.304487e-02 -3.829357e-03 2.482715e-02 2.015600e-02 1.044383e-01 9.669820e-02 8.958408e-02 8.290894e-02
<VARIANCE> 16
 1.774443e-02 5.838097e-02 2.809251e-02 2.770218e-02 8.269579e-02 2.838665e-02 2.231108e-03 6.084172e-03 1.108821e-02 3.128459e-03 7.040218e-03 1.035006e-02 1.031130e-03 1.000000e-03 1.000000e-03 1.000000e-03
<GCONST> -4.928299e+01
<MIXTURE> 2 5.020207e-01
<MEAN> 16
 4.249053e-01 -4.172221e-01 1.791722e+00 -3.265425e-01 -3.417147e-01 1.770550e+00 -3.076061e-02 4.869865e-02 -3.351856e-02 5.712952e-03 4.961500e-02 -2.954558e-02 9.237404e-02 8.687480e-02 7.597278e-02 7.437985e-02
<VARIANCE> 16
 9.064630e-03 1.378200e-02 3.687146e-02 1.789756e-02 2.589252e-02 3.477590e-02 1.086857e-03 3.110587e-03 4.529286e-03 1.000000e-03 3.145830e-03 3.887315e-03 1.000000e-03 1.000000e-03 1.000000e-03 1.000000e-03
<GCONST> -5.776287e+01
<STATE> 3
<NUMMIXES> 2
<MIXTURE> 1 4.808751e-01
<MEAN> 16
 2.849618e-01 -2.679978e-01 1.938867e+00 -2.924914e-01 -2.077275e-01 1.874086e+00 2.558284e-03 4.136501e-04 2.061063e-02 -5.224812e-03 -2.333712e-03 1.885848e-02 8.826897e-02 9.528310e-02 8.625839e-02 8.275339e-02
<VARIANCE> 16
 1.829741e-02 3.414699e-02 1.360236e-02 7.535317e-03 8.529348e-03 7.336306e-03 1.000000e-03 1.366604e-03 2.768705e-03 1.000000e-03 1.000000e-03 2.392513e-03 1.000000e-03 1.000000e-03 1.000000e-03 1.000000e-03
<GCONST> -6.371138e+01
<MIXTURE> 2 5.191195e-01
<MEAN> 16
 1.988339e-01 -1.888622e-01 1.761544e+00 -2.397574e-01 -1.913949e-01 1.742691e+00 -1.173448e-02 8.329347e-03 -2.196867e-02 5.417472e-03 6.826258e-03 -1.964322e-02 8.830874e-02 9.120074e-02 7.238784e-02 7.611644e-02
<VARIANCE> 16
 3.254939e-02 1.678607e-02 7.492997e-03 6.797659e-03 4.353432e-03 6.987791e-03 1.000000e-03 2.262802e-03 2.853972e-03 1.000000e-03 1.000000e-03 2.561045e-03 1.000000e-03 1.000000e-03 1.000000e-03 1.000000e-03
<GCONST> -6.466334e+01
<STATE> 4
<NUMMIXES> 2
<MIXTURE> 1 4.268771e-01
<MEAN> 16
 2.493307e-01 -1.786040e-01 1.601401e+00 -2.891908e-01 8.989105e-03 1.476782e+00 -1.140452e-03 2.931720e-03 8.367593e-04 -7.576612e-04 2.804168e-03 -1.501867e-03 9.148653e-02 1.025232e-01 7.917328e-02 8.338379e-02
<VARIANCE> 16
 1.498716e-02 5.263480e-02 2.018783e-02 8.747442e-03 1.104625e-02 2.214140e-02 1.000000e-03 2.274632e-03 2.982586e-03 1.000000e-03 1.000000e-03 2.085225e-03 1.000000e-03 1.000000e-03 1.000000e-03 1.000000e-03
<GCONST> -6.112462e+01
<MIXTURE> 2 5.731212e-01
<MEAN> 16
 1.006304e-01 5.427472e-03 1.392266e+00 -2.870951e-01 1.928801e-02 1.373935e+00 -4.952547e-03 1.929315e-03 -3.612780e-03 4.359716e-04 5.210334e-04 -1.905525e-03 8.793116e-02 9.519517e-02 7.670584e-02 8.087933e-02
<VARIANCE> 16
 4.753922e-02 1.050837e-02 8.222442e-03 6.075908e-03 2.630795e-03 6.375754e-03 1.000000e-03 1.000000e-03 1.000000e-03 1.000000e-03 1.000000e-03 1.000000e-03 1.000000e-03 1.000000e-03 1.000000e-03 1.000000e-03
<GCONST> -6.817335e+01
<STATE> 5
<MEAN> 16
 1.964352e-01 -1.489265e-01 1.705227e+00 -2.395958e-01 -2.077527e-01 1.730204e+00 1.880868e-02 -6.707315e-03 5.716028e-03 -1.443294e-02 -5.420120e-03 1.052277e-02 9.774137e-02 1.006192e-01 7.909442e-02 7.739892e-02
<VARIANCE> 16
 4.392781e-02 3.620461e-02 4.811900e-02 2.458875e-02 9.557337e-02 3.779031e-02 1.034163e-02 5.224942e-03 1.238122e-02 7.170297e-03 5.301397e-03 1.098887e-02 1.000000e-03 1.157289e-03 1.000000e-03 1.000000e-03
<GCONST> -4.579173e+01
<TRANSP> 6
 0.000000e+00 1.000000e+00 0.000000e+00 0.000000e+00 0.000000e+00 0.000000e+00
 0.000000e+00 8.758196e-01 1.241804e-01 0.000000e+00 0.000000e+00 0.000000e+00
 0.000000e+00 0.000000e+00 9.396706e-01 6.032949e-02 0.000000e+00 0.000000e+00
 0.000000e+00 0.000000e+00 0.000000e+00 9.536452e-01 4.635478e-02 0.000000e+00
 0.000000e+00 0.000000e+00 0.000000e+00 0.000000e+00 7.294770e-01 2.705230e-01
 0.000000e+00 0.000000e+00 0.000000e+00 0.000000e+00 0.000000e+00 0.000000e+00
<ENDHMM>
