~o
<STREAMINFO> 1 16
<VECSIZE> 16<NULLD><USER><DIAGC>
~h "Monkey"
<BEGINHMM>
<NUMSTATES> 6
<STATE> 2
<NUMMIXES> 2
<MIXTURE> 1 5.000000e-01
<MEAN> 16
 6.127473e-01 -7.019855e-01 1.880386e+00 -1.830232e-01 -6.000702e-01 1.844357e+00 6.127473e-01 -7.019855e-01 1.880386e+00 -1.830232e-01 -6.000702e-01 1.844357e+00 1.216844e-01 1.141010e-01 1.033399e-01 7.746276e-02
<VARIANCE> 16
 6.153166e-03 2.574709e-03 1.594600e-02 1.946717e-02 8.088367e-03 7.730453e-03 6.153166e-03 2.574709e-03 1.594600e-02 1.946717e-02 8.088367e-03 7.730453e-03 1.000000e-03 1.000000e-03 1.000000e-03 1.000000e-03
<GCONST> -5.584559e+01
<MIXTURE> 2 5.000000e-01
<MEAN> 16
 5.813705e-01 -7.222822e-01 1.829876e+00 -2.388332e-01 -6.360444e-01 1.809187e+00 5.813705e-01 -7.222822e-01 1.829876e+00 -2.388332e-01 -6.360444e-01 1.809187e+00 1.090352e-01 1.014518e-01 9.069075e-02 6.481364e-02
<VARIANCE> 16
 6.153166e-03 2.574709e-03 1.594600e-02 1.946717e-02 8.088367e-03 7.730453e-03 6.153166e-03 2.574709e-03 1.594600e-02 1.946717e-02 8.088367e-03 7.730453e-03 1.000000e-03 1.000000e-03 1.000000e-03 1.000000e-03
<GCONST> -5.584559e+01
<STATE> 3
<NUMMIXES> 2
<MIXTURE> 1 5.000000e-01
<MEAN> 16
 6.258131e-01 -7.247220e-01 1.934557e+00 -1.511548e-01 -6.060777e-01 1.849368e+00 2.675433e-03 1.002291e-02 6.766011e-03 6.111301e-03 7.601960e-03 9.620126e-03 1.215836e-01 1.169092e-01 1.051968e-01 7.916465e-02
<VARIANCE> 16
 6.359006e-03 1.909307e-03 1.007455e-02 1.008229e-02 6.080177e-03 6.435769e-03 1.000000e-03 1.000000e-03 1.275370e-03 1.000000e-03 1.000000e-03 2.591327e-03 1.000000e-03 1.000000e-03 1.000000e-03 1.000000e-03
<GCONST> -6.913834e+01
<MIXTURE> 2 5.000000e-01
<MEAN> 16
 5.939158e-01 -7.422002e-01 1.894409e+00 -1.913190e-01 -6.372679e-01 1.817278e+00 -9.973679e-03 -2.626198e-03 -7.518919e-03 -6.537811e-03 -5.047152e-03 -1.074191e-02 1.089344e-01 1.042600e-01 9.254767e-02 6.651555e-02
<VARIANCE> 16
 6.359006e-03 1.909307e-03 1.007455e-02 1.008229e-02 6.080177e-03 6.435769e-03 1.000000e-03 1.000000e-03 1.275370e-03 1.000000e-03 1.000000e-03 2.591327e-03 1.000000e-03 1.000000e-03 1.000000e-03 1.000000e-03
<GCONST> -6.913834e+01
<STATE> 4
<NUMMIXES> 2
<MIXTURE> 1 5.000000e-01
<MEAN> 16
 5.685200e-01 -6.606727e-01 1.815624e+00 -2.488006e-01 -6.150656e-01 1.830015e+00 -4.180893e-04 1.354713e-02 7.101462e-03 3.599288e-03 1.233487e-02 -2.033590e-03 1.208608e-01 1.119691e-01 1.169733e-01 7.553519e-02
<VARIANCE> 16
 1.818903e-03 2.543345e-03 1.518650e-02 2.554104e-02 5.869647e-03 6.435787e-03 1.000000e-03 1.000000e-03 1.000000e-03 1.000000e-03 1.000000e-03 1.000000e-03 1.000000e-03 1.000000e-03 1.000000e-03 1.000000e-03
<GCONST> -6.999398e+01
<MIXTURE> 2 5.000000e-01
<MEAN> 16
 5.514606e-01 -6.808453e-01 1.766330e+00 -3.127268e-01 -6.457111e-01 1.797925e+00 -1.306720e-02 8.980152e-04 -5.547650e-03 -9.049824e-03 -3.142408e-04 -1.468270e-02 1.082117e-01 9.931995e-02 1.043241e-01 6.288607e-02
<VARIANCE> 16
 1.818903e-03 2.543345e-03 1.518650e-02 2.554104e-02 5.869647e-03 6.435787e-03 1.000000e-03 1.000000e-03 1.000000e-03 1.000000e-03 1.000000e-03 1.000000e-03 1.000000e-03 1.000000e-03 1.000000e-03 1.000000e-03
<GCONST> -6.999398e+01
<STATE> 5
<MEAN> 16
 3.948855e-01 -6.552464e-01 1.897813e+00 -1.578227e-01 -3.195742e-01 1.821328e+00 -9.483589e-03 5.590694e-03 -1.077948e-04 -3.646772e-03 1.478073e-02 2.645263e-04 1.228920e-01 1.106207e-01 8.140590e-02 7.703660e-02
<VARIANCE> 16
 2.012155e-02 3.098402e-03 8.090002e-03 1.139592e-02 1.229355e-01 9.156287e-03 1.000000e-03 1.000000e-03 2.764566e-03 1.000000e-03 2.957505e-03 2.455131e-03 1.000000e-03 1.000000e-03 1.000000e-03 1.000000e-03
<GCONST> -6.243599e+01
<TRANSP> 6
 0.000000e+00 1.000000e+00 0.000000e+00 0.000000e+00 0.000000e+00 0.000000e+00
 0.000000e+00 0.000000e+00 1.000000e+00 0.000000e+00 0.000000e+00 0.000000e+00
 0.000000e+00 0.000000e+00 7.838271e-01 2.161729e-01 0.000000e+00 0.000000e+00
 0.000000e+00 0.000000e+00 0.000000e+00 6.753467e-01 3.246533e-01 0.000000e+00
 0.000000e+00 0.000000e+00 0.000000e+00 0.000000e+00 8.846785e-01 1.153215e-01
 0.000000e+00 0.000000e+00 0.000000e+00 0.000000e+00 0.000000e+00 0.000000e+00
<ENDHMM>
~h "fence"
<BEGINHMM>
<NUMSTATES> 6
<STATE> 2
<NUMMIXES> 2
<MIXTURE> 1 5.000000e-01
<MEAN> 16
 3.989136e-01 -2.600695e-01 1.945019e+00 -3.223011e-01 -1.870958e-01 1.839472e+00 6.647679e-03 5.068630e-03 1.214797e-02 4.845719e-03 3.497208e-03 9.731281e-03 1.041359e-01 1.547327e-01 9.581931e-02 9.630661e-02
<VARIANCE> 16
 1.198750e-02 1.750260e-02 2.013806e-02 2.626624e-03 1.254652e-02 1.403027e-02 1.000000e-03 1.360531e-03 4.065446e-03 1.000000e-03 1.000000e-03 3.185125e-03 1.189009e-03 1.000000e-03 1.000000e-03 1.000000e-03
<GCONST> -6.359086e+01
<MIXTURE> 2 5.000000e-01
<MEAN> 16
 3.551186e-01 -3.129885e-01 1.888255e+00 -3.428013e-01 -2.319002e-01 1.792092e+00 -6.001432e-03 -9.685520e-03 -1.335637e-02 -7.803393e-03 -9.151904e-03 -1.284348e-02 9.034306e-02 1.420835e-01 8.317021e-02 8.365749e-02
<VARIANCE> 16
 1.198750e-02 1.750260e-02 2.013806e-02 2.626624e-03 1.254652e-02 1.403027e-02 1.000000e-03 1.360531e-03 4.065446e-03 1.000000e-03 1.000000e-03 3.185125e-03 1.189009e-03 1.000000e-03 1.000000e-03 1.000000e-03
<GCONST> -6.359086e+01
<STATE> 3
<NUMMIXES> 2
<MIXTURE> 1 5.000000e-01
<MEAN> 16
 2.902724e-01 -4.239046e-02 1.858798e+00 -3.341668e-01 -1.058412e-01 1.806433e+00 7.327348e-03 6.736449e-03 1.171956e-02 6.596161e-03 4.820670e-03 1.090077e-02 1.145817e-01 1.572751e-01 9.152637e-02 9.914483e-02
<VARIANCE> 16
 4.272526e-02 3.835134e-02 1.487128e-02 6.299737e-03 7.054477e-03 1.271070e-02 1.399138e-03 2.096080e-03 3.422453e-03 1.000000e-03 1.000000e-03 2.972681e-03 1.000000e-03 1.000000e-03 1.000000e-03 1.000000e-03
<GCONST> -6.128468e+01
<MIXTURE> 2 5.000000e-01
<MEAN> 16
 2.075920e-01 -1.207244e-01 1.810018e+00 -3.659152e-01 -1.394376e-01 1.761337e+00 -7.634674e-03 -1.157674e-02 -1.168113e-02 -6.052951e-03 -7.828441e-03 -1.090815e-02 1.019326e-01 1.446259e-01 7.887727e-02 8.649573e-02
<VARIANCE> 16
 4.272526e-02 3.835134e-02 1.487128e-02 6.299737e-03 7.054477e-03 1.271070e-02 1.399138e-03 2.096080e-03 3.422453e-03 1.000000e-03 1.000000e-03 2.972681e-03 1.000000e-03 1.000000e-03 1.000000e-03 1.000000e-03
<GCONST> -6.128468e+01
<STATE> 4
<NUMMIXES> 2
<MIXTURE> 1 5.000000e-01
<MEAN> 16
 2.061628e-01 -9.862658e-02 1.640307e+00 -3.318589e-01 -6.968280e-02 1.590566e+00 1.025476e-02 3.623832e-04 9.137662e-03 7.409188e-03 2.066660e-03 8.191674e-03 1.013850e-01 1.410092e-01 8.288613e-02 9.075230e-02
<VARIANCE> 16
 6.053983e-02 2.740898e-02 2.406266e-02 1.088283e-02 1.007708e-02 2.168888e-02 1.391113e-03 1.062532e-03 1.820866e-03 1.000000e-03 1.000000e-03 1.511524e-03 1.000000e-03 1.000000e-03 1.000000e-03 1.000000e-03
<GCONST> -6.134579e+01
<MIXTURE> 2 5.000000e-01
<MEAN> 16
 1.077434e-01 -1.648492e-01 1.578259e+00 -3.735873e-01 -1.098367e-01 1.531658e+00 -4.664295e-03 -1.267622e-02 -7.930981e-03 -5.239923e-03 -1.058245e-02 -7.359656e-03 8.873591e-02 1.283600e-01 7.023701e-02 7.810320e-02
<VARIANCE> 16
 6.053983e-02 2.740898e-02 2.406266e-02 1.088283e-02 1.007708e-02 2.168888e-02 1.391113e-03 1.062532e-03 1.820866e-03 1.000000e-03 1.000000e-03 1.511524e-03 1.000000e-03 1.000000e-03 1.000000e-03 1.000000e-03
<GCONST> -6.134579e+01
<STATE> 5
<MEAN> 16
 5.734919e-01 -6.903221e-01 1.857455e+00 -1.893220e-01 -5.916862e-01 1.792551e+00 6.749584e-03 -7.973039e-03 3.073939e-03 3.711956e-03 -9.275977e-03 3.528753e-03 1.155516e-01 1.108697e-01 9.678617e-02 7.518233e-02
<VARIANCE> 16
 2.131789e-02 4.844693e-03 1.515159e-02 1.500139e-02 8.493080e-03 7.527451e-03 1.000000e-03 1.000000e-03 1.962224e-03 1.000000e-03 1.000000e-03 1.768926e-03 1.000000e-03 1.000000e-03 1.000000e-03 1.000000e-03
<GCONST> -6.565212e+01
<TRANSP> 6
 0.000000e+00 1.000000e+00 0.000000e+00 0.000000e+00 0.000000e+00 0.000000e+00
 0.000000e+00 9.428106e-01 5.718935e-02 0.000000e+00 0.000000e+00 0.000000e+00
 0.000000e+00 0.000000e+00 9.761550e-01 2.384502e-02 0.000000e+00 0.000000e+00
 0.000000e+00 0.000000e+00 0.000000e+00 9.719915e-01 2.800850e-02 0.000000e+00
 0.000000e+00 0.000000e+00 0.000000e+00 0.000000e+00 9.631276e-01 3.687241e-02
 0.000000e+00 0.000000e+00 0.000000e+00 0.000000e+00 0.000000e+00 0.000000e+00
<ENDHMM>
~h "Car"
<BEGINHMM>
<NUMSTATES> 6
<STATE> 2
<NUMMIXES> 2
<MIXTURE> 1 5.000000e-01
<MEAN> 16
 6.139587e-01 -7.021567e-01 1.865963e+00 -1.911920e-01 -6.013739e-01 1.844488e+00 6.139587e-01 -7.021567e-01 1.865963e+00 -1.911920e-01 -6.013739e-01 1.844488e+00 1.207350e-01 1.112581e-01 1.049428e-01 8.031669e-02
<VARIANCE> 16
 5.549334e-03 2.272439e-03 1.463094e-02 1.891768e-02 9.345447e-03 8.381012e-03 5.549334e-03 2.272439e-03 1.463094e-02 1.891768e-02 9.345447e-03 8.381012e-03 1.000000e-03 1.000000e-03 1.000000e-03 1.000000e-03
<GCONST> -5.608081e+01
<MIXTURE> 2 5.000000e-01
<MEAN> 16
 5.841611e-01 -7.212247e-01 1.817579e+00 -2.462086e-01 -6.400426e-01 1.807868e+00 5.841611e-01 -7.212247e-01 1.817579e+00 -2.462086e-01 -6.400426e-01 1.807868e+00 1.080859e-01 9.860905e-02 9.229366e-02 6.766759e-02
<VARIANCE> 16
 5.549334e-03 2.272439e-03 1.463094e-02 1.891768e-02 9.345447e-03 8.381012e-03 5.549334e-03 2.272439e-03 1.463094e-02 1.891768e-02 9.345447e-03 8.381012e-03 1.000000e-03 1.000000e-03 1.000000e-03 1.000000e-03
<GCONST> -5.608081e+01
<STATE> 3
<NUMMIXES> 2
<MIXTURE> 1 5.000000e-01
<MEAN> 16
 6.034909e-01 -7.143066e-01 1.903119e+00 -1.478297e-01 -2.639687e-01 1.811711e+00 6.318086e-03 7.567635e-03 1.032626e-02 5.029830e-03 1.772132e-02 7.913514e-03 1.293648e-01 1.136511e-01 9.976891e-02 8.466761e-02
<VARIANCE> 16
 2.565816e-03 1.455542e-03 1.091928e-02 2.030530e-02 1.167500e-01 1.256355e-02 1.000000e-03 1.000000e-03 2.809918e-03 1.000000e-03 2.440379e-03 3.221487e-03 1.000000e-03 1.000000e-03 1.000000e-03 1.000000e-03
<GCONST> -6.401300e+01
<MIXTURE> 2 5.000000e-01
<MEAN> 16
 5.832294e-01 -7.295672e-01 1.861321e+00 -2.048283e-01 -4.006435e-01 1.766877e+00 -6.331026e-03 -5.081477e-03 -1.087720e-02 -7.619282e-03 -2.038755e-03 -1.478974e-02 1.167156e-01 1.010019e-01 8.711979e-02 7.201849e-02
<VARIANCE> 16
 2.565816e-03 1.455542e-03 1.091928e-02 2.030530e-02 1.167500e-01 1.256355e-02 1.000000e-03 1.000000e-03 2.809918e-03 1.000000e-03 2.440379e-03 3.221487e-03 1.000000e-03 1.000000e-03 1.000000e-03 1.000000e-03
<GCONST> -6.401300e+01
<STATE> 4
<NUMMIXES> 2
<MIXTURE> 1 5.000000e-01
<MEAN> 16
 5.917898e-01 -6.692891e-01 1.797978e+00 -2.693665e-01 -5.711778e-01 1.826167e+00 5.195222e-03 1.076726e-02 6.143664e-03 5.210272e-03 1.136934e-02 -1.908471e-04 1.245715e-01 1.051068e-01 1.196408e-01 7.562651e-02
<VARIANCE> 16
 3.215719e-03 3.236572e-03 1.467099e-02 2.091824e-02 2.838819e-02 1.227281e-02 1.000000e-03 1.000000e-03 1.000000e-03 1.000000e-03 1.000000e-03 1.000000e-03 1.000000e-03 1.000000e-03 1.000000e-03 1.000000e-03
<GCONST> -6.719564e+01
<MIXTURE> 2 5.000000e-01
<MEAN> 16
 5.691069e-01 -6.920455e-01 1.749528e+00 -3.272191e-01 -6.385730e-01 1.781853e+00 -7.453890e-03 -1.881854e-03 -6.505447e-03 -7.438840e-03 -1.279773e-03 -1.283996e-02 1.119223e-01 9.245767e-02 1.069916e-01 6.297739e-02
<VARIANCE> 16
 3.215719e-03 3.236572e-03 1.467099e-02 2.091824e-02 2.838819e-02 1.227281e-02 1.000000e-03 1.000000e-03 1.000000e-03 1.000000e-03 1.000000e-03 1.000000e-03 1.000000e-03 1.000000e-03 1.000000e-03 1.000000e-03
<GCONST> -6.719564e+01
<STATE> 5
<MEAN> 16
 4.477821e-01 -6.575297e-01 1.893291e+00 -1.758867e-01 -6.006497e-01 1.834166e+00 -1.650682e-02 1.006616e-02 1.952182e-04 -4.010562e-03 5.618681e-03 1.200059e-04 1.153201e-01 1.132666e-01 9.028970e-02 7.514042e-02
<VARIANCE> 16
 2.641812e-02 4.240544e-03 8.910684e-03 6.400896e-03 5.542944e-03 5.757461e-03 1.090549e-03 1.000000e-03 2.239315e-03 1.000000e-03 1.000000e-03 1.584727e-03 1.000000e-03 1.000000e-03 1.015843e-03 1.000000e-03
<GCONST> -6.752362e+01
<TRANSP> 6
 0.000000e+00 1.000000e+00 0.000000e+00 0.000000e+00 0.000000e+00 0.000000e+00
 0.000000e+00 0.000000e+00 1.000000e+00 0.000000e+00 0.000000e+00 0.000000e+00
 0.000000e+00 0.000000e+00 7.463056e-01 2.536944e-01 0.000000e+00 0.000000e+00
 0.000000e+00 0.000000e+00 0.000000e+00 7.435220e-01 2.564780e-01 0.000000e+00
 0.000000e+00 0.000000e+00 0.000000e+00 0.000000e+00 8.404851e-01 1.595149e-01
 0.000000e+00 0.000000e+00 0.000000e+00 0.000000e+00 0.000000e+00 0.000000e+00
<ENDHMM>
~h "Man"
<BEGINHMM>
<NUMSTATES> 6
<STATE> 2
<NUMMIXES> 2
<MIXTURE> 1 5.000000e-01
<MEAN> 16
 6.177162e-01 -6.850772e-01 1.873472e+00 -1.870686e-01 -5.920313e-01 1.837665e+00 6.177162e-01 -6.850772e-01 1.873472e+00 -1.870686e-01 -5.920313e-01 1.837665e+00 1.209649e-01 1.116277e-01 1.066995e-01 7.790400e-02
<VARIANCE> 16
 2.306375e-02 9.086658e-03 1.791536e-02 2.072750e-02 1.372117e-02 9.324222e-03 2.306375e-02 9.086658e-03 1.791536e-02 2.072750e-02 1.372117e-02 9.324222e-03 1.000000e-03 1.000000e-03 1.000000e-03 1.000000e-03
<GCONST> -4.889057e+01
<MIXTURE> 2 5.000000e-01
<MEAN> 16
 5.569692e-01 -7.232068e-01 1.819932e+00 -2.446568e-01 -6.388863e-01 1.799041e+00 5.569692e-01 -7.232068e-01 1.819932e+00 -2.446568e-01 -6.388863e-01 1.799041e+00 1.083158e-01 9.897855e-02 9.405035e-02 6.525490e-02
<VARIANCE> 16
 2.306375e-02 9.086658e-03 1.791536e-02 2.072750e-02 1.372117e-02 9.324222e-03 2.306375e-02 9.086658e-03 1.791536e-02 2.072750e-02 1.372117e-02 9.324222e-03 1.000000e-03 1.000000e-03 1.000000e-03 1.000000e-03
<GCONST> -4.889057e+01
<STATE> 3
<NUMMIXES> 2
<MIXTURE> 1 5.000000e-01
<MEAN> 16
 2.377183e-01 -1.322833e-01 2.274814e+00 -5.001835e-01 8.424191e-02 1.985588e+00 3.238124e-01 1.058375e-01 7.770247e-02 1.519819e-01 2.090290e-01 9.418727e-02 1.051705e-01 1.007638e-01 9.461446e-02 8.289705e-02
<VARIANCE> 16
 7.213964e-01 1.265510e-01 1.734720e-01 1.896057e-01 3.570698e-01 1.558981e-01 2.604870e+00 2.839087e-01 1.504104e-01 5.738771e-01 1.094637e+00 2.218398e-01 1.000000e-03 1.386132e-03 1.209530e-03 1.000000e-03
<GCONST> -1.057167e+01
<MIXTURE> 2 5.000000e-01
<MEAN> 16
 -1.020219e-01 -2.745793e-01 2.108214e+00 -6.743584e-01 -1.547794e-01 1.827652e+00 -3.217720e-01 -1.072948e-01 -7.742865e-02 -1.510369e-01 -2.094706e-01 -9.421223e-02 9.252134e-02 8.587149e-02 8.070314e-02 7.024795e-02
<VARIANCE> 16
 7.213964e-01 1.265510e-01 1.734720e-01 1.896057e-01 3.570698e-01 1.558981e-01 2.604870e+00 2.839087e-01 1.504104e-01 5.738771e-01 1.094637e+00 2.218398e-01 1.000000e-03 1.386132e-03 1.209530e-03 1.000000e-03
<GCONST> -1.057167e+01
<STATE> 4
<NUMMIXES> 2
<MIXTURE> 1 5.000000e-01
<MEAN> 16
 5.175071e-01 -6.108552e-01 1.944300e+00 -1.305606e-01 -6.103297e-01 1.863625e+00 -8.750409e-03 1.549954e-02 7.842932e-03 3.907934e-03 7.626231e-03 7.948339e-03 1.161961e-01 1.169881e-01 9.659834e-02 7.917367e-02
<VARIANCE> 16
 3.374895e-02 2.716841e-02 1.017134e-02 7.302026e-03 2.179830e-03 5.756936e-03 1.366563e-03 1.444739e-03 2.534816e-03 1.000000e-03 1.000000e-03 1.903433e-03 1.000000e-03 1.000000e-03 1.000000e-03 1.000000e-03
<GCONST> -6.520567e+01
<MIXTURE> 2 5.000000e-01
<MEAN> 16
 4.440235e-01 -6.767865e-01 1.903958e+00 -1.647414e-01 -6.290052e-01 1.833275e+00 -2.353723e-02 2.956474e-04 -1.229585e-02 -8.741178e-03 -5.022881e-03 -9.503001e-03 1.035469e-01 1.043389e-01 8.394922e-02 6.652455e-02
<VARIANCE> 16
 3.374895e-02 2.716841e-02 1.017134e-02 7.302026e-03 2.179830e-03 5.756936e-03 1.366563e-03 1.444739e-03 2.534816e-03 1.000000e-03 1.000000e-03 1.903433e-03 1.000000e-03 1.000000e-03 1.000000e-03 1.000000e-03
<GCONST> -6.520567e+01
<STATE> 5
<MEAN> 16
 4.672006e-01 -6.740100e-01 1.856580e+00 -1.761527e-01 -3.407088e-01 1.818543e+00 -1.969633e-03 3.256721e-03 1.501273e-03 -2.860237e-03 1.323761e-02 -1.535782e-03 1.247941e-01 1.049819e-01 9.665336e-02 7.727420e-02
<VARIANCE> 16
 2.000714e-02 3.389363e-03 1.241013e-02 1.832396e-02 1.198325e-01 1.159071e-02 1.000000e-03 1.000000e-03 1.772104e-03 1.000000e-03 2.726816e-03 1.909723e-03 1.000000e-03 1.000000e-03 1.000000e-03 1.000000e-03
<GCONST> -6.201604e+01
<TRANSP> 6
 0.000000e+00 1.000000e+00 0.000000e+00 0.000000e+00 0.000000e+00 0.000000e+00
 0.000000e+00 0.000000e+00 1.000000e+00 0.000000e+00 0.000000e+00 0.000000e+00
 0.000000e+00 0.000000e+00 8.593133e-01 1.406867e-01 0.000000e+00 0.000000e+00
 0.000000e+00 0.000000e+00 0.000000e+00 8.389521e-01 1.610479e-01 0.000000e+00
 0.000000e+00 0.000000e+00 0.000000e+00 0.000000e+00 9.010774e-01 9.892255e-02
 0.000000e+00 0.000000e+00 0.000000e+00 0.000000e+00 0.000000e+00 0.000000e+00
<ENDHMM>
~h "car"
<BEGINHMM>
<NUMSTATES> 6
<STATE> 2
<NUMMIXES> 2
<MIXTURE> 1 5.000000e-01
<MEAN> 16
 3.452493e-01 -3.836895e-01 2.045233e+00 -2.654921e-01 3.787582e-02 1.872898e+00 9.410785e-03 1.841208e-03 1.206709e-02 6.060456e-03 -9.409771e-04 6.456081e-03 9.899467e-02 1.280569e-01 9.501076e-02 9.053214e-02
<VARIANCE> 16
 1.274717e-02 1.567698e-02 2.755626e-02 3.097842e-03 3.253325e-02 1.257297e-02 1.000000e-03 1.072503e-03 2.257069e-03 1.000000e-03 1.000000e-03 1.487401e-03 1.000000e-03 1.000000e-03 1.000000e-03 1.000000e-03
<GCONST> -6.407871e+01
<MIXTURE> 2 5.000000e-01
<MEAN> 16
 3.000879e-01 -4.337726e-01 1.978833e+00 -2.877554e-01 -3.427209e-02 1.828046e+00 -3.238327e-03 -1.125843e-02 -6.936355e-03 -6.588655e-03 -1.359009e-02 -8.970655e-03 8.634557e-02 1.154078e-01 8.236164e-02 7.788303e-02
<VARIANCE> 16
 1.274717e-02 1.567698e-02 2.755626e-02 3.097842e-03 3.253325e-02 1.257297e-02 1.000000e-03 1.072503e-03 2.257069e-03 1.000000e-03 1.000000e-03 1.487401e-03 1.000000e-03 1.000000e-03 1.000000e-03 1.000000e-03
<GCONST> -6.407871e+01
<STATE> 3
<NUMMIXES> 2
<MIXTURE> 1 5.000000e-01
<MEAN> 16
 3.369442e-01 1.645173e-02 1.920156e+00 -2.934182e-01 3.037926e-03 1.885459e+00 1.192826e-02 8.943368e-03 1.213561e-02 5.819540e-03 2.568885e-03 1.190775e-02 1.157746e-01 1.300409e-01 9.269428e-02 8.862057e-02
<VARIANCE> 16
 3.757188e-02 4.079921e-02 1.558236e-02 5.954644e-03 1.778007e-02 1.503075e-02 1.700285e-03 2.765263e-03 4.444752e-03 1.000000e-03 1.000000e-03 3.527053e-03 1.000000e-03 1.000000e-03 1.000000e-03 1.000000e-03
<GCONST> -5.936453e+01
<MIXTURE> 2 5.000000e-01
<MEAN> 16
 2.594103e-01 -6.434353e-02 1.870224e+00 -3.242848e-01 -5.029885e-02 1.836419e+00 -4.565542e-03 -1.209094e-02 -1.453198e-02 -6.829572e-03 -1.008023e-02 -1.184785e-02 1.031254e-01 1.173918e-01 8.004516e-02 7.597147e-02
<VARIANCE> 16
 3.757188e-02 4.079921e-02 1.558236e-02 5.954644e-03 1.778007e-02 1.503075e-02 1.700285e-03 2.765263e-03 4.444752e-03 1.000000e-03 1.000000e-03 3.527053e-03 1.000000e-03 1.000000e-03 1.000000e-03 1.000000e-03
<GCONST> -5.936453e+01
<STATE> 4
<NUMMIXES> 2
<MIXTURE> 1 5.000000e-01
<MEAN> 16
 2.470877e-01 -1.989340e-02 1.681837e+00 -3.590544e-01 -1.257322e-02 1.627514e+00 7.037504e-03 1.738254e-03 9.517950e-03 7.564553e-03 1.564920e-03 8.191669e-03 9.723897e-02 1.175439e-01 7.750706e-02 8.698744e-02
<VARIANCE> 16
 3.272096e-02 3.075520e-02 2.444981e-02 5.522751e-03 1.357204e-02 1.789208e-02 1.000000e-03 1.444874e-03 2.265169e-03 1.000000e-03 1.000000e-03 1.819305e-03 1.000000e-03 1.000000e-03 1.000000e-03 1.000000e-03
<GCONST> -6.202199e+01
<MIXTURE> 2 5.000000e-01
<MEAN> 16
 1.747319e-01 -9.004204e-02 1.619291e+00 -3.887804e-01 -5.917286e-02 1.574010e+00 -5.611607e-03 -1.346635e-02 -9.519567e-03 -5.084559e-03 -1.108419e-02 -8.869655e-03 8.458985e-02 1.048947e-01 6.485796e-02 7.433832e-02
<VARIANCE> 16
 3.272096e-02 3.075520e-02 2.444981e-02 5.522751e-03 1.357204e-02 1.789208e-02 1.000000e-03 1.444874e-03 2.265169e-03 1.000000e-03 1.000000e-03 1.819305e-03 1.000000e-03 1.000000e-03 1.000000e-03 1.000000e-03
<GCONST> -6.202199e+01
<STATE> 5
<MEAN> 16
 5.780386e-01 -6.913766e-01 1.855456e+00 -1.949414e-01 -6.015312e-01 1.813012e+00 4.980612e-03 -7.354272e-03 2.015181e-03 3.967123e-03 -8.556590e-03 2.913651e-03 1.162845e-01 1.070505e-01 9.720150e-02 7.488413e-02
<VARIANCE> 16
 1.662728e-02 3.611636e-03 1.556611e-02 1.807665e-02 6.103048e-03 7.220799e-03 1.000000e-03 1.000000e-03 1.884189e-03 1.000000e-03 1.000000e-03 1.852773e-03 1.000000e-03 1.000000e-03 1.000000e-03 1.000000e-03
<GCONST> -6.634720e+01
<TRANSP> 6
 0.000000e+00 1.000000e+00 0.000000e+00 0.000000e+00 0.000000e+00 0.000000e+00
 0.000000e+00 8.885084e-01 1.114916e-01 0.000000e+00 0.000000e+00 0.000000e+00
 0.000000e+00 0.000000e+00 9.600406e-01 3.995935e-02 0.000000e+00 0.000000e+00
 0.000000e+00 0.000000e+00 0.000000e+00 9.638303e-01 3.616973e-02 0.000000e+00
 0.000000e+00 0.000000e+00 0.000000e+00 0.000000e+00 9.607329e-01 3.926706e-02
 0.000000e+00 0.000000e+00 0.000000e+00 0.000000e+00 0.000000e+00 0.000000e+00
<ENDHMM>
~h "weaves_and_bumps_into"
<BEGINHMM>
<NUMSTATES> 6
<STATE> 2
<NUMMIXES> 2
<MIXTURE> 1 5.000000e-01
<MEAN> 16
 4.155054e-01 -3.528107e-01 1.944238e+00 -2.976345e-01 -2.905556e-01 1.908279e+00 -1.310254e-02 5.607323e-02 1.308751e-02 1.087431e-02 5.814660e-02 1.118056e-02 1.043593e-01 9.852250e-02 8.913554e-02 8.554484e-02
<VARIANCE> 16
 1.412202e-02 2.023775e-02 4.878372e-02 1.575968e-02 2.103355e-02 4.716208e-02 2.378444e-03 4.621324e-03 1.000069e-02 2.108770e-03 4.803103e-03 8.881477e-03 1.031415e-03 1.000000e-03 1.000000e-03 1.000000e-03
<GCONST> -5.268816e+01
<MIXTURE> 2 5.000000e-01
<MEAN> 16
 3.679710e-01 -4.097145e-01 1.855890e+00 -3.478495e-01 -3.485674e-01 1.821411e+00 -3.261026e-02 2.888110e-02 -2.691388e-02 -7.494230e-03 3.042483e-02 -2.651607e-02 9.151308e-02 8.587338e-02 7.648642e-02 7.289572e-02
<VARIANCE> 16
 1.412202e-02 2.023775e-02 4.878372e-02 1.575968e-02 2.103355e-02 4.716208e-02 2.378444e-03 4.621324e-03 1.000069e-02 2.108770e-03 4.803103e-03 8.881477e-03 1.031415e-03 1.000000e-03 1.000000e-03 1.000000e-03
<GCONST> -5.268816e+01
<STATE> 3
<NUMMIXES> 2
<MIXTURE> 1 5.000000e-01
<MEAN> 16
 2.598943e-01 -1.298206e-01 1.813815e+00 -2.529843e-01 -1.186555e-01 1.753109e+00 3.328153e-03 1.227591e-02 1.096573e-02 6.613404e-03 1.103842e-02 1.007121e-02 9.481288e-02 9.756240e-02 8.679560e-02 8.210422e-02
<VARIANCE> 16
 1.646301e-02 3.160538e-02 1.288594e-02 8.462114e-03 1.688833e-02 1.001450e-02 1.000000e-03 1.932334e-03 4.031942e-03 1.000000e-03 1.169830e-03 3.541205e-03 1.000000e-03 1.000000e-03 1.000000e-03 1.000000e-03
<GCONST> -6.156692e+01
<MIXTURE> 2 5.000000e-01
<MEAN> 16
 2.085710e-01 -2.009322e-01 1.768409e+00 -2.897803e-01 -1.706375e-01 1.713079e+00 -9.320959e-03 -5.307424e-03 -1.443331e-02 -6.035708e-03 -2.642692e-03 -1.373200e-02 8.216378e-02 8.491328e-02 7.414648e-02 6.945510e-02
<VARIANCE> 16
 1.646301e-02 3.160538e-02 1.288594e-02 8.462114e-03 1.688833e-02 1.001450e-02 1.000000e-03 1.932334e-03 4.031942e-03 1.000000e-03 1.169830e-03 3.541205e-03 1.000000e-03 1.000000e-03 1.000000e-03 1.000000e-03
<GCONST> -6.156692e+01
<STATE> 4
<NUMMIXES> 2
<MIXTURE> 1 5.000000e-01
<MEAN> 16
 2.502200e-01 -2.685329e-02 1.477886e+00 -2.895324e-01 3.830015e-02 1.414519e+00 7.347556e-03 7.121311e-03 7.078771e-03 5.670533e-03 7.130889e-03 5.392865e-03 9.414384e-02 1.137463e-01 8.874819e-02 9.191196e-02
<VARIANCE> 16
 2.337772e-02 3.233712e-02 2.855337e-02 7.507943e-03 6.561171e-03 1.147276e-02 1.000000e-03 1.329003e-03 1.705492e-03 1.000000e-03 1.000000e-03 1.128070e-03 1.000000e-03 1.000000e-03 1.000000e-03 1.000000e-03
<GCONST> -6.386239e+01
<MIXTURE> 2 5.000000e-01
<MEAN> 16
 1.890609e-01 -9.878339e-02 1.410295e+00 -3.241917e-01 5.899729e-03 1.371675e+00 -5.301556e-03 -7.460888e-03 -9.440271e-03 -6.978578e-03 -5.518223e-03 -8.041836e-03 8.149472e-02 1.010972e-01 7.609907e-02 7.926284e-02
<VARIANCE> 16
 2.337772e-02 3.233712e-02 2.855337e-02 7.507943e-03 6.561171e-03 1.147276e-02 1.000000e-03 1.329003e-03 1.705492e-03 1.000000e-03 1.000000e-03 1.128070e-03 1.000000e-03 1.000000e-03 1.000000e-03 1.000000e-03
<GCONST> -6.386239e+01
<STATE> 5
<MEAN> 16
 3.282345e-01 -2.596512e-01 1.855846e+00 -2.616781e-01 4.938640e-03 1.781317e+00 1.325929e-02 -7.652455e-03 1.862698e-02 -1.116839e-02 1.869455e-03 1.736131e-02 1.110764e-01 1.103634e-01 8.703189e-02 8.742461e-02
<VARIANCE> 16
 1.706681e-02 7.502840e-02 4.194821e-02 1.859775e-02 5.946698e-02 3.241442e-02 5.456532e-03 4.306096e-03 1.184110e-02 2.141854e-03 5.753394e-03 8.062190e-03 1.000000e-03 1.000000e-03 1.000000e-03 1.000000e-03
<GCONST> -4.951248e+01
<TRANSP> 6
 0.000000e+00 1.000000e+00 0.000000e+00 0.000000e+00 0.000000e+00 0.000000e+00
 0.000000e+00 8.715161e-01 1.284839e-01 0.000000e+00 0.000000e+00 0.000000e+00
 0.000000e+00 0.000000e+00 9.454859e-01 5.451417e-02 0.000000e+00 0.000000e+00
 0.000000e+00 0.000000e+00 0.000000e+00 9.592042e-01 4.079577e-02 0.000000e+00
 0.000000e+00 0.000000e+00 0.000000e+00 0.000000e+00 8.008057e-01 1.991943e-01
 0.000000e+00 0.000000e+00 0.000000e+00 0.000000e+00 0.000000e+00 0.000000e+00
<ENDHMM>
~h "man"
<BEGINHMM>
<NUMSTATES> 6
<STATE> 2
<NUMMIXES> 2
<MIXTURE> 1 5.000000e-01
<MEAN> 16
 3.943193e-01 -5.802395e-01 1.889353e+00 -3.238812e-01 -1.112115e-01 1.790236e+00 6.003713e-03 1.111620e-02 8.792683e-03 -1.941854e-03 8.185399e-04 4.070031e-03 1.243250e-01 8.755164e-02 9.253833e-02 1.006227e-01
<VARIANCE> 16
 1.510105e-02 8.473544e-03 2.346129e-02 1.701166e-02 7.890921e-03 3.564830e-02 1.000000e-03 1.000000e-03 2.943764e-03 1.000000e-03 1.000000e-03 1.519040e-03 1.000000e-03 1.000000e-03 1.000000e-03 1.000000e-03
<GCONST> -6.313991e+01
<MIXTURE> 2 5.000000e-01
<MEAN> 16
 3.451647e-01 -6.170603e-01 1.828085e+00 -3.760528e-01 -1.467439e-01 1.714712e+00 -6.645399e-03 -1.532910e-03 -1.290990e-02 -1.459097e-02 -1.183057e-02 -1.151991e-02 1.116758e-01 7.490253e-02 7.988921e-02 8.797358e-02
<VARIANCE> 16
 1.510105e-02 8.473544e-03 2.346129e-02 1.701166e-02 7.890921e-03 3.564830e-02 1.000000e-03 1.000000e-03 2.943764e-03 1.000000e-03 1.000000e-03 1.519040e-03 1.000000e-03 1.000000e-03 1.000000e-03 1.000000e-03
<GCONST> -6.313991e+01
<STATE> 3
<NUMMIXES> 2
<MIXTURE> 1 5.000000e-01
<MEAN> 16
 2.326590e-01 -3.453190e-02 1.863753e+00 -3.503450e-01 -1.290812e-01 1.882104e+00 7.672835e-03 1.168807e-02 1.081554e-02 8.076409e-03 4.713218e-03 1.136208e-02 1.080698e-01 9.370065e-02 8.460099e-02 1.002631e-01
<VARIANCE> 16
 4.673956e-02 3.269038e-02 1.646000e-02 8.470593e-03 6.447737e-03 2.030765e-02 1.609501e-03 2.627024e-03 3.982942e-03 1.000000e-03 1.000000e-03 3.595729e-03 1.000000e-03 1.000000e-03 1.000000e-03 1.000000e-03
<GCONST> -5.987058e+01
<MIXTURE> 2 5.000000e-01
<MEAN> 16
 1.461816e-01 -1.068538e-01 1.812435e+00 -3.871594e-01 -1.612004e-01 1.825102e+00 -8.374600e-03 -8.813728e-03 -1.442868e-02 -4.572703e-03 -7.935894e-03 -1.262368e-02 9.542064e-02 8.105153e-02 7.195188e-02 8.761400e-02
<VARIANCE> 16
 4.673956e-02 3.269038e-02 1.646000e-02 8.470593e-03 6.447737e-03 2.030765e-02 1.609501e-03 2.627024e-03 3.982942e-03 1.000000e-03 1.000000e-03 3.595729e-03 1.000000e-03 1.000000e-03 1.000000e-03 1.000000e-03
<GCONST> -5.987058e+01
<STATE> 4
<NUMMIXES> 2
<MIXTURE> 1 5.000000e-01
<MEAN> 16
 2.719315e-01 -3.765515e-02 1.553021e+00 -3.139738e-01 -4.095259e-02 1.528628e+00 1.076984e-02 3.863333e-03 8.537563e-03 7.270585e-03 5.306946e-04 6.813034e-03 1.005778e-01 7.923371e-02 8.510922e-02 9.555024e-02
<VARIANCE> 16
 4.333229e-02 4.484788e-02 2.307423e-02 1.287970e-02 1.348867e-02 1.204163e-02 1.247809e-03 1.543581e-03 1.747892e-03 1.000000e-03 1.000000e-03 1.307141e-03 1.000000e-03 1.000000e-03 1.000000e-03 1.000000e-03
<GCONST> -6.127954e+01
<MIXTURE> 2 5.000000e-01
<MEAN> 16
 1.886659e-01 -1.223644e-01 1.492261e+00 -3.593692e-01 -8.740888e-02 1.484734e+00 -3.359899e-03 -1.185204e-02 -8.185555e-03 -5.378527e-03 -1.211842e-02 -7.648728e-03 8.792873e-02 6.658459e-02 7.246011e-02 8.290114e-02
<VARIANCE> 16
 4.333229e-02 4.484788e-02 2.307423e-02 1.287970e-02 1.348867e-02 1.204163e-02 1.247809e-03 1.543581e-03 1.747892e-03 1.000000e-03 1.000000e-03 1.307141e-03 1.000000e-03 1.000000e-03 1.000000e-03 1.000000e-03
<GCONST> -6.127954e+01
<STATE> 5
<MEAN> 16
 5.746450e-01 -6.863630e-01 1.852289e+00 -1.924953e-01 -5.941527e-01 1.808399e+00 6.755092e-03 -8.611047e-03 3.360635e-03 2.720593e-03 -9.935969e-03 3.719612e-03 1.162378e-01 1.062143e-01 9.471438e-02 7.524186e-02
<VARIANCE> 16
 1.995883e-02 4.680038e-03 1.592009e-02 1.712175e-02 7.170189e-03 8.551739e-03 1.000000e-03 1.000000e-03 2.623250e-03 1.000000e-03 1.098689e-03 2.013999e-03 1.000000e-03 1.000000e-03 1.000000e-03 1.000000e-03
<GCONST> -6.509843e+01
<TRANSP> 6
 0.000000e+00 1.000000e+00 0.000000e+00 0.000000e+00 0.000000e+00 0.000000e+00
 0.000000e+00 9.258536e-01 7.414638e-02 0.000000e+00 0.000000e+00 0.000000e+00
 0.000000e+00 0.000000e+00 9.739874e-01 2.601261e-02 0.000000e+00 0.000000e+00
 0.000000e+00 0.000000e+00 0.000000e+00 9.492657e-01 5.073433e-02 0.000000e+00
 0.000000e+00 0.000000e+00 0.000000e+00 0.000000e+00 9.596189e-01 4.038113e-02
 0.000000e+00 0.000000e+00 0.000000e+00 0.000000e+00 0.000000e+00 0.000000e+00
<ENDHMM>
~h "monkey"
<BEGINHMM>
<NUMSTATES> 6
<STATE> 2
<NUMMIXES> 2
<MIXTURE> 1 5.000000e-01
<MEAN> 16
 3.657439e-01 -4.373761e-01 2.112890e+00 -2.859893e-01 4.378783e-03 1.898901e+00 7.407724e-03 4.766079e-03 8.341441e-03 6.880941e-03 1.457151e-03 5.478206e-03 1.117543e-01 1.139290e-01 9.657578e-02 8.002181e-02
<VARIANCE> 16
 1.049429e-02 6.188045e-03 2.306639e-02 7.932798e-03 2.044420e-02 1.721435e-02 1.000000e-03 1.000000e-03 1.843686e-03 1.000000e-03 1.000000e-03 1.197018e-03 1.401743e-03 1.000000e-03 1.000000e-03 1.000000e-03
<GCONST> -6.474246e+01
<MIXTURE> 2 5.000000e-01
<MEAN> 16
 3.247673e-01 -4.688417e-01 2.052140e+00 -3.216159e-01 -5.281451e-02 1.846419e+00 -5.241388e-03 -7.883033e-03 -8.833826e-03 -5.768171e-03 -1.119196e-02 -8.360973e-03 9.677833e-02 1.012798e-01 8.392668e-02 6.737271e-02
<VARIANCE> 16
 1.049429e-02 6.188045e-03 2.306639e-02 7.932798e-03 2.044420e-02 1.721435e-02 1.000000e-03 1.000000e-03 1.843686e-03 1.000000e-03 1.000000e-03 1.197018e-03 1.401743e-03 1.000000e-03 1.000000e-03 1.000000e-03
<GCONST> -6.474246e+01
<STATE> 3
<NUMMIXES> 2
<MIXTURE> 1 5.000000e-01
<MEAN> 16
 2.641146e-01 -2.195757e-03 1.918363e+00 -2.881624e-01 -4.280923e-02 1.895236e+00 8.495008e-03 1.000510e-02 1.062347e-02 7.235803e-03 3.475343e-03 1.165319e-02 1.123787e-01 1.130172e-01 9.096129e-02 7.908642e-02
<VARIANCE> 16
 4.723881e-02 3.353605e-02 1.673026e-02 1.059635e-02 9.243513e-03 1.578769e-02 1.592210e-03 2.533810e-03 4.217211e-03 1.000000e-03 1.000000e-03 3.605573e-03 1.000000e-03 1.000000e-03 1.000000e-03 1.000000e-03
<GCONST> -5.947284e+01
<MIXTURE> 2 5.000000e-01
<MEAN> 16
 1.771766e-01 -7.544716e-02 1.866625e+00 -3.293378e-01 -8.126651e-02 1.844976e+00 -7.465995e-03 -1.012969e-02 -1.535255e-02 -5.413309e-03 -9.173769e-03 -1.236537e-02 9.972954e-02 1.003680e-01 7.831217e-02 6.643730e-02
<VARIANCE> 16
 4.723881e-02 3.353605e-02 1.673026e-02 1.059635e-02 9.243513e-03 1.578769e-02 1.592210e-03 2.533810e-03 4.217211e-03 1.000000e-03 1.000000e-03 3.605573e-03 1.000000e-03 1.000000e-03 1.000000e-03 1.000000e-03
<GCONST> -5.947284e+01
<STATE> 4
<NUMMIXES> 2
<MIXTURE> 1 5.000000e-01
<MEAN> 16
 3.053578e-01 -9.149021e-02 1.662911e+00 -2.816143e-01 1.094040e-03 1.626740e+00 1.259185e-02 -2.790276e-03 1.010022e-02 9.060009e-03 -4.074554e-03 7.665650e-03 1.067788e-01 1.027036e-01 8.603890e-02 7.338344e-02
<VARIANCE> 16
 3.910160e-02 5.568158e-02 2.056952e-02 4.468670e-03 2.765667e-02 1.557937e-02 1.111470e-03 1.827158e-03 2.204741e-03 1.000000e-03 1.000000e-03 1.615987e-03 1.000000e-03 1.000000e-03 1.000000e-03 1.000000e-03
<GCONST> -6.086653e+01
<MIXTURE> 2 5.000000e-01
<MEAN> 16
 2.262613e-01 -1.858780e-01 1.605543e+00 -3.083535e-01 -6.542714e-02 1.576813e+00 -7.436383e-04 -1.988838e-02 -8.681648e-03 -3.589102e-03 -1.672367e-02 -8.414088e-03 9.412964e-02 9.005444e-02 7.338980e-02 6.073433e-02
<VARIANCE> 16
 3.910160e-02 5.568158e-02 2.056952e-02 4.468670e-03 2.765667e-02 1.557937e-02 1.111470e-03 1.827158e-03 2.204741e-03 1.000000e-03 1.000000e-03 1.615987e-03 1.000000e-03 1.000000e-03 1.000000e-03 1.000000e-03
<GCONST> -6.086653e+01
<STATE> 5
<MEAN> 16
 5.757695e-01 -6.931261e-01 1.854265e+00 -1.949482e-01 -6.070630e-01 1.808581e+00 4.948740e-03 -5.811363e-03 1.369992e-03 1.991622e-03 -6.942899e-03 1.949496e-03 1.148418e-01 1.091130e-01 9.560732e-02 7.434768e-02
<VARIANCE> 16
 1.661221e-02 3.416264e-03 1.630862e-02 1.764317e-02 5.521854e-03 6.261581e-03 1.000000e-03 1.000000e-03 1.669113e-03 1.000000e-03 1.000000e-03 1.657384e-03 1.000000e-03 1.000000e-03 1.000000e-03 1.000000e-03
<GCONST> -6.685665e+01
<TRANSP> 6
 0.000000e+00 1.000000e+00 0.000000e+00 0.000000e+00 0.000000e+00 0.000000e+00
 0.000000e+00 9.200132e-01 7.998683e-02 0.000000e+00 0.000000e+00 0.000000e+00
 0.000000e+00 0.000000e+00 9.740802e-01 2.591982e-02 0.000000e+00 0.000000e+00
 0.000000e+00 0.000000e+00 0.000000e+00 9.295925e-01 7.040753e-02 0.000000e+00
 0.000000e+00 0.000000e+00 0.000000e+00 0.000000e+00 9.616176e-01 3.838244e-02
 0.000000e+00 0.000000e+00 0.000000e+00 0.000000e+00 0.000000e+00 0.000000e+00
<ENDHMM>
~h "bumps_into_each_other"
<BEGINHMM>
<NUMSTATES> 6
<STATE> 2
<NUMMIXES> 2
<MIXTURE> 1 5.000000e-01
<MEAN> 16
 4.378796e-01 -4.242188e-01 1.967174e+00 -3.094152e-01 -1.923341e-01 1.908581e+00 -2.137757e-03 2.464110e-02 1.814852e-02 5.250358e-03 4.387232e-02 1.467449e-02 1.108302e-01 9.744765e-02 9.567304e-02 8.881094e-02
<VARIANCE> 16
 1.014668e-02 1.784028e-02 4.090738e-02 1.836219e-02 5.905383e-02 4.874011e-02 1.000000e-03 1.697302e-03 5.781993e-03 1.375282e-03 3.745143e-03 5.562705e-03 1.320789e-03 1.000000e-03 1.000000e-03 1.000000e-03
<GCONST> -5.541568e+01
<MIXTURE> 2 5.000000e-01
<MEAN> 16
 3.975874e-01 -4.776458e-01 1.886272e+00 -3.636180e-01 -2.895381e-01 1.820273e+00 -1.478687e-02 8.161766e-03 -1.226725e-02 -9.583560e-03 1.939328e-02 -1.515893e-02 9.629317e-02 8.479853e-02 8.302394e-02 7.616183e-02
<VARIANCE> 16
 1.014668e-02 1.784028e-02 4.090738e-02 1.836219e-02 5.905383e-02 4.874011e-02 1.000000e-03 1.697302e-03 5.781993e-03 1.375282e-03 3.745143e-03 5.562705e-03 1.320789e-03 1.000000e-03 1.000000e-03 1.000000e-03
<GCONST> -5.541568e+01
<STATE> 3
<NUMMIXES> 2
<MIXTURE> 1 5.000000e-01
<MEAN> 16
 3.333450e-01 -1.240602e-01 1.889166e+00 -2.266087e-01 -1.056715e-01 1.842446e+00 5.214108e-03 1.694853e-02 1.272766e-02 5.981388e-03 1.195194e-02 1.268736e-02 9.364519e-02 9.993605e-02 8.871949e-02 8.468069e-02
<VARIANCE> 16
 1.116777e-02 3.439432e-02 1.439797e-02 6.236205e-03 2.031673e-02 1.199809e-02 1.218580e-03 3.323815e-03 5.858668e-03 1.000000e-03 2.049331e-03 5.211899e-03 1.000000e-03 1.000000e-03 1.000000e-03 1.000000e-03
<GCONST> -5.963831e+01
<MIXTURE> 2 5.000000e-01
<MEAN> 16
 2.910739e-01 -1.982430e-01 1.841170e+00 -2.581965e-01 -1.626862e-01 1.798632e+00 -8.749158e-03 -6.112488e-03 -1.788912e-02 -6.667724e-03 -6.155875e-03 -1.619003e-02 8.099608e-02 8.728693e-02 7.607037e-02 7.203157e-02
<VARIANCE> 16
 1.116777e-02 3.439432e-02 1.439797e-02 6.236205e-03 2.031673e-02 1.199809e-02 1.218580e-03 3.323815e-03 5.858668e-03 1.000000e-03 2.049331e-03 5.211899e-03 1.000000e-03 1.000000e-03 1.000000e-03 1.000000e-03
<GCONST> -5.963831e+01
<STATE> 4
<NUMMIXES> 2
<MIXTURE> 1 5.000000e-01
<MEAN> 16
 2.968966e-01 2.587702e-03 1.583610e+00 -3.021823e-01 7.272777e-02 1.538082e+00 7.359199e-03 8.878073e-03 5.917670e-03 4.857119e-03 6.485919e-03 5.985869e-03 9.505640e-02 1.099477e-01 8.513449e-02 8.765976e-02
<VARIANCE> 16
 1.499552e-02 3.215486e-02 2.296726e-02 1.077706e-02 6.782179e-03 1.352627e-02 1.000000e-03 1.424839e-03 1.521083e-03 1.000000e-03 1.000000e-03 1.229228e-03 1.000000e-03 1.000000e-03 1.000000e-03 1.000000e-03
<GCONST> -6.392945e+01
<MIXTURE> 2 5.000000e-01
<MEAN> 16
 2.479142e-01 -6.913941e-02 1.522990e+00 -3.437073e-01 3.978617e-02 1.491561e+00 -5.289913e-03 -6.220743e-03 -9.682756e-03 -7.791993e-03 -6.163193e-03 -8.038270e-03 8.240728e-02 9.729855e-02 7.248539e-02 7.501064e-02
<VARIANCE> 16
 1.499552e-02 3.215486e-02 2.296726e-02 1.077706e-02 6.782179e-03 1.352627e-02 1.000000e-03 1.424839e-03 1.521083e-03 1.000000e-03 1.000000e-03 1.229228e-03 1.000000e-03 1.000000e-03 1.000000e-03 1.000000e-03
<GCONST> -6.392945e+01
<STATE> 5
<MEAN> 16
 4.471747e-01 -3.165294e-01 1.738729e+00 -3.613479e-01 -1.732558e-01 1.692878e+00 1.974455e-02 -5.375735e-02 3.192520e-02 -2.990840e-03 -4.449717e-02 2.161744e-02 8.834029e-02 8.921664e-02 7.543875e-02 7.603787e-02
<VARIANCE> 16
 1.508246e-02 2.430972e-02 4.293199e-02 1.248027e-02 3.618160e-02 3.521205e-02 1.000000e-03 1.728015e-03 6.505081e-03 1.000000e-03 2.902226e-03 5.957100e-03 1.000000e-03 1.000000e-03 1.000000e-03 1.000000e-03
<GCONST> -5.651032e+01
<TRANSP> 6
 0.000000e+00 1.000000e+00 0.000000e+00 0.000000e+00 0.000000e+00 0.000000e+00
 0.000000e+00 9.071795e-01 9.282055e-02 0.000000e+00 0.000000e+00 0.000000e+00
 0.000000e+00 0.000000e+00 9.632104e-01 3.678960e-02 0.000000e+00 0.000000e+00
 0.000000e+00 0.000000e+00 0.000000e+00 9.576908e-01 4.230921e-02 0.000000e+00
 0.000000e+00 0.000000e+00 0.000000e+00 0.000000e+00 6.284596e-01 3.715404e-01
 0.000000e+00 0.000000e+00 0.000000e+00 0.000000e+00 0.000000e+00 0.000000e+00
<ENDHMM>
~h "jumps_on"
<BEGINHMM>
<NUMSTATES> 6
<STATE> 2
<NUMMIXES> 2
<MIXTURE> 1 5.000000e-01
<MEAN> 16
 4.163136e-01 -3.914332e-01 1.960995e+00 -2.798447e-01 -2.753141e-01 1.925744e+00 -9.265070e-03 4.674259e-02 1.289610e-02 1.037989e-02 5.426493e-02 1.068611e-02 1.050691e-01 9.788066e-02 9.153174e-02 8.658871e-02
<VARIANCE> 16
 1.270793e-02 1.754125e-02 5.147794e-02 1.611821e-02 4.078547e-02 5.109571e-02 1.678676e-03 4.012796e-03 7.550722e-03 1.539154e-03 6.217500e-03 7.118613e-03 1.108696e-03 1.000000e-03 1.000000e-03 1.000000e-03
<GCONST> -5.309451e+01
<MIXTURE> 2 5.000000e-01
<MEAN> 16
 3.712218e-01 -4.444106e-01 1.870240e+00 -3.306277e-01 -3.560957e-01 1.835326e+00 -2.565373e-02 2.140393e-02 -2.186185e-02 -5.312935e-03 2.272449e-02 -2.306264e-02 9.175023e-02 8.523154e-02 7.888262e-02 7.393959e-02
<VARIANCE> 16
 1.270793e-02 1.754125e-02 5.147794e-02 1.611821e-02 4.078547e-02 5.109571e-02 1.678676e-03 4.012796e-03 7.550722e-03 1.539154e-03 6.217500e-03 7.118613e-03 1.108696e-03 1.000000e-03 1.000000e-03 1.000000e-03
<GCONST> -5.309451e+01
<STATE> 3
<NUMMIXES> 2
<MIXTURE> 1 5.000000e-01
<MEAN> 16
 2.971675e-01 -8.754054e-02 1.854754e+00 -2.325690e-01 -7.036991e-02 1.765708e+00 1.636574e-03 1.891343e-02 1.082861e-02 7.104945e-03 9.261899e-03 1.064722e-02 1.017325e-01 1.100034e-01 8.725563e-02 8.778210e-02
<VARIANCE> 16
 1.424752e-02 5.038018e-02 1.249114e-02 7.520520e-03 2.127907e-02 1.133599e-02 1.000000e-03 2.463974e-03 4.385493e-03 1.000000e-03 1.176110e-03 3.673666e-03 1.000000e-03 1.000000e-03 1.000000e-03 1.000000e-03
<GCONST> -6.067003e+01
<MIXTURE> 2 5.000000e-01
<MEAN> 16
 2.494223e-01 -1.773227e-01 1.810048e+00 -2.672574e-01 -1.287193e-01 1.723120e+00 -1.101254e-02 -9.419499e-04 -1.566061e-02 -5.544166e-03 -4.455886e-03 -1.359709e-02 8.908342e-02 9.735425e-02 7.460651e-02 7.513298e-02
<VARIANCE> 16
 1.424752e-02 5.038018e-02 1.249114e-02 7.520520e-03 2.127907e-02 1.133599e-02 1.000000e-03 2.463974e-03 4.385493e-03 1.000000e-03 1.176110e-03 3.673666e-03 1.000000e-03 1.000000e-03 1.000000e-03 1.000000e-03
<GCONST> -6.067003e+01
<STATE> 4
<NUMMIXES> 2
<MIXTURE> 1 5.000000e-01
<MEAN> 16
 1.315589e-01 4.663073e-02 1.556597e+00 -1.711635e-01 1.766346e-02 1.458697e+00 2.543462e-03 1.053015e-02 8.187105e-03 6.969684e-03 6.483476e-03 6.365363e-03 9.992065e-02 1.089105e-01 8.283493e-02 8.846824e-02
<VARIANCE> 16
 4.189332e-02 4.745885e-02 2.892392e-02 7.520468e-03 5.705112e-03 1.591566e-02 1.000000e-03 1.420246e-03 1.976374e-03 1.000000e-03 1.000000e-03 1.387197e-03 1.000000e-03 1.000000e-03 1.000000e-03 1.000000e-03
<GCONST> -6.227273e+01
<MIXTURE> 2 5.000000e-01
<MEAN> 16
 4.968748e-02 -4.050948e-02 1.488569e+00 -2.058517e-01 -1.254942e-02 1.408234e+00 -1.010565e-02 -4.544313e-03 -9.595468e-03 -5.679428e-03 -6.165635e-03 -8.532674e-03 8.727154e-02 9.626134e-02 7.018583e-02 7.581913e-02
<VARIANCE> 16
 4.189332e-02 4.745885e-02 2.892392e-02 7.520468e-03 5.705112e-03 1.591566e-02 1.000000e-03 1.420246e-03 1.976374e-03 1.000000e-03 1.000000e-03 1.387197e-03 1.000000e-03 1.000000e-03 1.000000e-03 1.000000e-03
<GCONST> -6.227273e+01
<STATE> 5
<MEAN> 16
 -5.970506e-02 -5.908425e-02 1.737598e+00 -1.286474e-01 -1.458482e-01 1.713216e+00 1.912138e-02 -2.221702e-02 2.898759e-03 -5.144544e-03 -7.726963e-03 4.872394e-03 9.163337e-02 9.269607e-02 7.242197e-02 8.258341e-02
<VARIANCE> 16
 5.989295e-02 3.592165e-02 2.191750e-02 2.382785e-02 2.398795e-02 1.909266e-02 5.390610e-03 3.034886e-03 7.879826e-03 4.790663e-03 3.286832e-03 8.785365e-03 1.000000e-03 1.289829e-03 1.000000e-03 1.000000e-03
<GCONST> -5.101583e+01
<TRANSP> 6
 0.000000e+00 1.000000e+00 0.000000e+00 0.000000e+00 0.000000e+00 0.000000e+00
 0.000000e+00 8.796041e-01 1.203959e-01 0.000000e+00 0.000000e+00 0.000000e+00
 0.000000e+00 0.000000e+00 9.603398e-01 3.966017e-02 0.000000e+00 0.000000e+00
 0.000000e+00 0.000000e+00 0.000000e+00 9.664898e-01 3.351022e-02 0.000000e+00
 0.000000e+00 0.000000e+00 0.000000e+00 0.000000e+00 9.023186e-01 9.768138e-02
 0.000000e+00 0.000000e+00 0.000000e+00 0.000000e+00 0.000000e+00 0.000000e+00
<ENDHMM>
~h "house"
<BEGINHMM>
<NUMSTATES> 6
<STATE> 2
<NUMMIXES> 2
<MIXTURE> 1 5.000000e-01
<MEAN> 16
 3.190538e-01 -1.211755e-01 1.993899e+00 -2.667565e-01 1.067014e-02 1.933119e+00 1.205490e-02 -1.008058e-02 2.192103e-02 1.278548e-04 4.807808e-03 1.554898e-02 1.465836e-01 1.490006e-01 9.750928e-02 1.057554e-01
<VARIANCE> 16
 7.998871e-03 8.531761e-02 2.035095e-02 6.422039e-03 5.087374e-02 1.412776e-02 1.000000e-03 1.423515e-03 6.137270e-03 1.000000e-03 2.609305e-03 4.836126e-03 1.531275e-03 1.000000e-03 1.000000e-03 1.000000e-03
<GCONST> -5.801322e+01
<MIXTURE> 2 5.000000e-01
<MEAN> 16
 2.832792e-01 -2.380123e-01 1.936837e+00 -2.988115e-01 -7.955070e-02 1.885575e+00 -5.942117e-04 -2.517238e-02 -9.415258e-03 -1.252126e-02 -1.562474e-02 -1.226793e-02 1.309310e-01 1.363514e-01 8.486018e-02 9.310625e-02
<VARIANCE> 16
 7.998871e-03 8.531761e-02 2.035095e-02 6.422039e-03 5.087374e-02 1.412776e-02 1.000000e-03 1.423515e-03 6.137270e-03 1.000000e-03 2.609305e-03 4.836126e-03 1.531275e-03 1.000000e-03 1.000000e-03 1.000000e-03
<GCONST> -5.801322e+01
<STATE> 3
<NUMMIXES> 2
<MIXTURE> 1 5.000000e-01
<MEAN> 16
 3.132097e-01 -4.931717e-02 1.916582e+00 -3.046422e-01 5.224492e-02 1.788746e+00 8.333285e-03 1.141273e-02 1.254595e-02 6.169721e-03 3.856009e-03 1.090882e-02 1.193235e-01 1.253973e-01 9.126768e-02 1.086283e-01
<VARIANCE> 16
 2.883410e-02 5.844110e-02 1.542621e-02 3.010051e-03 6.027234e-03 1.368249e-02 1.501827e-03 2.660612e-03 5.416436e-03 1.000000e-03 1.000000e-03 3.873003e-03 1.000000e-03 1.000000e-03 1.000000e-03 1.000000e-03
<GCONST> -6.100934e+01
<MIXTURE> 2 5.000000e-01
<MEAN> 16
 2.452873e-01 -1.460156e-01 1.866902e+00 -3.265878e-01 2.119082e-02 1.741958e+00 -7.168079e-03 -9.219717e-03 -1.689263e-02 -6.479390e-03 -8.793103e-03 -1.398457e-02 1.066743e-01 1.127481e-01 7.861857e-02 9.597914e-02
<VARIANCE> 16
 2.883410e-02 5.844110e-02 1.542621e-02 3.010051e-03 6.027234e-03 1.368249e-02 1.501827e-03 2.660612e-03 5.416436e-03 1.000000e-03 1.000000e-03 3.873003e-03 1.000000e-03 1.000000e-03 1.000000e-03 1.000000e-03
<GCONST> -6.100934e+01
<STATE> 4
<NUMMIXES> 2
<MIXTURE> 1 5.000000e-01
<MEAN> 16
 2.422709e-01 -1.025671e-01 1.700056e+00 -2.755545e-01 -3.533722e-02 1.626230e+00 1.098842e-02 -1.079365e-03 1.253286e-02 7.753199e-03 2.879729e-04 1.102969e-02 1.000221e-01 9.647670e-02 8.333923e-02 9.590057e-02
<VARIANCE> 16
 5.079835e-02 3.532661e-02 2.424553e-02 7.648507e-03 2.452563e-02 2.495362e-02 1.358895e-03 1.457872e-03 3.318409e-03 1.000000e-03 1.000000e-03 2.624230e-03 1.000000e-03 1.000000e-03 1.000000e-03 1.000000e-03
<GCONST> -5.913815e+01
<MIXTURE> 2 5.000000e-01
<MEAN> 16
 1.521169e-01 -1.777486e-01 1.637772e+00 -3.105369e-01 -9.797986e-02 1.563044e+00 -3.756855e-03 -1.635220e-02 -1.050939e-02 -4.895912e-03 -1.236114e-02 -9.461207e-03 8.737302e-02 8.382760e-02 7.069013e-02 8.325146e-02
<VARIANCE> 16
 5.079835e-02 3.532661e-02 2.424553e-02 7.648507e-03 2.452563e-02 2.495362e-02 1.358895e-03 1.457872e-03 3.318409e-03 1.000000e-03 1.000000e-03 2.624230e-03 1.000000e-03 1.000000e-03 1.000000e-03 1.000000e-03
<GCONST> -5.913815e+01
<STATE> 5
<MEAN> 16
 5.841879e-01 -6.948098e-01 1.859813e+00 -1.985178e-01 -5.967025e-01 1.810269e+00 5.169406e-03 -5.783151e-03 1.409039e-03 2.650360e-03 -8.280506e-03 3.826269e-03 1.158987e-01 1.083222e-01 9.761418e-02 7.229659e-02
<VARIANCE> 16
 1.858789e-02 3.394444e-03 1.580465e-02 1.710013e-02 7.479222e-03 8.253082e-03 1.000000e-03 1.000000e-03 1.427913e-03 1.000000e-03 1.000000e-03 1.488602e-03 1.000000e-03 1.000000e-03 1.000000e-03 1.000000e-03
<GCONST> -6.649725e+01
<TRANSP> 6
 0.000000e+00 1.000000e+00 0.000000e+00 0.000000e+00 0.000000e+00 0.000000e+00
 0.000000e+00 9.228139e-01 7.718614e-02 0.000000e+00 0.000000e+00 0.000000e+00
 0.000000e+00 0.000000e+00 9.701158e-01 2.988427e-02 0.000000e+00 0.000000e+00
 0.000000e+00 0.000000e+00 0.000000e+00 9.753405e-01 2.465950e-02 0.000000e+00
 0.000000e+00 0.000000e+00 0.000000e+00 0.000000e+00 9.624981e-01 3.750192e-02
 0.000000e+00 0.000000e+00 0.000000e+00 0.000000e+00 0.000000e+00 0.000000e+00
<ENDHMM>
~h "bumps_into"
<BEGINHMM>
<NUMSTATES> 6
<STATE> 2
<NUMMIXES> 2
<MIXTURE> 1 5.000000e-01
<MEAN> 16
 4.320492e-01 -3.883327e-01 1.958255e+00 -3.221083e-01 -3.399943e-01 1.928144e+00 -3.885723e-03 3.451009e-02 1.915130e-02 5.256164e-03 4.089407e-02 1.451813e-02 9.920858e-02 9.533687e-02 8.981569e-02 8.642359e-02
<VARIANCE> 16
 1.420543e-02 1.809498e-02 4.465649e-02 1.668322e-02 1.592565e-02 4.497892e-02 1.311768e-03 2.528555e-03 7.037458e-03 1.304075e-03 2.796978e-03 6.761137e-03 1.000000e-03 1.000000e-03 1.000000e-03 1.000000e-03
<GCONST> -5.602578e+01
<MIXTURE> 2 5.000000e-01
<MEAN> 16
 3.843746e-01 -4.421397e-01 1.873727e+00 -3.737737e-01 -3.904731e-01 1.843311e+00 -1.837306e-02 1.439619e-02 -1.440452e-02 -9.188628e-03 1.973949e-02 -1.837232e-02 8.655947e-02 8.268777e-02 7.716659e-02 7.377447e-02
<VARIANCE> 16
 1.420543e-02 1.809498e-02 4.465649e-02 1.668322e-02 1.592565e-02 4.497892e-02 1.311768e-03 2.528555e-03 7.037458e-03 1.304075e-03 2.796978e-03 6.761137e-03 1.000000e-03 1.000000e-03 1.000000e-03 1.000000e-03
<GCONST> -5.602578e+01
<STATE> 3
<NUMMIXES> 2
<MIXTURE> 1 5.000000e-01
<MEAN> 16
 3.376944e-01 -1.691990e-01 1.846046e+00 -2.135760e-01 -1.126880e-01 1.788995e+00 -2.058791e-02 7.203358e-02 -3.081299e-03 2.005897e-02 8.305569e-02 -7.069111e-05 1.019679e-01 9.618202e-02 8.263111e-02 8.241740e-02
<VARIANCE> 16
 1.129815e-02 4.555356e-02 2.510453e-02 6.914488e-03 2.929156e-02 2.024698e-02 2.975699e-03 7.986560e-03 1.038471e-02 2.573577e-03 1.242595e-02 9.966357e-03 1.311537e-03 1.000000e-03 1.000000e-03 1.000000e-03
<GCONST> -5.178848e+01
<MIXTURE> 2 5.000000e-01
<MEAN> 16
 2.951773e-01 -2.545722e-01 1.782668e+00 -2.468374e-01 -1.811472e-01 1.732079e+00 -4.240789e-02 3.628656e-02 -4.384346e-02 -2.331994e-04 3.846699e-02 -4.000335e-02 8.748180e-02 8.353290e-02 6.998199e-02 6.976829e-02
<VARIANCE> 16
 1.129815e-02 4.555356e-02 2.510453e-02 6.914488e-03 2.929156e-02 2.024698e-02 2.975699e-03 7.986560e-03 1.038471e-02 2.573577e-03 1.242595e-02 9.966357e-03 1.311537e-03 1.000000e-03 1.000000e-03 1.000000e-03
<GCONST> -5.178848e+01
<STATE> 4
<NUMMIXES> 2
<MIXTURE> 1 5.000000e-01
<MEAN> 16
 1.700113e-01 6.260090e-03 1.713053e+00 -1.225475e-01 4.043612e-02 1.682762e+00 1.309613e-02 2.299735e-02 1.590710e-02 1.073104e-02 2.996217e-02 1.656602e-02 1.177136e-01 1.119756e-01 8.924769e-02 8.766590e-02
<VARIANCE> 16
 2.581916e-02 4.645615e-02 3.575781e-02 1.557678e-02 2.120575e-02 2.783126e-02 5.381518e-03 1.308482e-03 6.030982e-03 5.083679e-03 1.626995e-03 5.598940e-03 1.000000e-03 1.000000e-03 1.000000e-03 1.000000e-03
<GCONST> -5.374136e+01
<MIXTURE> 2 5.000000e-01
<MEAN> 16
 1.057379e-01 -7.995467e-02 1.637414e+00 -1.724703e-01 -1.781266e-02 1.616032e+00 -1.624740e-02 8.528170e-03 -1.515666e-02 -1.778893e-02 1.382775e-02 -1.336440e-02 1.050645e-01 9.932645e-02 7.659858e-02 7.501678e-02
<VARIANCE> 16
 2.581916e-02 4.645615e-02 3.575781e-02 1.557678e-02 2.120575e-02 2.783126e-02 5.381518e-03 1.308482e-03 6.030982e-03 5.083679e-03 1.626995e-03 5.598940e-03 1.000000e-03 1.000000e-03 1.000000e-03 1.000000e-03
<GCONST> -5.374136e+01
<STATE> 5
<MEAN> 16
 2.823977e-01 -2.622906e-01 1.853706e+00 -2.013460e-01 5.139995e-02 1.817164e+00 3.515344e-03 -7.935742e-03 5.131833e-03 -6.583263e-03 1.106122e-03 6.142542e-03 1.105317e-01 1.128851e-01 8.712686e-02 8.341007e-02
<VARIANCE> 16
 9.941476e-03 1.066873e-01 2.160675e-02 9.037297e-03 4.457802e-02 1.984287e-02 1.000000e-03 1.415114e-03 1.641108e-03 1.000000e-03 3.702091e-03 1.531745e-03 1.108038e-03 1.000000e-03 1.000000e-03 1.000000e-03
<GCONST> -5.941151e+01
<TRANSP> 6
 0.000000e+00 1.000000e+00 0.000000e+00 0.000000e+00 0.000000e+00 0.000000e+00
 0.000000e+00 8.577694e-01 1.422306e-01 0.000000e+00 0.000000e+00 0.000000e+00
 0.000000e+00 0.000000e+00 6.973559e-01 3.026441e-01 0.000000e+00 0.000000e+00
 0.000000e+00 0.000000e+00 0.000000e+00 7.736642e-01 2.263358e-01 0.000000e+00
 0.000000e+00 0.000000e+00 0.000000e+00 0.000000e+00 7.885998e-01 2.114002e-01
 0.000000e+00 0.000000e+00 0.000000e+00 0.000000e+00 0.000000e+00 0.000000e+00
<ENDHMM>
~h "goes_to"
<BEGINHMM>
<NUMSTATES> 6
<STATE> 2
<NUMMIXES> 2
<MIXTURE> 1 5.000000e-01
<MEAN> 16
 4.185106e-01 -3.969114e-01 1.926189e+00 -2.439281e-01 -1.787525e-01 1.883484e+00 -1.014325e-02 4.681195e-02 1.200364e-02 1.154251e-02 5.653561e-02 1.229176e-02 1.068771e-01 9.925167e-02 9.063096e-02 8.651231e-02
<VARIANCE> 16
 1.331383e-02 2.839891e-02 4.927367e-02 2.365568e-02 6.954577e-02 4.658566e-02 1.786047e-03 4.034298e-03 8.321941e-03 1.972358e-03 5.714734e-03 7.658202e-03 1.146253e-03 1.000000e-03 1.000000e-03 1.000000e-03
<GCONST> -5.135035e+01
<MIXTURE> 2 5.000000e-01
<MEAN> 16
 3.723564e-01 -4.643193e-01 1.837399e+00 -3.054497e-01 -2.842387e-01 1.797150e+00 -2.704791e-02 2.140550e-02 -2.448623e-02 -6.221981e-03 2.629727e-02 -2.271271e-02 9.333453e-02 8.660255e-02 7.798186e-02 7.386321e-02
<VARIANCE> 16
 1.331383e-02 2.839891e-02 4.927367e-02 2.365568e-02 6.954577e-02 4.658566e-02 1.786047e-03 4.034298e-03 8.321941e-03 1.972358e-03 5.714734e-03 7.658202e-03 1.146253e-03 1.000000e-03 1.000000e-03 1.000000e-03
<GCONST> -5.135035e+01
<STATE> 3
<NUMMIXES> 2
<MIXTURE> 1 5.000000e-01
<MEAN> 16
 2.787475e-01 -1.288890e-01 1.830315e+00 -2.514131e-01 -1.206910e-01 1.781687e+00 1.114419e-03 1.478053e-02 9.979226e-03 7.045578e-03 1.006392e-02 9.682758e-03 9.782222e-02 1.029247e-01 8.495212e-02 8.421630e-02
<VARIANCE> 16
 1.834030e-02 3.545834e-02 1.419632e-02 1.026831e-02 1.423293e-02 1.102532e-02 1.000000e-03 2.047758e-03 3.649721e-03 1.000000e-03 1.090401e-03 3.172096e-03 1.000000e-03 1.000000e-03 1.000000e-03 1.000000e-03
<GCONST> -6.135046e+01
<MIXTURE> 2 5.000000e-01
<MEAN> 16
 2.245769e-01 -2.042106e-01 1.782655e+00 -2.919461e-01 -1.684118e-01 1.739687e+00 -1.153469e-02 -3.320340e-03 -1.418594e-02 -5.603533e-03 -3.144570e-03 -1.284579e-02 8.517310e-02 9.027557e-02 7.230300e-02 7.156718e-02
<VARIANCE> 16
 1.834030e-02 3.545834e-02 1.419632e-02 1.026831e-02 1.423293e-02 1.102532e-02 1.000000e-03 2.047758e-03 3.649721e-03 1.000000e-03 1.090401e-03 3.172096e-03 1.000000e-03 1.000000e-03 1.000000e-03 1.000000e-03
<GCONST> -6.135046e+01
<STATE> 4
<NUMMIXES> 2
<MIXTURE> 1 5.000000e-01
<MEAN> 16
 1.894495e-01 -2.927075e-02 1.513859e+00 -2.699062e-01 2.891200e-02 1.445315e+00 3.039908e-03 8.631063e-03 6.236992e-03 6.050170e-03 7.108740e-03 5.397536e-03 9.623769e-02 1.050751e-01 8.442469e-02 8.977170e-02
<VARIANCE> 16
 4.253554e-02 3.303366e-02 2.327034e-02 8.334137e-03 5.245005e-03 1.485269e-02 1.000000e-03 1.194572e-03 1.483520e-03 1.000000e-03 1.000000e-03 1.131003e-03 1.000000e-03 1.000000e-03 1.000000e-03 1.000000e-03
<GCONST> -6.355188e+01
<MIXTURE> 2 5.000000e-01
<MEAN> 16
 1.069529e-01 -1.019714e-01 1.452841e+00 -3.064228e-01 -5.696062e-05 1.396567e+00 -9.609204e-03 -5.193969e-03 -9.169605e-03 -6.598942e-03 -5.540371e-03 -8.054620e-03 8.358857e-02 9.242602e-02 7.177557e-02 7.712260e-02
<VARIANCE> 16
 4.253554e-02 3.303366e-02 2.327034e-02 8.334137e-03 5.245005e-03 1.485269e-02 1.000000e-03 1.194572e-03 1.483520e-03 1.000000e-03 1.000000e-03 1.131003e-03 1.000000e-03 1.000000e-03 1.000000e-03 1.000000e-03
<GCONST> -6.355188e+01
<STATE> 5
<MEAN> 16
 2.244413e-01 -2.091641e-01 1.690353e+00 -2.760817e-01 -2.638457e-01 1.721939e+00 3.467662e-02 -2.330290e-02 1.564762e-02 -1.672621e-02 -2.064558e-02 1.995302e-02 9.268583e-02 9.767632e-02 7.685070e-02 7.551736e-02
<VARIANCE> 16
 4.078541e-02 3.557701e-02 5.359269e-02 2.450251e-02 8.831706e-02 3.682972e-02 8.389782e-03 4.372117e-03 1.160027e-02 5.831220e-03 5.134765e-03 1.035290e-02 1.000000e-03 1.063312e-03 1.000000e-03 1.000000e-03
<GCONST> -4.671939e+01
<TRANSP> 6
 0.000000e+00 1.000000e+00 0.000000e+00 0.000000e+00 0.000000e+00 0.000000e+00
 0.000000e+00 8.849450e-01 1.150550e-01 0.000000e+00 0.000000e+00 0.000000e+00
 0.000000e+00 0.000000e+00 9.408571e-01 5.914292e-02 0.000000e+00 0.000000e+00
 0.000000e+00 0.000000e+00 0.000000e+00 9.583003e-01 4.169968e-02 0.000000e+00
 0.000000e+00 0.000000e+00 0.000000e+00 0.000000e+00 7.718991e-01 2.281009e-01
 0.000000e+00 0.000000e+00 0.000000e+00 0.000000e+00 0.000000e+00 0.000000e+00
<ENDHMM>
