~o
<STREAMINFO> 1 16
<VECSIZE> 16<NULLD><USER><DIAGC>
~h "Monkey"
<BEGINHMM>
<NUMSTATES> 6
<STATE> 2
<MEAN> 16
 5.970589e-01 -7.121339e-01 1.855131e+00 -2.109282e-01 -6.180573e-01 1.826772e+00 5.970588e-01 -7.121339e-01 1.855131e+00 -2.109282e-01 -6.180573e-01 1.826772e+00 1.153598e-01 1.077764e-01 9.701531e-02 7.113820e-02
<VARIANCE> 16
 6.153165e-03 2.574708e-03 1.594600e-02 1.946716e-02 8.088363e-03 7.730452e-03 6.153165e-03 2.574709e-03 1.594601e-02 1.946716e-02 8.088367e-03 7.730454e-03 1.000000e-03 1.000000e-03 1.000000e-03 1.000000e-03
<GCONST> -5.584559e+01
<STATE> 3
<MEAN> 16
 4.767451e-01 -5.588291e-01 1.843277e+00 -1.820585e-01 -4.860187e-01 1.813130e+00 -9.834687e-03 1.241349e-02 -2.517059e-04 -1.528827e-04 1.276131e-02 -2.871460e-03 1.064713e-01 1.002329e-01 9.044278e-02 7.231256e-02
<VARIANCE> 16
 3.518560e-02 5.993360e-02 1.534799e-02 1.374864e-02 4.818687e-02 1.018351e-02 1.196292e-03 2.430598e-03 4.452614e-03 1.000000e-03 2.637684e-03 5.350316e-03 1.074969e-03 1.000000e-03 1.000000e-03 1.000000e-03
<GCONST> -5.663620e+01
<STATE> 4
<MEAN> 16
 4.375173e-01 -4.611396e-01 1.782045e+00 -2.294101e-01 -3.471882e-01 1.717411e+00 3.910437e-03 1.033253e-03 2.518663e-03 -4.728164e-03 3.972827e-03 2.821749e-04 1.131402e-01 1.100454e-01 9.756154e-02 7.923668e-02
<VARIANCE> 16
 4.730990e-02 9.808969e-02 2.651725e-02 2.991117e-02 1.037269e-01 3.526315e-02 2.067079e-03 1.000000e-03 1.999217e-03 2.638362e-03 1.000000e-03 1.868889e-03 1.000000e-03 1.000000e-03 1.000000e-03 1.000000e-03
<GCONST> -5.478043e+01
<STATE> 5
<MEAN> 16
 4.709162e-01 -6.726751e-01 1.886676e+00 -1.800917e-01 -4.543741e-01 1.825251e+00 -8.307315e-03 5.599719e-03 -4.213682e-05 -2.923171e-03 9.205983e-03 -1.321858e-03 1.194982e-01 1.112950e-01 9.034580e-02 7.484587e-02
<VARIANCE> 16
 2.329084e-02 4.811671e-03 1.055051e-02 1.452291e-02 9.556780e-02 6.975682e-03 1.000000e-03 1.000000e-03 1.912824e-03 1.000000e-03 1.692065e-03 1.899777e-03 1.000000e-03 1.000000e-03 1.000000e-03 1.000000e-03
<GCONST> -6.304852e+01
<TRANSP> 6
 0.000000e+00 1.000000e+00 0.000000e+00 0.000000e+00 0.000000e+00 0.000000e+00
 0.000000e+00 1.549824e-37 1.000000e+00 0.000000e+00 0.000000e+00 0.000000e+00
 0.000000e+00 0.000000e+00 6.276475e-01 3.723525e-01 0.000000e+00 0.000000e+00
 0.000000e+00 0.000000e+00 0.000000e+00 4.217854e-01 5.782146e-01 0.000000e+00
 0.000000e+00 0.000000e+00 0.000000e+00 0.000000e+00 9.226112e-01 7.738877e-02
 0.000000e+00 0.000000e+00 0.000000e+00 0.000000e+00 0.000000e+00 0.000000e+00
<ENDHMM>
~h "fence"
<BEGINHMM>
<NUMSTATES> 6
<STATE> 2
<MEAN> 16
 3.771081e-01 -3.194388e-01 1.937526e+00 -3.381085e-01 -2.113014e-01 1.815011e+00 4.978342e-04 -3.379583e-03 3.767126e-04 -1.156105e-03 -3.009826e-03 -2.060274e-03 1.002378e-01 1.466052e-01 9.147514e-02 8.855221e-02
<VARIANCE> 16
 1.361099e-02 1.671410e-02 2.133763e-02 3.664846e-03 1.473524e-02 1.646421e-02 1.000000e-03 1.115649e-03 3.789074e-03 1.000000e-03 1.000000e-03 2.850034e-03 1.398854e-03 1.000000e-03 1.000000e-03 1.000000e-03
<GCONST> -6.301569e+01
<STATE> 3
<MEAN> 16
 2.694406e-01 -8.915775e-02 1.841440e+00 -3.428259e-01 -1.333311e-01 1.792731e+00 -1.124405e-03 -8.037571e-04 -7.133652e-04 3.654515e-04 -1.057627e-03 -1.542886e-04 1.082042e-01 1.539390e-01 8.601469e-02 9.336446e-02
<VARIANCE> 16
 3.734625e-02 3.835267e-02 1.410926e-02 4.917484e-03 7.744837e-03 1.188542e-02 1.223087e-03 2.050366e-03 3.416212e-03 1.000000e-03 1.000000e-03 2.901571e-03 1.000000e-03 1.000000e-03 1.000000e-03 1.000000e-03
<GCONST> -6.187585e+01
<STATE> 4
<MEAN> 16
 1.477858e-01 -1.214039e-01 1.613581e+00 -3.379355e-01 -9.085029e-02 1.569342e+00 3.181289e-03 -6.093462e-03 3.743274e-04 1.027721e-03 -3.895898e-03 3.959683e-04 9.351934e-02 1.339493e-01 7.633752e-02 8.445162e-02
<VARIANCE> 16
 5.912533e-02 2.512797e-02 2.432572e-02 1.310212e-02 9.366473e-03 2.347934e-02 1.550616e-03 1.218691e-03 2.034533e-03 1.000000e-03 1.000000e-03 1.822895e-03 1.000000e-03 1.000000e-03 1.000000e-03 1.000000e-03
<GCONST> -6.070973e+01
<STATE> 5
<MEAN> 16
 5.742687e-01 -6.899272e-01 1.858173e+00 -1.898232e-01 -5.870695e-01 1.791672e+00 6.666688e-03 -8.133767e-03 3.083487e-03 3.705916e-03 -9.328194e-03 3.350852e-03 1.156718e-01 1.112419e-01 9.697922e-02 7.525355e-02
<VARIANCE> 16
 2.103845e-02 4.888559e-03 1.506973e-02 1.480366e-02 1.007175e-02 7.615811e-03 1.000000e-03 1.000000e-03 1.952389e-03 1.000000e-03 1.000000e-03 1.760237e-03 1.000000e-03 1.000000e-03 1.000000e-03 1.000000e-03
<GCONST> -6.550278e+01
<TRANSP> 6
 0.000000e+00 1.000000e+00 0.000000e+00 0.000000e+00 0.000000e+00 0.000000e+00
 0.000000e+00 9.300905e-01 6.990947e-02 0.000000e+00 0.000000e+00 0.000000e+00
 0.000000e+00 0.000000e+00 9.756671e-01 2.433288e-02 0.000000e+00 0.000000e+00
 0.000000e+00 0.000000e+00 0.000000e+00 9.739761e-01 2.602388e-02 0.000000e+00
 0.000000e+00 0.000000e+00 0.000000e+00 0.000000e+00 9.634269e-01 3.657310e-02
 0.000000e+00 0.000000e+00 0.000000e+00 0.000000e+00 0.000000e+00 0.000000e+00
<ENDHMM>
~h "Car"
<BEGINHMM>
<NUMSTATES> 6
<STATE> 2
<MEAN> 16
 5.990599e-01 -7.116907e-01 1.841771e+00 -2.187003e-01 -6.207082e-01 1.826178e+00 5.990599e-01 -7.116907e-01 1.841771e+00 -2.187003e-01 -6.207082e-01 1.826178e+00 1.144105e-01 1.049336e-01 9.861822e-02 7.399214e-02
<VARIANCE> 16
 5.549335e-03 2.272438e-03 1.463092e-02 1.891767e-02 9.345447e-03 8.381014e-03 5.549335e-03 2.272439e-03 1.463093e-02 1.891767e-02 9.345449e-03 8.381011e-03 1.000000e-03 1.000000e-03 1.000000e-03 1.000000e-03
<GCONST> -5.608081e+01
<STATE> 3
<MEAN> 16
 5.022951e-01 -5.580500e-01 1.839135e+00 -1.875307e-01 -4.666126e-01 1.821359e+00 -5.109903e-03 1.336723e-02 -2.052034e-03 -7.198649e-04 1.783699e-02 -6.147835e-03 1.210580e-01 1.044370e-01 9.870584e-02 7.726634e-02
<VARIANCE> 16
 3.671074e-02 8.942235e-02 1.320948e-02 1.666265e-02 9.474462e-02 1.304640e-02 2.807125e-03 2.845485e-03 4.472453e-03 2.497813e-03 4.359510e-03 4.901327e-03 1.000000e-03 1.000000e-03 1.000000e-03 1.000000e-03
<GCONST> -5.295470e+01
<STATE> 4
<MEAN> 16
 5.801747e-01 -6.455956e-01 1.805477e+00 -2.336173e-01 -4.749425e-01 1.759030e+00 -1.151661e-04 2.055313e-03 -1.097362e-04 -3.150235e-03 2.942926e-03 -1.660626e-03 1.146819e-01 1.068791e-01 1.039906e-01 7.614230e-02
<VARIANCE> 16
 8.666222e-03 3.255777e-02 1.652831e-02 2.042755e-02 6.605970e-02 1.730282e-02 1.000000e-03 1.000000e-03 1.000000e-03 1.000000e-03 1.000000e-03 1.287655e-03 1.000000e-03 1.000000e-03 1.000000e-03 1.000000e-03
<GCONST> -6.235940e+01
<STATE> 5
<MEAN> 16
 4.977530e-01 -6.677708e-01 1.858323e+00 -2.169637e-01 -5.708812e-01 1.821270e+00 -1.038380e-02 7.250573e-03 -4.183555e-04 -3.004187e-03 6.250980e-03 -3.038644e-03 1.169766e-01 1.084647e-01 9.690206e-02 7.348711e-02
<VARIANCE> 16
 2.077263e-02 5.333635e-03 1.391505e-02 1.606702e-02 3.275926e-02 7.500240e-03 1.000000e-03 1.000000e-03 1.655188e-03 1.000000e-03 1.000000e-03 1.461314e-03 1.000000e-03 1.000000e-03 1.000000e-03 1.000000e-03
<GCONST> -6.461327e+01
<TRANSP> 6
 0.000000e+00 1.000000e+00 0.000000e+00 0.000000e+00 0.000000e+00 0.000000e+00
 0.000000e+00 0.000000e+00 1.000000e+00 0.000000e+00 0.000000e+00 0.000000e+00
 0.000000e+00 0.000000e+00 5.664541e-01 4.335459e-01 0.000000e+00 0.000000e+00
 0.000000e+00 0.000000e+00 0.000000e+00 2.723673e-01 7.276326e-01 0.000000e+00
 0.000000e+00 0.000000e+00 0.000000e+00 0.000000e+00 9.013948e-01 9.860519e-02
 0.000000e+00 0.000000e+00 0.000000e+00 0.000000e+00 0.000000e+00 0.000000e+00
<ENDHMM>
~h "Man"
<BEGINHMM>
<NUMSTATES> 6
<STATE> 2
<MEAN> 16
 5.873427e-01 -7.041420e-01 1.846702e+00 -2.158627e-01 -6.154588e-01 1.818353e+00 5.873427e-01 -7.041420e-01 1.846702e+00 -2.158627e-01 -6.154588e-01 1.818353e+00 1.146403e-01 1.053031e-01 1.003749e-01 7.157945e-02
<VARIANCE> 16
 2.306374e-02 9.086655e-03 1.791535e-02 2.072751e-02 1.372117e-02 9.324224e-03 2.306373e-02 9.086661e-03 1.791536e-02 2.072751e-02 1.372117e-02 9.324228e-03 1.000000e-03 1.000000e-03 1.000000e-03 1.000000e-03
<GCONST> -4.889056e+01
<STATE> 3
<MEAN> 16
 6.735840e-02 -2.029183e-01 2.191865e+00 -5.877398e-01 -3.494729e-02 1.906829e+00 9.986096e-04 -7.407006e-04 1.949923e-04 4.487071e-04 -4.520122e-04 5.669406e-05 9.882251e-02 9.333240e-02 8.763871e-02 7.659290e-02
<VARIANCE> 16
 7.218736e-01 1.264102e-01 1.735086e-01 1.895694e-01 3.572998e-01 1.559863e-01 2.607464e+00 2.841906e-01 1.505530e-01 5.744447e-01 1.095648e+00 2.220436e-01 1.000000e-03 1.386132e-03 1.209912e-03 1.000000e-03
<GCONST> -1.056481e+01
<STATE> 4
<MEAN> 16
 4.773546e-01 -5.313020e-01 1.878562e+00 -1.628665e-01 -5.797803e-01 1.842558e+00 -4.361843e-03 9.081852e-03 5.396168e-04 -1.547335e-03 6.424942e-03 -1.877335e-03 1.050200e-01 9.696849e-02 9.315670e-02 7.142138e-02
<VARIANCE> 16
 4.243905e-02 8.007915e-02 1.808096e-02 1.914659e-02 2.124988e-02 1.193489e-02 1.416803e-03 3.393538e-03 4.170351e-03 1.446372e-03 3.732533e-03 3.823888e-03 1.000000e-03 1.000000e-03 1.000000e-03 1.000000e-03
<GCONST> -5.557848e+01
<STATE> 5
<MEAN> 16
 4.750126e-01 -6.723772e-01 1.878410e+00 -1.681702e-01 -4.591663e-01 1.825335e+00 -8.535048e-03 5.797601e-03 -1.653443e-04 -2.831454e-03 9.874173e-03 -1.502175e-03 1.198050e-01 1.081597e-01 9.424458e-02 7.521746e-02
<VARIANCE> 16
 2.354237e-02 4.289709e-03 1.177041e-02 1.412140e-02 8.453734e-02 8.516596e-03 1.000000e-03 1.000000e-03 1.772631e-03 1.000000e-03 1.780571e-03 1.724563e-03 1.000000e-03 1.000000e-03 1.000000e-03 1.000000e-03
<GCONST> -6.311618e+01
<TRANSP> 6
 0.000000e+00 1.000000e+00 0.000000e+00 0.000000e+00 0.000000e+00 0.000000e+00
 0.000000e+00 1.059639e-39 1.000000e+00 0.000000e+00 0.000000e+00 0.000000e+00
 0.000000e+00 0.000000e+00 8.591731e-01 1.408269e-01 0.000000e+00 0.000000e+00
 0.000000e+00 0.000000e+00 0.000000e+00 5.360805e-01 4.639195e-01 0.000000e+00
 0.000000e+00 0.000000e+00 0.000000e+00 0.000000e+00 9.264732e-01 7.352677e-02
 0.000000e+00 0.000000e+00 0.000000e+00 0.000000e+00 0.000000e+00 0.000000e+00
<ENDHMM>
~h "car"
<BEGINHMM>
<NUMSTATES> 6
<STATE> 2
<MEAN> 16
 3.291790e-01 -4.442349e-01 2.044282e+00 -2.838664e-01 -1.365755e-02 1.868480e+00 3.686118e-03 -4.596008e-03 5.058728e-03 -7.619782e-04 -7.235933e-03 2.227567e-04 9.581277e-02 1.205874e-01 8.980250e-02 8.527547e-02
<VARIANCE> 16
 1.696119e-02 1.201222e-02 3.047031e-02 4.706772e-03 3.592588e-02 1.346792e-02 1.449288e-03 1.265665e-03 3.368387e-03 1.000000e-03 1.000000e-03 1.459867e-03 1.000000e-03 1.000000e-03 1.000000e-03 1.000000e-03
<GCONST> -6.245424e+01
<STATE> 3
<MEAN> 16
 3.005297e-01 -3.278225e-02 1.897750e+00 -3.078372e-01 -2.331301e-02 1.858603e+00 3.426363e-03 -1.328353e-03 -1.167018e-03 -3.336057e-04 -3.471488e-03 -1.077331e-04 1.074044e-01 1.223152e-01 8.564110e-02 8.168884e-02
<VARIANCE> 16
 3.467437e-02 4.227775e-02 1.522126e-02 6.023241e-03 1.852578e-02 1.495296e-02 1.617644e-03 2.781041e-03 4.357569e-03 1.000000e-03 1.000000e-03 3.473708e-03 1.000000e-03 1.000000e-03 1.000000e-03 1.000000e-03
<GCONST> -5.946447e+01
<STATE> 4
<MEAN> 16
 2.047196e-01 -5.539959e-02 1.635371e+00 -3.654181e-01 -3.441521e-02 1.587048e+00 4.614706e-04 -5.639827e-03 -1.295283e-04 1.438624e-03 -4.555120e-03 -4.000544e-04 9.056679e-02 1.110856e-01 7.140806e-02 8.098093e-02
<VARIANCE> 16
 3.414515e-02 3.269595e-02 2.434823e-02 5.750116e-03 1.458270e-02 1.886983e-02 1.000000e-03 1.456747e-03 2.128768e-03 1.000000e-03 1.000000e-03 1.739146e-03 1.000000e-03 1.000000e-03 1.000000e-03 1.000000e-03
<GCONST> -6.185596e+01
<STATE> 5
<MEAN> 16
 5.800027e-01 -6.924264e-01 1.856121e+00 -1.943952e-01 -6.023476e-01 1.813622e+00 4.813126e-03 -6.961259e-03 1.942162e-03 3.841328e-03 -8.194625e-03 2.841998e-03 1.162746e-01 1.072097e-01 9.731634e-02 7.484396e-02
<VARIANCE> 16
 1.591950e-02 3.493669e-03 1.552460e-02 1.801875e-02 5.967367e-03 7.150831e-03 1.000000e-03 1.000000e-03 1.851683e-03 1.000000e-03 1.000000e-03 1.843030e-03 1.000000e-03 1.000000e-03 1.000000e-03 1.000000e-03
<GCONST> -6.648468e+01
<TRANSP> 6
 0.000000e+00 1.000000e+00 0.000000e+00 0.000000e+00 0.000000e+00 0.000000e+00
 0.000000e+00 8.707313e-01 1.292687e-01 0.000000e+00 0.000000e+00 0.000000e+00
 0.000000e+00 0.000000e+00 9.628676e-01 3.713234e-02 0.000000e+00 0.000000e+00
 0.000000e+00 0.000000e+00 0.000000e+00 9.601093e-01 3.989074e-02 0.000000e+00
 0.000000e+00 0.000000e+00 0.000000e+00 0.000000e+00 9.603337e-01 3.966630e-02
 0.000000e+00 0.000000e+00 0.000000e+00 0.000000e+00 0.000000e+00 0.000000e+00
<ENDHMM>
~h "weaves_and_bumps_into"
<BEGINHMM>
<NUMSTATES> 6
<STATE> 2
<MEAN> 16
 3.881069e-01 -3.939650e-01 1.918504e+00 -3.350028e-01 -3.030515e-01 1.864245e+00 -1.372222e-02 2.632947e-02 -3.704425e-03 1.765927e-05 3.206020e-02 -5.843675e-03 9.185056e-02 9.098531e-02 8.262136e-02 8.137135e-02
<VARIANCE> 16
 1.193615e-02 1.693175e-02 4.384547e-02 1.187540e-02 2.050493e-02 4.060076e-02 1.533602e-03 3.177773e-03 8.702479e-03 1.350816e-03 3.972430e-03 7.662221e-03 1.000000e-03 1.000000e-03 1.000000e-03 1.000000e-03
<GCONST> -5.536591e+01
<STATE> 3
<MEAN> 16
 2.388814e-01 -1.229458e-01 1.801328e+00 -2.954655e-01 -1.020518e-01 1.727795e+00 -2.404802e-03 4.664718e-03 -1.848854e-03 -6.773455e-04 3.065243e-03 -9.227097e-04 9.591728e-02 9.964923e-02 8.156766e-02 7.971251e-02
<VARIANCE> 16
 1.482877e-02 3.407764e-02 1.219724e-02 7.768907e-03 1.743714e-02 1.078108e-02 1.111324e-03 2.215594e-03 4.111439e-03 1.000000e-03 1.195427e-03 3.495272e-03 1.000000e-03 1.000000e-03 1.000000e-03 1.000000e-03
<GCONST> -6.136035e+01
<STATE> 4
<MEAN> 16
 2.195363e-01 -5.317010e-02 1.478486e+00 -3.310505e-01 2.489174e-02 1.440082e+00 1.521392e-03 -1.103645e-03 -1.071919e-03 -1.021491e-03 3.276111e-04 -1.042463e-03 9.214485e-02 1.077117e-01 8.137097e-02 8.711002e-02
<VARIANCE> 16
 2.441514e-02 2.861914e-02 3.020760e-02 5.529786e-03 6.291337e-03 2.027733e-02 1.077669e-03 1.218949e-03 1.776993e-03 1.000000e-03 1.000000e-03 1.205273e-03 1.000000e-03 1.000000e-03 1.000000e-03 1.000000e-03
<GCONST> -6.356744e+01
<STATE> 5
<MEAN> 16
 3.911386e-01 -3.878462e-01 1.784950e+00 -2.990663e-01 -2.995323e-02 1.709805e+00 1.279917e-02 -2.984248e-02 2.840774e-02 -4.806303e-03 -1.122481e-02 1.889365e-02 1.099481e-01 1.072958e-01 8.309231e-02 8.684226e-02
<VARIANCE> 16
 1.726701e-02 4.359997e-02 3.660408e-02 1.806985e-02 6.880793e-02 3.655911e-02 2.315767e-03 2.656529e-03 1.003987e-02 1.000000e-03 5.562746e-03 6.844871e-03 1.185894e-03 1.000000e-03 1.000000e-03 1.000000e-03
<GCONST> -5.223613e+01
<TRANSP> 6
 0.000000e+00 1.000000e+00 0.000000e+00 0.000000e+00 0.000000e+00 0.000000e+00
 0.000000e+00 8.909051e-01 1.090949e-01 0.000000e+00 0.000000e+00 0.000000e+00
 0.000000e+00 0.000000e+00 9.556804e-01 4.431957e-02 0.000000e+00 0.000000e+00
 0.000000e+00 0.000000e+00 0.000000e+00 9.625446e-01 3.745540e-02 0.000000e+00
 0.000000e+00 0.000000e+00 0.000000e+00 0.000000e+00 7.317482e-01 2.682518e-01
 0.000000e+00 0.000000e+00 0.000000e+00 0.000000e+00 0.000000e+00 0.000000e+00
<ENDHMM>
~h "man"
<BEGINHMM>
<NUMSTATES> 6
<STATE> 2
<MEAN> 16
 3.833309e-01 -5.987576e-01 1.844230e+00 -3.465032e-01 -1.251628e-01 1.731844e+00 -1.173643e-03 6.006645e-03 -2.927393e-03 -8.164196e-03 -4.393289e-03 -4.321031e-03 1.183629e-01 7.991214e-02 8.696686e-02 9.443757e-02
<VARIANCE> 16
 1.562696e-02 8.431719e-03 2.553362e-02 1.662410e-02 7.814422e-03 3.749404e-02 1.000000e-03 1.000000e-03 2.924742e-03 1.000000e-03 1.000000e-03 1.532093e-03 1.000000e-03 1.000000e-03 1.000000e-03 1.000000e-03
<GCONST> -6.300621e+01
<STATE> 3
<MEAN> 16
 1.922570e-01 -7.343897e-02 1.847931e+00 -3.665109e-01 -1.479147e-01 1.862128e+00 -8.943104e-04 2.540399e-03 -2.003675e-03 1.685536e-03 -1.321737e-03 -7.143657e-04 1.009374e-01 8.807915e-02 7.860968e-02 9.410317e-02
<VARIANCE> 16
 4.517746e-02 3.279473e-02 1.647868e-02 8.831655e-03 6.470594e-03 1.985170e-02 1.728357e-03 2.885971e-03 4.169372e-03 1.000000e-03 1.000000e-03 3.644308e-03 1.000000e-03 1.000000e-03 1.000000e-03 1.000000e-03
<GCONST> -5.965326e+01
<STATE> 4
<MEAN> 16
 2.006121e-01 -5.691418e-02 1.538132e+00 -3.297653e-01 -6.366168e-02 1.520244e+00 2.970973e-03 -3.509862e-03 5.646302e-05 7.560886e-04 -4.904939e-03 -7.640695e-05 9.403548e-02 7.166227e-02 7.764437e-02 8.958535e-02
<VARIANCE> 16
 4.553815e-02 3.496702e-02 2.383355e-02 1.335002e-02 1.079759e-02 1.399794e-02 1.151438e-03 1.413032e-03 1.634916e-03 1.000000e-03 1.000000e-03 1.275081e-03 1.000000e-03 1.000000e-03 1.000000e-03 1.000000e-03
<GCONST> -6.174290e+01
<STATE> 5
<MEAN> 16
 5.736940e-01 -6.837519e-01 1.850629e+00 -1.947625e-01 -5.888977e-01 1.806471e+00 7.086094e-03 -9.325332e-03 3.627941e-03 2.828573e-03 -1.048478e-02 3.664034e-03 1.162079e-01 1.059273e-01 9.448700e-02 7.537945e-02
<VARIANCE> 16
 2.001934e-02 5.108979e-03 1.628421e-02 1.737647e-02 8.673508e-03 8.965544e-03 1.000000e-03 1.000000e-03 2.686145e-03 1.000000e-03 1.143967e-03 2.103281e-03 1.000000e-03 1.000000e-03 1.000000e-03 1.000000e-03
<GCONST> -6.462527e+01
<TRANSP> 6
 0.000000e+00 1.000000e+00 0.000000e+00 0.000000e+00 0.000000e+00 0.000000e+00
 0.000000e+00 9.341336e-01 6.586637e-02 0.000000e+00 0.000000e+00 0.000000e+00
 0.000000e+00 0.000000e+00 9.725400e-01 2.746000e-02 0.000000e+00 0.000000e+00
 0.000000e+00 0.000000e+00 0.000000e+00 9.580196e-01 4.198046e-02 0.000000e+00
 0.000000e+00 0.000000e+00 0.000000e+00 0.000000e+00 9.604675e-01 3.953248e-02
 0.000000e+00 0.000000e+00 0.000000e+00 0.000000e+00 0.000000e+00 0.000000e+00
<ENDHMM>
~h "monkey"
<BEGINHMM>
<NUMSTATES> 6
<STATE> 2
<MEAN> 16
 3.544280e-01 -4.530238e-01 2.100196e+00 -2.974394e-01 -5.408766e-02 1.898504e+00 7.643141e-04 -9.536074e-04 4.470554e-04 1.250619e-03 -3.579990e-03 -1.370276e-03 1.024495e-01 1.067251e-01 8.937823e-02 7.520948e-02
<VARIANCE> 16
 1.020907e-02 7.523278e-03 2.203162e-02 7.143485e-03 2.730565e-02 1.874578e-02 1.000000e-03 1.000000e-03 2.092150e-03 1.000000e-03 1.000000e-03 1.460467e-03 1.412654e-03 1.000000e-03 1.000000e-03 1.000000e-03
<GCONST> -6.401762e+01
<STATE> 3
<MEAN> 16
 2.325570e-01 -5.969539e-02 1.892759e+00 -2.895225e-01 -7.529115e-02 1.874684e+00 1.092094e-03 -1.448588e-03 -2.660950e-03 1.130949e-03 -3.075516e-03 -8.587288e-04 1.052559e-01 1.059749e-01 8.457596e-02 7.373068e-02
<VARIANCE> 16
 4.316505e-02 3.597460e-02 1.611113e-02 9.651231e-03 1.073301e-02 1.567909e-02 1.513709e-03 2.473423e-03 4.096107e-03 1.000000e-03 1.000000e-03 3.546024e-03 1.000000e-03 1.000000e-03 1.000000e-03 1.000000e-03
<GCONST> -5.960193e+01
<STATE> 4
<MEAN> 16
 2.491290e-01 -1.161907e-01 1.554052e+00 -2.768178e-01 -2.278666e-03 1.508112e+00 4.470102e-03 -6.261588e-03 -9.589437e-04 6.824174e-04 -7.143578e-03 -1.456389e-03 9.380605e-02 9.573764e-02 8.135469e-02 6.718102e-02
<VARIANCE> 16
 3.405081e-02 5.363424e-02 2.711584e-02 4.357526e-03 2.272023e-02 1.556426e-02 1.067659e-03 1.618288e-03 1.623069e-03 1.000000e-03 1.000000e-03 1.211819e-03 1.000000e-03 1.000000e-03 1.000000e-03 1.000000e-03
<GCONST> -6.174448e+01
<STATE> 5
<MEAN> 16
 5.778899e-01 -6.915612e-01 1.853185e+00 -1.965128e-01 -6.037026e-01 1.806009e+00 5.231756e-03 -6.726490e-03 2.267412e-03 2.111374e-03 -7.852237e-03 2.425519e-03 1.148772e-01 1.086056e-01 9.566931e-02 7.421674e-02
<VARIANCE> 16
 1.554825e-02 3.688023e-03 1.649351e-02 1.778424e-02 6.391196e-03 6.620420e-03 1.000000e-03 1.000000e-03 1.831953e-03 1.000000e-03 1.000000e-03 1.731014e-03 1.000000e-03 1.000000e-03 1.000000e-03 1.000000e-03
<GCONST> -6.648856e+01
<TRANSP> 6
 0.000000e+00 1.000000e+00 0.000000e+00 0.000000e+00 0.000000e+00 0.000000e+00
 0.000000e+00 9.171309e-01 8.286907e-02 0.000000e+00 0.000000e+00 0.000000e+00
 0.000000e+00 0.000000e+00 9.734553e-01 2.654472e-02 0.000000e+00 0.000000e+00
 0.000000e+00 0.000000e+00 0.000000e+00 9.195737e-01 8.042632e-02 0.000000e+00
 0.000000e+00 0.000000e+00 0.000000e+00 0.000000e+00 9.620502e-01 3.794980e-02
 0.000000e+00 0.000000e+00 0.000000e+00 0.000000e+00 0.000000e+00 0.000000e+00
<ENDHMM>
~h "bumps_into_each_other"
<BEGINHMM>
<NUMSTATES> 6
<STATE> 2
<MEAN> 16
 4.216110e-01 -5.132131e-01 1.921684e+00 -2.850454e-01 -1.772507e-01 1.852742e+00 -7.018982e-03 1.239951e-02 4.508146e-03 -2.238325e-03 2.980064e-02 1.983321e-03 1.090541e-01 9.591424e-02 8.980754e-02 8.198710e-02
<VARIANCE> 16
 1.269454e-02 2.236070e-02 3.322129e-02 2.803464e-02 8.467714e-02 4.269141e-02 1.000000e-03 1.229209e-03 5.084300e-03 1.209235e-03 4.620370e-03 4.771965e-03 1.283852e-03 1.000000e-03 1.000000e-03 1.000000e-03
<GCONST> -5.507449e+01
<STATE> 3
<MEAN> 16
 3.128686e-01 -1.678877e-01 1.874207e+00 -2.556468e-01 -1.293252e-01 1.826417e+00 -1.946347e-03 5.942700e-03 -3.081417e-03 -4.959366e-04 3.989419e-03 -2.571244e-03 8.716596e-02 9.433221e-02 8.247410e-02 7.781930e-02
<VARIANCE> 16
 1.083266e-02 3.509081e-02 1.598543e-02 8.270995e-03 2.188049e-02 1.210768e-02 1.309817e-03 3.480067e-03 6.140518e-03 1.000000e-03 2.161082e-03 5.433739e-03 1.000000e-03 1.000000e-03 1.000000e-03 1.000000e-03
<GCONST> -5.891860e+01
<STATE> 4
<MEAN> 16
 2.699526e-01 -3.663966e-02 1.571909e+00 -3.329725e-01 4.779992e-02 1.528858e+00 6.831784e-04 1.273169e-03 -2.013098e-03 -9.501922e-04 1.215053e-04 -1.233189e-03 8.751689e-02 1.052484e-01 7.734302e-02 7.987333e-02
<VARIANCE> 16
 1.443756e-02 3.263302e-02 2.477682e-02 1.063756e-02 7.900662e-03 1.516737e-02 1.000000e-03 1.436206e-03 1.599306e-03 1.000000e-03 1.000000e-03 1.265939e-03 1.000000e-03 1.000000e-03 1.000000e-03 1.000000e-03
<GCONST> -6.353512e+01
<STATE> 5
<MEAN> 16
 4.324003e-01 -3.233958e-01 1.743312e+00 -3.504653e-01 -1.865239e-01 1.698054e+00 1.877558e-02 -5.054527e-02 3.616094e-02 -1.764615e-03 -4.825404e-02 2.680381e-02 8.759576e-02 9.054173e-02 7.534104e-02 7.560512e-02
<VARIANCE> 16
 1.835321e-02 2.602188e-02 4.084961e-02 1.439815e-02 3.530746e-02 3.381518e-02 1.000000e-03 1.604729e-03 6.135966e-03 1.000000e-03 2.466745e-03 5.851518e-03 1.000000e-03 1.000000e-03 1.000000e-03 1.000000e-03
<GCONST> -5.653059e+01
<TRANSP> 6
 0.000000e+00 1.000000e+00 0.000000e+00 0.000000e+00 0.000000e+00 0.000000e+00
 0.000000e+00 9.120110e-01 8.798900e-02 0.000000e+00 0.000000e+00 0.000000e+00
 0.000000e+00 0.000000e+00 9.641419e-01 3.585809e-02 0.000000e+00 0.000000e+00
 0.000000e+00 0.000000e+00 0.000000e+00 9.586154e-01 4.138463e-02 0.000000e+00
 0.000000e+00 0.000000e+00 0.000000e+00 0.000000e+00 5.914453e-01 4.085548e-01
 0.000000e+00 0.000000e+00 0.000000e+00 0.000000e+00 0.000000e+00 0.000000e+00
<ENDHMM>
~h "jumps_on"
<BEGINHMM>
<NUMSTATES> 6
<STATE> 2
<MEAN> 16
 4.007555e-01 -4.705811e-01 1.937737e+00 -2.950116e-01 -2.640837e-01 1.873900e+00 -1.165601e-02 2.281141e-02 -2.129355e-03 1.722769e-03 3.633383e-02 -4.891529e-03 1.047235e-01 9.474511e-02 8.741077e-02 8.101585e-02
<VARIANCE> 16
 1.170732e-02 1.528492e-02 4.640388e-02 1.669984e-02 6.118928e-02 4.877515e-02 1.225659e-03 2.619386e-03 6.336594e-03 1.110294e-03 4.704526e-03 5.942629e-03 1.001941e-03 1.000000e-03 1.000000e-03 1.000000e-03
<GCONST> -5.482700e+01
<STATE> 3
<MEAN> 16
 2.655817e-01 -1.116686e-01 1.837137e+00 -2.588909e-01 -8.962778e-02 1.742824e+00 -6.281105e-03 1.189789e-02 -3.344755e-03 9.332457e-04 3.846486e-03 -1.685231e-03 9.786549e-02 1.040137e-01 8.104423e-02 8.230305e-02
<VARIANCE> 16
 1.355489e-02 4.900692e-02 1.246618e-02 8.005478e-03 2.142275e-02 1.289484e-02 1.153334e-03 3.054631e-03 4.792505e-03 1.000000e-03 1.387548e-03 3.969083e-03 1.005865e-03 1.000000e-03 1.000000e-03 1.000000e-03
<GCONST> -5.985663e+01
<STATE> 4
<MEAN> 16
 4.402108e-02 2.076909e-02 1.546620e+00 -1.752025e-01 -8.594727e-03 1.468120e+00 -4.572074e-03 1.333912e-03 -3.779002e-04 1.229925e-03 3.043367e-04 -8.495075e-04 9.241807e-02 1.016013e-01 7.464673e-02 8.001692e-02
<VARIANCE> 16
 4.847127e-02 3.959790e-02 3.232164e-02 7.889007e-03 6.541339e-03 2.246986e-02 1.000975e-03 1.479085e-03 2.124639e-03 1.000000e-03 1.000000e-03 1.529067e-03 1.000000e-03 1.000000e-03 1.000000e-03 1.000000e-03
<GCONST> -6.145613e+01
<STATE> 5
<MEAN> 16
 3.895488e-02 -1.319028e-01 1.731374e+00 -1.546033e-01 -1.982938e-01 1.718874e+00 3.855592e-02 -3.550347e-02 5.429084e-03 -1.157733e-02 -1.891456e-02 1.076018e-02 9.110834e-02 9.117303e-02 7.338709e-02 8.327456e-02
<VARIANCE> 16
 6.725686e-02 3.796249e-02 2.879437e-02 2.739259e-02 2.720813e-02 2.434367e-02 5.890890e-03 3.815785e-03 1.032575e-02 5.905625e-03 4.126476e-03 1.114014e-02 1.000000e-03 1.523376e-03 1.000000e-03 1.000000e-03
<GCONST> -4.863469e+01
<TRANSP> 6
 0.000000e+00 1.000000e+00 0.000000e+00 0.000000e+00 0.000000e+00 0.000000e+00
 0.000000e+00 8.802637e-01 1.197363e-01 0.000000e+00 0.000000e+00 0.000000e+00
 0.000000e+00 0.000000e+00 9.631754e-01 3.682467e-02 0.000000e+00 0.000000e+00
 0.000000e+00 0.000000e+00 0.000000e+00 9.677993e-01 3.220069e-02 0.000000e+00
 0.000000e+00 0.000000e+00 0.000000e+00 0.000000e+00 8.603992e-01 1.396008e-01
 0.000000e+00 0.000000e+00 0.000000e+00 0.000000e+00 0.000000e+00 0.000000e+00
<ENDHMM>
~h "house"
<BEGINHMM>
<NUMSTATES> 6
<STATE> 2
<MEAN> 16
 3.420248e-01 -2.888890e-01 1.972728e+00 -3.124332e-01 -1.638308e-01 1.911319e+00 2.813972e-03 -2.096640e-02 4.247367e-03 -3.041493e-03 -2.928833e-03 -8.574132e-04 1.316732e-01 1.356116e-01 9.056351e-02 9.581423e-02
<VARIANCE> 16
 8.572237e-03 4.978777e-02 2.379190e-02 3.837183e-03 4.223218e-02 1.940013e-02 1.000000e-03 1.185520e-03 7.230015e-03 1.000000e-03 2.700384e-03 5.098931e-03 2.029572e-03 1.149698e-03 1.000000e-03 1.000000e-03
<GCONST> -5.822104e+01
<STATE> 3
<MEAN> 16
 2.827573e-01 -1.261332e-01 1.899117e+00 -3.044056e-01 4.479128e-02 1.792272e+00 4.250685e-04 4.110537e-04 -1.512099e-03 3.696693e-04 -2.951260e-03 -8.779633e-04 1.121685e-01 1.205247e-01 8.582961e-02 1.041614e-01
<VARIANCE> 16
 3.100919e-02 6.851245e-02 1.567598e-02 2.965790e-03 9.254142e-03 1.187185e-02 1.494276e-03 2.692632e-03 5.514631e-03 1.000000e-03 1.000000e-03 4.059698e-03 1.000000e-03 1.000000e-03 1.000000e-03 1.000000e-03
<GCONST> -6.041757e+01
<STATE> 4
<MEAN> 16
 2.089027e-01 -1.474599e-01 1.652698e+00 -2.787690e-01 -6.431248e-02 1.583729e+00 4.531120e-03 -6.927872e-03 7.596048e-04 1.176487e-03 -4.804725e-03 1.274039e-04 9.237697e-02 8.554016e-02 7.810001e-02 8.987587e-02
<VARIANCE> 16
 4.379223e-02 3.635672e-02 2.478971e-02 7.680112e-03 2.819367e-02 2.786805e-02 1.209395e-03 1.258424e-03 2.968106e-03 1.000000e-03 1.000000e-03 2.456077e-03 1.000000e-03 1.000000e-03 1.000000e-03 1.000000e-03
<GCONST> -5.942311e+01
<STATE> 5
<MEAN> 16
 5.910919e-01 -6.965033e-01 1.860346e+00 -1.973300e-01 -5.951641e-01 1.808733e+00 5.012463e-03 -5.612080e-03 1.314749e-03 2.621742e-03 -7.911609e-03 3.490286e-03 1.159072e-01 1.081854e-01 9.787359e-02 7.218501e-02
<VARIANCE> 16
 1.600709e-02 3.255589e-03 1.591910e-02 1.684604e-02 8.104783e-03 8.229190e-03 1.000000e-03 1.000000e-03 1.389102e-03 1.000000e-03 1.000000e-03 1.475746e-03 1.000000e-03 1.000000e-03 1.000000e-03 1.000000e-03
<GCONST> -6.665505e+01
<TRANSP> 6
 0.000000e+00 1.000000e+00 0.000000e+00 0.000000e+00 0.000000e+00 0.000000e+00
 0.000000e+00 8.843296e-01 1.156704e-01 0.000000e+00 0.000000e+00 0.000000e+00
 0.000000e+00 0.000000e+00 9.664636e-01 3.353646e-02 0.000000e+00 0.000000e+00
 0.000000e+00 0.000000e+00 0.000000e+00 9.696656e-01 3.033434e-02 0.000000e+00
 0.000000e+00 0.000000e+00 0.000000e+00 0.000000e+00 9.619245e-01 3.807553e-02
 0.000000e+00 0.000000e+00 0.000000e+00 0.000000e+00 0.000000e+00 0.000000e+00
<ENDHMM>
~h "bumps_into"
<BEGINHMM>
<NUMSTATES> 6
<STATE> 2
<MEAN> 16
 4.060842e-01 -3.880835e-01 1.887358e+00 -3.244710e-01 -3.419841e-01 1.853266e+00 -1.377674e-02 3.045458e-02 8.445705e-05 -1.610162e-03 3.473660e-02 -2.462619e-03 9.248799e-02 8.916608e-02 8.178572e-02 7.904652e-02
<VARIANCE> 16
 1.231943e-02 2.319949e-02 3.802356e-02 1.746465e-02 1.961863e-02 4.108288e-02 1.377037e-03 3.286559e-03 7.278108e-03 1.317351e-03 3.597983e-03 7.007530e-03 1.000000e-03 1.000000e-03 1.000000e-03 1.000000e-03
<GCONST> -5.527467e+01
<STATE> 3
<MEAN> 16
 3.031715e-01 -2.327972e-01 1.832370e+00 -2.235277e-01 -1.351053e-01 1.774469e+00 -4.044891e-02 6.090815e-02 -3.273979e-02 1.554227e-02 8.458754e-02 -3.050322e-02 1.062218e-01 9.784951e-02 8.151089e-02 7.744899e-02
<VARIANCE> 16
 1.700119e-02 5.330898e-02 3.098319e-02 1.129202e-02 3.271936e-02 2.880775e-02 3.809790e-03 8.907423e-03 1.494753e-02 5.117567e-03 1.600434e-02 1.532797e-02 1.299877e-03 1.000000e-03 1.000000e-03 1.000000e-03
<GCONST> -4.797602e+01
<STATE> 4
<MEAN> 16
 1.753581e-01 -1.478209e-02 1.707659e+00 -1.707022e-01 2.675835e-02 1.691268e+00 1.854655e-03 7.717986e-03 2.318943e-03 -5.222148e-03 1.515542e-02 3.808152e-03 1.166337e-01 1.138972e-01 8.457384e-02 8.036557e-02
<VARIANCE> 16
 2.529604e-02 4.865924e-02 3.337559e-02 1.529366e-02 2.623689e-02 2.956534e-02 4.227615e-03 2.076221e-03 4.955342e-03 3.720700e-03 2.942771e-03 4.801987e-03 1.000000e-03 1.000000e-03 1.000000e-03 1.000000e-03
<GCONST> -5.337859e+01
<STATE> 5
<MEAN> 16
 3.438960e-01 -4.530844e-01 1.863067e+00 -1.707233e-01 8.275173e-02 1.821929e+00 3.517516e-03 -6.298949e-03 4.175606e-03 -6.952759e-03 -7.220212e-03 6.524031e-03 1.146515e-01 1.107614e-01 8.479807e-02 8.540317e-02
<VARIANCE> 16
 1.804198e-02 7.350278e-02 2.466044e-02 1.260327e-02 5.078401e-02 2.328097e-02 1.000000e-03 1.000000e-03 1.597279e-03 1.000000e-03 2.992456e-03 1.512886e-03 1.000000e-03 1.000000e-03 1.000000e-03 1.000000e-03
<GCONST> -5.913525e+01
<TRANSP> 6
 0.000000e+00 1.000000e+00 0.000000e+00 0.000000e+00 0.000000e+00 0.000000e+00
 0.000000e+00 8.571426e-01 1.428574e-01 0.000000e+00 0.000000e+00 0.000000e+00
 0.000000e+00 0.000000e+00 4.574139e-01 5.425862e-01 0.000000e+00 0.000000e+00
 0.000000e+00 0.000000e+00 0.000000e+00 8.310271e-01 1.689729e-01 0.000000e+00
 0.000000e+00 0.000000e+00 0.000000e+00 0.000000e+00 6.861455e-01 3.138545e-01
 0.000000e+00 0.000000e+00 0.000000e+00 0.000000e+00 0.000000e+00 0.000000e+00
<ENDHMM>
~h "goes_to"
<BEGINHMM>
<NUMSTATES> 6
<STATE> 2
<MEAN> 16
 3.883243e-01 -4.470111e-01 1.897560e+00 -2.658102e-01 -2.025774e-01 1.854644e+00 -1.568406e-02 2.932422e-02 -4.217567e-03 1.547713e-03 3.966350e-02 -3.708342e-03 1.031488e-01 9.558298e-02 8.517313e-02 8.016846e-02
<VARIANCE> 16
 1.313941e-02 3.149515e-02 4.495276e-02 2.489051e-02 7.842859e-02 4.361213e-02 1.695444e-03 3.800480e-03 7.961079e-03 1.836583e-03 5.893316e-03 7.555767e-03 1.073503e-03 1.000000e-03 1.000000e-03 1.000000e-03
<GCONST> -5.152238e+01
<STATE> 3
<MEAN> 16
 2.632567e-01 -1.290883e-01 1.830295e+00 -3.127237e-01 -9.016863e-02 1.755588e+00 -3.725303e-03 5.341563e-03 -2.249791e-03 -2.943414e-04 2.395668e-03 -1.453740e-03 9.756915e-02 1.052340e-01 8.062025e-02 7.794549e-02
<VARIANCE> 16
 1.387275e-02 4.378797e-02 1.396368e-02 1.193158e-02 1.680818e-02 1.082871e-02 1.000000e-03 2.195068e-03 3.856331e-03 1.000000e-03 1.000000e-03 3.202767e-03 1.000000e-03 1.000000e-03 1.000000e-03 1.000000e-03
<GCONST> -6.108911e+01
<STATE> 4
<MEAN> 16
 1.227389e-01 -5.878776e-02 1.514344e+00 -2.917575e-01 6.580650e-03 1.456938e+00 -3.881016e-03 9.414117e-04 -1.147173e-03 -1.053996e-04 2.305998e-04 -1.105846e-03 9.301806e-02 1.012729e-01 7.658580e-02 8.285604e-02
<VARIANCE> 16
 4.996549e-02 2.727106e-02 2.731491e-02 9.812766e-03 5.824338e-03 2.297551e-02 1.037763e-03 1.032982e-03 1.624451e-03 1.000000e-03 1.000000e-03 1.307483e-03 1.000000e-03 1.000000e-03 1.000000e-03 1.000000e-03
<GCONST> -6.259052e+01
<STATE> 5
<MEAN> 16
 2.150521e-01 -2.491856e-01 1.696448e+00 -2.934670e-01 -3.066370e-01 1.747881e+00 3.890814e-02 -3.608223e-02 1.775387e-02 -1.019329e-02 -3.408470e-02 2.314084e-02 9.588132e-02 9.865566e-02 7.714323e-02 7.409761e-02
<VARIANCE> 16
 3.914397e-02 3.318170e-02 3.799241e-02 1.715958e-02 8.044454e-02 3.118727e-02 6.982366e-03 4.314439e-03 1.225836e-02 4.634385e-03 4.715602e-03 1.119278e-02 1.056181e-03 1.042360e-03 1.000000e-03 1.000000e-03
<GCONST> -4.813393e+01
<TRANSP> 6
 0.000000e+00 1.000000e+00 0.000000e+00 0.000000e+00 0.000000e+00 0.000000e+00
 0.000000e+00 8.941268e-01 1.058731e-01 0.000000e+00 0.000000e+00 0.000000e+00
 0.000000e+00 0.000000e+00 9.492273e-01 5.077268e-02 0.000000e+00 0.000000e+00
 0.000000e+00 0.000000e+00 0.000000e+00 9.621044e-01 3.789555e-02 0.000000e+00
 0.000000e+00 0.000000e+00 0.000000e+00 0.000000e+00 7.740701e-01 2.259299e-01
 0.000000e+00 0.000000e+00 0.000000e+00 0.000000e+00 0.000000e+00 0.000000e+00
<ENDHMM>
