~o
<STREAMINFO> 1 16
<VECSIZE> 16<NULLD><USER><DIAGC>
~h "Monkey"
<BEGINHMM>
<NUMSTATES> 6
<STATE> 2
<NUMMIXES> 2
<MIXTURE> 1 6.005809e-01
<MEAN> 16
 6.229060e-01 -7.387946e-01 1.930133e+00 -1.451684e-01 -5.957519e-01 1.821086e+00 6.229060e-01 -7.387946e-01 1.930133e+00 -1.451684e-01 -5.957519e-01 1.821086e+00 1.138356e-01 1.127724e-01 9.538337e-02 7.587484e-02
<VARIANCE> 16
 7.105440e-03 1.261506e-03 5.842451e-03 3.775905e-03 8.396934e-03 6.309533e-03 7.105440e-03 1.261506e-03 5.842451e-03 3.775905e-03 8.396934e-03 6.309533e-03 1.000000e-03 1.000000e-03 1.000000e-03 1.000000e-03
<GCONST> -6.260429e+01
<MIXTURE> 2 3.994189e-01
<MEAN> 16
 5.581937e-01 -6.720459e-01 1.742355e+00 -3.098072e-01 -6.515963e-01 1.835321e+00 5.581937e-01 -6.720459e-01 1.742355e+00 -3.098072e-01 -6.515963e-01 1.835321e+00 1.176516e-01 1.002641e-01 9.946912e-02 6.401605e-02
<VARIANCE> 16
 2.206197e-03 1.873462e-03 9.961137e-03 2.678178e-02 5.751421e-03 9.745327e-03 2.206197e-03 1.873462e-03 9.961137e-03 2.678178e-02 5.751421e-03 9.745327e-03 1.000000e-03 1.000000e-03 1.000000e-03 1.000000e-03
<GCONST> -5.905465e+01
<STATE> 3
<NUMMIXES> 2
<MIXTURE> 1 6.007335e-01
<MEAN> 16
 6.113098e-01 -7.390925e-01 1.946049e+00 -1.431512e-01 -6.094863e-01 1.832224e+00 -2.190448e-03 2.283173e-03 4.890140e-03 -1.271751e-03 2.364508e-03 4.867729e-03 1.166901e-01 1.149472e-01 1.034634e-01 7.603119e-02
<VARIANCE> 16
 6.063882e-03 1.000000e-03 4.413833e-03 2.326898e-03 1.662756e-03 2.918154e-03 1.000000e-03 1.000000e-03 1.000000e-03 1.000000e-03 1.000000e-03 1.000000e-03 1.000000e-03 1.000000e-03 1.000000e-03 1.000000e-03
<GCONST> -7.540700e+01
<MIXTURE> 2 3.992667e-01
<MEAN> 16
 5.925032e-01 -7.240427e-01 1.870464e+00 -2.008307e-01 -6.468178e-01 1.836128e+00 -4.962797e-03 5.169127e-03 -5.763874e-03 9.233411e-04 8.859365e-04 -8.298945e-03 1.137562e-01 1.071410e-01 9.505542e-02 6.996091e-02
<VARIANCE> 16
 4.544743e-03 2.165048e-03 1.161424e-02 1.503138e-02 8.321329e-03 9.962344e-03 1.000000e-03 1.000000e-03 1.075508e-03 1.000000e-03 1.000000e-03 2.866356e-03 1.000000e-03 1.000000e-03 1.000000e-03 1.000000e-03
<GCONST> -6.812580e+01
<STATE> 4
<NUMMIXES> 2
<MIXTURE> 1 4.274984e-01
<MEAN> 16
 5.571213e-01 -6.691852e-01 1.843243e+00 -2.267635e-01 -5.887036e-01 1.816561e+00 -1.392944e-02 1.575812e-02 5.677523e-03 -4.681268e-03 1.351210e-02 2.336175e-03 1.194213e-01 1.062855e-01 1.034664e-01 7.529180e-02
<VARIANCE> 16
 2.592925e-03 2.282375e-03 1.524021e-02 2.302518e-02 9.959089e-03 9.494606e-03 1.014569e-03 1.075930e-03 1.078049e-03 1.000000e-03 1.000000e-03 1.076960e-03 1.000000e-03 1.000000e-03 1.000000e-03 1.000000e-03
<GCONST> -6.869337e+01
<MIXTURE> 2 5.725020e-01
<MEAN> 16
 5.471929e-01 -6.391549e-01 1.725497e+00 -3.487346e-01 -6.480931e-01 1.798150e+00 -1.068592e-02 9.337228e-03 -6.200100e-03 -2.704426e-03 5.021099e-03 -1.954437e-02 1.100964e-01 1.008385e-01 1.114439e-01 6.355787e-02
<VARIANCE> 16
 1.483437e-03 1.128668e-03 8.885072e-03 2.445125e-02 3.191620e-03 6.121190e-03 1.000000e-03 1.000000e-03 1.000000e-03 1.000000e-03 1.000000e-03 1.318921e-03 1.000000e-03 1.000000e-03 1.000000e-03 1.000000e-03
<GCONST> -7.197250e+01
<STATE> 5
<MEAN> 16
 3.803294e-01 -6.507900e-01 1.899251e+00 -1.600961e-01 -2.716458e-01 1.823119e+00 -7.935328e-03 5.285107e-03 -6.937391e-05 -4.287075e-03 1.510313e-02 2.610041e-04 1.237925e-01 1.092501e-01 8.034915e-02 7.795237e-02
<VARIANCE> 16
 1.999408e-02 3.328264e-03 9.299518e-03 1.178043e-02 1.264061e-01 1.080003e-02 1.000000e-03 1.000000e-03 3.258639e-03 1.000000e-03 3.524945e-03 2.956637e-03 1.000000e-03 1.000000e-03 1.000000e-03 1.000000e-03
<GCONST> -6.147950e+01
<TRANSP> 6
 0.000000e+00 1.000000e+00 0.000000e+00 0.000000e+00 0.000000e+00 0.000000e+00
 0.000000e+00 0.000000e+00 1.000000e+00 0.000000e+00 0.000000e+00 0.000000e+00
 0.000000e+00 0.000000e+00 8.148254e-01 1.851746e-01 0.000000e+00 0.000000e+00
 0.000000e+00 0.000000e+00 0.000000e+00 6.558759e-01 3.441242e-01 0.000000e+00
 0.000000e+00 0.000000e+00 0.000000e+00 0.000000e+00 8.912773e-01 1.087226e-01
 0.000000e+00 0.000000e+00 0.000000e+00 0.000000e+00 0.000000e+00 0.000000e+00
<ENDHMM>
~h "fence"
<BEGINHMM>
<NUMSTATES> 6
<STATE> 2
<NUMMIXES> 2
<MIXTURE> 1 4.654721e-01
<MEAN> 16
 4.107614e-01 -2.877875e-01 1.971229e+00 -3.483902e-01 -1.795077e-01 1.867549e+00 8.385268e-03 -8.347822e-03 2.319427e-02 -5.721145e-03 -5.628655e-03 1.874941e-02 1.130590e-01 1.545097e-01 9.432846e-02 9.277848e-02
<VARIANCE> 16
 9.323040e-03 1.945022e-02 1.624433e-02 2.486615e-03 1.221729e-02 1.063041e-02 1.000000e-03 1.090314e-03 3.417428e-03 1.000000e-03 1.000000e-03 2.804752e-03 1.228876e-03 1.000000e-03 1.000000e-03 1.000000e-03
<GCONST> -6.479971e+01
<MIXTURE> 2 5.345256e-01
<MEAN> 16
 3.094040e-01 -2.754008e-01 1.863862e+00 -3.136214e-01 -2.480896e-01 1.771756e+00 -5.397344e-03 2.098763e-03 -2.142837e-02 2.160941e-03 -3.584324e-04 -1.866332e-02 8.311932e-02 1.453202e-01 8.359720e-02 8.752558e-02
<VARIANCE> 16
 1.652580e-02 1.805845e-02 2.019166e-02 2.788652e-03 1.079011e-02 1.212894e-02 1.000000e-03 1.768250e-03 3.626388e-03 1.000000e-03 1.000000e-03 2.703556e-03 1.000000e-03 1.000000e-03 1.000000e-03 1.000000e-03
<GCONST> -6.366167e+01
<STATE> 3
<NUMMIXES> 2
<MIXTURE> 1 4.790199e-01
<MEAN> 16
 2.973650e-01 -5.832630e-02 1.893405e+00 -3.482997e-01 -1.062431e-01 1.843235e+00 5.886497e-03 -3.420109e-03 1.902211e-02 -3.459446e-03 -3.061669e-03 1.711624e-02 1.179396e-01 1.622848e-01 9.189066e-02 9.616399e-02
<VARIANCE> 16
 3.501872e-02 5.051716e-02 1.402731e-02 4.308296e-03 3.816868e-03 1.150679e-02 1.284265e-03 2.438201e-03 3.329658e-03 1.000000e-03 1.000000e-03 2.882410e-03 1.000000e-03 1.000000e-03 1.000000e-03 1.000000e-03
<GCONST> -6.235300e+01
<MIXTURE> 2 5.209730e-01
<MEAN> 16
 1.918939e-01 -1.047919e-01 1.765337e+00 -3.513935e-01 -1.309293e-01 1.720156e+00 -6.192167e-03 -2.044308e-03 -1.756796e-02 3.997121e-03 -3.478089e-04 -1.601898e-02 9.843546e-02 1.383613e-01 7.854793e-02 8.916995e-02
<VARIANCE> 16
 4.912163e-02 2.552203e-02 8.107890e-03 8.292256e-03 8.259874e-03 6.810869e-03 1.594287e-03 1.709132e-03 2.936054e-03 1.000000e-03 1.000000e-03 2.625901e-03 1.000000e-03 1.000000e-03 1.000000e-03 1.000000e-03
<GCONST> -6.270122e+01
<STATE> 4
<NUMMIXES> 2
<MIXTURE> 1 5.528637e-01
<MEAN> 16
 1.835042e-01 -1.023087e-01 1.618665e+00 -3.799794e-01 -6.066788e-02 1.564935e+00 3.415360e-03 -1.722255e-03 8.998474e-03 -2.289003e-03 -1.137382e-03 8.538789e-03 9.952556e-02 1.423139e-01 7.961744e-02 8.668977e-02
<VARIANCE> 16
 5.302924e-02 2.545943e-02 2.211257e-02 8.636680e-03 4.179409e-03 1.798884e-02 1.113428e-03 1.000000e-03 1.207678e-03 1.000000e-03 1.000000e-03 1.000000e-03 1.000000e-03 1.000000e-03 1.000000e-03 1.000000e-03
<GCONST> -6.404190e+01
<MIXTURE> 2 4.471379e-01
<MEAN> 16
 1.465816e-01 -1.608156e-01 1.577414e+00 -3.409775e-01 -1.101888e-01 1.533198e+00 3.702899e-03 -1.252505e-02 -8.759446e-03 5.042701e-03 -9.199998e-03 -9.197813e-03 9.176851e-02 1.256275e-01 7.389166e-02 8.100192e-02
<VARIANCE> 16
 7.100660e-02 2.881053e-02 2.703401e-02 1.008121e-02 1.592016e-02 2.455702e-02 1.547036e-03 1.447413e-03 2.240805e-03 1.000000e-03 1.000000e-03 1.893636e-03 1.000000e-03 1.168985e-03 1.000000e-03 1.000000e-03
<GCONST> -5.951060e+01
<STATE> 5
<MEAN> 16
 5.742009e-01 -6.910278e-01 1.858104e+00 -1.892197e-01 -5.930807e-01 1.792892e+00 6.664138e-03 -7.868893e-03 3.166477e-03 3.637330e-03 -9.186437e-03 3.650214e-03 1.156361e-01 1.108470e-01 9.690342e-02 7.516984e-02
<VARIANCE> 16
 2.118798e-02 4.740097e-03 1.503353e-02 1.508267e-02 8.141480e-03 7.490574e-03 1.000000e-03 1.000000e-03 1.958736e-03 1.000000e-03 1.000000e-03 1.762320e-03 1.000000e-03 1.000000e-03 1.000000e-03 1.000000e-03
<GCONST> -6.573518e+01
<TRANSP> 6
 0.000000e+00 1.000000e+00 0.000000e+00 0.000000e+00 0.000000e+00 0.000000e+00
 0.000000e+00 9.465135e-01 5.348647e-02 0.000000e+00 0.000000e+00 0.000000e+00
 0.000000e+00 0.000000e+00 9.766251e-01 2.337493e-02 0.000000e+00 0.000000e+00
 0.000000e+00 0.000000e+00 0.000000e+00 9.686903e-01 3.130971e-02 0.000000e+00
 0.000000e+00 0.000000e+00 0.000000e+00 0.000000e+00 9.629562e-01 3.704378e-02
 0.000000e+00 0.000000e+00 0.000000e+00 0.000000e+00 0.000000e+00 0.000000e+00
<ENDHMM>
~h "Car"
<BEGINHMM>
<NUMSTATES> 6
<STATE> 2
<NUMMIXES> 2
<MIXTURE> 1 5.629546e-01
<MEAN> 16
 6.243989e-01 -7.374161e-01 1.919570e+00 -1.476405e-01 -5.904567e-01 1.816907e+00 6.243989e-01 -7.374161e-01 1.919570e+00 -1.476405e-01 -5.904567e-01 1.816907e+00 1.118268e-01 1.119955e-01 9.636780e-02 8.184422e-02
<VARIANCE> 16
 6.624572e-03 1.053704e-03 4.739297e-03 4.146765e-03 9.018737e-03 5.890565e-03 6.624572e-03 1.053704e-03 4.739297e-03 4.146765e-03 9.018737e-03 5.890565e-03 1.000000e-03 1.000000e-03 1.000000e-03 1.000000e-03
<GCONST> -6.333012e+01
<MIXTURE> 2 4.370455e-01
<MEAN> 16
 5.664209e-01 -6.785539e-01 1.741558e+00 -3.102320e-01 -6.596748e-01 1.838120e+00 5.664209e-01 -6.785539e-01 1.741558e+00 -3.102320e-01 -6.596748e-01 1.838120e+00 1.177386e-01 9.583711e-02 1.015169e-01 6.387797e-02
<VARIANCE> 16
 2.271955e-03 1.891776e-03 9.533239e-03 2.306167e-02 7.069096e-03 1.133564e-02 2.271955e-03 1.891776e-03 9.533239e-03 2.306167e-02 7.069096e-03 1.133564e-02 1.000000e-03 1.115621e-03 1.000000e-03 1.000000e-03
<GCONST> -5.853905e+01
<STATE> 3
<NUMMIXES> 2
<MIXTURE> 1 4.689515e-01
<MEAN> 16
 6.042991e-01 -7.294628e-01 1.921708e+00 -1.419067e-01 -2.075177e-01 1.787478e+00 3.392017e-03 -3.551469e-03 1.572569e-02 -1.130568e-03 1.156902e-02 1.160659e-02 1.279995e-01 1.127410e-01 9.375473e-02 8.397598e-02
<VARIANCE> 16
 2.713329e-03 1.107014e-03 6.612405e-03 1.811253e-02 1.165571e-01 9.377457e-03 1.000000e-03 1.000000e-03 3.177934e-03 1.386316e-03 3.806679e-03 3.523652e-03 1.000000e-03 1.000000e-03 1.000000e-03 1.000000e-03
<GCONST> -6.415684e+01
<MIXTURE> 2 5.310480e-01
<MEAN> 16
 5.853387e-01 -7.103955e-01 1.836571e+00 -2.271239e-01 -4.013000e-01 1.768642e+00 -2.957996e-03 5.990634e-03 -1.444431e-02 -2.165811e-03 3.137402e-03 -1.644746e-02 1.200592e-01 9.968363e-02 9.321643e-02 7.602172e-02
<VARIANCE> 16
 2.158347e-03 1.705125e-03 1.116969e-02 2.185824e-02 9.074008e-02 1.596941e-02 1.000000e-03 1.000000e-03 1.981232e-03 1.000000e-03 1.000000e-03 2.139797e-03 1.000000e-03 1.000000e-03 1.000000e-03 1.000000e-03
<GCONST> -6.559419e+01
<STATE> 4
<NUMMIXES> 2
<MIXTURE> 1 4.844195e-01
<MEAN> 16
 5.958619e-01 -7.152717e-01 1.853214e+00 -2.217604e-01 -6.157528e-01 1.839453e+00 9.159327e-05 3.996127e-03 2.687385e-03 -1.801905e-03 4.886731e-03 2.270278e-03 1.192766e-01 1.038874e-01 1.123302e-01 7.617687e-02
<VARIANCE> 16
 4.350238e-03 2.231565e-03 1.353471e-02 1.438278e-02 1.788295e-02 1.200927e-02 1.000000e-03 1.000000e-03 1.000000e-03 1.000000e-03 1.000000e-03 1.000000e-03 1.000000e-03 1.000000e-03 1.000000e-03 1.000000e-03
<GCONST> -6.820431e+01
<MIXTURE> 2 5.155802e-01
<MEAN> 16
 5.578448e-01 -6.541955e-01 1.710992e+00 -3.521770e-01 -6.518903e-01 1.799482e+00 -2.482823e-03 4.513694e-03 -1.888072e-03 -8.316932e-04 5.995724e-03 -1.373045e-02 1.173396e-01 9.519047e-02 1.173148e-01 6.296981e-02
<VARIANCE> 16
 1.650561e-03 2.356088e-03 8.412970e-03 1.865378e-02 4.718819e-03 8.974400e-03 1.000000e-03 1.000000e-03 1.000000e-03 1.000000e-03 1.000000e-03 1.000000e-03 1.000000e-03 1.000000e-03 1.000000e-03 1.000000e-03
<GCONST> -7.095818e+01
<STATE> 5
<MEAN> 16
 4.409356e-01 -6.542147e-01 1.895766e+00 -1.745026e-01 -6.013033e-01 1.832692e+00 -1.753282e-02 1.074832e-02 -3.970724e-04 -3.960026e-03 5.785172e-03 -3.582598e-04 1.149140e-01 1.140238e-01 8.849104e-02 7.491049e-02
<VARIANCE> 16
 2.715532e-02 4.178808e-03 8.302489e-03 6.267647e-03 5.736291e-03 5.683152e-03 1.133429e-03 1.000000e-03 2.371337e-03 1.000000e-03 1.000000e-03 1.699107e-03 1.000000e-03 1.000000e-03 1.000000e-03 1.000000e-03
<GCONST> -6.743137e+01
<TRANSP> 6
 0.000000e+00 1.000000e+00 0.000000e+00 0.000000e+00 0.000000e+00 0.000000e+00
 0.000000e+00 0.000000e+00 1.000000e+00 0.000000e+00 0.000000e+00 0.000000e+00
 0.000000e+00 0.000000e+00 7.631220e-01 2.368779e-01 0.000000e+00 0.000000e+00
 0.000000e+00 0.000000e+00 0.000000e+00 7.547721e-01 2.452279e-01 0.000000e+00
 0.000000e+00 0.000000e+00 0.000000e+00 0.000000e+00 8.303002e-01 1.696998e-01
 0.000000e+00 0.000000e+00 0.000000e+00 0.000000e+00 0.000000e+00 0.000000e+00
<ENDHMM>
~h "Man"
<BEGINHMM>
<NUMSTATES> 6
<STATE> 2
<NUMMIXES> 2
<MIXTURE> 1 3.401711e-01
<MEAN> 16
 6.301801e-01 -7.272829e-01 1.956099e+00 -1.527580e-01 -5.773934e-01 1.833348e+00 6.301801e-01 -7.272829e-01 1.956099e+00 -1.527580e-01 -5.773934e-01 1.833348e+00 1.120582e-01 1.096794e-01 9.978609e-02 7.789461e-02
<VARIANCE> 16
 6.140147e-02 2.169641e-02 5.939703e-03 1.018860e-02 2.816030e-02 1.257662e-02 6.140147e-02 2.169641e-02 5.939703e-03 1.018860e-02 2.816030e-02 1.257662e-02 1.000000e-03 1.000000e-03 1.000000e-03 1.000000e-03
<GCONST> -4.678353e+01
<MIXTURE> 2 6.598288e-01
<MEAN> 16
 5.652578e-01 -6.922117e-01 1.790302e+00 -2.483958e-01 -6.350831e-01 1.810622e+00 5.652578e-01 -6.922117e-01 1.790302e+00 -2.483958e-01 -6.350831e-01 1.810622e+00 1.159714e-01 1.030469e-01 1.006784e-01 6.832371e-02
<VARIANCE> 16
 1.865424e-03 2.167472e-03 1.473853e-02 2.304939e-02 5.145111e-03 7.471836e-03 1.865424e-03 2.167472e-03 1.473853e-02 2.304939e-02 5.145111e-03 7.471836e-03 1.000000e-03 1.000000e-03 1.000000e-03 1.000000e-03
<GCONST> -5.936937e+01
<STATE> 3
<NUMMIXES> 2
<MIXTURE> 1 5.187511e-01
<MEAN> 16
 7.900997e-01 -4.591897e-01 2.253202e+00 -2.602282e-01 -5.094849e-01 1.917849e+00 1.330387e+00 -4.300940e-01 1.201197e-01 5.772931e-01 -8.390774e-01 -1.152157e-02 1.160644e-01 1.154578e-01 1.086789e-01 7.846966e-02
<VARIANCE> 16
 1.353843e-01 3.661951e-02 9.102485e-02 6.132843e-02 3.631048e-02 3.389481e-02 7.183648e-01 7.957200e-02 1.200058e-01 2.062170e-01 2.908734e-01 2.134537e-01 1.000000e-03 1.000000e-03 1.000000e-03 1.000000e-03
<GCONST> -2.476019e+01
<MIXTURE> 2 4.812492e-01
<MEAN> 16
 -7.100828e-01 7.168695e-02 2.124285e+00 -9.393657e-01 4.747869e-01 1.894624e+00 -1.432032e+00 4.621161e-01 -1.292156e-01 -6.214331e-01 9.035227e-01 1.273614e-02 8.036509e-02 6.936155e-02 6.498571e-02 7.446451e-02
<VARIANCE> 16
 1.850159e-01 7.740562e-02 2.539027e-01 8.855632e-02 2.005715e-01 2.870525e-01 6.766258e-01 9.087895e-02 1.507817e-01 2.240943e-01 3.842745e-01 2.304123e-01 1.000000e-03 1.000000e-03 1.000000e-03 1.000000e-03
<GCONST> -1.772135e+01
<STATE> 4
<NUMMIXES> 2
<MIXTURE> 1 5.223581e-01
<MEAN> 16
 4.911777e-01 -6.892307e-01 1.938989e+00 -1.329045e-01 -6.089054e-01 1.859383e+00 -4.027458e-03 3.903763e-03 1.070035e-02 -2.489484e-03 2.403166e-03 8.802594e-03 1.202315e-01 1.122966e-01 9.650946e-02 7.568830e-02
<VARIANCE> 16
 3.094389e-02 4.437778e-03 5.609845e-03 3.072775e-03 1.633675e-03 5.053351e-03 1.000000e-03 1.000000e-03 1.292523e-03 1.000000e-03 1.000000e-03 1.268048e-03 1.000000e-03 1.000000e-03 1.000000e-03 1.000000e-03
<GCONST> -7.074367e+01
<MIXTURE> 2 4.776415e-01
<MEAN> 16
 4.494721e-01 -6.686755e-01 1.871209e+00 -1.644008e-01 -6.232307e-01 1.822210e+00 -2.109327e-02 7.254277e-03 -1.437462e-02 -8.132238e-04 1.754971e-03 -1.062001e-02 1.123102e-01 1.135516e-01 8.299688e-02 7.067133e-02
<VARIANCE> 16
 2.526623e-02 3.724069e-03 9.045014e-03 7.677838e-03 1.865917e-03 4.248652e-03 1.433115e-03 1.000000e-03 1.727757e-03 1.000000e-03 1.000000e-03 1.204797e-03 1.000000e-03 1.000000e-03 1.000000e-03 1.000000e-03
<GCONST> -6.916988e+01
<STATE> 5
<MEAN> 16
 4.795354e-01 -6.680936e-01 1.842433e+00 -1.878656e-01 -2.051494e-01 1.795646e+00 -2.106630e-03 4.085676e-03 1.162597e-03 -2.715604e-03 1.986777e-02 -2.843605e-03 1.235472e-01 1.006884e-01 1.001203e-01 7.921424e-02
<VARIANCE> 16
 1.777232e-02 3.485422e-03 1.753269e-02 2.263319e-02 1.316145e-01 1.773807e-02 1.000000e-03 1.000000e-03 2.433297e-03 1.000000e-03 4.426683e-03 2.668823e-03 1.000000e-03 1.000000e-03 1.000000e-03 1.000000e-03
<GCONST> -5.989421e+01
<TRANSP> 6
 0.000000e+00 1.000000e+00 0.000000e+00 0.000000e+00 0.000000e+00 0.000000e+00
 0.000000e+00 0.000000e+00 1.000000e+00 0.000000e+00 0.000000e+00 0.000000e+00
 0.000000e+00 0.000000e+00 8.593963e-01 1.406037e-01 0.000000e+00 0.000000e+00
 0.000000e+00 0.000000e+00 0.000000e+00 8.821021e-01 1.178979e-01 0.000000e+00
 0.000000e+00 0.000000e+00 0.000000e+00 0.000000e+00 8.827716e-01 1.172284e-01
 0.000000e+00 0.000000e+00 0.000000e+00 0.000000e+00 0.000000e+00 0.000000e+00
<ENDHMM>
~h "car"
<BEGINHMM>
<NUMSTATES> 6
<STATE> 2
<NUMMIXES> 2
<MIXTURE> 1 5.489305e-01
<MEAN> 16
 3.366334e-01 -4.453900e-01 2.092650e+00 -2.678076e-01 3.878746e-02 1.893712e+00 5.425952e-03 -2.017601e-03 1.207788e-02 -2.095856e-03 -6.481451e-03 8.345948e-03 1.006142e-01 1.312194e-01 9.271996e-02 8.655533e-02
<VARIANCE> 16
 1.256489e-02 1.030892e-02 1.421739e-02 1.216884e-03 1.587269e-02 7.602948e-03 1.000000e-03 1.003386e-03 1.826982e-03 1.000000e-03 1.000000e-03 1.005578e-03 1.000000e-03 1.000000e-03 1.000000e-03 1.000000e-03
<GCONST> -6.799864e+01
<MIXTURE> 2 4.510680e-01
<MEAN> 16
 3.048814e-01 -3.319958e-01 1.898577e+00 -2.865286e-01 -3.562133e-02 1.795972e+00 5.671390e-04 -9.788922e-03 -1.095016e-02 2.184183e-03 -7.685422e-03 -1.437141e-02 8.155346e-02 1.090029e-01 8.190581e-02 8.129445e-02
<VARIANCE> 16
 1.122743e-02 2.285348e-02 2.510975e-02 4.821403e-03 4.816958e-02 1.296095e-02 1.000000e-03 1.000000e-03 2.685242e-03 1.000000e-03 1.000000e-03 2.093428e-03 1.000000e-03 1.000000e-03 1.000000e-03 1.000000e-03
<GCONST> -6.261103e+01
<STATE> 3
<NUMMIXES> 2
<MIXTURE> 1 5.579008e-01
<MEAN> 16
 3.183717e-01 5.428111e-02 1.932527e+00 -3.088580e-01 4.131045e-02 1.906306e+00 7.925960e-03 1.773759e-03 1.365499e-02 -4.993603e-03 -1.868973e-03 1.408351e-02 1.186056e-01 1.367141e-01 8.977418e-02 8.361539e-02
<VARIANCE> 16
 3.108671e-02 2.809523e-02 1.289765e-02 3.931249e-03 5.727703e-03 1.261194e-02 1.000000e-03 2.705540e-03 3.016048e-03 1.000000e-03 1.000000e-03 2.648961e-03 1.000000e-03 1.000000e-03 1.000000e-03 1.000000e-03
<GCONST> -6.306630e+01
<MIXTURE> 2 4.420937e-01
<MEAN> 16
 2.827632e-01 -1.119584e-01 1.839961e+00 -3.063205e-01 -9.255724e-02 1.806178e+00 -4.955850e-04 -7.862326e-03 -1.930561e-02 4.862031e-03 -6.757349e-03 -1.785110e-02 9.917333e-02 1.097180e-01 8.208948e-02 7.997301e-02
<VARIANCE> 16
 4.558899e-02 4.062371e-02 1.459169e-02 8.382080e-03 2.157853e-02 1.283568e-02 2.636169e-03 2.733328e-03 5.698162e-03 1.000000e-03 1.000000e-03 4.281195e-03 1.000000e-03 1.000000e-03 1.000000e-03 1.000000e-03
<GCONST> -5.799434e+01
<STATE> 4
<NUMMIXES> 2
<MIXTURE> 1 5.543179e-01
<MEAN> 16
 1.941742e-01 -2.143100e-02 1.709745e+00 -3.964985e-01 -2.890119e-02 1.638294e+00 3.193571e-03 -1.727860e-03 1.359375e-02 -3.455310e-03 -1.291332e-03 1.218941e-02 9.596213e-02 1.183827e-01 7.362248e-02 8.256745e-02
<VARIANCE> 16
 3.016431e-02 2.520023e-02 2.217913e-02 3.602325e-03 5.207700e-03 1.238791e-02 1.053399e-03 1.171555e-03 1.844700e-03 1.000000e-03 1.000000e-03 1.290874e-03 1.000000e-03 1.000000e-03 1.000000e-03 1.000000e-03
<GCONST> -6.485896e+01
<MIXTURE> 2 4.456635e-01
<MEAN> 16
 2.165250e-01 -1.001294e-01 1.629847e+00 -3.620401e-01 -5.632439e-02 1.579544e+00 -2.519976e-03 -1.126236e-02 -1.662488e-02 6.837456e-03 -9.679887e-03 -1.569609e-02 8.544553e-02 1.080459e-01 7.019132e-02 7.984681e-02
<VARIANCE> 16
 4.000736e-02 3.595547e-02 2.628695e-02 6.134646e-03 2.110020e-02 1.926404e-02 1.013469e-03 1.909045e-03 2.682636e-03 1.000000e-03 1.000000e-03 2.120959e-03 1.000000e-03 1.000000e-03 1.000000e-03 1.000000e-03
<GCONST> -6.035752e+01
<STATE> 5
<MEAN> 16
 5.775704e-01 -6.913624e-01 1.855829e+00 -1.950491e-01 -6.018665e-01 1.813245e+00 5.035047e-03 -7.417476e-03 2.198007e-03 3.963008e-03 -8.654967e-03 3.044745e-03 1.163509e-01 1.071377e-01 9.723376e-02 7.493358e-02
<VARIANCE> 16
 1.688137e-02 3.589605e-03 1.552441e-02 1.811380e-02 6.046968e-03 7.209503e-03 1.000000e-03 1.000000e-03 1.935161e-03 1.000000e-03 1.000000e-03 1.854014e-03 1.000000e-03 1.000000e-03 1.000000e-03 1.000000e-03
<GCONST> -6.632221e+01
<TRANSP> 6
 0.000000e+00 1.000000e+00 0.000000e+00 0.000000e+00 0.000000e+00 0.000000e+00
 0.000000e+00 8.915964e-01 1.084036e-01 0.000000e+00 0.000000e+00 0.000000e+00
 0.000000e+00 0.000000e+00 9.585907e-01 4.140933e-02 0.000000e+00 0.000000e+00
 0.000000e+00 0.000000e+00 0.000000e+00 9.671853e-01 3.281472e-02 0.000000e+00
 0.000000e+00 0.000000e+00 0.000000e+00 0.000000e+00 9.607915e-01 3.920853e-02
 0.000000e+00 0.000000e+00 0.000000e+00 0.000000e+00 0.000000e+00 0.000000e+00
<ENDHMM>
~h "weaves_and_bumps_into"
<BEGINHMM>
<NUMSTATES> 6
<STATE> 2
<NUMMIXES> 2
<MIXTURE> 1 4.651507e-01
<MEAN> 16
 3.525108e-01 -3.451342e-01 1.997176e+00 -2.923562e-01 -2.842782e-01 1.955785e+00 -1.821833e-02 4.598579e-02 2.621394e-02 -3.282614e-03 4.561359e-02 2.314348e-02 1.048512e-01 9.879106e-02 8.887677e-02 8.508136e-02
<VARIANCE> 16
 1.922564e-02 2.638259e-02 3.611933e-02 1.699139e-02 2.399096e-02 3.708484e-02 3.811852e-03 6.618315e-03 1.118231e-02 3.583943e-03 7.298836e-03 1.045720e-02 1.162483e-03 1.000000e-03 1.000000e-03 1.000000e-03
<GCONST> -5.027437e+01
<MIXTURE> 2 5.348485e-01
<MEAN> 16
 4.268290e-01 -4.071637e-01 1.820545e+00 -3.497133e-01 -3.464234e-01 1.792872e+00 -2.753149e-02 4.012647e-02 -3.645375e-02 5.612873e-03 4.065789e-02 -3.372528e-02 9.114999e-02 8.686616e-02 7.635652e-02 7.462186e-02
<VARIANCE> 16
 7.568124e-03 1.274157e-02 4.522361e-02 1.331435e-02 1.596760e-02 4.363728e-02 1.128766e-03 2.915947e-03 7.359380e-03 1.000000e-03 2.710246e-03 6.204137e-03 1.000000e-03 1.000000e-03 1.000000e-03 1.000000e-03
<GCONST> -5.759275e+01
<STATE> 3
<NUMMIXES> 2
<MIXTURE> 1 4.391991e-01
<MEAN> 16
 2.360617e-01 -1.486639e-01 1.843094e+00 -2.486043e-01 -1.305076e-01 1.785654e+00 1.395991e-03 5.257966e-03 2.579151e-02 -4.151369e-03 2.887915e-03 2.362781e-02 9.642190e-02 9.688432e-02 8.693901e-02 7.780703e-02
<VARIANCE> 16
 2.103662e-02 4.221238e-02 1.473880e-02 1.038679e-02 2.158441e-02 9.794858e-03 1.000000e-03 2.219431e-03 3.968399e-03 1.000000e-03 1.261641e-03 3.494230e-03 1.000000e-03 1.000000e-03 1.000000e-03 1.000000e-03
<GCONST> -6.028509e+01
<MIXTURE> 2 5.607964e-01
<MEAN> 16
 2.409902e-01 -2.031531e-01 1.753697e+00 -2.768529e-01 -1.949907e-01 1.704237e+00 -7.032557e-03 2.534473e-03 -2.347363e-02 4.081769e-03 6.319285e-03 -2.178688e-02 8.071533e-02 8.214343e-02 7.552704e-02 7.474703e-02
<VARIANCE> 16
 1.566194e-02 1.867076e-02 9.866187e-03 5.173676e-03 9.193721e-03 7.300892e-03 1.000000e-03 1.644745e-03 3.450958e-03 1.000000e-03 1.014864e-03 2.977942e-03 1.000000e-03 1.000000e-03 1.000000e-03 1.000000e-03
<GCONST> -6.445843e+01
<STATE> 4
<NUMMIXES> 2
<MIXTURE> 1 4.440517e-01
<MEAN> 16
 2.291285e-01 -5.987709e-02 1.510842e+00 -3.198193e-01 3.745352e-02 1.438197e+00 7.312244e-03 6.100911e-04 1.196892e-02 -5.529238e-03 2.831302e-03 1.018630e-02 9.404063e-02 1.139448e-01 8.488041e-02 8.859717e-02
<VARIANCE> 16
 2.412755e-02 4.345319e-02 3.363295e-02 9.647965e-03 8.834111e-03 1.566056e-02 1.280417e-03 1.748185e-03 1.766250e-03 1.000000e-03 1.000000e-03 1.170343e-03 1.000000e-03 1.000000e-03 1.000000e-03 1.000000e-03
<GCONST> -6.191908e+01
<MIXTURE> 2 5.559459e-01
<MEAN> 16
 2.092730e-01 -6.684174e-02 1.384746e+00 -2.980549e-01 7.816709e-03 1.350301e+00 -3.806490e-03 -5.294962e-04 -1.133545e-02 3.199375e-03 -6.543853e-04 -1.021905e-02 8.261066e-02 1.034113e-01 8.072394e-02 8.320405e-02
<VARIANCE> 16
 2.324635e-02 2.507184e-02 1.810302e-02 5.891501e-03 4.569613e-03 4.798062e-03 1.000000e-03 1.052018e-03 1.415275e-03 1.000000e-03 1.000000e-03 1.000000e-03 1.000000e-03 1.000000e-03 1.000000e-03 1.000000e-03
<GCONST> -6.659490e+01
<STATE> 5
<MEAN> 16
 3.184331e-01 -2.269689e-01 1.826154e+00 -2.542836e-01 7.209172e-03 1.769212e+00 1.386498e-02 -6.516445e-03 1.889252e-02 -1.097538e-02 3.648410e-03 1.806726e-02 1.098261e-01 1.101818e-01 8.604855e-02 8.720364e-02
<VARIANCE> 16
 1.682838e-02 7.824121e-02 3.889243e-02 1.791673e-02 5.700351e-02 3.114209e-02 6.075335e-03 4.734694e-03 1.196936e-02 2.697263e-03 6.258547e-03 8.306450e-03 1.000000e-03 1.000000e-03 1.000000e-03 1.000000e-03
<GCONST> -4.912226e+01
<TRANSP> 6
 0.000000e+00 1.000000e+00 0.000000e+00 0.000000e+00 0.000000e+00 0.000000e+00
 0.000000e+00 8.676295e-01 1.323705e-01 0.000000e+00 0.000000e+00 0.000000e+00
 0.000000e+00 0.000000e+00 9.401400e-01 5.986000e-02 0.000000e+00 0.000000e+00
 0.000000e+00 0.000000e+00 0.000000e+00 9.579452e-01 4.205481e-02 0.000000e+00
 0.000000e+00 0.000000e+00 0.000000e+00 0.000000e+00 7.578869e-01 2.421131e-01
 0.000000e+00 0.000000e+00 0.000000e+00 0.000000e+00 0.000000e+00 0.000000e+00
<ENDHMM>
~h "man"
<BEGINHMM>
<NUMSTATES> 6
<STATE> 2
<NUMMIXES> 2
<MIXTURE> 1 4.922955e-01
<MEAN> 16
 3.784778e-01 -5.860651e-01 1.909294e+00 -3.366573e-01 -1.266528e-01 1.816427e+00 4.680049e-03 2.220315e-03 1.764776e-02 -9.711131e-03 -7.345708e-03 9.217829e-03 1.201170e-01 8.877815e-02 8.925542e-02 9.674881e-02
<VARIANCE> 16
 1.964605e-02 1.382165e-02 2.160165e-02 1.739914e-02 7.288813e-03 3.229474e-02 1.000000e-03 1.000000e-03 2.570311e-03 1.000000e-03 1.000000e-03 1.360462e-03 1.000000e-03 1.000000e-03 1.000000e-03 1.000000e-03
<GCONST> -6.287166e+01
<MIXTURE> 2 5.076995e-01
<MEAN> 16
 3.604472e-01 -6.038310e-01 1.808214e+00 -3.750682e-01 -1.327813e-01 1.689684e+00 -4.699343e-03 7.195470e-03 -1.965377e-02 -6.341751e-03 -3.138589e-03 -1.493944e-02 1.146057e-01 7.458975e-02 8.267371e-02 9.112763e-02
<VARIANCE> 16
 1.141176e-02 6.104284e-03 1.718252e-02 1.423278e-02 8.695967e-03 2.730020e-02 1.000000e-03 1.000000e-03 2.717795e-03 1.000000e-03 1.000000e-03 1.381063e-03 1.000000e-03 1.000000e-03 1.000000e-03 1.000000e-03
<GCONST> -6.458255e+01
<STATE> 3
<NUMMIXES> 2
<MIXTURE> 1 4.917364e-01
<MEAN> 16
 2.263262e-01 -3.856870e-02 1.907880e+00 -3.656180e-01 -1.312265e-01 1.942048e+00 7.332454e-03 4.881679e-05 1.681645e-02 -3.875420e-03 -3.097638e-03 1.651649e-02 1.091774e-01 9.998059e-02 8.424193e-02 1.004512e-01
<VARIANCE> 16
 4.525813e-02 3.871904e-02 1.161387e-02 8.247554e-03 7.121787e-03 1.405882e-02 1.249709e-03 2.731612e-03 3.327034e-03 1.000000e-03 1.000000e-03 3.183124e-03 1.000000e-03 1.000000e-03 1.000000e-03 1.000000e-03
<GCONST> -6.089307e+01
<MIXTURE> 2 5.082551e-01
<MEAN> 16
 1.504425e-01 -1.009495e-01 1.767751e+00 -3.703814e-01 -1.598651e-01 1.764898e+00 -7.657763e-03 1.959486e-03 -2.004402e-02 7.283651e-03 -3.139866e-04 -1.760593e-02 9.453051e-02 7.471475e-02 7.278920e-02 8.737698e-02
<VARIANCE> 16
 4.631357e-02 2.423476e-02 1.177860e-02 8.685553e-03 5.329581e-03 1.134713e-02 1.844003e-03 2.483831e-03 3.971850e-03 1.000000e-03 1.000000e-03 3.476790e-03 1.000000e-03 1.000000e-03 1.000000e-03 1.000000e-03
<GCONST> -6.121757e+01
<STATE> 4
<NUMMIXES> 2
<MIXTURE> 1 5.276374e-01
<MEAN> 16
 2.371865e-01 -5.868291e-02 1.563197e+00 -3.442930e-01 -3.826386e-02 1.538131e+00 5.358943e-03 -1.094122e-03 1.095931e-02 -1.526967e-03 -2.997124e-03 8.825466e-03 9.899969e-02 7.602539e-02 8.092254e-02 9.269390e-02
<VARIANCE> 16
 3.805000e-02 4.444755e-02 2.518191e-02 1.234002e-02 7.635806e-03 1.338665e-02 1.261235e-03 1.200445e-03 1.366036e-03 1.000000e-03 1.000000e-03 1.000000e-03 1.000000e-03 1.000000e-03 1.000000e-03 1.000000e-03
<GCONST> -6.259207e+01
<MIXTURE> 2 4.723538e-01
<MEAN> 16
 2.417745e-01 -1.070220e-01 1.491292e+00 -3.449133e-01 -8.448726e-02 1.489703e+00 2.962132e-03 -8.487658e-03 -1.140387e-02 3.661516e-03 -1.034688e-02 -1.026341e-02 9.022061e-02 7.198809e-02 7.685976e-02 8.591512e-02
<VARIANCE> 16
 4.335317e-02 4.302900e-02 1.923735e-02 1.085675e-02 2.176489e-02 1.014144e-02 1.270678e-03 1.849142e-03 1.896846e-03 1.000000e-03 1.000000e-03 1.647122e-03 1.000000e-03 1.000000e-03 1.000000e-03 1.000000e-03
<GCONST> -6.085474e+01
<STATE> 5
<MEAN> 16
 5.750912e-01 -6.870547e-01 1.852803e+00 -1.919804e-01 -5.954883e-01 1.809342e+00 6.610582e-03 -8.346238e-03 3.320256e-03 2.751987e-03 -9.603510e-03 3.681312e-03 1.162533e-01 1.063912e-01 9.479553e-02 7.526109e-02
<VARIANCE> 16
 1.981603e-02 4.543942e-03 1.581523e-02 1.710678e-02 6.872442e-03 8.257780e-03 1.000000e-03 1.000000e-03 2.598669e-03 1.000000e-03 1.053819e-03 1.977420e-03 1.000000e-03 1.000000e-03 1.000000e-03 1.000000e-03
<GCONST> -6.528944e+01
<TRANSP> 6
 0.000000e+00 1.000000e+00 0.000000e+00 0.000000e+00 0.000000e+00 0.000000e+00
 0.000000e+00 9.209409e-01 7.905906e-02 0.000000e+00 0.000000e+00 0.000000e+00
 0.000000e+00 0.000000e+00 9.739952e-01 2.600483e-02 0.000000e+00 0.000000e+00
 0.000000e+00 0.000000e+00 0.000000e+00 9.479578e-01 5.204225e-02 0.000000e+00
 0.000000e+00 0.000000e+00 0.000000e+00 0.000000e+00 9.593633e-01 4.063674e-02
 0.000000e+00 0.000000e+00 0.000000e+00 0.000000e+00 0.000000e+00 0.000000e+00
<ENDHMM>
~h "monkey"
<BEGINHMM>
<NUMSTATES> 6
<STATE> 2
<NUMMIXES> 2
<MIXTURE> 1 4.929841e-01
<MEAN> 16
 3.750001e-01 -4.776405e-01 2.158963e+00 -2.718379e-01 -2.350734e-03 1.932798e+00 5.882910e-03 2.428431e-03 1.148429e-02 -4.540197e-04 -5.268128e-03 9.148921e-03 1.135161e-01 1.142902e-01 9.047209e-02 7.802065e-02
<VARIANCE> 16
 8.235170e-03 4.572175e-03 1.500561e-02 3.481898e-03 1.632440e-02 1.315914e-02 1.000000e-03 1.000000e-03 1.969762e-03 1.000000e-03 1.000000e-03 1.079315e-03 1.533401e-03 1.000000e-03 1.000000e-03 1.000000e-03
<GCONST> -6.698214e+01
<MIXTURE> 2 5.070120e-01
<MEAN> 16
 3.087071e-01 -4.239178e-01 1.992496e+00 -3.457880e-01 -4.066828e-02 1.801856e+00 -3.444067e-03 -5.851373e-03 -1.346933e-02 1.578970e-03 -3.959372e-03 -1.339609e-02 9.491311e-02 1.000634e-01 8.970071e-02 6.811701e-02
<VARIANCE> 16
 1.156138e-02 6.407003e-03 1.886658e-02 9.467164e-03 2.115619e-02 1.366875e-02 1.000000e-03 1.000000e-03 1.508046e-03 1.000000e-03 1.000000e-03 1.133186e-03 1.043808e-03 1.000000e-03 1.000000e-03 1.000000e-03
<GCONST> -6.538200e+01
<STATE> 3
<NUMMIXES> 2
<MIXTURE> 1 4.634284e-01
<MEAN> 16
 2.893243e-01 1.193380e-02 1.973713e+00 -2.995317e-01 -2.706197e-02 1.947807e+00 7.012939e-03 2.247513e-03 1.466832e-02 -4.157309e-03 -3.190545e-03 1.560042e-02 1.166293e-01 1.175357e-01 9.235881e-02 7.932648e-02
<VARIANCE> 16
 3.625841e-02 3.674149e-02 1.313834e-02 8.384164e-03 4.844198e-03 1.232866e-02 1.510925e-03 3.206244e-03 4.138620e-03 1.000000e-03 1.000000e-03 3.466824e-03 1.000000e-03 1.000000e-03 1.000000e-03 1.000000e-03
<GCONST> -6.089046e+01
<MIXTURE> 2 5.365583e-01
<MEAN> 16
 1.474982e-01 -7.190837e-02 1.812679e+00 -3.309925e-01 -8.552033e-02 1.791865e+00 -5.631634e-03 -8.808330e-04 -1.742376e-02 5.150917e-03 -1.997758e-03 -1.414297e-02 9.596872e-02 9.715907e-02 7.735197e-02 6.529527e-02
<VARIANCE> 16
 4.780599e-02 2.399335e-02 9.178989e-03 1.177684e-02 9.364793e-03 8.460470e-03 1.611635e-03 1.821192e-03 3.705303e-03 1.000000e-03 1.000000e-03 3.176953e-03 1.000000e-03 1.000000e-03 1.000000e-03 1.000000e-03
<GCONST> -6.147528e+01
<STATE> 4
<NUMMIXES> 2
<MIXTURE> 1 5.348645e-01
<MEAN> 16
 2.447782e-01 -7.773402e-02 1.636552e+00 -2.980004e-01 1.760708e-02 1.606671e+00 6.024001e-03 -4.472507e-03 1.242133e-02 -1.202980e-03 -3.929652e-03 1.032131e-02 1.049866e-01 1.000900e-01 8.225167e-02 6.794450e-02
<VARIANCE> 16
 3.897146e-02 4.406683e-02 1.894782e-02 3.064897e-03 1.171502e-02 1.288904e-02 1.018568e-03 1.112783e-03 1.548775e-03 1.000000e-03 1.000000e-03 1.009368e-03 1.000000e-03 1.000000e-03 1.000000e-03 1.000000e-03
<GCONST> -6.401852e+01
<MIXTURE> 2 4.651291e-01
<MEAN> 16
 2.925199e-01 -2.232532e-01 1.630458e+00 -2.831701e-01 -1.045310e-01 1.597445e+00 8.325526e-03 -2.388918e-02 -1.066075e-02 8.078873e-03 -2.218429e-02 -1.146682e-02 9.533291e-02 9.190562e-02 7.638131e-02 6.671596e-02
<VARIANCE> 16
 4.072409e-02 6.196285e-02 2.273947e-02 6.531333e-03 4.384053e-02 1.921688e-02 1.340282e-03 3.115085e-03 3.633720e-03 1.000000e-03 1.718414e-03 2.658027e-03 1.000000e-03 1.000000e-03 1.000000e-03 1.000000e-03
<GCONST> -5.730926e+01
<STATE> 5
<MEAN> 16
 5.758626e-01 -6.928928e-01 1.854733e+00 -1.952409e-01 -6.075594e-01 1.809382e+00 4.951226e-03 -5.772636e-03 1.383610e-03 2.033454e-03 -6.757148e-03 1.973612e-03 1.149259e-01 1.092202e-01 9.563040e-02 7.435086e-02
<VARIANCE> 16
 1.672015e-02 3.447706e-03 1.628556e-02 1.771488e-02 5.508329e-03 6.250320e-03 1.000000e-03 1.000000e-03 1.658677e-03 1.000000e-03 1.000000e-03 1.645343e-03 1.000000e-03 1.000000e-03 1.000000e-03 1.000000e-03
<GCONST> -6.685619e+01
<TRANSP> 6
 0.000000e+00 1.000000e+00 0.000000e+00 0.000000e+00 0.000000e+00 0.000000e+00
 0.000000e+00 9.231667e-01 7.683334e-02 0.000000e+00 0.000000e+00 0.000000e+00
 0.000000e+00 0.000000e+00 9.746106e-01 2.538944e-02 0.000000e+00 0.000000e+00
 0.000000e+00 0.000000e+00 0.000000e+00 9.299077e-01 7.009224e-02 0.000000e+00
 0.000000e+00 0.000000e+00 0.000000e+00 0.000000e+00 9.617076e-01 3.829240e-02
 0.000000e+00 0.000000e+00 0.000000e+00 0.000000e+00 0.000000e+00 0.000000e+00
<ENDHMM>
~h "bumps_into_each_other"
<BEGINHMM>
<NUMSTATES> 6
<STATE> 2
<NUMMIXES> 2
<MIXTURE> 1 4.802510e-01
<MEAN> 16
 4.128807e-01 -4.505437e-01 1.996449e+00 -3.323300e-01 -2.083491e-01 1.913827e+00 1.543103e-03 1.246187e-02 3.561800e-02 -7.213169e-03 2.912921e-02 3.145944e-02 1.134712e-01 9.561166e-02 9.717632e-02 8.603159e-02
<VARIANCE> 16
 1.105545e-02 1.872903e-02 3.476191e-02 1.627811e-02 6.958120e-02 5.373392e-02 1.011417e-03 1.514088e-03 5.396051e-03 1.791515e-03 4.213408e-03 4.940116e-03 1.650349e-03 1.000000e-03 1.000000e-03 1.000000e-03
<GCONST> -5.498864e+01
<MIXTURE> 2 5.197483e-01
<MEAN> 16
 4.368908e-01 -4.189516e-01 1.862363e+00 -3.826097e-01 -3.165315e-01 1.828124e+00 -2.038660e-02 2.482867e-02 -2.744122e-02 3.339185e-03 3.520196e-02 -2.904163e-02 9.060187e-02 8.702157e-02 8.115263e-02 7.877046e-02
<VARIANCE> 16
 6.768500e-03 1.198436e-02 4.216248e-02 1.113001e-02 2.489531e-02 4.088091e-02 1.000000e-03 2.192011e-03 4.716256e-03 1.097545e-03 2.558614e-03 4.680179e-03 1.000000e-03 1.000000e-03 1.000000e-03 1.000000e-03
<GCONST> -5.873395e+01
<STATE> 3
<NUMMIXES> 2
<MIXTURE> 1 4.761767e-01
<MEAN> 16
 3.288672e-01 -1.312305e-01 1.930007e+00 -2.460811e-01 -1.013891e-01 1.877873e+00 8.247154e-03 2.073889e-03 2.842312e-02 -5.592224e-03 -1.901085e-03 2.761533e-02 9.705116e-02 1.049027e-01 9.050130e-02 8.322750e-02
<VARIANCE> 16
 1.178863e-02 4.377529e-02 1.340669e-02 6.009605e-03 2.873872e-02 1.134634e-02 1.114249e-03 3.210216e-03 4.850372e-03 1.000000e-03 1.773901e-03 4.347458e-03 1.000000e-03 1.000000e-03 1.000000e-03 1.000000e-03
<GCONST> -5.979926e+01
<MIXTURE> 2 5.238178e-01
<MEAN> 16
 2.895607e-01 -1.846819e-01 1.810973e+00 -2.288696e-01 -1.721395e-01 1.772362e+00 -1.062712e-02 7.815908e-03 -3.042893e-02 4.627189e-03 7.219883e-03 -2.814782e-02 7.827336e-02 8.320364e-02 7.501546e-02 7.383692e-02
<VARIANCE> 16
 1.018491e-02 2.375446e-02 9.190742e-03 7.296475e-03 1.549598e-02 7.959809e-03 1.089117e-03 3.372198e-03 5.005011e-03 1.000000e-03 2.250057e-03 4.389205e-03 1.000000e-03 1.000000e-03 1.000000e-03 1.000000e-03
<GCONST> -6.140733e+01
<STATE> 4
<NUMMIXES> 2
<MIXTURE> 1 5.038028e-01
<MEAN> 16
 2.966803e-01 -2.956246e-02 1.602898e+00 -3.277642e-01 7.060742e-02 1.555849e+00 7.719514e-03 3.764889e-04 1.118501e-02 -7.859224e-03 7.667401e-04 1.131330e-02 9.909190e-02 1.064717e-01 8.391496e-02 8.234162e-02
<VARIANCE> 16
 1.625263e-02 3.804291e-02 2.357200e-02 1.186293e-02 7.808306e-03 1.363266e-02 1.000000e-03 1.002632e-03 1.297948e-03 1.000000e-03 1.000000e-03 1.000000e-03 1.000000e-03 1.000000e-03 1.000000e-03 1.000000e-03
<GCONST> -6.412654e+01
<MIXTURE> 2 4.961945e-01
<MEAN> 16
 2.515211e-01 -4.454702e-02 1.494445e+00 -3.099574e-01 4.971407e-02 1.464960e+00 -5.496983e-03 2.676154e-03 -1.486230e-02 4.842586e-03 -1.758288e-05 -1.317087e-02 8.016545e-02 9.992015e-02 7.499975e-02 8.040313e-02
<VARIANCE> 16
 1.279032e-02 2.926899e-02 1.561003e-02 9.130191e-03 5.143886e-03 8.189508e-03 1.000000e-03 1.847107e-03 1.379929e-03 1.000000e-03 1.000000e-03 1.130625e-03 1.000000e-03 1.000000e-03 1.000000e-03 1.000000e-03
<GCONST> -6.543425e+01
<STATE> 5
<MEAN> 16
 4.530023e-01 -3.098238e-01 1.734965e+00 -3.643745e-01 -1.667395e-01 1.690668e+00 2.051359e-02 -5.402951e-02 3.366915e-02 -4.886205e-03 -4.630129e-02 2.341189e-02 8.908983e-02 8.902827e-02 7.569236e-02 7.630478e-02
<VARIANCE> 16
 1.412361e-02 2.684376e-02 4.315413e-02 1.302604e-02 3.599736e-02 3.532023e-02 1.000000e-03 1.644488e-03 6.277511e-03 1.000000e-03 3.109472e-03 5.908848e-03 1.000000e-03 1.000000e-03 1.000000e-03 1.000000e-03
<GCONST> -5.645524e+01
<TRANSP> 6
 0.000000e+00 1.000000e+00 0.000000e+00 0.000000e+00 0.000000e+00 0.000000e+00
 0.000000e+00 8.963147e-01 1.036853e-01 0.000000e+00 0.000000e+00 0.000000e+00
 0.000000e+00 0.000000e+00 9.637299e-01 3.627011e-02 0.000000e+00 0.000000e+00
 0.000000e+00 0.000000e+00 0.000000e+00 9.568521e-01 4.314788e-02 0.000000e+00
 0.000000e+00 0.000000e+00 0.000000e+00 0.000000e+00 6.113254e-01 3.886745e-01
 0.000000e+00 0.000000e+00 0.000000e+00 0.000000e+00 0.000000e+00 0.000000e+00
<ENDHMM>
~h "jumps_on"
<BEGINHMM>
<NUMSTATES> 6
<STATE> 2
<NUMMIXES> 2
<MIXTURE> 1 4.708239e-01
<MEAN> 16
 3.772551e-01 -3.907337e-01 2.046783e+00 -3.144840e-01 -3.149019e-01 2.007369e+00 -6.849154e-03 3.183173e-02 2.900117e-02 -3.985571e-03 3.438218e-02 2.377128e-02 1.014105e-01 9.787973e-02 9.102389e-02 8.722979e-02
<VARIANCE> 16
 1.330832e-02 1.929548e-02 3.412789e-02 1.170099e-02 3.330134e-02 3.378326e-02 2.136779e-03 5.259064e-03 8.037142e-03 2.407976e-03 8.374108e-03 8.427690e-03 1.157569e-03 1.000000e-03 1.000000e-03 1.000000e-03
<GCONST> -5.276934e+01
<MIXTURE> 2 5.291747e-01
<MEAN> 16
 3.953651e-01 -4.086299e-01 1.826391e+00 -3.188852e-01 -3.529415e-01 1.809747e+00 -2.829348e-02 3.876236e-02 -3.596911e-02 6.755096e-03 3.711360e-02 -3.322382e-02 9.000905e-02 8.591999e-02 7.675707e-02 7.429884e-02
<VARIANCE> 16
 1.100525e-02 1.340664e-02 4.282750e-02 1.826924e-02 2.704475e-02 4.213106e-02 1.185094e-03 3.354510e-03 5.169133e-03 1.000000e-03 3.794067e-03 4.717492e-03 1.000000e-03 1.000000e-03 1.000000e-03 1.000000e-03
<GCONST> -5.651571e+01
<STATE> 3
<NUMMIXES> 2
<MIXTURE> 1 4.868612e-01
<MEAN> 16
 2.887726e-01 -1.310214e-01 1.885098e+00 -2.408027e-01 -7.467028e-02 1.792719e+00 3.754795e-03 6.028230e-03 2.731759e-02 -4.446433e-03 2.778268e-04 2.572657e-02 1.058314e-01 1.121575e-01 8.634328e-02 8.866183e-02
<VARIANCE> 16
 1.529752e-02 6.205454e-02 1.068504e-02 5.499366e-03 2.419676e-02 1.218918e-02 1.000000e-03 2.577954e-03 3.923297e-03 1.000000e-03 1.054392e-03 3.402643e-03 1.000000e-03 1.000000e-03 1.000000e-03 1.000000e-03
<GCONST> -6.091067e+01
<MIXTURE> 2 5.131363e-01
<MEAN> 16
 2.695419e-01 -1.625110e-01 1.777786e+00 -2.315886e-01 -1.414340e-01 1.700592e+00 -1.251294e-02 1.144098e-02 -3.082258e-02 5.764913e-03 5.214628e-03 -2.716302e-02 8.546646e-02 9.387819e-02 7.678470e-02 7.678332e-02
<VARIANCE> 16
 1.300040e-02 3.609696e-02 9.462600e-03 6.327146e-03 1.737572e-02 8.732716e-03 1.000000e-03 2.363528e-03 3.766132e-03 1.000000e-03 1.327781e-03 3.249548e-03 1.000000e-03 1.000000e-03 1.000000e-03 1.000000e-03
<GCONST> -6.220430e+01
<STATE> 4
<NUMMIXES> 2
<MIXTURE> 1 4.597879e-01
<MEAN> 16
 1.280424e-01 -3.619086e-03 1.608440e+00 -1.994637e-01 1.082126e-02 1.496770e+00 -8.884481e-04 5.915222e-03 1.337594e-02 -1.937695e-03 6.498161e-04 1.124550e-02 9.903188e-02 1.127875e-01 8.270765e-02 8.591785e-02
<VARIANCE> 16
 3.659589e-02 5.561078e-02 2.695464e-02 7.570229e-03 7.796356e-03 1.640489e-02 1.000000e-03 1.509058e-03 2.337719e-03 1.000000e-03 1.000000e-03 1.478913e-03 1.000000e-03 1.016850e-03 1.000000e-03 1.000000e-03
<GCONST> -6.166145e+01
<MIXTURE> 2 5.402048e-01
<MEAN> 16
 7.394688e-02 -5.068126e-03 1.449362e+00 -1.760687e-01 -1.863263e-02 1.378160e+00 -5.718116e-03 7.927634e-04 -1.240272e-02 2.652118e-03 -3.549121e-04 -1.099778e-02 9.013007e-02 9.330110e-02 7.169733e-02 8.153865e-02
<VARIANCE> 16
 4.489453e-02 4.377478e-02 1.885742e-02 6.535319e-03 3.860730e-03 7.794222e-03 1.000000e-03 1.400094e-03 1.383777e-03 1.000000e-03 1.000000e-03 1.058072e-03 1.000000e-03 1.000000e-03 1.000000e-03 1.000000e-03
<GCONST> -6.459851e+01
<STATE> 5
<MEAN> 16
 -7.344846e-02 -4.639618e-02 1.731673e+00 -1.120698e-01 -1.384444e-01 1.711726e+00 1.750801e-02 -1.901707e-02 2.147524e-03 -4.988261e-03 -5.538947e-03 3.852086e-03 9.093417e-02 8.943132e-02 7.090328e-02 8.129376e-02
<VARIANCE> 16
 5.529796e-02 3.665001e-02 1.952670e-02 2.207191e-02 2.365256e-02 1.810087e-02 5.361345e-03 2.708489e-03 6.486240e-03 4.896741e-03 3.338107e-03 7.973026e-03 1.000000e-03 1.406009e-03 1.000000e-03 1.000000e-03
<GCONST> -5.162230e+01
<TRANSP> 6
 0.000000e+00 1.000000e+00 0.000000e+00 0.000000e+00 0.000000e+00 0.000000e+00
 0.000000e+00 8.687558e-01 1.312442e-01 0.000000e+00 0.000000e+00 0.000000e+00
 0.000000e+00 0.000000e+00 9.572006e-01 4.279935e-02 0.000000e+00 0.000000e+00
 0.000000e+00 0.000000e+00 0.000000e+00 9.691471e-01 3.085286e-02 0.000000e+00
 0.000000e+00 0.000000e+00 0.000000e+00 0.000000e+00 8.985986e-01 1.014014e-01
 0.000000e+00 0.000000e+00 0.000000e+00 0.000000e+00 0.000000e+00 0.000000e+00
<ENDHMM>
~h "house"
<BEGINHMM>
<NUMSTATES> 6
<STATE> 2
<NUMMIXES> 2
<MIXTURE> 1 4.960578e-01
<MEAN> 16
 2.879151e-01 -6.963551e-02 1.982109e+00 -2.569182e-01 3.186456e-02 1.948959e+00 1.157460e-02 -1.378266e-02 3.543311e-02 -1.123819e-02 -4.631877e-03 2.825498e-02 1.574441e-01 1.520979e-01 9.655099e-02 1.022162e-01
<VARIANCE> 16
 9.634081e-03 9.330823e-02 1.360483e-02 8.205108e-03 5.468363e-02 1.068479e-02 1.000000e-03 1.370218e-03 4.577437e-03 1.000000e-03 2.226701e-03 3.734760e-03 1.000000e-03 1.000000e-03 1.000000e-03 1.000000e-03
<GCONST> -5.927696e+01
<MIXTURE> 2 5.039420e-01
<MEAN> 16
 2.991330e-01 -3.027360e-01 1.931800e+00 -2.972531e-01 -7.500894e-02 1.846251e+00 -1.276057e-03 -2.021946e-02 -2.602522e-02 -9.795760e-06 -6.059640e-03 -2.731769e-02 1.158761e-01 1.299001e-01 8.505324e-02 9.456068e-02
<VARIANCE> 16
 5.892914e-03 5.387289e-02 2.586490e-02 3.734856e-03 3.464010e-02 1.261130e-02 1.000000e-03 1.679363e-03 5.929334e-03 1.000000e-03 2.855967e-03 4.364834e-03 1.395577e-03 1.000000e-03 1.000000e-03 1.000000e-03
<GCONST> -5.955285e+01
<STATE> 3
<NUMMIXES> 2
<MIXTURE> 1 4.465481e-01
<MEAN> 16
 3.131616e-01 -9.436776e-02 1.940578e+00 -3.043634e-01 5.678882e-02 1.821627e+00 9.351216e-03 2.908430e-03 2.319806e-02 -5.365091e-03 -5.438531e-04 2.056633e-02 1.176296e-01 1.249403e-01 8.916514e-02 1.078458e-01
<VARIANCE> 16
 2.367273e-02 6.454868e-02 1.210716e-02 2.281254e-03 2.706451e-03 1.085901e-02 1.299295e-03 2.942661e-03 4.621087e-03 1.000000e-03 1.000000e-03 3.344183e-03 1.000000e-03 1.000000e-03 1.000000e-03 1.000000e-03
<GCONST> -6.300817e+01
<MIXTURE> 2 5.534408e-01
<MEAN> 16
 2.331051e-01 -7.056578e-02 1.812020e+00 -3.421575e-01 -4.031135e-04 1.678585e+00 -7.974372e-03 8.482151e-05 -2.252932e-02 3.752315e-03 -3.387725e-03 -1.900082e-02 1.051336e-01 1.125142e-01 7.768997e-02 9.422981e-02
<VARIANCE> 16
 2.752159e-02 3.391263e-02 1.249311e-02 3.086081e-03 6.494247e-03 9.269352e-03 1.465980e-03 1.991375e-03 4.543251e-03 1.000000e-03 1.000000e-03 3.313802e-03 1.000000e-03 1.000000e-03 1.000000e-03 1.000000e-03
<GCONST> -6.274650e+01
<STATE> 4
<NUMMIXES> 2
<MIXTURE> 1 4.986717e-01
<MEAN> 16
 1.772639e-01 -1.197750e-01 1.698765e+00 -2.712478e-01 -2.484348e-02 1.635946e+00 7.170693e-03 -7.449805e-03 1.885581e-02 -2.627691e-03 -4.042137e-03 1.655946e-02 9.811823e-02 9.069664e-02 7.976816e-02 9.304295e-02
<VARIANCE> 16
 5.575508e-02 3.644125e-02 1.986591e-02 8.829142e-03 2.557930e-02 1.847003e-02 1.149268e-03 1.084560e-03 2.783800e-03 1.000000e-03 1.000000e-03 2.248763e-03 1.000000e-03 1.000000e-03 1.000000e-03 1.000000e-03
<GCONST> -6.012189e+01
<MIXTURE> 2 5.013208e-01
<MEAN> 16
 2.259082e-01 -1.772502e-01 1.617210e+00 -3.006975e-01 -9.707959e-02 1.539166e+00 2.625066e-03 -1.225510e-02 -1.482952e-02 5.440492e-03 -9.636094e-03 -1.401014e-02 8.984199e-02 8.569350e-02 7.622141e-02 8.612836e-02
<VARIANCE> 16
 4.854823e-02 3.605880e-02 2.878702e-02 5.913869e-03 2.543882e-02 3.091956e-02 1.554320e-03 1.978425e-03 3.322723e-03 1.000000e-03 1.000000e-03 2.543607e-03 1.000000e-03 1.000000e-03 1.000000e-03 1.000000e-03
<GCONST> -5.858775e+01
<STATE> 5
<MEAN> 16
 5.837152e-01 -6.940245e-01 1.859142e+00 -1.993846e-01 -5.961731e-01 1.809794e+00 5.242620e-03 -5.917229e-03 1.504485e-03 2.681483e-03 -8.469901e-03 3.951649e-03 1.158423e-01 1.082349e-01 9.752101e-02 7.230713e-02
<VARIANCE> 16
 1.865279e-02 3.505633e-03 1.589241e-02 1.728407e-02 7.616459e-03 8.339247e-03 1.000000e-03 1.000000e-03 1.437343e-03 1.000000e-03 1.000000e-03 1.499984e-03 1.000000e-03 1.000000e-03 1.000000e-03 1.000000e-03
<GCONST> -6.640253e+01
<TRANSP> 6
 0.000000e+00 1.000000e+00 0.000000e+00 0.000000e+00 0.000000e+00 0.000000e+00
 0.000000e+00 9.318366e-01 6.816339e-02 0.000000e+00 0.000000e+00 0.000000e+00
 0.000000e+00 0.000000e+00 9.742054e-01 2.579463e-02 0.000000e+00 0.000000e+00
 0.000000e+00 0.000000e+00 0.000000e+00 9.725590e-01 2.744095e-02 0.000000e+00
 0.000000e+00 0.000000e+00 0.000000e+00 0.000000e+00 9.627005e-01 3.729953e-02
 0.000000e+00 0.000000e+00 0.000000e+00 0.000000e+00 0.000000e+00 0.000000e+00
<ENDHMM>
~h "bumps_into"
<BEGINHMM>
<NUMSTATES> 6
<STATE> 2
<NUMMIXES> 2
<MIXTURE> 1 4.659220e-01
<MEAN> 16
 3.968211e-01 -4.112965e-01 2.034551e+00 -3.441600e-01 -3.404705e-01 1.992833e+00 1.114442e-03 2.050422e-02 3.597588e-02 -9.641699e-03 2.528112e-02 2.923363e-02 9.804536e-02 9.376104e-02 8.883204e-02 8.712456e-02
<VARIANCE> 16
 1.602452e-02 1.996976e-02 2.856626e-02 1.512054e-02 1.595951e-02 3.139156e-02 1.468036e-03 2.865608e-03 8.156327e-03 1.887539e-03 3.225001e-03 8.229940e-03 1.000000e-03 1.000000e-03 1.000000e-03 1.000000e-03
<GCONST> -5.561536e+01
<MIXTURE> 2 5.340747e-01
<MEAN> 16
 4.150129e-01 -4.212388e-01 1.842878e+00 -3.549572e-01 -3.814053e-01 1.819203e+00 -2.084420e-02 2.582858e-02 -2.584339e-02 4.314353e-03 2.795744e-02 -2.591150e-02 8.704737e-02 8.554526e-02 7.722917e-02 7.553832e-02
<VARIANCE> 16
 1.130697e-02 1.390308e-02 4.443546e-02 1.804841e-02 1.519332e-02 4.150189e-02 1.000000e-03 2.207728e-03 4.175787e-03 1.000000e-03 1.864403e-03 3.744486e-03 1.000000e-03 1.000000e-03 1.000000e-03 1.000000e-03
<GCONST> -5.876234e+01
<STATE> 3
<NUMMIXES> 2
<MIXTURE> 1 4.294835e-01
<MEAN> 16
 3.208014e-01 -1.905170e-01 1.873819e+00 -2.173220e-01 -1.439939e-01 1.811795e+00 -2.514921e-02 5.875729e-02 4.091925e-03 4.687241e-03 5.824205e-02 6.541885e-03 1.093595e-01 1.006338e-01 8.552125e-02 8.407321e-02
<VARIANCE> 16
 1.340968e-02 5.011574e-02 1.662241e-02 5.823954e-03 3.015531e-02 1.326843e-02 3.955182e-03 8.488056e-03 1.171891e-02 2.955539e-03 1.534664e-02 1.084612e-02 1.216018e-03 1.000000e-03 1.000000e-03 1.000000e-03
<GCONST> -5.167441e+01
<MIXTURE> 2 5.705162e-01
<MEAN> 16
 3.304380e-01 -1.920573e-01 1.760704e+00 -2.484043e-01 -1.686094e-01 1.710868e+00 -2.759780e-02 3.836880e-02 -3.646896e-02 8.427872e-03 3.822556e-02 -3.252105e-02 7.941158e-02 7.525174e-02 6.990001e-02 7.132677e-02
<VARIANCE> 16
 6.525973e-03 3.292944e-02 1.719740e-02 7.130179e-03 1.990415e-02 1.385670e-02 1.287489e-03 5.258161e-03 5.234003e-03 1.208882e-03 5.457150e-03 5.407434e-03 1.000000e-03 1.000000e-03 1.000000e-03 1.000000e-03
<GCONST> -5.817706e+01
<STATE> 4
<NUMMIXES> 2
<MIXTURE> 1 4.199173e-01
<MEAN> 16
 1.708446e-01 -5.518598e-03 1.734629e+00 -1.685172e-01 5.456557e-02 1.709474e+00 1.690770e-02 1.988688e-02 3.327350e-02 -1.964215e-02 2.559798e-02 3.496051e-02 1.250270e-01 1.195092e-01 8.846838e-02 8.694538e-02
<VARIANCE> 16
 2.050794e-02 6.196200e-02 3.603039e-02 1.177744e-02 2.768702e-02 2.838449e-02 6.310404e-03 1.669221e-03 6.284405e-03 5.132752e-03 2.393362e-03 6.332663e-03 1.000000e-03 1.000000e-03 1.000000e-03 1.000000e-03
<GCONST> -5.270668e+01
<MIXTURE> 2 5.800821e-01
<MEAN> 16
 1.054363e-01 -5.691532e-02 1.562934e+00 -1.364989e-01 -3.537957e-02 1.557044e+00 -1.688866e-02 1.578749e-02 -2.715152e-02 1.211524e-02 2.152774e-02 -2.463875e-02 9.068331e-02 8.565437e-02 7.493187e-02 7.216021e-02
<VARIANCE> 16
 2.372346e-02 2.492880e-02 3.224352e-02 1.724859e-02 1.133617e-02 2.528266e-02 4.099453e-03 1.208218e-03 4.601465e-03 4.795921e-03 1.078991e-03 3.850220e-03 1.000000e-03 1.000000e-03 1.000000e-03 1.000000e-03
<GCONST> -5.663811e+01
<STATE> 5
<MEAN> 16
 2.772840e-01 -2.035069e-01 1.836496e+00 -2.121217e-01 4.206901e-02 1.802772e+00 4.873334e-03 -9.573013e-03 7.114416e-03 -7.715731e-03 1.813447e-03 6.947209e-03 1.084948e-01 1.123447e-01 8.666138e-02 8.316347e-02
<VARIANCE> 16
 9.336174e-03 1.038515e-01 2.157475e-02 8.654417e-03 4.191369e-02 2.019615e-02 1.000000e-03 1.732212e-03 1.880229e-03 1.000000e-03 3.668773e-03 1.732809e-03 1.149113e-03 1.000000e-03 1.000000e-03 1.000000e-03
<GCONST> -5.910112e+01
<TRANSP> 6
 0.000000e+00 1.000000e+00 0.000000e+00 0.000000e+00 0.000000e+00 0.000000e+00
 0.000000e+00 8.554400e-01 1.445601e-01 0.000000e+00 0.000000e+00 0.000000e+00
 0.000000e+00 0.000000e+00 7.715868e-01 2.284131e-01 0.000000e+00 0.000000e+00
 0.000000e+00 0.000000e+00 0.000000e+00 7.813505e-01 2.186495e-01 0.000000e+00
 0.000000e+00 0.000000e+00 0.000000e+00 0.000000e+00 7.847083e-01 2.152918e-01
 0.000000e+00 0.000000e+00 0.000000e+00 0.000000e+00 0.000000e+00 0.000000e+00
<ENDHMM>
~h "goes_to"
<BEGINHMM>
<NUMSTATES> 6
<STATE> 2
<NUMMIXES> 2
<MIXTURE> 1 4.796298e-01
<MEAN> 16
 3.737606e-01 -3.972158e-01 1.992128e+00 -2.498411e-01 -2.339425e-01 1.943300e+00 -5.301999e-03 2.849977e-02 3.133650e-02 -3.832688e-03 3.364235e-02 2.821196e-02 1.067332e-01 9.842409e-02 9.080691e-02 8.466080e-02
<VARIANCE> 16
 1.744077e-02 4.803559e-02 3.573069e-02 2.553362e-02 8.547155e-02 3.687460e-02 1.930923e-03 5.624873e-03 7.644053e-03 2.705899e-03 6.452939e-03 6.943740e-03 1.202133e-03 1.000000e-03 1.000000e-03 1.000000e-03
<GCONST> -5.011456e+01
<MIXTURE> 2 5.203677e-01
<MEAN> 16
 4.043286e-01 -4.077219e-01 1.811654e+00 -3.014590e-01 -3.114879e-01 1.785584e+00 -2.893689e-02 4.034220e-02 -3.952720e-02 8.117114e-03 4.401048e-02 -3.493370e-02 9.064358e-02 8.573458e-02 7.647886e-02 7.445142e-02
<VARIANCE> 16
 1.160332e-02 2.135471e-02 4.477126e-02 2.114909e-02 4.193908e-02 4.022073e-02 1.558633e-03 3.710062e-03 6.799305e-03 1.010776e-03 4.216922e-03 6.128821e-03 1.000000e-03 1.000000e-03 1.000000e-03 1.000000e-03
<GCONST> -5.438723e+01
<STATE> 3
<NUMMIXES> 2
<MIXTURE> 1 4.549157e-01
<MEAN> 16
 2.738303e-01 -1.802304e-01 1.868130e+00 -2.569236e-01 -1.564007e-01 1.820779e+00 2.091414e-04 6.428185e-03 2.171366e-02 -3.845750e-03 5.321795e-04 2.031456e-02 9.506994e-02 1.000848e-01 8.578769e-02 7.991605e-02
<VARIANCE> 16
 1.747804e-02 3.964058e-02 1.457127e-02 7.324863e-03 1.538160e-02 1.094464e-02 1.000000e-03 1.972779e-03 3.041049e-03 1.000000e-03 1.297350e-03 2.688207e-03 1.000000e-03 1.000000e-03 1.000000e-03 1.000000e-03
<GCONST> -6.174007e+01
<MIXTURE> 2 5.450824e-01
<MEAN> 16
 2.291188e-01 -2.003713e-01 1.767254e+00 -2.533252e-01 -1.855920e-01 1.739802e+00 -1.037493e-02 5.778347e-03 -2.228989e-02 4.927409e-03 6.021518e-03 -2.022421e-02 8.396250e-02 8.738592e-02 7.258387e-02 7.595267e-02
<VARIANCE> 16
 2.731706e-02 2.232721e-02 1.163230e-02 8.218574e-03 7.909026e-03 9.492993e-03 1.000000e-03 1.970953e-03 2.930910e-03 1.000000e-03 1.000000e-03 2.560884e-03 1.000000e-03 1.000000e-03 1.000000e-03 1.000000e-03
<GCONST> -6.313182e+01
<STATE> 4
<NUMMIXES> 2
<MIXTURE> 1 4.433944e-01
<MEAN> 16
 1.992354e-01 -8.072758e-02 1.549363e+00 -2.857016e-01 2.388188e-02 1.466698e+00 1.090385e-03 2.328128e-03 1.189760e-02 -4.220820e-03 2.185220e-03 1.025983e-02 9.408832e-02 1.045218e-01 8.038360e-02 8.526634e-02
<VARIANCE> 16
 3.084396e-02 4.234400e-02 2.553665e-02 1.084698e-02 7.920106e-03 1.684596e-02 1.000000e-03 1.568615e-03 1.706307e-03 1.000000e-03 1.000000e-03 1.141956e-03 1.000000e-03 1.000000e-03 1.000000e-03 1.000000e-03
<GCONST> -6.230851e+01
<MIXTURE> 2 5.566010e-01
<MEAN> 16
 1.171023e-01 -5.608295e-02 1.419854e+00 -2.906278e-01 9.252001e-03 1.372072e+00 -6.396793e-03 1.296686e-03 -1.172342e-02 2.758749e-03 -3.471802e-05 -1.033790e-02 8.597527e-02 9.433514e-02 7.669841e-02 8.210956e-02
<VARIANCE> 16
 4.613167e-02 2.745643e-02 1.317140e-02 6.329556e-03 3.252561e-03 7.110382e-03 1.000000e-03 1.000000e-03 1.132084e-03 1.000000e-03 1.000000e-03 1.000000e-03 1.000000e-03 1.000000e-03 1.000000e-03 1.000000e-03
<GCONST> -6.628562e+01
<STATE> 5
<MEAN> 16
 2.143821e-01 -1.885076e-01 1.687080e+00 -2.684641e-01 -2.494382e-01 1.716990e+00 3.114161e-02 -1.862926e-02 1.355268e-02 -1.913269e-02 -1.693993e-02 1.979736e-02 9.417212e-02 9.887931e-02 7.743079e-02 7.627842e-02
<VARIANCE> 16
 4.103714e-02 3.551814e-02 5.306945e-02 2.527676e-02 9.466238e-02 3.822488e-02 9.179731e-03 4.544456e-03 1.200718e-02 6.686835e-03 5.474016e-03 1.127066e-02 1.000000e-03 1.145733e-03 1.000000e-03 1.000000e-03
<GCONST> -4.606343e+01
<TRANSP> 6
 0.000000e+00 1.000000e+00 0.000000e+00 0.000000e+00 0.000000e+00 0.000000e+00
 0.000000e+00 8.818987e-01 1.181014e-01 0.000000e+00 0.000000e+00 0.000000e+00
 0.000000e+00 0.000000e+00 9.383249e-01 6.167510e-02 0.000000e+00 0.000000e+00
 0.000000e+00 0.000000e+00 0.000000e+00 9.570879e-01 4.291211e-02 0.000000e+00
 0.000000e+00 0.000000e+00 0.000000e+00 0.000000e+00 7.408396e-01 2.591604e-01
 0.000000e+00 0.000000e+00 0.000000e+00 0.000000e+00 0.000000e+00 0.000000e+00
<ENDHMM>
