~o
<STREAMINFO> 1 16
<VECSIZE> 16<NULLD><USER><DIAGC>
~h "Monkey"
<BEGINHMM>
<NUMSTATES> 6
<STATE> 2
<MEAN> 16
 5.970967e-01 -7.115256e-01 1.853068e+00 -2.126038e-01 -6.190959e-01 1.825617e+00 5.848365e-01 -6.974126e-01 1.817200e+00 -2.055112e-01 -6.048243e-01 1.786088e+00 1.156829e-01 1.066518e-01 9.744329e-02 7.099260e-02
<VARIANCE> 16
 6.069859e-03 2.633504e-03 1.607319e-02 1.941601e-02 8.173197e-03 9.805874e-03 1.320595e-02 1.296839e-02 8.479418e-02 2.066841e-02 1.643733e-02 8.891252e-02 1.000000e-03 1.000000e-03 1.000000e-03 1.000000e-03
<GCONST> -4.832009e+01
<STATE> 3
<MEAN> 16
 4.130148e-01 -4.275094e-01 1.841405e+00 -1.872744e-01 -3.772661e-01 1.811839e+00 -1.165008e-02 1.767217e-02 -2.455944e-03 -1.577538e-03 1.565930e-02 -2.107922e-03 1.088860e-01 1.028696e-01 8.714485e-02 7.667047e-02
<VARIANCE> 16
 3.589477e-02 1.037528e-01 1.479186e-02 1.230454e-02 8.569452e-02 1.107731e-02 1.547453e-03 3.443202e-03 5.026929e-03 1.000000e-03 3.469246e-03 4.570614e-03 1.400709e-03 1.000000e-03 1.000000e-03 1.000000e-03
<GCONST> -5.444733e+01
<STATE> 4
<MEAN> 16
 3.453964e-01 -3.145041e-01 1.707429e+00 -2.278992e-01 -1.709216e-01 1.626513e+00 3.729045e-03 -1.209265e-03 3.275193e-03 -3.293826e-03 3.261687e-03 -1.600522e-03 1.044805e-01 1.120303e-01 9.134907e-02 8.531523e-02
<VARIANCE> 16
 4.223535e-02 8.075542e-02 3.038748e-02 2.417533e-02 8.581008e-02 3.350381e-02 2.306075e-03 1.000000e-03 2.223264e-03 2.596587e-03 1.000000e-03 1.926886e-03 1.000000e-03 1.000000e-03 1.000000e-03 1.000000e-03
<GCONST> -5.517559e+01
<STATE> 5
<MEAN> 16
 4.717916e-01 -6.682182e-01 1.884991e+00 -1.831550e-01 -4.560376e-01 1.823973e+00 -8.328429e-03 5.433494e-03 1.418077e-04 -2.919188e-03 9.427510e-03 -1.239676e-03 1.194236e-01 1.120497e-01 9.056044e-02 7.457929e-02
<VARIANCE> 16
 2.353868e-02 6.645802e-03 1.090069e-02 1.509386e-02 9.596071e-02 6.866503e-03 1.000000e-03 1.000000e-03 1.896259e-03 1.000000e-03 1.698560e-03 1.861119e-03 1.000000e-03 1.000000e-03 1.000000e-03 1.000000e-03
<GCONST> -6.268088e+01
<TRANSP> 6
 0.000000e+00 1.000000e+00 0.000000e+00 0.000000e+00 0.000000e+00 0.000000e+00
 0.000000e+00 2.040673e-02 9.795932e-01 0.000000e+00 0.000000e+00 0.000000e+00
 0.000000e+00 0.000000e+00 7.819132e-01 2.180869e-01 0.000000e+00 0.000000e+00
 0.000000e+00 0.000000e+00 0.000000e+00 6.853626e-01 3.146374e-01 0.000000e+00
 0.000000e+00 0.000000e+00 0.000000e+00 0.000000e+00 9.190140e-01 8.098600e-02
 0.000000e+00 0.000000e+00 0.000000e+00 0.000000e+00 0.000000e+00 0.000000e+00
<ENDHMM>
~h "fence"
<BEGINHMM>
<NUMSTATES> 6
<STATE> 2
<MEAN> 16
 3.841925e-01 -3.486587e-01 1.940896e+00 -3.366638e-01 -2.090910e-01 1.798591e+00 1.093300e-03 -3.958934e-03 1.185474e-03 -8.657200e-04 -3.502391e-03 -2.734831e-03 1.034794e-01 1.458844e-01 9.394576e-02 9.127933e-02
<VARIANCE> 16
 1.469056e-02 1.807043e-02 2.614628e-02 4.966277e-03 1.627784e-02 2.038605e-02 1.000000e-03 1.000000e-03 3.476664e-03 1.000000e-03 1.000000e-03 2.400148e-03 1.608977e-03 1.000000e-03 1.000000e-03 1.000000e-03
<GCONST> -6.226834e+01
<STATE> 3
<MEAN> 16
 2.750967e-01 -9.980743e-02 1.846924e+00 -3.408257e-01 -1.435935e-01 1.797555e+00 -1.047953e-03 -6.646438e-04 -9.013764e-04 3.220971e-04 -1.047441e-03 -1.646341e-04 1.070209e-01 1.540804e-01 8.573082e-02 9.289704e-02
<VARIANCE> 16
 3.557326e-02 3.538575e-02 1.404776e-02 4.624173e-03 8.534233e-03 1.176937e-02 1.196006e-03 1.975330e-03 3.498230e-03 1.000000e-03 1.000000e-03 2.944434e-03 1.000000e-03 1.000000e-03 1.000000e-03 1.000000e-03
<GCONST> -6.200491e+01
<STATE> 4
<MEAN> 16
 1.431393e-01 -1.135944e-01 1.611399e+00 -3.399515e-01 -9.368541e-02 1.573091e+00 3.299150e-03 -6.226957e-03 1.358540e-04 1.015060e-03 -4.028549e-03 3.994064e-04 9.361290e-02 1.344851e-01 7.620472e-02 8.481287e-02
<VARIANCE> 16
 5.953147e-02 2.357741e-02 2.409653e-02 1.399146e-02 9.619731e-03 2.405527e-02 1.661018e-03 1.264129e-03 1.999325e-03 1.000000e-03 1.000000e-03 1.835943e-03 1.000000e-03 1.000000e-03 1.000000e-03 1.000000e-03
<GCONST> -6.056440e+01
<STATE> 5
<MEAN> 16
 5.753918e-01 -6.899945e-01 1.858098e+00 -1.906745e-01 -5.821021e-01 1.791973e+00 6.667000e-03 -8.191931e-03 3.137193e-03 3.645960e-03 -9.184372e-03 3.306002e-03 1.154313e-01 1.116184e-01 9.709395e-02 7.533932e-02
<VARIANCE> 16
 2.086745e-02 4.980810e-03 1.499627e-02 1.468796e-02 1.205701e-02 7.501404e-03 1.000000e-03 1.000000e-03 1.946208e-03 1.000000e-03 1.000000e-03 1.744784e-03 1.000000e-03 1.000000e-03 1.000000e-03 1.000000e-03
<GCONST> -6.535219e+01
<TRANSP> 6
 0.000000e+00 1.000000e+00 0.000000e+00 0.000000e+00 0.000000e+00 0.000000e+00
 0.000000e+00 9.047902e-01 9.520984e-02 0.000000e+00 0.000000e+00 0.000000e+00
 0.000000e+00 0.000000e+00 9.771032e-01 2.289679e-02 0.000000e+00 0.000000e+00
 0.000000e+00 0.000000e+00 0.000000e+00 9.706408e-01 2.935925e-02 0.000000e+00
 0.000000e+00 0.000000e+00 0.000000e+00 0.000000e+00 9.637836e-01 3.621638e-02
 0.000000e+00 0.000000e+00 0.000000e+00 0.000000e+00 0.000000e+00 0.000000e+00
<ENDHMM>
~h "Car"
<BEGINHMM>
<NUMSTATES> 6
<STATE> 2
<MEAN> 16
 5.990832e-01 -7.117149e-01 1.841788e+00 -2.187898e-01 -6.208272e-01 1.826281e+00 5.982614e-01 -7.107370e-01 1.839308e+00 -2.183946e-01 -6.199006e-01 1.823751e+00 1.144150e-01 1.049007e-01 9.862142e-02 7.398396e-02
<VARIANCE> 16
 5.544565e-03 2.271040e-03 1.461574e-02 1.892064e-02 9.352851e-03 8.391993e-03 6.014013e-03 2.942697e-03 1.910071e-02 1.896344e-02 9.818960e-03 1.273289e-02 1.000000e-03 1.000000e-03 1.000000e-03 1.000000e-03
<GCONST> -5.500553e+01
<STATE> 3
<MEAN> 16
 4.365478e-01 -4.488985e-01 1.833149e+00 -1.932402e-01 -3.890601e-01 1.815783e+00 -9.387520e-03 1.750913e-02 -2.771783e-03 -1.891864e-03 1.669281e-02 -4.271382e-03 1.159239e-01 1.040773e-01 9.398550e-02 7.642168e-02
<VARIANCE> 16
 4.200702e-02 1.065721e-01 1.447118e-02 1.436275e-02 9.640244e-02 1.178656e-02 3.361627e-03 3.920493e-03 7.077728e-03 1.935916e-03 4.779007e-03 5.820351e-03 1.059550e-03 1.081144e-03 1.000000e-03 1.000000e-03
<GCONST> -5.168147e+01
<STATE> 4
<MEAN> 16
 4.743890e-01 -4.325118e-01 1.736980e+00 -2.665877e-01 -3.693540e-01 1.708265e+00 1.068480e-03 6.114886e-04 2.859269e-04 -3.400818e-03 4.150235e-03 -2.225254e-03 1.114206e-01 1.059877e-01 9.973696e-02 8.597327e-02
<VARIANCE> 16
 2.995856e-02 1.103602e-01 2.806200e-02 2.021651e-02 9.618941e-02 2.653598e-02 1.807669e-03 1.095366e-03 1.758701e-03 1.000000e-03 1.000000e-03 1.842888e-03 1.000000e-03 1.000000e-03 1.000000e-03 1.000000e-03
<GCONST> -5.696972e+01
<STATE> 5
<MEAN> 16
 4.926884e-01 -6.601185e-01 1.856219e+00 -2.181589e-01 -5.345894e-01 1.816121e+00 -1.010056e-02 7.423713e-03 -7.290440e-04 -2.563170e-03 8.712173e-03 -3.132356e-03 1.170711e-01 1.081530e-01 9.545613e-02 7.377402e-02
<VARIANCE> 16
 2.106380e-02 7.748747e-03 1.481924e-02 1.805043e-02 5.561826e-02 8.488748e-03 1.000000e-03 1.000000e-03 1.805181e-03 1.000000e-03 1.051174e-03 1.628579e-03 1.000000e-03 1.000000e-03 1.000000e-03 1.000000e-03
<GCONST> -6.314834e+01
<TRANSP> 6
 0.000000e+00 1.000000e+00 0.000000e+00 0.000000e+00 0.000000e+00 0.000000e+00
 0.000000e+00 1.354327e-03 9.986457e-01 0.000000e+00 0.000000e+00 0.000000e+00
 0.000000e+00 0.000000e+00 6.993348e-01 3.006652e-01 0.000000e+00 0.000000e+00
 0.000000e+00 0.000000e+00 0.000000e+00 3.890744e-01 6.109256e-01 0.000000e+00
 0.000000e+00 0.000000e+00 0.000000e+00 0.000000e+00 9.083522e-01 9.164777e-02
 0.000000e+00 0.000000e+00 0.000000e+00 0.000000e+00 0.000000e+00 0.000000e+00
<ENDHMM>
~h "Man"
<BEGINHMM>
<NUMSTATES> 6
<STATE> 2
<MEAN> 16
 5.870872e-01 -7.043890e-01 1.846760e+00 -2.150027e-01 -6.152056e-01 1.817777e+00 5.808898e-01 -6.964360e-01 1.826512e+00 -2.132381e-01 -6.086926e-01 1.798047e+00 1.147454e-01 1.051900e-01 1.002614e-01 7.163070e-02
<VARIANCE> 16
 2.282668e-02 8.998686e-03 1.775680e-02 2.056391e-02 1.360091e-02 9.292947e-03 2.650246e-02 1.425596e-02 5.390127e-02 2.112080e-02 1.763022e-02 4.587023e-02 1.000000e-03 1.000000e-03 1.000000e-03 1.000000e-03
<GCONST> -4.538609e+01
<STATE> 3
<MEAN> 16
 6.736048e-02 -2.028945e-01 2.191780e+00 -5.877760e-01 -3.480551e-02 1.906847e+00 9.872316e-04 -6.965895e-04 5.289698e-05 3.817530e-04 -2.967678e-04 7.911996e-05 9.883564e-02 9.326819e-02 8.764775e-02 7.654627e-02
<VARIANCE> 16
 7.218748e-01 1.263895e-01 1.735837e-01 1.895548e-01 3.572046e-01 1.560577e-01 2.607466e+00 2.841915e-01 1.505609e-01 5.744592e-01 1.095706e+00 2.220805e-01 1.000000e-03 1.389634e-03 1.210545e-03 1.000000e-03
<GCONST> -1.056107e+01
<STATE> 4
<MEAN> 16
 4.321029e-01 -4.691044e-01 1.826261e+00 -1.725297e-01 -4.960066e-01 1.795067e+00 -6.410284e-03 1.569683e-02 -9.827383e-04 -1.597403e-03 1.162309e-02 -3.474213e-03 1.078498e-01 9.829985e-02 9.275974e-02 7.505548e-02
<VARIANCE> 16
 5.063896e-02 9.647548e-02 3.014366e-02 2.164430e-02 5.733261e-02 2.260463e-02 2.602814e-03 3.732376e-03 4.617205e-03 2.274852e-03 3.947443e-03 3.845586e-03 1.000000e-03 1.000000e-03 1.000000e-03 1.000000e-03
<GCONST> -5.163097e+01
<STATE> 5
<MEAN> 16
 4.803486e-01 -6.638843e-01 1.876643e+00 -1.781997e-01 -4.723965e-01 1.814761e+00 -1.116639e-02 9.064270e-03 -1.247523e-03 -2.605425e-03 1.546150e-02 -2.742114e-03 1.175474e-01 1.095828e-01 9.424123e-02 7.403734e-02
<VARIANCE> 16
 2.305290e-02 7.849917e-03 1.302884e-02 1.407203e-02 8.335546e-02 7.958421e-03 1.000000e-03 1.000000e-03 2.001665e-03 1.000000e-03 2.452086e-03 2.006477e-03 1.000000e-03 1.000000e-03 1.000000e-03 1.000000e-03
<GCONST> -6.192377e+01
<TRANSP> 6
 0.000000e+00 1.000000e+00 0.000000e+00 0.000000e+00 0.000000e+00 0.000000e+00
 0.000000e+00 1.115304e-02 9.888469e-01 0.000000e+00 0.000000e+00 0.000000e+00
 0.000000e+00 0.000000e+00 8.591731e-01 1.408269e-01 0.000000e+00 0.000000e+00
 0.000000e+00 0.000000e+00 0.000000e+00 5.874053e-01 4.125948e-01 0.000000e+00
 0.000000e+00 0.000000e+00 0.000000e+00 0.000000e+00 9.175695e-01 8.243050e-02
 0.000000e+00 0.000000e+00 0.000000e+00 0.000000e+00 0.000000e+00 0.000000e+00
<ENDHMM>
~h "car"
<BEGINHMM>
<NUMSTATES> 6
<STATE> 2
<MEAN> 16
 3.398850e-01 -4.481459e-01 2.058472e+00 -2.866343e-01 -5.218095e-02 1.886111e+00 4.996881e-03 -4.713288e-03 6.857532e-03 -7.182275e-04 -8.059059e-03 2.404444e-03 1.001239e-01 1.168693e-01 8.889484e-02 8.539742e-02
<VARIANCE> 16
 2.021832e-02 1.654448e-02 3.810478e-02 6.433249e-03 3.953802e-02 1.415846e-02 2.278430e-03 1.473050e-03 4.228795e-03 1.000000e-03 1.000000e-03 1.728031e-03 1.000000e-03 1.000000e-03 1.000000e-03 1.000000e-03
<GCONST> -6.027630e+01
<STATE> 3
<MEAN> 16
 3.001905e-01 -5.024302e-02 1.906081e+00 -3.065308e-01 -2.468361e-02 1.859124e+00 3.396853e-03 -1.863629e-03 -1.097081e-03 -4.345834e-04 -3.178570e-03 -3.970332e-04 1.061387e-01 1.212299e-01 8.538071e-02 8.125757e-02
<VARIANCE> 16
 3.416765e-02 4.621911e-02 1.489555e-02 5.931814e-03 1.952878e-02 1.491607e-02 1.524908e-03 2.660500e-03 4.331836e-03 1.000000e-03 1.000000e-03 3.470375e-03 1.000000e-03 1.000000e-03 1.000000e-03 1.000000e-03
<GCONST> -5.948696e+01
<STATE> 4
<MEAN> 16
 2.001764e-01 -5.894767e-02 1.625435e+00 -3.637177e-01 -3.266091e-02 1.579235e+00 6.617972e-04 -6.043839e-03 2.948182e-05 1.406211e-03 -4.449409e-03 -3.083691e-04 8.989251e-02 1.108125e-01 7.149944e-02 8.107673e-02
<VARIANCE> 16
 3.590424e-02 3.372539e-02 2.470790e-02 5.819083e-03 1.531813e-02 1.986823e-02 1.000000e-03 1.464366e-03 2.010214e-03 1.000000e-03 1.000000e-03 1.669465e-03 1.000000e-03 1.000000e-03 1.000000e-03 1.000000e-03
<GCONST> -6.174036e+01
<STATE> 5
<MEAN> 16
 5.814679e-01 -6.921194e-01 1.856538e+00 -1.955382e-01 -6.009655e-01 1.813498e+00 4.783284e-03 -7.087911e-03 2.029309e-03 3.902129e-03 -8.389127e-03 2.891707e-03 1.163515e-01 1.070556e-01 9.743477e-02 7.485355e-02
<VARIANCE> 16
 1.550877e-02 3.542526e-03 1.562760e-02 1.814498e-02 6.435243e-03 7.236076e-03 1.000000e-03 1.000000e-03 1.887095e-03 1.000000e-03 1.000000e-03 1.871766e-03 1.000000e-03 1.000000e-03 1.000000e-03 1.000000e-03
<GCONST> -6.636159e+01
<TRANSP> 6
 0.000000e+00 1.000000e+00 0.000000e+00 0.000000e+00 0.000000e+00 0.000000e+00
 0.000000e+00 8.166123e-01 1.833877e-01 0.000000e+00 0.000000e+00 0.000000e+00
 0.000000e+00 0.000000e+00 9.636480e-01 3.635203e-02 0.000000e+00 0.000000e+00
 0.000000e+00 0.000000e+00 0.000000e+00 9.560954e-01 4.390459e-02 0.000000e+00
 0.000000e+00 0.000000e+00 0.000000e+00 0.000000e+00 9.604396e-01 3.956043e-02
 0.000000e+00 0.000000e+00 0.000000e+00 0.000000e+00 0.000000e+00 0.000000e+00
<ENDHMM>
~h "weaves_and_bumps_into"
<BEGINHMM>
<NUMSTATES> 6
<STATE> 2
<MEAN> 16
 3.859319e-01 -4.162004e-01 1.944576e+00 -3.359393e-01 -2.853999e-01 1.885325e+00 -8.414641e-03 1.655262e-02 -2.915956e-04 -2.376252e-03 2.530187e-02 -3.509041e-03 9.287576e-02 9.217434e-02 8.342306e-02 8.246743e-02
<VARIANCE> 16
 1.186333e-02 1.895657e-02 4.051048e-02 1.231714e-02 2.545522e-02 3.932269e-02 1.162050e-03 2.135681e-03 7.486247e-03 1.283626e-03 3.398158e-03 6.968469e-03 1.000000e-03 1.000000e-03 1.000000e-03 1.000000e-03
<GCONST> -5.624482e+01
<STATE> 3
<MEAN> 16
 2.522471e-01 -1.266945e-01 1.819302e+00 -3.132032e-01 -9.724188e-02 1.740047e+00 -2.475588e-03 5.255890e-03 -2.885815e-03 -5.095366e-04 2.023770e-03 -1.610381e-03 9.589015e-02 1.021651e-01 8.285298e-02 7.962262e-02
<VARIANCE> 16
 1.340122e-02 3.674828e-02 1.277662e-02 6.897390e-03 1.731439e-02 1.185541e-02 1.045986e-03 2.445559e-03 4.212658e-03 1.000000e-03 1.061099e-03 3.513833e-03 1.000000e-03 1.000000e-03 1.000000e-03 1.000000e-03
<GCONST> -6.142220e+01
<STATE> 4
<MEAN> 16
 2.068217e-01 -5.551039e-02 1.505741e+00 -3.366320e-01 1.872287e-02 1.469099e+00 7.654521e-04 -8.578225e-04 -9.115178e-04 -6.505420e-04 3.028027e-04 -7.273970e-04 9.167118e-02 1.074627e-01 7.943063e-02 8.546489e-02
<VARIANCE> 16
 2.793309e-02 2.584311e-02 3.255289e-02 5.371907e-03 6.118986e-03 2.462021e-02 1.000000e-03 1.113174e-03 1.766113e-03 1.000000e-03 1.000000e-03 1.214008e-03 1.000000e-03 1.000000e-03 1.000000e-03 1.000000e-03
<GCONST> -6.348726e+01
<STATE> 5
<MEAN> 16
 3.882992e-01 -3.935458e-01 1.761882e+00 -3.085860e-01 -7.696290e-02 1.695695e+00 1.647161e-02 -4.182014e-02 3.404054e-02 -9.545044e-04 -2.535778e-02 2.230783e-02 1.089727e-01 1.046685e-01 8.196931e-02 8.176416e-02
<VARIANCE> 16
 2.544446e-02 3.246779e-02 2.961057e-02 1.274583e-02 6.871690e-02 2.884496e-02 1.275724e-03 2.833719e-03 9.001647e-03 1.000000e-03 5.725300e-03 6.932727e-03 1.193509e-03 1.000000e-03 1.000000e-03 1.000000e-03
<GCONST> -5.353549e+01
<TRANSP> 6
 0.000000e+00 1.000000e+00 0.000000e+00 0.000000e+00 0.000000e+00 0.000000e+00
 0.000000e+00 8.859957e-01 1.140043e-01 0.000000e+00 0.000000e+00 0.000000e+00
 0.000000e+00 0.000000e+00 9.556599e-01 4.434011e-02 0.000000e+00 0.000000e+00
 0.000000e+00 0.000000e+00 0.000000e+00 9.668285e-01 3.317153e-02 0.000000e+00
 0.000000e+00 0.000000e+00 0.000000e+00 0.000000e+00 6.777245e-01 3.222755e-01
 0.000000e+00 0.000000e+00 0.000000e+00 0.000000e+00 0.000000e+00 0.000000e+00
<ENDHMM>
~h "man"
<BEGINHMM>
<NUMSTATES> 6
<STATE> 2
<MEAN> 16
 3.901582e-01 -5.921220e-01 1.835675e+00 -3.404189e-01 -1.199481e-01 1.719047e+00 -1.284327e-03 6.537908e-03 -2.280381e-03 -7.445117e-03 -3.751017e-03 -4.263538e-03 1.189204e-01 7.986429e-02 8.766851e-02 9.453662e-02
<VARIANCE> 16
 1.594768e-02 9.742416e-03 2.346651e-02 1.764785e-02 7.312926e-03 3.608848e-02 1.000000e-03 1.000000e-03 2.800476e-03 1.000000e-03 1.000000e-03 1.508326e-03 1.000000e-03 1.000000e-03 1.000000e-03 1.000000e-03
<GCONST> -6.302966e+01
<STATE> 3
<MEAN> 16
 1.968040e-01 -7.060203e-02 1.856178e+00 -3.602684e-01 -1.475288e-01 1.870426e+00 -9.040461e-04 2.872917e-03 -2.069722e-03 1.566105e-03 -1.162457e-03 -7.330191e-04 1.012078e-01 8.939321e-02 7.955276e-02 9.504917e-02
<VARIANCE> 16
 4.444117e-02 3.329041e-02 1.523819e-02 9.361417e-03 6.459580e-03 1.867113e-02 1.757231e-03 2.883813e-03 4.295537e-03 1.000000e-03 1.000000e-03 3.732949e-03 1.000000e-03 1.000000e-03 1.000000e-03 1.000000e-03
<GCONST> -5.966805e+01
<STATE> 4
<MEAN> 16
 1.825197e-01 -5.446206e-02 1.545735e+00 -3.193158e-01 -6.631998e-02 1.527155e+00 2.151010e-03 -2.951990e-03 -3.253749e-04 7.093131e-04 -4.473807e-03 3.594819e-05 9.431184e-02 7.108870e-02 7.681898e-02 8.873978e-02
<VARIANCE> 16
 4.537571e-02 3.173099e-02 2.400739e-02 1.418542e-02 1.008365e-02 1.564975e-02 1.134934e-03 1.415658e-03 1.688832e-03 1.000000e-03 1.000000e-03 1.375966e-03 1.000000e-03 1.000000e-03 1.000000e-03 1.000000e-03
<GCONST> -6.163648e+01
<STATE> 5
<MEAN> 16
 5.728078e-01 -6.818690e-01 1.849153e+00 -1.958247e-01 -5.843812e-01 1.805259e+00 7.371236e-03 -9.798440e-03 3.815136e-03 2.862765e-03 -1.081912e-02 3.753890e-03 1.161540e-01 1.058344e-01 9.444460e-02 7.545169e-02
<VARIANCE> 16
 2.009218e-02 5.479725e-03 1.660754e-02 1.739265e-02 1.007367e-02 9.121835e-03 1.000000e-03 1.000000e-03 2.729448e-03 1.000000e-03 1.153853e-03 2.143417e-03 1.000000e-03 1.000000e-03 1.000000e-03 1.000000e-03
<GCONST> -6.432056e+01
<TRANSP> 6
 0.000000e+00 1.000000e+00 0.000000e+00 0.000000e+00 0.000000e+00 0.000000e+00
 0.000000e+00 9.363567e-01 6.364330e-02 0.000000e+00 0.000000e+00 0.000000e+00
 0.000000e+00 0.000000e+00 9.717991e-01 2.820087e-02 0.000000e+00 0.000000e+00
 0.000000e+00 0.000000e+00 0.000000e+00 9.651967e-01 3.480333e-02 0.000000e+00
 0.000000e+00 0.000000e+00 0.000000e+00 0.000000e+00 9.611511e-01 3.884885e-02
 0.000000e+00 0.000000e+00 0.000000e+00 0.000000e+00 0.000000e+00 0.000000e+00
<ENDHMM>
~h "monkey"
<BEGINHMM>
<NUMSTATES> 6
<STATE> 2
<MEAN> 16
 3.665047e-01 -4.521945e-01 2.093858e+00 -3.021550e-01 -8.402332e-02 1.906126e+00 5.532613e-04 -6.230602e-04 6.559045e-04 1.960503e-03 -1.624624e-03 -2.022186e-03 1.023952e-01 1.046469e-01 8.814079e-02 7.589585e-02
<VARIANCE> 16
 9.750523e-03 8.152476e-03 2.612890e-02 7.553794e-03 3.359494e-02 2.359751e-02 1.000000e-03 1.000000e-03 2.332926e-03 1.000000e-03 1.000000e-03 1.795948e-03 1.374106e-03 1.000000e-03 1.000000e-03 1.000000e-03
<GCONST> -6.303135e+01
<STATE> 3
<MEAN> 16
 2.476937e-01 -5.820399e-02 1.898678e+00 -2.788780e-01 -7.405287e-02 1.881541e+00 1.174861e-03 -1.149550e-03 -2.807704e-03 9.286384e-04 -2.653305e-03 -1.044850e-03 1.068792e-01 1.064296e-01 8.561683e-02 7.484537e-02
<VARIANCE> 16
 4.004327e-02 3.539182e-02 1.637822e-02 8.909148e-03 1.067961e-02 1.625362e-02 1.507666e-03 2.383529e-03 4.097879e-03 1.000000e-03 1.000000e-03 3.585114e-03 1.000000e-03 1.000000e-03 1.000000e-03 1.000000e-03
<GCONST> -5.975553e+01
<STATE> 4
<MEAN> 16
 2.192450e-01 -9.230591e-02 1.543293e+00 -2.635638e-01 1.330404e-02 1.492214e+00 3.931110e-03 -4.554536e-03 -1.613960e-03 1.864637e-04 -5.928067e-03 -1.646118e-03 9.238419e-02 9.548073e-02 8.139361e-02 6.718829e-02
<VARIANCE> 16
 3.639211e-02 5.002009e-02 2.499634e-02 5.261377e-03 1.862251e-02 1.416368e-02 1.054361e-03 1.584472e-03 1.542910e-03 1.000000e-03 1.000000e-03 1.254531e-03 1.000000e-03 1.000000e-03 1.000000e-03 1.000000e-03
<GCONST> -6.198349e+01
<STATE> 5
<MEAN> 16
 5.807582e-01 -6.893341e-01 1.852025e+00 -1.995694e-01 -6.011223e-01 1.804404e+00 5.327819e-03 -7.583818e-03 2.973923e-03 2.122113e-03 -8.649352e-03 3.012172e-03 1.147538e-01 1.082340e-01 9.569034e-02 7.407921e-02
<VARIANCE> 16
 1.433384e-02 4.135709e-03 1.679680e-02 1.835090e-02 7.110595e-03 7.012927e-03 1.000000e-03 1.000000e-03 1.956054e-03 1.000000e-03 1.000000e-03 1.823453e-03 1.000000e-03 1.000000e-03 1.000000e-03 1.000000e-03
<GCONST> -6.612390e+01
<TRANSP> 6
 0.000000e+00 1.000000e+00 0.000000e+00 0.000000e+00 0.000000e+00 0.000000e+00
 0.000000e+00 9.204109e-01 7.958902e-02 0.000000e+00 0.000000e+00 0.000000e+00
 0.000000e+00 0.000000e+00 9.709088e-01 2.909117e-02 0.000000e+00 0.000000e+00
 0.000000e+00 0.000000e+00 0.000000e+00 9.361026e-01 6.389742e-02 0.000000e+00
 0.000000e+00 0.000000e+00 0.000000e+00 0.000000e+00 9.624894e-01 3.751057e-02
 0.000000e+00 0.000000e+00 0.000000e+00 0.000000e+00 0.000000e+00 0.000000e+00
<ENDHMM>
~h "bumps_into_each_other"
<BEGINHMM>
<NUMSTATES> 6
<STATE> 2
<MEAN> 16
 4.268676e-01 -5.252600e-01 1.918198e+00 -2.774929e-01 -1.646054e-01 1.840647e+00 -6.110472e-03 1.182620e-02 5.238285e-03 -2.778272e-03 2.722236e-02 3.128275e-03 1.095996e-01 9.653930e-02 9.072842e-02 8.313254e-02
<VARIANCE> 16
 1.431118e-02 2.225979e-02 3.160261e-02 2.714231e-02 7.928493e-02 4.126395e-02 1.000000e-03 1.113620e-03 4.715994e-03 1.187776e-03 4.566553e-03 4.302949e-03 1.226798e-03 1.000000e-03 1.000000e-03 1.000000e-03
<GCONST> -5.549374e+01
<STATE> 3
<MEAN> 16
 3.093938e-01 -1.688135e-01 1.878841e+00 -2.634482e-01 -1.209246e-01 1.828782e+00 -2.055794e-03 5.293904e-03 -3.246982e-03 -2.794740e-04 3.980168e-03 -3.034448e-03 8.677763e-02 9.550233e-02 8.268046e-02 7.790633e-02
<VARIANCE> 16
 1.073951e-02 3.596451e-02 1.602766e-02 9.342063e-03 2.421825e-02 1.245820e-02 1.322167e-03 3.481627e-03 6.154383e-03 1.000000e-03 2.112003e-03 5.408113e-03 1.000000e-03 1.000000e-03 1.000000e-03 1.000000e-03
<GCONST> -5.866379e+01
<STATE> 4
<MEAN> 16
 2.774911e-01 -3.653361e-02 1.580230e+00 -3.359695e-01 3.844820e-02 1.537527e+00 5.342099e-04 1.227662e-03 -1.861567e-03 -7.640875e-04 -2.143889e-04 -1.081996e-03 8.810531e-02 1.055917e-01 7.669201e-02 8.028495e-02
<VARIANCE> 16
 1.325765e-02 3.182299e-02 2.413564e-02 1.035052e-02 8.748106e-03 1.477486e-02 1.000000e-03 1.466298e-03 1.650961e-03 1.000000e-03 1.000000e-03 1.307981e-03 1.000000e-03 1.000000e-03 1.000000e-03 1.000000e-03
<GCONST> -6.353822e+01
<STATE> 5
<MEAN> 16
 4.138350e-01 -3.397788e-01 1.763315e+00 -3.196412e-01 -1.509891e-01 1.714320e+00 1.649884e-02 -4.448214e-02 3.672325e-02 1.842848e-05 -4.610913e-02 2.926689e-02 9.197663e-02 9.061111e-02 7.923272e-02 7.670830e-02
<VARIANCE> 16
 1.669379e-02 2.972336e-02 3.453389e-02 1.611909e-02 2.885889e-02 2.675383e-02 1.000000e-03 1.407222e-03 4.816226e-03 1.000000e-03 2.058259e-03 4.777484e-03 1.000000e-03 1.000000e-03 1.000000e-03 1.000000e-03
<GCONST> -5.774067e+01
<TRANSP> 6
 0.000000e+00 1.000000e+00 0.000000e+00 0.000000e+00 0.000000e+00 0.000000e+00
 0.000000e+00 9.088471e-01 9.115297e-02 0.000000e+00 0.000000e+00 0.000000e+00
 0.000000e+00 0.000000e+00 9.647683e-01 3.523171e-02 0.000000e+00 0.000000e+00
 0.000000e+00 0.000000e+00 0.000000e+00 9.600170e-01 3.998297e-02 0.000000e+00
 0.000000e+00 0.000000e+00 0.000000e+00 0.000000e+00 4.935539e-01 5.064461e-01
 0.000000e+00 0.000000e+00 0.000000e+00 0.000000e+00 0.000000e+00 0.000000e+00
<ENDHMM>
~h "jumps_on"
<BEGINHMM>
<NUMSTATES> 6
<STATE> 2
<MEAN> 16
 3.976676e-01 -5.075567e-01 1.949131e+00 -2.724027e-01 -2.168242e-01 1.875240e+00 -7.117805e-03 1.452235e-02 1.449427e-03 1.328429e-05 2.742572e-02 -1.044979e-03 1.085924e-01 1.007673e-01 8.743225e-02 8.314203e-02
<VARIANCE> 16
 1.325111e-02 1.676315e-02 3.832508e-02 1.646211e-02 7.744998e-02 4.078162e-02 1.000000e-03 1.705904e-03 5.784882e-03 1.000000e-03 4.233931e-03 5.117083e-03 1.000000e-03 1.000000e-03 1.000000e-03 1.000000e-03
<GCONST> -5.584470e+01
<STATE> 3
<MEAN> 16
 2.678382e-01 -1.138606e-01 1.843156e+00 -2.689833e-01 -9.172040e-02 1.750014e+00 -6.502391e-03 1.188692e-02 -4.141844e-03 9.282867e-04 4.150103e-03 -2.346683e-03 9.734490e-02 1.039988e-01 8.050071e-02 8.118290e-02
<VARIANCE> 16
 1.377952e-02 5.158347e-02 1.285778e-02 8.170646e-03 2.047474e-02 1.288810e-02 1.426913e-03 3.233089e-03 5.357431e-03 1.000000e-03 1.452881e-03 4.297228e-03 1.000000e-03 1.000000e-03 1.000000e-03 1.000000e-03
<GCONST> -5.928272e+01
<STATE> 4
<MEAN> 16
 2.691644e-02 2.501755e-02 1.554015e+00 -1.790783e-01 -1.973898e-02 1.482152e+00 -4.554627e-03 4.380816e-05 -3.453972e-04 1.388308e-03 2.729485e-04 -1.012910e-03 9.106051e-02 1.045728e-01 7.255918e-02 8.069180e-02
<VARIANCE> 16
 5.147807e-02 3.817310e-02 3.469809e-02 9.775852e-03 7.204632e-03 2.654210e-02 1.139154e-03 1.545749e-03 2.226151e-03 1.000000e-03 1.000000e-03 1.712674e-03 1.000000e-03 1.000000e-03 1.000000e-03 1.000000e-03
<GCONST> -6.055059e+01
<STATE> 5
<MEAN> 16
 1.098166e-01 -2.070734e-01 1.732289e+00 -1.710940e-01 -2.246376e-01 1.727503e+00 5.126075e-02 -4.486454e-02 9.607257e-03 -1.563569e-02 -2.740055e-02 1.623067e-02 9.550919e-02 9.264252e-02 7.471930e-02 8.066767e-02
<VARIANCE> 16
 6.332339e-02 3.853346e-02 3.181918e-02 2.993911e-02 3.066639e-02 2.625476e-02 4.586630e-03 3.650126e-03 1.020976e-02 6.841983e-03 4.137691e-03 1.187947e-02 1.000000e-03 1.316212e-03 1.000000e-03 1.000000e-03
<GCONST> -4.853398e+01
<TRANSP> 6
 0.000000e+00 1.000000e+00 0.000000e+00 0.000000e+00 0.000000e+00 0.000000e+00
 0.000000e+00 8.868949e-01 1.131050e-01 0.000000e+00 0.000000e+00 0.000000e+00
 0.000000e+00 0.000000e+00 9.634118e-01 3.658821e-02 0.000000e+00 0.000000e+00
 0.000000e+00 0.000000e+00 0.000000e+00 9.669613e-01 3.303867e-02 0.000000e+00
 0.000000e+00 0.000000e+00 0.000000e+00 0.000000e+00 8.157098e-01 1.842902e-01
 0.000000e+00 0.000000e+00 0.000000e+00 0.000000e+00 0.000000e+00 0.000000e+00
<ENDHMM>
~h "house"
<BEGINHMM>
<NUMSTATES> 6
<STATE> 2
<MEAN> 16
 3.450708e-01 -3.590870e-01 1.958702e+00 -3.143377e-01 -2.160239e-01 1.877750e+00 7.794767e-04 -1.503933e-02 3.045836e-03 -1.248875e-03 1.423841e-03 -1.533057e-03 1.225028e-01 1.273831e-01 9.070808e-02 9.484082e-02
<VARIANCE> 16
 1.117222e-02 2.799643e-02 2.977935e-02 4.443522e-03 3.259223e-02 2.455527e-02 1.000000e-03 1.084302e-03 7.243310e-03 1.000000e-03 2.343998e-03 5.096667e-03 2.153486e-03 1.385142e-03 1.000000e-03 1.000000e-03
<GCONST> -5.816793e+01
<STATE> 3
<MEAN> 16
 2.769282e-01 -1.264808e-01 1.894112e+00 -3.029343e-01 3.786593e-02 1.791367e+00 6.943971e-04 -1.135802e-04 -1.365156e-03 1.782459e-04 -2.668970e-03 -8.807606e-04 1.129563e-01 1.200348e-01 8.626062e-02 1.029880e-01
<VARIANCE> 16
 2.986048e-02 6.586805e-02 1.508507e-02 3.183438e-03 1.220611e-02 1.189345e-02 1.486272e-03 2.595755e-03 5.531597e-03 1.000000e-03 1.000000e-03 4.013916e-03 1.000000e-03 1.000000e-03 1.000000e-03 1.000000e-03
<GCONST> -6.023389e+01
<STATE> 4
<MEAN> 16
 2.024613e-01 -1.372093e-01 1.643202e+00 -2.803732e-01 -6.442751e-02 1.576421e+00 4.530806e-03 -7.041956e-03 6.817552e-04 1.076798e-03 -4.464406e-03 -9.788028e-05 9.203865e-02 8.498479e-02 7.812062e-02 8.986297e-02
<VARIANCE> 16
 4.309919e-02 3.494319e-02 2.458911e-02 7.320649e-03 2.774005e-02 2.904611e-02 1.262615e-03 1.260895e-03 2.921776e-03 1.000000e-03 1.000000e-03 2.429093e-03 1.000000e-03 1.000000e-03 1.000000e-03 1.000000e-03
<GCONST> -5.949135e+01
<STATE> 5
<MEAN> 16
 5.920763e-01 -6.958929e-01 1.860429e+00 -1.974562e-01 -5.928737e-01 1.807814e+00 4.976920e-03 -5.837834e-03 1.402355e-03 2.693777e-03 -8.166608e-03 3.428958e-03 1.158673e-01 1.079963e-01 9.788461e-02 7.219416e-02
<VARIANCE> 16
 1.564485e-02 3.370714e-03 1.597085e-02 1.676439e-02 8.692772e-03 8.428125e-03 1.000000e-03 1.000000e-03 1.394222e-03 1.000000e-03 1.000000e-03 1.497939e-03 1.000000e-03 1.000000e-03 1.000000e-03 1.000000e-03
<GCONST> -6.653227e+01
<TRANSP> 6
 0.000000e+00 1.000000e+00 0.000000e+00 0.000000e+00 0.000000e+00 0.000000e+00
 0.000000e+00 8.603621e-01 1.396380e-01 0.000000e+00 0.000000e+00 0.000000e+00
 0.000000e+00 0.000000e+00 9.682133e-01 3.178678e-02 0.000000e+00 0.000000e+00
 0.000000e+00 0.000000e+00 0.000000e+00 9.659320e-01 3.406796e-02 0.000000e+00
 0.000000e+00 0.000000e+00 0.000000e+00 0.000000e+00 9.620300e-01 3.797000e-02
 0.000000e+00 0.000000e+00 0.000000e+00 0.000000e+00 0.000000e+00 0.000000e+00
<ENDHMM>
~h "bumps_into"
<BEGINHMM>
<NUMSTATES> 6
<STATE> 2
<MEAN> 16
 3.977817e-01 -3.957508e-01 1.904671e+00 -3.131852e-01 -3.330798e-01 1.861935e+00 -1.500450e-02 3.504935e-02 1.560444e-03 -2.220711e-03 4.033003e-02 4.085664e-04 9.568725e-02 9.135871e-02 8.298791e-02 7.917468e-02
<VARIANCE> 16
 1.361016e-02 2.516262e-02 3.807712e-02 1.711792e-02 2.248456e-02 4.146842e-02 1.544195e-03 3.475540e-03 7.027768e-03 1.490926e-03 3.721935e-03 6.686756e-03 1.040714e-03 1.000000e-03 1.000000e-03 1.000000e-03
<GCONST> -5.468058e+01
<STATE> 3
<MEAN> 16
 3.032281e-01 -2.331776e-01 1.853455e+00 -2.306116e-01 -1.339836e-01 1.809956e+00 -3.749731e-02 5.786578e-02 -2.526559e-02 1.199670e-02 7.786715e-02 -2.174441e-02 1.096864e-01 1.009899e-01 8.446921e-02 7.835335e-02
<VARIANCE> 16
 2.496401e-02 5.855045e-02 3.239750e-02 1.860551e-02 4.026693e-02 3.268697e-02 4.967457e-03 8.875696e-03 1.743133e-02 5.774956e-03 1.655433e-02 1.799802e-02 1.265764e-03 1.165900e-03 1.000000e-03 1.000000e-03
<GCONST> -4.576258e+01
<STATE> 4
<MEAN> 16
 1.724096e-01 -3.358608e-02 1.684103e+00 -1.731020e-01 2.122176e-02 1.660812e+00 1.698967e-03 8.537344e-03 -1.022261e-03 -4.913751e-03 1.582628e-02 -4.295434e-04 1.160443e-01 1.115877e-01 8.396064e-02 8.140648e-02
<VARIANCE> 16
 2.685920e-02 5.197781e-02 3.452827e-02 1.859787e-02 2.774743e-02 2.933281e-02 4.478926e-03 2.218283e-03 6.233801e-03 4.105363e-03 3.037113e-03 6.122314e-03 1.000000e-03 1.000000e-03 1.000000e-03 1.000000e-03
<GCONST> -5.224871e+01
<STATE> 5
<MEAN> 16
 3.795486e-01 -5.412465e-01 1.872419e+00 -1.294107e-01 -1.607697e-01 1.862579e+00 1.784287e-03 -1.478063e-03 2.509766e-03 -5.456163e-03 -4.988909e-03 4.757986e-03 1.199915e-01 1.025252e-01 8.816879e-02 8.359815e-02
<VARIANCE> 16
 2.324135e-02 5.682892e-02 1.742373e-02 1.274547e-02 1.266944e-01 1.794650e-02 1.000000e-03 1.000000e-03 1.901167e-03 1.000000e-03 1.598843e-03 1.806218e-03 1.000000e-03 1.000000e-03 1.000000e-03 1.000000e-03
<GCONST> -5.909691e+01
<TRANSP> 6
 0.000000e+00 1.000000e+00 0.000000e+00 0.000000e+00 0.000000e+00 0.000000e+00
 0.000000e+00 8.159501e-01 1.840499e-01 0.000000e+00 0.000000e+00 0.000000e+00
 0.000000e+00 0.000000e+00 4.574847e-01 5.425153e-01 0.000000e+00 0.000000e+00
 0.000000e+00 0.000000e+00 0.000000e+00 8.035347e-01 1.964653e-01 0.000000e+00
 0.000000e+00 0.000000e+00 0.000000e+00 0.000000e+00 8.007523e-01 1.992477e-01
 0.000000e+00 0.000000e+00 0.000000e+00 0.000000e+00 0.000000e+00 0.000000e+00
<ENDHMM>
~h "goes_to"
<BEGINHMM>
<NUMSTATES> 6
<STATE> 2
<MEAN> 16
 3.867521e-01 -4.629069e-01 1.921396e+00 -2.765506e-01 -1.977340e-01 1.874798e+00 -1.049550e-02 2.130893e-02 1.124666e-04 -2.472309e-04 3.417441e-02 -7.078050e-04 1.030730e-01 9.610036e-02 8.485594e-02 8.050139e-02
<VARIANCE> 16
 1.248500e-02 2.849798e-02 4.217631e-02 2.465706e-02 7.791383e-02 4.276106e-02 1.295223e-03 2.806463e-03 7.082859e-03 1.728725e-03 5.247467e-03 7.021593e-03 1.000000e-03 1.000000e-03 1.000000e-03 1.000000e-03
<GCONST> -5.278314e+01
<STATE> 3
<MEAN> 16
 2.675814e-01 -1.403523e-01 1.845988e+00 -3.141106e-01 -8.453923e-02 1.764005e+00 -3.897951e-03 6.237302e-03 -3.296328e-03 -2.215013e-04 2.016863e-03 -2.192189e-03 9.606148e-02 1.072132e-01 8.157012e-02 7.739335e-02
<VARIANCE> 16
 1.248682e-02 4.553220e-02 1.422654e-02 1.099059e-02 1.779319e-02 1.148330e-02 1.000000e-03 2.517980e-03 4.046910e-03 1.000000e-03 1.000000e-03 3.299239e-03 1.000000e-03 1.000000e-03 1.000000e-03 1.000000e-03
<GCONST> -6.088800e+01
<STATE> 4
<MEAN> 16
 1.146828e-01 -5.747917e-02 1.526097e+00 -3.012868e-01 -7.447375e-04 1.472134e+00 -3.800967e-03 5.605699e-04 -1.227041e-03 -9.091735e-05 3.561081e-05 -9.984674e-04 9.369745e-02 1.045710e-01 7.569849e-02 8.219527e-02
<VARIANCE> 16
 5.068910e-02 2.490041e-02 2.760542e-02 9.399747e-03 6.969398e-03 2.611005e-02 1.042028e-03 1.056841e-03 1.765536e-03 1.000000e-03 1.000000e-03 1.486446e-03 1.000000e-03 1.000000e-03 1.000000e-03 1.000000e-03
<GCONST> -6.215362e+01
<STATE> 5
<MEAN> 16
 2.328536e-01 -2.840072e-01 1.714666e+00 -2.986774e-01 -3.329631e-01 1.764881e+00 3.694773e-02 -3.864486e-02 1.919066e-02 -6.143156e-03 -3.596949e-02 2.395331e-02 9.502356e-02 9.980338e-02 7.635921e-02 7.415540e-02
<VARIANCE> 16
 3.523999e-02 3.132576e-02 3.628077e-02 1.543678e-02 7.856115e-02 2.762443e-02 6.577443e-03 5.113004e-03 1.226691e-02 3.290904e-03 4.589245e-03 1.060767e-02 1.116814e-03 1.087561e-03 1.000000e-03 1.000000e-03
<GCONST> -4.880760e+01
<TRANSP> 6
 0.000000e+00 1.000000e+00 0.000000e+00 0.000000e+00 0.000000e+00 0.000000e+00
 0.000000e+00 8.889388e-01 1.110612e-01 0.000000e+00 0.000000e+00 0.000000e+00
 0.000000e+00 0.000000e+00 9.508306e-01 4.916944e-02 0.000000e+00 0.000000e+00
 0.000000e+00 0.000000e+00 0.000000e+00 9.601980e-01 3.980194e-02 0.000000e+00
 0.000000e+00 0.000000e+00 0.000000e+00 0.000000e+00 7.582866e-01 2.417134e-01
 0.000000e+00 0.000000e+00 0.000000e+00 0.000000e+00 0.000000e+00 0.000000e+00
<ENDHMM>
