~o
<STREAMINFO> 1 16
<VECSIZE> 16<NULLD><USER><DIAGC>
~h "Monkey"
<BEGINHMM>
<NUMSTATES> 6
<STATE> 2
<NUMMIXES> 2
<MIXTURE> 1 5.318359e-01
<MEAN> 16
 6.244653e-01 -7.463579e-01 1.944463e+00 -1.420712e-01 -6.228052e-01 1.835937e+00 6.244653e-01 -7.463579e-01 1.944463e+00 -1.420712e-01 -6.228052e-01 1.835937e+00 1.105288e-01 1.157831e-01 9.537718e-02 7.310853e-02
<VARIANCE> 16
 7.501962e-03 1.000000e-03 4.266224e-03 2.563788e-03 1.000000e-03 3.185557e-03 7.501962e-03 1.000000e-03 4.266224e-03 2.563788e-03 1.000000e-03 3.185557e-03 1.000000e-03 1.000000e-03 1.000000e-03 1.000000e-03
<GCONST> -6.998605e+01
<MIXTURE> 2 4.681642e-01
<MEAN> 16
 5.659251e-01 -6.732553e-01 1.753650e+00 -2.891503e-01 -6.126635e-01 1.816360e+00 5.659251e-01 -6.732553e-01 1.753650e+00 -2.891503e-01 -6.126635e-01 1.816360e+00 1.208478e-01 9.868068e-02 9.887622e-02 6.889989e-02
<VARIANCE> 16
 2.798360e-03 1.915379e-03 9.850455e-03 2.716471e-02 1.615342e-02 1.268965e-02 2.798360e-03 1.915379e-03 9.850455e-03 2.716471e-02 1.615342e-02 1.268965e-02 1.000000e-03 1.000000e-03 1.000000e-03 1.000000e-03
<GCONST> -5.593545e+01
<STATE> 3
<NUMMIXES> 2
<MIXTURE> 1 7.170392e-01
<MEAN> 16
 6.140919e-01 -7.445938e-01 1.947110e+00 -1.459486e-01 -6.172473e-01 1.825721e+00 -9.051212e-04 2.202364e-03 2.279642e-04 -2.378771e-04 2.268535e-03 -7.060487e-04 1.140705e-01 1.155963e-01 1.022863e-01 7.490823e-02
<VARIANCE> 16
 6.069370e-03 1.000000e-03 4.121360e-03 1.858210e-03 1.000000e-03 2.404938e-03 1.000000e-03 1.000000e-03 1.000000e-03 1.000000e-03 1.000000e-03 1.000000e-03 1.000000e-03 1.000000e-03 1.000000e-03 1.000000e-03
<GCONST> -7.640148e+01
<MIXTURE> 2 2.829608e-01
<MEAN> 16
 5.878015e-01 -7.105700e-01 1.825331e+00 -2.726800e-01 -6.586143e-01 1.859169e+00 -4.154097e-04 1.037705e-03 1.943865e-03 -8.027722e-05 2.393849e-03 -4.200778e-03 1.183675e-01 1.030299e-01 9.918596e-02 6.920746e-02
<VARIANCE> 16
 2.621394e-03 2.158825e-03 1.064410e-02 2.210661e-02 1.420032e-02 1.565772e-02 1.000000e-03 1.000000e-03 1.302276e-03 1.000000e-03 1.000000e-03 5.374420e-03 1.000000e-03 1.000000e-03 1.000000e-03 1.000000e-03
<GCONST> -6.657391e+01
<STATE> 4
<NUMMIXES> 2
<MIXTURE> 1 7.935010e-01
<MEAN> 16
 3.860805e-01 -6.424054e-01 1.873272e+00 -1.446684e-01 -6.094129e-01 1.831811e+00 -2.143411e-02 1.040675e-02 -2.779646e-03 -3.382935e-03 3.295781e-03 4.814226e-04 1.175845e-01 1.144724e-01 7.880791e-02 7.124142e-02
<VARIANCE> 16
 1.828152e-02 1.721345e-03 9.407382e-03 3.015979e-03 3.118380e-03 5.415649e-03 1.294085e-03 1.000000e-03 2.820180e-03 1.000000e-03 1.000000e-03 1.731374e-03 1.000000e-03 1.000000e-03 1.000000e-03 1.000000e-03
<GCONST> -6.965352e+01
<MIXTURE> 2 2.064982e-01
<MEAN> 16
 5.588074e-01 -6.287557e-01 1.689029e+00 -4.470897e-01 -6.707665e-01 1.808442e+00 -1.699890e-03 4.284416e-03 2.080826e-04 -3.236015e-03 7.574716e-03 -1.911947e-02 1.152982e-01 9.794877e-02 1.242934e-01 6.273385e-02
<VARIANCE> 16
 1.000000e-03 1.000000e-03 2.797538e-03 1.000000e-03 1.057291e-03 4.314021e-03 1.000000e-03 1.000000e-03 1.000000e-03 1.000000e-03 1.000000e-03 1.290188e-03 1.000000e-03 1.000000e-03 1.000000e-03 1.000000e-03
<GCONST> -7.831694e+01
<STATE> 5
<MEAN> 16
 4.250931e-01 -6.610789e-01 1.902350e+00 -1.645506e-01 -9.276375e-02 1.803088e+00 -2.871838e-03 7.153939e-03 1.491116e-03 -4.405160e-03 2.477514e-02 6.312220e-04 1.259204e-01 1.048130e-01 8.575754e-02 8.205990e-02
<VARIANCE> 16
 2.178899e-02 4.361602e-03 1.124596e-02 1.655805e-02 9.412771e-02 1.544983e-02 1.000000e-03 1.000000e-03 3.467338e-03 1.000000e-03 5.568182e-03 3.411401e-03 1.000000e-03 1.000000e-03 1.000000e-03 1.000000e-03
<GCONST> -5.986710e+01
<TRANSP> 6
 0.000000e+00 1.000000e+00 0.000000e+00 0.000000e+00 0.000000e+00 0.000000e+00
 0.000000e+00 0.000000e+00 1.000000e+00 0.000000e+00 0.000000e+00 0.000000e+00
 0.000000e+00 0.000000e+00 8.104596e-01 1.895404e-01 0.000000e+00 0.000000e+00
 0.000000e+00 0.000000e+00 0.000000e+00 8.362629e-01 1.637370e-01 0.000000e+00
 0.000000e+00 0.000000e+00 0.000000e+00 0.000000e+00 8.434925e-01 1.565074e-01
 0.000000e+00 0.000000e+00 0.000000e+00 0.000000e+00 0.000000e+00 0.000000e+00
<ENDHMM>
~h "fence"
<BEGINHMM>
<NUMSTATES> 6
<STATE> 2
<NUMMIXES> 2
<MIXTURE> 1 3.713281e-01
<MEAN> 16
 4.193518e-01 -3.064087e-01 1.994456e+00 -3.575443e-01 -1.816670e-01 1.886705e+00 7.140909e-03 -1.021574e-02 1.739052e-02 -3.196918e-03 -5.836217e-03 1.137657e-02 1.131805e-01 1.546661e-01 9.426323e-02 9.266374e-02
<VARIANCE> 16
 8.757545e-03 1.949492e-02 1.544449e-02 2.193853e-03 1.203309e-02 6.511027e-03 1.000000e-03 1.000000e-03 5.010852e-03 1.000000e-03 1.000000e-03 4.067786e-03 1.231628e-03 1.000000e-03 1.000000e-03 1.000000e-03
<GCONST> -6.487087e+01
<MIXTURE> 2 6.286611e-01
<MEAN> 16
 2.233751e-01 -2.475517e-01 1.800672e+00 -2.873880e-01 -2.638297e-01 1.742599e+00 -4.074199e-03 1.821558e-03 -1.183953e-02 1.255403e-03 -5.002779e-05 -8.706754e-03 8.753437e-02 1.449232e-01 8.108088e-02 8.680455e-02
<VARIANCE> 16
 3.582728e-02 1.713552e-02 1.466964e-02 2.206783e-03 4.903328e-03 8.998109e-03 1.000000e-03 1.630571e-03 2.551302e-03 1.000000e-03 1.000000e-03 1.950953e-03 1.000000e-03 1.000000e-03 1.000000e-03 1.000000e-03
<GCONST> -6.534010e+01
<STATE> 3
<NUMMIXES> 2
<MIXTURE> 1 4.574612e-01
<MEAN> 16
 2.801995e-01 -6.494283e-02 1.897860e+00 -3.504324e-01 -1.054959e-01 1.835129e+00 1.066855e-03 -1.384737e-03 4.610092e-03 -7.390155e-04 -1.874505e-03 3.632318e-03 1.152536e-01 1.605540e-01 9.055734e-02 9.523414e-02
<VARIANCE> 16
 4.297881e-02 5.749917e-02 1.428498e-02 4.686866e-03 2.828100e-03 1.335164e-02 2.164761e-03 3.077299e-03 5.373618e-03 1.000000e-03 1.000000e-03 4.634829e-03 1.000000e-03 1.000000e-03 1.000000e-03 1.000000e-03
<GCONST> -6.035890e+01
<MIXTURE> 2 5.425314e-01
<MEAN> 16
 1.667462e-01 -7.312246e-02 1.730865e+00 -3.907087e-01 -9.564356e-02 1.699305e+00 -3.883846e-03 -1.607127e-03 -3.957762e-03 1.033340e-03 -5.102782e-04 -2.969067e-03 1.006921e-01 1.375771e-01 7.662803e-02 9.067073e-02
<VARIANCE> 16
 5.989186e-02 9.604166e-03 4.765559e-03 7.641846e-03 3.195898e-03 4.603483e-03 1.000000e-03 1.000000e-03 1.000000e-03 1.000000e-03 1.000000e-03 1.000000e-03 1.000000e-03 1.000000e-03 1.000000e-03 1.000000e-03
<GCONST> -6.847958e+01
<STATE> 4
<NUMMIXES> 2
<MIXTURE> 1 7.298852e-01
<MEAN> 16
 2.079156e-01 -9.041222e-02 1.523839e+00 -3.463770e-01 -4.024290e-02 1.452525e+00 -4.027128e-04 3.220566e-04 -2.209404e-03 5.357232e-04 -6.948198e-04 -1.067637e-03 9.653387e-02 1.416580e-01 8.138104e-02 8.550941e-02
<VARIANCE> 16
 4.172498e-02 2.817084e-02 2.871327e-02 6.958370e-03 1.944650e-03 1.429953e-02 1.000000e-03 1.000000e-03 1.049737e-03 1.000000e-03 1.000000e-03 1.000000e-03 1.000000e-03 1.000000e-03 1.000000e-03 1.000000e-03
<GCONST> -6.537752e+01
<MIXTURE> 2 2.701083e-01
<MEAN> 16
 3.166232e-01 -4.054172e-01 1.743171e+00 -2.886719e-01 -3.149579e-01 1.679901e+00 3.821811e-02 -4.573701e-02 2.110190e-02 6.608986e-03 -4.205748e-02 1.427730e-02 9.906428e-02 1.089683e-01 7.729261e-02 7.433115e-02
<VARIANCE> 16
 7.803337e-02 4.253937e-02 3.238606e-02 1.172371e-02 3.050536e-02 2.692603e-02 2.538550e-03 2.821984e-03 7.708556e-03 1.366684e-03 1.701827e-03 6.391723e-03 1.000000e-03 1.442694e-03 1.000000e-03 1.000000e-03
<GCONST> -5.328318e+01
<STATE> 5
<MEAN> 16
 5.861041e-01 -7.014166e-01 1.861679e+00 -1.834797e-01 -6.082070e-01 1.797826e+00 4.247368e-03 -4.152708e-03 -2.449612e-04 2.299187e-03 -4.456654e-03 1.664458e-03 1.156588e-01 1.111148e-01 9.799789e-02 7.508712e-02
<VARIANCE> 16
 1.745682e-02 3.403096e-03 1.420220e-02 1.503805e-02 4.800871e-03 6.369963e-03 1.000000e-03 1.000000e-03 1.252158e-03 1.000000e-03 1.000000e-03 1.241562e-03 1.000000e-03 1.000000e-03 1.000000e-03 1.000000e-03
<GCONST> -6.780803e+01
<TRANSP> 6
 0.000000e+00 1.000000e+00 0.000000e+00 0.000000e+00 0.000000e+00 0.000000e+00
 0.000000e+00 9.552498e-01 4.475015e-02 0.000000e+00 0.000000e+00 0.000000e+00
 0.000000e+00 0.000000e+00 9.786761e-01 2.132384e-02 0.000000e+00 0.000000e+00
 0.000000e+00 0.000000e+00 0.000000e+00 9.650225e-01 3.497748e-02 0.000000e+00
 0.000000e+00 0.000000e+00 0.000000e+00 0.000000e+00 9.591224e-01 4.087763e-02
 0.000000e+00 0.000000e+00 0.000000e+00 0.000000e+00 0.000000e+00 0.000000e+00
<ENDHMM>
~h "Car"
<BEGINHMM>
<NUMSTATES> 6
<STATE> 2
<NUMMIXES> 2
<MIXTURE> 1 4.628614e-01
<MEAN> 16
 6.279794e-01 -7.462684e-01 1.937332e+00 -1.440817e-01 -6.235632e-01 1.839965e+00 6.279794e-01 -7.462684e-01 1.937332e+00 -1.440817e-01 -6.235632e-01 1.839965e+00 1.070404e-01 1.156153e-01 9.618866e-02 7.771354e-02
<VARIANCE> 16
 7.319608e-03 1.000000e-03 3.437128e-03 2.936087e-03 1.000000e-03 3.137834e-03 7.319608e-03 1.000000e-03 3.437128e-03 2.936087e-03 1.000000e-03 3.137834e-03 1.000000e-03 1.000000e-03 1.000000e-03 1.000000e-03
<GCONST> -7.022645e+01
<MIXTURE> 2 5.371388e-01
<MEAN> 16
 5.741397e-01 -6.818944e-01 1.759425e+00 -2.830007e-01 -6.182480e-01 1.814298e+00 5.741397e-01 -6.818944e-01 1.759425e+00 -2.830007e-01 -6.182480e-01 1.814298e+00 1.207615e-01 9.572892e-02 1.007118e-01 7.078535e-02
<VARIANCE> 16
 2.682156e-03 1.716603e-03 9.626891e-03 2.375678e-02 1.677476e-02 1.259422e-02 2.682156e-03 1.716603e-03 9.626891e-03 2.375678e-02 1.677476e-02 1.259422e-02 1.000000e-03 1.000000e-03 1.000000e-03 1.000000e-03
<GCONST> -5.649304e+01
<STATE> 3
<NUMMIXES> 2
<MIXTURE> 1 3.286470e-01
<MEAN> 16
 6.001776e-01 -7.280412e-01 1.921327e+00 -9.399890e-02 -1.056531e-01 1.769579e+00 6.913602e-04 5.449604e-04 3.767330e-03 2.484208e-03 1.661499e-02 -1.859327e-04 1.235275e-01 1.146556e-01 9.213619e-02 8.156704e-02
<VARIANCE> 16
 3.762652e-03 1.325832e-03 7.217667e-03 1.105657e-02 1.026896e-01 8.489558e-03 1.000000e-03 1.000000e-03 5.644064e-03 2.099207e-03 5.715280e-03 6.284850e-03 1.000000e-03 1.000000e-03 1.000000e-03 1.000000e-03
<GCONST> -6.230734e+01
<MIXTURE> 2 6.713535e-01
<MEAN> 16
 5.965517e-01 -7.195514e-01 1.844097e+00 -2.618023e-01 -5.196631e-01 1.819209e+00 5.615515e-04 1.460946e-03 -9.868616e-04 -2.111365e-03 2.023245e-03 -3.007490e-03 1.210721e-01 9.908614e-02 9.300730e-02 7.427997e-02
<VARIANCE> 16
 1.811505e-03 1.374811e-03 9.806793e-03 2.082140e-02 7.449828e-02 1.748326e-02 1.000000e-03 1.000000e-03 1.000000e-03 1.000000e-03 1.000000e-03 1.000000e-03 1.000000e-03 1.000000e-03 1.000000e-03 1.000000e-03
<GCONST> -6.771451e+01
<STATE> 4
<NUMMIXES> 2
<MIXTURE> 1 5.969216e-01
<MEAN> 16
 6.160268e-01 -7.340173e-01 1.935961e+00 -1.687373e-01 -5.945851e-01 1.837226e+00 -2.397117e-03 5.153578e-03 1.308208e-04 -1.974585e-03 5.100908e-03 -1.528368e-03 1.153887e-01 1.120115e-01 1.112893e-01 7.915807e-02
<VARIANCE> 16
 5.586377e-03 1.332596e-03 4.275513e-03 4.320160e-03 7.503559e-03 4.961371e-03 1.000000e-03 1.000000e-03 1.000000e-03 1.000000e-03 1.000000e-03 1.000000e-03 1.000000e-03 1.000000e-03 1.000000e-03 1.000000e-03
<GCONST> -7.257734e+01
<MIXTURE> 2 4.030777e-01
<MEAN> 16
 5.426999e-01 -6.398264e-01 1.671732e+00 -3.485898e-01 -6.324580e-01 1.769869e+00 -3.187348e-03 4.255767e-03 -8.827119e-04 -1.102442e-03 7.332181e-03 -1.391581e-02 1.165283e-01 9.688052e-02 1.233052e-01 6.311984e-02
<VARIANCE> 16
 1.202950e-03 1.040927e-03 2.113433e-03 2.113578e-02 3.932208e-03 5.112453e-03 1.000000e-03 1.000000e-03 1.000000e-03 1.000000e-03 1.000000e-03 1.408742e-03 1.000000e-03 1.000000e-03 1.000000e-03 1.000000e-03
<GCONST> -7.375031e+01
<STATE> 5
<MEAN> 16
 3.850017e-01 -6.260162e-01 1.878391e+00 -1.809329e-01 -5.948817e-01 1.832904e+00 -2.178810e-02 1.446865e-02 -5.644012e-04 -5.505701e-03 8.233093e-03 7.371585e-05 1.168775e-01 1.119606e-01 8.209838e-02 7.433361e-02
<VARIANCE> 16
 1.926455e-02 2.084328e-03 9.081001e-03 7.808869e-03 7.577958e-03 6.562119e-03 1.390379e-03 1.229011e-03 3.260674e-03 1.000000e-03 1.000000e-03 2.115568e-03 1.000000e-03 1.000000e-03 1.000000e-03 1.000000e-03
<GCONST> -6.679030e+01
<TRANSP> 6
 0.000000e+00 1.000000e+00 0.000000e+00 0.000000e+00 0.000000e+00 0.000000e+00
 0.000000e+00 0.000000e+00 1.000000e+00 0.000000e+00 0.000000e+00 0.000000e+00
 0.000000e+00 0.000000e+00 7.825527e-01 2.174474e-01 0.000000e+00 0.000000e+00
 0.000000e+00 0.000000e+00 0.000000e+00 7.967969e-01 2.032032e-01 0.000000e+00
 0.000000e+00 0.000000e+00 0.000000e+00 0.000000e+00 7.861412e-01 2.138588e-01
 0.000000e+00 0.000000e+00 0.000000e+00 0.000000e+00 0.000000e+00 0.000000e+00
<ENDHMM>
~h "Man"
<BEGINHMM>
<NUMSTATES> 6
<STATE> 2
<NUMMIXES> 2
<MIXTURE> 1 1.614895e-01
<MEAN> 16
 6.609642e-01 -7.214469e-01 1.966938e+00 -1.620019e-01 -5.403602e-01 1.825832e+00 6.609642e-01 -7.214469e-01 1.966938e+00 -1.620019e-01 -5.403602e-01 1.825832e+00 1.099334e-01 1.030283e-01 9.970347e-02 7.467228e-02
<VARIANCE> 16
 1.234884e-01 4.484218e-02 6.033758e-03 1.687852e-02 5.264213e-02 2.069889e-02 1.234884e-01 4.484218e-02 6.033758e-03 1.687852e-02 5.264213e-02 2.069889e-02 1.081028e-03 1.000000e-03 1.000000e-03 1.000000e-03
<GCONST> -4.056753e+01
<MIXTURE> 2 8.385105e-01
<MEAN> 16
 5.731636e-01 -7.008091e-01 1.823545e+00 -2.262360e-01 -6.299222e-01 1.816913e+00 5.731636e-01 -7.008091e-01 1.823545e+00 -2.262360e-01 -6.299222e-01 1.816913e+00 1.155468e-01 1.057412e-01 1.005042e-01 7.098378e-02
<VARIANCE> 16
 2.478060e-03 2.131736e-03 1.688321e-02 2.080251e-02 4.930014e-03 7.120726e-03 2.478060e-03 2.131736e-03 1.688321e-02 2.080251e-02 4.930014e-03 7.120726e-03 1.000000e-03 1.000000e-03 1.000000e-03 1.000000e-03
<GCONST> -5.894974e+01
<STATE> 3
<NUMMIXES> 2
<MIXTURE> 1 5.780657e-01
<MEAN> 16
 7.468947e-01 -4.711178e-01 2.177444e+00 -2.669614e-01 -5.140821e-01 1.873432e+00 1.236636e+00 -4.058433e-01 7.557185e-02 5.394473e-01 -8.031095e-01 -3.048923e-02 1.149942e-01 1.137794e-01 1.058142e-01 7.752004e-02
<VARIANCE> 16
 1.418861e-01 3.370100e-02 1.419169e-01 5.776517e-02 2.957579e-02 5.901667e-02 7.298285e-01 8.224712e-02 1.404371e-01 2.070239e-01 3.032981e-01 2.114125e-01 1.000000e-03 1.000000e-03 1.000000e-03 1.000000e-03
<GCONST> -2.382043e+01
<MIXTURE> 2 4.219343e-01
<MEAN> 16
 -8.627661e-01 1.635823e-01 2.211118e+00 -1.026427e+00 6.210032e-01 1.952311e+00 -1.691791e+00 5.542603e-01 -1.031157e-01 -7.379792e-01 1.099734e+00 4.183113e-02 7.669763e-02 6.532410e-02 6.279244e-02 7.530952e-02
<VARIANCE> 16
 1.788351e-02 2.084642e-02 2.159798e-01 3.676088e-02 6.105056e-02 2.850316e-01 2.180590e-01 2.750724e-02 1.456946e-01 1.335337e-01 8.641163e-02 2.332187e-01 1.000000e-03 1.000000e-03 1.000000e-03 1.000000e-03
<GCONST> -2.796689e+01
<STATE> 4
<NUMMIXES> 2
<MIXTURE> 1 6.933565e-01
<MEAN> 16
 4.688965e-01 -6.826726e-01 1.920574e+00 -1.399143e-01 -6.165262e-01 1.849779e+00 -1.117081e-02 5.041484e-03 1.673904e-03 -1.628208e-03 1.235572e-03 2.361262e-03 1.166305e-01 1.141441e-01 8.920553e-02 7.416760e-02
<VARIANCE> 16
 3.001923e-02 4.381353e-03 5.755317e-03 2.669324e-03 1.000000e-03 4.424724e-03 1.000000e-03 1.000000e-03 1.000000e-03 1.000000e-03 1.000000e-03 1.000000e-03 1.000000e-03 1.000000e-03 1.000000e-03 1.000000e-03
<GCONST> -7.201970e+01
<MIXTURE> 2 3.066427e-01
<MEAN> 16
 5.283635e-01 -6.597748e-01 1.750978e+00 -2.789388e-01 -6.100290e-01 1.797823e+00 -8.159998e-03 6.301271e-03 -7.397516e-03 -1.368379e-03 9.537011e-03 -1.738494e-02 1.216259e-01 9.703234e-02 1.083834e-01 6.892814e-02
<VARIANCE> 16
 6.480550e-03 1.661965e-03 9.508030e-03 2.750735e-02 8.600733e-03 1.154295e-02 1.000000e-03 1.000000e-03 2.900239e-03 1.000000e-03 1.000000e-03 3.484058e-03 1.000000e-03 1.000000e-03 1.000000e-03 1.000000e-03
<GCONST> -6.626375e+01
<STATE> 5
<MEAN> 16
 4.442227e-01 -6.623860e-01 1.877182e+00 -1.447748e-01 -3.770630e-02 1.790736e+00 -2.136437e-03 5.030083e-03 2.114081e-03 -2.323224e-03 2.492759e-02 2.533602e-03 1.217560e-01 1.030054e-01 9.399878e-02 8.361880e-02
<VARIANCE> 16
 2.122107e-02 4.835549e-03 1.889046e-02 1.427724e-02 9.626047e-02 2.115379e-02 1.000000e-03 1.000000e-03 3.192526e-03 1.000000e-03 5.997980e-03 2.872602e-03 1.000000e-03 1.000000e-03 1.000000e-03 1.000000e-03
<GCONST> -5.926341e+01
<TRANSP> 6
 0.000000e+00 1.000000e+00 0.000000e+00 0.000000e+00 0.000000e+00 0.000000e+00
 0.000000e+00 0.000000e+00 1.000000e+00 0.000000e+00 0.000000e+00 0.000000e+00
 0.000000e+00 0.000000e+00 8.592764e-01 1.407236e-01 0.000000e+00 0.000000e+00
 0.000000e+00 0.000000e+00 0.000000e+00 9.079538e-01 9.204624e-02 0.000000e+00
 0.000000e+00 0.000000e+00 0.000000e+00 0.000000e+00 8.529862e-01 1.470138e-01
 0.000000e+00 0.000000e+00 0.000000e+00 0.000000e+00 0.000000e+00 0.000000e+00
<ENDHMM>
~h "car"
<BEGINHMM>
<NUMSTATES> 6
<STATE> 2
<NUMMIXES> 2
<MIXTURE> 1 5.599123e-01
<MEAN> 16
 3.220734e-01 -4.541380e-01 2.071063e+00 -2.608146e-01 7.163897e-02 1.859189e+00 2.738531e-03 -1.361088e-03 3.107158e-03 -3.070354e-04 -8.581465e-03 2.795491e-04 1.012888e-01 1.362630e-01 9.261747e-02 8.444636e-02
<VARIANCE> 16
 1.167084e-02 6.075601e-03 1.545744e-02 1.017582e-03 6.623634e-03 9.956426e-03 1.000000e-03 1.000000e-03 1.000000e-03 1.000000e-03 1.000000e-03 1.000000e-03 1.000000e-03 1.000000e-03 1.000000e-03 1.000000e-03
<GCONST> -6.991230e+01
<MIXTURE> 2 4.400840e-01
<MEAN> 16
 2.917012e-01 -2.439589e-01 1.857828e+00 -3.025789e-01 -6.176704e-02 1.823597e+00 5.352444e-03 -1.975776e-02 -2.317072e-03 2.911333e-04 4.529363e-04 -7.311082e-03 8.720913e-02 9.929156e-02 7.577415e-02 8.164979e-02
<VARIANCE> 16
 2.324517e-02 2.492850e-02 1.968491e-02 5.562577e-03 5.014075e-02 1.550400e-02 1.000000e-03 1.010268e-03 4.989310e-03 1.000000e-03 1.000000e-03 4.151811e-03 1.000000e-03 1.000000e-03 1.000000e-03 1.000000e-03
<GCONST> -6.036304e+01
<STATE> 3
<NUMMIXES> 2
<MIXTURE> 1 7.207845e-01
<MEAN> 16
 3.287694e-01 5.074567e-02 1.896599e+00 -3.079673e-01 4.951396e-02 1.869441e+00 1.851943e-03 8.816401e-04 -1.994733e-03 -1.126379e-03 -1.816466e-03 -4.609396e-04 1.159036e-01 1.371430e-01 8.850195e-02 8.186344e-02
<VARIANCE> 16
 2.470167e-02 2.288279e-02 1.358538e-02 2.071794e-03 1.496210e-03 1.381112e-02 1.000000e-03 1.699456e-03 1.000000e-03 1.000000e-03 1.000000e-03 1.000000e-03 1.000000e-03 1.000000e-03 1.000000e-03 1.000000e-03
<GCONST> -6.788467e+01
<MIXTURE> 2 2.792074e-01
<MEAN> 16
 2.447712e-01 -3.000171e-02 1.903301e+00 -2.672400e-01 -6.549756e-03 1.884217e+00 1.081391e-02 -4.995710e-03 5.458903e-03 -2.104825e-03 -9.301535e-03 6.107578e-03 1.120937e-01 1.207629e-01 8.544061e-02 8.424762e-02
<VARIANCE> 16
 7.772990e-02 6.251793e-02 2.064914e-02 1.486954e-02 3.008832e-02 1.895786e-02 4.394028e-03 6.111479e-03 1.196421e-02 1.853420e-03 1.484415e-03 1.032988e-02 1.000000e-03 1.000000e-03 1.000000e-03 1.000000e-03
<GCONST> -5.143659e+01
<STATE> 4
<NUMMIXES> 2
<MIXTURE> 1 7.082157e-01
<MEAN> 16
 1.793637e-01 -1.632577e-02 1.727689e+00 -4.099350e-01 -5.039544e-02 1.668627e+00 -1.627941e-03 -2.380916e-03 -2.529551e-03 4.976156e-05 -1.376037e-03 -1.595401e-03 9.078144e-02 1.175896e-01 6.876908e-02 7.946400e-02
<VARIANCE> 16
 3.140039e-02 1.406767e-02 7.357045e-03 2.212974e-03 3.465248e-03 3.435656e-03 1.000000e-03 1.000000e-03 1.101478e-03 1.000000e-03 1.000000e-03 1.000000e-03 1.000000e-03 1.000000e-03 1.000000e-03 1.000000e-03
<GCONST> -6.966372e+01
<MIXTURE> 2 2.917731e-01
<MEAN> 16
 2.814791e-01 -2.589401e-01 1.840271e+00 -3.429433e-01 -2.177745e-01 1.731436e+00 1.184943e-02 -3.179230e-02 1.343990e-02 9.560099e-03 -3.349021e-02 8.292289e-03 1.058632e-01 1.032662e-01 8.023100e-02 7.977961e-02
<VARIANCE> 16
 6.895447e-02 8.547064e-02 2.638637e-02 1.227082e-02 3.424318e-02 1.083482e-02 3.427562e-03 4.648155e-03 1.113424e-02 1.011523e-03 2.125120e-03 7.438789e-03 1.000000e-03 1.000000e-03 1.000000e-03 1.000000e-03
<GCONST> -5.278978e+01
<STATE> 5
<MEAN> 16
 5.840870e-01 -6.960959e-01 1.855729e+00 -1.932360e-01 -6.085215e-01 1.814960e+00 4.093667e-03 -4.846773e-03 -8.280118e-05 3.049824e-03 -5.245835e-03 1.460976e-03 1.161943e-01 1.078055e-01 9.778504e-02 7.499379e-02
<VARIANCE> 16
 1.425780e-02 3.050814e-03 1.540337e-02 1.849137e-02 4.821619e-03 6.825230e-03 1.000000e-03 1.000000e-03 1.357258e-03 1.000000e-03 1.000000e-03 1.581901e-03 1.000000e-03 1.000000e-03 1.000000e-03 1.000000e-03
<GCONST> -6.743562e+01
<TRANSP> 6
 0.000000e+00 1.000000e+00 0.000000e+00 0.000000e+00 0.000000e+00 0.000000e+00
 0.000000e+00 8.983133e-01 1.016867e-01 0.000000e+00 0.000000e+00 0.000000e+00
 0.000000e+00 0.000000e+00 9.473430e-01 5.265697e-02 0.000000e+00 0.000000e+00
 0.000000e+00 0.000000e+00 0.000000e+00 9.618475e-01 3.815254e-02 0.000000e+00
 0.000000e+00 0.000000e+00 0.000000e+00 0.000000e+00 9.588678e-01 4.113224e-02
 0.000000e+00 0.000000e+00 0.000000e+00 0.000000e+00 0.000000e+00 0.000000e+00
<ENDHMM>
~h "weaves_and_bumps_into"
<BEGINHMM>
<NUMSTATES> 6
<STATE> 2
<NUMMIXES> 2
<MIXTURE> 1 3.944164e-01
<MEAN> 16
 2.887301e-01 -2.563727e-01 1.825415e+00 -2.188932e-01 -1.974399e-01 1.782859e+00 -3.945432e-02 7.023625e-02 -2.439832e-02 9.458745e-03 6.471760e-02 -2.172078e-02 1.100288e-01 9.759233e-02 8.567773e-02 8.184147e-02
<VARIANCE> 16
 2.660323e-02 4.391491e-02 5.181359e-02 1.765643e-02 3.409558e-02 4.599615e-02 5.119557e-03 6.929561e-03 1.649117e-02 5.465643e-03 7.740215e-03 1.457540e-02 1.133507e-03 1.000000e-03 1.000000e-03 1.000000e-03
<GCONST> -4.695704e+01
<MIXTURE> 2 6.055818e-01
<MEAN> 16
 4.352727e-01 -4.054493e-01 1.909981e+00 -3.810514e-01 -3.574197e-01 1.882416e+00 -1.166538e-02 1.832674e-02 2.580884e-03 7.708532e-04 2.115798e-02 1.583127e-03 9.275603e-02 9.079529e-02 7.959580e-02 7.950146e-02
<VARIANCE> 16
 5.208906e-03 1.062669e-02 4.788841e-02 8.226970e-03 1.122790e-02 4.568527e-02 1.000000e-03 1.441070e-03 4.488227e-03 1.000000e-03 1.468394e-03 4.088853e-03 1.000000e-03 1.000000e-03 1.000000e-03 1.000000e-03
<GCONST> -6.122857e+01
<STATE> 3
<NUMMIXES> 2
<MIXTURE> 1 3.644943e-01
<MEAN> 16
 2.243904e-01 -1.422489e-01 1.836424e+00 -2.206983e-01 -1.193540e-01 1.786523e+00 -6.272799e-04 5.794743e-03 1.112966e-02 -2.564862e-03 3.784498e-03 9.862988e-03 9.126533e-02 9.093793e-02 8.334310e-02 7.543886e-02
<VARIANCE> 16
 2.169625e-02 4.995948e-02 2.195351e-02 1.089411e-02 2.411204e-02 1.315471e-02 1.259181e-03 3.239346e-03 7.515426e-03 1.000000e-03 2.034141e-03 6.639365e-03 1.000000e-03 1.000000e-03 1.000000e-03 1.000000e-03
<GCONST> -5.686719e+01
<MIXTURE> 2 6.355026e-01
<MEAN> 16
 2.273347e-01 -2.234821e-01 1.790442e+00 -2.792900e-01 -2.133416e-01 1.740072e+00 -1.950278e-03 5.076376e-04 -8.030403e-03 4.031870e-04 2.052059e-03 -6.990300e-03 8.452218e-02 8.545095e-02 8.076548e-02 7.894521e-02
<VARIANCE> 16
 1.698881e-02 1.369005e-02 1.191837e-02 1.969865e-03 2.993161e-03 1.045374e-02 1.000000e-03 1.000000e-03 1.899056e-03 1.000000e-03 1.000000e-03 1.633104e-03 1.000000e-03 1.000000e-03 1.000000e-03 1.000000e-03
<GCONST> -6.793766e+01
<STATE> 4
<NUMMIXES> 2
<MIXTURE> 1 3.532613e-01
<MEAN> 16
 2.621053e-01 -1.691135e-01 1.602575e+00 -3.241819e-01 1.227830e-02 1.469176e+00 5.034457e-03 -3.753999e-03 4.318147e-03 -4.528369e-03 1.800676e-03 1.832216e-03 8.856449e-02 1.108936e-01 8.325852e-02 8.707920e-02
<VARIANCE> 16
 1.678826e-02 5.093908e-02 2.296923e-02 9.227606e-03 1.529943e-02 1.873941e-02 1.138187e-03 2.634126e-03 3.024386e-03 1.000000e-03 1.181003e-03 2.097603e-03 1.000000e-03 1.000000e-03 1.000000e-03 1.000000e-03
<GCONST> -6.024010e+01
<MIXTURE> 2 6.467358e-01
<MEAN> 16
 2.005678e-01 -1.452858e-02 1.358159e+00 -2.981264e-01 2.508408e-02 1.352947e+00 1.515305e-04 3.619366e-04 -3.293260e-03 2.789386e-04 3.962982e-05 -2.667584e-03 8.457213e-02 1.014165e-01 8.286036e-02 8.373811e-02
<VARIANCE> 16
 2.484582e-02 1.562564e-02 1.110878e-02 6.138328e-03 3.604961e-03 4.685306e-03 1.000000e-03 1.000000e-03 1.022741e-03 1.000000e-03 1.000000e-03 1.000000e-03 1.000000e-03 1.000000e-03 1.000000e-03 1.000000e-03
<GCONST> -6.808494e+01
<STATE> 5
<MEAN> 16
 3.173831e-01 -2.413794e-01 1.874373e+00 -2.457298e-01 1.872676e-02 1.817676e+00 1.369395e-02 -7.024419e-03 1.890775e-02 -1.202271e-02 3.619909e-03 1.694741e-02 1.132584e-01 1.130628e-01 8.458124e-02 8.639424e-02
<VARIANCE> 16
 1.414540e-02 8.595501e-02 3.365947e-02 1.593659e-02 5.328909e-02 2.704865e-02 6.434214e-03 5.037557e-03 1.284511e-02 2.139254e-03 7.150470e-03 9.018948e-03 1.040183e-03 1.000000e-03 1.000000e-03 1.000000e-03
<GCONST> -4.945869e+01
<TRANSP> 6
 0.000000e+00 1.000000e+00 0.000000e+00 0.000000e+00 0.000000e+00 0.000000e+00
 0.000000e+00 8.840036e-01 1.159964e-01 0.000000e+00 0.000000e+00 0.000000e+00
 0.000000e+00 0.000000e+00 9.421456e-01 5.785434e-02 0.000000e+00 0.000000e+00
 0.000000e+00 0.000000e+00 0.000000e+00 9.547783e-01 4.522176e-02 0.000000e+00
 0.000000e+00 0.000000e+00 0.000000e+00 0.000000e+00 7.114980e-01 2.885019e-01
 0.000000e+00 0.000000e+00 0.000000e+00 0.000000e+00 0.000000e+00 0.000000e+00
<ENDHMM>
~h "man"
<BEGINHMM>
<NUMSTATES> 6
<STATE> 2
<NUMMIXES> 2
<MIXTURE> 1 5.613772e-01
<MEAN> 16
 3.579152e-01 -5.962340e-01 1.933789e+00 -3.819956e-01 -1.556873e-01 1.844927e+00 2.962169e-03 2.934369e-03 9.989237e-03 -7.217043e-03 -5.710783e-03 6.669729e-03 1.155378e-01 8.899721e-02 8.276578e-02 9.624099e-02
<VARIANCE> 16
 2.117149e-02 1.657872e-02 1.427907e-02 7.939255e-03 4.626199e-03 1.724988e-02 1.000000e-03 1.000000e-03 3.120101e-03 1.000000e-03 1.000000e-03 1.598762e-03 1.000000e-03 1.000000e-03 1.000000e-03 1.000000e-03
<GCONST> -6.454003e+01
<MIXTURE> 2 4.386185e-01
<MEAN> 16
 4.006654e-01 -5.592691e-01 1.701851e+00 -3.454495e-01 -8.023707e-02 1.553139e+00 -5.927739e-03 1.034994e-02 -1.735539e-02 -6.837168e-03 -9.855302e-04 -1.531106e-02 1.171448e-01 6.925096e-02 9.074131e-02 9.130108e-02
<VARIANCE> 16
 8.485031e-03 6.833436e-03 1.194360e-02 1.956750e-02 7.332370e-03 1.328011e-02 1.000000e-03 1.000000e-03 3.033989e-03 1.000000e-03 1.000000e-03 1.315280e-03 1.000000e-03 1.000000e-03 1.000000e-03 1.000000e-03
<GCONST> -6.564137e+01
<STATE> 3
<NUMMIXES> 2
<MIXTURE> 1 5.116352e-01
<MEAN> 16
 2.127976e-01 -3.718079e-02 1.921048e+00 -3.727332e-01 -1.373795e-01 1.954342e+00 4.465446e-03 1.566280e-04 1.052861e-02 -2.268747e-03 -2.081869e-03 1.016167e-02 1.086523e-01 9.833296e-02 8.445873e-02 1.017397e-01
<VARIANCE> 16
 4.824922e-02 3.920998e-02 8.740060e-03 7.446837e-03 6.767430e-03 1.111404e-02 1.079025e-03 2.328905e-03 2.917499e-03 1.000000e-03 1.000000e-03 2.718634e-03 1.000000e-03 1.000000e-03 1.000000e-03 1.000000e-03
<GCONST> -6.208440e+01
<MIXTURE> 2 4.883555e-01
<MEAN> 16
 1.395553e-01 -5.972918e-02 1.736209e+00 -3.927413e-01 -1.425177e-01 1.728015e+00 -8.545768e-03 6.903473e-03 -1.423878e-02 5.451116e-03 9.936688e-04 -1.143453e-02 9.533452e-02 7.223767e-02 7.212432e-02 8.783056e-02
<VARIANCE> 16
 4.595952e-02 1.931519e-02 8.750269e-03 8.275254e-03 3.681498e-03 7.620940e-03 1.942223e-03 2.624372e-03 3.646156e-03 1.000000e-03 1.000000e-03 3.019043e-03 1.000000e-03 1.000000e-03 1.000000e-03 1.000000e-03
<GCONST> -6.268554e+01
<STATE> 4
<NUMMIXES> 2
<MIXTURE> 1 6.849344e-01
<MEAN> 16
 1.961050e-01 9.842722e-04 1.501403e+00 -3.344206e-01 -1.622526e-02 1.505401e+00 -6.030149e-05 7.884162e-04 -2.282612e-03 7.569430e-04 -1.032599e-03 -7.374085e-04 9.364032e-02 7.453972e-02 8.009533e-02 9.273840e-02
<VARIANCE> 16
 3.366583e-02 1.275445e-02 1.845307e-02 9.134413e-03 1.693816e-03 9.631619e-03 1.000000e-03 1.000000e-03 1.000000e-03 1.000000e-03 1.000000e-03 1.000000e-03 1.000000e-03 1.000000e-03 1.000000e-03 1.000000e-03
<GCONST> -6.713638e+01
<MIXTURE> 2 3.150567e-01
<MEAN> 16
 3.691159e-01 -4.004184e-01 1.738653e+00 -2.858524e-01 -3.210881e-01 1.708159e+00 3.038157e-02 -4.329455e-02 1.519025e-02 5.869907e-03 -4.134830e-02 8.297777e-03 1.040045e-01 8.500595e-02 7.916488e-02 7.602695e-02
<VARIANCE> 16
 5.427826e-02 5.220407e-02 3.527886e-02 1.742451e-02 4.585917e-02 3.469235e-02 2.935132e-03 3.028523e-03 9.637653e-03 1.712303e-03 3.107140e-03 8.909890e-03 1.000000e-03 1.000000e-03 1.000000e-03 1.000000e-03
<GCONST> -5.106630e+01
<STATE> 5
<MEAN> 16
 5.901457e-01 -6.969683e-01 1.855430e+00 -1.864785e-01 -6.060723e-01 1.813122e+00 4.604314e-03 -4.710562e-03 3.519896e-04 1.978356e-03 -4.489798e-03 1.286060e-03 1.161284e-01 1.072522e-01 9.600712e-02 7.557160e-02
<VARIANCE> 16
 1.471417e-02 3.319388e-03 1.528763e-02 1.698025e-02 4.641805e-03 7.251651e-03 1.000000e-03 1.000000e-03 1.548212e-03 1.000000e-03 1.000000e-03 1.322638e-03 1.000000e-03 1.000000e-03 1.000000e-03 1.000000e-03
<GCONST> -6.743731e+01
<TRANSP> 6
 0.000000e+00 1.000000e+00 0.000000e+00 0.000000e+00 0.000000e+00 0.000000e+00
 0.000000e+00 9.260318e-01 7.396815e-02 0.000000e+00 0.000000e+00 0.000000e+00
 0.000000e+00 0.000000e+00 9.718223e-01 2.817778e-02 0.000000e+00 0.000000e+00
 0.000000e+00 0.000000e+00 0.000000e+00 9.584231e-01 4.157691e-02 0.000000e+00
 0.000000e+00 0.000000e+00 0.000000e+00 0.000000e+00 9.549419e-01 4.505811e-02
 0.000000e+00 0.000000e+00 0.000000e+00 0.000000e+00 0.000000e+00 0.000000e+00
<ENDHMM>
~h "monkey"
<BEGINHMM>
<NUMSTATES> 6
<STATE> 2
<NUMMIXES> 2
<MIXTURE> 1 3.292646e-01
<MEAN> 16
 3.958054e-01 -5.047746e-01 2.218036e+00 -2.669481e-01 -1.670599e-02 1.994317e+00 8.332233e-04 8.566956e-05 5.129878e-03 9.201946e-04 -7.992584e-03 3.859464e-03 1.085010e-01 1.185102e-01 8.970836e-02 8.024453e-02
<VARIANCE> 16
 7.030289e-03 2.649367e-03 8.077574e-03 1.021539e-03 1.841937e-02 3.675429e-03 1.000000e-03 1.000000e-03 2.273357e-03 1.000000e-03 1.000000e-03 1.353713e-03 1.506416e-03 1.000000e-03 1.000000e-03 1.000000e-03
<GCONST> -7.033419e+01
<MIXTURE> 2 6.707317e-01
<MEAN> 16
 3.075086e-01 -3.904920e-01 1.962988e+00 -3.388574e-01 1.457485e-02 1.743552e+00 8.006970e-04 1.761430e-04 -6.334048e-03 -2.907450e-04 -2.052151e-03 -5.239727e-03 1.059844e-01 1.005852e-01 9.020481e-02 6.741193e-02
<VARIANCE> 16
 1.083403e-02 8.560531e-03 1.855513e-02 1.004064e-02 7.553120e-03 1.457404e-02 1.000000e-03 1.000000e-03 1.982719e-03 1.000000e-03 1.000000e-03 1.176537e-03 1.297547e-03 1.000000e-03 1.000000e-03 1.000000e-03
<GCONST> -6.555209e+01
<STATE> 3
<NUMMIXES> 2
<MIXTURE> 1 3.859327e-01
<MEAN> 16
 2.822127e-01 1.513361e-02 1.987641e+00 -3.009897e-01 -2.151612e-02 1.964780e+00 9.282730e-04 8.706214e-03 7.237415e-05 -1.095884e-03 -1.132954e-03 3.825489e-03 1.162014e-01 1.184951e-01 9.232702e-02 8.000158e-02
<VARIANCE> 16
 3.787342e-02 3.366395e-02 1.429033e-02 7.681260e-03 3.339138e-03 1.440062e-02 2.728413e-03 4.577264e-03 7.750914e-03 1.000000e-03 1.000000e-03 6.818013e-03 1.000000e-03 1.000000e-03 1.000000e-03 1.000000e-03
<GCONST> -5.890383e+01
<MIXTURE> 2 6.140601e-01
<MEAN> 16
 1.593346e-01 -1.885150e-02 1.813522e+00 -3.367814e-01 -5.413134e-02 1.798226e+00 -1.475065e-03 -1.277093e-03 -3.517517e-03 1.445467e-03 -1.541553e-03 -2.328160e-03 1.004854e-01 1.016422e-01 7.879611e-02 6.657873e-02
<VARIANCE> 16
 4.814367e-02 2.093114e-02 1.010042e-02 1.154545e-02 5.634347e-03 9.216001e-03 1.000000e-03 1.000000e-03 1.093667e-03 1.000000e-03 1.000000e-03 1.000000e-03 1.000000e-03 1.000000e-03 1.000000e-03 1.000000e-03
<GCONST> -6.540440e+01
<STATE> 4
<NUMMIXES> 2
<MIXTURE> 1 4.886564e-01
<MEAN> 16
 2.024361e-01 2.465046e-02 1.618709e+00 -2.886000e-01 5.532822e-02 1.620683e+00 -1.585552e-03 1.159199e-03 -1.981915e-03 -2.182517e-04 -8.169705e-04 -2.467227e-04 1.068175e-01 9.989925e-02 8.110606e-02 6.805619e-02
<VARIANCE> 16
 3.579173e-02 6.502022e-03 8.692815e-03 5.389889e-03 1.901459e-03 4.319868e-03 1.000000e-03 1.000000e-03 1.004529e-03 1.000000e-03 1.000000e-03 1.000000e-03 1.000000e-03 1.000000e-03 1.000000e-03 1.000000e-03
<GCONST> -6.971084e+01
<MIXTURE> 2 5.113395e-01
<MEAN> 16
 3.983583e-01 -4.739709e-01 1.786377e+00 -2.509409e-01 -3.606786e-01 1.748999e+00 3.130195e-02 -5.131305e-02 1.341290e-02 8.796817e-03 -4.765754e-02 5.232873e-03 1.079376e-01 9.080126e-02 7.861173e-02 7.004783e-02
<VARIANCE> 16
 5.234122e-02 3.070735e-02 2.773162e-02 1.203642e-02 3.699690e-02 2.333017e-02 1.820316e-03 2.497156e-03 8.740664e-03 1.000000e-03 2.322408e-03 6.297127e-03 1.000000e-03 1.000000e-03 1.000000e-03 1.000000e-03
<GCONST> -5.479983e+01
<STATE> 5
<MEAN> 16
 5.943072e-01 -7.006809e-01 1.854624e+00 -1.978237e-01 -6.150031e-01 1.807864e+00 3.003905e-03 -3.818945e-03 -4.407345e-05 1.364974e-03 -3.813810e-03 1.543130e-03 1.142575e-01 1.099186e-01 9.710097e-02 7.431781e-02
<VARIANCE> 16
 9.635463e-03 2.847484e-03 1.636158e-02 1.885000e-02 4.519366e-03 5.697353e-03 1.000000e-03 1.000000e-03 1.041981e-03 1.000000e-03 1.000000e-03 1.310185e-03 1.000000e-03 1.000000e-03 1.000000e-03 1.000000e-03
<GCONST> -6.851506e+01
<TRANSP> 6
 0.000000e+00 1.000000e+00 0.000000e+00 0.000000e+00 0.000000e+00 0.000000e+00
 0.000000e+00 9.282410e-01 7.175904e-02 0.000000e+00 0.000000e+00 0.000000e+00
 0.000000e+00 0.000000e+00 9.719347e-01 2.806536e-02 0.000000e+00 0.000000e+00
 0.000000e+00 0.000000e+00 0.000000e+00 9.351314e-01 6.486866e-02 0.000000e+00
 0.000000e+00 0.000000e+00 0.000000e+00 0.000000e+00 9.578798e-01 4.212023e-02
 0.000000e+00 0.000000e+00 0.000000e+00 0.000000e+00 0.000000e+00 0.000000e+00
<ENDHMM>
~h "bumps_into_each_other"
<BEGINHMM>
<NUMSTATES> 6
<STATE> 2
<NUMMIXES> 2
<MIXTURE> 1 3.623177e-01
<MEAN> 16
 3.613718e-01 -4.085390e-01 2.010821e+00 -3.017540e-01 -2.673136e-01 1.945379e+00 -1.251314e-02 3.014856e-02 2.603181e-03 -1.077644e-02 4.844058e-02 -1.014452e-03 1.046632e-01 9.233999e-02 9.072965e-02 8.069659e-02
<VARIANCE> 16
 1.495592e-02 2.402681e-02 3.886892e-02 1.367220e-02 3.626407e-02 4.189122e-02 3.819159e-03 6.775343e-03 1.344615e-02 3.639175e-03 7.120605e-03 1.328778e-02 1.282177e-03 1.000000e-03 1.038893e-03 1.000000e-03
<GCONST> -4.965199e+01
<MIXTURE> 2 6.376825e-01
<MEAN> 16
 4.485449e-01 -3.891365e-01 1.910037e+00 -4.270205e-01 -3.486244e-01 1.905519e+00 -7.938566e-03 1.257841e-02 2.880015e-03 1.054436e-03 1.570310e-02 -1.520121e-03 8.889610e-02 8.945829e-02 8.271810e-02 8.257524e-02
<VARIANCE> 16
 4.674822e-03 1.149972e-02 4.438587e-02 4.762856e-03 1.228318e-02 3.909357e-02 1.000000e-03 1.000000e-03 2.870395e-03 1.000000e-03 1.000000e-03 2.873678e-03 1.000000e-03 1.000000e-03 1.000000e-03 1.000000e-03
<GCONST> -6.349554e+01
<STATE> 3
<NUMMIXES> 2
<MIXTURE> 1 5.242044e-01
<MEAN> 16
 3.140930e-01 -1.915501e-01 1.954345e+00 -2.501790e-01 -1.306718e-01 1.891030e+00 6.126286e-03 -2.301506e-03 2.318763e-02 -4.703631e-03 -1.645949e-04 2.205966e-02 9.271444e-02 9.949133e-02 9.137378e-02 8.608276e-02
<VARIANCE> 16
 1.169119e-02 4.616708e-02 1.143606e-02 6.006007e-03 3.187521e-02 7.998784e-03 1.000000e-03 1.671616e-03 3.949707e-03 1.000000e-03 1.000000e-03 3.542981e-03 1.000000e-03 1.000000e-03 1.000000e-03 1.000000e-03
<GCONST> -6.190390e+01
<MIXTURE> 2 4.757912e-01
<MEAN> 16
 2.961988e-01 -1.572139e-01 1.793705e+00 -2.182782e-01 -1.460174e-01 1.755727e+00 -1.046461e-02 1.270913e-02 -3.054266e-02 4.958668e-03 7.709886e-03 -2.744075e-02 8.001547e-02 8.574595e-02 7.451141e-02 7.128301e-02
<VARIANCE> 16
 1.152535e-02 2.854009e-02 7.188377e-03 6.479597e-03 1.597169e-02 7.094210e-03 1.261603e-03 4.221205e-03 5.500279e-03 1.000000e-03 3.289154e-03 4.890834e-03 1.000000e-03 1.000000e-03 1.000000e-03 1.000000e-03
<GCONST> -6.059568e+01
<STATE> 4
<NUMMIXES> 2
<MIXTURE> 1 4.334990e-01
<MEAN> 16
 3.151071e-01 -1.146305e-01 1.639062e+00 -3.489226e-01 7.876280e-02 1.554464e+00 8.064294e-03 -4.185655e-03 8.010132e-03 -8.145140e-03 1.377229e-03 7.025668e-03 9.664394e-02 1.124236e-01 8.453613e-02 8.220243e-02
<VARIANCE> 16
 1.352986e-02 5.782505e-02 2.152550e-02 8.090373e-03 1.027380e-02 1.372401e-02 1.000000e-03 1.000000e-03 1.568675e-03 1.000000e-03 1.000000e-03 1.087577e-03 1.000000e-03 1.000000e-03 1.000000e-03 1.000000e-03
<GCONST> -6.381290e+01
<MIXTURE> 2 5.664993e-01
<MEAN> 16
 2.342020e-01 -1.273968e-03 1.440479e+00 -3.031405e-01 6.008081e-02 1.431380e+00 -4.026020e-03 5.787813e-03 -8.679242e-03 3.828352e-03 1.563410e-03 -6.839956e-03 7.996777e-02 1.007211e-01 7.385460e-02 8.118628e-02
<VARIANCE> 16
 1.342407e-02 2.334077e-02 7.074093e-03 1.066967e-02 5.243452e-03 3.508690e-03 1.000000e-03 2.016660e-03 1.407015e-03 1.000000e-03 1.000000e-03 1.186804e-03 1.000000e-03 1.000000e-03 1.000000e-03 1.000000e-03
<GCONST> -6.692056e+01
<STATE> 5
<MEAN> 16
 4.284407e-01 -3.306579e-01 1.787742e+00 -3.354529e-01 -7.902750e-02 1.724495e+00 1.785746e-02 -4.257790e-02 3.362087e-02 -7.058650e-03 -3.453384e-02 2.484976e-02 9.858880e-02 9.465230e-02 8.216499e-02 8.006997e-02
<VARIANCE> 16
 1.636204e-02 3.794288e-02 4.978143e-02 1.577921e-02 4.625437e-02 3.782652e-02 1.000000e-03 2.090434e-03 6.370552e-03 1.000000e-03 3.373452e-03 5.699138e-03 1.149625e-03 1.000000e-03 1.000000e-03 1.000000e-03
<GCONST> -5.486876e+01
<TRANSP> 6
 0.000000e+00 1.000000e+00 0.000000e+00 0.000000e+00 0.000000e+00 0.000000e+00
 0.000000e+00 8.816637e-01 1.183363e-01 0.000000e+00 0.000000e+00 0.000000e+00
 0.000000e+00 0.000000e+00 9.646990e-01 3.530108e-02 0.000000e+00 0.000000e+00
 0.000000e+00 0.000000e+00 0.000000e+00 9.462057e-01 5.379424e-02 0.000000e+00
 0.000000e+00 0.000000e+00 0.000000e+00 0.000000e+00 4.925912e-01 5.074088e-01
 0.000000e+00 0.000000e+00 0.000000e+00 0.000000e+00 0.000000e+00 0.000000e+00
<ENDHMM>
~h "jumps_on"
<BEGINHMM>
<NUMSTATES> 6
<STATE> 2
<NUMMIXES> 2
<MIXTURE> 1 4.190278e-01
<MEAN> 16
 3.841001e-01 -3.952546e-01 2.074180e+00 -3.263717e-01 -3.334770e-01 2.040425e+00 -1.134507e-02 2.933056e-02 1.613043e-02 -3.957932e-03 3.623188e-02 1.238349e-02 9.819607e-02 9.479311e-02 9.128851e-02 8.417519e-02
<VARIANCE> 16
 1.334260e-02 1.768323e-02 3.680294e-02 1.076684e-02 3.776879e-02 3.686898e-02 2.774957e-03 6.539281e-03 1.169833e-02 3.399830e-03 1.110919e-02 1.228288e-02 1.098051e-03 1.000000e-03 1.000000e-03 1.000000e-03
<GCONST> -5.084243e+01
<MIXTURE> 2 5.809738e-01
<MEAN> 16
 3.846656e-01 -3.954410e-01 1.840863e+00 -3.229529e-01 -3.360284e-01 1.823274e+00 -1.793189e-02 2.836491e-02 -1.802278e-02 3.851213e-03 2.981766e-02 -1.808776e-02 9.025494e-02 8.894507e-02 7.810207e-02 7.854132e-02
<VARIANCE> 16
 1.109842e-02 1.174073e-02 3.402952e-02 1.748019e-02 2.047736e-02 3.130500e-02 1.000000e-03 1.772329e-03 3.048406e-03 1.000000e-03 1.495493e-03 2.602799e-03 1.000000e-03 1.000000e-03 1.000000e-03 1.000000e-03
<GCONST> -6.035084e+01
<STATE> 3
<NUMMIXES> 2
<MIXTURE> 1 5.582110e-01
<MEAN> 16
 2.872599e-01 -1.714220e-01 1.891824e+00 -2.393391e-01 -1.324172e-01 1.809926e+00 4.199123e-03 3.155732e-04 2.464264e-02 -4.098390e-03 -1.055590e-03 2.366621e-02 9.667356e-02 1.063575e-01 8.515485e-02 8.902198e-02
<VARIANCE> 16
 1.402435e-02 5.151775e-02 9.540096e-03 3.154033e-03 2.126146e-02 1.084022e-02 1.000000e-03 1.377731e-03 3.063070e-03 1.000000e-03 1.000000e-03 2.696310e-03 1.000000e-03 1.000000e-03 1.000000e-03 1.000000e-03
<GCONST> -6.325925e+01
<MIXTURE> 2 4.417858e-01
<MEAN> 16
 2.618098e-01 -1.230060e-01 1.753743e+00 -2.112703e-01 -1.389201e-01 1.704536e+00 -2.027906e-02 2.901156e-02 -3.946732e-02 8.585648e-03 1.231722e-02 -3.439260e-02 8.709569e-02 9.267423e-02 7.498695e-02 7.449786e-02
<VARIANCE> 16
 1.177102e-02 3.515352e-02 7.976439e-03 4.362439e-03 1.755650e-02 8.110875e-03 1.026083e-03 4.290245e-03 4.741290e-03 1.000000e-03 2.905795e-03 4.301822e-03 1.000000e-03 1.000000e-03 1.000000e-03 1.000000e-03
<GCONST> -6.102039e+01
<STATE> 4
<NUMMIXES> 2
<MIXTURE> 1 4.771060e-01
<MEAN> 16
 2.216902e-01 -1.180043e-01 1.641645e+00 -2.221577e-01 4.310703e-03 1.483358e+00 -1.945595e-03 3.795668e-03 2.358939e-03 -1.212772e-04 1.700665e-03 1.769726e-03 9.872635e-02 1.097584e-01 8.695730e-02 8.864564e-02
<VARIANCE> 16
 2.289371e-02 6.474117e-02 2.441831e-02 7.651283e-03 8.215679e-03 1.691885e-02 1.000000e-03 1.755020e-03 3.302085e-03 1.000000e-03 1.000000e-03 2.117451e-03 1.000000e-03 1.108110e-03 1.000000e-03 1.000000e-03
<GCONST> -6.104221e+01
<MIXTURE> 2 5.228888e-01
<MEAN> 16
 2.158594e-02 6.639990e-02 1.413217e+00 -1.521919e-01 -1.874098e-02 1.376591e+00 -5.773619e-03 3.567679e-03 -3.510086e-03 1.299697e-03 -3.585397e-04 -3.222358e-03 9.106301e-02 9.072317e-02 6.922979e-02 8.024053e-02
<VARIANCE> 16
 3.921462e-02 2.646522e-02 1.191480e-02 3.583065e-03 3.127582e-03 7.422328e-03 1.000000e-03 1.122060e-03 1.000000e-03 1.000000e-03 1.000000e-03 1.000000e-03 1.000000e-03 1.000000e-03 1.000000e-03 1.000000e-03
<GCONST> -6.715926e+01
<STATE> 5
<MEAN> 16
 -1.060859e-01 -1.888189e-02 1.719255e+00 -7.477215e-02 -9.820590e-02 1.700295e+00 7.177936e-03 -8.529374e-03 8.992089e-04 -3.534407e-03 8.059050e-04 1.238803e-03 9.226757e-02 9.527221e-02 7.166310e-02 8.300644e-02
<VARIANCE> 16
 3.255390e-02 3.264840e-02 1.657076e-02 1.751874e-02 1.844920e-02 1.863862e-02 3.962986e-03 1.848438e-03 5.544194e-03 5.754063e-03 2.864434e-03 7.483085e-03 1.000000e-03 1.773783e-03 1.000000e-03 1.000000e-03
<GCONST> -5.354607e+01
<TRANSP> 6
 0.000000e+00 1.000000e+00 0.000000e+00 0.000000e+00 0.000000e+00 0.000000e+00
 0.000000e+00 8.683757e-01 1.316243e-01 0.000000e+00 0.000000e+00 0.000000e+00
 0.000000e+00 0.000000e+00 9.427656e-01 5.723445e-02 0.000000e+00 0.000000e+00
 0.000000e+00 0.000000e+00 0.000000e+00 9.656858e-01 3.431420e-02 0.000000e+00
 0.000000e+00 0.000000e+00 0.000000e+00 0.000000e+00 8.742366e-01 1.257634e-01
 0.000000e+00 0.000000e+00 0.000000e+00 0.000000e+00 0.000000e+00 0.000000e+00
<ENDHMM>
~h "house"
<BEGINHMM>
<NUMSTATES> 6
<STATE> 2
<NUMMIXES> 2
<MIXTURE> 1 4.259174e-01
<MEAN> 16
 2.550442e-01 9.561202e-02 1.893500e+00 -2.328458e-01 1.045535e-01 1.887659e+00 1.240103e-02 -1.800185e-02 1.455411e-02 -1.191294e-02 -1.799258e-02 1.481624e-02 1.562310e-01 1.466350e-01 9.369969e-02 9.673708e-02
<VARIANCE> 16
 1.099511e-02 3.020946e-02 1.483015e-02 9.521771e-03 2.676948e-02 1.635187e-02 1.000000e-03 1.679258e-03 2.736613e-03 1.000000e-03 1.926927e-03 2.770605e-03 1.000000e-03 1.000000e-03 1.000000e-03 1.000000e-03
<GCONST> -6.108054e+01
<MIXTURE> 2 5.740780e-01
<MEAN> 16
 3.045628e-01 -4.283763e-01 1.975140e+00 -2.946572e-01 -6.158751e-02 1.850099e+00 -7.078330e-04 -7.864836e-03 -5.510741e-03 -2.488706e-04 7.771344e-03 -1.054940e-02 1.188098e-01 1.321738e-01 8.609379e-02 1.014812e-01
<VARIANCE> 16
 4.066749e-03 2.191406e-02 1.825052e-02 1.929115e-03 3.914175e-02 1.531367e-02 1.000000e-03 1.569091e-03 7.890841e-03 1.000000e-03 2.004566e-03 5.192359e-03 1.383097e-03 1.000000e-03 1.000000e-03 1.000000e-03
<GCONST> -6.148775e+01
<STATE> 3
<NUMMIXES> 2
<MIXTURE> 1 4.184690e-01
<MEAN> 16
 2.932378e-01 -3.798897e-02 1.930471e+00 -3.059114e-01 5.190465e-02 1.825187e+00 2.251311e-03 5.204297e-03 8.803910e-03 -2.556217e-03 -1.130415e-03 8.488141e-03 1.155566e-01 1.239982e-01 8.854251e-02 1.057115e-01
<VARIANCE> 16
 2.916680e-02 4.934749e-02 1.320300e-02 2.865011e-03 2.792497e-03 1.096815e-02 2.350288e-03 4.052282e-03 7.231415e-03 1.000000e-03 1.000000e-03 5.622042e-03 1.000000e-03 1.000000e-03 1.000000e-03 1.000000e-03
<GCONST> -6.083224e+01
<MIXTURE> 2 5.815250e-01
<MEAN> 16
 1.939298e-01 -5.635982e-02 1.779784e+00 -3.524193e-01 -1.459991e-02 1.660575e+00 -3.804002e-03 -1.262538e-03 -8.523853e-03 1.226201e-03 -1.945610e-03 -6.721116e-03 1.042414e-01 1.101445e-01 7.590997e-02 9.282221e-02
<VARIANCE> 16
 3.521620e-02 1.967318e-02 1.168168e-02 2.196845e-03 5.713851e-03 6.847394e-03 1.000000e-03 1.000000e-03 2.170031e-03 1.000000e-03 1.000000e-03 1.728609e-03 1.000000e-03 1.000000e-03 1.000000e-03 1.000000e-03
<GCONST> -6.634343e+01
<STATE> 4
<NUMMIXES> 2
<MIXTURE> 1 6.637558e-01
<MEAN> 16
 1.848023e-01 -9.543927e-02 1.664986e+00 -2.319361e-01 5.892046e-03 1.610183e+00 6.750961e-04 -1.969066e-03 -1.776574e-03 8.679169e-04 -4.676277e-04 -1.524413e-03 9.400805e-02 8.571500e-02 7.713451e-02 9.070719e-02
<VARIANCE> 16
 5.352806e-02 2.897961e-02 1.256656e-02 6.762453e-03 2.550035e-02 5.786554e-03 1.000000e-03 1.000000e-03 1.061695e-03 1.000000e-03 1.000000e-03 1.000000e-03 1.000000e-03 1.000000e-03 1.000000e-03 1.000000e-03
<GCONST> -6.427473e+01
<MIXTURE> 2 3.362367e-01
<MEAN> 16
 3.449987e-01 -3.527347e-01 1.789145e+00 -2.733198e-01 -2.376347e-01 1.714287e+00 2.398350e-02 -4.012206e-02 1.549637e-02 6.306451e-03 -3.769627e-02 1.121705e-02 1.056559e-01 9.109692e-02 8.010524e-02 8.304131e-02
<VARIANCE> 16
 6.712238e-02 5.670485e-02 2.482763e-02 1.200937e-02 3.968971e-02 2.149565e-02 3.232240e-03 3.080067e-03 1.211840e-02 1.388356e-03 2.313298e-03 9.218886e-03 1.048640e-03 1.000000e-03 1.000000e-03 1.000000e-03
<GCONST> -5.219870e+01
<STATE> 5
<MEAN> 16
 5.901347e-01 -6.992033e-01 1.859222e+00 -1.975453e-01 -6.056946e-01 1.813783e+00 4.540650e-03 -4.190356e-03 -1.652708e-04 1.974651e-03 -5.034695e-03 2.607770e-03 1.152655e-01 1.089031e-01 9.821709e-02 7.194781e-02
<VARIANCE> 16
 1.647061e-02 3.065252e-03 1.594159e-02 1.747486e-02 5.558565e-03 7.609899e-03 1.000000e-03 1.000000e-03 1.101102e-03 1.000000e-03 1.000000e-03 1.222879e-03 1.000000e-03 1.000000e-03 1.000000e-03 1.000000e-03
<GCONST> -6.752435e+01
<TRANSP> 6
 0.000000e+00 1.000000e+00 0.000000e+00 0.000000e+00 0.000000e+00 0.000000e+00
 0.000000e+00 9.450841e-01 5.491592e-02 0.000000e+00 0.000000e+00 0.000000e+00
 0.000000e+00 0.000000e+00 9.754388e-01 2.456120e-02 0.000000e+00 0.000000e+00
 0.000000e+00 0.000000e+00 0.000000e+00 9.650286e-01 3.497136e-02 0.000000e+00
 0.000000e+00 0.000000e+00 0.000000e+00 0.000000e+00 9.602794e-01 3.972061e-02
 0.000000e+00 0.000000e+00 0.000000e+00 0.000000e+00 0.000000e+00 0.000000e+00
<ENDHMM>
~h "bumps_into"
<BEGINHMM>
<NUMSTATES> 6
<STATE> 2
<NUMMIXES> 2
<MIXTURE> 1 5.275102e-01
<MEAN> 16
 3.541190e-01 -3.902841e-01 2.078133e+00 -3.575116e-01 -3.303609e-01 2.048024e+00 4.292337e-04 9.219712e-03 2.540278e-02 -5.859354e-03 1.299327e-02 2.065796e-02 8.896124e-02 8.745650e-02 8.361810e-02 8.648411e-02
<VARIANCE> 16
 1.943409e-02 2.578708e-02 1.908078e-02 1.533844e-02 1.704192e-02 1.607087e-02 1.277584e-03 2.203474e-03 7.403458e-03 1.930718e-03 2.444091e-03 7.389145e-03 1.000000e-03 1.000000e-03 1.000000e-03 1.000000e-03
<GCONST> -5.702090e+01
<MIXTURE> 2 4.724894e-01
<MEAN> 16
 4.152417e-01 -4.020365e-01 1.758127e+00 -3.278601e-01 -3.477249e-01 1.729949e+00 -2.754838e-02 4.198548e-02 -2.955463e-02 3.707735e-03 4.493092e-02 -2.968206e-02 9.224296e-02 8.878457e-02 7.884721e-02 7.670869e-02
<VARIANCE> 16
 1.189512e-02 1.215490e-02 2.381413e-02 1.835689e-02 1.548100e-02 2.152930e-02 1.000000e-03 2.480747e-03 3.902430e-03 1.000000e-03 1.966707e-03 3.621817e-03 1.000000e-03 1.000000e-03 1.000000e-03 1.000000e-03
<GCONST> -6.002139e+01
<STATE> 3
<NUMMIXES> 2
<MIXTURE> 1 1.731946e-01
<MEAN> 16
 2.735265e-01 -1.954364e-01 1.809547e+00 -2.150133e-01 -1.409680e-01 1.759090e+00 -2.709024e-02 4.643203e-02 -2.692043e-02 7.444511e-03 5.028610e-02 -2.151165e-02 9.957954e-02 9.377962e-02 8.019275e-02 7.538398e-02
<VARIANCE> 16
 2.191988e-02 3.360064e-02 2.731073e-02 9.091897e-03 2.010045e-02 2.056384e-02 6.216477e-03 9.602631e-03 1.940568e-02 4.121906e-03 1.318350e-02 1.759666e-02 1.169754e-03 1.000000e-03 1.000000e-03 1.000000e-03
<GCONST> -4.890259e+01
<MIXTURE> 2 8.268021e-01
<MEAN> 16
 2.786334e-01 -1.699954e-01 1.812443e+00 -2.474552e-01 -1.630910e-01 1.765169e+00 -2.295919e-03 5.348878e-03 -6.428455e-04 4.706806e-04 2.485696e-03 4.191639e-04 8.600606e-02 9.399863e-02 8.020767e-02 7.523143e-02
<VARIANCE> 16
 1.630214e-02 2.588173e-02 1.024922e-02 3.496393e-03 7.076203e-03 7.886258e-03 1.000000e-03 1.654182e-03 2.425274e-03 1.000000e-03 1.000000e-03 2.203255e-03 1.000000e-03 1.000000e-03 1.000000e-03 1.000000e-03
<GCONST> -6.529324e+01
<STATE> 4
<NUMMIXES> 2
<MIXTURE> 1 1.573756e-01
<MEAN> 16
 1.194903e-01 -2.184435e-02 1.632119e+00 -1.825538e-01 4.034157e-02 1.600929e+00 4.710550e-03 1.128518e-02 5.992875e-03 -5.894060e-03 1.969473e-02 4.481226e-03 1.053949e-01 1.056322e-01 8.086875e-02 7.944114e-02
<VARIANCE> 16
 3.812324e-02 4.749148e-02 4.502279e-02 2.260935e-02 1.637317e-02 3.696312e-02 8.168914e-03 4.316829e-03 8.933592e-03 7.310533e-03 3.471961e-03 7.821342e-03 1.000000e-03 1.000000e-03 1.000000e-03 1.000000e-03
<GCONST> -4.924202e+01
<MIXTURE> 2 8.426217e-01
<MEAN> 16
 2.460212e-01 -5.989550e-02 1.478486e+00 -3.191051e-01 3.753211e-02 1.406763e+00 1.737936e-03 -2.457460e-03 -8.112399e-04 -3.842029e-04 3.824987e-06 -1.517054e-03 8.732059e-02 1.074479e-01 7.871617e-02 8.305095e-02
<VARIANCE> 16
 1.844352e-02 3.216931e-02 1.720124e-02 5.156770e-03 4.383384e-03 8.794108e-03 1.000000e-03 1.117246e-03 1.105896e-03 1.000000e-03 1.000000e-03 1.000000e-03 1.000000e-03 1.000000e-03 1.000000e-03 1.000000e-03
<GCONST> -6.638361e+01
<STATE> 5
<MEAN> 16
 3.163700e-01 -2.962166e-01 1.837301e+00 -2.155898e-01 8.198985e-02 1.780507e+00 4.088242e-03 -9.058990e-03 9.379652e-03 -6.567218e-03 -6.468191e-04 7.311620e-03 1.164892e-01 1.170590e-01 9.120403e-02 8.520073e-02
<VARIANCE> 16
 1.415189e-02 1.070231e-01 2.235920e-02 1.408375e-02 3.381175e-02 2.877576e-02 1.000000e-03 1.790878e-03 1.557630e-03 1.000000e-03 3.647449e-03 1.270070e-03 1.013550e-03 1.000000e-03 1.000000e-03 1.000000e-03
<GCONST> -5.859013e+01
<TRANSP> 6
 0.000000e+00 1.000000e+00 0.000000e+00 0.000000e+00 0.000000e+00 0.000000e+00
 0.000000e+00 8.751286e-01 1.248714e-01 0.000000e+00 0.000000e+00 0.000000e+00
 0.000000e+00 0.000000e+00 9.316984e-01 6.830160e-02 0.000000e+00 0.000000e+00
 0.000000e+00 0.000000e+00 0.000000e+00 9.525695e-01 4.743048e-02 0.000000e+00
 0.000000e+00 0.000000e+00 0.000000e+00 0.000000e+00 6.639723e-01 3.360277e-01
 0.000000e+00 0.000000e+00 0.000000e+00 0.000000e+00 0.000000e+00 0.000000e+00
<ENDHMM>
~h "goes_to"
<BEGINHMM>
<NUMSTATES> 6
<STATE> 2
<NUMMIXES> 2
<MIXTURE> 1 4.922981e-01
<MEAN> 16
 3.339520e-01 -3.350988e-01 1.970367e+00 -2.103026e-01 -2.074319e-01 1.930320e+00 -8.804860e-03 2.823377e-02 1.188414e-02 -5.818184e-04 2.792357e-02 9.826995e-03 1.031133e-01 9.500296e-02 8.830994e-02 8.237249e-02
<VARIANCE> 16
 1.654203e-02 6.278264e-02 3.011033e-02 2.406340e-02 7.974353e-02 2.878556e-02 2.596509e-03 7.347111e-03 1.297373e-02 3.126661e-03 8.384131e-03 1.173133e-02 1.058001e-03 1.000000e-03 1.000000e-03 1.000000e-03
<GCONST> -4.855187e+01
<MIXTURE> 2 5.077007e-01
<MEAN> 16
 4.328150e-01 -4.290090e-01 1.833855e+00 -3.441403e-01 -3.653368e-01 1.817083e+00 -2.396998e-02 3.913616e-02 -2.176639e-02 2.356086e-03 4.057590e-02 -1.845425e-02 9.252594e-02 8.794880e-02 7.719471e-02 7.485577e-02
<VARIANCE> 16
 8.283810e-03 1.103483e-02 4.664778e-02 1.680336e-02 2.204137e-02 4.574079e-02 1.000000e-03 2.143046e-03 3.377636e-03 1.000000e-03 2.183752e-03 2.821617e-03 1.000000e-03 1.000000e-03 1.000000e-03 1.000000e-03
<GCONST> -5.922482e+01
<STATE> 3
<NUMMIXES> 2
<MIXTURE> 1 4.743977e-01
<MEAN> 16
 2.873195e-01 -2.851325e-01 1.945757e+00 -3.007659e-01 -2.117015e-01 1.880085e+00 2.196378e-03 -4.119254e-04 1.756843e-02 -5.030459e-03 -1.850362e-03 1.616527e-02 8.787560e-02 9.423795e-02 8.670176e-02 8.388015e-02
<VARIANCE> 16
 1.931803e-02 2.966964e-02 1.294518e-02 6.832988e-03 6.456903e-03 7.192907e-03 1.000000e-03 1.000000e-03 2.614709e-03 1.000000e-03 1.000000e-03 2.316080e-03 1.000000e-03 1.000000e-03 1.000000e-03 1.000000e-03
<GCONST> -6.464513e+01
<MIXTURE> 2 5.255966e-01
<MEAN> 16
 2.018124e-01 -1.799587e-01 1.760441e+00 -2.374040e-01 -1.910738e-01 1.740959e+00 -1.109954e-02 8.658753e-03 -1.855159e-02 4.660526e-03 6.713688e-03 -1.622090e-02 8.855759e-02 9.207306e-02 7.226069e-02 7.555345e-02
<VARIANCE> 16
 3.150203e-02 1.868729e-02 7.104566e-03 6.060573e-03 4.197510e-03 6.492653e-03 1.000000e-03 2.596714e-03 3.142136e-03 1.000000e-03 1.000000e-03 2.824976e-03 1.000000e-03 1.000000e-03 1.000000e-03 1.000000e-03
<GCONST> -6.453481e+01
<STATE> 4
<NUMMIXES> 2
<MIXTURE> 1 4.911405e-01
<MEAN> 16
 2.507066e-01 -1.779311e-01 1.585710e+00 -2.905846e-01 6.725634e-03 1.464013e+00 -1.767329e-03 4.335578e-03 -2.115010e-03 1.842629e-04 3.170324e-03 -3.898622e-03 8.824395e-02 1.019512e-01 7.755317e-02 8.281101e-02
<VARIANCE> 16
 1.296229e-02 4.926769e-02 2.034709e-02 7.862978e-03 9.943099e-03 2.195691e-02 1.000000e-03 2.171032e-03 2.712893e-03 1.000000e-03 1.000000e-03 1.909938e-03 1.000000e-03 1.000000e-03 1.000000e-03 1.000000e-03
<GCONST> -6.177739e+01
<MIXTURE> 2 5.088574e-01
<MEAN> 16
 8.352070e-02 2.506589e-02 1.382538e+00 -2.867786e-01 2.111782e-02 1.375877e+00 -5.510182e-03 9.756658e-04 -2.100604e-03 -1.749607e-05 4.101233e-04 -4.885772e-04 9.017161e-02 9.450414e-02 7.745523e-02 8.082714e-02
<VARIANCE> 16
 5.013670e-02 4.867986e-03 7.320073e-03 6.385796e-03 2.472078e-03 6.468168e-03 1.000000e-03 1.000000e-03 1.000000e-03 1.000000e-03 1.000000e-03 1.000000e-03 1.000000e-03 1.000000e-03 1.000000e-03 1.000000e-03
<GCONST> -6.900397e+01
<STATE> 5
<MEAN> 16
 1.962718e-01 -1.422309e-01 1.711387e+00 -2.342826e-01 -1.977823e-01 1.734584e+00 1.565214e-02 -4.218501e-03 7.664485e-03 -1.394404e-02 -6.755223e-04 1.121504e-02 9.860082e-02 1.020444e-01 7.979881e-02 7.809484e-02
<VARIANCE> 16
 4.567001e-02 3.550837e-02 4.466699e-02 2.553588e-02 9.583291e-02 3.570124e-02 9.762767e-03 4.772572e-03 1.222474e-02 7.122550e-03 4.708155e-03 1.064332e-02 1.000000e-03 1.156897e-03 1.000000e-03 1.000000e-03
<GCONST> -4.618158e+01
<TRANSP> 6
 0.000000e+00 1.000000e+00 0.000000e+00 0.000000e+00 0.000000e+00 0.000000e+00
 0.000000e+00 8.799520e-01 1.200481e-01 0.000000e+00 0.000000e+00 0.000000e+00
 0.000000e+00 0.000000e+00 9.382927e-01 6.170730e-02 0.000000e+00 0.000000e+00
 0.000000e+00 0.000000e+00 0.000000e+00 9.538513e-01 4.614872e-02 0.000000e+00
 0.000000e+00 0.000000e+00 0.000000e+00 0.000000e+00 7.339596e-01 2.660403e-01
 0.000000e+00 0.000000e+00 0.000000e+00 0.000000e+00 0.000000e+00 0.000000e+00
<ENDHMM>
