~o
<STREAMINFO> 1 16
<VECSIZE> 16<NULLD><USER><DIAGC>
~h "Monkey"
<BEGINHMM>
<NUMSTATES> 6
<STATE> 2
<MEAN> 16
 5.970589e-01 -7.121339e-01 1.855131e+00 -2.109282e-01 -6.180573e-01 1.826772e+00 5.970589e-01 -7.121339e-01 1.855131e+00 -2.109282e-01 -6.180573e-01 1.826772e+00 1.153598e-01 1.077764e-01 9.701531e-02 7.113820e-02
<VARIANCE> 16
 6.153166e-03 2.574709e-03 1.594600e-02 1.946717e-02 8.088367e-03 7.730453e-03 6.153166e-03 2.574709e-03 1.594600e-02 1.946717e-02 8.088367e-03 7.730453e-03 1.000000e-03 1.000000e-03 1.000000e-03 1.000000e-03
<GCONST> -5.584559e+01
<STATE> 3
<MEAN> 16
 6.129541e-01 -7.190964e-01 1.865139e+00 -2.063442e-01 -6.177394e-01 1.825763e+00 -4.048489e-03 3.558585e-03 -3.522806e-04 5.661880e-04 1.834700e-03 -2.442378e-03 1.134945e-01 1.050218e-01 9.980766e-02 6.979453e-02
<VARIANCE> 16
 8.632080e-03 3.861717e-03 1.684153e-02 1.826663e-02 8.853607e-03 8.615873e-03 1.000000e-03 1.000000e-03 1.838840e-03 1.000000e-03 1.000000e-03 4.046579e-03 1.000000e-03 1.000000e-03 1.000000e-03 1.000000e-03
<GCONST> -6.554110e+01
<STATE> 4
<MEAN> 16
 5.742211e-01 -6.763135e-01 1.792856e+00 -2.843751e-01 -6.334864e-01 1.817731e+00 -2.923457e-03 3.264035e-03 1.370292e-03 -2.920466e-03 2.462531e-03 -5.387280e-03 1.150891e-01 1.033997e-01 1.120289e-01 6.864724e-02
<VARIANCE> 16
 4.260746e-03 3.480050e-03 1.846267e-02 2.501310e-02 7.079829e-03 6.277559e-03 1.000000e-03 1.000000e-03 1.000000e-03 1.000000e-03 1.000000e-03 1.000000e-03 1.000000e-03 1.000000e-03 1.000000e-03 1.000000e-03
<GCONST> -6.849219e+01
<STATE> 5
<MEAN> 16
 4.518504e-01 -6.739784e-01 1.898398e+00 -1.656779e-01 -4.189302e-01 1.824110e+00 -8.545515e-03 5.715915e-03 -1.120210e-04 -3.048546e-03 1.062002e-02 -4.968008e-04 1.208466e-01 1.117380e-01 8.732004e-02 7.603486e-02
<VARIANCE> 16
 2.231786e-02 3.456152e-03 8.361009e-03 1.173937e-02 1.032735e-01 7.561817e-03 1.000000e-03 1.000000e-03 2.124097e-03 1.000000e-03 1.973388e-03 1.980720e-03 1.000000e-03 1.000000e-03 1.000000e-03 1.000000e-03
<GCONST> -6.340894e+01
<TRANSP> 6
 0.000000e+00 1.000000e+00 0.000000e+00 0.000000e+00 0.000000e+00 0.000000e+00
 0.000000e+00 0.000000e+00 1.000000e+00 0.000000e+00 0.000000e+00 0.000000e+00
 0.000000e+00 0.000000e+00 5.820327e-01 4.179673e-01 0.000000e+00 0.000000e+00
 0.000000e+00 0.000000e+00 0.000000e+00 4.048355e-01 5.951645e-01 0.000000e+00
 0.000000e+00 0.000000e+00 0.000000e+00 0.000000e+00 9.161811e-01 8.381884e-02
 0.000000e+00 0.000000e+00 0.000000e+00 0.000000e+00 0.000000e+00 0.000000e+00
<ENDHMM>
~h "fence"
<BEGINHMM>
<NUMSTATES> 6
<STATE> 2
<MEAN> 16
 3.806005e-01 -2.909426e-01 1.918968e+00 -3.326491e-01 -2.109606e-01 1.815722e+00 3.989058e-05 -2.413407e-03 -5.494016e-04 -1.244850e-03 -2.739117e-03 -1.673620e-03 9.735962e-02 1.483618e-01 8.936240e-02 8.966628e-02
<VARIANCE> 16
 1.201010e-02 1.717928e-02 2.025434e-02 2.699587e-03 1.237886e-02 1.424495e-02 1.000000e-03 1.341977e-03 4.008918e-03 1.000000e-03 1.000000e-03 3.140528e-03 1.229127e-03 1.000000e-03 1.000000e-03 1.000000e-03
<GCONST> -6.358138e+01
<STATE> 3
<MEAN> 16
 2.517561e-01 -7.998405e-02 1.837200e+00 -3.494121e-01 -1.241731e-01 1.786579e+00 -3.849181e-04 -2.049724e-03 -9.240135e-05 2.921266e-04 -1.374010e-03 3.093691e-05 1.088040e-01 1.516882e-01 8.552263e-02 9.286257e-02
<VARIANCE> 16
 4.201198e-02 3.842729e-02 1.472416e-02 6.147112e-03 7.175924e-03 1.265627e-02 1.364498e-03 2.069272e-03 3.404058e-03 1.000000e-03 1.000000e-03 2.971540e-03 1.000000e-03 1.000000e-03 1.000000e-03 1.000000e-03
<GCONST> -6.136494e+01
<STATE> 4
<MEAN> 16
 1.522502e-01 -1.310806e-01 1.613973e+00 -3.488365e-01 -9.033424e-02 1.566471e+00 2.728304e-03 -6.089167e-03 4.441008e-04 1.110635e-03 -4.096098e-03 2.967020e-04 9.465506e-02 1.341233e-01 7.612672e-02 8.459625e-02
<VARIANCE> 16
 6.044555e-02 2.654596e-02 2.368512e-02 1.199725e-02 9.760560e-03 2.174885e-02 1.446222e-03 1.133859e-03 1.904495e-03 1.000000e-03 1.000000e-03 1.598279e-03 1.000000e-03 1.000000e-03 1.000000e-03 1.000000e-03
<GCONST> -6.112228e+01
<STATE> 5
<MEAN> 16
 5.734313e-01 -6.901063e-01 1.857627e+00 -1.894717e-01 -5.903677e-01 1.792277e+00 6.723056e-03 -8.019926e-03 3.107463e-03 3.717069e-03 -9.309009e-03 3.511848e-03 1.155987e-01 1.109599e-01 9.685102e-02 7.521415e-02
<VARIANCE> 16
 2.129880e-02 4.865473e-03 1.515849e-02 1.494114e-02 8.918764e-03 7.533028e-03 1.000000e-03 1.000000e-03 1.978718e-03 1.000000e-03 1.000000e-03 1.763726e-03 1.000000e-03 1.000000e-03 1.000000e-03 1.000000e-03
<GCONST> -6.559723e+01
<TRANSP> 6
 0.000000e+00 1.000000e+00 0.000000e+00 0.000000e+00 0.000000e+00 0.000000e+00
 0.000000e+00 9.431408e-01 5.685924e-02 0.000000e+00 0.000000e+00 0.000000e+00
 0.000000e+00 0.000000e+00 9.755719e-01 2.442808e-02 0.000000e+00 0.000000e+00
 0.000000e+00 0.000000e+00 0.000000e+00 9.730752e-01 2.692482e-02 0.000000e+00
 0.000000e+00 0.000000e+00 0.000000e+00 0.000000e+00 9.632456e-01 3.675442e-02
 0.000000e+00 0.000000e+00 0.000000e+00 0.000000e+00 0.000000e+00 0.000000e+00
<ENDHMM>
~h "Car"
<BEGINHMM>
<NUMSTATES> 6
<STATE> 2
<MEAN> 16
 5.990599e-01 -7.116907e-01 1.841771e+00 -2.187003e-01 -6.207082e-01 1.826178e+00 5.990599e-01 -7.116907e-01 1.841771e+00 -2.187003e-01 -6.207082e-01 1.826178e+00 1.144105e-01 1.049336e-01 9.861822e-02 7.399214e-02
<VARIANCE> 16
 5.549334e-03 2.272439e-03 1.463094e-02 1.891768e-02 9.345447e-03 8.381012e-03 5.549334e-03 2.272439e-03 1.463094e-02 1.891768e-02 9.345447e-03 8.381012e-03 1.000000e-03 1.000000e-03 1.000000e-03 1.000000e-03
<GCONST> -5.608081e+01
<STATE> 3
<MEAN> 16
 5.919157e-01 -7.207463e-01 1.876928e+00 -1.744649e-01 -3.646175e-01 1.798402e+00 -2.446156e-04 1.209178e-03 -3.976377e-04 -6.271765e-05 9.702208e-03 -3.883474e-03 1.223325e-01 1.065208e-01 9.410536e-02 7.673173e-02
<VARIANCE> 16
 2.762753e-03 1.561388e-03 1.090544e-02 2.003874e-02 1.203452e-01 1.189141e-02 1.000000e-03 1.000000e-03 2.825885e-03 1.000000e-03 2.646176e-03 3.455507e-03 1.000000e-03 1.000000e-03 1.000000e-03 1.000000e-03
<GCONST> -6.375124e+01
<STATE> 4
<MEAN> 16
 5.891791e-01 -6.871924e-01 1.784611e+00 -2.814741e-01 -5.664190e-01 1.789897e+00 -5.329364e-04 3.989030e-03 -1.323262e-04 -1.572590e-03 3.700370e-03 -5.422313e-03 1.172448e-01 1.010071e-01 1.105568e-01 6.955596e-02
<VARIANCE> 16
 3.448895e-03 3.536821e-03 1.540181e-02 2.168698e-02 4.787511e-02 1.333704e-02 1.000000e-03 1.000000e-03 1.000000e-03 1.000000e-03 1.000000e-03 1.000000e-03 1.000000e-03 1.000000e-03 1.000000e-03 1.000000e-03
<GCONST> -6.634644e+01
<STATE> 5
<MEAN> 16
 4.604406e-01 -6.604365e-01 1.880705e+00 -1.899786e-01 -6.028230e-01 1.834002e+00 -1.476819e-02 9.293491e-03 1.125050e-04 -3.522634e-03 6.032319e-03 -1.047457e-03 1.158326e-01 1.117305e-01 9.320874e-02 7.430618e-02
<VARIANCE> 16
 2.460179e-02 4.062474e-03 1.107435e-02 9.436876e-03 6.230604e-03 6.061968e-03 1.000000e-03 1.000000e-03 1.975077e-03 1.000000e-03 1.000000e-03 1.497374e-03 1.000000e-03 1.000000e-03 1.035501e-03 1.000000e-03
<GCONST> -6.711348e+01
<TRANSP> 6
 0.000000e+00 1.000000e+00 0.000000e+00 0.000000e+00 0.000000e+00 0.000000e+00
 0.000000e+00 0.000000e+00 1.000000e+00 0.000000e+00 0.000000e+00 0.000000e+00
 0.000000e+00 0.000000e+00 7.135709e-01 2.864291e-01 0.000000e+00 0.000000e+00
 0.000000e+00 0.000000e+00 0.000000e+00 6.937573e-01 3.062427e-01 0.000000e+00
 0.000000e+00 0.000000e+00 0.000000e+00 0.000000e+00 8.593299e-01 1.406701e-01
 0.000000e+00 0.000000e+00 0.000000e+00 0.000000e+00 0.000000e+00 0.000000e+00
<ENDHMM>
~h "Man"
<BEGINHMM>
<NUMSTATES> 6
<STATE> 2
<MEAN> 16
 5.873427e-01 -7.041420e-01 1.846702e+00 -2.158627e-01 -6.154588e-01 1.818353e+00 5.873427e-01 -7.041420e-01 1.846702e+00 -2.158627e-01 -6.154588e-01 1.818353e+00 1.146403e-01 1.053031e-01 1.003749e-01 7.157945e-02
<VARIANCE> 16
 2.306375e-02 9.086658e-03 1.791536e-02 2.072750e-02 1.372117e-02 9.324222e-03 2.306375e-02 9.086658e-03 1.791536e-02 2.072750e-02 1.372117e-02 9.324222e-03 1.000000e-03 1.000000e-03 1.000000e-03 1.000000e-03
<GCONST> -4.889057e+01
<STATE> 3
<MEAN> 16
 6.746778e-02 -2.030217e-01 2.191750e+00 -5.876245e-01 -3.504846e-02 1.906755e+00 9.904490e-04 -7.301766e-04 1.640841e-04 4.599316e-04 -4.360949e-04 2.912563e-05 9.883110e-02 9.331959e-02 8.763728e-02 7.658132e-02
<VARIANCE> 16
 7.217605e-01 1.264285e-01 1.735290e-01 1.895856e-01 3.572649e-01 1.559830e-01 2.606869e+00 2.841262e-01 1.505237e-01 5.743150e-01 1.095402e+00 2.220006e-01 1.000000e-03 1.386606e-03 1.209678e-03 1.000000e-03
<GCONST> -1.056588e+01
<STATE> 4
<MEAN> 16
 5.189582e-01 -6.232863e-01 1.910784e+00 -1.563175e-01 -6.207917e-01 1.842453e+00 -1.362980e-02 9.401832e-03 -2.428533e-03 -1.171843e-03 2.279747e-03 -2.445466e-03 1.055598e-01 1.048155e-01 9.333570e-02 7.109518e-02
<VARIANCE> 16
 3.440320e-02 4.693232e-02 1.516500e-02 1.246727e-02 3.412001e-03 7.311424e-03 1.474101e-03 2.292180e-03 3.261210e-03 1.000000e-03 1.000000e-03 2.523786e-03 1.000000e-03 1.000000e-03 1.000000e-03 1.000000e-03
<GCONST> -6.194696e+01
<STATE> 5
<MEAN> 16
 4.638481e-01 -6.722033e-01 1.871765e+00 -1.687858e-01 -4.236503e-01 1.824629e+00 -5.875398e-03 3.910179e-03 7.488169e-04 -2.878592e-03 9.801675e-03 -1.128004e-03 1.224091e-01 1.077563e-01 9.472387e-02 7.639256e-02
<VARIANCE> 16
 2.223541e-02 3.586444e-03 1.159079e-02 1.469716e-02 9.623449e-02 9.779152e-03 1.000000e-03 1.000000e-03 1.675898e-03 1.000000e-03 1.862858e-03 1.638230e-03 1.000000e-03 1.000000e-03 1.000000e-03 1.000000e-03
<GCONST> -6.312223e+01
<TRANSP> 6
 0.000000e+00 1.000000e+00 0.000000e+00 0.000000e+00 0.000000e+00 0.000000e+00
 0.000000e+00 0.000000e+00 1.000000e+00 0.000000e+00 0.000000e+00 0.000000e+00
 0.000000e+00 0.000000e+00 8.592054e-01 1.407946e-01 0.000000e+00 0.000000e+00
 0.000000e+00 0.000000e+00 0.000000e+00 6.942580e-01 3.057420e-01 0.000000e+00
 0.000000e+00 0.000000e+00 0.000000e+00 0.000000e+00 9.201285e-01 7.987149e-02
 0.000000e+00 0.000000e+00 0.000000e+00 0.000000e+00 0.000000e+00 0.000000e+00
<ENDHMM>
~h "car"
<BEGINHMM>
<NUMSTATES> 6
<STATE> 2
<MEAN> 16
 3.246741e-01 -4.197969e-01 2.019631e+00 -2.770900e-01 9.281999e-03 1.851464e+00 3.117101e-03 -4.954188e-03 3.196661e-03 -2.864225e-04 -7.620004e-03 -9.696119e-04 9.350742e-02 1.231970e-01 8.880127e-02 8.400372e-02
<VARIANCE> 16
 1.342862e-02 1.440128e-02 2.760769e-02 3.262840e-03 3.316009e-02 1.268015e-02 1.000000e-03 1.120281e-03 2.249934e-03 1.000000e-03 1.000000e-03 1.424999e-03 1.000000e-03 1.000000e-03 1.000000e-03 1.000000e-03
<GCONST> -6.403262e+01
<STATE> 3
<MEAN> 16
 2.965724e-01 -2.614023e-02 1.895049e+00 -3.097127e-01 -2.605929e-02 1.859578e+00 3.622358e-03 -1.497336e-03 -1.339497e-03 -4.283582e-04 -3.660792e-03 -2.605027e-05 1.086184e-01 1.229383e-01 8.619127e-02 8.226677e-02
<VARIANCE> 16
 3.679989e-02 4.050344e-02 1.546081e-02 5.989792e-03 1.806535e-02 1.494921e-02 1.650532e-03 2.717071e-03 4.335254e-03 1.000000e-03 1.000000e-03 3.434974e-03 1.000000e-03 1.000000e-03 1.000000e-03 1.000000e-03
<GCONST> -5.948272e+01
<STATE> 4
<MEAN> 16
 2.114336e-01 -5.464842e-02 1.642426e+00 -3.727072e-01 -3.522348e-02 1.596088e+00 6.893844e-04 -5.901875e-03 -9.607473e-05 1.325262e-03 -4.672754e-03 -4.240773e-04 9.103227e-02 1.107851e-01 7.100252e-02 8.068266e-02
<VARIANCE> 16
 3.291049e-02 3.096945e-02 2.382919e-02 5.566637e-03 1.391751e-02 1.809019e-02 1.000000e-03 1.415893e-03 2.195065e-03 1.000000e-03 1.000000e-03 1.791748e-03 1.000000e-03 1.000000e-03 1.000000e-03 1.000000e-03
<GCONST> -6.205788e+01
<STATE> 5
<MEAN> 16
 5.786308e-01 -6.917853e-01 1.855560e+00 -1.945870e-01 -6.018822e-01 1.813138e+00 4.908377e-03 -7.152689e-03 2.054444e-03 3.914379e-03 -8.367001e-03 2.897962e-03 1.162703e-01 1.071405e-01 9.723516e-02 7.485530e-02
<VARIANCE> 16
 1.637815e-02 3.568235e-03 1.556087e-02 1.802330e-02 6.033769e-03 7.188449e-03 1.000000e-03 1.000000e-03 1.862617e-03 1.000000e-03 1.000000e-03 1.843986e-03 1.000000e-03 1.000000e-03 1.000000e-03 1.000000e-03
<GCONST> -6.640985e+01
<TRANSP> 6
 0.000000e+00 1.000000e+00 0.000000e+00 0.000000e+00 0.000000e+00 0.000000e+00
 0.000000e+00 8.817065e-01 1.182936e-01 0.000000e+00 0.000000e+00 0.000000e+00
 0.000000e+00 0.000000e+00 9.609950e-01 3.900502e-02 0.000000e+00 0.000000e+00
 0.000000e+00 0.000000e+00 0.000000e+00 9.621863e-01 3.781371e-02 0.000000e+00
 0.000000e+00 0.000000e+00 0.000000e+00 0.000000e+00 9.605580e-01 3.944200e-02
 0.000000e+00 0.000000e+00 0.000000e+00 0.000000e+00 0.000000e+00 0.000000e+00
<ENDHMM>
~h "weaves_and_bumps_into"
<BEGINHMM>
<NUMSTATES> 6
<STATE> 2
<MEAN> 16
 3.928806e-01 -3.813574e-01 1.896242e+00 -3.237910e-01 -3.212280e-01 1.861205e+00 -2.236184e-02 4.165902e-02 -6.363867e-03 1.634889e-03 4.423610e-02 -7.644723e-03 9.765909e-02 9.166150e-02 8.286598e-02 7.908126e-02
<VARIANCE> 16
 1.376802e-02 2.067376e-02 4.840252e-02 1.562219e-02 2.112073e-02 4.654544e-02 2.333598e-03 4.551863e-03 9.945709e-03 2.061523e-03 4.737122e-03 8.862327e-03 1.014545e-03 1.000000e-03 1.000000e-03 1.000000e-03
<GCONST> -5.281270e+01
<STATE> 3
<MEAN> 16
 2.391890e-01 -1.514271e-01 1.792985e+00 -2.750893e-01 -1.258834e-01 1.726365e+00 -3.048572e-03 3.845226e-03 -1.765027e-03 1.397157e-04 4.238280e-03 -1.756669e-03 9.155332e-02 9.385283e-02 8.059306e-02 7.650684e-02
<VARIANCE> 16
 1.546122e-02 3.321522e-02 1.283125e-02 9.005275e-03 1.844456e-02 1.009237e-02 1.000000e-03 2.009976e-03 4.099907e-03 1.000000e-03 1.260273e-03 3.590339e-03 1.000000e-03 1.000000e-03 1.000000e-03 1.000000e-03
<GCONST> -6.128181e+01
<STATE> 4
<MEAN> 16
 2.159330e-01 -6.130995e-02 1.449541e+00 -3.085026e-01 2.274077e-02 1.403055e+00 1.261174e-03 -2.708579e-04 -1.094783e-03 -8.533932e-04 7.583352e-04 -1.132024e-03 8.777679e-02 1.072758e-01 8.273860e-02 8.562200e-02
<VARIANCE> 16
 2.398231e-02 3.144955e-02 2.887200e-02 7.217477e-03 6.315896e-03 1.380862e-02 1.000000e-03 1.294321e-03 1.706980e-03 1.000000e-03 1.000000e-03 1.125021e-03 1.000000e-03 1.000000e-03 1.000000e-03 1.000000e-03
<GCONST> -6.377410e+01
<STATE> 5
<MEAN> 16
 3.405609e-01 -2.835668e-01 1.843503e+00 -2.669321e-01 4.971408e-03 1.767740e+00 1.412246e-02 -1.236292e-02 2.051409e-02 -1.142614e-02 -3.569527e-04 1.744929e-02 1.106624e-01 1.100842e-01 8.641572e-02 8.807723e-02
<VARIANCE> 16
 1.759837e-02 7.252964e-02 4.254680e-02 1.973372e-02 6.185337e-02 3.413254e-02 5.377616e-03 3.963877e-03 1.148884e-02 1.942182e-03 5.893782e-03 7.634514e-03 1.000000e-03 1.000000e-03 1.000000e-03 1.000000e-03
<GCONST> -4.960707e+01
<TRANSP> 6
 0.000000e+00 1.000000e+00 0.000000e+00 0.000000e+00 0.000000e+00 0.000000e+00
 0.000000e+00 8.749880e-01 1.250120e-01 0.000000e+00 0.000000e+00 0.000000e+00
 0.000000e+00 0.000000e+00 9.471201e-01 5.287997e-02 0.000000e+00 0.000000e+00
 0.000000e+00 0.000000e+00 0.000000e+00 9.608202e-01 3.917982e-02 0.000000e+00
 0.000000e+00 0.000000e+00 0.000000e+00 0.000000e+00 7.993356e-01 2.006644e-01
 0.000000e+00 0.000000e+00 0.000000e+00 0.000000e+00 0.000000e+00 0.000000e+00
<ENDHMM>
~h "man"
<BEGINHMM>
<NUMSTATES> 6
<STATE> 2
<MEAN> 16
 3.745241e-01 -6.006779e-01 1.857049e+00 -3.505853e-01 -1.276423e-01 1.749399e+00 -5.591049e-04 4.917035e-03 -2.377952e-03 -8.547149e-03 -5.403701e-03 -3.900645e-03 1.184680e-01 8.100231e-02 8.648664e-02 9.469368e-02
<VARIANCE> 16
 1.584096e-02 8.113171e-03 2.344518e-02 1.669276e-02 7.901059e-03 3.548110e-02 1.000000e-03 1.000000e-03 2.958449e-03 1.000000e-03 1.000000e-03 1.540891e-03 1.000000e-03 1.000000e-03 1.000000e-03 1.000000e-03
<GCONST> -6.313931e+01
<STATE> 3
<MEAN> 16
 1.897459e-01 -7.238781e-02 1.838072e+00 -3.681115e-01 -1.458321e-01 1.853915e+00 -4.507867e-04 1.650548e-03 -1.905999e-03 1.728867e-03 -1.560797e-03 -6.745221e-04 1.016442e-01 8.755052e-02 7.834639e-02 9.385288e-02
<VARIANCE> 16
 4.636341e-02 3.261078e-02 1.659769e-02 8.517995e-03 6.371972e-03 2.029489e-02 1.612047e-03 2.635360e-03 3.994543e-03 1.000000e-03 1.000000e-03 3.605305e-03 1.000000e-03 1.000000e-03 1.000000e-03 1.000000e-03
<GCONST> -5.986932e+01
<STATE> 4
<MEAN> 16
 2.271095e-01 -7.138835e-02 1.523912e+00 -3.393625e-01 -5.971603e-02 1.507393e+00 3.453113e-03 -3.647161e-03 1.518339e-04 7.984027e-04 -5.514839e-03 -3.195627e-04 9.385709e-02 7.268334e-02 7.846441e-02 8.964899e-02
<VARIANCE> 16
 4.373257e-02 4.284801e-02 2.312218e-02 1.281762e-02 1.223244e-02 1.211789e-02 1.181841e-03 1.547348e-03 1.710856e-03 1.000000e-03 1.000000e-03 1.300893e-03 1.000000e-03 1.000000e-03 1.000000e-03 1.000000e-03
<GCONST> -6.148825e+01
<STATE> 5
<MEAN> 16
 5.742769e-01 -6.856548e-01 1.851816e+00 -1.933023e-01 -5.935209e-01 1.808186e+00 6.846432e-03 -8.819636e-03 3.443674e-03 2.738949e-03 -1.008663e-02 3.711138e-03 1.161795e-01 1.061818e-01 9.466482e-02 7.519386e-02
<VARIANCE> 16
 2.001845e-02 4.824510e-03 1.609211e-02 1.721479e-02 7.364897e-03 8.586152e-03 1.000000e-03 1.000000e-03 2.634259e-03 1.000000e-03 1.113948e-03 2.032738e-03 1.000000e-03 1.000000e-03 1.000000e-03 1.000000e-03
<GCONST> -6.499082e+01
<TRANSP> 6
 0.000000e+00 1.000000e+00 0.000000e+00 0.000000e+00 0.000000e+00 0.000000e+00
 0.000000e+00 9.281238e-01 7.187615e-02 0.000000e+00 0.000000e+00 0.000000e+00
 0.000000e+00 0.000000e+00 9.740820e-01 2.591801e-02 0.000000e+00 0.000000e+00
 0.000000e+00 0.000000e+00 0.000000e+00 9.511012e-01 4.889882e-02 0.000000e+00
 0.000000e+00 0.000000e+00 0.000000e+00 0.000000e+00 9.597762e-01 4.022389e-02
 0.000000e+00 0.000000e+00 0.000000e+00 0.000000e+00 0.000000e+00 0.000000e+00
<ENDHMM>
~h "monkey"
<BEGINHMM>
<NUMSTATES> 6
<STATE> 2
<MEAN> 16
 3.456499e-01 -4.564022e-01 2.091212e+00 -3.017448e-01 -3.134818e-02 1.881858e+00 8.965479e-04 -1.188467e-03 -3.271390e-05 6.882772e-04 -5.091371e-03 -1.410665e-03 1.036738e-01 1.072759e-01 9.014741e-02 7.428613e-02
<VARIANCE> 16
 1.072104e-02 6.325957e-03 2.189014e-02 7.789222e-03 2.128132e-02 1.638019e-02 1.000000e-03 1.000000e-03 1.916959e-03 1.000000e-03 1.000000e-03 1.258093e-03 1.434680e-03 1.000000e-03 1.000000e-03 1.000000e-03
<GCONST> -6.466723e+01
<STATE> 3
<MEAN> 16
 2.178211e-01 -5.042236e-02 1.891052e+00 -3.049540e-01 -7.179410e-02 1.870704e+00 6.852694e-04 -7.605848e-04 -2.366546e-03 1.041332e-03 -3.115772e-03 -4.265755e-04 1.045943e-01 1.054401e-01 8.442707e-02 7.291462e-02
<VARIANCE> 16
 4.672722e-02 3.455374e-02 1.625033e-02 1.044244e-02 1.005029e-02 1.520269e-02 1.564598e-03 2.532629e-03 4.213477e-03 1.000000e-03 1.000000e-03 3.618772e-03 1.000000e-03 1.000000e-03 1.000000e-03 1.000000e-03
<GCONST> -5.946684e+01
<STATE> 4
<MEAN> 16
 2.797418e-01 -1.379538e-01 1.631625e+00 -2.917623e-01 -2.784370e-02 1.589944e+00 5.987056e-03 -1.034601e-02 1.944277e-04 2.593197e-03 -1.006649e-02 -6.840814e-04 1.016209e-01 9.675628e-02 7.948224e-02 6.710497e-02
<VARIANCE> 16
 3.630569e-02 5.918235e-02 2.158542e-02 4.326595e-03 2.834461e-02 1.555883e-02 1.062573e-03 1.801749e-03 2.020744e-03 1.000000e-03 1.000000e-03 1.477686e-03 1.000000e-03 1.000000e-03 1.000000e-03 1.000000e-03
<GCONST> -6.107620e+01
<STATE> 5
<MEAN> 16
 5.756139e-01 -6.929784e-01 1.854089e+00 -1.947333e-01 -6.064400e-01 1.808227e+00 4.996105e-03 -5.919129e-03 1.535336e-03 2.000573e-03 -7.012980e-03 2.023694e-03 1.148333e-01 1.090424e-01 9.557351e-02 7.434098e-02
<VARIANCE> 16
 1.664267e-02 3.440803e-03 1.632317e-02 1.756267e-02 5.660785e-03 6.277053e-03 1.000000e-03 1.000000e-03 1.698424e-03 1.000000e-03 1.000000e-03 1.674414e-03 1.000000e-03 1.000000e-03 1.000000e-03 1.000000e-03
<GCONST> -6.679639e+01
<TRANSP> 6
 0.000000e+00 1.000000e+00 0.000000e+00 0.000000e+00 0.000000e+00 0.000000e+00
 0.000000e+00 9.189011e-01 8.109894e-02 0.000000e+00 0.000000e+00 0.000000e+00
 0.000000e+00 0.000000e+00 9.751011e-01 2.489888e-02 0.000000e+00 0.000000e+00
 0.000000e+00 0.000000e+00 0.000000e+00 9.209637e-01 7.903630e-02 0.000000e+00
 0.000000e+00 0.000000e+00 0.000000e+00 0.000000e+00 9.616738e-01 3.832621e-02
 0.000000e+00 0.000000e+00 0.000000e+00 0.000000e+00 0.000000e+00 0.000000e+00
<ENDHMM>
~h "bumps_into_each_other"
<BEGINHMM>
<NUMSTATES> 6
<STATE> 2
<MEAN> 16
 4.141005e-01 -4.757309e-01 1.925163e+00 -3.158621e-01 -2.073767e-01 1.862339e+00 -7.980800e-03 1.422281e-02 3.417660e-03 -2.450231e-03 3.126157e-02 2.425094e-04 1.064464e-01 9.331134e-02 9.015416e-02 8.170559e-02
<VARIANCE> 16
 1.127659e-02 2.050679e-02 3.731591e-02 2.343959e-02 7.473325e-02 4.572301e-02 1.000000e-03 1.545275e-03 5.410130e-03 1.287285e-03 4.260750e-03 5.272182e-03 1.274032e-03 1.000000e-03 1.000000e-03 1.000000e-03
<GCONST> -5.503411e+01
<STATE> 3
<MEAN> 16
 3.136054e-01 -1.624299e-01 1.866546e+00 -2.443433e-01 -1.334297e-01 1.820589e+00 -1.805968e-03 5.542051e-03 -2.839533e-03 -4.915440e-04 3.389467e-03 -2.102333e-03 8.752330e-02 9.398381e-02 8.221161e-02 7.773919e-02
<VARIANCE> 16
 1.115866e-02 3.494899e-02 1.492087e-02 6.508446e-03 2.060404e-02 1.238982e-02 1.264416e-03 3.390675e-03 6.009249e-03 1.000000e-03 2.119602e-03 5.329673e-03 1.000000e-03 1.000000e-03 1.000000e-03 1.000000e-03
<GCONST> -5.936027e+01
<STATE> 4
<MEAN> 16
 2.672708e-01 -3.317421e-02 1.559166e+00 -3.257931e-01 5.447818e-02 1.518011e+00 8.837950e-04 1.317176e-03 -1.921595e-03 -1.313957e-03 1.803285e-04 -1.070829e-03 8.786048e-02 1.047851e-01 7.809294e-02 8.040157e-02
<VARIANCE> 16
 1.485404e-02 3.308680e-02 2.428666e-02 1.061089e-02 6.936559e-03 1.397736e-02 1.000000e-03 1.434706e-03 1.558636e-03 1.000000e-03 1.000000e-03 1.259368e-03 1.000000e-03 1.000000e-03 1.000000e-03 1.000000e-03
<GCONST> -6.375922e+01
<STATE> 5
<MEAN> 16
 4.393160e-01 -3.220038e-01 1.738624e+00 -3.568827e-01 -1.855511e-01 1.690585e+00 1.907442e-02 -5.214101e-02 3.287891e-02 -2.995484e-03 -4.635081e-02 2.269351e-02 8.756610e-02 8.927993e-02 7.532027e-02 7.610841e-02
<VARIANCE> 16
 1.746642e-02 2.439174e-02 4.213033e-02 1.270343e-02 3.696060e-02 3.470219e-02 1.000000e-03 1.747891e-03 6.778084e-03 1.000000e-03 2.765930e-03 6.256983e-03 1.000000e-03 1.000000e-03 1.000000e-03 1.000000e-03
<GCONST> -5.630106e+01
<TRANSP> 6
 0.000000e+00 1.000000e+00 0.000000e+00 0.000000e+00 0.000000e+00 0.000000e+00
 0.000000e+00 9.118735e-01 8.812657e-02 0.000000e+00 0.000000e+00 0.000000e+00
 0.000000e+00 0.000000e+00 9.633747e-01 3.662530e-02 0.000000e+00 0.000000e+00
 0.000000e+00 0.000000e+00 0.000000e+00 9.583789e-01 4.162107e-02 0.000000e+00
 0.000000e+00 0.000000e+00 0.000000e+00 0.000000e+00 6.297349e-01 3.702651e-01
 0.000000e+00 0.000000e+00 0.000000e+00 0.000000e+00 0.000000e+00 0.000000e+00
<ENDHMM>
~h "jumps_on"
<BEGINHMM>
<NUMSTATES> 6
<STATE> 2
<MEAN> 16
 3.953789e-01 -4.292245e-01 1.916098e+00 -2.999493e-01 -3.010141e-01 1.874590e+00 -1.663028e-02 3.205822e-02 -4.097607e-03 2.378502e-03 3.784465e-02 -5.976810e-03 9.976356e-02 9.241293e-02 8.566377e-02 8.049332e-02
<VARIANCE> 16
 1.288144e-02 1.764694e-02 4.955791e-02 1.673109e-02 5.124770e-02 4.989673e-02 1.649431e-03 3.798885e-03 7.483600e-03 1.498373e-03 6.103309e-03 7.015410e-03 1.090714e-03 1.000000e-03 1.000000e-03 1.000000e-03
<GCONST> -5.302867e+01
<STATE> 3
<MEAN> 16
 2.680010e-01 -1.248191e-01 1.832427e+00 -2.497432e-01 -9.819763e-02 1.745959e+00 -4.992549e-03 9.799097e-03 -2.464207e-03 7.992277e-04 2.863665e-03 -1.367724e-03 9.536982e-02 1.027392e-01 8.113892e-02 8.167079e-02
<VARIANCE> 16
 1.355342e-02 4.968640e-02 1.233874e-02 7.707048e-03 2.090893e-02 1.157209e-02 1.000000e-03 2.554823e-03 4.365617e-03 1.000000e-03 1.224392e-03 3.690770e-03 1.000000e-03 1.000000e-03 1.000000e-03 1.000000e-03
<GCONST> -6.064201e+01
<STATE> 4
<MEAN> 16
 8.344411e-02 5.080749e-03 1.527959e+00 -1.871793e-01 7.532599e-04 1.439763e+00 -3.723136e-03 2.578148e-03 -6.834024e-04 6.098663e-04 1.745474e-04 -1.122958e-03 9.365652e-02 1.024753e-01 7.640327e-02 8.209446e-02
<VARIANCE> 16
 4.325782e-02 4.664194e-02 2.926679e-02 7.593790e-03 5.998317e-03 1.684456e-02 1.000000e-03 1.422842e-03 1.984563e-03 1.000000e-03 1.000000e-03 1.394398e-03 1.000000e-03 1.000000e-03 1.000000e-03 1.000000e-03
<GCONST> -6.211857e+01
<STATE> 5
<MEAN> 16
 -3.633077e-02 -7.028635e-02 1.743938e+00 -1.351697e-01 -1.514046e-01 1.719486e+00 2.274641e-02 -2.530440e-02 4.005972e-03 -6.222643e-03 -1.005667e-02 6.428475e-03 9.155589e-02 9.210999e-02 7.254463e-02 8.254119e-02
<VARIANCE> 16
 6.456741e-02 3.758169e-02 2.410691e-02 2.504265e-02 2.632379e-02 2.083276e-02 5.670183e-03 3.325914e-03 8.727551e-03 5.069678e-03 3.562797e-03 9.515048e-03 1.000000e-03 1.337484e-03 1.000000e-03 1.000000e-03
<GCONST> -5.007281e+01
<TRANSP> 6
 0.000000e+00 1.000000e+00 0.000000e+00 0.000000e+00 0.000000e+00 0.000000e+00
 0.000000e+00 8.860187e-01 1.139813e-01 0.000000e+00 0.000000e+00 0.000000e+00
 0.000000e+00 0.000000e+00 9.592526e-01 4.074740e-02 0.000000e+00 0.000000e+00
 0.000000e+00 0.000000e+00 0.000000e+00 9.673260e-01 3.267403e-02 0.000000e+00
 0.000000e+00 0.000000e+00 0.000000e+00 0.000000e+00 8.924940e-01 1.075060e-01
 0.000000e+00 0.000000e+00 0.000000e+00 0.000000e+00 0.000000e+00 0.000000e+00
<ENDHMM>
~h "house"
<BEGINHMM>
<NUMSTATES> 6
<STATE> 2
<MEAN> 16
 3.112144e-01 -1.920618e-01 1.970100e+00 -2.924145e-01 -5.870484e-02 1.916042e+00 5.762604e-03 -1.932786e-02 6.088148e-03 -6.239160e-03 -5.708686e-03 1.607627e-03 1.385142e-01 1.422076e-01 9.096697e-02 9.882142e-02
<VARIANCE> 16
 7.854979e-03 8.019735e-02 2.060119e-02 5.917428e-03 5.196160e-02 1.454633e-02 1.000000e-03 1.338819e-03 6.267325e-03 1.000000e-03 2.594074e-03 4.837465e-03 1.642358e-03 1.000000e-03 1.000000e-03 1.000000e-03
<GCONST> -5.808843e+01
<STATE> 3
<MEAN> 16
 2.787746e-01 -1.034634e-01 1.894892e+00 -3.122391e-01 3.861251e-02 1.773643e+00 4.754069e-04 9.551366e-04 -2.038455e-03 -1.741365e-05 -2.705176e-03 -1.461668e-03 1.127932e-01 1.191379e-01 8.528178e-02 1.028693e-01
<VARIANCE> 16
 2.981070e-02 6.246756e-02 1.554391e-02 2.985866e-03 6.781245e-03 1.289286e-02 1.525439e-03 2.757138e-03 5.468128e-03 1.000000e-03 1.000000e-03 3.927709e-03 1.000000e-03 1.000000e-03 1.000000e-03 1.000000e-03
<GCONST> -6.077668e+01
<STATE> 4
<MEAN> 16
 1.988085e-01 -1.471486e-01 1.667065e+00 -2.892728e-01 -7.037982e-02 1.595663e+00 3.909303e-03 -8.597932e-03 8.939818e-04 1.449155e-03 -5.909681e-03 6.252741e-04 9.330694e-02 8.867453e-02 7.750361e-02 8.982438e-02
<VARIANCE> 16
 4.941065e-02 3.590855e-02 2.412855e-02 7.481751e-03 2.548162e-02 2.546516e-02 1.290546e-03 1.368369e-03 3.100445e-03 1.000000e-03 1.000000e-03 2.483596e-03 1.000000e-03 1.000000e-03 1.000000e-03 1.000000e-03
<GCONST> -5.935585e+01
<STATE> 5
<MEAN> 16
 5.856025e-01 -6.952898e-01 1.860067e+00 -1.981612e-01 -5.967575e-01 1.810217e+00 5.137060e-03 -5.689244e-03 1.374816e-03 2.616615e-03 -8.131170e-03 3.726234e-03 1.159035e-01 1.083964e-01 9.768195e-02 7.232221e-02
<VARIANCE> 16
 1.803135e-02 3.345846e-03 1.581991e-02 1.704767e-02 7.513390e-03 8.210575e-03 1.000000e-03 1.000000e-03 1.424481e-03 1.000000e-03 1.000000e-03 1.472852e-03 1.000000e-03 1.000000e-03 1.000000e-03 1.000000e-03
<GCONST> -6.655782e+01
<TRANSP> 6
 0.000000e+00 1.000000e+00 0.000000e+00 0.000000e+00 0.000000e+00 0.000000e+00
 0.000000e+00 9.135248e-01 8.647514e-02 0.000000e+00 0.000000e+00 0.000000e+00
 0.000000e+00 0.000000e+00 9.694598e-01 3.054024e-02 0.000000e+00 0.000000e+00
 0.000000e+00 0.000000e+00 0.000000e+00 9.746585e-01 2.534148e-02 0.000000e+00
 0.000000e+00 0.000000e+00 0.000000e+00 0.000000e+00 9.623448e-01 3.765520e-02
 0.000000e+00 0.000000e+00 0.000000e+00 0.000000e+00 0.000000e+00 0.000000e+00
<ENDHMM>
~h "bumps_into"
<BEGINHMM>
<NUMSTATES> 6
<STATE> 2
<MEAN> 16
 4.046305e-01 -4.051451e-01 1.904579e+00 -3.378136e-01 -3.532327e-01 1.872463e+00 -1.142364e-02 2.481779e-02 1.950079e-03 -2.142513e-03 3.032481e-02 -2.050991e-03 9.125371e-02 8.825475e-02 8.207184e-02 7.985064e-02
<VARIANCE> 16
 1.366120e-02 1.980384e-02 4.244674e-02 1.687686e-02 1.784712e-02 4.296536e-02 1.298185e-03 2.672892e-03 6.978499e-03 1.262026e-03 3.070174e-03 6.711529e-03 1.000000e-03 1.000000e-03 1.000000e-03 1.000000e-03
<GCONST> -5.585595e+01
<STATE> 3
<MEAN> 16
 3.121476e-01 -2.193909e-01 1.824065e+00 -2.298662e-01 -1.395935e-01 1.763999e+00 -3.628010e-02 6.004677e-02 -3.026132e-02 1.366732e-02 7.116095e-02 -2.629439e-02 1.001452e-01 9.404494e-02 7.915213e-02 7.609626e-02
<VARIANCE> 16
 1.387268e-02 4.707982e-02 2.968431e-02 7.819124e-03 2.967600e-02 2.409621e-02 3.607718e-03 8.475183e-03 1.212977e-02 3.188462e-03 1.337396e-02 1.140866e-02 1.289855e-03 1.000000e-03 1.000000e-03 1.000000e-03
<GCONST> -5.025907e+01
<STATE> 4
<MEAN> 16
 1.508367e-01 -2.099296e-02 1.693050e+00 -1.549000e-01 1.779355e-02 1.670704e+00 -6.572270e-05 1.491885e-02 2.131017e-03 -4.397857e-03 1.896478e-02 3.122842e-03 1.142900e-01 1.089529e-01 8.373208e-02 8.134862e-02
<VARIANCE> 16
 2.525165e-02 4.702205e-02 3.492255e-02 1.512140e-02 2.272410e-02 2.871842e-02 4.888053e-03 1.614316e-03 5.525251e-03 4.583382e-03 1.948819e-03 5.311016e-03 1.000000e-03 1.000000e-03 1.000000e-03 1.000000e-03
<GCONST> -5.365386e+01
<STATE> 5
<MEAN> 16
 2.951856e-01 -3.011567e-01 1.861015e+00 -1.958524e-01 6.014669e-02 1.823903e+00 3.724649e-03 -8.442077e-03 4.637883e-03 -6.270956e-03 -5.193236e-04 5.945840e-03 1.112370e-01 1.129388e-01 8.748882e-02 8.373651e-02
<VARIANCE> 16
 1.073185e-02 1.036086e-01 2.225975e-02 9.358840e-03 4.663007e-02 2.070831e-02 1.000000e-03 1.205170e-03 1.539837e-03 1.000000e-03 3.956535e-03 1.451798e-03 1.090175e-03 1.000000e-03 1.000000e-03 1.000000e-03
<GCONST> -5.943953e+01
<TRANSP> 6
 0.000000e+00 1.000000e+00 0.000000e+00 0.000000e+00 0.000000e+00 0.000000e+00
 0.000000e+00 8.700570e-01 1.299430e-01 0.000000e+00 0.000000e+00 0.000000e+00
 0.000000e+00 0.000000e+00 6.204237e-01 3.795763e-01 0.000000e+00 0.000000e+00
 0.000000e+00 0.000000e+00 0.000000e+00 7.955756e-01 2.044245e-01 0.000000e+00
 0.000000e+00 0.000000e+00 0.000000e+00 0.000000e+00 7.708833e-01 2.291168e-01
 0.000000e+00 0.000000e+00 0.000000e+00 0.000000e+00 0.000000e+00 0.000000e+00
<ENDHMM>
~h "goes_to"
<BEGINHMM>
<NUMSTATES> 6
<STATE> 2
<MEAN> 16
 3.928193e-01 -4.312286e-01 1.877578e+00 -2.670121e-01 -2.263005e-01 1.837457e+00 -1.896356e-02 3.462981e-02 -6.666217e-03 2.941243e-03 4.256069e-02 -5.524878e-03 1.012574e-01 9.351339e-02 8.433173e-02 8.035314e-02
<VARIANCE> 16
 1.406466e-02 3.090172e-02 4.792221e-02 2.432595e-02 7.360470e-02 4.563858e-02 1.779947e-03 4.036704e-03 8.189007e-03 2.006723e-03 5.897519e-03 7.572113e-03 1.153809e-03 1.000000e-03 1.000000e-03 1.000000e-03
<GCONST> -5.114961e+01
<STATE> 3
<MEAN> 16
 2.618172e-01 -1.549662e-01 1.813517e+00 -2.822537e-01 -1.254338e-01 1.751729e+00 -4.367983e-03 5.344245e-03 -1.509536e-03 3.315411e-04 3.006291e-03 -1.246777e-03 9.401508e-02 1.003063e-01 7.959249e-02 7.859706e-02
<VARIANCE> 16
 1.561662e-02 3.791492e-02 1.430240e-02 1.063265e-02 1.621741e-02 1.130955e-02 1.000000e-03 2.076403e-03 3.925631e-03 1.000000e-03 1.095534e-03 3.296432e-03 1.000000e-03 1.000000e-03 1.000000e-03 1.000000e-03
<GCONST> -6.111604e+01
<STATE> 4
<MEAN> 16
 1.430276e-01 -6.509650e-02 1.492491e+00 -2.857842e-01 1.289935e-02 1.430057e+00 -3.682312e-03 1.528567e-03 -1.446450e-03 -2.515179e-04 7.637868e-04 -1.218361e-03 9.062832e-02 9.959281e-02 7.748129e-02 8.271252e-02
<VARIANCE> 16
 4.405339e-02 3.125609e-02 2.437985e-02 8.718731e-03 5.244758e-03 1.682368e-02 1.000000e-03 1.124933e-03 1.516073e-03 1.000000e-03 1.000000e-03 1.161049e-03 1.000000e-03 1.000000e-03 1.000000e-03 1.000000e-03
<GCONST> -6.336802e+01
<STATE> 5
<MEAN> 16
 2.312754e-01 -2.233448e-01 1.689721e+00 -2.816835e-01 -2.759379e-01 1.725682e+00 3.661979e-02 -2.619676e-02 1.647950e-02 -1.628077e-02 -2.360465e-02 2.057217e-02 9.387322e-02 9.769261e-02 7.750372e-02 7.541510e-02
<VARIANCE> 16
 3.971700e-02 3.392667e-02 5.262933e-02 2.183418e-02 8.641735e-02 3.586010e-02 8.137619e-03 4.164220e-03 1.167307e-02 5.515764e-03 5.067902e-03 1.043310e-02 1.000000e-03 1.046019e-03 1.000000e-03 1.000000e-03
<GCONST> -4.712569e+01
<TRANSP> 6
 0.000000e+00 1.000000e+00 0.000000e+00 0.000000e+00 0.000000e+00 0.000000e+00
 0.000000e+00 8.884668e-01 1.115332e-01 0.000000e+00 0.000000e+00 0.000000e+00
 0.000000e+00 0.000000e+00 9.415571e-01 5.844292e-02 0.000000e+00 0.000000e+00
 0.000000e+00 0.000000e+00 0.000000e+00 9.593601e-01 4.063991e-02 0.000000e+00
 0.000000e+00 0.000000e+00 0.000000e+00 0.000000e+00 7.727906e-01 2.272095e-01
 0.000000e+00 0.000000e+00 0.000000e+00 0.000000e+00 0.000000e+00 0.000000e+00
<ENDHMM>
