~o
<STREAMINFO> 1 16
<VECSIZE> 16<NULLD><USER><DIAGC>
~h "Monkey"
<BEGINHMM>
<NUMSTATES> 6
<STATE> 2
<MEAN> 16
 5.970589e-01 -7.121339e-01 1.855131e+00 -2.109282e-01 -6.180573e-01 1.826772e+00 5.970589e-01 -7.121339e-01 1.855131e+00 -2.109282e-01 -6.180573e-01 1.826772e+00 1.153598e-01 1.077764e-01 9.701531e-02 7.113820e-02
<VARIANCE> 16
 6.153166e-03 2.574709e-03 1.594600e-02 1.946717e-02 8.088367e-03 7.730453e-03 6.153166e-03 2.574709e-03 1.594600e-02 1.946717e-02 8.088367e-03 7.730453e-03 1.000000e-03 1.000000e-03 1.000000e-03 1.000000e-03
<GCONST> -5.584559e+01
<STATE> 3
<MEAN> 16
 6.098645e-01 -7.334611e-01 1.914483e+00 -1.712369e-01 -6.216728e-01 1.833323e+00 -3.649123e-03 3.698358e-03 -3.764542e-04 -2.132550e-04 1.277404e-03 -5.608900e-04 1.152590e-01 1.105846e-01 9.887223e-02 7.284010e-02
<VARIANCE> 16
 6.359006e-03 1.909307e-03 1.007455e-02 1.008229e-02 6.080177e-03 6.435769e-03 1.000000e-03 1.000000e-03 1.275370e-03 1.000000e-03 1.000000e-03 2.591327e-03 1.000000e-03 1.000000e-03 1.000000e-03 1.000000e-03
<GCONST> -6.913834e+01
<STATE> 4
<MEAN> 16
 5.599903e-01 -6.707590e-01 1.790977e+00 -2.807637e-01 -6.303884e-01 1.813970e+00 -6.742645e-03 7.222571e-03 7.769060e-04 -2.725268e-03 6.010315e-03 -8.358146e-03 1.145362e-01 1.056445e-01 1.106487e-01 6.921063e-02
<VARIANCE> 16
 1.818903e-03 2.543345e-03 1.518650e-02 2.554104e-02 5.869647e-03 6.435787e-03 1.000000e-03 1.000000e-03 1.000000e-03 1.000000e-03 1.000000e-03 1.000000e-03 1.000000e-03 1.000000e-03 1.000000e-03 1.000000e-03
<GCONST> -6.999398e+01
<STATE> 5
<MEAN> 16
 3.948855e-01 -6.552464e-01 1.897813e+00 -1.578227e-01 -3.195742e-01 1.821328e+00 -9.483589e-03 5.590694e-03 -1.077948e-04 -3.646772e-03 1.478073e-02 2.645263e-04 1.228920e-01 1.106207e-01 8.140590e-02 7.703660e-02
<VARIANCE> 16
 2.012155e-02 3.098402e-03 8.090002e-03 1.139592e-02 1.229355e-01 9.156287e-03 1.000000e-03 1.000000e-03 2.764566e-03 1.000000e-03 2.957505e-03 2.455131e-03 1.000000e-03 1.000000e-03 1.000000e-03 1.000000e-03
<GCONST> -6.243599e+01
<TRANSP> 6
 0.000000e+00 1.000000e+00 0.000000e+00 0.000000e+00 0.000000e+00 0.000000e+00
 0.000000e+00 0.000000e+00 1.000000e+00 0.000000e+00 0.000000e+00 0.000000e+00
 0.000000e+00 0.000000e+00 7.838271e-01 2.161729e-01 0.000000e+00 0.000000e+00
 0.000000e+00 0.000000e+00 0.000000e+00 6.753467e-01 3.246533e-01 0.000000e+00
 0.000000e+00 0.000000e+00 0.000000e+00 0.000000e+00 8.846785e-01 1.153215e-01
 0.000000e+00 0.000000e+00 0.000000e+00 0.000000e+00 0.000000e+00 0.000000e+00
<ENDHMM>
~h "fence"
<BEGINHMM>
<NUMSTATES> 6
<STATE> 2
<MEAN> 16
 3.770161e-01 -2.865290e-01 1.916637e+00 -3.325512e-01 -2.094980e-01 1.815782e+00 3.231233e-04 -2.308445e-03 -6.042001e-04 -1.478837e-03 -2.827348e-03 -1.556102e-03 9.723946e-02 1.484081e-01 8.949476e-02 8.998205e-02
<VARIANCE> 16
 1.198750e-02 1.750260e-02 2.013806e-02 2.626624e-03 1.254652e-02 1.403027e-02 1.000000e-03 1.360531e-03 4.065446e-03 1.000000e-03 1.000000e-03 3.185125e-03 1.189009e-03 1.000000e-03 1.000000e-03 1.000000e-03
<GCONST> -6.359086e+01
<STATE> 3
<MEAN> 16
 2.489322e-01 -8.155745e-02 1.834408e+00 -3.500410e-01 -1.226394e-01 1.783885e+00 -1.536630e-04 -2.420144e-03 1.921205e-05 2.716049e-04 -1.503886e-03 -3.686060e-06 1.082572e-01 1.509505e-01 8.520182e-02 9.282028e-02
<VARIANCE> 16
 4.272526e-02 3.835134e-02 1.487128e-02 6.299737e-03 7.054477e-03 1.271070e-02 1.399138e-03 2.096080e-03 3.422453e-03 1.000000e-03 1.000000e-03 2.972681e-03 1.000000e-03 1.000000e-03 1.000000e-03 1.000000e-03
<GCONST> -6.128469e+01
<STATE> 4
<MEAN> 16
 1.569531e-01 -1.317379e-01 1.609283e+00 -3.527231e-01 -8.975973e-02 1.561112e+00 2.795230e-03 -6.156917e-03 6.033406e-04 1.084632e-03 -4.257896e-03 4.160093e-04 9.506047e-02 1.346846e-01 7.656157e-02 8.442775e-02
<VARIANCE> 16
 6.053983e-02 2.740898e-02 2.406266e-02 1.088283e-02 1.007708e-02 2.168888e-02 1.391113e-03 1.062532e-03 1.820866e-03 1.000000e-03 1.000000e-03 1.511524e-03 1.000000e-03 1.000000e-03 1.000000e-03 1.000000e-03
<GCONST> -6.134579e+01
<STATE> 5
<MEAN> 16
 5.734919e-01 -6.903221e-01 1.857455e+00 -1.893220e-01 -5.916862e-01 1.792551e+00 6.749584e-03 -7.973039e-03 3.073939e-03 3.711956e-03 -9.275977e-03 3.528753e-03 1.155516e-01 1.108697e-01 9.678617e-02 7.518233e-02
<VARIANCE> 16
 2.131789e-02 4.844693e-03 1.515159e-02 1.500139e-02 8.493080e-03 7.527451e-03 1.000000e-03 1.000000e-03 1.962224e-03 1.000000e-03 1.000000e-03 1.768926e-03 1.000000e-03 1.000000e-03 1.000000e-03 1.000000e-03
<GCONST> -6.565211e+01
<TRANSP> 6
 0.000000e+00 1.000000e+00 0.000000e+00 0.000000e+00 0.000000e+00 0.000000e+00
 0.000000e+00 9.428107e-01 5.718936e-02 0.000000e+00 0.000000e+00 0.000000e+00
 0.000000e+00 0.000000e+00 9.761550e-01 2.384502e-02 0.000000e+00 0.000000e+00
 0.000000e+00 0.000000e+00 0.000000e+00 9.719915e-01 2.800850e-02 0.000000e+00
 0.000000e+00 0.000000e+00 0.000000e+00 0.000000e+00 9.631276e-01 3.687241e-02
 0.000000e+00 0.000000e+00 0.000000e+00 0.000000e+00 0.000000e+00 0.000000e+00
<ENDHMM>
~h "Car"
<BEGINHMM>
<NUMSTATES> 6
<STATE> 2
<MEAN> 16
 5.990599e-01 -7.116907e-01 1.841771e+00 -2.187003e-01 -6.207082e-01 1.826178e+00 5.990599e-01 -7.116907e-01 1.841771e+00 -2.187003e-01 -6.207082e-01 1.826178e+00 1.144105e-01 1.049336e-01 9.861822e-02 7.399214e-02
<VARIANCE> 16
 5.549334e-03 2.272439e-03 1.463094e-02 1.891768e-02 9.345447e-03 8.381012e-03 5.549334e-03 2.272439e-03 1.463094e-02 1.891768e-02 9.345447e-03 8.381012e-03 1.000000e-03 1.000000e-03 1.000000e-03 1.000000e-03
<GCONST> -5.608081e+01
<STATE> 3
<MEAN> 16
 5.933601e-01 -7.219369e-01 1.882220e+00 -1.763290e-01 -3.323061e-01 1.789294e+00 -6.470067e-06 1.243079e-03 -2.754695e-04 -1.294726e-03 7.841283e-03 -3.438115e-03 1.230402e-01 1.073265e-01 9.344435e-02 7.834305e-02
<VARIANCE> 16
 2.565816e-03 1.455542e-03 1.091928e-02 2.030530e-02 1.167500e-01 1.256355e-02 1.000000e-03 1.000000e-03 2.809918e-03 1.000000e-03 2.440379e-03 3.221487e-03 1.000000e-03 1.000000e-03 1.000000e-03 1.000000e-03
<GCONST> -6.401300e+01
<STATE> 4
<MEAN> 16
 5.804484e-01 -6.806673e-01 1.773753e+00 -2.982928e-01 -6.048754e-01 1.804010e+00 -1.129334e-03 4.442702e-03 -1.808918e-04 -1.114284e-03 5.044783e-03 -6.515403e-03 1.182469e-01 9.878222e-02 1.133162e-01 6.930195e-02
<VARIANCE> 16
 3.215719e-03 3.236572e-03 1.467099e-02 2.091824e-02 2.838819e-02 1.227281e-02 1.000000e-03 1.000000e-03 1.000000e-03 1.000000e-03 1.000000e-03 1.000000e-03 1.000000e-03 1.000000e-03 1.000000e-03 1.000000e-03
<GCONST> -6.719564e+01
<STATE> 5
<MEAN> 16
 4.477821e-01 -6.575297e-01 1.893291e+00 -1.758867e-01 -6.006497e-01 1.834166e+00 -1.650682e-02 1.006616e-02 1.952182e-04 -4.010562e-03 5.618681e-03 1.200059e-04 1.153201e-01 1.132666e-01 9.028970e-02 7.514042e-02
<VARIANCE> 16
 2.641812e-02 4.240544e-03 8.910684e-03 6.400896e-03 5.542944e-03 5.757461e-03 1.090549e-03 1.000000e-03 2.239315e-03 1.000000e-03 1.000000e-03 1.584727e-03 1.000000e-03 1.000000e-03 1.015843e-03 1.000000e-03
<GCONST> -6.752362e+01
<TRANSP> 6
 0.000000e+00 1.000000e+00 0.000000e+00 0.000000e+00 0.000000e+00 0.000000e+00
 0.000000e+00 0.000000e+00 1.000000e+00 0.000000e+00 0.000000e+00 0.000000e+00
 0.000000e+00 0.000000e+00 7.463056e-01 2.536944e-01 0.000000e+00 0.000000e+00
 0.000000e+00 0.000000e+00 0.000000e+00 7.435219e-01 2.564780e-01 0.000000e+00
 0.000000e+00 0.000000e+00 0.000000e+00 0.000000e+00 8.404850e-01 1.595149e-01
 0.000000e+00 0.000000e+00 0.000000e+00 0.000000e+00 0.000000e+00 0.000000e+00
<ENDHMM>
~h "Man"
<BEGINHMM>
<NUMSTATES> 6
<STATE> 2
<MEAN> 16
 5.873427e-01 -7.041420e-01 1.846702e+00 -2.158627e-01 -6.154588e-01 1.818353e+00 5.873427e-01 -7.041420e-01 1.846702e+00 -2.158627e-01 -6.154588e-01 1.818353e+00 1.146403e-01 1.053031e-01 1.003749e-01 7.157945e-02
<VARIANCE> 16
 2.306375e-02 9.086658e-03 1.791536e-02 2.072750e-02 1.372117e-02 9.324222e-03 2.306375e-02 9.086658e-03 1.791536e-02 2.072750e-02 1.372117e-02 9.324222e-03 1.000000e-03 1.000000e-03 1.000000e-03 1.000000e-03
<GCONST> -4.889057e+01
<STATE> 3
<MEAN> 16
 6.784821e-02 -2.034313e-01 2.191514e+00 -5.872709e-01 -3.526872e-02 1.906620e+00 1.020178e-03 -7.286519e-04 1.369127e-04 4.725064e-04 -2.207614e-04 -1.248167e-05 9.884590e-02 9.331765e-02 8.765880e-02 7.657250e-02
<VARIANCE> 16
 7.213964e-01 1.265510e-01 1.734720e-01 1.896057e-01 3.570698e-01 1.558981e-01 2.604870e+00 2.839087e-01 1.504104e-01 5.738771e-01 1.094637e+00 2.218398e-01 1.000000e-03 1.386132e-03 1.209530e-03 1.000000e-03
<GCONST> -1.057167e+01
<STATE> 4
<MEAN> 16
 4.807653e-01 -6.438208e-01 1.924129e+00 -1.476510e-01 -6.196675e-01 1.848450e+00 -1.614382e-02 7.897592e-03 -2.226460e-03 -2.416622e-03 1.301675e-03 -7.773316e-04 1.098715e-01 1.106635e-01 9.027378e-02 7.284911e-02
<VARIANCE> 16
 3.374895e-02 2.716841e-02 1.017134e-02 7.302026e-03 2.179830e-03 5.756936e-03 1.366563e-03 1.444739e-03 2.534816e-03 1.000000e-03 1.000000e-03 1.903433e-03 1.000000e-03 1.000000e-03 1.000000e-03 1.000000e-03
<GCONST> -6.520567e+01
<STATE> 5
<MEAN> 16
 4.672006e-01 -6.740100e-01 1.856580e+00 -1.761527e-01 -3.407088e-01 1.818543e+00 -1.969633e-03 3.256721e-03 1.501273e-03 -2.860237e-03 1.323761e-02 -1.535782e-03 1.247941e-01 1.049819e-01 9.665336e-02 7.727420e-02
<VARIANCE> 16
 2.000714e-02 3.389363e-03 1.241013e-02 1.832396e-02 1.198325e-01 1.159071e-02 1.000000e-03 1.000000e-03 1.772104e-03 1.000000e-03 2.726816e-03 1.909723e-03 1.000000e-03 1.000000e-03 1.000000e-03 1.000000e-03
<GCONST> -6.201604e+01
<TRANSP> 6
 0.000000e+00 1.000000e+00 0.000000e+00 0.000000e+00 0.000000e+00 0.000000e+00
 0.000000e+00 0.000000e+00 1.000000e+00 0.000000e+00 0.000000e+00 0.000000e+00
 0.000000e+00 0.000000e+00 8.593133e-01 1.406867e-01 0.000000e+00 0.000000e+00
 0.000000e+00 0.000000e+00 0.000000e+00 8.389521e-01 1.610479e-01 0.000000e+00
 0.000000e+00 0.000000e+00 0.000000e+00 0.000000e+00 9.010774e-01 9.892254e-02
 0.000000e+00 0.000000e+00 0.000000e+00 0.000000e+00 0.000000e+00 0.000000e+00
<ENDHMM>
~h "car"
<BEGINHMM>
<NUMSTATES> 6
<STATE> 2
<MEAN> 16
 3.226686e-01 -4.087310e-01 2.012033e+00 -2.766238e-01 1.801864e-03 1.850472e+00 3.086229e-03 -4.708610e-03 2.565369e-03 -2.640995e-04 -7.265533e-03 -1.257287e-03 9.267012e-02 1.217323e-01 8.868620e-02 8.420759e-02
<VARIANCE> 16
 1.274717e-02 1.567698e-02 2.755626e-02 3.097842e-03 3.253325e-02 1.257297e-02 1.000000e-03 1.072503e-03 2.257069e-03 1.000000e-03 1.000000e-03 1.487401e-03 1.000000e-03 1.000000e-03 1.000000e-03 1.000000e-03
<GCONST> -6.407872e+01
<STATE> 3
<MEAN> 16
 2.981772e-01 -2.394590e-02 1.895190e+00 -3.088515e-01 -2.363046e-02 1.860939e+00 3.681361e-03 -1.573786e-03 -1.198183e-03 -5.050164e-04 -3.755671e-03 2.994569e-05 1.094500e-01 1.237163e-01 8.636972e-02 8.229602e-02
<VARIANCE> 16
 3.757188e-02 4.079921e-02 1.558236e-02 5.954644e-03 1.778007e-02 1.503075e-02 1.700285e-03 2.765263e-03 4.444752e-03 1.000000e-03 1.000000e-03 3.527053e-03 1.000000e-03 1.000000e-03 1.000000e-03 1.000000e-03
<GCONST> -5.936453e+01
<STATE> 4
<MEAN> 16
 2.109098e-01 -5.496772e-02 1.650564e+00 -3.739174e-01 -3.587304e-02 1.600762e+00 7.129482e-04 -5.864046e-03 -8.080276e-07 1.239997e-03 -4.759636e-03 -3.389927e-04 9.091441e-02 1.112193e-01 7.118251e-02 8.066288e-02
<VARIANCE> 16
 3.272096e-02 3.075520e-02 2.444981e-02 5.522751e-03 1.357204e-02 1.789208e-02 1.000000e-03 1.444874e-03 2.265169e-03 1.000000e-03 1.000000e-03 1.819305e-03 1.000000e-03 1.000000e-03 1.000000e-03 1.000000e-03
<GCONST> -6.202199e+01
<STATE> 5
<MEAN> 16
 5.780386e-01 -6.913766e-01 1.855456e+00 -1.949414e-01 -6.015312e-01 1.813012e+00 4.980612e-03 -7.354272e-03 2.015181e-03 3.967123e-03 -8.556590e-03 2.913651e-03 1.162845e-01 1.070505e-01 9.720150e-02 7.488413e-02
<VARIANCE> 16
 1.662728e-02 3.611636e-03 1.556611e-02 1.807665e-02 6.103048e-03 7.220799e-03 1.000000e-03 1.000000e-03 1.884189e-03 1.000000e-03 1.000000e-03 1.852773e-03 1.000000e-03 1.000000e-03 1.000000e-03 1.000000e-03
<GCONST> -6.634720e+01
<TRANSP> 6
 0.000000e+00 1.000000e+00 0.000000e+00 0.000000e+00 0.000000e+00 0.000000e+00
 0.000000e+00 8.885084e-01 1.114916e-01 0.000000e+00 0.000000e+00 0.000000e+00
 0.000000e+00 0.000000e+00 9.600406e-01 3.995935e-02 0.000000e+00 0.000000e+00
 0.000000e+00 0.000000e+00 0.000000e+00 9.638303e-01 3.616973e-02 0.000000e+00
 0.000000e+00 0.000000e+00 0.000000e+00 0.000000e+00 9.607329e-01 3.926706e-02
 0.000000e+00 0.000000e+00 0.000000e+00 0.000000e+00 0.000000e+00 0.000000e+00
<ENDHMM>
~h "weaves_and_bumps_into"
<BEGINHMM>
<NUMSTATES> 6
<STATE> 2
<MEAN> 16
 3.917382e-01 -3.812626e-01 1.900064e+00 -3.227420e-01 -3.195615e-01 1.864845e+00 -2.285640e-02 4.247716e-02 -6.913185e-03 1.690039e-03 4.428571e-02 -7.667757e-03 9.793621e-02 9.219794e-02 8.281098e-02 7.922028e-02
<VARIANCE> 16
 1.412202e-02 2.023775e-02 4.878372e-02 1.575968e-02 2.103355e-02 4.716208e-02 2.378444e-03 4.621324e-03 1.000069e-02 2.108770e-03 4.803103e-03 8.881477e-03 1.031415e-03 1.000000e-03 1.000000e-03 1.000000e-03
<GCONST> -5.268816e+01
<STATE> 3
<MEAN> 16
 2.342327e-01 -1.653764e-01 1.791112e+00 -2.713823e-01 -1.446465e-01 1.733094e+00 -2.996403e-03 3.484241e-03 -1.733790e-03 2.888477e-04 4.197864e-03 -1.830397e-03 8.848833e-02 9.123784e-02 8.047104e-02 7.577966e-02
<VARIANCE> 16
 1.646301e-02 3.160538e-02 1.288594e-02 8.462114e-03 1.688833e-02 1.001450e-02 1.000000e-03 1.932334e-03 4.031942e-03 1.000000e-03 1.169830e-03 3.541205e-03 1.000000e-03 1.000000e-03 1.000000e-03 1.000000e-03
<GCONST> -6.156692e+01
<STATE> 4
<MEAN> 16
 2.196405e-01 -6.281834e-02 1.444091e+00 -3.068621e-01 2.209994e-02 1.393097e+00 1.023000e-03 -1.697887e-04 -1.180750e-03 -6.540226e-04 8.063329e-04 -1.324486e-03 8.781928e-02 1.074217e-01 8.242363e-02 8.558740e-02
<VARIANCE> 16
 2.337772e-02 3.233712e-02 2.855337e-02 7.507943e-03 6.561171e-03 1.147276e-02 1.000000e-03 1.329003e-03 1.705492e-03 1.000000e-03 1.000000e-03 1.128070e-03 1.000000e-03 1.000000e-03 1.000000e-03 1.000000e-03
<GCONST> -6.386239e+01
<STATE> 5
<MEAN> 16
 3.282345e-01 -2.596512e-01 1.855846e+00 -2.616781e-01 4.938640e-03 1.781317e+00 1.325929e-02 -7.652455e-03 1.862698e-02 -1.116839e-02 1.869455e-03 1.736131e-02 1.110764e-01 1.103634e-01 8.703189e-02 8.742461e-02
<VARIANCE> 16
 1.706681e-02 7.502840e-02 4.194821e-02 1.859775e-02 5.946698e-02 3.241442e-02 5.456532e-03 4.306096e-03 1.184110e-02 2.141854e-03 5.753394e-03 8.062190e-03 1.000000e-03 1.000000e-03 1.000000e-03 1.000000e-03
<GCONST> -4.951248e+01
<TRANSP> 6
 0.000000e+00 1.000000e+00 0.000000e+00 0.000000e+00 0.000000e+00 0.000000e+00
 0.000000e+00 8.715161e-01 1.284839e-01 0.000000e+00 0.000000e+00 0.000000e+00
 0.000000e+00 0.000000e+00 9.454859e-01 5.451417e-02 0.000000e+00 0.000000e+00
 0.000000e+00 0.000000e+00 0.000000e+00 9.592042e-01 4.079577e-02 0.000000e+00
 0.000000e+00 0.000000e+00 0.000000e+00 0.000000e+00 8.008057e-01 1.991943e-01
 0.000000e+00 0.000000e+00 0.000000e+00 0.000000e+00 0.000000e+00 0.000000e+00
<ENDHMM>
~h "man"
<BEGINHMM>
<NUMSTATES> 6
<STATE> 2
<MEAN> 16
 3.697420e-01 -5.986499e-01 1.858719e+00 -3.499670e-01 -1.289777e-01 1.752474e+00 -3.208430e-04 4.791646e-03 -2.058609e-03 -8.266410e-03 -5.506016e-03 -3.724942e-03 1.180004e-01 8.122709e-02 8.621377e-02 9.429813e-02
<VARIANCE> 16
 1.510105e-02 8.473544e-03 2.346129e-02 1.701166e-02 7.890921e-03 3.564830e-02 1.000000e-03 1.000000e-03 2.943764e-03 1.000000e-03 1.000000e-03 1.519040e-03 1.000000e-03 1.000000e-03 1.000000e-03 1.000000e-03
<GCONST> -6.313991e+01
<STATE> 3
<MEAN> 16
 1.894203e-01 -7.069287e-02 1.838094e+00 -3.687522e-01 -1.451408e-01 1.853603e+00 -3.508825e-04 1.437173e-03 -1.806572e-03 1.751853e-03 -1.611338e-03 -6.307974e-04 1.017452e-01 8.737609e-02 7.827643e-02 9.393856e-02
<VARIANCE> 16
 4.673956e-02 3.269038e-02 1.646000e-02 8.470593e-03 6.447737e-03 2.030765e-02 1.609501e-03 2.627024e-03 3.982942e-03 1.000000e-03 1.000000e-03 3.595729e-03 1.000000e-03 1.000000e-03 1.000000e-03 1.000000e-03
<GCONST> -5.987058e+01
<STATE> 4
<MEAN> 16
 2.302987e-01 -8.000979e-02 1.522641e+00 -3.366715e-01 -6.418073e-02 1.506681e+00 3.704969e-03 -3.994354e-03 1.760043e-04 9.460289e-04 -5.793861e-03 -4.178472e-04 9.425329e-02 7.290915e-02 7.878467e-02 8.922569e-02
<VARIANCE> 16
 4.333229e-02 4.484788e-02 2.307423e-02 1.287970e-02 1.348867e-02 1.204163e-02 1.247809e-03 1.543581e-03 1.747892e-03 1.000000e-03 1.000000e-03 1.307141e-03 1.000000e-03 1.000000e-03 1.000000e-03 1.000000e-03
<GCONST> -6.127955e+01
<STATE> 5
<MEAN> 16
 5.746450e-01 -6.863630e-01 1.852289e+00 -1.924953e-01 -5.941527e-01 1.808399e+00 6.755092e-03 -8.611047e-03 3.360635e-03 2.720593e-03 -9.935969e-03 3.719612e-03 1.162378e-01 1.062143e-01 9.471438e-02 7.524186e-02
<VARIANCE> 16
 1.995883e-02 4.680038e-03 1.592009e-02 1.712175e-02 7.170189e-03 8.551739e-03 1.000000e-03 1.000000e-03 2.623250e-03 1.000000e-03 1.098689e-03 2.013999e-03 1.000000e-03 1.000000e-03 1.000000e-03 1.000000e-03
<GCONST> -6.509843e+01
<TRANSP> 6
 0.000000e+00 1.000000e+00 0.000000e+00 0.000000e+00 0.000000e+00 0.000000e+00
 0.000000e+00 9.258536e-01 7.414637e-02 0.000000e+00 0.000000e+00 0.000000e+00
 0.000000e+00 0.000000e+00 9.739874e-01 2.601261e-02 0.000000e+00 0.000000e+00
 0.000000e+00 0.000000e+00 0.000000e+00 9.492657e-01 5.073433e-02 0.000000e+00
 0.000000e+00 0.000000e+00 0.000000e+00 0.000000e+00 9.596189e-01 4.038113e-02
 0.000000e+00 0.000000e+00 0.000000e+00 0.000000e+00 0.000000e+00 0.000000e+00
<ENDHMM>
~h "monkey"
<BEGINHMM>
<NUMSTATES> 6
<STATE> 2
<MEAN> 16
 3.452556e-01 -4.531089e-01 2.082515e+00 -3.038026e-01 -2.421786e-02 1.872660e+00 1.083168e-03 -1.558477e-03 -2.461922e-04 5.563850e-04 -4.867405e-03 -1.441383e-03 1.042663e-01 1.076044e-01 9.025123e-02 7.369726e-02
<VARIANCE> 16
 1.049429e-02 6.188045e-03 2.306639e-02 7.932798e-03 2.044420e-02 1.721435e-02 1.000000e-03 1.000000e-03 1.843686e-03 1.000000e-03 1.000000e-03 1.197018e-03 1.401743e-03 1.000000e-03 1.000000e-03 1.000000e-03
<GCONST> -6.474246e+01
<STATE> 3
<MEAN> 16
 2.206456e-01 -3.882146e-02 1.892494e+00 -3.087501e-01 -6.203787e-02 1.870106e+00 5.145065e-04 -6.229310e-05 -2.364538e-03 9.112470e-04 -2.849213e-03 -3.560903e-04 1.060541e-01 1.066926e-01 8.463673e-02 7.276186e-02
<VARIANCE> 16
 4.723881e-02 3.353605e-02 1.673026e-02 1.059635e-02 9.243513e-03 1.578769e-02 1.592210e-03 2.533810e-03 4.217211e-03 1.000000e-03 1.000000e-03 3.605573e-03 1.000000e-03 1.000000e-03 1.000000e-03 1.000000e-03
<GCONST> -5.947284e+01
<STATE> 4
<MEAN> 16
 2.658095e-01 -1.386841e-01 1.634227e+00 -2.949839e-01 -3.216655e-02 1.601777e+00 5.924105e-03 -1.133933e-02 7.092850e-04 2.735454e-03 -1.039911e-02 -3.742191e-04 1.004542e-01 9.637900e-02 7.971435e-02 6.705888e-02
<VARIANCE> 16
 3.910160e-02 5.568158e-02 2.056952e-02 4.468670e-03 2.765667e-02 1.557937e-02 1.111470e-03 1.827158e-03 2.204741e-03 1.000000e-03 1.000000e-03 1.615987e-03 1.000000e-03 1.000000e-03 1.000000e-03 1.000000e-03
<GCONST> -6.086653e+01
<STATE> 5
<MEAN> 16
 5.757695e-01 -6.931261e-01 1.854265e+00 -1.949482e-01 -6.070630e-01 1.808581e+00 4.948740e-03 -5.811363e-03 1.369992e-03 1.991622e-03 -6.942899e-03 1.949496e-03 1.148418e-01 1.091130e-01 9.560732e-02 7.434768e-02
<VARIANCE> 16
 1.661221e-02 3.416264e-03 1.630862e-02 1.764317e-02 5.521854e-03 6.261581e-03 1.000000e-03 1.000000e-03 1.669113e-03 1.000000e-03 1.000000e-03 1.657384e-03 1.000000e-03 1.000000e-03 1.000000e-03 1.000000e-03
<GCONST> -6.685665e+01
<TRANSP> 6
 0.000000e+00 1.000000e+00 0.000000e+00 0.000000e+00 0.000000e+00 0.000000e+00
 0.000000e+00 9.200132e-01 7.998683e-02 0.000000e+00 0.000000e+00 0.000000e+00
 0.000000e+00 0.000000e+00 9.740802e-01 2.591982e-02 0.000000e+00 0.000000e+00
 0.000000e+00 0.000000e+00 0.000000e+00 9.295925e-01 7.040753e-02 0.000000e+00
 0.000000e+00 0.000000e+00 0.000000e+00 0.000000e+00 9.616176e-01 3.838244e-02
 0.000000e+00 0.000000e+00 0.000000e+00 0.000000e+00 0.000000e+00 0.000000e+00
<ENDHMM>
~h "bumps_into_each_other"
<BEGINHMM>
<NUMSTATES> 6
<STATE> 2
<MEAN> 16
 4.177335e-01 -4.509323e-01 1.926723e+00 -3.365166e-01 -2.409361e-01 1.864427e+00 -8.462313e-03 1.640143e-02 2.940638e-03 -2.166601e-03 3.163280e-02 -2.422184e-04 1.035617e-01 9.112309e-02 8.934849e-02 8.248638e-02
<VARIANCE> 16
 1.014668e-02 1.784028e-02 4.090738e-02 1.836219e-02 5.905383e-02 4.874011e-02 1.000000e-03 1.697302e-03 5.781993e-03 1.375282e-03 3.745143e-03 5.562705e-03 1.320789e-03 1.000000e-03 1.000000e-03 1.000000e-03
<GCONST> -5.541568e+01
<STATE> 3
<MEAN> 16
 3.122095e-01 -1.611516e-01 1.865168e+00 -2.424026e-01 -1.341788e-01 1.820539e+00 -1.767525e-03 5.418019e-03 -2.580730e-03 -3.431681e-04 2.898033e-03 -1.751337e-03 8.732063e-02 9.361149e-02 8.239493e-02 7.835613e-02
<VARIANCE> 16
 1.116777e-02 3.439432e-02 1.439797e-02 6.236205e-03 2.031673e-02 1.199809e-02 1.218580e-03 3.323815e-03 5.858668e-03 1.000000e-03 2.049331e-03 5.211899e-03 1.000000e-03 1.000000e-03 1.000000e-03 1.000000e-03
<GCONST> -5.963831e+01
<STATE> 4
<MEAN> 16
 2.724054e-01 -3.327585e-02 1.553300e+00 -3.229448e-01 5.625697e-02 1.514821e+00 1.034643e-03 1.328665e-03 -1.882543e-03 -1.467437e-03 1.613629e-04 -1.026201e-03 8.873184e-02 1.036231e-01 7.880994e-02 8.133520e-02
<VARIANCE> 16
 1.499552e-02 3.215486e-02 2.296726e-02 1.077706e-02 6.782179e-03 1.352627e-02 1.000000e-03 1.424839e-03 1.521083e-03 1.000000e-03 1.000000e-03 1.229228e-03 1.000000e-03 1.000000e-03 1.000000e-03 1.000000e-03
<GCONST> -6.392945e+01
<STATE> 5
<MEAN> 16
 4.471747e-01 -3.165294e-01 1.738729e+00 -3.613479e-01 -1.732558e-01 1.692878e+00 1.974455e-02 -5.375735e-02 3.192520e-02 -2.990840e-03 -4.449717e-02 2.161744e-02 8.834029e-02 8.921664e-02 7.543875e-02 7.603787e-02
<VARIANCE> 16
 1.508246e-02 2.430972e-02 4.293199e-02 1.248027e-02 3.618160e-02 3.521205e-02 1.000000e-03 1.728015e-03 6.505081e-03 1.000000e-03 2.902226e-03 5.957100e-03 1.000000e-03 1.000000e-03 1.000000e-03 1.000000e-03
<GCONST> -5.651032e+01
<TRANSP> 6
 0.000000e+00 1.000000e+00 0.000000e+00 0.000000e+00 0.000000e+00 0.000000e+00
 0.000000e+00 9.071794e-01 9.282053e-02 0.000000e+00 0.000000e+00 0.000000e+00
 0.000000e+00 0.000000e+00 9.632104e-01 3.678960e-02 0.000000e+00 0.000000e+00
 0.000000e+00 0.000000e+00 0.000000e+00 9.576908e-01 4.230921e-02 0.000000e+00
 0.000000e+00 0.000000e+00 0.000000e+00 0.000000e+00 6.284596e-01 3.715404e-01
 0.000000e+00 0.000000e+00 0.000000e+00 0.000000e+00 0.000000e+00 0.000000e+00
<ENDHMM>
~h "jumps_on"
<BEGINHMM>
<NUMSTATES> 6
<STATE> 2
<MEAN> 16
 3.937677e-01 -4.179219e-01 1.915618e+00 -3.052362e-01 -3.157049e-01 1.880535e+00 -1.745940e-02 3.407326e-02 -4.482876e-03 2.533475e-03 3.849471e-02 -6.188262e-03 9.840965e-02 9.155610e-02 8.520718e-02 8.026415e-02
<VARIANCE> 16
 1.270793e-02 1.754125e-02 5.147794e-02 1.611821e-02 4.078547e-02 5.109571e-02 1.678676e-03 4.012796e-03 7.550722e-03 1.539154e-03 6.217500e-03 7.118613e-03 1.108696e-03 1.000000e-03 1.000000e-03 1.000000e-03
<GCONST> -5.309451e+01
<STATE> 3
<MEAN> 16
 2.732949e-01 -1.324316e-01 1.832401e+00 -2.499132e-01 -9.954461e-02 1.744414e+00 -4.687982e-03 8.985737e-03 -2.415998e-03 7.803899e-04 2.403006e-03 -1.474936e-03 9.540797e-02 1.036788e-01 8.093107e-02 8.145754e-02
<VARIANCE> 16
 1.424752e-02 5.038018e-02 1.249114e-02 7.520520e-03 2.127907e-02 1.133599e-02 1.000000e-03 2.463974e-03 4.385493e-03 1.000000e-03 1.176110e-03 3.673666e-03 1.000000e-03 1.000000e-03 1.000000e-03 1.000000e-03
<GCONST> -6.067004e+01
<STATE> 4
<MEAN> 16
 9.062319e-02 3.060622e-03 1.522583e+00 -1.885076e-01 2.557019e-03 1.433466e+00 -3.781094e-03 2.992917e-03 -7.041816e-04 6.451280e-04 1.589204e-04 -1.083655e-03 9.359609e-02 1.025859e-01 7.651038e-02 8.214369e-02
<VARIANCE> 16
 4.189332e-02 4.745885e-02 2.892392e-02 7.520468e-03 5.705112e-03 1.591566e-02 1.000000e-03 1.420246e-03 1.976374e-03 1.000000e-03 1.000000e-03 1.387197e-03 1.000000e-03 1.000000e-03 1.000000e-03 1.000000e-03
<GCONST> -6.227273e+01
<STATE> 5
<MEAN> 16
 -5.970506e-02 -5.908425e-02 1.737598e+00 -1.286474e-01 -1.458482e-01 1.713216e+00 1.912138e-02 -2.221702e-02 2.898759e-03 -5.144544e-03 -7.726963e-03 4.872394e-03 9.163337e-02 9.269607e-02 7.242197e-02 8.258341e-02
<VARIANCE> 16
 5.989295e-02 3.592165e-02 2.191750e-02 2.382785e-02 2.398795e-02 1.909266e-02 5.390610e-03 3.034886e-03 7.879826e-03 4.790663e-03 3.286832e-03 8.785365e-03 1.000000e-03 1.289829e-03 1.000000e-03 1.000000e-03
<GCONST> -5.101583e+01
<TRANSP> 6
 0.000000e+00 1.000000e+00 0.000000e+00 0.000000e+00 0.000000e+00 0.000000e+00
 0.000000e+00 8.796042e-01 1.203959e-01 0.000000e+00 0.000000e+00 0.000000e+00
 0.000000e+00 0.000000e+00 9.603398e-01 3.966017e-02 0.000000e+00 0.000000e+00
 0.000000e+00 0.000000e+00 0.000000e+00 9.664898e-01 3.351022e-02 0.000000e+00
 0.000000e+00 0.000000e+00 0.000000e+00 0.000000e+00 9.023186e-01 9.768139e-02
 0.000000e+00 0.000000e+00 0.000000e+00 0.000000e+00 0.000000e+00 0.000000e+00
<ENDHMM>
~h "house"
<BEGINHMM>
<NUMSTATES> 6
<STATE> 2
<MEAN> 16
 3.011665e-01 -1.795939e-01 1.965368e+00 -2.827840e-01 -3.444028e-02 1.909347e+00 5.730344e-03 -1.762648e-02 6.252889e-03 -6.196701e-03 -5.408464e-03 1.640523e-03 1.387573e-01 1.426760e-01 9.118473e-02 9.943081e-02
<VARIANCE> 16
 7.998871e-03 8.531761e-02 2.035095e-02 6.422039e-03 5.087374e-02 1.412776e-02 1.000000e-03 1.423515e-03 6.137270e-03 1.000000e-03 2.609305e-03 4.836126e-03 1.531275e-03 1.000000e-03 1.000000e-03 1.000000e-03
<GCONST> -5.801322e+01
<STATE> 3
<MEAN> 16
 2.792485e-01 -9.766636e-02 1.891742e+00 -3.156150e-01 3.671787e-02 1.765352e+00 5.826031e-04 1.096508e-03 -2.173344e-03 -1.548341e-04 -2.468547e-03 -1.537876e-03 1.129989e-01 1.190727e-01 8.494312e-02 1.023037e-01
<VARIANCE> 16
 2.883410e-02 5.844110e-02 1.542621e-02 3.010051e-03 6.027234e-03 1.368249e-02 1.501827e-03 2.660612e-03 5.416436e-03 1.000000e-03 1.000000e-03 3.873003e-03 1.000000e-03 1.000000e-03 1.000000e-03 1.000000e-03
<GCONST> -6.100934e+01
<STATE> 4
<MEAN> 16
 1.971939e-01 -1.401578e-01 1.668914e+00 -2.930457e-01 -6.665854e-02 1.594637e+00 3.615784e-03 -8.715783e-03 1.011737e-03 1.428643e-03 -6.036583e-03 7.842404e-04 9.369757e-02 9.015215e-02 7.701468e-02 8.957601e-02
<VARIANCE> 16
 5.079835e-02 3.532661e-02 2.424553e-02 7.648507e-03 2.452563e-02 2.495362e-02 1.358895e-03 1.457872e-03 3.318409e-03 1.000000e-03 1.000000e-03 2.624230e-03 1.000000e-03 1.000000e-03 1.000000e-03 1.000000e-03
<GCONST> -5.913815e+01
<STATE> 5
<MEAN> 16
 5.841879e-01 -6.948098e-01 1.859813e+00 -1.985178e-01 -5.967025e-01 1.810269e+00 5.169406e-03 -5.783151e-03 1.409039e-03 2.650360e-03 -8.280506e-03 3.826269e-03 1.158987e-01 1.083222e-01 9.761418e-02 7.229659e-02
<VARIANCE> 16
 1.858789e-02 3.394444e-03 1.580465e-02 1.710013e-02 7.479222e-03 8.253082e-03 1.000000e-03 1.000000e-03 1.427913e-03 1.000000e-03 1.000000e-03 1.488602e-03 1.000000e-03 1.000000e-03 1.000000e-03 1.000000e-03
<GCONST> -6.649725e+01
<TRANSP> 6
 0.000000e+00 1.000000e+00 0.000000e+00 0.000000e+00 0.000000e+00 0.000000e+00
 0.000000e+00 9.228139e-01 7.718614e-02 0.000000e+00 0.000000e+00 0.000000e+00
 0.000000e+00 0.000000e+00 9.701158e-01 2.988427e-02 0.000000e+00 0.000000e+00
 0.000000e+00 0.000000e+00 0.000000e+00 9.753405e-01 2.465950e-02 0.000000e+00
 0.000000e+00 0.000000e+00 0.000000e+00 0.000000e+00 9.624981e-01 3.750192e-02
 0.000000e+00 0.000000e+00 0.000000e+00 0.000000e+00 0.000000e+00 0.000000e+00
<ENDHMM>
~h "bumps_into"
<BEGINHMM>
<NUMSTATES> 6
<STATE> 2
<MEAN> 16
 4.082119e-01 -4.152362e-01 1.915991e+00 -3.479410e-01 -3.652337e-01 1.885727e+00 -1.112939e-02 2.445314e-02 2.373390e-03 -1.966232e-03 3.031678e-02 -1.927094e-03 9.288403e-02 8.901232e-02 8.349114e-02 8.009903e-02
<VARIANCE> 16
 1.420543e-02 1.809498e-02 4.465649e-02 1.668322e-02 1.592565e-02 4.497892e-02 1.311768e-03 2.528555e-03 7.037458e-03 1.304075e-03 2.796978e-03 6.761137e-03 1.000000e-03 1.000000e-03 1.000000e-03 1.000000e-03
<GCONST> -5.602578e+01
<STATE> 3
<MEAN> 16
 3.164358e-01 -2.118856e-01 1.814357e+00 -2.302067e-01 -1.469176e-01 1.760537e+00 -3.149790e-02 5.416007e-02 -2.346238e-02 9.912888e-03 6.076134e-02 -2.003702e-02 9.472483e-02 8.985746e-02 7.630655e-02 7.609285e-02
<VARIANCE> 16
 1.129815e-02 4.555356e-02 2.510453e-02 6.914488e-03 2.929156e-02 2.024698e-02 2.975699e-03 7.986560e-03 1.038471e-02 2.573577e-03 1.242595e-02 9.966357e-03 1.311537e-03 1.000000e-03 1.000000e-03 1.000000e-03
<GCONST> -5.178848e+01
<STATE> 4
<MEAN> 16
 1.378746e-01 -3.684729e-02 1.675233e+00 -1.475089e-01 1.131173e-02 1.649397e+00 -1.575633e-03 1.576276e-02 3.752158e-04 -3.528948e-03 2.189496e-02 1.600811e-03 1.113890e-01 1.056510e-01 8.292314e-02 8.134134e-02
<VARIANCE> 16
 2.581916e-02 4.645615e-02 3.575781e-02 1.557678e-02 2.120575e-02 2.783126e-02 5.381518e-03 1.308482e-03 6.030982e-03 5.083679e-03 1.626995e-03 5.598940e-03 1.000000e-03 1.000000e-03 1.000000e-03 1.000000e-03
<GCONST> -5.374136e+01
<STATE> 5
<MEAN> 16
 2.823977e-01 -2.622906e-01 1.853706e+00 -2.013460e-01 5.139995e-02 1.817164e+00 3.515344e-03 -7.935742e-03 5.131833e-03 -6.583263e-03 1.106122e-03 6.142542e-03 1.105317e-01 1.128851e-01 8.712686e-02 8.341007e-02
<VARIANCE> 16
 9.941476e-03 1.066873e-01 2.160675e-02 9.037297e-03 4.457802e-02 1.984287e-02 1.000000e-03 1.415114e-03 1.641108e-03 1.000000e-03 3.702091e-03 1.531745e-03 1.108038e-03 1.000000e-03 1.000000e-03 1.000000e-03
<GCONST> -5.941151e+01
<TRANSP> 6
 0.000000e+00 1.000000e+00 0.000000e+00 0.000000e+00 0.000000e+00 0.000000e+00
 0.000000e+00 8.577694e-01 1.422306e-01 0.000000e+00 0.000000e+00 0.000000e+00
 0.000000e+00 0.000000e+00 6.973559e-01 3.026441e-01 0.000000e+00 0.000000e+00
 0.000000e+00 0.000000e+00 0.000000e+00 7.736642e-01 2.263358e-01 0.000000e+00
 0.000000e+00 0.000000e+00 0.000000e+00 0.000000e+00 7.885998e-01 2.114002e-01
 0.000000e+00 0.000000e+00 0.000000e+00 0.000000e+00 0.000000e+00 0.000000e+00
<ENDHMM>
~h "goes_to"
<BEGINHMM>
<NUMSTATES> 6
<STATE> 2
<MEAN> 16
 3.954335e-01 -4.306153e-01 1.881794e+00 -2.746889e-01 -2.314956e-01 1.840317e+00 -1.859558e-02 3.410872e-02 -6.241298e-03 2.660267e-03 4.141644e-02 -5.210476e-03 1.001058e-01 9.292711e-02 8.430641e-02 8.018776e-02
<VARIANCE> 16
 1.331383e-02 2.839891e-02 4.927367e-02 2.365568e-02 6.954577e-02 4.658566e-02 1.786047e-03 4.034298e-03 8.321941e-03 1.972358e-03 5.714734e-03 7.658202e-03 1.146253e-03 1.000000e-03 1.000000e-03 1.000000e-03
<GCONST> -5.135035e+01
<STATE> 3
<MEAN> 16
 2.516622e-01 -1.665498e-01 1.806485e+00 -2.716796e-01 -1.445514e-01 1.760687e+00 -5.210137e-03 5.730093e-03 -2.103358e-03 7.210225e-04 3.459674e-03 -1.581515e-03 9.149766e-02 9.660012e-02 7.862756e-02 7.789174e-02
<VARIANCE> 16
 1.834030e-02 3.545834e-02 1.419632e-02 1.026831e-02 1.423293e-02 1.102532e-02 1.000000e-03 2.047758e-03 3.649721e-03 1.000000e-03 1.090401e-03 3.172096e-03 1.000000e-03 1.000000e-03 1.000000e-03 1.000000e-03
<GCONST> -6.135047e+01
<STATE> 4
<MEAN> 16
 1.482012e-01 -6.562108e-02 1.483350e+00 -2.881645e-01 1.442752e-02 1.420941e+00 -3.284648e-03 1.718547e-03 -1.466306e-03 -2.743856e-04 7.841843e-04 -1.328542e-03 8.991313e-02 9.875058e-02 7.810013e-02 8.344715e-02
<VARIANCE> 16
 4.253554e-02 3.303366e-02 2.327034e-02 8.334137e-03 5.245005e-03 1.485269e-02 1.000000e-03 1.194572e-03 1.483520e-03 1.000000e-03 1.000000e-03 1.131003e-03 1.000000e-03 1.000000e-03 1.000000e-03 1.000000e-03
<GCONST> -6.355189e+01
<STATE> 5
<MEAN> 16
 2.244413e-01 -2.091641e-01 1.690353e+00 -2.760817e-01 -2.638457e-01 1.721939e+00 3.467662e-02 -2.330290e-02 1.564762e-02 -1.672621e-02 -2.064558e-02 1.995302e-02 9.268583e-02 9.767632e-02 7.685070e-02 7.551736e-02
<VARIANCE> 16
 4.078541e-02 3.557701e-02 5.359269e-02 2.450251e-02 8.831706e-02 3.682972e-02 8.389782e-03 4.372117e-03 1.160027e-02 5.831220e-03 5.134765e-03 1.035290e-02 1.000000e-03 1.063312e-03 1.000000e-03 1.000000e-03
<GCONST> -4.671939e+01
<TRANSP> 6
 0.000000e+00 1.000000e+00 0.000000e+00 0.000000e+00 0.000000e+00 0.000000e+00
 0.000000e+00 8.849450e-01 1.150550e-01 0.000000e+00 0.000000e+00 0.000000e+00
 0.000000e+00 0.000000e+00 9.408571e-01 5.914292e-02 0.000000e+00 0.000000e+00
 0.000000e+00 0.000000e+00 0.000000e+00 9.583004e-01 4.169968e-02 0.000000e+00
 0.000000e+00 0.000000e+00 0.000000e+00 0.000000e+00 7.718990e-01 2.281009e-01
 0.000000e+00 0.000000e+00 0.000000e+00 0.000000e+00 0.000000e+00 0.000000e+00
<ENDHMM>
