~o
<STREAMINFO> 1 16
<VECSIZE> 16<NULLD><USER><DIAGC>
~h "Monkey"
<BEGINHMM>
<NUMSTATES> 6
<STATE> 2
<MEAN> 16
 5.061368e-01 -6.510124e-01 1.885560e+00 -2.119288e-01 -5.363995e-01 1.834440e+00 2.840449e-02 -3.410796e-02 1.199461e-01 -1.616769e-02 -2.337074e-02 1.160719e-01 1.138024e-01 1.058644e-01 9.230310e-02 7.351842e-02
<VARIANCE> 16
 1.859744e-02 1.106620e-02 1.915597e-02 1.881832e-02 3.640391e-02 1.559766e-02 2.363749e-02 3.319815e-02 2.124167e-01 4.471920e-03 2.710413e-02 2.062129e-01 1.000000e-03 1.000000e-03 1.000000e-03 1.000000e-03
<GCONST> -4.141160e+01
<STATE> 3
<MEAN> 16
 3.015403e-01 -2.362785e-01 1.884599e+00 -2.577589e-01 -6.999318e-02 1.821887e+00 -5.073350e-03 9.243459e-03 -1.812177e-03 -1.814751e-03 1.198530e-02 -1.698275e-03 1.038928e-01 1.065877e-01 8.261754e-02 8.175974e-02
<VARIANCE> 16
 1.669618e-02 6.659578e-02 2.281545e-02 1.662425e-02 4.591392e-02 2.069130e-02 1.436672e-03 2.963444e-03 5.558878e-03 1.197411e-03 3.404853e-03 4.862517e-03 1.346562e-03 1.086686e-03 1.000000e-03 1.000000e-03
<GCONST> -5.477777e+01
<STATE> 4
<MEAN> 16
 2.496195e-01 -1.615891e-01 1.605212e+00 -2.775468e-01 -2.690880e-02 1.536035e+00 2.043697e-04 -1.671974e-03 1.003066e-03 -1.084934e-03 2.481427e-03 -2.821861e-03 9.095671e-02 1.065001e-01 7.821415e-02 8.171086e-02
<VARIANCE> 16
 2.060951e-02 4.929094e-02 3.414101e-02 1.651477e-02 2.363268e-02 3.058778e-02 1.607001e-03 1.562828e-03 3.082378e-03 1.587234e-03 1.536629e-03 2.665381e-03 1.087064e-03 1.000000e-03 1.000000e-03 1.000000e-03
<GCONST> -5.727460e+01
<STATE> 5
<MEAN> 16
 4.107348e-01 -5.308493e-01 1.874362e+00 -2.707614e-01 -3.209249e-01 1.793588e+00 -1.078874e-03 -2.832855e-03 6.493164e-03 -5.357376e-03 -4.580465e-03 1.900583e-03 1.104923e-01 1.086705e-01 8.702417e-02 8.053427e-02
<VARIANCE> 16
 1.855133e-02 3.409629e-02 2.221701e-02 1.874214e-02 7.440801e-02 2.441634e-02 1.000000e-03 1.093426e-03 3.700207e-03 1.000000e-03 2.015710e-03 2.992405e-03 1.000000e-03 1.000000e-03 1.000000e-03 1.000000e-03
<GCONST> -5.793712e+01
<TRANSP> 6
 0.000000e+00 1.000000e+00 0.000000e+00 0.000000e+00 0.000000e+00 0.000000e+00
 0.000000e+00 9.352096e-01 6.479043e-02 0.000000e+00 0.000000e+00 0.000000e+00
 0.000000e+00 0.000000e+00 9.272401e-01 7.275995e-02 0.000000e+00 0.000000e+00
 0.000000e+00 0.000000e+00 0.000000e+00 8.894405e-01 1.105595e-01 0.000000e+00
 0.000000e+00 0.000000e+00 0.000000e+00 0.000000e+00 6.919289e-01 3.080711e-01
 0.000000e+00 0.000000e+00 0.000000e+00 0.000000e+00 0.000000e+00 0.000000e+00
<ENDHMM>
~h "fence"
<BEGINHMM>
<NUMSTATES> 6
<STATE> 2
<MEAN> 16
 4.241547e-01 -4.544844e-01 1.856726e+00 -3.189915e-01 -2.934038e-01 1.747767e+00 3.326471e-03 -5.515982e-03 6.465211e-03 1.038305e-03 -5.119595e-03 4.604882e-03 1.051843e-01 1.378945e-01 9.225172e-02 8.552659e-02
<VARIANCE> 16
 3.162640e-02 4.265570e-02 2.862645e-02 1.147299e-02 4.571849e-02 2.116549e-02 1.000000e-03 1.260971e-03 3.200932e-03 1.000000e-03 1.000000e-03 2.133968e-03 1.000000e-03 1.000000e-03 1.000000e-03 1.000000e-03
<GCONST> -5.908839e+01
<STATE> 3
<MEAN> 16
 2.376167e-01 -1.237277e-01 1.843488e+00 -3.258420e-01 -1.491773e-01 1.792997e+00 -1.844449e-03 1.526979e-03 -2.347522e-03 6.039192e-04 -3.809815e-04 -2.840735e-05 1.065275e-01 1.517903e-01 8.475535e-02 9.173391e-02
<VARIANCE> 16
 3.979979e-02 3.416653e-02 1.500844e-02 6.281296e-03 1.047396e-02 1.478984e-02 1.369746e-03 1.590727e-03 3.273946e-03 1.000000e-03 1.000000e-03 2.951722e-03 1.000000e-03 1.000000e-03 1.000000e-03 1.000000e-03
<GCONST> -6.126673e+01
<STATE> 4
<MEAN> 16
 7.047089e-02 -7.529295e-02 1.598433e+00 -3.205480e-01 -9.683616e-02 1.575109e+00 2.608970e-03 -5.859469e-03 -9.567917e-04 1.145297e-03 -4.487369e-03 7.017356e-04 9.880012e-02 1.342627e-01 7.497416e-02 8.501967e-02
<VARIANCE> 16
 6.375183e-02 2.551573e-02 2.886049e-02 1.366524e-02 1.133742e-02 2.841593e-02 1.788945e-03 1.356379e-03 2.214504e-03 1.000000e-03 1.000000e-03 2.143938e-03 1.000000e-03 1.000000e-03 1.000000e-03 1.000000e-03
<GCONST> -5.952726e+01
<STATE> 5
<MEAN> 16
 5.755103e-01 -6.825711e-01 1.861070e+00 -1.882754e-01 -5.707622e-01 1.790238e+00 8.380121e-03 -1.018581e-02 3.742494e-03 3.756088e-03 -1.002213e-02 2.846987e-03 1.143986e-01 1.129755e-01 9.549470e-02 7.549991e-02
<VARIANCE> 16
 2.165169e-02 8.186067e-03 1.538463e-02 1.358924e-02 1.540350e-02 8.146622e-03 1.000000e-03 1.000000e-03 2.220364e-03 1.000000e-03 1.000000e-03 1.804276e-03 1.000000e-03 1.000000e-03 1.000000e-03 1.000000e-03
<GCONST> -6.437786e+01
<TRANSP> 6
 0.000000e+00 1.000000e+00 0.000000e+00 0.000000e+00 0.000000e+00 0.000000e+00
 0.000000e+00 6.719321e-01 3.280679e-01 0.000000e+00 0.000000e+00 0.000000e+00
 0.000000e+00 0.000000e+00 9.563100e-01 4.369007e-02 0.000000e+00 0.000000e+00
 0.000000e+00 0.000000e+00 0.000000e+00 9.564295e-01 4.357044e-02 0.000000e+00
 0.000000e+00 0.000000e+00 0.000000e+00 0.000000e+00 9.621891e-01 3.781086e-02
 0.000000e+00 0.000000e+00 0.000000e+00 0.000000e+00 0.000000e+00 0.000000e+00
<ENDHMM>
~h "Car"
<BEGINHMM>
<NUMSTATES> 6
<STATE> 2
<MEAN> 16
 5.153319e-01 -6.552219e-01 1.865158e+00 -2.150449e-01 -5.370692e-01 1.824331e+00 3.154501e-02 -3.744343e-02 1.293597e-01 -1.747433e-02 -2.646680e-02 1.257020e-01 1.135349e-01 1.043137e-01 9.487783e-02 7.530198e-02
<VARIANCE> 16
 1.797888e-02 1.096905e-02 1.798402e-02 1.759957e-02 4.014070e-02 1.471285e-02 2.562638e-02 3.593073e-02 2.257291e-01 5.040664e-03 2.943010e-02 2.220472e-01 1.000000e-03 1.000000e-03 1.000000e-03 1.000000e-03
<GCONST> -4.104831e+01
<STATE> 3
<MEAN> 16
 3.018858e-01 -2.138834e-01 1.870280e+00 -2.698072e-01 -8.329730e-02 1.811817e+00 -5.153901e-03 1.067002e-02 -1.866863e-03 -1.844485e-03 1.121123e-02 -1.111948e-03 1.023106e-01 1.055359e-01 8.414686e-02 8.214109e-02
<VARIANCE> 16
 1.648270e-02 6.590840e-02 2.217386e-02 1.692307e-02 4.665654e-02 2.118614e-02 1.673217e-03 3.303851e-03 6.039048e-03 1.207043e-03 3.639750e-03 5.343724e-03 1.361489e-03 1.121364e-03 1.000000e-03 1.000000e-03
<GCONST> -5.421651e+01
<STATE> 4
<MEAN> 16
 2.540012e-01 -8.619611e-02 1.590791e+00 -3.098213e-01 -3.356080e-02 1.557303e+00 -6.981734e-05 1.461643e-04 -7.523961e-04 -1.729077e-03 8.243407e-04 -1.890524e-03 9.184873e-02 1.072820e-01 7.901352e-02 8.309165e-02
<VARIANCE> 16
 2.337459e-02 4.618336e-02 3.441972e-02 1.425718e-02 2.570760e-02 2.787158e-02 1.656837e-03 1.854544e-03 2.876964e-03 1.000000e-03 1.312676e-03 2.487204e-03 1.077836e-03 1.000000e-03 1.000000e-03 1.000000e-03
<GCONST> -5.792604e+01
<STATE> 5
<MEAN> 16
 4.228886e-01 -5.035352e-01 1.830238e+00 -2.869454e-01 -3.694556e-01 1.798661e+00 -2.973160e-03 -1.879970e-03 3.321382e-03 -4.593078e-03 -4.366140e-03 7.164174e-04 1.084769e-01 1.053610e-01 8.927224e-02 7.861894e-02
<VARIANCE> 16
 1.975291e-02 4.343261e-02 2.628634e-02 2.042049e-02 7.820713e-02 2.194857e-02 1.000000e-03 1.412688e-03 3.879445e-03 1.000000e-03 1.966703e-03 3.244466e-03 1.071790e-03 1.000000e-03 1.000000e-03 1.000000e-03
<GCONST> -5.700607e+01
<TRANSP> 6
 0.000000e+00 1.000000e+00 0.000000e+00 0.000000e+00 0.000000e+00 0.000000e+00
 0.000000e+00 9.296766e-01 7.032337e-02 0.000000e+00 0.000000e+00 0.000000e+00
 0.000000e+00 0.000000e+00 9.280161e-01 7.198390e-02 0.000000e+00 0.000000e+00
 0.000000e+00 0.000000e+00 0.000000e+00 8.987121e-01 1.012879e-01 0.000000e+00
 0.000000e+00 0.000000e+00 0.000000e+00 0.000000e+00 7.031907e-01 2.968093e-01
 0.000000e+00 0.000000e+00 0.000000e+00 0.000000e+00 0.000000e+00 0.000000e+00
<ENDHMM>
~h "Man"
<BEGINHMM>
<NUMSTATES> 6
<STATE> 2
<MEAN> 16
 5.097225e-01 -6.544454e-01 1.876692e+00 -2.058179e-01 -5.301621e-01 1.821178e+00 3.165362e-02 -3.866573e-02 1.326524e-01 -1.757575e-02 -2.632781e-02 1.287199e-01 1.133548e-01 1.053602e-01 9.398595e-02 7.399610e-02
<VARIANCE> 16
 1.986441e-02 1.131721e-02 1.841426e-02 1.754021e-02 4.013289e-02 1.470184e-02 2.782983e-02 3.638670e-02 2.314087e-01 5.186971e-03 3.041807e-02 2.245099e-01 1.000000e-03 1.000000e-03 1.000000e-03 1.000000e-03
<GCONST> -4.070541e+01
<STATE> 3
<MEAN> 16
 2.275616e-01 -1.662775e-01 2.010130e+00 -3.612728e-01 -4.837604e-02 1.869703e+00 -3.955660e-03 8.114178e-03 -1.542626e-03 -9.690012e-04 8.762102e-03 -9.733069e-04 1.024223e-01 1.027969e-01 8.616614e-02 7.910132e-02
<VARIANCE> 16
 2.643544e-01 8.168600e-02 9.680939e-02 9.187724e-02 1.213697e-01 5.981921e-02 9.611878e-01 7.895894e-02 4.346322e-02 1.828790e-01 3.037465e-01 5.300511e-02 1.231481e-03 1.250898e-03 1.000000e-03 1.000000e-03
<GCONST> -2.281801e+01
<STATE> 4
<MEAN> 16
 1.913881e-01 -1.031181e-01 1.619922e+00 -3.071848e-01 -1.260467e-02 1.552249e+00 -2.323044e-04 -1.323297e-03 -5.772660e-04 -1.117762e-03 1.911801e-03 -2.070234e-03 9.196532e-02 1.070784e-01 8.125423e-02 8.307845e-02
<VARIANCE> 16
 5.319672e-02 6.034289e-02 3.931237e-02 3.218064e-02 5.145054e-02 3.051403e-02 5.343209e-02 1.841826e-02 1.232280e-02 1.811668e-02 8.797250e-02 5.622938e-03 1.000000e-03 1.000000e-03 1.000000e-03 1.000000e-03
<GCONST> -4.003838e+01
<STATE> 5
<MEAN> 16
 4.140077e-01 -5.253437e-01 1.853526e+00 -2.532246e-01 -3.435694e-01 1.804153e+00 -1.668283e-03 -2.408780e-03 3.867123e-03 -4.435011e-03 -6.731161e-03 1.915896e-03 1.095483e-01 1.049996e-01 9.060301e-02 7.743666e-02
<VARIANCE> 16
 2.114348e-02 4.033814e-02 2.234030e-02 2.148653e-02 7.989045e-02 2.159710e-02 2.920242e-03 2.302754e-03 3.653856e-03 1.565774e-03 5.923552e-03 3.748448e-03 1.000000e-03 1.000000e-03 1.000000e-03 1.000000e-03
<GCONST> -5.399218e+01
<TRANSP> 6
 0.000000e+00 1.000000e+00 0.000000e+00 0.000000e+00 0.000000e+00 0.000000e+00
 0.000000e+00 9.281350e-01 7.186501e-02 0.000000e+00 0.000000e+00 0.000000e+00
 0.000000e+00 0.000000e+00 9.436653e-01 5.633476e-02 0.000000e+00 0.000000e+00
 0.000000e+00 0.000000e+00 0.000000e+00 8.964242e-01 1.035758e-01 0.000000e+00
 0.000000e+00 0.000000e+00 0.000000e+00 0.000000e+00 6.886070e-01 3.113930e-01
 0.000000e+00 0.000000e+00 0.000000e+00 0.000000e+00 0.000000e+00 0.000000e+00
<ENDHMM>
~h "car"
<BEGINHMM>
<NUMSTATES> 6
<STATE> 2
<MEAN> 16
 4.174285e-01 -4.770531e-01 1.890014e+00 -2.850526e-01 -3.404337e-01 1.808745e+00 5.338944e-03 -5.601978e-03 7.410587e-03 1.548183e-03 -6.304320e-03 5.674256e-03 1.020367e-01 1.047010e-01 8.791071e-02 8.221146e-02
<VARIANCE> 16
 3.166767e-02 4.221235e-02 4.387687e-02 1.750388e-02 6.558508e-02 2.137372e-02 1.925744e-03 1.412868e-03 4.419624e-03 1.000000e-03 1.000000e-03 2.426947e-03 1.000000e-03 1.000000e-03 1.000000e-03 1.000000e-03
<GCONST> -5.665710e+01
<STATE> 3
<MEAN> 16
 2.734585e-01 -1.030084e-01 1.890018e+00 -2.956220e-01 -7.419887e-02 1.846167e+00 4.946038e-04 7.234166e-04 -1.967185e-03 -1.204479e-04 -1.309168e-03 2.054580e-04 1.037654e-01 1.144603e-01 8.559369e-02 8.429694e-02
<VARIANCE> 16
 3.436445e-02 4.334185e-02 1.705374e-02 7.899857e-03 2.350407e-02 1.703008e-02 1.720605e-03 1.851316e-03 4.149706e-03 1.000000e-03 1.000000e-03 3.400162e-03 1.000000e-03 1.000000e-03 1.000000e-03 1.000000e-03
<GCONST> -5.911111e+01
<STATE> 4
<MEAN> 16
 1.590468e-01 -3.878578e-02 1.585945e+00 -3.291712e-01 -2.608976e-02 1.563238e+00 3.253479e-03 -7.250478e-03 -1.448392e-03 8.303546e-04 -6.625871e-03 1.805432e-04 9.795333e-02 1.109697e-01 7.373349e-02 8.563896e-02
<VARIANCE> 16
 5.504323e-02 3.533847e-02 3.052223e-02 1.135138e-02 2.099259e-02 2.538380e-02 1.399593e-03 1.518972e-03 2.440891e-03 1.000000e-03 1.000000e-03 1.997218e-03 1.000000e-03 1.000000e-03 1.000000e-03 1.000000e-03
<GCONST> -5.908055e+01
<STATE> 5
<MEAN> 16
 5.813244e-01 -6.813495e-01 1.861068e+00 -1.910160e-01 -5.789112e-01 1.810334e+00 6.571329e-03 -1.064315e-02 2.764044e-03 4.247332e-03 -1.078418e-02 1.930353e-03 1.149552e-01 1.062041e-01 9.540254e-02 7.526073e-02
<VARIANCE> 16
 1.664603e-02 7.613456e-03 1.622206e-02 1.619620e-02 1.306957e-02 8.144858e-03 1.000000e-03 1.000000e-03 2.352661e-03 1.000000e-03 1.000000e-03 2.130277e-03 1.000000e-03 1.000000e-03 1.000000e-03 1.000000e-03
<GCONST> -6.442535e+01
<TRANSP> 6
 0.000000e+00 1.000000e+00 0.000000e+00 0.000000e+00 0.000000e+00 0.000000e+00
 0.000000e+00 6.827146e-01 3.172854e-01 0.000000e+00 0.000000e+00 0.000000e+00
 0.000000e+00 0.000000e+00 9.611427e-01 3.885736e-02 0.000000e+00 0.000000e+00
 0.000000e+00 0.000000e+00 0.000000e+00 9.366607e-01 6.333930e-02 0.000000e+00
 0.000000e+00 0.000000e+00 0.000000e+00 0.000000e+00 9.584904e-01 4.150968e-02
 0.000000e+00 0.000000e+00 0.000000e+00 0.000000e+00 0.000000e+00 0.000000e+00
<ENDHMM>
~h "weaves_and_bumps_into"
<BEGINHMM>
<NUMSTATES> 6
<STATE> 2
<MEAN> 16
 3.942111e-01 -5.053816e-01 1.910477e+00 -3.099075e-01 -2.387787e-01 1.812264e+00 -1.889428e-03 5.719013e-03 3.156680e-03 -4.646365e-03 7.738038e-03 -3.018391e-04 1.076384e-01 1.022022e-01 8.357412e-02 8.395927e-02
<VARIANCE> 16
 1.605518e-02 3.066688e-02 2.878241e-02 1.466897e-02 3.896361e-02 3.027484e-02 1.000000e-03 1.339505e-03 4.152496e-03 1.000000e-03 1.776441e-03 3.324051e-03 1.204964e-03 1.000000e-03 1.000000e-03 1.000000e-03
<GCONST> -5.812214e+01
<STATE> 3
<MEAN> 16
 2.847035e-01 -1.812562e-01 1.880177e+00 -3.294269e-01 -8.917394e-02 1.799280e+00 -1.981165e-03 4.358409e-03 -2.149061e-03 -1.831360e-04 2.475047e-03 -1.643323e-03 1.001380e-01 1.155981e-01 8.534699e-02 8.593836e-02
<VARIANCE> 16
 2.070245e-02 5.195189e-02 2.128051e-02 7.338699e-03 2.101572e-02 1.973550e-02 1.188574e-03 2.353653e-03 4.320868e-03 1.000000e-03 1.000000e-03 3.236499e-03 1.000000e-03 1.030274e-03 1.000000e-03 1.000000e-03
<GCONST> -5.936235e+01
<STATE> 4
<MEAN> 16
 1.951293e-01 -6.970046e-02 1.557969e+00 -3.383341e-01 -1.735611e-02 1.524788e+00 9.993868e-04 -2.043270e-03 -5.754098e-04 -7.276472e-05 -8.440550e-04 -4.602856e-04 9.347272e-02 1.071981e-01 7.912692e-02 8.574954e-02
<VARIANCE> 16
 3.074156e-02 2.915394e-02 3.460403e-02 7.434636e-03 1.196564e-02 2.869740e-02 1.142823e-03 1.291861e-03 2.376909e-03 1.000000e-03 1.000000e-03 1.746129e-03 1.000000e-03 1.000000e-03 1.000000e-03 1.000000e-03
<GCONST> -6.111810e+01
<STATE> 5
<MEAN> 16
 4.081249e-01 -4.670374e-01 1.810276e+00 -3.233286e-01 -2.931105e-01 1.736447e+00 8.369549e-03 -1.821715e-02 1.192559e-02 2.025909e-03 -1.806307e-02 9.905008e-03 1.087292e-01 1.052255e-01 8.767232e-02 8.077288e-02
<VARIANCE> 16
 3.243216e-02 3.818179e-02 2.439574e-02 1.352788e-02 6.096047e-02 2.567636e-02 1.000000e-03 1.653089e-03 4.102425e-03 1.000000e-03 2.048438e-03 3.205140e-03 1.000000e-03 1.000000e-03 1.000000e-03 1.000000e-03
<GCONST> -5.704553e+01
<TRANSP> 6
 0.000000e+00 1.000000e+00 0.000000e+00 0.000000e+00 0.000000e+00 0.000000e+00
 0.000000e+00 7.731969e-01 2.268031e-01 0.000000e+00 0.000000e+00 0.000000e+00
 0.000000e+00 0.000000e+00 9.578502e-01 4.214986e-02 0.000000e+00 0.000000e+00
 0.000000e+00 0.000000e+00 0.000000e+00 9.566201e-01 4.337990e-02 0.000000e+00
 0.000000e+00 0.000000e+00 0.000000e+00 0.000000e+00 6.406410e-01 3.593589e-01
 0.000000e+00 0.000000e+00 0.000000e+00 0.000000e+00 0.000000e+00 0.000000e+00
<ENDHMM>
~h "man"
<BEGINHMM>
<NUMSTATES> 6
<STATE> 2
<MEAN> 16
 4.063999e-01 -5.413882e-01 1.861411e+00 -3.152137e-01 -1.766916e-01 1.762489e+00 1.101510e-03 5.581162e-03 2.343698e-03 -3.136703e-03 -3.375982e-03 8.521950e-04 1.122627e-01 8.730733e-02 8.675626e-02 9.107707e-02
<VARIANCE> 16
 2.304900e-02 3.131993e-02 2.331535e-02 1.705641e-02 2.288730e-02 3.017758e-02 1.000000e-03 1.442641e-03 3.969584e-03 1.000000e-03 1.000000e-03 2.377714e-03 1.000000e-03 1.000000e-03 1.000000e-03 1.000000e-03
<GCONST> -5.940159e+01
<STATE> 3
<MEAN> 16
 2.273734e-01 -1.025338e-01 1.867121e+00 -3.353970e-01 -1.281054e-01 1.872186e+00 -2.069953e-03 3.817296e-03 -1.808446e-03 8.182463e-04 -3.538162e-04 -3.427271e-04 1.027282e-01 9.474216e-02 8.145101e-02 9.484358e-02
<VARIANCE> 16
 4.240551e-02 4.178727e-02 1.632531e-02 1.232908e-02 9.093287e-03 2.255839e-02 1.558215e-03 2.192013e-03 4.210150e-03 1.000000e-03 1.000000e-03 3.730584e-03 1.000000e-03 1.000000e-03 1.000000e-03 1.000000e-03
<GCONST> -5.902744e+01
<STATE> 4
<MEAN> 16
 1.552788e-01 -5.407974e-02 1.553634e+00 -2.990246e-01 -6.710501e-02 1.543753e+00 2.701510e-03 -3.516649e-03 -1.271412e-03 4.796803e-04 -4.769856e-03 -9.022391e-06 9.526538e-02 7.401070e-02 7.606169e-02 8.836158e-02
<VARIANCE> 16
 4.615323e-02 3.293790e-02 2.554297e-02 1.425928e-02 1.043937e-02 2.147281e-02 1.242825e-03 1.501602e-03 2.185818e-03 1.000000e-03 1.000000e-03 2.019566e-03 1.000000e-03 1.000000e-03 1.000000e-03 1.000000e-03
<GCONST> -6.037253e+01
<STATE> 5
<MEAN> 16
 5.718865e-01 -6.701041e-01 1.846231e+00 -2.010543e-01 -5.676360e-01 1.802310e+00 8.422617e-03 -1.172117e-02 3.695634e-03 3.151066e-03 -1.152323e-02 2.657566e-03 1.153309e-01 1.051659e-01 9.374990e-02 7.539316e-02
<VARIANCE> 16
 2.018630e-02 9.428561e-03 1.739902e-02 1.753218e-02 1.592003e-02 1.053462e-02 1.000000e-03 1.000000e-03 2.840556e-03 1.000000e-03 1.189651e-03 2.348524e-03 1.000000e-03 1.000000e-03 1.000000e-03 1.000000e-03
<GCONST> -6.295517e+01
<TRANSP> 6
 0.000000e+00 1.000000e+00 0.000000e+00 0.000000e+00 0.000000e+00 0.000000e+00
 0.000000e+00 7.672040e-01 2.327960e-01 0.000000e+00 0.000000e+00 0.000000e+00
 0.000000e+00 0.000000e+00 9.677684e-01 3.223162e-02 0.000000e+00 0.000000e+00
 0.000000e+00 0.000000e+00 0.000000e+00 9.640546e-01 3.594537e-02 0.000000e+00
 0.000000e+00 0.000000e+00 0.000000e+00 0.000000e+00 9.619688e-01 3.803112e-02
 0.000000e+00 0.000000e+00 0.000000e+00 0.000000e+00 0.000000e+00 0.000000e+00
<ENDHMM>
~h "monkey"
<BEGINHMM>
<NUMSTATES> 6
<STATE> 2
<MEAN> 16
 3.882919e-01 -4.455093e-01 1.935195e+00 -2.811667e-01 -2.703898e-01 1.837463e+00 3.099901e-03 -2.737128e-03 5.157047e-03 2.413207e-03 -1.083932e-04 2.375318e-03 1.036899e-01 1.023775e-01 8.577015e-02 7.474920e-02
<VARIANCE> 16
 2.209920e-02 3.336922e-02 4.171687e-02 1.112300e-02 5.655272e-02 2.867290e-02 1.000000e-03 1.306349e-03 3.989619e-03 1.000000e-03 1.102305e-03 3.030000e-03 1.000000e-03 1.000000e-03 1.000000e-03 1.000000e-03
<GCONST> -5.812694e+01
<STATE> 3
<MEAN> 16
 2.654146e-01 -1.077067e-01 1.919334e+00 -2.782709e-01 -5.777331e-02 1.871355e+00 -7.289980e-04 1.961655e-03 -2.760400e-03 5.908187e-04 -6.117938e-06 -1.112927e-03 1.075194e-01 1.078615e-01 8.615487e-02 7.552636e-02
<VARIANCE> 16
 3.625583e-02 4.708558e-02 2.174597e-02 7.976563e-03 1.341029e-02 2.116960e-02 1.310847e-03 1.920959e-03 3.545506e-03 1.000000e-03 1.000000e-03 3.175060e-03 1.000000e-03 1.000000e-03 1.000000e-03 1.000000e-03
<GCONST> -5.952646e+01
<STATE> 4
<MEAN> 16
 1.684999e-01 -4.547505e-02 1.552121e+00 -2.657161e-01 6.021890e-03 1.526797e+00 3.530896e-03 -4.711698e-03 -2.078290e-03 1.037710e-04 -5.194492e-03 -8.977433e-04 9.504291e-02 9.558612e-02 7.911146e-02 6.789832e-02
<VARIANCE> 16
 4.637123e-02 3.454988e-02 2.745689e-02 9.488008e-03 1.629291e-02 2.123468e-02 1.308816e-03 1.529163e-03 2.137133e-03 1.000000e-03 1.000000e-03 1.832040e-03 1.000000e-03 1.000000e-03 1.000000e-03 1.000000e-03
<GCONST> -6.027122e+01
<STATE> 5
<MEAN> 16
 5.770282e-01 -6.740714e-01 1.850411e+00 -2.037233e-01 -5.832051e-01 1.801800e+00 6.861679e-03 -1.079895e-02 3.394156e-03 2.556928e-03 -1.086008e-02 2.711560e-03 1.142541e-01 1.069741e-01 9.456686e-02 7.367387e-02
<VARIANCE> 16
 1.641154e-02 9.167718e-03 1.808544e-02 1.779809e-02 1.460672e-02 8.927013e-03 1.000000e-03 1.000000e-03 2.272403e-03 1.000000e-03 1.050628e-03 2.041534e-03 1.000000e-03 1.000000e-03 1.000000e-03 1.000000e-03
<GCONST> -6.387569e+01
<TRANSP> 6
 0.000000e+00 1.000000e+00 0.000000e+00 0.000000e+00 0.000000e+00 0.000000e+00
 0.000000e+00 6.702329e-01 3.297671e-01 0.000000e+00 0.000000e+00 0.000000e+00
 0.000000e+00 0.000000e+00 9.689775e-01 3.102258e-02 0.000000e+00 0.000000e+00
 0.000000e+00 0.000000e+00 0.000000e+00 9.599906e-01 4.000937e-02 0.000000e+00
 0.000000e+00 0.000000e+00 0.000000e+00 0.000000e+00 9.629927e-01 3.700727e-02
 0.000000e+00 0.000000e+00 0.000000e+00 0.000000e+00 0.000000e+00 0.000000e+00
<ENDHMM>
~h "bumps_into_each_other"
<BEGINHMM>
<NUMSTATES> 6
<STATE> 2
<MEAN> 16
 4.061119e-01 -5.441944e-01 1.900509e+00 -2.861287e-01 -2.367791e-01 1.820200e+00 -2.494219e-03 7.597114e-03 4.207938e-03 -6.842849e-03 8.161745e-03 1.049185e-03 1.067667e-01 9.463124e-02 8.677509e-02 8.296777e-02
<VARIANCE> 16
 1.924270e-02 3.059544e-02 2.686901e-02 1.928736e-02 4.513423e-02 2.908705e-02 1.000000e-03 1.331979e-03 4.089759e-03 1.000000e-03 2.538284e-03 3.372308e-03 1.040893e-03 1.000000e-03 1.000000e-03 1.000000e-03
<GCONST> -5.742740e+01
<STATE> 3
<MEAN> 16
 3.050888e-01 -1.776247e-01 1.898401e+00 -3.004731e-01 -7.471553e-02 1.825133e+00 -7.092435e-04 4.987479e-03 -1.887521e-03 3.304297e-04 3.259441e-03 -1.773630e-03 9.525060e-02 1.031377e-01 8.476540e-02 7.991572e-02
<VARIANCE> 16
 1.448938e-02 5.798170e-02 2.142130e-02 1.249763e-02 2.430849e-02 1.841679e-02 1.254779e-03 3.026599e-03 4.672631e-03 1.000000e-03 1.477815e-03 3.878296e-03 1.000000e-03 1.000000e-03 1.000000e-03 1.000000e-03
<GCONST> -5.806842e+01
<STATE> 4
<MEAN> 16
 2.776180e-01 -6.966958e-02 1.593944e+00 -3.257791e-01 1.006292e-02 1.550658e+00 1.572700e-03 -1.391647e-03 -7.747613e-04 -4.229984e-04 -2.151681e-03 -9.322623e-04 9.097973e-02 1.009154e-01 7.927505e-02 8.179895e-02
<VARIANCE> 16
 1.678597e-02 4.320529e-02 2.835339e-02 1.066057e-02 1.358300e-02 2.179220e-02 1.000000e-03 1.670158e-03 2.083512e-03 1.000000e-03 1.000000e-03 1.772517e-03 1.000000e-03 1.000000e-03 1.000000e-03 1.000000e-03
<GCONST> -6.131051e+01
<STATE> 5
<MEAN> 16
 4.362225e-01 -4.727964e-01 1.817884e+00 -3.053316e-01 -3.245276e-01 1.765926e+00 5.129071e-03 -1.589497e-02 8.283490e-03 1.735139e-03 -1.557418e-02 7.576897e-03 1.059523e-01 9.703273e-02 8.874899e-02 7.971635e-02
<VARIANCE> 16
 2.453466e-02 4.145152e-02 2.550914e-02 1.983267e-02 6.479061e-02 2.248138e-02 1.000000e-03 1.507730e-03 3.972141e-03 1.000000e-03 1.361411e-03 3.079992e-03 1.000000e-03 1.000000e-03 1.000000e-03 1.000000e-03
<GCONST> -5.745987e+01
<TRANSP> 6
 0.000000e+00 1.000000e+00 0.000000e+00 0.000000e+00 0.000000e+00 0.000000e+00
 0.000000e+00 8.057145e-01 1.942854e-01 0.000000e+00 0.000000e+00 0.000000e+00
 0.000000e+00 0.000000e+00 9.549272e-01 4.507281e-02 0.000000e+00 0.000000e+00
 0.000000e+00 0.000000e+00 0.000000e+00 9.259318e-01 7.406817e-02 0.000000e+00
 0.000000e+00 0.000000e+00 0.000000e+00 0.000000e+00 6.621082e-01 3.378917e-01
 0.000000e+00 0.000000e+00 0.000000e+00 0.000000e+00 0.000000e+00 0.000000e+00
<ENDHMM>
~h "jumps_on"
<BEGINHMM>
<NUMSTATES> 6
<STATE> 2
<MEAN> 16
 4.060466e-01 -5.338735e-01 1.922651e+00 -2.622876e-01 -2.567192e-01 1.809461e+00 -3.214344e-03 6.756581e-03 3.435006e-03 -3.245795e-03 9.270103e-03 -1.043382e-03 1.112477e-01 1.018127e-01 8.695036e-02 8.299090e-02
<VARIANCE> 16
 1.724203e-02 2.963498e-02 2.941326e-02 1.682670e-02 5.053443e-02 3.328076e-02 1.000000e-03 1.380116e-03 4.655235e-03 1.000000e-03 2.690224e-03 3.479824e-03 1.225753e-03 1.005543e-03 1.000000e-03 1.000000e-03
<GCONST> -5.694386e+01
<STATE> 3
<MEAN> 16
 2.580433e-01 -1.801668e-01 1.900110e+00 -2.810865e-01 -8.679605e-02 1.787973e+00 -3.425202e-03 6.412634e-03 -2.247460e-03 7.641236e-04 3.279585e-03 -2.372599e-03 1.014550e-01 1.114180e-01 8.407398e-02 8.531386e-02
<VARIANCE> 16
 2.736706e-02 6.877124e-02 2.097056e-02 1.171670e-02 2.439612e-02 2.071141e-02 1.282305e-03 2.648662e-03 4.965570e-03 1.000000e-03 1.380525e-03 3.842036e-03 1.000000e-03 1.055481e-03 1.000000e-03 1.000000e-03
<GCONST> -5.730098e+01
<STATE> 4
<MEAN> 16
 8.658083e-02 -1.563375e-02 1.599918e+00 -2.313233e-01 -4.538618e-02 1.506654e+00 3.342354e-04 -2.593825e-03 -7.383808e-04 2.151311e-04 -2.302343e-03 -2.779803e-04 9.383558e-02 1.078430e-01 7.621286e-02 8.371557e-02
<VARIANCE> 16
 5.391384e-02 5.140243e-02 4.032905e-02 1.170748e-02 1.318996e-02 2.862752e-02 1.415450e-03 1.962624e-03 3.100861e-03 1.000000e-03 1.000000e-03 2.483981e-03 1.000000e-03 1.000000e-03 1.000000e-03 1.000000e-03
<GCONST> -5.803659e+01
<STATE> 5
<MEAN> 16
 4.059787e-01 -4.907546e-01 1.826027e+00 -2.758976e-01 -3.423496e-01 1.755935e+00 1.353818e-02 -1.872175e-02 1.000756e-02 1.236526e-04 -1.391120e-02 8.839745e-03 1.105150e-01 1.027932e-01 8.925627e-02 7.959786e-02
<VARIANCE> 16
 3.456649e-02 3.616345e-02 2.870254e-02 2.119534e-02 6.377847e-02 2.267135e-02 1.337356e-03 1.846763e-03 4.218996e-03 1.000000e-03 1.209962e-03 2.909031e-03 1.000000e-03 1.000000e-03 1.000000e-03 1.000000e-03
<GCONST> -5.669770e+01
<TRANSP> 6
 0.000000e+00 1.000000e+00 0.000000e+00 0.000000e+00 0.000000e+00 0.000000e+00
 0.000000e+00 8.021365e-01 1.978635e-01 0.000000e+00 0.000000e+00 0.000000e+00
 0.000000e+00 0.000000e+00 9.446008e-01 5.539924e-02 0.000000e+00 0.000000e+00
 0.000000e+00 0.000000e+00 0.000000e+00 9.442396e-01 5.576041e-02 0.000000e+00
 0.000000e+00 0.000000e+00 0.000000e+00 0.000000e+00 6.862695e-01 3.137305e-01
 0.000000e+00 0.000000e+00 0.000000e+00 0.000000e+00 0.000000e+00 0.000000e+00
<ENDHMM>
~h "house"
<BEGINHMM>
<NUMSTATES> 6
<STATE> 2
<MEAN> 16
 4.052948e-01 -4.847089e-01 1.856283e+00 -2.964380e-01 -3.184741e-01 1.764840e+00 5.812100e-03 -6.847320e-03 6.270932e-03 1.094291e-03 -6.420746e-03 5.530064e-03 1.107795e-01 1.044256e-01 8.972055e-02 8.573987e-02
<VARIANCE> 16
 2.805798e-02 3.542320e-02 3.087419e-02 1.275967e-02 7.103383e-02 2.508740e-02 1.000000e-03 1.253602e-03 4.160481e-03 1.000000e-03 1.468651e-03 3.079849e-03 1.000000e-03 1.000000e-03 1.000000e-03 1.000000e-03
<GCONST> -5.759381e+01
<STATE> 3
<MEAN> 16
 2.623781e-01 -1.288171e-01 1.877514e+00 -2.914319e-01 -2.218627e-02 1.786403e+00 -5.988828e-04 2.677397e-03 -2.082956e-03 4.023974e-04 -6.926316e-04 6.697472e-05 1.062230e-01 1.099521e-01 8.511945e-02 9.957751e-02
<VARIANCE> 16
 3.701223e-02 5.109618e-02 1.594648e-02 5.221913e-03 2.048289e-02 1.462822e-02 1.483280e-03 2.035729e-03 4.665494e-03 1.000000e-03 1.000000e-03 3.568968e-03 1.000000e-03 1.000000e-03 1.000000e-03 1.000000e-03
<GCONST> -5.953087e+01
<STATE> 4
<MEAN> 16
 1.171676e-01 -6.216782e-02 1.598563e+00 -2.820376e-01 -4.595486e-02 1.545746e+00 3.450152e-03 -6.760337e-03 -1.202046e-03 5.613171e-04 -5.133311e-03 7.059383e-04 9.807582e-02 9.293348e-02 7.384922e-02 8.911048e-02
<VARIANCE> 16
 5.733019e-02 3.477427e-02 3.165654e-02 1.013996e-02 2.220910e-02 3.481422e-02 1.627714e-03 1.359785e-03 3.078827e-03 1.000000e-03 1.000000e-03 2.508439e-03 1.000000e-03 1.000000e-03 1.000000e-03 1.000000e-03
<GCONST> -5.825968e+01
<STATE> 5
<MEAN> 16
 5.880734e-01 -6.846832e-01 1.862551e+00 -1.937746e-01 -5.718641e-01 1.803281e+00 7.179344e-03 -9.513125e-03 3.054956e-03 3.135555e-03 -1.080991e-02 3.385417e-03 1.142682e-01 1.072894e-01 9.576730e-02 7.339554e-02
<VARIANCE> 16
 1.837843e-02 7.123628e-03 1.649656e-02 1.504812e-02 1.585121e-02 9.217894e-03 1.000000e-03 1.000000e-03 2.049453e-03 1.000000e-03 1.000000e-03 1.832922e-03 1.000000e-03 1.000000e-03 1.000000e-03 1.000000e-03
<GCONST> -6.442118e+01
<TRANSP> 6
 0.000000e+00 1.000000e+00 0.000000e+00 0.000000e+00 0.000000e+00 0.000000e+00
 0.000000e+00 6.728990e-01 3.271011e-01 0.000000e+00 0.000000e+00 0.000000e+00
 0.000000e+00 0.000000e+00 9.582511e-01 4.174888e-02 0.000000e+00 0.000000e+00
 0.000000e+00 0.000000e+00 0.000000e+00 9.492373e-01 5.076265e-02 0.000000e+00
 0.000000e+00 0.000000e+00 0.000000e+00 0.000000e+00 9.610516e-01 3.894842e-02
 0.000000e+00 0.000000e+00 0.000000e+00 0.000000e+00 0.000000e+00 0.000000e+00
<ENDHMM>
~h "bumps_into"
<BEGINHMM>
<NUMSTATES> 6
<STATE> 2
<MEAN> 16
 4.045700e-01 -5.150373e-01 1.901511e+00 -3.108316e-01 -2.339325e-01 1.802901e+00 -1.747341e-03 6.604162e-03 3.214688e-03 -5.055103e-03 7.511282e-03 -4.406462e-04 1.089247e-01 1.010851e-01 8.697991e-02 8.402354e-02
<VARIANCE> 16
 1.891645e-02 3.497355e-02 2.746303e-02 1.720134e-02 4.393446e-02 2.955827e-02 4.023263e-03 3.153341e-03 4.376959e-03 2.075749e-03 7.776728e-03 4.393154e-03 1.130717e-03 1.000000e-03 1.000000e-03 1.000000e-03
<GCONST> -5.289528e+01
<STATE> 3
<MEAN> 16
 2.586663e-01 -1.773539e-01 1.886384e+00 -3.379039e-01 -7.127310e-02 1.790972e+00 -1.879926e-03 4.471282e-03 -1.961051e-03 2.204227e-04 2.727374e-03 -1.595803e-03 9.937192e-02 1.108447e-01 8.377260e-02 8.496624e-02
<VARIANCE> 16
 5.272046e-02 5.830686e-02 2.138765e-02 2.599097e-02 4.900929e-02 2.547110e-02 6.119756e-02 3.467799e-02 5.840886e-03 4.387707e-02 1.062720e-01 2.704896e-02 1.000000e-03 1.000000e-03 1.000000e-03 1.000000e-03
<GCONST> -3.846707e+01
<STATE> 4
<MEAN> 16
 2.270834e-01 -6.538765e-02 1.566929e+00 -3.302253e-01 -1.641065e-02 1.509581e+00 1.073759e-03 -2.381288e-03 -7.571196e-04 4.698906e-05 -8.242070e-04 -7.944461e-04 9.210595e-02 1.090976e-01 7.814551e-02 8.545295e-02
<VARIANCE> 16
 3.068611e-02 3.438494e-02 3.354556e-02 9.511966e-03 1.626223e-02 3.112936e-02 7.274678e-03 3.683903e-03 1.935573e-02 4.820660e-03 6.238933e-03 2.424158e-02 1.000000e-03 1.000000e-03 1.000000e-03 1.000000e-03
<GCONST> -4.932103e+01
<STATE> 5
<MEAN> 16
 4.283997e-01 -5.543852e-01 1.843869e+00 -2.092616e-01 -3.866651e-01 1.805123e+00 7.139015e-03 -1.226765e-02 8.473360e-03 1.406606e-03 -1.095927e-02 7.043950e-03 1.167640e-01 1.011343e-01 9.032534e-02 8.088338e-02
<VARIANCE> 16
 2.787479e-02 3.551610e-02 1.932218e-02 2.362218e-02 5.217094e-02 2.695877e-02 2.271831e-03 1.236970e-03 4.843769e-03 1.000000e-03 1.000000e-03 6.226375e-03 1.000000e-03 1.000000e-03 1.000000e-03 1.000000e-03
<GCONST> -5.640833e+01
<TRANSP> 6
 0.000000e+00 1.000000e+00 0.000000e+00 0.000000e+00 0.000000e+00 0.000000e+00
 0.000000e+00 7.732308e-01 2.267693e-01 0.000000e+00 0.000000e+00 0.000000e+00
 0.000000e+00 0.000000e+00 9.552541e-01 4.474594e-02 0.000000e+00 0.000000e+00
 0.000000e+00 0.000000e+00 0.000000e+00 9.538236e-01 4.617638e-02 0.000000e+00
 0.000000e+00 0.000000e+00 0.000000e+00 0.000000e+00 7.783911e-01 2.216089e-01
 0.000000e+00 0.000000e+00 0.000000e+00 0.000000e+00 0.000000e+00 0.000000e+00
<ENDHMM>
~h "goes_to"
<BEGINHMM>
<NUMSTATES> 6
<STATE> 2
<MEAN> 16
 3.945649e-01 -5.151137e-01 1.890948e+00 -2.980110e-01 -2.521493e-01 1.816339e+00 -2.249013e-03 7.137340e-03 2.507136e-03 -5.879934e-03 6.186901e-03 -1.774387e-04 1.088447e-01 1.006815e-01 8.592848e-02 8.367069e-02
<VARIANCE> 16
 1.592530e-02 3.255714e-02 2.853830e-02 1.863157e-02 4.941135e-02 2.614431e-02 1.000000e-03 1.507592e-03 4.035820e-03 1.000000e-03 2.101742e-03 3.254450e-03 1.156361e-03 1.000000e-03 1.000000e-03 1.000000e-03
<GCONST> -5.755344e+01
<STATE> 3
<MEAN> 16
 2.837772e-01 -1.808054e-01 1.883140e+00 -3.270451e-01 -8.714782e-02 1.804663e+00 -2.985394e-03 5.332238e-03 -1.972426e-03 -6.783097e-05 2.666739e-03 -1.653647e-03 1.005854e-01 1.123401e-01 8.449847e-02 8.587083e-02
<VARIANCE> 16
 2.320721e-02 5.635654e-02 2.128010e-02 1.085282e-02 2.305230e-02 1.852151e-02 1.014062e-03 2.600331e-03 4.318192e-03 1.000000e-03 1.002114e-03 3.414456e-03 1.000000e-03 1.000000e-03 1.000000e-03 1.000000e-03
<GCONST> -5.878043e+01
<STATE> 4
<MEAN> 16
 1.292638e-01 -7.664379e-02 1.577423e+00 -3.214739e-01 -2.882697e-02 1.526841e+00 -2.529236e-04 -2.442605e-03 -7.433336e-04 -2.474907e-08 -2.420387e-03 -6.520499e-05 9.390389e-02 1.038191e-01 7.718986e-02 8.260980e-02
<VARIANCE> 16
 4.991402e-02 3.197296e-02 3.262323e-02 9.328620e-03 1.459169e-02 3.130107e-02 1.327518e-03 1.402440e-03 2.374003e-03 1.000000e-03 1.000000e-03 2.120641e-03 1.000000e-03 1.000000e-03 1.000000e-03 1.000000e-03
<GCONST> -5.966283e+01
<STATE> 5
<MEAN> 16
 3.883571e-01 -4.574203e-01 1.805080e+00 -3.079619e-01 -3.623438e-01 1.782683e+00 1.514122e-02 -1.838038e-02 1.119129e-02 2.273836e-03 -1.516927e-02 9.939586e-03 1.060758e-01 1.043588e-01 8.737709e-02 7.955440e-02
<VARIANCE> 16
 3.317838e-02 3.910529e-02 3.027786e-02 1.755946e-02 6.965522e-02 2.193599e-02 1.472789e-03 2.074378e-03 4.204596e-03 1.000000e-03 1.564104e-03 3.531663e-03 1.000000e-03 1.000000e-03 1.000000e-03 1.000000e-03
<GCONST> -5.608012e+01
<TRANSP> 6
 0.000000e+00 1.000000e+00 0.000000e+00 0.000000e+00 0.000000e+00 0.000000e+00
 0.000000e+00 7.817537e-01 2.182464e-01 0.000000e+00 0.000000e+00 0.000000e+00
 0.000000e+00 0.000000e+00 9.512816e-01 4.871840e-02 0.000000e+00 0.000000e+00
 0.000000e+00 0.000000e+00 0.000000e+00 9.441333e-01 5.586677e-02 0.000000e+00
 0.000000e+00 0.000000e+00 0.000000e+00 0.000000e+00 6.677213e-01 3.322786e-01
 0.000000e+00 0.000000e+00 0.000000e+00 0.000000e+00 0.000000e+00 0.000000e+00
<ENDHMM>
