~o
<STREAMINFO> 1 16
<VECSIZE> 16<NULLD><USER><DIAGC>
~h "Monkey"
<BEGINHMM>
<NUMSTATES> 6
<STATE> 2
<NUMMIXES> 2
<MIXTURE> 1 5.544298e-01
<MEAN> 16
 6.250699e-01 -7.464071e-01 1.943427e+00 -1.420174e-01 -6.146767e-01 1.834598e+00 6.250699e-01 -7.464071e-01 1.943427e+00 -1.420174e-01 -6.146767e-01 1.834598e+00 1.107843e-01 1.151046e-01 9.533358e-02 7.380363e-02
<VARIANCE> 16
 7.707429e-03 1.000000e-03 4.283172e-03 2.672500e-03 3.534809e-03 3.388704e-03 7.707429e-03 1.000000e-03 4.283172e-03 2.672500e-03 3.534809e-03 3.388704e-03 1.000000e-03 1.000000e-03 1.000000e-03 1.000000e-03
<GCONST> -6.719205e+01
<MIXTURE> 2 4.455703e-01
<MEAN> 16
 5.622045e-01 -6.694873e-01 1.745263e+00 -2.966753e-01 -6.222637e-01 1.817033e+00 5.622045e-01 -6.694873e-01 1.745263e+00 -2.966753e-01 -6.222637e-01 1.817033e+00 1.210532e-01 9.865768e-02 9.910793e-02 6.782155e-02
<VARIANCE> 16
 2.028037e-03 1.603868e-03 8.686387e-03 2.710362e-02 1.372252e-02 1.296191e-02 2.028037e-03 1.603868e-03 8.686387e-03 2.710362e-02 1.372252e-02 1.296191e-02 1.000000e-03 1.000000e-03 1.000000e-03 1.000000e-03
<GCONST> -5.747413e+01
<STATE> 3
<NUMMIXES> 2
<MIXTURE> 1 7.150828e-01
<MEAN> 16
 6.140403e-01 -7.442085e-01 1.946943e+00 -1.459393e-01 -6.172600e-01 1.825566e+00 -1.076506e-03 2.321077e-03 3.027356e-04 -2.585731e-04 2.280743e-03 -5.188340e-04 1.141617e-01 1.156914e-01 1.021718e-01 7.485355e-02
<VARIANCE> 16
 6.022869e-03 1.000000e-03 4.115211e-03 1.823522e-03 1.000000e-03 2.371531e-03 1.000000e-03 1.000000e-03 1.000000e-03 1.000000e-03 1.000000e-03 1.000000e-03 1.000000e-03 1.000000e-03 1.000000e-03 1.000000e-03
<GCONST> -7.644350e+01
<MIXTURE> 2 2.849188e-01
<MEAN> 16
 5.875025e-01 -7.115411e-01 1.832381e+00 -2.656610e-01 -6.561985e-01 1.862710e+00 -1.035930e-03 1.540254e-03 1.999330e-03 2.920619e-04 2.836012e-03 -5.154952e-03 1.184972e-01 1.032131e-01 9.873269e-02 6.910756e-02
<VARIANCE> 16
 2.985814e-03 2.130640e-03 1.096008e-02 2.221697e-02 1.360622e-02 1.463536e-02 1.000000e-03 1.000000e-03 1.784390e-03 1.000000e-03 1.000000e-03 5.844709e-03 1.000000e-03 1.000000e-03 1.000000e-03 1.000000e-03
<GCONST> -6.613406e+01
<STATE> 4
<NUMMIXES> 2
<MIXTURE> 1 6.387548e-01
<MEAN> 16
 5.161741e-01 -6.618357e-01 1.866183e+00 -1.277934e-01 -5.835370e-01 1.812442e+00 -3.165459e-02 1.971255e-02 -2.632790e-03 -3.893987e-03 6.600720e-03 1.363789e-03 1.097822e-01 1.083159e-01 8.862342e-02 7.400769e-02
<VARIANCE> 16
 4.902410e-03 1.952236e-03 1.334181e-02 3.934196e-03 5.569158e-03 7.273605e-03 1.636976e-03 1.386861e-03 2.171381e-03 1.000000e-03 1.000000e-03 1.339304e-03 1.062330e-03 1.000000e-03 1.000000e-03 1.000000e-03
<GCONST> -6.924937e+01
<MIXTURE> 2 3.612446e-01
<MEAN> 16
 5.594603e-01 -6.291828e-01 1.692095e+00 -4.479288e-01 -6.697723e-01 1.807520e+00 -1.816609e-03 4.691593e-03 4.800254e-04 -3.187096e-03 8.363880e-03 -1.934452e-02 1.151036e-01 9.838129e-02 1.237825e-01 6.255428e-02
<VARIANCE> 16
 1.000000e-03 1.000000e-03 3.169603e-03 1.000000e-03 1.329191e-03 5.080889e-03 1.000000e-03 1.000000e-03 1.000000e-03 1.000000e-03 1.000000e-03 1.285838e-03 1.000000e-03 1.000000e-03 1.000000e-03 1.000000e-03
<GCONST> -7.780298e+01
<STATE> 5
<MEAN> 16
 3.781218e-01 -6.508993e-01 1.896286e+00 -1.613491e-01 -2.452874e-01 1.817340e+00 -5.418187e-03 4.921468e-03 3.886285e-05 -3.770681e-03 1.691604e-02 6.723170e-04 1.254375e-01 1.090752e-01 8.113363e-02 7.863953e-02
<VARIANCE> 16
 2.073066e-02 3.378968e-03 9.625400e-03 1.219047e-02 1.286660e-01 1.207411e-02 1.000000e-03 1.000000e-03 3.292753e-03 1.000000e-03 3.817737e-03 2.892433e-03 1.000000e-03 1.000000e-03 1.000000e-03 1.000000e-03
<GCONST> -6.116205e+01
<TRANSP> 6
 0.000000e+00 1.000000e+00 0.000000e+00 0.000000e+00 0.000000e+00 0.000000e+00
 0.000000e+00 0.000000e+00 1.000000e+00 0.000000e+00 0.000000e+00 0.000000e+00
 0.000000e+00 0.000000e+00 8.110255e-01 1.889746e-01 0.000000e+00 0.000000e+00
 0.000000e+00 0.000000e+00 0.000000e+00 7.207095e-01 2.792905e-01 0.000000e+00
 0.000000e+00 0.000000e+00 0.000000e+00 0.000000e+00 8.847017e-01 1.152983e-01
 0.000000e+00 0.000000e+00 0.000000e+00 0.000000e+00 0.000000e+00 0.000000e+00
<ENDHMM>
~h "fence"
<BEGINHMM>
<NUMSTATES> 6
<STATE> 2
<NUMMIXES> 2
<MIXTURE> 1 3.660190e-01
<MEAN> 16
 4.239393e-01 -3.053136e-01 1.995586e+00 -3.577642e-01 -1.799587e-01 1.889390e+00 9.284507e-03 -1.189328e-02 2.458125e-02 -4.922594e-03 -5.758734e-03 1.797224e-02 1.141831e-01 1.543628e-01 9.461015e-02 9.306447e-02
<VARIANCE> 16
 7.728063e-03 1.921727e-02 1.565432e-02 2.163797e-03 1.158854e-02 7.822509e-03 1.000000e-03 1.000000e-03 4.173688e-03 1.000000e-03 1.000000e-03 3.323636e-03 1.231579e-03 1.000000e-03 1.000000e-03 1.000000e-03
<GCONST> -6.524960e+01
<MIXTURE> 2 6.339725e-01
<MEAN> 16
 2.364969e-01 -2.507820e-01 1.811291e+00 -2.909287e-01 -2.588161e-01 1.751583e+00 -4.587405e-03 2.871991e-03 -1.554793e-02 1.439784e-03 4.294317e-05 -1.201442e-02 8.690374e-02 1.448118e-01 8.147486e-02 8.703338e-02
<VARIANCE> 16
 3.191210e-02 1.751683e-02 1.566321e-02 1.932283e-03 6.014138e-03 9.050434e-03 1.000000e-03 1.702146e-03 3.200773e-03 1.000000e-03 1.000000e-03 2.442503e-03 1.000000e-03 1.000000e-03 1.000000e-03 1.000000e-03
<GCONST> -6.479666e+01
<STATE> 3
<NUMMIXES> 2
<MIXTURE> 1 4.132826e-01
<MEAN> 16
 3.020952e-01 -6.697270e-02 1.914575e+00 -3.495443e-01 -1.057165e-01 1.853636e+00 3.545868e-03 -2.830601e-03 1.336646e-02 -2.349342e-03 -2.582836e-03 1.189990e-02 1.177789e-01 1.638011e-01 9.230673e-02 9.598158e-02
<VARIANCE> 16
 3.812159e-02 6.008663e-02 1.144824e-02 4.340701e-03 2.647223e-03 1.051898e-02 1.407428e-03 3.023085e-03 3.851042e-03 1.000000e-03 1.000000e-03 3.338042e-03 1.000000e-03 1.000000e-03 1.000000e-03 1.000000e-03
<GCONST> -6.214716e+01
<MIXTURE> 2 5.867090e-01
<MEAN> 16
 1.639825e-01 -6.903051e-02 1.729795e+00 -3.899885e-01 -9.603383e-02 1.696298e+00 -5.316975e-03 -1.004654e-03 -9.176604e-03 1.724778e-03 -1.710897e-04 -8.121552e-03 1.002990e-01 1.369814e-01 7.631106e-02 9.057482e-02
<VARIANCE> 16
 5.962049e-02 1.154094e-02 5.413575e-03 7.564009e-03 3.753338e-03 4.761726e-03 1.221353e-03 1.000000e-03 1.808860e-03 1.000000e-03 1.000000e-03 1.794491e-03 1.000000e-03 1.000000e-03 1.000000e-03 1.000000e-03
<GCONST> -6.661121e+01
<STATE> 4
<NUMMIXES> 2
<MIXTURE> 1 7.115676e-01
<MEAN> 16
 2.174875e-01 -9.049729e-02 1.525580e+00 -3.514750e-01 -3.270168e-02 1.456397e+00 -4.307739e-04 -5.433862e-04 -7.035031e-04 -2.015741e-05 -5.954274e-04 -2.040419e-04 9.543549e-02 1.434063e-01 8.252557e-02 8.588596e-02
<VARIANCE> 16
 3.711488e-02 2.816777e-02 2.718325e-02 6.716885e-03 2.323624e-03 1.426621e-02 1.000000e-03 1.000000e-03 1.000000e-03 1.000000e-03 1.000000e-03 1.000000e-03 1.000000e-03 1.000000e-03 1.000000e-03 1.000000e-03
<GCONST> -6.545761e+01
<MIXTURE> 2 2.884248e-01
<MEAN> 16
 2.270676e-01 -3.143780e-01 1.686712e+00 -2.952380e-01 -2.389379e-01 1.619376e+00 3.339658e-02 -3.849550e-02 1.421879e-02 5.333656e-03 -3.243064e-02 8.425483e-03 9.496085e-02 1.111552e-01 7.610236e-02 7.552256e-02
<VARIANCE> 16
 8.708802e-02 4.566861e-02 3.514562e-02 1.115249e-02 3.076760e-02 3.279396e-02 3.180025e-03 3.587491e-03 7.623613e-03 1.196060e-03 1.598629e-03 6.054295e-03 1.000000e-03 1.610346e-03 1.000000e-03 1.000000e-03
<GCONST> -5.255086e+01
<STATE> 5
<MEAN> 16
 5.812037e-01 -6.972316e-01 1.860974e+00 -1.860869e-01 -6.018131e-01 1.796004e+00 4.930738e-03 -5.364958e-03 8.098698e-04 2.949451e-03 -6.494273e-03 2.074753e-03 1.156346e-01 1.111295e-01 9.746028e-02 7.517657e-02
<VARIANCE> 16
 1.884861e-02 3.847793e-03 1.445289e-02 1.505445e-02 6.235997e-03 6.846952e-03 1.000000e-03 1.000000e-03 1.458752e-03 1.000000e-03 1.000000e-03 1.432600e-03 1.000000e-03 1.000000e-03 1.000000e-03 1.000000e-03
<GCONST> -6.696033e+01
<TRANSP> 6
 0.000000e+00 1.000000e+00 0.000000e+00 0.000000e+00 0.000000e+00 0.000000e+00
 0.000000e+00 9.556301e-01 4.436992e-02 0.000000e+00 0.000000e+00 0.000000e+00
 0.000000e+00 0.000000e+00 9.785944e-01 2.140562e-02 0.000000e+00 0.000000e+00
 0.000000e+00 0.000000e+00 0.000000e+00 9.655402e-01 3.445977e-02 0.000000e+00
 0.000000e+00 0.000000e+00 0.000000e+00 0.000000e+00 9.610710e-01 3.892904e-02
 0.000000e+00 0.000000e+00 0.000000e+00 0.000000e+00 0.000000e+00 0.000000e+00
<ENDHMM>
~h "Car"
<BEGINHMM>
<NUMSTATES> 6
<STATE> 2
<NUMMIXES> 2
<MIXTURE> 1 5.307471e-01
<MEAN> 16
 6.260499e-01 -7.415385e-01 1.929137e+00 -1.424084e-01 -6.077625e-01 1.831370e+00 6.260499e-01 -7.415385e-01 1.929137e+00 -1.424084e-01 -6.077625e-01 1.831370e+00 1.106069e-01 1.141355e-01 9.630018e-02 8.122160e-02
<VARIANCE> 16
 6.568925e-03 1.000000e-03 3.761714e-03 3.079621e-03 3.316569e-03 3.829110e-03 6.568925e-03 1.000000e-03 3.761714e-03 3.079621e-03 3.316569e-03 3.829110e-03 1.000000e-03 1.000000e-03 1.000000e-03 1.000000e-03
<GCONST> -6.737086e+01
<MIXTURE> 2 4.692528e-01
<MEAN> 16
 5.685331e-01 -6.779312e-01 1.742955e+00 -3.049905e-01 -6.353503e-01 1.820306e+00 5.685331e-01 -6.779312e-01 1.742955e+00 -3.049905e-01 -6.353503e-01 1.820306e+00 1.187126e-01 9.452566e-02 1.012400e-01 6.581526e-02
<VARIANCE> 16
 2.640335e-03 1.783262e-03 8.526810e-03 2.280213e-02 1.576048e-02 1.346448e-02 2.640335e-03 1.783262e-03 8.526810e-03 2.280213e-02 1.576048e-02 1.346448e-02 1.000000e-03 1.066866e-03 1.000000e-03 1.000000e-03
<GCONST> -5.669937e+01
<STATE> 3
<NUMMIXES> 2
<MIXTURE> 1 3.873025e-01
<MEAN> 16
 6.007518e-01 -7.358022e-01 1.933832e+00 -1.029996e-01 -1.603671e-01 1.783928e+00 2.211912e-03 -3.228391e-03 1.117440e-02 -3.982470e-04 1.354901e-02 8.152443e-03 1.213048e-01 1.143950e-01 9.151219e-02 8.168802e-02
<VARIANCE> 16
 3.943861e-03 1.000000e-03 6.135086e-03 1.128940e-02 1.158245e-01 8.070282e-03 1.000000e-03 1.000000e-03 4.075998e-03 1.772963e-03 4.920149e-03 4.495146e-03 1.000000e-03 1.000000e-03 1.000000e-03 1.000000e-03
<GCONST> -6.359364e+01
<MIXTURE> 2 6.126971e-01
<MEAN> 16
 5.913718e-01 -7.069764e-01 1.825772e+00 -2.573524e-01 -4.344497e-01 1.776913e+00 -1.303452e-03 4.223471e-03 -7.509187e-03 -2.158293e-03 2.459756e-03 -1.049566e-02 1.250746e-01 1.007358e-01 9.346200e-02 7.724892e-02
<VARIANCE> 16
 1.444383e-03 1.506624e-03 9.090617e-03 2.327585e-02 8.929647e-02 1.688680e-02 1.000000e-03 1.000000e-03 1.510723e-03 1.000000e-03 1.000000e-03 1.711535e-03 1.000000e-03 1.000000e-03 1.000000e-03 1.000000e-03
<GCONST> -6.671737e+01
<STATE> 4
<NUMMIXES> 2
<MIXTURE> 1 6.394917e-01
<MEAN> 16
 6.156973e-01 -7.359118e-01 1.921854e+00 -1.898146e-01 -6.158314e-01 1.852178e+00 -1.134743e-03 4.064757e-03 4.437240e-04 -1.425678e-03 3.973150e-03 -1.028379e-03 1.153816e-01 1.076792e-01 1.095262e-01 7.739754e-02
<VARIANCE> 16
 5.093608e-03 1.170909e-03 5.874143e-03 7.110375e-03 1.033899e-02 7.878851e-03 1.000000e-03 1.000000e-03 1.000000e-03 1.000000e-03 1.000000e-03 1.000000e-03 1.000000e-03 1.000000e-03 1.000000e-03 1.000000e-03
<GCONST> -7.120007e+01
<MIXTURE> 2 3.605086e-01
<MEAN> 16
 5.444397e-01 -6.386503e-01 1.669914e+00 -3.576775e-01 -6.372016e-01 1.772187e+00 -2.463151e-03 3.407615e-03 2.065217e-05 -9.580075e-04 7.353795e-03 -1.222505e-02 1.161620e-01 9.640669e-02 1.231601e-01 6.198858e-02
<VARIANCE> 16
 1.067965e-03 1.039425e-03 2.013682e-03 1.997899e-02 3.628535e-03 5.075753e-03 1.000000e-03 1.000000e-03 1.000000e-03 1.000000e-03 1.000000e-03 1.000000e-03 1.000000e-03 1.000000e-03 1.000000e-03 1.000000e-03
<GCONST> -7.440569e+01
<STATE> 5
<MEAN> 16
 3.905231e-01 -6.295745e-01 1.877372e+00 -1.785799e-01 -5.973327e-01 1.831981e+00 -2.136239e-02 1.367075e-02 -4.073424e-04 -5.051222e-03 7.451524e-03 -1.409124e-04 1.167822e-01 1.124949e-01 8.298986e-02 7.396973e-02
<VARIANCE> 16
 1.977039e-02 2.150458e-03 9.313835e-03 7.481678e-03 7.320283e-03 6.584063e-03 1.298481e-03 1.080002e-03 3.056210e-03 1.000000e-03 1.000000e-03 2.133529e-03 1.000000e-03 1.000000e-03 1.000000e-03 1.000000e-03
<GCONST> -6.703582e+01
<TRANSP> 6
 0.000000e+00 1.000000e+00 0.000000e+00 0.000000e+00 0.000000e+00 0.000000e+00
 0.000000e+00 0.000000e+00 1.000000e+00 0.000000e+00 0.000000e+00 0.000000e+00
 0.000000e+00 0.000000e+00 7.644148e-01 2.355852e-01 0.000000e+00 0.000000e+00
 0.000000e+00 0.000000e+00 0.000000e+00 8.080052e-01 1.919948e-01 0.000000e+00
 0.000000e+00 0.000000e+00 0.000000e+00 0.000000e+00 7.892730e-01 2.107271e-01
 0.000000e+00 0.000000e+00 0.000000e+00 0.000000e+00 0.000000e+00 0.000000e+00
<ENDHMM>
~h "Man"
<BEGINHMM>
<NUMSTATES> 6
<STATE> 2
<NUMMIXES> 2
<MIXTURE> 1 1.874264e-01
<MEAN> 16
 6.640671e-01 -7.239079e-01 1.968412e+00 -1.574889e-01 -5.504804e-01 1.829462e+00 6.640671e-01 -7.239079e-01 1.968412e+00 -1.574889e-01 -5.504804e-01 1.829462e+00 1.105985e-01 1.037449e-01 1.003901e-01 7.457272e-02
<VARIANCE> 16
 1.066251e-01 3.873394e-02 5.433256e-03 1.488181e-02 4.623213e-02 1.819970e-02 1.066251e-01 3.873394e-02 5.433256e-03 1.488181e-02 4.623213e-02 1.819970e-02 1.000000e-03 1.000000e-03 1.000000e-03 1.000000e-03
<GCONST> -4.221047e+01
<MIXTURE> 2 8.125738e-01
<MEAN> 16
 5.696455e-01 -6.995828e-01 1.818628e+00 -2.293272e-01 -6.304467e-01 1.815791e+00 5.696455e-01 -6.995828e-01 1.818628e+00 -2.293272e-01 -6.304467e-01 1.815791e+00 1.155725e-01 1.056625e-01 1.003713e-01 7.088901e-02
<VARIANCE> 16
 2.118707e-03 2.137388e-03 1.658955e-02 2.110861e-02 5.023727e-03 7.241989e-03 2.118707e-03 2.137388e-03 1.658955e-02 2.110861e-02 5.023727e-03 7.241989e-03 1.000000e-03 1.000000e-03 1.000000e-03 1.000000e-03
<GCONST> -5.919223e+01
<STATE> 3
<NUMMIXES> 2
<MIXTURE> 1 5.718789e-01
<MEAN> 16
 7.599663e-01 -4.729547e-01 2.192105e+00 -2.663207e-01 -5.148085e-01 1.887231e+00 1.254553e+00 -4.126377e-01 8.945530e-02 5.476478e-01 -8.123991e-01 -1.573854e-02 1.154913e-01 1.142820e-01 1.061437e-01 7.747708e-02
<VARIANCE> 16
 1.274373e-01 3.399637e-02 1.224759e-01 5.812920e-02 2.972224e-02 4.382030e-02 7.035137e-01 7.831988e-02 1.246282e-01 2.018770e-01 2.970540e-01 1.961215e-01 1.000000e-03 1.000000e-03 1.000000e-03 1.000000e-03
<GCONST> -2.467907e+01
<MIXTURE> 2 4.281212e-01
<MEAN> 16
 -8.555632e-01 1.553377e-01 2.189966e+00 -1.015243e+00 6.039043e-01 1.933037e+00 -1.673357e+00 5.493888e-01 -1.188956e-01 -7.306773e-01 1.084546e+00 2.173747e-02 7.668991e-02 6.536619e-02 6.306764e-02 7.538281e-02
<VARIANCE> 16
 2.120863e-02 2.486446e-02 2.414532e-01 4.430543e-02 7.870854e-02 3.040031e-01 2.364311e-01 2.863795e-02 1.596984e-01 1.350348e-01 9.978656e-02 2.550375e-01 1.000000e-03 1.000000e-03 1.000000e-03 1.000000e-03
<GCONST> -2.654598e+01
<STATE> 4
<NUMMIXES> 2
<MIXTURE> 1 6.470115e-01
<MEAN> 16
 4.901273e-01 -6.926019e-01 1.929832e+00 -1.371401e-01 -6.148636e-01 1.855767e+00 -6.297413e-03 3.037398e-03 4.694829e-03 -1.655967e-03 1.411209e-03 4.583674e-03 1.180052e-01 1.133842e-01 9.276322e-02 7.496077e-02
<VARIANCE> 16
 2.921183e-02 4.207098e-03 5.193855e-03 2.716013e-03 1.000000e-03 4.446039e-03 1.000000e-03 1.000000e-03 1.000000e-03 1.000000e-03 1.000000e-03 1.000000e-03 1.000000e-03 1.000000e-03 1.000000e-03 1.000000e-03
<GCONST> -7.216805e+01
<MIXTURE> 2 3.529884e-01
<MEAN> 16
 4.555123e-01 -6.527758e-01 1.804201e+00 -1.930667e-01 -6.019611e-01 1.814418e+00 -2.051670e-02 1.014851e-02 -1.258676e-02 -7.750740e-04 4.177794e-03 -1.277669e-02 1.152855e-01 1.048679e-01 8.999119e-02 7.005100e-02
<VARIANCE> 16
 1.811485e-02 2.110743e-03 1.121320e-02 1.732759e-02 5.857910e-03 6.467088e-03 1.619146e-03 1.165223e-03 3.103269e-03 1.000000e-03 1.000000e-03 2.290862e-03 1.000000e-03 1.000000e-03 1.000000e-03 1.000000e-03
<GCONST> -6.597417e+01
<STATE> 5
<MEAN> 16
 4.643456e-01 -6.613726e-01 1.855558e+00 -1.802006e-01 -1.220725e-01 1.782662e+00 -1.964281e-03 4.061763e-03 1.921334e-03 -2.198432e-03 2.303618e-02 -1.158425e-03 1.226345e-01 1.013048e-01 9.832958e-02 8.073264e-02
<VARIANCE> 16
 1.978181e-02 4.327951e-03 2.026108e-02 2.129832e-02 1.263003e-01 2.124684e-02 1.000000e-03 1.000000e-03 2.816839e-03 1.000000e-03 5.271874e-03 3.007688e-03 1.000000e-03 1.000000e-03 1.000000e-03 1.000000e-03
<GCONST> -5.890683e+01
<TRANSP> 6
 0.000000e+00 1.000000e+00 0.000000e+00 0.000000e+00 0.000000e+00 0.000000e+00
 0.000000e+00 0.000000e+00 1.000000e+00 0.000000e+00 0.000000e+00 0.000000e+00
 0.000000e+00 0.000000e+00 8.594458e-01 1.405542e-01 0.000000e+00 0.000000e+00
 0.000000e+00 0.000000e+00 0.000000e+00 8.976431e-01 1.023569e-01 0.000000e+00
 0.000000e+00 0.000000e+00 0.000000e+00 0.000000e+00 8.732058e-01 1.267941e-01
 0.000000e+00 0.000000e+00 0.000000e+00 0.000000e+00 0.000000e+00 0.000000e+00
<ENDHMM>
~h "car"
<BEGINHMM>
<NUMSTATES> 6
<STATE> 2
<NUMMIXES> 2
<MIXTURE> 1 4.840672e-01
<MEAN> 16
 3.268312e-01 -4.630378e-01 2.088881e+00 -2.635317e-01 5.173204e-02 1.872142e+00 3.526991e-03 -7.503415e-04 4.932249e-03 -8.172533e-04 -8.018732e-03 1.944593e-03 1.016645e-01 1.342920e-01 9.340108e-02 8.516995e-02
<VARIANCE> 16
 1.231703e-02 5.660274e-03 1.395979e-02 1.161577e-03 1.039515e-02 9.157700e-03 1.000000e-03 1.000000e-03 1.000000e-03 1.000000e-03 1.000000e-03 1.000000e-03 1.000000e-03 1.000000e-03 1.000000e-03 1.000000e-03
<GCONST> -6.953171e+01
<MIXTURE> 2 5.159264e-01
<MEAN> 16
 2.871111e-01 -2.512997e-01 1.868632e+00 -2.956436e-01 -8.270027e-02 1.822523e+00 3.288348e-03 -1.375689e-02 -3.737366e-03 8.758900e-04 -1.573887e-03 -6.301833e-03 8.301082e-02 9.977406e-02 7.987539e-02 8.225074e-02
<VARIANCE> 16
 1.729736e-02 2.066528e-02 1.870500e-02 4.485275e-03 4.525824e-02 1.259965e-02 1.000000e-03 1.000000e-03 3.830029e-03 1.000000e-03 1.000000e-03 3.143682e-03 1.000000e-03 1.000000e-03 1.000000e-03 1.000000e-03
<GCONST> -6.197514e+01
<STATE> 3
<NUMMIXES> 2
<MIXTURE> 1 7.029215e-01
<MEAN> 16
 3.286427e-01 5.230199e-02 1.899480e+00 -3.080334e-01 4.975678e-02 1.873191e+00 2.742771e-03 1.508603e-03 9.656309e-06 -1.624682e-03 -2.099549e-03 1.421591e-03 1.164521e-01 1.374293e-01 8.866615e-02 8.214607e-02
<VARIANCE> 16
 2.507712e-02 2.384447e-02 1.407369e-02 2.137161e-03 1.898714e-03 1.420650e-02 1.000000e-03 2.028206e-03 1.000000e-03 1.000000e-03 1.000000e-03 1.000000e-03 1.000000e-03 1.000000e-03 1.000000e-03 1.000000e-03
<GCONST> -6.731873e+01
<MIXTURE> 2 2.970701e-01
<MEAN> 16
 2.808031e-01 -1.161724e-01 1.896236e+00 -2.700763e-01 -5.773045e-02 1.867437e+00 1.148218e-02 -1.501221e-02 2.630875e-03 1.175503e-03 -1.368552e-02 2.967294e-04 1.119127e-01 1.141946e-01 8.451351e-02 8.486468e-02
<VARIANCE> 16
 8.764468e-02 7.712639e-02 1.873384e-02 1.344494e-02 3.332970e-02 1.656680e-02 4.287037e-03 5.238339e-03 1.194765e-02 1.614821e-03 1.573827e-03 1.003261e-02 1.000000e-03 1.000000e-03 1.000000e-03 1.000000e-03
<GCONST> -5.162582e+01
<STATE> 4
<NUMMIXES> 2
<MIXTURE> 1 6.463673e-01
<MEAN> 16
 1.890427e-01 -1.895569e-02 1.724341e+00 -4.039013e-01 -4.221914e-02 1.657948e+00 -7.960034e-04 -2.011677e-03 2.053962e-03 -1.060721e-03 -1.005912e-03 2.595083e-03 9.168690e-02 1.177823e-01 7.013807e-02 7.977220e-02
<VARIANCE> 16
 3.095711e-02 1.671503e-02 1.144877e-02 2.712757e-03 4.018049e-03 5.605082e-03 1.000000e-03 1.000000e-03 1.000000e-03 1.000000e-03 1.000000e-03 1.000000e-03 1.000000e-03 1.000000e-03 1.000000e-03 1.000000e-03
<GCONST> -6.831883e+01
<MIXTURE> 2 3.536224e-01
<MEAN> 16
 2.389251e-01 -1.364832e-01 1.656682e+00 -3.595995e-01 -8.183826e-02 1.579887e+00 4.446877e-03 -1.596842e-02 -1.343413e-03 5.771426e-03 -1.689273e-02 -3.375750e-03 9.409104e-02 1.090418e-01 7.688319e-02 8.467080e-02
<VARIANCE> 16
 4.466894e-02 5.962165e-02 4.670172e-02 7.363719e-03 3.181335e-02 2.602121e-02 2.434222e-03 3.387153e-03 7.132475e-03 1.000000e-03 1.345232e-03 4.973460e-03 1.000000e-03 1.000000e-03 1.000000e-03 1.000000e-03
<GCONST> -5.469666e+01
<STATE> 5
<MEAN> 16
 5.799832e-01 -6.944262e-01 1.855466e+00 -1.934594e-01 -6.064540e-01 1.814086e+00 4.519413e-03 -5.729293e-03 6.994160e-04 3.495944e-03 -6.739718e-03 2.067024e-03 1.163229e-01 1.075906e-01 9.742537e-02 7.494156e-02
<VARIANCE> 16
 1.574208e-02 3.187416e-03 1.541593e-02 1.824083e-02 5.157308e-03 6.921178e-03 1.000000e-03 1.000000e-03 1.588494e-03 1.000000e-03 1.000000e-03 1.661381e-03 1.000000e-03 1.000000e-03 1.000000e-03 1.000000e-03
<GCONST> -6.701801e+01
<TRANSP> 6
 0.000000e+00 1.000000e+00 0.000000e+00 0.000000e+00 0.000000e+00 0.000000e+00
 0.000000e+00 9.107888e-01 8.921117e-02 0.000000e+00 0.000000e+00 0.000000e+00
 0.000000e+00 0.000000e+00 9.507658e-01 4.923418e-02 0.000000e+00 0.000000e+00
 0.000000e+00 0.000000e+00 0.000000e+00 9.681937e-01 3.180633e-02 0.000000e+00
 0.000000e+00 0.000000e+00 0.000000e+00 0.000000e+00 9.597947e-01 4.020526e-02
 0.000000e+00 0.000000e+00 0.000000e+00 0.000000e+00 0.000000e+00 0.000000e+00
<ENDHMM>
~h "weaves_and_bumps_into"
<BEGINHMM>
<NUMSTATES> 6
<STATE> 2
<NUMMIXES> 2
<MIXTURE> 1 3.587046e-01
<MEAN> 16
 3.027084e-01 -2.919516e-01 1.917077e+00 -2.360413e-01 -2.287820e-01 1.873177e+00 -3.460974e-02 6.852321e-02 -4.077302e-03 4.006644e-03 6.561073e-02 -2.402041e-03 1.070894e-01 9.707320e-02 8.599239e-02 8.255751e-02
<VARIANCE> 16
 2.354614e-02 3.496918e-02 4.722855e-02 1.685219e-02 2.838669e-02 4.474848e-02 5.419378e-03 7.993538e-03 1.942730e-02 5.566197e-03 8.885137e-03 1.742342e-02 1.137019e-03 1.000000e-03 1.000000e-03 1.000000e-03
<GCONST> -4.695556e+01
<MIXTURE> 2 6.412957e-01
<MEAN> 16
 4.382721e-01 -4.131569e-01 1.875733e+00 -3.719689e-01 -3.583458e-01 1.850881e+00 -1.781747e-02 2.823916e-02 -1.139733e-02 2.496456e-03 2.960416e-02 -1.121150e-02 9.332663e-02 8.967373e-02 7.847156e-02 7.691381e-02
<VARIANCE> 16
 5.267299e-03 1.089673e-02 5.019291e-02 1.046777e-02 1.297997e-02 4.819664e-02 1.000000e-03 1.835681e-03 4.402411e-03 1.000000e-03 1.813121e-03 3.898870e-03 1.000000e-03 1.000000e-03 1.000000e-03 1.000000e-03
<GCONST> -6.031990e+01
<STATE> 3
<NUMMIXES> 2
<MIXTURE> 1 3.680137e-01
<MEAN> 16
 2.255533e-01 -1.320487e-01 1.856644e+00 -2.307901e-01 -1.204450e-01 1.805240e+00 3.734507e-03 2.287517e-03 3.096013e-02 -6.104673e-03 -3.541491e-04 2.826051e-02 9.745750e-02 9.542812e-02 8.725252e-02 7.759001e-02
<VARIANCE> 16
 2.225012e-02 4.977605e-02 1.642843e-02 1.166756e-02 2.651622e-02 9.863852e-03 1.000000e-03 2.643183e-03 4.549389e-03 1.000000e-03 1.668121e-03 4.153207e-03 1.000000e-03 1.000000e-03 1.000000e-03 1.000000e-03
<GCONST> -5.886316e+01
<MIXTURE> 2 6.319850e-01
<MEAN> 16
 2.388083e-01 -2.195827e-01 1.760830e+00 -2.759333e-01 -2.089132e-01 1.710910e+00 -5.470585e-03 3.034519e-03 -2.026523e-02 3.138410e-03 5.152180e-03 -1.861103e-02 8.268585e-02 8.235869e-02 7.767406e-02 7.768448e-02
<VARIANCE> 16
 1.747102e-02 1.401392e-02 9.399184e-03 3.102924e-03 5.391334e-03 7.912704e-03 1.000000e-03 1.207713e-03 3.204480e-03 1.000000e-03 1.000000e-03 2.715029e-03 1.000000e-03 1.000000e-03 1.000000e-03 1.000000e-03
<GCONST> -6.613915e+01
<STATE> 4
<NUMMIXES> 2
<MIXTURE> 1 3.496287e-01
<MEAN> 16
 2.527199e-01 -1.398873e-01 1.589895e+00 -3.237117e-01 1.794712e-02 1.468340e+00 7.422599e-03 -3.850120e-03 1.052088e-02 -6.194067e-03 2.314577e-03 7.801034e-03 9.104422e-02 1.126629e-01 8.425422e-02 8.893380e-02
<VARIANCE> 16
 2.079782e-02 5.389615e-02 2.635212e-02 1.003853e-02 1.567525e-02 1.749035e-02 1.510913e-03 2.647187e-03 2.649059e-03 1.000000e-03 1.175380e-03 1.786247e-03 1.000000e-03 1.000000e-03 1.000000e-03 1.000000e-03
<GCONST> -5.980231e+01
<MIXTURE> 2 6.503700e-01
<MEAN> 16
 2.017406e-01 -3.228692e-02 1.363564e+00 -2.951513e-01 1.802157e-02 1.348730e+00 -1.785678e-03 1.142511e-03 -6.563145e-03 1.858241e-03 1.021856e-04 -5.728001e-03 8.411256e-02 1.027433e-01 8.175251e-02 8.320561e-02
<VARIANCE> 16
 2.374326e-02 1.859873e-02 1.237845e-02 6.132872e-03 3.574922e-03 4.188366e-03 1.000000e-03 1.000000e-03 1.133695e-03 1.000000e-03 1.000000e-03 1.000000e-03 1.000000e-03 1.000000e-03 1.000000e-03 1.000000e-03
<GCONST> -6.786631e+01
<STATE> 5
<MEAN> 16
 3.145566e-01 -2.251426e-01 1.857449e+00 -2.419278e-01 2.257821e-02 1.802514e+00 1.464737e-02 -6.811270e-03 1.948655e-02 -1.262794e-02 4.574568e-03 1.668574e-02 1.131491e-01 1.123325e-01 8.478175e-02 8.562051e-02
<VARIANCE> 16
 1.568795e-02 8.605946e-02 3.427304e-02 1.650906e-02 5.392084e-02 2.638735e-02 6.526249e-03 5.110317e-03 1.283873e-02 2.486242e-03 7.145174e-03 8.782401e-03 1.008705e-03 1.000000e-03 1.000000e-03 1.000000e-03
<GCONST> -4.919326e+01
<TRANSP> 6
 0.000000e+00 1.000000e+00 0.000000e+00 0.000000e+00 0.000000e+00 0.000000e+00
 0.000000e+00 8.731136e-01 1.268864e-01 0.000000e+00 0.000000e+00 0.000000e+00
 0.000000e+00 0.000000e+00 9.403851e-01 5.961492e-02 0.000000e+00 0.000000e+00
 0.000000e+00 0.000000e+00 0.000000e+00 9.563642e-01 4.363574e-02 0.000000e+00
 0.000000e+00 0.000000e+00 0.000000e+00 0.000000e+00 7.082918e-01 2.917081e-01
 0.000000e+00 0.000000e+00 0.000000e+00 0.000000e+00 0.000000e+00 0.000000e+00
<ENDHMM>
~h "man"
<BEGINHMM>
<NUMSTATES> 6
<STATE> 2
<NUMMIXES> 2
<MIXTURE> 1 5.043629e-01
<MEAN> 16
 3.637466e-01 -5.912412e-01 1.949616e+00 -3.593404e-01 -1.520509e-01 1.868835e+00 5.358110e-03 8.392963e-04 1.865798e-02 -8.718101e-03 -7.750757e-03 1.133157e-02 1.157678e-01 9.195766e-02 8.309654e-02 9.727333e-02
<VARIANCE> 16
 2.084413e-02 1.725788e-02 1.486153e-02 1.175898e-02 6.111815e-03 1.668606e-02 1.000000e-03 1.000000e-03 2.741305e-03 1.000000e-03 1.000000e-03 1.475300e-03 1.000000e-03 1.000000e-03 1.000000e-03 1.000000e-03
<GCONST> -6.404723e+01
<MIXTURE> 2 4.956307e-01
<MEAN> 16
 3.780892e-01 -5.928260e-01 1.754022e+00 -3.579293e-01 -1.040931e-01 1.619282e+00 -5.771686e-03 8.327719e-03 -2.042456e-02 -7.097589e-03 -2.102443e-03 -1.688865e-02 1.182958e-01 7.200432e-02 8.894797e-02 9.066522e-02
<VARIANCE> 16
 1.110953e-02 4.594473e-03 1.194276e-02 1.800686e-02 7.553588e-03 2.052519e-02 1.000000e-03 1.000000e-03 2.610234e-03 1.000000e-03 1.000000e-03 1.169983e-03 1.000000e-03 1.000000e-03 1.000000e-03 1.000000e-03
<GCONST> -6.565442e+01
<STATE> 3
<NUMMIXES> 2
<MIXTURE> 1 5.158628e-01
<MEAN> 16
 2.281874e-01 -5.297971e-02 1.924794e+00 -3.690599e-01 -1.422252e-01 1.958573e+00 6.665436e-03 -1.479300e-03 1.361931e-02 -3.046988e-03 -3.390984e-03 1.332903e-02 1.081739e-01 9.845722e-02 8.452042e-02 1.017069e-01
<VARIANCE> 16
 4.697258e-02 4.132179e-02 9.028410e-03 7.433544e-03 7.820720e-03 1.113788e-02 1.170124e-03 2.554409e-03 3.246149e-03 1.000000e-03 1.000000e-03 3.105965e-03 1.000000e-03 1.000000e-03 1.000000e-03 1.000000e-03
<GCONST> -6.146787e+01
<MIXTURE> 2 4.841240e-01
<MEAN> 16
 1.386847e-01 -7.223000e-02 1.744004e+00 -3.830663e-01 -1.483910e-01 1.741763e+00 -8.366328e-03 5.910694e-03 -1.733670e-02 6.397808e-03 1.021553e-03 -1.490383e-02 9.522492e-02 7.316247e-02 7.212380e-02 8.744571e-02
<VARIANCE> 16
 4.454228e-02 2.097205e-02 8.966669e-03 9.209916e-03 4.056130e-03 8.156304e-03 1.915679e-03 2.491899e-03 3.852563e-03 1.000000e-03 1.000000e-03 3.399356e-03 1.000000e-03 1.000000e-03 1.000000e-03 1.000000e-03
<GCONST> -6.223017e+01
<STATE> 4
<NUMMIXES> 2
<MIXTURE> 1 7.272411e-01
<MEAN> 16
 2.031876e-01 -1.582521e-02 1.514718e+00 -3.386700e-01 -1.927089e-02 1.509572e+00 -3.176951e-04 9.847101e-04 -9.691422e-04 5.198852e-04 -9.754400e-04 4.933447e-04 9.429166e-02 7.450377e-02 7.996270e-02 9.370427e-02
<VARIANCE> 16
 3.434436e-02 1.897021e-02 2.049484e-02 9.279948e-03 1.392309e-03 9.730205e-03 1.000000e-03 1.000000e-03 1.000000e-03 1.000000e-03 1.000000e-03 1.000000e-03 1.000000e-03 1.000000e-03 1.000000e-03 1.000000e-03
<GCONST> -6.678452e+01
<MIXTURE> 2 2.727484e-01
<MEAN> 16
 3.326969e-01 -2.987777e-01 1.627597e+00 -3.188817e-01 -2.181074e-01 1.599980e+00 2.370995e-02 -3.345820e-02 8.716919e-03 4.463771e-03 -3.375688e-02 2.365898e-03 9.635978e-02 7.789528e-02 7.693700e-02 7.817321e-02
<VARIANCE> 16
 5.147469e-02 6.428889e-02 2.932005e-02 1.699559e-02 4.430594e-02 2.265514e-02 3.308157e-03 4.463377e-03 7.214570e-03 1.363213e-03 2.776039e-03 6.389993e-03 1.000000e-03 1.000000e-03 1.000000e-03 1.000000e-03
<GCONST> -5.203685e+01
<STATE> 5
<MEAN> 16
 5.800823e-01 -6.912736e-01 1.854981e+00 -1.888159e-01 -6.008192e-01 1.811801e+00 5.643087e-03 -6.359599e-03 1.348628e-03 2.550533e-03 -7.109824e-03 2.049912e-03 1.163661e-01 1.067504e-01 9.521093e-02 7.548166e-02
<VARIANCE> 16
 1.833945e-02 3.894714e-03 1.540863e-02 1.678935e-02 5.656863e-03 7.735613e-03 1.000000e-03 1.000000e-03 2.182983e-03 1.000000e-03 1.000000e-03 1.691723e-03 1.000000e-03 1.000000e-03 1.000000e-03 1.000000e-03
<GCONST> -6.620856e+01
<TRANSP> 6
 0.000000e+00 1.000000e+00 0.000000e+00 0.000000e+00 0.000000e+00 0.000000e+00
 0.000000e+00 9.233285e-01 7.667151e-02 0.000000e+00 0.000000e+00 0.000000e+00
 0.000000e+00 0.000000e+00 9.727414e-01 2.725866e-02 0.000000e+00 0.000000e+00
 0.000000e+00 0.000000e+00 0.000000e+00 9.564849e-01 4.351514e-02 0.000000e+00
 0.000000e+00 0.000000e+00 0.000000e+00 0.000000e+00 9.579862e-01 4.201384e-02
 0.000000e+00 0.000000e+00 0.000000e+00 0.000000e+00 0.000000e+00 0.000000e+00
<ENDHMM>
~h "monkey"
<BEGINHMM>
<NUMSTATES> 6
<STATE> 2
<NUMMIXES> 2
<MIXTURE> 1 4.044876e-01
<MEAN> 16
 3.866104e-01 -5.021831e-01 2.198509e+00 -2.661946e-01 -2.073039e-02 1.978176e+00 1.216457e-03 2.929447e-04 5.194836e-03 1.171217e-03 -7.907785e-03 3.586862e-03 1.082970e-01 1.158476e-01 8.821170e-02 7.864178e-02
<VARIANCE> 16
 7.402081e-03 2.575845e-03 9.889616e-03 1.294016e-03 1.878375e-02 5.551525e-03 1.000000e-03 1.000000e-03 2.179170e-03 1.000000e-03 1.000000e-03 1.300485e-03 1.590887e-03 1.000000e-03 1.000000e-03 1.000000e-03
<GCONST> -6.946784e+01
<MIXTURE> 2 5.955098e-01
<MEAN> 16
 3.004016e-01 -3.991044e-01 1.963431e+00 -3.447437e-01 4.462116e-03 1.751965e+00 4.133123e-04 -7.866990e-04 -6.629282e-03 -2.809774e-04 -1.109138e-03 -6.222828e-03 1.042868e-01 1.004456e-01 9.106635e-02 6.762046e-02
<VARIANCE> 16
 9.610878e-03 6.879698e-03 1.679181e-02 9.593353e-03 1.120173e-02 1.370874e-02 1.000000e-03 1.000000e-03 1.405786e-03 1.000000e-03 1.000000e-03 1.000000e-03 1.332160e-03 1.000000e-03 1.000000e-03 1.000000e-03
<GCONST> -6.618312e+01
<STATE> 3
<NUMMIXES> 2
<MIXTURE> 1 4.113748e-01
<MEAN> 16
 3.021241e-01 9.706038e-03 1.999621e+00 -3.033206e-01 -2.341345e-02 1.969534e+00 4.691024e-03 4.689275e-03 8.303066e-03 -3.409878e-03 -2.415061e-03 1.062503e-02 1.168007e-01 1.193223e-01 9.364904e-02 8.016152e-02
<VARIANCE> 16
 3.338249e-02 3.653808e-02 1.009361e-02 7.012601e-03 3.619084e-03 1.043335e-02 1.758969e-03 3.800606e-03 5.128836e-03 1.000000e-03 1.000000e-03 4.355596e-03 1.000000e-03 1.000000e-03 1.000000e-03 1.000000e-03
<GCONST> -6.111460e+01
<MIXTURE> 2 5.886147e-01
<MEAN> 16
 1.395900e-01 -4.012072e-02 1.802033e+00 -3.344811e-01 -6.531318e-02 1.788154e+00 -4.266941e-03 9.929731e-04 -1.027072e-02 3.363095e-03 -4.972271e-04 -7.956338e-03 9.804650e-02 9.896526e-02 7.769176e-02 6.530930e-02
<VARIANCE> 16
 4.451697e-02 2.134759e-02 8.532519e-03 1.194036e-02 7.133819e-03 7.995924e-03 1.271256e-03 1.174134e-03 2.487004e-03 1.000000e-03 1.000000e-03 2.174388e-03 1.000000e-03 1.000000e-03 1.000000e-03 1.000000e-03
<GCONST> -6.350530e+01
<STATE> 4
<NUMMIXES> 2
<MIXTURE> 1 6.117184e-01
<MEAN> 16
 2.275766e-01 -8.888343e-03 1.578562e+00 -2.996940e-01 6.131531e-02 1.562925e+00 -6.578914e-05 8.579149e-04 -1.984912e-03 -2.004313e-04 -6.541355e-04 -4.447260e-04 1.018534e-01 1.013353e-01 8.104937e-02 6.849289e-02
<VARIANCE> 16
 2.923620e-02 1.958944e-02 1.554007e-02 3.501382e-03 1.947129e-03 9.668148e-03 1.000000e-03 1.000000e-03 1.000000e-03 1.000000e-03 1.000000e-03 1.000000e-03 1.000000e-03 1.000000e-03 1.000000e-03 1.000000e-03
<GCONST> -6.783589e+01
<MIXTURE> 2 3.882776e-01
<MEAN> 16
 4.111034e-01 -4.453771e-01 1.779465e+00 -2.603109e-01 -3.079911e-01 1.730402e+00 3.103990e-02 -5.434478e-02 1.519410e-02 9.614794e-03 -4.856062e-02 5.902451e-03 1.058351e-01 8.930657e-02 7.882039e-02 6.945663e-02
<VARIANCE> 16
 5.100178e-02 3.551902e-02 2.712210e-02 1.131681e-02 3.884127e-02 2.528387e-02 2.002077e-03 2.981505e-03 9.468763e-03 1.000000e-03 2.145489e-03 6.656331e-03 1.000000e-03 1.000000e-03 1.000000e-03 1.000000e-03
<GCONST> -5.430629e+01
<STATE> 5
<MEAN> 16
 5.832742e-01 -6.973986e-01 1.853948e+00 -1.961800e-01 -6.130623e-01 1.808576e+00 3.731148e-03 -4.157368e-03 5.558798e-06 1.546003e-03 -4.319732e-03 1.309681e-03 1.146058e-01 1.097475e-01 9.635969e-02 7.441318e-02
<VARIANCE> 16
 1.376594e-02 3.045874e-03 1.612620e-02 1.830656e-02 4.644661e-03 5.865608e-03 1.000000e-03 1.000000e-03 1.188028e-03 1.000000e-03 1.000000e-03 1.384682e-03 1.000000e-03 1.000000e-03 1.000000e-03 1.000000e-03
<GCONST> -6.789178e+01
<TRANSP> 6
 0.000000e+00 1.000000e+00 0.000000e+00 0.000000e+00 0.000000e+00 0.000000e+00
 0.000000e+00 9.249193e-01 7.508070e-02 0.000000e+00 0.000000e+00 0.000000e+00
 0.000000e+00 0.000000e+00 9.735889e-01 2.641109e-02 0.000000e+00 0.000000e+00
 0.000000e+00 0.000000e+00 0.000000e+00 9.444047e-01 5.559535e-02 0.000000e+00
 0.000000e+00 0.000000e+00 0.000000e+00 0.000000e+00 9.596733e-01 4.032676e-02
 0.000000e+00 0.000000e+00 0.000000e+00 0.000000e+00 0.000000e+00 0.000000e+00
<ENDHMM>
~h "bumps_into_each_other"
<BEGINHMM>
<NUMSTATES> 6
<STATE> 2
<NUMMIXES> 2
<MIXTURE> 1 3.855074e-01
<MEAN> 16
 3.815950e-01 -4.494154e-01 2.045252e+00 -3.173445e-01 -2.429985e-01 1.974158e+00 1.481860e-03 1.069276e-02 4.276776e-02 -1.591200e-02 3.199171e-02 3.822326e-02 1.095256e-01 9.713212e-02 9.388210e-02 8.496639e-02
<VARIANCE> 16
 1.347687e-02 2.412856e-02 2.777415e-02 1.607377e-02 6.369578e-02 3.811787e-02 2.082179e-03 2.685811e-03 7.781654e-03 2.874804e-03 6.166967e-03 7.854000e-03 1.284296e-03 1.000000e-03 1.000000e-03 1.000000e-03
<GCONST> -5.247799e+01
<MIXTURE> 2 6.144917e-01
<MEAN> 16
 4.441437e-01 -3.889472e-01 1.875719e+00 -4.083988e-01 -3.363534e-01 1.865942e+00 -1.588555e-02 2.248919e-02 -1.991984e-02 5.467718e-03 2.645682e-02 -2.271406e-02 8.757652e-02 8.699398e-02 8.143276e-02 8.066113e-02
<VARIANCE> 16
 5.448976e-03 1.103590e-02 4.336569e-02 8.369291e-03 1.308242e-02 4.006286e-02 1.000000e-03 1.784273e-03 3.951625e-03 1.000000e-03 1.653634e-03 3.841630e-03 1.000000e-03 1.000000e-03 1.000000e-03 1.000000e-03
<GCONST> -6.106351e+01
<STATE> 3
<NUMMIXES> 2
<MIXTURE> 1 4.778333e-01
<MEAN> 16
 3.193410e-01 -1.650286e-01 1.954484e+00 -2.501467e-01 -1.158549e-01 1.894767e+00 8.438353e-03 -1.519645e-03 2.968496e-02 -6.126747e-03 -1.710354e-03 2.837789e-02 9.545474e-02 1.025736e-01 9.128375e-02 8.570723e-02
<VARIANCE> 16
 1.159162e-02 4.666499e-02 1.133846e-02 5.458923e-03 3.279291e-02 8.821067e-03 1.050788e-03 2.681151e-03 4.660464e-03 1.000000e-03 1.451382e-03 4.233287e-03 1.000000e-03 1.000000e-03 1.000000e-03 1.000000e-03
<GCONST> -6.064157e+01
<MIXTURE> 2 5.221599e-01
<MEAN> 16
 2.931816e-01 -1.676948e-01 1.798024e+00 -2.193735e-01 -1.558047e-01 1.760194e+00 -1.093899e-02 1.078772e-02 -3.188197e-02 5.049754e-03 8.358356e-03 -2.910156e-02 8.013594e-02 8.574986e-02 7.460456e-02 7.248720e-02
<VARIANCE> 16
 1.104726e-02 2.550820e-02 7.287323e-03 6.780357e-03 1.558210e-02 6.846224e-03 1.115478e-03 3.701362e-03 4.990052e-03 1.000000e-03 2.600162e-03 4.390779e-03 1.000000e-03 1.000000e-03 1.000000e-03 1.000000e-03
<GCONST> -6.144638e+01
<STATE> 4
<NUMMIXES> 2
<MIXTURE> 1 4.281628e-01
<MEAN> 16
 3.172450e-01 -9.355810e-02 1.626410e+00 -3.485650e-01 8.192568e-02 1.554190e+00 1.056671e-02 -4.206458e-03 1.143691e-02 -1.040921e-02 4.702166e-04 9.945360e-03 9.604620e-02 1.123418e-01 8.361995e-02 8.271376e-02
<VARIANCE> 16
 1.457804e-02 5.742253e-02 2.501437e-02 9.624685e-03 1.122627e-02 1.504173e-02 1.000000e-03 1.000000e-03 1.421142e-03 1.000000e-03 1.000000e-03 1.037989e-03 1.000000e-03 1.000000e-03 1.000000e-03 1.000000e-03
<GCONST> -6.338649e+01
<MIXTURE> 2 5.718341e-01
<MEAN> 16
 2.335133e-01 -1.455287e-02 1.452047e+00 -3.048346e-01 5.906352e-02 1.434294e+00 -5.596097e-03 5.829455e-03 -1.091734e-02 5.206647e-03 1.255129e-03 -8.934384e-03 7.978822e-02 1.011331e-01 7.434417e-02 8.078995e-02
<VARIANCE> 16
 1.278153e-02 2.562261e-02 8.923797e-03 9.515734e-03 4.285051e-03 3.871405e-03 1.000000e-03 2.050807e-03 1.431025e-03 1.000000e-03 1.000000e-03 1.133434e-03 1.000000e-03 1.000000e-03 1.000000e-03 1.000000e-03
<GCONST> -6.687429e+01
<STATE> 5
<MEAN> 16
 4.341919e-01 -3.174558e-01 1.750088e+00 -3.563677e-01 -1.342426e-01 1.696862e+00 1.698764e-02 -4.793059e-02 2.898779e-02 -7.257852e-03 -4.186603e-02 1.972242e-02 9.031643e-02 9.059379e-02 7.840300e-02 7.623315e-02
<VARIANCE> 16
 1.609824e-02 3.202626e-02 5.058917e-02 1.405477e-02 3.535705e-02 3.790326e-02 1.000000e-03 1.683412e-03 6.034421e-03 1.000000e-03 3.427231e-03 5.798926e-03 1.000000e-03 1.000000e-03 1.000000e-03 1.000000e-03
<GCONST> -5.579783e+01
<TRANSP> 6
 0.000000e+00 1.000000e+00 0.000000e+00 0.000000e+00 0.000000e+00 0.000000e+00
 0.000000e+00 8.865723e-01 1.134276e-01 0.000000e+00 0.000000e+00 0.000000e+00
 0.000000e+00 0.000000e+00 9.641131e-01 3.588692e-02 0.000000e+00 0.000000e+00
 0.000000e+00 0.000000e+00 0.000000e+00 9.459738e-01 5.402626e-02 0.000000e+00
 0.000000e+00 0.000000e+00 0.000000e+00 0.000000e+00 4.857503e-01 5.142496e-01
 0.000000e+00 0.000000e+00 0.000000e+00 0.000000e+00 0.000000e+00 0.000000e+00
<ENDHMM>
~h "jumps_on"
<BEGINHMM>
<NUMSTATES> 6
<STATE> 2
<NUMMIXES> 2
<MIXTURE> 1 4.474164e-01
<MEAN> 16
 3.797309e-01 -3.980520e-01 2.086465e+00 -3.242573e-01 -3.315811e-01 2.051351e+00 -6.653116e-03 2.469032e-02 2.537794e-02 -3.965232e-03 3.226797e-02 1.862809e-02 9.782296e-02 9.624641e-02 9.127580e-02 8.581322e-02
<VARIANCE> 16
 1.370715e-02 1.848690e-02 2.949684e-02 1.070209e-02 3.890641e-02 2.966019e-02 2.328636e-03 5.654989e-03 9.177594e-03 2.825563e-03 1.007463e-02 1.025882e-02 1.108718e-03 1.000000e-03 1.000000e-03 1.000000e-03
<GCONST> -5.220273e+01
<MIXTURE> 2 5.525831e-01
<MEAN> 16
 3.959415e-01 -4.047955e-01 1.804733e+00 -3.208139e-01 -3.386079e-01 1.781684e+00 -2.549400e-02 3.846807e-02 -3.041883e-02 6.019071e-03 3.750618e-02 -2.703661e-02 9.377945e-02 8.739457e-02 7.777783e-02 7.616518e-02
<VARIANCE> 16
 1.060533e-02 1.209154e-02 3.203628e-02 1.821525e-02 2.180904e-02 3.252917e-02 1.000000e-03 2.407680e-03 4.415765e-03 1.000000e-03 2.109683e-03 3.633079e-03 1.000000e-03 1.000000e-03 1.000000e-03 1.000000e-03
<GCONST> -5.893014e+01
<STATE> 3
<NUMMIXES> 2
<MIXTURE> 1 4.966920e-01
<MEAN> 16
 2.897157e-01 -1.527507e-01 1.900190e+00 -2.429576e-01 -1.188930e-01 1.813715e+00 5.573219e-03 9.452891e-04 3.076932e-02 -5.335175e-03 -2.047825e-03 2.875745e-02 1.028527e-01 1.068220e-01 8.685746e-02 8.940046e-02
<VARIANCE> 16
 1.555539e-02 5.745809e-02 9.631538e-03 4.223977e-03 2.275664e-02 1.116257e-02 1.000000e-03 1.702657e-03 3.687925e-03 1.000000e-03 1.000000e-03 3.245694e-03 1.012728e-03 1.000000e-03 1.000000e-03 1.000000e-03
<GCONST> -6.205212e+01
<MIXTURE> 2 5.033048e-01
<MEAN> 16
 2.685095e-01 -1.474310e-01 1.759014e+00 -2.159492e-01 -1.445976e-01 1.698279e+00 -1.720190e-02 2.131962e-02 -3.651392e-02 7.524512e-03 9.892895e-03 -3.174389e-02 8.710635e-02 9.176815e-02 7.646170e-02 7.548911e-02
<VARIANCE> 16
 1.250124e-02 3.565964e-02 7.660197e-03 4.424687e-03 1.721448e-02 8.002873e-03 1.000000e-03 3.547047e-03 4.181721e-03 1.000000e-03 2.072678e-03 3.710444e-03 1.000000e-03 1.000000e-03 1.000000e-03 1.000000e-03
<GCONST> -6.183259e+01
<STATE> 4
<NUMMIXES> 2
<MIXTURE> 1 4.729913e-01
<MEAN> 16
 1.669398e-01 -6.453355e-02 1.656783e+00 -2.026428e-01 1.883088e-02 1.517421e+00 -9.359161e-04 1.788371e-03 6.003956e-03 -8.935037e-04 5.744916e-04 4.772923e-03 9.774037e-02 1.136715e-01 8.512918e-02 8.721729e-02
<VARIANCE> 16
 3.600682e-02 6.164733e-02 2.141582e-02 8.180586e-03 8.509650e-03 1.620505e-02 1.000000e-03 1.771913e-03 3.312201e-03 1.000000e-03 1.000000e-03 2.118262e-03 1.000000e-03 1.000000e-03 1.000000e-03 1.000000e-03
<GCONST> -6.080023e+01
<MIXTURE> 2 5.270069e-01
<MEAN> 16
 5.002798e-02 3.717336e-02 1.424320e+00 -1.597451e-01 -1.765725e-02 1.375706e+00 -6.080968e-03 4.563125e-03 -6.085080e-03 1.820564e-03 1.832986e-04 -5.317315e-03 9.055667e-02 9.039701e-02 6.990954e-02 8.048181e-02
<VARIANCE> 16
 4.074090e-02 3.476084e-02 1.379182e-02 4.364156e-03 3.264882e-03 7.060108e-03 1.000000e-03 1.086315e-03 1.000000e-03 1.000000e-03 1.000000e-03 1.000000e-03 1.000000e-03 1.000000e-03 1.000000e-03 1.000000e-03
<GCONST> -6.654436e+01
<STATE> 5
<MEAN> 16
 -9.755050e-02 -4.585970e-02 1.731763e+00 -8.396394e-02 -1.265480e-01 1.711656e+00 1.097067e-02 -1.257420e-02 8.638842e-04 -3.832134e-03 -1.465053e-03 2.779257e-03 9.142379e-02 8.762626e-02 7.164632e-02 8.187234e-02
<VARIANCE> 16
 3.997060e-02 3.448156e-02 1.778807e-02 1.977161e-02 2.197047e-02 1.864592e-02 4.918605e-03 2.461701e-03 6.570696e-03 5.863944e-03 3.263796e-03 8.388332e-03 1.000000e-03 1.465998e-03 1.000000e-03 1.000000e-03
<GCONST> -5.217379e+01
<TRANSP> 6
 0.000000e+00 1.000000e+00 0.000000e+00 0.000000e+00 0.000000e+00 0.000000e+00
 0.000000e+00 8.674620e-01 1.325380e-01 0.000000e+00 0.000000e+00 0.000000e+00
 0.000000e+00 0.000000e+00 9.496458e-01 5.035420e-02 0.000000e+00 0.000000e+00
 0.000000e+00 0.000000e+00 0.000000e+00 9.684037e-01 3.159626e-02 0.000000e+00
 0.000000e+00 0.000000e+00 0.000000e+00 0.000000e+00 8.774921e-01 1.225079e-01
 0.000000e+00 0.000000e+00 0.000000e+00 0.000000e+00 0.000000e+00 0.000000e+00
<ENDHMM>
~h "house"
<BEGINHMM>
<NUMSTATES> 6
<STATE> 2
<NUMMIXES> 2
<MIXTURE> 1 4.581560e-01
<MEAN> 16
 2.777786e-01 1.044638e-02 1.944777e+00 -2.469081e-01 5.127529e-02 1.929982e+00 1.288588e-02 -1.701330e-02 3.132977e-02 -1.230274e-02 -1.345991e-02 2.676519e-02 1.603071e-01 1.516073e-01 9.561319e-02 9.924834e-02
<VARIANCE> 16
 1.069514e-02 6.925210e-02 1.466212e-02 8.544890e-03 5.028469e-02 1.339366e-02 1.000000e-03 1.544482e-03 4.480427e-03 1.000000e-03 1.952854e-03 3.727989e-03 1.000000e-03 1.000000e-03 1.000000e-03 1.000000e-03
<GCONST> -5.924786e+01
<MIXTURE> 2 5.418400e-01
<MEAN> 16
 2.911696e-01 -3.888959e-01 1.947518e+00 -2.999733e-01 -5.268249e-02 1.831967e+00 -3.132081e-03 -1.078476e-02 -2.141874e-02 1.198614e-03 5.362596e-03 -2.418039e-02 1.118566e-01 1.269330e-01 8.349551e-02 9.841391e-02
<VARIANCE> 16
 4.400279e-03 3.444218e-02 2.165083e-02 2.464575e-03 3.246761e-02 1.237278e-02 1.000000e-03 1.548551e-03 5.943099e-03 1.000000e-03 2.403874e-03 4.040463e-03 1.184834e-03 1.000000e-03 1.000000e-03 1.000000e-03
<GCONST> -6.146170e+01
<STATE> 3
<NUMMIXES> 2
<MIXTURE> 1 4.080388e-01
<MEAN> 16
 3.151078e-01 -7.447628e-02 1.944642e+00 -3.024486e-01 5.584818e-02 1.833129e+00 6.859662e-03 3.430071e-03 1.589167e-02 -4.358720e-03 -7.673043e-04 1.496603e-02 1.166710e-01 1.251384e-01 8.954619e-02 1.075160e-01
<VARIANCE> 16
 2.549305e-02 5.888338e-02 1.091790e-02 2.275289e-03 2.237781e-03 9.957846e-03 1.631154e-03 3.809987e-03 5.500569e-03 1.000000e-03 1.000000e-03 4.127609e-03 1.000000e-03 1.000000e-03 1.000000e-03 1.000000e-03
<GCONST> -6.253827e+01
<MIXTURE> 2 5.919526e-01
<MEAN> 16
 1.998437e-01 -4.887629e-02 1.780567e+00 -3.515230e-01 -1.004692e-02 1.658793e+00 -6.213084e-03 2.711388e-04 -1.332091e-02 2.496510e-03 -2.384636e-03 -1.095941e-02 1.047946e-01 1.114185e-01 7.627340e-02 9.295060e-02
<VARIANCE> 16
 3.016142e-02 2.182440e-02 1.252078e-02 2.736599e-03 5.673169e-03 6.706365e-03 1.282293e-03 1.088014e-03 3.516502e-03 1.000000e-03 1.000000e-03 2.786660e-03 1.000000e-03 1.000000e-03 1.000000e-03 1.000000e-03
<GCONST> -6.484024e+01
<STATE> 4
<NUMMIXES> 2
<MIXTURE> 1 5.508254e-01
<MEAN> 16
 1.698904e-01 -1.121972e-01 1.690167e+00 -2.457990e-01 -1.496604e-02 1.631295e+00 2.285300e-03 -4.295907e-03 5.362279e-03 1.645926e-04 -1.781946e-03 4.709338e-03 9.567130e-02 8.565781e-02 7.844409e-02 9.155782e-02
<VARIANCE> 16
 6.055688e-02 3.110468e-02 1.379313e-02 7.074847e-03 2.564886e-02 9.056849e-03 1.000000e-03 1.000000e-03 1.006147e-03 1.000000e-03 1.000000e-03 1.000000e-03 1.000000e-03 1.000000e-03 1.000000e-03 1.000000e-03
<GCONST> -6.354225e+01
<MIXTURE> 2 4.491682e-01
<MEAN> 16
 2.826146e-01 -1.943993e-01 1.604198e+00 -2.992585e-01 -9.794649e-02 1.513651e+00 1.235480e-02 -2.137171e-02 -1.045059e-03 3.222760e-03 -1.725728e-02 -2.747826e-03 9.375270e-02 8.934619e-02 7.901782e-02 8.635245e-02
<VARIANCE> 16
 4.187837e-02 5.062190e-02 4.215049e-02 7.067507e-03 3.111961e-02 4.532231e-02 2.528966e-03 2.984471e-03 7.188229e-03 1.000000e-03 1.410407e-03 5.153624e-03 1.000000e-03 1.000000e-03 1.000000e-03 1.000000e-03
<GCONST> -5.453326e+01
<STATE> 5
<MEAN> 16
 5.844223e-01 -6.944446e-01 1.858935e+00 -1.994741e-01 -5.974085e-01 1.810241e+00 5.107862e-03 -5.578541e-03 1.250209e-03 2.621941e-03 -8.080603e-03 3.789915e-03 1.157816e-01 1.083399e-01 9.757128e-02 7.226480e-02
<VARIANCE> 16
 1.838891e-02 3.466671e-03 1.593183e-02 1.735705e-02 7.372804e-03 8.234048e-03 1.000000e-03 1.000000e-03 1.391486e-03 1.000000e-03 1.000000e-03 1.468634e-03 1.000000e-03 1.000000e-03 1.000000e-03 1.000000e-03
<GCONST> -6.652002e+01
<TRANSP> 6
 0.000000e+00 1.000000e+00 0.000000e+00 0.000000e+00 0.000000e+00 0.000000e+00
 0.000000e+00 9.409486e-01 5.905135e-02 0.000000e+00 0.000000e+00 0.000000e+00
 0.000000e+00 0.000000e+00 9.755136e-01 2.448641e-02 0.000000e+00 0.000000e+00
 0.000000e+00 0.000000e+00 0.000000e+00 9.696795e-01 3.032043e-02 0.000000e+00
 0.000000e+00 0.000000e+00 0.000000e+00 0.000000e+00 9.625211e-01 3.747892e-02
 0.000000e+00 0.000000e+00 0.000000e+00 0.000000e+00 0.000000e+00 0.000000e+00
<ENDHMM>
~h "bumps_into"
<BEGINHMM>
<NUMSTATES> 6
<STATE> 2
<NUMMIXES> 2
<MIXTURE> 1 4.480670e-01
<MEAN> 16
 3.556044e-01 -3.899017e-01 2.087991e+00 -3.555517e-01 -3.367832e-01 2.054858e+00 1.902620e-03 1.031341e-02 3.105303e-02 -8.511707e-03 1.533339e-02 2.443852e-02 9.068376e-02 8.708034e-02 8.486241e-02 8.677069e-02
<VARIANCE> 16
 2.125356e-02 2.861090e-02 2.160639e-02 1.600153e-02 1.766454e-02 1.888204e-02 1.892405e-03 2.951942e-03 9.199675e-03 2.186885e-03 3.050666e-03 8.992594e-03 1.000000e-03 1.000000e-03 1.000000e-03 1.000000e-03
<GCONST> -5.501858e+01
<MIXTURE> 2 5.519335e-01
<MEAN> 16
 4.159266e-01 -4.129576e-01 1.806032e+00 -3.392422e-01 -3.616813e-01 1.782953e+00 -2.213545e-02 3.368602e-02 -2.394413e-02 3.262606e-03 3.625782e-02 -2.402791e-02 9.189326e-02 8.910020e-02 8.013105e-02 7.789147e-02
<VARIANCE> 16
 1.352334e-02 1.208800e-02 3.251816e-02 1.870042e-02 1.499114e-02 3.065882e-02 1.000000e-03 2.015454e-03 3.225521e-03 1.000000e-03 1.854567e-03 3.014933e-03 1.000000e-03 1.000000e-03 1.000000e-03 1.000000e-03
<GCONST> -5.988754e+01
<STATE> 3
<NUMMIXES> 2
<MIXTURE> 1 1.905236e-01
<MEAN> 16
 3.014996e-01 -2.246105e-01 1.875865e+00 -2.173849e-01 -1.587325e-01 1.806816e+00 -3.455424e-02 5.691440e-02 -1.050853e-02 5.908209e-03 6.313945e-02 -7.319700e-03 1.053470e-01 9.846170e-02 8.476534e-02 7.650810e-02
<VARIANCE> 16
 1.860535e-02 4.917644e-02 1.577562e-02 7.093907e-03 2.371465e-02 1.441275e-02 4.500566e-03 1.062891e-02 1.932362e-02 3.722652e-03 1.743065e-02 1.790345e-02 1.205645e-03 1.000000e-03 1.000000e-03 1.000000e-03
<GCONST> -4.967350e+01
<MIXTURE> 2 8.094741e-01
<MEAN> 16
 3.207714e-01 -1.619675e-01 1.797182e+00 -2.520383e-01 -1.549460e-01 1.737774e+00 -7.179362e-03 1.220696e-02 -6.793088e-03 1.771719e-03 6.850854e-03 -5.094359e-03 8.257414e-02 9.128295e-02 7.799631e-02 7.085297e-02
<VARIANCE> 16
 7.207879e-03 2.607839e-02 1.054475e-02 3.827321e-03 1.021549e-02 8.346720e-03 1.000000e-03 2.393480e-03 2.779043e-03 1.000000e-03 1.530216e-03 2.481280e-03 1.000000e-03 1.000000e-03 1.000000e-03 1.000000e-03
<GCONST> -6.450917e+01
<STATE> 4
<NUMMIXES> 2
<MIXTURE> 1 3.188224e-01
<MEAN> 16
 1.858687e-01 -6.071958e-02 1.755520e+00 -1.938638e-01 2.477258e-02 1.725848e+00 2.140401e-02 1.233454e-02 2.678671e-02 -2.863310e-02 2.742532e-02 2.867792e-02 1.185670e-01 1.143592e-01 8.695348e-02 8.402336e-02
<VARIANCE> 16
 2.418705e-02 6.797427e-02 3.788656e-02 1.434977e-02 2.498202e-02 3.013382e-02 1.029486e-02 3.049602e-03 1.137718e-02 9.144289e-03 4.609531e-03 1.115908e-02 1.000000e-03 1.000000e-03 1.000000e-03 1.000000e-03
<GCONST> -4.875920e+01
<MIXTURE> 2 6.811765e-01
<MEAN> 16
 9.891948e-02 -1.638175e-02 1.507719e+00 -1.720805e-01 1.792476e-03 1.501206e+00 -1.259180e-02 1.188336e-02 -1.432404e-02 1.186179e-02 1.448057e-02 -1.255008e-02 8.426456e-02 8.814075e-02 7.141618e-02 7.293001e-02
<VARIANCE> 16
 1.649589e-02 1.796126e-02 2.435007e-02 1.456324e-02 1.161262e-02 2.414858e-02 1.679852e-03 1.416445e-03 2.552136e-03 1.805296e-03 1.001144e-03 2.211096e-03 1.000000e-03 1.000000e-03 1.000000e-03 1.000000e-03
<GCONST> -6.073023e+01
<STATE> 5
<MEAN> 16
 2.808303e-01 -2.120696e-01 1.816481e+00 -2.123505e-01 6.805820e-02 1.787951e+00 8.209354e-03 -1.153777e-02 7.289953e-03 -8.786159e-03 8.270117e-04 7.719402e-03 1.152469e-01 1.182097e-01 8.868427e-02 8.497140e-02
<VARIANCE> 16
 9.025047e-03 1.071717e-01 2.500551e-02 9.991789e-03 3.465635e-02 2.316964e-02 1.000000e-03 1.760590e-03 1.681045e-03 1.000000e-03 3.025246e-03 1.450235e-03 1.019507e-03 1.000000e-03 1.000000e-03 1.000000e-03
<GCONST> -5.945134e+01
<TRANSP> 6
 0.000000e+00 1.000000e+00 0.000000e+00 0.000000e+00 0.000000e+00 0.000000e+00
 0.000000e+00 8.672513e-01 1.327487e-01 0.000000e+00 0.000000e+00 0.000000e+00
 0.000000e+00 0.000000e+00 9.001378e-01 9.986218e-02 0.000000e+00 0.000000e+00
 0.000000e+00 0.000000e+00 0.000000e+00 8.295755e-01 1.704245e-01 0.000000e+00
 0.000000e+00 0.000000e+00 0.000000e+00 0.000000e+00 7.221844e-01 2.778157e-01
 0.000000e+00 0.000000e+00 0.000000e+00 0.000000e+00 0.000000e+00 0.000000e+00
<ENDHMM>
~h "goes_to"
<BEGINHMM>
<NUMSTATES> 6
<STATE> 2
<NUMMIXES> 2
<MIXTURE> 1 4.762785e-01
<MEAN> 16
 3.576500e-01 -3.773842e-01 2.022914e+00 -2.443221e-01 -2.605817e-01 1.983572e+00 -2.248144e-03 2.109833e-02 2.895237e-02 -5.438357e-03 2.630595e-02 2.572519e-02 1.043779e-01 9.699504e-02 9.016024e-02 8.283899e-02
<VARIANCE> 16
 1.882408e-02 5.138106e-02 2.830917e-02 2.875629e-02 8.338767e-02 2.899909e-02 2.222960e-03 5.848824e-03 1.020700e-02 3.241693e-03 6.623805e-03 9.408099e-03 1.081500e-03 1.000000e-03 1.000000e-03 1.000000e-03
<GCONST> -4.947600e+01
<MIXTURE> 2 5.237201e-01
<MEAN> 16
 4.223476e-01 -4.126736e-01 1.792939e+00 -3.251740e-01 -3.382101e-01 1.771621e+00 -3.195983e-02 4.957607e-02 -3.720796e-02 6.961979e-03 5.024275e-02 -3.335185e-02 9.235407e-02 8.674846e-02 7.630789e-02 7.450411e-02
<VARIANCE> 16
 9.346814e-03 1.456030e-02 3.745227e-02 1.810948e-02 2.635814e-02 3.496660e-02 1.172022e-03 3.336145e-03 5.308811e-03 1.000000e-03 3.377935e-03 4.677685e-03 1.000000e-03 1.000000e-03 1.000000e-03 1.000000e-03
<GCONST> -5.706607e+01
<STATE> 3
<NUMMIXES> 2
<MIXTURE> 1 4.713797e-01
<MEAN> 16
 2.829024e-01 -2.397760e-01 1.926838e+00 -2.860019e-01 -1.941894e-01 1.863197e+00 2.945046e-03 1.275637e-03 2.367131e-02 -5.445289e-03 -2.468881e-03 2.164949e-02 8.953263e-02 9.757163e-02 8.684333e-02 8.246036e-02
<VARIANCE> 16
 1.767478e-02 3.683551e-02 1.345388e-02 7.891248e-03 1.148204e-02 7.680316e-03 1.000000e-03 1.660620e-03 2.794564e-03 1.000000e-03 1.085596e-03 2.502033e-03 1.000000e-03 1.000000e-03 1.000000e-03 1.000000e-03
<GCONST> -6.296089e+01
<MIXTURE> 2 5.286167e-01
<MEAN> 16
 2.073761e-01 -1.895016e-01 1.759549e+00 -2.410750e-01 -1.896784e-01 1.738400e+00 -1.225396e-02 8.511932e-03 -2.398225e-02 5.952872e-03 7.367231e-03 -2.158654e-02 8.819483e-02 9.131105e-02 7.296814e-02 7.619563e-02
<VARIANCE> 16
 3.196838e-02 1.687057e-02 8.172532e-03 7.229247e-03 4.714472e-03 7.199269e-03 1.000000e-03 1.933408e-03 2.865646e-03 1.000000e-03 1.000000e-03 2.577776e-03 1.000000e-03 1.000000e-03 1.000000e-03 1.000000e-03
<GCONST> -6.456520e+01
<STATE> 4
<NUMMIXES> 2
<MIXTURE> 1 4.031468e-01
<MEAN> 16
 2.470157e-01 -1.693502e-01 1.605429e+00 -2.890548e-01 1.181937e-02 1.483154e+00 -1.949356e-04 1.806139e-03 4.103442e-03 -1.875540e-03 2.479878e-03 1.632206e-03 9.241860e-02 1.030969e-01 7.962170e-02 8.329076e-02
<VARIANCE> 16
 1.651089e-02 5.401788e-02 2.089262e-02 9.461020e-03 1.134719e-02 2.176493e-02 1.000000e-03 2.315739e-03 2.904383e-03 1.000000e-03 1.000000e-03 2.001450e-03 1.000000e-03 1.000000e-03 1.000000e-03 1.000000e-03
<GCONST> -6.092905e+01
<MIXTURE> 2 5.968512e-01
<MEAN> 16
 1.064950e-01 -7.040807e-03 1.396279e+00 -2.869684e-01 1.777305e-02 1.371733e+00 -5.253354e-03 2.489085e-03 -5.297844e-03 9.992413e-04 5.643437e-04 -3.611024e-03 8.738575e-02 9.522301e-02 7.661639e-02 8.100535e-02
<VARIANCE> 16
 4.657062e-02 1.421992e-02 8.618554e-03 5.892346e-03 2.646653e-03 6.391515e-03 1.000000e-03 1.000000e-03 1.000000e-03 1.000000e-03 1.000000e-03 1.000000e-03 1.000000e-03 1.000000e-03 1.000000e-03 1.000000e-03
<GCONST> -6.786661e+01
<STATE> 5
<MEAN> 16
 1.968512e-01 -1.542352e-01 1.704826e+00 -2.401673e-01 -2.086358e-01 1.729317e+00 1.935414e-02 -7.643709e-03 5.452543e-03 -1.498352e-02 -6.361333e-03 1.102319e-02 9.735691e-02 1.006197e-01 7.897054e-02 7.724968e-02
<VARIANCE> 16
 4.319077e-02 3.568292e-02 4.877654e-02 2.483596e-02 9.591367e-02 3.788975e-02 1.045627e-02 5.201543e-03 1.258062e-02 7.249357e-03 5.307913e-03 1.119392e-02 1.000000e-03 1.162625e-03 1.000000e-03 1.000000e-03
<GCONST> -4.573561e+01
<TRANSP> 6
 0.000000e+00 1.000000e+00 0.000000e+00 0.000000e+00 0.000000e+00 0.000000e+00
 0.000000e+00 8.728259e-01 1.271740e-01 0.000000e+00 0.000000e+00 0.000000e+00
 0.000000e+00 0.000000e+00 9.366390e-01 6.336101e-02 0.000000e+00 0.000000e+00
 0.000000e+00 0.000000e+00 0.000000e+00 9.533602e-01 4.663981e-02 0.000000e+00
 0.000000e+00 0.000000e+00 0.000000e+00 0.000000e+00 7.238823e-01 2.761177e-01
 0.000000e+00 0.000000e+00 0.000000e+00 0.000000e+00 0.000000e+00 0.000000e+00
<ENDHMM>
