~o
<STREAMINFO> 1 16
<VECSIZE> 16<NULLD><USER><DIAGC>
~h "Car"
<BEGINHMM>
<NUMSTATES> 6
<STATE> 2
<MEAN> 16
 4.918397e-01 -6.416861e-01 1.884047e+00 -2.256137e-01 -4.565313e-01 1.827106e+00 1.879616e-02 -2.190226e-02 8.562540e-02 -1.322647e-02 -1.508201e-02 8.258504e-02 1.137637e-01 1.031986e-01 9.177758e-02 7.597149e-02
<VARIANCE> 16
 2.000000e-01 2.000000e-01 2.000000e-01 2.000000e-01 2.000000e-01 2.000000e-01 2.000000e-01 2.000000e-01 2.000000e-01 2.000000e-01 2.000000e-01 2.000000e-01 2.000000e-01 2.000000e-01 2.000000e-01 2.000000e-01
<GCONST> 3.655025e+00
<STATE> 3
<MEAN> 16
 2.671450e-01 -1.582843e-01 1.895433e+00 -3.086247e-01 -8.479387e-02 1.827185e+00 -1.576695e-03 3.672038e-03 -1.387015e-03 -3.879938e-04 2.509506e-03 -8.583543e-04 1.022831e-01 1.100045e-01 8.434858e-02 8.520814e-02
<VARIANCE> 16
 2.000000e-01 2.000000e-01 2.000000e-01 2.000000e-01 2.000000e-01 2.000000e-01 2.000000e-01 2.000000e-01 2.000000e-01 2.000000e-01 2.000000e-01 2.000000e-01 2.000000e-01 2.000000e-01 2.000000e-01 2.000000e-01
<GCONST> 3.655025e+00
<STATE> 4
<MEAN> 16
 1.645759e-01 -6.582341e-02 1.567596e+00 -3.107517e-01 -2.291109e-02 1.520571e+00 1.406552e-03 -3.063365e-03 -6.265723e-04 2.228627e-04 -2.431334e-03 -3.366225e-04 9.384435e-02 1.027585e-01 7.714510e-02 8.378090e-02
<VARIANCE> 16
 2.000000e-01 2.000000e-01 2.000000e-01 2.000000e-01 2.000000e-01 2.000000e-01 2.000000e-01 2.000000e-01 2.000000e-01 2.000000e-01 2.000000e-01 2.000000e-01 2.000000e-01 2.000000e-01 2.000000e-01 2.000000e-01
<GCONST> 3.655025e+00
<STATE> 5
<MEAN> 16
 5.634071e-01 -6.658242e-01 1.847976e+00 -2.048010e-01 -5.659227e-01 1.800988e+00 7.938256e-03 -1.145365e-02 3.858383e-03 3.399620e-03 -1.158311e-02 3.408337e-03 1.148246e-01 1.068748e-01 9.459497e-02 7.482229e-02
<VARIANCE> 16
 2.000000e-01 2.000000e-01 2.000000e-01 2.000000e-01 2.000000e-01 2.000000e-01 2.000000e-01 2.000000e-01 2.000000e-01 2.000000e-01 2.000000e-01 2.000000e-01 2.000000e-01 2.000000e-01 2.000000e-01 2.000000e-01
<GCONST> 3.655025e+00
<TRANSP> 6
 0.000000e+00 1.000000e+00 0.000000e+00 0.000000e+00 0.000000e+00 0.000000e+00
 0.000000e+00 9.536959e-01 4.630413e-02 0.000000e+00 0.000000e+00 0.000000e+00
 0.000000e+00 0.000000e+00 9.857211e-01 1.427895e-02 0.000000e+00 0.000000e+00
 0.000000e+00 0.000000e+00 0.000000e+00 9.797196e-01 2.028045e-02 0.000000e+00
 0.000000e+00 0.000000e+00 0.000000e+00 0.000000e+00 9.664018e-01 3.359825e-02
 0.000000e+00 0.000000e+00 0.000000e+00 0.000000e+00 0.000000e+00 0.000000e+00
<ENDHMM>
