~o
<STREAMINFO> 1 16
<VECSIZE> 16<NULLD><USER><DIAGC>
~h "Monkey"
<BEGINHMM>
<NUMSTATES> 6
<STATE> 2
<MEAN> 16
 5.970589e-01 -7.121339e-01 1.855131e+00 -2.109282e-01 -6.180573e-01 1.826772e+00 5.970589e-01 -7.121339e-01 1.855131e+00 -2.109282e-01 -6.180573e-01 1.826772e+00 1.153598e-01 1.077764e-01 9.701531e-02 7.113820e-02
<VARIANCE> 16
 6.153166e-03 2.574709e-03 1.594600e-02 1.946717e-02 8.088367e-03 7.730453e-03 6.153163e-03 2.574709e-03 1.594600e-02 1.946717e-02 8.088367e-03 7.730453e-03 1.000000e-03 1.000000e-03 1.000000e-03 1.000000e-03
<GCONST> -5.584559e+01
<STATE> 3
<MEAN> 16
 5.610733e-01 -6.696292e-01 1.858227e+00 -1.826618e-01 -5.709463e-01 1.818732e+00 -6.988797e-03 8.180882e-03 -4.880170e-04 3.601540e-04 7.291739e-03 -2.445153e-03 1.096061e-01 1.026975e-01 9.398092e-02 7.130799e-02
<VARIANCE> 16
 2.256105e-02 2.273356e-02 1.561299e-02 1.573584e-02 2.193254e-02 9.646810e-03 1.000000e-03 1.411347e-03 3.126137e-03 1.000000e-03 1.503398e-03 4.853456e-03 1.000000e-03 1.000000e-03 1.000000e-03 1.000000e-03
<GCONST> -6.054758e+01
<STATE> 4
<MEAN> 16
 5.276742e-01 -5.959437e-01 1.829037e+00 -2.095920e-01 -5.196410e-01 1.810507e+00 -4.471460e-04 1.378615e-03 1.547715e-03 -3.022993e-03 2.140210e-03 -1.492967e-04 1.171759e-01 1.065374e-01 1.039418e-01 7.259946e-02
<VARIANCE> 16
 2.688529e-02 6.572156e-02 1.789896e-02 2.426397e-02 6.309502e-02 9.575969e-03 1.100637e-03 1.000000e-03 1.177704e-03 1.787523e-03 1.000000e-03 1.505927e-03 1.000000e-03 1.000000e-03 1.000000e-03 1.000000e-03
<GCONST> -5.991372e+01
<STATE> 5
<MEAN> 16
 4.692025e-01 -6.742562e-01 1.887954e+00 -1.778167e-01 -4.511761e-01 1.826571e+00 -8.214545e-03 5.466917e-03 8.895502e-05 -2.900289e-03 9.633713e-03 -1.278049e-03 1.199516e-01 1.114996e-01 9.021027e-02 7.497180e-02
<VARIANCE> 16
 2.285837e-02 3.871385e-03 1.047012e-02 1.426407e-02 9.651539e-02 7.040312e-03 1.000000e-03 1.000000e-03 1.939339e-03 1.000000e-03 1.744354e-03 1.906468e-03 1.000000e-03 1.000000e-03 1.000000e-03 1.000000e-03
<GCONST> -6.324352e+01
<TRANSP> 6
 0.000000e+00 1.000000e+00 0.000000e+00 0.000000e+00 0.000000e+00 0.000000e+00
 0.000000e+00 0.000000e+00 1.000000e+00 0.000000e+00 0.000000e+00 0.000000e+00
 0.000000e+00 0.000000e+00 4.650401e-01 5.349600e-01 0.000000e+00 0.000000e+00
 0.000000e+00 0.000000e+00 0.000000e+00 2.231600e-01 7.768399e-01 0.000000e+00
 0.000000e+00 0.000000e+00 0.000000e+00 0.000000e+00 9.227661e-01 7.723395e-02
 0.000000e+00 0.000000e+00 0.000000e+00 0.000000e+00 0.000000e+00 0.000000e+00
<ENDHMM>
~h "fence"
<BEGINHMM>
<NUMSTATES> 6
<STATE> 2
<MEAN> 16
 3.806327e-01 -2.994162e-01 1.923532e+00 -3.334213e-01 -2.126051e-01 1.814779e+00 2.016115e-04 -2.772680e-03 -1.525938e-04 -1.235562e-03 -2.723209e-03 -1.772087e-03 9.767814e-02 1.476485e-01 8.995249e-02 8.911496e-02
<VARIANCE> 16
 1.247947e-02 1.726513e-02 2.032390e-02 2.970030e-03 1.285296e-02 1.477411e-02 1.000000e-03 1.310878e-03 3.822441e-03 1.000000e-03 1.000000e-03 2.967231e-03 1.313957e-03 1.000000e-03 1.000000e-03 1.000000e-03
<GCONST> -6.342620e+01
<STATE> 3
<MEAN> 16
 2.580515e-01 -8.162341e-02 1.840562e+00 -3.453848e-01 -1.270291e-01 1.792551e+00 -8.179772e-04 -1.379567e-03 -5.128337e-04 3.827064e-04 -1.225150e-03 -1.910024e-04 1.096399e-01 1.531947e-01 8.612102e-02 9.337807e-02
<VARIANCE> 16
 3.996088e-02 3.881280e-02 1.454182e-02 5.382386e-03 7.386584e-03 1.230983e-02 1.291097e-03 2.022933e-03 3.398052e-03 1.000000e-03 1.000000e-03 2.944169e-03 1.000000e-03 1.000000e-03 1.000000e-03 1.000000e-03
<GCONST> -6.163811e+01
<STATE> 4
<MEAN> 16
 1.526388e-01 -1.253822e-01 1.611245e+00 -3.403910e-01 -9.160998e-02 1.563224e+00 3.008399e-03 -5.935968e-03 4.109813e-04 9.798610e-04 -3.977705e-03 4.563993e-04 9.357964e-02 1.343616e-01 7.645504e-02 8.477965e-02
<VARIANCE> 16
 5.933207e-02 2.601212e-02 2.509495e-02 1.261936e-02 9.406162e-03 2.291273e-02 1.504408e-03 1.197344e-03 1.991015e-03 1.000000e-03 1.000000e-03 1.715504e-03 1.000000e-03 1.000000e-03 1.000000e-03 1.000000e-03
<GCONST> -6.082853e+01
<STATE> 5
<MEAN> 16
 5.740929e-01 -6.899868e-01 1.857846e+00 -1.897055e-01 -5.890638e-01 1.792024e+00 6.714436e-03 -8.076682e-03 3.092098e-03 3.681637e-03 -9.294620e-03 3.448806e-03 1.156255e-01 1.110807e-01 9.692882e-02 7.523919e-02
<VARIANCE> 16
 2.105827e-02 4.901360e-03 1.515383e-02 1.491481e-02 9.345505e-03 7.575362e-03 1.000000e-03 1.000000e-03 1.954481e-03 1.000000e-03 1.000000e-03 1.772430e-03 1.000000e-03 1.000000e-03 1.000000e-03 1.000000e-03
<GCONST> -6.555837e+01
<TRANSP> 6
 0.000000e+00 1.000000e+00 0.000000e+00 0.000000e+00 0.000000e+00 0.000000e+00
 0.000000e+00 9.404523e-01 5.954767e-02 0.000000e+00 0.000000e+00 0.000000e+00
 0.000000e+00 0.000000e+00 9.746585e-01 2.534150e-02 0.000000e+00 0.000000e+00
 0.000000e+00 0.000000e+00 0.000000e+00 9.742394e-01 2.576058e-02 0.000000e+00
 0.000000e+00 0.000000e+00 0.000000e+00 0.000000e+00 9.632970e-01 3.670299e-02
 0.000000e+00 0.000000e+00 0.000000e+00 0.000000e+00 0.000000e+00 0.000000e+00
<ENDHMM>
~h "Car"
<BEGINHMM>
<NUMSTATES> 6
<STATE> 2
<MEAN> 16
 5.990599e-01 -7.116907e-01 1.841771e+00 -2.187003e-01 -6.207082e-01 1.826178e+00 5.990599e-01 -7.116907e-01 1.841771e+00 -2.187003e-01 -6.207082e-01 1.826178e+00 1.144105e-01 1.049336e-01 9.861822e-02 7.399214e-02
<VARIANCE> 16
 5.549334e-03 2.272439e-03 1.463094e-02 1.891768e-02 9.345447e-03 8.381012e-03 5.549334e-03 2.272439e-03 1.463094e-02 1.891768e-02 9.345447e-03 8.381012e-03 1.000000e-03 1.000000e-03 1.000000e-03 1.000000e-03
<GCONST> -5.608081e+01
<STATE> 3
<MEAN> 16
 5.995271e-01 -7.104323e-01 1.844834e+00 -1.977947e-01 -4.992472e-01 1.801643e+00 -9.301668e-04 1.768502e-03 -3.004787e-04 8.899847e-04 1.051207e-02 -5.556121e-03 1.195000e-01 1.031391e-01 9.847847e-02 7.683291e-02
<VARIANCE> 16
 3.864740e-03 2.494912e-03 1.200670e-02 1.931450e-02 8.149795e-02 1.344324e-02 1.000000e-03 1.000000e-03 2.997303e-03 1.148198e-03 2.274901e-03 4.234141e-03 1.000000e-03 1.000000e-03 1.000000e-03 1.000000e-03
<GCONST> -6.290551e+01
<STATE> 4
<MEAN> 16
 5.977738e-01 -6.966289e-01 1.810906e+00 -2.281842e-01 -4.840353e-01 1.769291e+00 -4.889124e-04 3.619587e-03 -1.567413e-04 -1.344944e-03 3.179068e-03 -2.813370e-03 1.170729e-01 1.059778e-01 1.069434e-01 7.549085e-02
<VARIANCE> 16
 4.433902e-03 4.211998e-03 1.532467e-02 2.179153e-02 7.629110e-02 1.502051e-02 1.000000e-03 1.000000e-03 1.000000e-03 1.000000e-03 1.000000e-03 1.000000e-03 1.000000e-03 1.000000e-03 1.000000e-03 1.000000e-03
<GCONST> -6.533588e+01
<STATE> 5
<MEAN> 16
 4.892870e-01 -6.689526e-01 1.863412e+00 -2.143511e-01 -5.999230e-01 1.830521e+00 -1.125176e-02 7.591665e-03 -2.448905e-04 -2.813453e-03 6.265702e-03 -2.791167e-03 1.163929e-01 1.087917e-01 9.642578e-02 7.271173e-02
<VARIANCE> 16
 2.154203e-02 4.129573e-03 1.378596e-02 1.439604e-02 1.636315e-02 7.058485e-03 1.000000e-03 1.000000e-03 1.656723e-03 1.000000e-03 1.000000e-03 1.416692e-03 1.000000e-03 1.000000e-03 1.000000e-03 1.000000e-03
<GCONST> -6.573685e+01
<TRANSP> 6
 0.000000e+00 1.000000e+00 0.000000e+00 0.000000e+00 0.000000e+00 0.000000e+00
 0.000000e+00 0.000000e+00 1.000000e+00 0.000000e+00 0.000000e+00 0.000000e+00
 0.000000e+00 0.000000e+00 4.102211e-01 5.897789e-01 0.000000e+00 0.000000e+00
 0.000000e+00 0.000000e+00 0.000000e+00 4.606130e-01 5.393870e-01 0.000000e+00
 0.000000e+00 0.000000e+00 0.000000e+00 0.000000e+00 8.940004e-01 1.059997e-01
 0.000000e+00 0.000000e+00 0.000000e+00 0.000000e+00 0.000000e+00 0.000000e+00
<ENDHMM>
~h "Man"
<BEGINHMM>
<NUMSTATES> 6
<STATE> 2
<MEAN> 16
 5.873427e-01 -7.041420e-01 1.846702e+00 -2.158627e-01 -6.154588e-01 1.818353e+00 5.873427e-01 -7.041420e-01 1.846702e+00 -2.158627e-01 -6.154588e-01 1.818353e+00 1.146403e-01 1.053031e-01 1.003749e-01 7.157945e-02
<VARIANCE> 16
 2.306375e-02 9.086658e-03 1.791536e-02 2.072750e-02 1.372117e-02 9.324222e-03 2.306375e-02 9.086658e-03 1.791536e-02 2.072750e-02 1.372117e-02 9.324222e-03 1.000000e-03 1.000000e-03 1.000000e-03 1.000000e-03
<GCONST> -4.889057e+01
<STATE> 3
<MEAN> 16
 6.735996e-02 -2.029197e-01 2.191863e+00 -5.877382e-01 -3.494883e-02 1.906828e+00 9.984801e-04 -7.405203e-04 1.944641e-04 4.489669e-04 -4.517481e-04 5.613612e-05 9.882263e-02 9.333220e-02 8.763868e-02 7.659271e-02
<VARIANCE> 16
 7.218717e-01 1.264104e-01 1.735091e-01 1.895697e-01 3.572988e-01 1.559863e-01 2.607457e+00 2.841897e-01 1.505525e-01 5.744427e-01 1.095646e+00 2.220431e-01 1.000000e-03 1.386137e-03 1.209909e-03 1.000000e-03
<GCONST> -1.056482e+01
<STATE> 4
<MEAN> 16
 5.158575e-01 -5.869256e-01 1.894233e+00 -1.632863e-01 -6.119574e-01 1.837936e+00 -5.575719e-03 7.906846e-03 -6.648576e-04 -9.457935e-04 4.970594e-03 -3.529607e-03 1.056807e-01 9.971756e-02 9.485733e-02 7.082524e-02
<VARIANCE> 16
 3.685100e-02 6.954929e-02 1.623102e-02 1.581707e-02 6.614510e-03 8.448361e-03 1.140841e-03 2.844937e-03 3.547754e-03 1.000000e-03 1.317389e-03 2.843505e-03 1.000000e-03 1.000000e-03 1.000000e-03 1.000000e-03
<GCONST> -5.993357e+01
<STATE> 5
<MEAN> 16
 4.716727e-01 -6.730902e-01 1.877262e+00 -1.672240e-01 -4.483541e-01 1.826765e+00 -7.812888e-03 4.721819e-03 2.391581e-04 -2.875257e-03 8.716661e-03 -1.124676e-03 1.206807e-01 1.081875e-01 9.420874e-02 7.577769e-02
<VARIANCE> 16
 2.291567e-02 3.722853e-03 1.178224e-02 1.402971e-02 8.747797e-02 9.269662e-03 1.000000e-03 1.000000e-03 1.722564e-03 1.000000e-03 1.685006e-03 1.667931e-03 1.000000e-03 1.000000e-03 1.000000e-03 1.000000e-03
<GCONST> -6.328868e+01
<TRANSP> 6
 0.000000e+00 1.000000e+00 0.000000e+00 0.000000e+00 0.000000e+00 0.000000e+00
 0.000000e+00 0.000000e+00 1.000000e+00 0.000000e+00 0.000000e+00 0.000000e+00
 0.000000e+00 0.000000e+00 8.591736e-01 1.408264e-01 0.000000e+00 0.000000e+00
 0.000000e+00 0.000000e+00 0.000000e+00 5.223678e-01 4.776323e-01 0.000000e+00
 0.000000e+00 0.000000e+00 0.000000e+00 0.000000e+00 9.263631e-01 7.363697e-02
 0.000000e+00 0.000000e+00 0.000000e+00 0.000000e+00 0.000000e+00 0.000000e+00
<ENDHMM>
~h "car"
<BEGINHMM>
<NUMSTATES> 6
<STATE> 2
<MEAN> 16
 3.269136e-01 -4.356929e-01 2.034642e+00 -2.778461e-01 2.142871e-03 1.856527e+00 3.870242e-03 -4.714482e-03 4.558485e-03 -4.644116e-04 -7.641591e-03 -4.773173e-04 9.412158e-02 1.229703e-01 8.903944e-02 8.467101e-02
<VARIANCE> 16
 1.549077e-02 1.278729e-02 2.971086e-02 3.535302e-03 3.412479e-02 1.253146e-02 1.000000e-03 1.133990e-03 2.520610e-03 1.000000e-03 1.000000e-03 1.419157e-03 1.000000e-03 1.000000e-03 1.000000e-03 1.000000e-03
<GCONST> -6.371648e+01
<STATE> 3
<MEAN> 16
 2.981559e-01 -2.998062e-02 1.895246e+00 -3.090298e-01 -2.766022e-02 1.858572e+00 3.283859e-03 -1.249597e-03 -1.419620e-03 -3.529713e-04 -3.480974e-03 -3.176195e-05 1.078185e-01 1.224181e-01 8.608256e-02 8.215033e-02
<VARIANCE> 16
 3.575975e-02 4.075313e-02 1.533692e-02 5.942320e-03 1.835747e-02 1.473413e-02 1.711579e-03 2.721534e-03 4.444157e-03 1.000000e-03 1.000000e-03 3.467753e-03 1.000000e-03 1.000000e-03 1.000000e-03 1.000000e-03
<GCONST> -5.944743e+01
<STATE> 4
<MEAN> 16
 2.064309e-01 -5.147583e-02 1.639239e+00 -3.703039e-01 -3.291035e-02 1.592250e+00 5.780632e-04 -5.697745e-03 -1.763260e-04 1.347876e-03 -4.620281e-03 -4.392451e-04 9.133024e-02 1.113330e-01 7.142729e-02 8.135042e-02
<VARIANCE> 16
 3.377819e-02 3.207289e-02 2.368078e-02 5.627614e-03 1.420345e-02 1.810373e-02 1.000000e-03 1.433735e-03 2.167375e-03 1.000000e-03 1.000000e-03 1.770946e-03 1.000000e-03 1.000000e-03 1.000000e-03 1.000000e-03
<GCONST> -6.198297e+01
<STATE> 5
<MEAN> 16
 5.791242e-01 -6.922008e-01 1.855834e+00 -1.942867e-01 -6.021796e-01 1.813457e+00 4.860907e-03 -7.002543e-03 2.021426e-03 3.887585e-03 -8.215103e-03 2.867342e-03 1.162824e-01 1.072122e-01 9.727675e-02 7.484180e-02
<VARIANCE> 16
 1.621053e-02 3.512498e-03 1.554203e-02 1.798254e-02 5.974462e-03 7.153476e-03 1.000000e-03 1.000000e-03 1.844369e-03 1.000000e-03 1.000000e-03 1.834598e-03 1.000000e-03 1.000000e-03 1.000000e-03 1.000000e-03
<GCONST> -6.646906e+01
<TRANSP> 6
 0.000000e+00 1.000000e+00 0.000000e+00 0.000000e+00 0.000000e+00 0.000000e+00
 0.000000e+00 8.771039e-01 1.228961e-01 0.000000e+00 0.000000e+00 0.000000e+00
 0.000000e+00 0.000000e+00 9.623036e-01 3.769647e-02 0.000000e+00 0.000000e+00
 0.000000e+00 0.000000e+00 0.000000e+00 9.628882e-01 3.711173e-02 0.000000e+00
 0.000000e+00 0.000000e+00 0.000000e+00 0.000000e+00 9.604246e-01 3.957540e-02
 0.000000e+00 0.000000e+00 0.000000e+00 0.000000e+00 0.000000e+00 0.000000e+00
<ENDHMM>
~h "weaves_and_bumps_into"
<BEGINHMM>
<NUMSTATES> 6
<STATE> 2
<MEAN> 16
 3.986361e-01 -3.862032e-01 1.896858e+00 -3.315499e-01 -3.204696e-01 1.857241e+00 -1.972998e-02 3.699369e-02 -6.486703e-03 1.437475e-03 4.076866e-02 -7.936832e-03 9.649644e-02 9.085431e-02 8.202361e-02 8.002272e-02
<VARIANCE> 16
 1.174119e-02 1.840655e-02 4.639790e-02 1.374764e-02 2.054195e-02 4.474851e-02 2.132217e-03 4.231316e-03 9.718915e-03 1.779555e-03 4.746640e-03 8.542252e-03 1.000000e-03 1.000000e-03 1.000000e-03 1.000000e-03
<GCONST> -5.370803e+01
<STATE> 3
<MEAN> 16
 2.357206e-01 -1.346108e-01 1.794203e+00 -2.819938e-01 -1.106177e-01 1.722725e+00 -2.710521e-03 4.246891e-03 -1.292314e-03 -5.164969e-04 3.587843e-03 -9.694983e-04 9.424172e-02 9.673814e-02 8.089985e-02 7.856686e-02
<VARIANCE> 16
 1.515362e-02 3.318500e-02 1.282413e-02 9.457376e-03 1.767221e-02 1.030331e-02 1.059472e-03 2.064859e-03 4.179936e-03 1.000000e-03 1.278525e-03 3.664843e-03 1.000000e-03 1.000000e-03 1.000000e-03 1.000000e-03
<GCONST> -6.113752e+01
<STATE> 4
<MEAN> 16
 2.160878e-01 -5.737408e-02 1.461235e+00 -3.183846e-01 2.463340e-02 1.419199e+00 1.606385e-03 -9.525162e-04 -1.142287e-03 -1.026588e-03 6.837571e-04 -1.138481e-03 8.962400e-02 1.066272e-01 8.207921e-02 8.576661e-02
<VARIANCE> 16
 2.412619e-02 3.004816e-02 2.950921e-02 6.350488e-03 6.032772e-03 1.688834e-02 1.051396e-03 1.242524e-03 1.780140e-03 1.000000e-03 1.000000e-03 1.183913e-03 1.000000e-03 1.000000e-03 1.000000e-03 1.000000e-03
<GCONST> -6.366211e+01
<STATE> 5
<MEAN> 16
 3.613279e-01 -3.505715e-01 1.813947e+00 -2.793950e-01 6.626962e-03 1.740501e+00 1.518575e-02 -2.206628e-02 2.559618e-02 -8.704417e-03 -4.598615e-03 1.871754e-02 1.106588e-01 1.101387e-01 8.515031e-02 8.718766e-02
<VARIANCE> 16
 1.796448e-02 6.122095e-02 4.014457e-02 2.036257e-02 6.654482e-02 3.903173e-02 3.642260e-03 2.846570e-03 9.667847e-03 1.357712e-03 5.518821e-03 6.498733e-03 1.048535e-03 1.000000e-03 1.000000e-03 1.000000e-03
<GCONST> -5.100624e+01
<TRANSP> 6
 0.000000e+00 1.000000e+00 0.000000e+00 0.000000e+00 0.000000e+00 0.000000e+00
 0.000000e+00 8.816479e-01 1.183521e-01 0.000000e+00 0.000000e+00 0.000000e+00
 0.000000e+00 0.000000e+00 9.540355e-01 4.596450e-02 0.000000e+00 0.000000e+00
 0.000000e+00 0.000000e+00 0.000000e+00 9.619309e-01 3.806916e-02 0.000000e+00
 0.000000e+00 0.000000e+00 0.000000e+00 0.000000e+00 7.706596e-01 2.293404e-01
 0.000000e+00 0.000000e+00 0.000000e+00 0.000000e+00 0.000000e+00 0.000000e+00
<ENDHMM>
~h "man"
<BEGINHMM>
<NUMSTATES> 6
<STATE> 2
<MEAN> 16
 3.818119e-01 -6.027711e-01 1.854451e+00 -3.476954e-01 -1.273373e-01 1.743421e+00 -8.439507e-04 5.474207e-03 -2.721343e-03 -8.577322e-03 -4.842415e-03 -4.067766e-03 1.189045e-01 8.051453e-02 8.655975e-02 9.408931e-02
<VARIANCE> 16
 1.624054e-02 7.841699e-03 2.442043e-02 1.657919e-02 7.975049e-03 3.570742e-02 1.000000e-03 1.000000e-03 3.011186e-03 1.000000e-03 1.000000e-03 1.580941e-03 1.000000e-03 1.000000e-03 1.000000e-03 1.000000e-03
<GCONST> -6.305549e+01
<STATE> 3
<MEAN> 16
 1.907790e-01 -7.414471e-02 1.842824e+00 -3.673753e-01 -1.479788e-01 1.855993e+00 -8.135549e-04 2.139511e-03 -1.986521e-03 1.739056e-03 -1.442567e-03 -7.177349e-04 1.009607e-01 8.727262e-02 7.846905e-02 9.348791e-02
<VARIANCE> 16
 4.539462e-02 3.253304e-02 1.675910e-02 8.650321e-03 6.386674e-03 2.026790e-02 1.701337e-03 2.794131e-03 4.109679e-03 1.000000e-03 1.000000e-03 3.602633e-03 1.000000e-03 1.000000e-03 1.000000e-03 1.000000e-03
<GCONST> -5.972667e+01
<STATE> 4
<MEAN> 16
 2.171445e-01 -6.632247e-02 1.529085e+00 -3.365903e-01 -6.006540e-02 1.512640e+00 3.278809e-03 -3.595539e-03 1.914293e-04 6.855308e-04 -5.178400e-03 -2.047161e-04 9.398549e-02 7.247718e-02 7.797988e-02 8.989049e-02
<VARIANCE> 16
 4.502430e-02 3.957343e-02 2.325783e-02 1.279296e-02 1.164909e-02 1.292696e-02 1.149951e-03 1.445519e-03 1.646551e-03 1.000000e-03 1.000000e-03 1.265287e-03 1.000000e-03 1.000000e-03 1.000000e-03 1.000000e-03
<GCONST> -6.168045e+01
<STATE> 5
<MEAN> 16
 5.739757e-01 -6.849355e-01 1.851399e+00 -1.939966e-01 -5.916055e-01 1.807644e+00 6.911730e-03 -9.007566e-03 3.498493e-03 2.780138e-03 -1.025869e-02 3.647255e-03 1.162043e-01 1.060881e-01 9.457990e-02 7.522057e-02
<VARIANCE> 16
 2.005554e-02 4.933236e-03 1.619410e-02 1.726809e-02 7.938198e-03 8.701295e-03 1.000000e-03 1.000000e-03 2.664369e-03 1.000000e-03 1.123436e-03 2.055863e-03 1.000000e-03 1.000000e-03 1.000000e-03 1.000000e-03
<GCONST> -6.483784e+01
<TRANSP> 6
 0.000000e+00 1.000000e+00 0.000000e+00 0.000000e+00 0.000000e+00 0.000000e+00
 0.000000e+00 9.322126e-01 6.778742e-02 0.000000e+00 0.000000e+00 0.000000e+00
 0.000000e+00 0.000000e+00 9.735773e-01 2.642271e-02 0.000000e+00 0.000000e+00
 0.000000e+00 0.000000e+00 0.000000e+00 9.537039e-01 4.629613e-02 0.000000e+00
 0.000000e+00 0.000000e+00 0.000000e+00 0.000000e+00 9.600460e-01 3.995400e-02
 0.000000e+00 0.000000e+00 0.000000e+00 0.000000e+00 0.000000e+00 0.000000e+00
<ENDHMM>
~h "monkey"
<BEGINHMM>
<NUMSTATES> 6
<STATE> 2
<MEAN> 16
 3.521986e-01 -4.563438e-01 2.098777e+00 -2.969004e-01 -3.623754e-02 1.888398e+00 9.284511e-04 -1.202607e-03 3.419081e-04 9.749696e-04 -5.375598e-03 -9.647716e-04 1.035917e-01 1.074646e-01 8.994520e-02 7.472850e-02
<VARIANCE> 16
 1.027676e-02 6.794745e-03 2.198928e-02 7.201899e-03 2.296076e-02 1.636573e-02 1.000000e-03 1.000000e-03 1.998166e-03 1.000000e-03 1.000000e-03 1.306575e-03 1.463685e-03 1.000000e-03 1.000000e-03 1.000000e-03
<GCONST> -6.453754e+01
<STATE> 3
<MEAN> 16
 2.231206e-01 -5.579591e-02 1.893692e+00 -2.973742e-01 -7.335613e-02 1.874963e+00 1.038675e-03 -1.438897e-03 -2.447203e-03 1.167419e-03 -3.401821e-03 -5.657089e-04 1.051597e-01 1.059052e-01 8.437975e-02 7.341302e-02
<VARIANCE> 16
 4.613571e-02 3.548706e-02 1.600142e-02 1.005408e-02 1.075703e-02 1.512963e-02 1.545570e-03 2.552464e-03 4.176565e-03 1.000000e-03 1.000000e-03 3.595969e-03 1.000000e-03 1.000000e-03 1.000000e-03 1.000000e-03
<GCONST> -5.946268e+01
<STATE> 4
<MEAN> 16
 2.865514e-01 -1.402405e-01 1.616657e+00 -2.877116e-01 -1.720732e-02 1.566912e+00 5.637041e-03 -9.335418e-03 -1.532450e-04 2.006142e-03 -9.317125e-03 -1.066224e-03 9.974452e-02 9.687591e-02 8.016273e-02 6.703043e-02
<VARIANCE> 16
 3.552292e-02 6.085807e-02 2.379679e-02 3.823349e-03 2.917063e-02 1.569665e-02 1.106107e-03 1.716096e-03 1.740301e-03 1.000000e-03 1.000000e-03 1.261652e-03 1.000000e-03 1.000000e-03 1.000000e-03 1.000000e-03
<GCONST> -6.137467e+01
<STATE> 5
<MEAN> 16
 5.760903e-01 -6.924511e-01 1.853751e+00 -1.951690e-01 -6.050190e-01 1.807294e+00 5.096369e-03 -6.267637e-03 1.812715e-03 2.063522e-03 -7.393984e-03 2.127377e-03 1.148841e-01 1.088926e-01 9.558622e-02 7.430613e-02
<VARIANCE> 16
 1.636553e-02 3.519411e-03 1.634908e-02 1.755503e-02 6.028382e-03 6.403703e-03 1.000000e-03 1.000000e-03 1.755041e-03 1.000000e-03 1.000000e-03 1.692403e-03 1.000000e-03 1.000000e-03 1.000000e-03 1.000000e-03
<GCONST> -6.666308e+01
<TRANSP> 6
 0.000000e+00 1.000000e+00 0.000000e+00 0.000000e+00 0.000000e+00 0.000000e+00
 0.000000e+00 9.141675e-01 8.583248e-02 0.000000e+00 0.000000e+00 0.000000e+00
 0.000000e+00 0.000000e+00 9.740759e-01 2.592407e-02 0.000000e+00 0.000000e+00
 0.000000e+00 0.000000e+00 0.000000e+00 9.005252e-01 9.947484e-02 0.000000e+00
 0.000000e+00 0.000000e+00 0.000000e+00 0.000000e+00 9.618407e-01 3.815928e-02
 0.000000e+00 0.000000e+00 0.000000e+00 0.000000e+00 0.000000e+00 0.000000e+00
<ENDHMM>
~h "bumps_into_each_other"
<BEGINHMM>
<NUMSTATES> 6
<STATE> 2
<MEAN> 16
 4.224468e-01 -5.022227e-01 1.922762e+00 -2.927381e-01 -1.868769e-01 1.855344e+00 -7.136514e-03 1.265685e-02 3.945544e-03 -2.221305e-03 3.005493e-02 9.001725e-04 1.082567e-01 9.539215e-02 8.998312e-02 8.133195e-02
<VARIANCE> 16
 1.255600e-02 2.272290e-02 3.417536e-02 2.682449e-02 8.052716e-02 4.326206e-02 1.000000e-03 1.364495e-03 5.273128e-03 1.270814e-03 4.489627e-03 5.020483e-03 1.286686e-03 1.000000e-03 1.000000e-03 1.000000e-03
<GCONST> -5.490736e+01
<STATE> 3
<MEAN> 16
 3.127003e-01 -1.658051e-01 1.869898e+00 -2.490622e-01 -1.319478e-01 1.821373e+00 -1.836262e-03 5.695681e-03 -2.941738e-03 -4.967978e-04 3.619165e-03 -2.249894e-03 8.762375e-02 9.409665e-02 8.261116e-02 7.747566e-02
<VARIANCE> 16
 1.122149e-02 3.491493e-02 1.555908e-02 7.291823e-03 2.064735e-02 1.236926e-02 1.313359e-03 3.424955e-03 6.099263e-03 1.000000e-03 2.111238e-03 5.374118e-03 1.000000e-03 1.000000e-03 1.000000e-03 1.000000e-03
<GCONST> -5.913240e+01
<STATE> 4
<MEAN> 16
 2.659080e-01 -3.347798e-02 1.562181e+00 -3.284374e-01 5.097337e-02 1.521520e+00 8.443077e-04 1.231449e-03 -2.032311e-03 -1.083012e-03 1.809987e-04 -1.181519e-03 8.768859e-02 1.047017e-01 7.788076e-02 7.948661e-02
<VARIANCE> 16
 1.466859e-02 3.274051e-02 2.421389e-02 1.063786e-02 7.390558e-03 1.426885e-02 1.000000e-03 1.409563e-03 1.583309e-03 1.000000e-03 1.000000e-03 1.288960e-03 1.000000e-03 1.000000e-03 1.000000e-03 1.000000e-03
<GCONST> -6.367747e+01
<STATE> 5
<MEAN> 16
 4.399546e-01 -3.221206e-01 1.735915e+00 -3.535099e-01 -1.907024e-01 1.689407e+00 1.915038e-02 -5.104389e-02 3.312680e-02 -2.389985e-03 -4.789253e-02 2.309344e-02 8.752628e-02 8.910122e-02 7.518703e-02 7.602426e-02
<VARIANCE> 16
 1.742518e-02 2.485242e-02 4.139568e-02 1.358680e-02 3.583418e-02 3.412377e-02 1.000000e-03 1.582094e-03 6.730098e-03 1.000000e-03 2.547731e-03 6.298100e-03 1.000000e-03 1.000000e-03 1.000000e-03 1.000000e-03
<GCONST> -5.646522e+01
<TRANSP> 6
 0.000000e+00 1.000000e+00 0.000000e+00 0.000000e+00 0.000000e+00 0.000000e+00
 0.000000e+00 9.171504e-01 8.284960e-02 0.000000e+00 0.000000e+00 0.000000e+00
 0.000000e+00 0.000000e+00 9.644758e-01 3.552414e-02 0.000000e+00 0.000000e+00
 0.000000e+00 0.000000e+00 0.000000e+00 9.593647e-01 4.063527e-02 0.000000e+00
 0.000000e+00 0.000000e+00 0.000000e+00 0.000000e+00 6.218902e-01 3.781099e-01
 0.000000e+00 0.000000e+00 0.000000e+00 0.000000e+00 0.000000e+00 0.000000e+00
<ENDHMM>
~h "jumps_on"
<BEGINHMM>
<NUMSTATES> 6
<STATE> 2
<MEAN> 16
 4.064490e-01 -4.458908e-01 1.921936e+00 -3.037019e-01 -2.889844e-01 1.865204e+00 -1.503279e-02 2.896770e-02 -3.930244e-03 2.143383e-03 3.685386e-02 -6.294656e-03 1.026693e-01 9.298385e-02 8.758443e-02 8.044387e-02
<VARIANCE> 16
 1.117113e-02 1.619136e-02 4.844981e-02 1.562284e-02 5.572410e-02 5.137360e-02 1.583871e-03 3.407714e-03 6.919028e-03 1.455756e-03 5.980217e-03 6.598803e-03 1.024794e-03 1.000000e-03 1.000000e-03 1.000000e-03
<GCONST> -5.363589e+01
<STATE> 3
<MEAN> 16
 2.648588e-01 -1.119562e-01 1.833846e+00 -2.543433e-01 -9.220756e-02 1.743520e+00 -5.515968e-03 1.072504e-02 -2.642706e-03 9.366773e-04 3.229197e-03 -1.249784e-03 9.687560e-02 1.036601e-01 8.116710e-02 8.225582e-02
<VARIANCE> 16
 1.344677e-02 4.879433e-02 1.246820e-02 7.784147e-03 2.131288e-02 1.252193e-02 1.009879e-03 2.746542e-03 4.501903e-03 1.000000e-03 1.294326e-03 3.775570e-03 1.000000e-03 1.000000e-03 1.000000e-03 1.000000e-03
<GCONST> -6.035843e+01
<STATE> 4
<MEAN> 16
 6.780422e-02 9.007506e-03 1.535203e+00 -1.811164e-01 -4.101327e-03 1.449483e+00 -4.069303e-03 1.861162e-03 -5.920049e-04 7.569252e-04 2.152766e-04 -1.099952e-03 9.325187e-02 1.007910e-01 7.519063e-02 8.106914e-02
<VARIANCE> 16
 4.675176e-02 4.516507e-02 3.059971e-02 7.337458e-03 6.485275e-03 1.934540e-02 1.000000e-03 1.435252e-03 2.033466e-03 1.000000e-03 1.000000e-03 1.439464e-03 1.000000e-03 1.000000e-03 1.000000e-03 1.000000e-03
<GCONST> -6.178156e+01
<STATE> 5
<MEAN> 16
 -8.493672e-03 -9.287666e-02 1.740457e+00 -1.438214e-01 -1.704909e-01 1.717573e+00 2.889309e-02 -2.953466e-02 4.382179e-03 -8.135716e-03 -1.379946e-02 8.068527e-03 9.160107e-02 9.213436e-02 7.346321e-02 8.314020e-02
<VARIANCE> 16
 6.738995e-02 3.654771e-02 2.696019e-02 2.792417e-02 2.577486e-02 2.268159e-02 5.885693e-03 3.618666e-03 9.448076e-03 5.420465e-03 3.725672e-03 1.009683e-02 1.000000e-03 1.376761e-03 1.000000e-03 1.000000e-03
<GCONST> -4.937231e+01
<TRANSP> 6
 0.000000e+00 1.000000e+00 0.000000e+00 0.000000e+00 0.000000e+00 0.000000e+00
 0.000000e+00 8.862067e-01 1.137933e-01 0.000000e+00 0.000000e+00 0.000000e+00
 0.000000e+00 0.000000e+00 9.613917e-01 3.860830e-02 0.000000e+00 0.000000e+00
 0.000000e+00 0.000000e+00 0.000000e+00 9.676206e-01 3.237939e-02 0.000000e+00
 0.000000e+00 0.000000e+00 0.000000e+00 0.000000e+00 8.834559e-01 1.165441e-01
 0.000000e+00 0.000000e+00 0.000000e+00 0.000000e+00 0.000000e+00 0.000000e+00
<ENDHMM>
~h "house"
<BEGINHMM>
<NUMSTATES> 6
<STATE> 2
<MEAN> 16
 3.295806e-01 -2.395310e-01 1.978589e+00 -3.064677e-01 -1.058665e-01 1.920817e+00 4.460309e-03 -2.077662e-02 5.603119e-03 -4.866720e-03 -5.205575e-03 8.686329e-04 1.361153e-01 1.401407e-01 9.029561e-02 9.791014e-02
<VARIANCE> 16
 8.043100e-03 6.804306e-02 2.160370e-02 4.634556e-03 4.973977e-02 1.586351e-02 1.000000e-03 1.294328e-03 6.751879e-03 1.000000e-03 2.671789e-03 5.044854e-03 1.880898e-03 1.000000e-03 1.000000e-03 1.000000e-03
<GCONST> -5.813519e+01
<STATE> 3
<MEAN> 16
 2.823734e-01 -1.187541e-01 1.898803e+00 -3.070467e-01 4.385969e-02 1.786483e+00 5.978289e-04 6.494311e-04 -1.752182e-03 1.478497e-04 -3.101464e-03 -1.091363e-03 1.119435e-01 1.202419e-01 8.590530e-02 1.037526e-01
<VARIANCE> 16
 3.058355e-02 6.700257e-02 1.577782e-02 3.039045e-03 7.919011e-03 1.225798e-02 1.505960e-03 2.775089e-03 5.509186e-03 1.000000e-03 1.000000e-03 4.010531e-03 1.000000e-03 1.000000e-03 1.000000e-03 1.000000e-03
<GCONST> -6.052182e+01
<STATE> 4
<MEAN> 16
 2.052100e-01 -1.512309e-01 1.660845e+00 -2.847371e-01 -7.030343e-02 1.591323e+00 4.232998e-03 -7.805028e-03 8.512707e-04 1.374450e-03 -5.424846e-03 3.729359e-04 9.271009e-02 8.721245e-02 7.797544e-02 9.022319e-02
<VARIANCE> 16
 4.583733e-02 3.625823e-02 2.495737e-02 7.698660e-03 2.700956e-02 2.723371e-02 1.246979e-03 1.289056e-03 3.075786e-03 1.000000e-03 1.000000e-03 2.466023e-03 1.000000e-03 1.000000e-03 1.000000e-03 1.000000e-03
<GCONST> -5.934263e+01
<STATE> 5
<MEAN> 16
 5.880532e-01 -6.960271e-01 1.860366e+00 -1.975398e-01 -5.964074e-01 1.809661e+00 5.083533e-03 -5.631967e-03 1.320517e-03 2.651448e-03 -8.008030e-03 3.567110e-03 1.158824e-01 1.083815e-01 9.773903e-02 7.220840e-02
<VARIANCE> 16
 1.719338e-02 3.281873e-03 1.582703e-02 1.691468e-02 7.703935e-03 8.124227e-03 1.000000e-03 1.000000e-03 1.411772e-03 1.000000e-03 1.000000e-03 1.477031e-03 1.000000e-03 1.000000e-03 1.000000e-03 1.000000e-03
<GCONST> -6.662376e+01
<TRANSP> 6
 0.000000e+00 1.000000e+00 0.000000e+00 0.000000e+00 0.000000e+00 0.000000e+00
 0.000000e+00 8.993337e-01 1.006663e-01 0.000000e+00 0.000000e+00 0.000000e+00
 0.000000e+00 0.000000e+00 9.669980e-01 3.300201e-02 0.000000e+00 0.000000e+00
 0.000000e+00 0.000000e+00 0.000000e+00 9.719310e-01 2.806903e-02 0.000000e+00
 0.000000e+00 0.000000e+00 0.000000e+00 0.000000e+00 9.621003e-01 3.789970e-02
 0.000000e+00 0.000000e+00 0.000000e+00 0.000000e+00 0.000000e+00 0.000000e+00
<ENDHMM>
~h "bumps_into"
<BEGINHMM>
<NUMSTATES> 6
<STATE> 2
<MEAN> 16
 4.012578e-01 -3.944429e-01 1.900945e+00 -3.330173e-01 -3.459983e-01 1.866718e+00 -1.198275e-02 2.609998e-02 1.416842e-03 -1.930448e-03 3.080979e-02 -1.961680e-03 9.091032e-02 8.783256e-02 8.160906e-02 7.956883e-02
<VARIANCE> 16
 1.326373e-02 2.225128e-02 4.140770e-02 1.698763e-02 1.843975e-02 4.218655e-02 1.319162e-03 3.013770e-03 6.890260e-03 1.249786e-03 3.345641e-03 6.623212e-03 1.000000e-03 1.000000e-03 1.000000e-03 1.000000e-03
<GCONST> -5.558655e+01
<STATE> 3
<MEAN> 16
 3.045568e-01 -2.299920e-01 1.827417e+00 -2.278583e-01 -1.284778e-01 1.765271e+00 -4.022621e-02 6.449252e-02 -3.607123e-02 1.664532e-02 8.209763e-02 -3.329477e-02 1.049294e-01 9.777863e-02 8.057836e-02 7.697000e-02
<VARIANCE> 16
 1.582285e-02 4.987638e-02 3.388404e-02 9.653695e-03 2.976182e-02 2.773562e-02 4.188672e-03 8.465586e-03 1.418419e-02 4.293643e-03 1.458080e-02 1.329564e-02 1.240147e-03 1.000000e-03 1.000000e-03 1.000000e-03
<GCONST> -4.878080e+01
<STATE> 4
<MEAN> 16
 1.618049e-01 -9.247356e-03 1.703571e+00 -1.625100e-01 2.904298e-02 1.684838e+00 1.123133e-03 1.131441e-02 2.709901e-03 -5.137058e-03 1.800608e-02 4.127147e-03 1.155800e-01 1.115874e-01 8.462898e-02 8.121391e-02
<VARIANCE> 16
 2.433256e-02 4.755053e-02 3.464391e-02 1.497544e-02 2.365375e-02 2.959778e-02 4.513996e-03 1.970193e-03 5.186656e-03 4.072469e-03 2.299570e-03 5.010313e-03 1.000000e-03 1.000000e-03 1.000000e-03 1.000000e-03
<GCONST> -5.358182e+01
<STATE> 5
<MEAN> 16
 3.228943e-01 -3.793461e-01 1.864898e+00 -1.813881e-01 7.941593e-02 1.822827e+00 3.621602e-03 -7.605613e-03 4.363374e-03 -6.113503e-03 -3.904568e-03 6.528903e-03 1.127543e-01 1.136744e-01 8.583906e-02 8.396369e-02
<VARIANCE> 16
 1.550408e-02 9.244194e-02 2.368618e-02 1.118491e-02 4.702663e-02 2.241556e-02 1.000000e-03 1.000000e-03 1.480945e-03 1.000000e-03 4.069773e-03 1.454203e-03 1.001233e-03 1.000000e-03 1.000000e-03 1.000000e-03
<GCONST> -5.913848e+01
<TRANSP> 6
 0.000000e+00 1.000000e+00 0.000000e+00 0.000000e+00 0.000000e+00 0.000000e+00
 0.000000e+00 8.742558e-01 1.257441e-01 0.000000e+00 0.000000e+00 0.000000e+00
 0.000000e+00 0.000000e+00 5.180444e-01 4.819556e-01 0.000000e+00 0.000000e+00
 0.000000e+00 0.000000e+00 0.000000e+00 8.141628e-01 1.858372e-01 0.000000e+00
 0.000000e+00 0.000000e+00 0.000000e+00 0.000000e+00 7.376654e-01 2.623346e-01
 0.000000e+00 0.000000e+00 0.000000e+00 0.000000e+00 0.000000e+00 0.000000e+00
<ENDHMM>
~h "goes_to"
<BEGINHMM>
<NUMSTATES> 6
<STATE> 2
<MEAN> 16
 3.880699e-01 -4.352813e-01 1.881884e+00 -2.646092e-01 -2.129135e-01 1.841564e+00 -1.764273e-02 3.246571e-02 -5.912307e-03 2.051883e-03 4.164524e-02 -4.777661e-03 1.022632e-01 9.433055e-02 8.498770e-02 8.013906e-02
<VARIANCE> 16
 1.463905e-02 3.245531e-02 4.619934e-02 2.532474e-02 7.592420e-02 4.463143e-02 1.822368e-03 3.974065e-03 8.038851e-03 2.055893e-03 5.937474e-03 7.539552e-03 1.119234e-03 1.000000e-03 1.000000e-03 1.000000e-03
<GCONST> -5.106256e+01
<STATE> 3
<MEAN> 16
 2.621907e-01 -1.370936e-01 1.822641e+00 -3.014132e-01 -1.013377e-01 1.751269e+00 -3.565708e-03 4.929761e-03 -1.992702e-03 -9.082252e-05 2.408590e-03 -1.579315e-03 9.686197e-02 1.034854e-01 8.016859e-02 7.813957e-02
<VARIANCE> 16
 1.457302e-02 4.266396e-02 1.343598e-02 1.188708e-02 1.667676e-02 1.074599e-02 1.000000e-03 2.169939e-03 3.917609e-03 1.000000e-03 1.008368e-03 3.272302e-03 1.000000e-03 1.000000e-03 1.000000e-03 1.000000e-03
<GCONST> -6.108958e+01
<STATE> 4
<MEAN> 16
 1.300787e-01 -5.914900e-02 1.503534e+00 -2.864350e-01 1.199667e-02 1.446026e+00 -3.975062e-03 1.251187e-03 -1.210991e-03 -8.618618e-05 5.756373e-04 -1.045423e-03 9.183335e-02 9.979628e-02 7.724898e-02 8.232167e-02
<VARIANCE> 16
 4.728840e-02 2.889481e-02 2.501101e-02 9.256159e-03 5.328291e-03 1.992657e-02 1.000000e-03 1.093842e-03 1.531319e-03 1.000000e-03 1.000000e-03 1.207507e-03 1.000000e-03 1.000000e-03 1.000000e-03 1.000000e-03
<GCONST> -6.308406e+01
<STATE> 5
<MEAN> 16
 2.224149e-01 -2.341074e-01 1.681328e+00 -2.895575e-01 -2.965722e-01 1.734089e+00 4.046430e-02 -3.215976e-02 1.794359e-02 -1.450601e-02 -2.996038e-02 2.299311e-02 9.478078e-02 9.831267e-02 7.746508e-02 7.453719e-02
<VARIANCE> 16
 3.736428e-02 3.197551e-02 3.862967e-02 1.889239e-02 8.430974e-02 3.363933e-02 7.196663e-03 4.222696e-03 1.166217e-02 5.245518e-03 5.032075e-03 1.099935e-02 1.000000e-03 1.049531e-03 1.000000e-03 1.000000e-03
<GCONST> -4.789957e+01
<TRANSP> 6
 0.000000e+00 1.000000e+00 0.000000e+00 0.000000e+00 0.000000e+00 0.000000e+00
 0.000000e+00 8.936185e-01 1.063815e-01 0.000000e+00 0.000000e+00 0.000000e+00
 0.000000e+00 0.000000e+00 9.495456e-01 5.045436e-02 0.000000e+00 0.000000e+00
 0.000000e+00 0.000000e+00 0.000000e+00 9.612310e-01 3.876903e-02 0.000000e+00
 0.000000e+00 0.000000e+00 0.000000e+00 0.000000e+00 7.662318e-01 2.337683e-01
 0.000000e+00 0.000000e+00 0.000000e+00 0.000000e+00 0.000000e+00 0.000000e+00
<ENDHMM>
