~o
<STREAMINFO> 1 16
<VECSIZE> 16<NULLD><USER><DIAGC>
~h "Monkey"
<BEGINHMM>
<NUMSTATES> 6
<STATE> 2
<MEAN> 16
 5.861852e-01 -6.966497e-01 1.884439e+00 -1.923422e-01 -5.955773e-01 1.827933e+00 1.745429e-01 -2.046302e-01 5.703766e-01 -6.615049e-02 -1.784267e-01 5.589468e-01 1.146515e-01 1.053922e-01 9.762839e-02 7.170340e-02
<VARIANCE> 16
 8.561167e-03 7.774034e-03 1.477891e-02 1.418734e-02 1.316556e-02 9.846361e-03 8.260234e-02 1.178555e-01 7.435816e-01 1.631683e-02 9.089531e-02 7.227284e-01 1.000000e-03 1.000000e-03 1.000000e-03 1.000000e-03
<GCONST> -3.702985e+01
<STATE> 3
<MEAN> 16
 3.320930e-01 -2.840755e-01 1.851477e+00 -2.124047e-01 -2.298785e-01 1.820621e+00 -1.079094e-02 1.570325e-02 -3.694032e-03 -2.700710e-03 1.819311e-02 -2.936329e-03 1.064218e-01 1.020930e-01 8.375701e-02 7.851958e-02
<VARIANCE> 16
 2.299667e-02 9.705754e-02 1.695297e-02 1.208008e-02 8.590206e-02 1.381269e-02 1.383191e-03 4.072893e-03 5.409794e-03 1.000000e-03 4.031429e-03 4.950162e-03 1.419144e-03 1.044724e-03 1.000000e-03 1.000000e-03
<GCONST> -5.420230e+01
<STATE> 4
<MEAN> 16
 2.890127e-01 -2.129080e-01 1.639924e+00 -2.606273e-01 -7.669544e-02 1.557801e+00 1.870224e-03 -1.152476e-03 2.311719e-03 -1.686955e-03 3.620787e-03 -2.779616e-03 8.992879e-02 1.087469e-01 8.089571e-02 8.226239e-02
<VARIANCE> 16
 2.684512e-02 5.600186e-02 2.984267e-02 1.839915e-02 4.795901e-02 2.863124e-02 1.769701e-03 1.051570e-03 2.395288e-03 1.956921e-03 1.012407e-03 2.142999e-03 1.033796e-03 1.000000e-03 1.000000e-03 1.000000e-03
<GCONST> -5.729576e+01
<STATE> 5
<MEAN> 16
 4.562579e-01 -6.442817e-01 1.882470e+00 -1.984880e-01 -4.317784e-01 1.823294e+00 -7.106041e-03 3.858117e-03 2.009235e-03 -2.820671e-03 8.246101e-03 3.186109e-04 1.174002e-01 1.122968e-01 8.965699e-02 7.525117e-02
<VARIANCE> 16
 2.379614e-02 1.217161e-02 1.311643e-02 1.768211e-02 1.049971e-01 9.660807e-03 1.000000e-03 1.000000e-03 2.104562e-03 1.000000e-03 1.845572e-03 2.016052e-03 1.000000e-03 1.000000e-03 1.000000e-03 1.000000e-03
<GCONST> -6.102296e+01
<TRANSP> 6
 0.000000e+00 1.000000e+00 0.000000e+00 0.000000e+00 0.000000e+00 0.000000e+00
 0.000000e+00 6.919011e-01 3.080990e-01 0.000000e+00 0.000000e+00 0.000000e+00
 0.000000e+00 0.000000e+00 8.480130e-01 1.519870e-01 0.000000e+00 0.000000e+00
 0.000000e+00 0.000000e+00 0.000000e+00 8.357869e-01 1.642131e-01 0.000000e+00
 0.000000e+00 0.000000e+00 0.000000e+00 0.000000e+00 9.125665e-01 8.743342e-02
 0.000000e+00 0.000000e+00 0.000000e+00 0.000000e+00 0.000000e+00 0.000000e+00
<ENDHMM>
~h "fence"
<BEGINHMM>
<NUMSTATES> 6
<STATE> 2
<MEAN> 16
 3.903447e-01 -3.775198e-01 1.930232e+00 -3.272620e-01 -2.285531e-01 1.753766e+00 2.648794e-03 -2.937040e-03 1.173092e-03 -1.439052e-03 -4.576872e-03 -1.850143e-03 1.048618e-01 1.449231e-01 9.668975e-02 9.231260e-02
<VARIANCE> 16
 1.625480e-02 2.149299e-02 3.585482e-02 7.253989e-03 1.932602e-02 2.184226e-02 1.000000e-03 1.000000e-03 3.096545e-03 1.000000e-03 1.000000e-03 1.868058e-03 1.922989e-03 1.000000e-03 1.000000e-03 1.000000e-03
<GCONST> -6.124655e+01
<STATE> 3
<MEAN> 16
 2.776620e-01 -1.127888e-01 1.849295e+00 -3.373735e-01 -1.468269e-01 1.797860e+00 -8.582008e-04 -7.846116e-04 -8.818114e-04 9.343085e-05 -1.042031e-03 -1.069811e-04 1.067326e-01 1.534512e-01 8.565384e-02 9.250726e-02
<VARIANCE> 16
 3.574199e-02 3.482296e-02 1.411155e-02 4.665012e-03 8.227205e-03 1.194311e-02 1.206538e-03 1.857867e-03 3.418064e-03 1.000000e-03 1.000000e-03 2.873304e-03 1.000000e-03 1.000000e-03 1.000000e-03 1.000000e-03
<GCONST> -6.212505e+01
<STATE> 4
<MEAN> 16
 1.234715e-01 -9.955408e-02 1.604043e+00 -3.377804e-01 -9.317641e-02 1.572993e+00 3.037540e-03 -6.381484e-03 -6.039241e-04 1.154635e-03 -4.165655e-03 3.096187e-04 9.463225e-02 1.339483e-01 7.526951e-02 8.468977e-02
<VARIANCE> 16
 6.288873e-02 2.238109e-02 2.417816e-02 1.404146e-02 9.301687e-03 2.372317e-02 1.759523e-03 1.334194e-03 2.001998e-03 1.000000e-03 1.000000e-03 1.831252e-03 1.000000e-03 1.000000e-03 1.000000e-03 1.000000e-03
<GCONST> -6.049184e+01
<STATE> 5
<MEAN> 16
 5.745517e-01 -6.885194e-01 1.858208e+00 -1.912579e-01 -5.786008e-01 1.791762e+00 6.944322e-03 -8.616014e-03 3.470599e-03 3.753371e-03 -9.516122e-03 3.361782e-03 1.153271e-01 1.118067e-01 9.677713e-02 7.538333e-02
<VARIANCE> 16
 2.117501e-02 5.282032e-03 1.508787e-02 1.456714e-02 1.318054e-02 7.491704e-03 1.000000e-03 1.000000e-03 2.059340e-03 1.000000e-03 1.000000e-03 1.772536e-03 1.000000e-03 1.000000e-03 1.000000e-03 1.000000e-03
<GCONST> -6.512093e+01
<TRANSP> 6
 0.000000e+00 1.000000e+00 0.000000e+00 0.000000e+00 0.000000e+00 0.000000e+00
 0.000000e+00 8.264952e-01 1.735049e-01 0.000000e+00 0.000000e+00 0.000000e+00
 0.000000e+00 0.000000e+00 9.792149e-01 2.078507e-02 0.000000e+00 0.000000e+00
 0.000000e+00 0.000000e+00 0.000000e+00 9.683691e-01 3.163093e-02 0.000000e+00
 0.000000e+00 0.000000e+00 0.000000e+00 0.000000e+00 9.641721e-01 3.582786e-02
 0.000000e+00 0.000000e+00 0.000000e+00 0.000000e+00 0.000000e+00 0.000000e+00
<ENDHMM>
~h "Car"
<BEGINHMM>
<NUMSTATES> 6
<STATE> 2
<MEAN> 16
 5.885183e-01 -6.865930e-01 1.863199e+00 -2.197401e-01 -6.049126e-01 1.836884e+00 1.510220e-01 -1.725647e-01 4.883735e-01 -5.812303e-02 -1.496007e-01 4.810256e-01 1.148271e-01 1.020112e-01 9.859514e-02 7.620087e-02
<VARIANCE> 16
 6.245646e-03 1.182902e-02 1.455679e-02 1.748594e-02 2.083960e-02 1.430061e-02 7.661940e-02 1.101699e-01 6.780474e-01 1.584988e-02 8.705781e-02 6.681697e-01 1.000000e-03 1.000000e-03 1.000000e-03 1.000000e-03
<GCONST> -3.628463e+01
<STATE> 3
<MEAN> 16
 3.344137e-01 -2.555693e-01 1.841444e+00 -2.286096e-01 -2.118923e-01 1.810724e+00 -9.588435e-03 1.672305e-02 -1.674825e-03 -3.381729e-03 1.743898e-02 -1.175551e-03 1.091008e-01 1.039014e-01 8.705878e-02 7.847762e-02
<VARIANCE> 16
 2.427866e-02 9.121677e-02 1.578229e-02 1.279381e-02 7.982463e-02 1.578339e-02 2.114343e-03 3.877718e-03 6.823892e-03 1.283537e-03 4.483694e-03 5.696827e-03 1.441290e-03 1.178365e-03 1.000000e-03 1.000000e-03
<GCONST> -5.292451e+01
<STATE> 4
<MEAN> 16
 3.173263e-01 -1.691493e-01 1.623027e+00 -2.828243e-01 -9.712368e-02 1.581697e+00 9.429194e-04 6.560936e-04 -8.588878e-04 -2.878792e-03 2.179843e-03 -1.578578e-03 9.647711e-02 1.029474e-01 8.540483e-02 8.563738e-02
<VARIANCE> 16
 2.796069e-02 7.337946e-02 2.778670e-02 1.279424e-02 6.305558e-02 3.039081e-02 1.971792e-03 1.604143e-03 2.420722e-03 1.000000e-03 1.000000e-03 2.001888e-03 1.104067e-03 1.000000e-03 1.000000e-03 1.000000e-03
<GCONST> -5.723122e+01
<STATE> 5
<MEAN> 16
 4.694250e-01 -6.171526e-01 1.843922e+00 -2.333189e-01 -4.987335e-01 1.812821e+00 -9.681789e-03 6.289280e-03 3.986071e-04 -2.133270e-03 8.449631e-03 -1.777424e-03 1.141937e-01 1.085131e-01 9.350038e-02 7.377814e-02
<VARIANCE> 16
 2.223493e-02 1.949274e-02 1.845417e-02 2.099188e-02 7.540125e-02 1.061197e-02 1.000000e-03 1.000000e-03 2.278051e-03 1.000000e-03 1.756893e-03 2.200072e-03 1.000000e-03 1.000000e-03 1.000000e-03 1.000000e-03
<GCONST> -6.022676e+01
<TRANSP> 6
 0.000000e+00 1.000000e+00 0.000000e+00 0.000000e+00 0.000000e+00 0.000000e+00
 0.000000e+00 7.324671e-01 2.675329e-01 0.000000e+00 0.000000e+00 0.000000e+00
 0.000000e+00 0.000000e+00 8.476937e-01 1.523063e-01 0.000000e+00 0.000000e+00
 0.000000e+00 0.000000e+00 0.000000e+00 7.969046e-01 2.030954e-01 0.000000e+00
 0.000000e+00 0.000000e+00 0.000000e+00 0.000000e+00 9.004355e-01 9.956452e-02
 0.000000e+00 0.000000e+00 0.000000e+00 0.000000e+00 0.000000e+00 0.000000e+00
<ENDHMM>
~h "Man"
<BEGINHMM>
<NUMSTATES> 6
<STATE> 2
<MEAN> 16
 5.558767e-01 -6.747687e-01 1.863982e+00 -2.112319e-01 -6.026146e-01 1.828993e+00 2.831627e-01 -3.363478e-01 9.025621e-01 -1.077924e-01 -2.942784e-01 8.877594e-01 1.166184e-01 1.021238e-01 9.470411e-02 7.393844e-02
<VARIANCE> 16
 1.975999e-02 1.121756e-02 1.483947e-02 1.909683e-02 1.242782e-02 1.037868e-02 1.005915e-01 1.349612e-01 8.635117e-01 2.171466e-02 1.067383e-01 8.348593e-01 1.000000e-03 1.000000e-03 1.000000e-03 1.000000e-03
<GCONST> -3.445771e+01
<STATE> 3
<MEAN> 16
 6.871622e-02 -1.989532e-01 2.189692e+00 -5.867101e-01 -3.590358e-02 1.907589e+00 3.515339e-05 1.262561e-03 -7.311382e-04 3.659861e-04 1.222162e-03 -8.939372e-04 9.855308e-02 9.323213e-02 8.769742e-02 7.668263e-02
<VARIANCE> 16
 7.153659e-01 1.226423e-01 1.732855e-01 1.879316e-01 3.537815e-01 1.558992e-01 2.584332e+00 2.820969e-01 1.500721e-01 5.694876e-01 1.086572e+00 2.210290e-01 1.000000e-03 1.381241e-03 1.219447e-03 1.000000e-03
<GCONST> -1.066130e+01
<STATE> 4
<MEAN> 16
 3.989424e-01 -4.311323e-01 1.760498e+00 -1.745320e-01 -3.763725e-01 1.735184e+00 -7.874629e-03 1.913858e-02 -4.070576e-03 1.522703e-03 1.853190e-02 -5.947649e-03 1.105436e-01 1.047339e-01 9.437875e-02 7.654393e-02
<VARIANCE> 16
 7.059964e-02 1.108540e-01 3.118507e-02 2.495542e-02 8.967696e-02 2.205020e-02 4.004244e-03 2.676712e-03 5.004803e-03 3.949193e-03 3.775539e-03 3.794005e-03 1.000000e-03 1.000000e-03 1.000000e-03 1.000000e-03
<GCONST> -4.988843e+01
<STATE> 5
<MEAN> 16
 4.633088e-01 -6.201128e-01 1.876088e+00 -1.766502e-01 -4.547835e-01 1.819094e+00 -1.253836e-02 1.157488e-02 -5.112314e-04 -1.342042e-03 2.154535e-02 -1.822454e-03 1.135451e-01 1.071964e-01 9.308840e-02 7.409664e-02
<VARIANCE> 16
 2.536325e-02 2.704905e-02 1.655817e-02 1.600236e-02 9.482375e-02 1.312210e-02 1.134383e-03 1.676341e-03 2.703325e-03 1.000000e-03 3.694756e-03 2.878294e-03 1.000000e-03 1.000000e-03 1.000000e-03 1.000000e-03
<GCONST> -5.787988e+01
<TRANSP> 6
 0.000000e+00 1.000000e+00 0.000000e+00 0.000000e+00 0.000000e+00 0.000000e+00
 0.000000e+00 5.112077e-01 4.887923e-01 0.000000e+00 0.000000e+00 0.000000e+00
 0.000000e+00 0.000000e+00 8.604285e-01 1.395715e-01 0.000000e+00 0.000000e+00
 0.000000e+00 0.000000e+00 0.000000e+00 3.708460e-01 6.291540e-01 0.000000e+00
 0.000000e+00 0.000000e+00 0.000000e+00 0.000000e+00 9.092109e-01 9.078909e-02
 0.000000e+00 0.000000e+00 0.000000e+00 0.000000e+00 0.000000e+00 0.000000e+00
<ENDHMM>
~h "car"
<BEGINHMM>
<NUMSTATES> 6
<STATE> 2
<MEAN> 16
 3.484311e-01 -4.311236e-01 1.996705e+00 -2.843992e-01 -1.645720e-01 1.844187e+00 6.753319e-03 -4.424331e-03 1.308123e-02 -5.742750e-04 -1.035895e-02 1.049682e-02 9.925772e-02 1.100866e-01 8.435474e-02 8.463230e-02
<VARIANCE> 16
 2.729869e-02 2.869600e-02 5.906458e-02 9.007444e-03 4.921766e-02 1.920766e-02 3.034311e-03 1.661265e-03 4.882270e-03 1.000000e-03 1.000000e-03 1.879298e-03 1.035733e-03 1.000000e-03 1.000000e-03 1.000000e-03
<GCONST> -5.745703e+01
<STATE> 3
<MEAN> 16
 2.886567e-01 -6.753984e-02 1.900897e+00 -3.002018e-01 -4.067492e-02 1.859964e+00 3.052869e-03 -1.821854e-03 -1.761108e-03 -3.578695e-04 -2.475649e-03 -2.011362e-04 1.064090e-01 1.193209e-01 8.558408e-02 8.194496e-02
<VARIANCE> 16
 3.469082e-02 4.423765e-02 1.540834e-02 6.192413e-03 2.032226e-02 1.422833e-02 1.884594e-03 2.322875e-03 4.507615e-03 1.000000e-03 1.000000e-03 3.718326e-03 1.000000e-03 1.000000e-03 1.000000e-03 1.000000e-03
<GCONST> -5.926126e+01
<STATE> 4
<MEAN> 16
 2.022491e-01 -5.544616e-02 1.604381e+00 -3.575774e-01 -3.229421e-02 1.564829e+00 1.962389e-03 -6.926701e-03 -3.187578e-04 1.261065e-03 -5.411484e-03 -2.974209e-04 9.092961e-02 1.107688e-01 7.212752e-02 8.208309e-02
<VARIANCE> 16
 3.906007e-02 3.483891e-02 2.496217e-02 6.355107e-03 1.751976e-02 1.990807e-02 1.128721e-03 1.539203e-03 1.934053e-03 1.000000e-03 1.000000e-03 1.565433e-03 1.000000e-03 1.000000e-03 1.000000e-03 1.000000e-03
<GCONST> -6.132101e+01
<STATE> 5
<MEAN> 16
 5.842022e-01 -6.895695e-01 1.856147e+00 -1.966628e-01 -5.952136e-01 1.811813e+00 5.087592e-03 -8.117634e-03 2.548526e-03 4.130060e-03 -9.165122e-03 2.695645e-03 1.164808e-01 1.065449e-01 9.746072e-02 7.487566e-02
<VARIANCE> 16
 1.425530e-02 4.007227e-03 1.583656e-02 1.817345e-02 8.060565e-03 7.421431e-03 1.000000e-03 1.000000e-03 1.992550e-03 1.000000e-03 1.000000e-03 1.899792e-03 1.000000e-03 1.000000e-03 1.000000e-03 1.000000e-03
<GCONST> -6.598803e+01
<TRANSP> 6
 0.000000e+00 1.000000e+00 0.000000e+00 0.000000e+00 0.000000e+00 0.000000e+00
 0.000000e+00 6.084447e-01 3.915553e-01 0.000000e+00 0.000000e+00 0.000000e+00
 0.000000e+00 0.000000e+00 9.658616e-01 3.413842e-02 0.000000e+00 0.000000e+00
 0.000000e+00 0.000000e+00 0.000000e+00 9.422064e-01 5.779365e-02 0.000000e+00
 0.000000e+00 0.000000e+00 0.000000e+00 0.000000e+00 9.610651e-01 3.893489e-02
 0.000000e+00 0.000000e+00 0.000000e+00 0.000000e+00 0.000000e+00 0.000000e+00
<ENDHMM>
~h "weaves_and_bumps_into"
<BEGINHMM>
<NUMSTATES> 6
<STATE> 2
<MEAN> 16
 3.940388e-01 -4.581035e-01 1.953836e+00 -3.235327e-01 -2.555137e-01 1.880353e+00 -5.113138e-03 1.114610e-02 1.778171e-03 -3.784146e-03 1.696280e-02 -1.272104e-03 9.845688e-02 9.494567e-02 8.384239e-02 8.290774e-02
<VARIANCE> 16
 1.257258e-02 2.335413e-02 3.471765e-02 1.285127e-02 3.516030e-02 3.562046e-02 1.000000e-03 1.409155e-03 5.110700e-03 1.000000e-03 2.536363e-03 4.685336e-03 1.148854e-03 1.000000e-03 1.000000e-03 1.000000e-03
<GCONST> -5.761398e+01
<STATE> 3
<MEAN> 16
 2.674829e-01 -1.463094e-01 1.849512e+00 -3.261913e-01 -9.517352e-02 1.760325e+00 -2.568919e-03 5.310275e-03 -3.774527e-03 -7.775634e-04 2.402931e-03 -2.488335e-03 9.639367e-02 1.068873e-01 8.297357e-02 8.065677e-02
<VARIANCE> 16
 1.320069e-02 4.141027e-02 1.579693e-02 6.940946e-03 1.904762e-02 1.364775e-02 1.060468e-03 2.596681e-03 4.808576e-03 1.000000e-03 1.000000e-03 3.795962e-03 1.000000e-03 1.000000e-03 1.000000e-03 1.000000e-03
<GCONST> -6.063921e+01
<STATE> 4
<MEAN> 16
 2.021047e-01 -5.783878e-02 1.528608e+00 -3.432826e-01 4.916886e-03 1.491142e+00 3.739840e-04 -1.077483e-03 -1.137167e-03 -2.926312e-04 -2.617934e-05 -8.056477e-04 9.170195e-02 1.078469e-01 7.876707e-02 8.551631e-02
<VARIANCE> 16
 2.786831e-02 2.443460e-02 3.435428e-02 5.934541e-03 7.280671e-03 2.623014e-02 1.000000e-03 1.108741e-03 1.874344e-03 1.000000e-03 1.000000e-03 1.345758e-03 1.000000e-03 1.000000e-03 1.000000e-03 1.000000e-03
<GCONST> -6.299648e+01
<STATE> 5
<MEAN> 16
 3.720857e-01 -4.151243e-01 1.768202e+00 -3.119990e-01 -1.255889e-01 1.694095e+00 1.587238e-02 -4.519341e-02 3.478070e-02 7.274057e-04 -3.753141e-02 2.183312e-02 1.057463e-01 1.037083e-01 8.235988e-02 8.139811e-02
<VARIANCE> 16
 3.002999e-02 2.801251e-02 2.606826e-02 1.291033e-02 4.982616e-02 2.577813e-02 1.000000e-03 2.788767e-03 6.413458e-03 1.000000e-03 3.469408e-03 4.774579e-03 1.106834e-03 1.000000e-03 1.000000e-03 1.000000e-03
<GCONST> -5.561360e+01
<TRANSP> 6
 0.000000e+00 1.000000e+00 0.000000e+00 0.000000e+00 0.000000e+00 0.000000e+00
 0.000000e+00 8.833874e-01 1.166125e-01 0.000000e+00 0.000000e+00 0.000000e+00
 0.000000e+00 0.000000e+00 9.464777e-01 5.352231e-02 0.000000e+00 0.000000e+00
 0.000000e+00 0.000000e+00 0.000000e+00 9.702435e-01 2.975644e-02 0.000000e+00
 0.000000e+00 0.000000e+00 0.000000e+00 0.000000e+00 5.932842e-01 4.067158e-01
 0.000000e+00 0.000000e+00 0.000000e+00 0.000000e+00 0.000000e+00 0.000000e+00
<ENDHMM>
~h "man"
<BEGINHMM>
<NUMSTATES> 6
<STATE> 2
<MEAN> 16
 3.977669e-01 -5.882804e-01 1.844369e+00 -3.377951e-01 -1.202688e-01 1.725724e+00 -1.278773e-03 7.398044e-03 -1.094498e-03 -6.389778e-03 -3.267152e-03 -3.300240e-03 1.189372e-01 8.062445e-02 8.785070e-02 9.434596e-02
<VARIANCE> 16
 1.653028e-02 1.217918e-02 2.177094e-02 1.867369e-02 7.850011e-03 3.383755e-02 1.000000e-03 1.000000e-03 3.047172e-03 1.000000e-03 1.000000e-03 1.613362e-03 1.000000e-03 1.000000e-03 1.000000e-03 1.000000e-03
<GCONST> -6.263083e+01
<STATE> 3
<MEAN> 16
 1.997558e-01 -6.644136e-02 1.862372e+00 -3.544197e-01 -1.452122e-01 1.874953e+00 -8.174701e-04 2.729065e-03 -2.158212e-03 1.323331e-03 -1.083324e-03 -6.980128e-04 1.009313e-01 9.080699e-02 8.005401e-02 9.532446e-02
<VARIANCE> 16
 4.386527e-02 3.379398e-02 1.442866e-02 1.041345e-02 6.386928e-03 1.815729e-02 1.833655e-03 2.887812e-03 4.420605e-03 1.000000e-03 1.000000e-03 3.936158e-03 1.000000e-03 1.000000e-03 1.000000e-03 1.000000e-03
<GCONST> -5.952772e+01
<STATE> 4
<MEAN> 16
 1.699570e-01 -5.523125e-02 1.550731e+00 -3.143015e-01 -6.900311e-02 1.533281e+00 1.850235e-03 -2.811627e-03 -8.290327e-04 6.568423e-04 -4.210812e-03 -2.426273e-04 9.464319e-02 7.031311e-02 7.630524e-02 8.824605e-02
<VARIANCE> 16
 4.544913e-02 3.226341e-02 2.343174e-02 1.445709e-02 9.451340e-03 1.660084e-02 1.184765e-03 1.490868e-03 1.820001e-03 1.000000e-03 1.000000e-03 1.505896e-03 1.000000e-03 1.000000e-03 1.000000e-03 1.000000e-03
<GCONST> -6.136951e+01
<STATE> 5
<MEAN> 16
 5.702077e-01 -6.784831e-01 1.848128e+00 -1.970638e-01 -5.791478e-01 1.803759e+00 7.692988e-03 -1.033730e-02 4.046503e-03 2.999816e-03 -1.129396e-02 3.622999e-03 1.159066e-01 1.056638e-01 9.415898e-02 7.531328e-02
<VARIANCE> 16
 2.122102e-02 6.142797e-03 1.668596e-02 1.740720e-02 1.162607e-02 9.418128e-03 1.000000e-03 1.000000e-03 2.772641e-03 1.000000e-03 1.230083e-03 2.187402e-03 1.000000e-03 1.000000e-03 1.000000e-03 1.000000e-03
<GCONST> -6.387085e+01
<TRANSP> 6
 0.000000e+00 1.000000e+00 0.000000e+00 0.000000e+00 0.000000e+00 0.000000e+00
 0.000000e+00 9.344597e-01 6.554028e-02 0.000000e+00 0.000000e+00 0.000000e+00
 0.000000e+00 0.000000e+00 9.720305e-01 2.796949e-02 0.000000e+00 0.000000e+00
 0.000000e+00 0.000000e+00 0.000000e+00 9.678285e-01 3.217152e-02 0.000000e+00
 0.000000e+00 0.000000e+00 0.000000e+00 0.000000e+00 9.620424e-01 3.795764e-02
 0.000000e+00 0.000000e+00 0.000000e+00 0.000000e+00 0.000000e+00 0.000000e+00
<ENDHMM>
~h "monkey"
<BEGINHMM>
<NUMSTATES> 6
<STATE> 2
<MEAN> 16
 3.787009e-01 -4.441855e-01 2.080510e+00 -2.993719e-01 -1.212753e-01 1.916516e+00 4.542383e-04 -1.448701e-03 9.019686e-04 2.837258e-03 -6.658017e-04 -2.632801e-03 9.927301e-02 1.014458e-01 8.670934e-02 7.472052e-02
<VARIANCE> 16
 9.621887e-03 1.199333e-02 3.510251e-02 7.536139e-03 4.142319e-02 2.604271e-02 1.000000e-03 1.000000e-03 3.034306e-03 1.000000e-03 1.000000e-03 2.527277e-03 1.239358e-03 1.000000e-03 1.000000e-03 1.000000e-03
<GCONST> -6.155639e+01
<STATE> 3
<MEAN> 16
 2.504882e-01 -7.621750e-02 1.911363e+00 -2.717119e-01 -6.601918e-02 1.883378e+00 9.237973e-04 -3.446634e-04 -2.978348e-03 5.734862e-04 -1.879109e-03 -1.166913e-03 1.083687e-01 1.075964e-01 8.625575e-02 7.545177e-02
<VARIANCE> 16
 3.792096e-02 3.833594e-02 1.806471e-02 7.638302e-03 1.011805e-02 1.625018e-02 1.408890e-03 2.213958e-03 3.927783e-03 1.000000e-03 1.000000e-03 3.489964e-03 1.000000e-03 1.000000e-03 1.000000e-03 1.000000e-03
<GCONST> -6.005106e+01
<STATE> 4
<MEAN> 16
 1.927387e-01 -6.213073e-02 1.537791e+00 -2.527092e-01 1.795219e-02 1.495158e+00 3.569344e-03 -4.051299e-03 -2.234262e-03 3.743832e-05 -5.129400e-03 -1.608587e-03 9.454866e-02 9.427463e-02 7.950588e-02 6.716542e-02
<VARIANCE> 16
 3.851531e-02 4.179198e-02 2.303466e-02 6.105540e-03 1.404169e-02 1.459875e-02 1.161514e-03 1.539388e-03 1.626260e-03 1.000000e-03 1.000000e-03 1.355227e-03 1.000000e-03 1.000000e-03 1.000000e-03 1.000000e-03
<GCONST> -6.209377e+01
<STATE> 5
<MEAN> 16
 5.798842e-01 -6.850396e-01 1.850041e+00 -2.018569e-01 -5.956838e-01 1.802648e+00 5.813850e-03 -8.921593e-03 3.791322e-03 2.320990e-03 -9.869985e-03 3.516318e-03 1.147056e-01 1.077412e-01 9.532907e-02 7.402434e-02
<VARIANCE> 16
 1.443674e-02 4.943858e-03 1.731929e-02 1.851001e-02 8.734125e-03 7.521816e-03 1.000000e-03 1.000000e-03 2.088336e-03 1.000000e-03 1.000000e-03 1.895125e-03 1.000000e-03 1.000000e-03 1.000000e-03 1.000000e-03
<GCONST> -6.551930e+01
<TRANSP> 6
 0.000000e+00 1.000000e+00 0.000000e+00 0.000000e+00 0.000000e+00 0.000000e+00
 0.000000e+00 8.931944e-01 1.068056e-01 0.000000e+00 0.000000e+00 0.000000e+00
 0.000000e+00 0.000000e+00 9.711242e-01 2.887583e-02 0.000000e+00 0.000000e+00
 0.000000e+00 0.000000e+00 0.000000e+00 9.539294e-01 4.607053e-02 0.000000e+00
 0.000000e+00 0.000000e+00 0.000000e+00 0.000000e+00 9.635122e-01 3.648773e-02
 0.000000e+00 0.000000e+00 0.000000e+00 0.000000e+00 0.000000e+00 0.000000e+00
<ENDHMM>
~h "bumps_into_each_other"
<BEGINHMM>
<NUMSTATES> 6
<STATE> 2
<MEAN> 16
 4.310539e-01 -5.456448e-01 1.926011e+00 -2.645874e-01 -1.795864e-01 1.845515e+00 -5.002365e-03 1.102889e-02 4.168196e-03 -3.376011e-03 2.131872e-02 2.089839e-03 1.094999e-01 9.640168e-02 8.956961e-02 8.372419e-02
<VARIANCE> 16
 1.536535e-02 2.308221e-02 2.845459e-02 2.547693e-02 7.173978e-02 3.586692e-02 1.000000e-03 1.019176e-03 4.040194e-03 1.055971e-03 3.769520e-03 3.523217e-03 1.227505e-03 1.000000e-03 1.000000e-03 1.000000e-03
<GCONST> -5.654688e+01
<STATE> 3
<MEAN> 16
 3.058608e-01 -1.754548e-01 1.898845e+00 -2.819384e-01 -9.867130e-02 1.831380e+00 -1.357219e-03 5.042229e-03 -3.553816e-03 -8.963606e-05 3.108843e-03 -3.265861e-03 8.900734e-02 9.915911e-02 8.499928e-02 7.767023e-02
<VARIANCE> 16
 1.068686e-02 4.297321e-02 1.672681e-02 1.066453e-02 2.435725e-02 1.332189e-02 1.326841e-03 3.564530e-03 5.811725e-03 1.000000e-03 1.770944e-03 4.939640e-03 1.000000e-03 1.000000e-03 1.000000e-03 1.000000e-03
<GCONST> -5.853978e+01
<STATE> 4
<MEAN> 16
 2.824241e-01 -4.649485e-02 1.583888e+00 -3.369268e-01 3.127646e-02 1.537126e+00 3.988358e-04 9.768808e-04 -1.416900e-03 -6.743560e-04 -2.346080e-04 -9.346529e-04 8.828533e-02 1.042667e-01 7.698590e-02 8.049440e-02
<VARIANCE> 16
 1.344260e-02 3.429924e-02 2.383998e-02 1.002573e-02 9.389970e-03 1.493025e-02 1.000000e-03 1.507140e-03 1.649129e-03 1.000000e-03 1.000000e-03 1.289501e-03 1.000000e-03 1.000000e-03 1.000000e-03 1.000000e-03
<GCONST> -6.340024e+01
<STATE> 5
<MEAN> 16
 3.987191e-01 -3.567791e-01 1.784911e+00 -2.925316e-01 -1.251544e-01 1.721581e+00 1.007963e-02 -2.951158e-02 3.201338e-02 -7.177787e-04 -3.600123e-02 2.785110e-02 9.987171e-02 9.154637e-02 8.492719e-02 7.716457e-02
<VARIANCE> 16
 1.755139e-02 3.914798e-02 2.760712e-02 1.696550e-02 3.296110e-02 2.087446e-02 1.000000e-03 1.342561e-03 4.810474e-03 1.000000e-03 1.929424e-03 4.280728e-03 1.000000e-03 1.000000e-03 1.000000e-03 1.000000e-03
<GCONST> -5.792574e+01
<TRANSP> 6
 0.000000e+00 1.000000e+00 0.000000e+00 0.000000e+00 0.000000e+00 0.000000e+00
 0.000000e+00 9.185485e-01 8.145144e-02 0.000000e+00 0.000000e+00 0.000000e+00
 0.000000e+00 0.000000e+00 9.654148e-01 3.458527e-02 0.000000e+00 0.000000e+00
 0.000000e+00 0.000000e+00 0.000000e+00 9.599147e-01 4.008530e-02 0.000000e+00
 0.000000e+00 0.000000e+00 0.000000e+00 0.000000e+00 4.131895e-01 5.868105e-01
 0.000000e+00 0.000000e+00 0.000000e+00 0.000000e+00 0.000000e+00 0.000000e+00
<ENDHMM>
~h "jumps_on"
<BEGINHMM>
<NUMSTATES> 6
<STATE> 2
<MEAN> 16
 4.064355e-01 -5.598192e-01 1.952777e+00 -2.269043e-01 -2.743985e-01 1.863432e+00 -6.042317e-03 1.129913e-02 1.711770e-03 -1.603918e-03 2.287079e-02 -1.786338e-04 1.125238e-01 1.037725e-01 8.940479e-02 8.031543e-02
<VARIANCE> 16
 1.711296e-02 2.071761e-02 3.035624e-02 1.819119e-02 8.861136e-02 3.142075e-02 1.000000e-03 1.182721e-03 4.376042e-03 1.000000e-03 3.468972e-03 3.869043e-03 1.000000e-03 1.000000e-03 1.000000e-03 1.000000e-03
<GCONST> -5.676074e+01
<STATE> 3
<MEAN> 16
 2.610635e-01 -1.346272e-01 1.861648e+00 -2.714939e-01 -8.874150e-02 1.764639e+00 -5.511539e-03 8.848240e-03 -3.234221e-03 5.246422e-04 3.344187e-03 -2.162945e-03 9.593616e-02 1.042877e-01 8.088962e-02 7.949857e-02
<VARIANCE> 16
 1.510821e-02 5.218799e-02 1.453613e-02 1.001429e-02 2.118066e-02 1.326572e-02 1.355481e-03 3.089449e-03 5.494694e-03 1.000000e-03 1.390327e-03 4.585430e-03 1.000000e-03 1.000000e-03 1.000000e-03 1.000000e-03
<GCONST> -5.884069e+01
<STATE> 4
<MEAN> 16
 3.779086e-02 1.145446e-02 1.569624e+00 -1.901560e-01 -2.868148e-02 1.495848e+00 -1.425052e-03 -1.233830e-03 -1.104165e-03 5.077473e-04 -6.702658e-04 -9.228780e-04 9.077786e-02 1.086783e-01 7.309793e-02 8.249029e-02
<VARIANCE> 16
 5.389683e-02 3.839410e-02 3.573621e-02 1.248328e-02 8.578091e-03 2.764784e-02 1.450120e-03 1.718504e-03 2.564296e-03 1.061137e-03 1.000000e-03 2.215795e-03 1.000000e-03 1.024142e-03 1.000000e-03 1.000000e-03
<GCONST> -5.918018e+01
<STATE> 5
<MEAN> 16
 2.406399e-01 -3.539757e-01 1.771270e+00 -2.101883e-01 -2.293682e-01 1.748176e+00 4.166486e-02 -4.127121e-02 2.359268e-02 -1.187214e-02 -3.559475e-02 2.511469e-02 1.052883e-01 9.477974e-02 8.102686e-02 8.147418e-02
<VARIANCE> 16
 5.278829e-02 3.706195e-02 3.352318e-02 3.072414e-02 4.240852e-02 2.336945e-02 2.956053e-03 2.550294e-03 7.365485e-03 2.901020e-03 2.153793e-03 7.828749e-03 1.056692e-03 1.000000e-03 1.000000e-03 1.000000e-03
<GCONST> -5.174100e+01
<TRANSP> 6
 0.000000e+00 1.000000e+00 0.000000e+00 0.000000e+00 0.000000e+00 0.000000e+00
 0.000000e+00 9.177338e-01 8.226614e-02 0.000000e+00 0.000000e+00 0.000000e+00
 0.000000e+00 0.000000e+00 9.562901e-01 4.370985e-02 0.000000e+00 0.000000e+00
 0.000000e+00 0.000000e+00 0.000000e+00 9.626871e-01 3.731286e-02 0.000000e+00
 0.000000e+00 0.000000e+00 0.000000e+00 0.000000e+00 6.034074e-01 3.965926e-01
 0.000000e+00 0.000000e+00 0.000000e+00 0.000000e+00 0.000000e+00 0.000000e+00
<ENDHMM>
~h "house"
<BEGINHMM>
<NUMSTATES> 6
<STATE> 2
<MEAN> 16
 3.667374e-01 -4.072742e-01 1.939093e+00 -3.062798e-01 -2.492919e-01 1.826758e+00 1.941626e-03 -7.888116e-03 3.853318e-03 3.095976e-04 2.519282e-03 1.621090e-03 1.171171e-01 1.133000e-01 8.777740e-02 9.305277e-02
<VARIANCE> 16
 1.465374e-02 2.461330e-02 3.901134e-02 6.505252e-03 3.872481e-02 2.954122e-02 1.000000e-03 1.000000e-03 5.188550e-03 1.000000e-03 1.936732e-03 3.548158e-03 1.696648e-03 1.249209e-03 1.000000e-03 1.000000e-03
<GCONST> -5.832629e+01
<STATE> 3
<MEAN> 16
 2.692534e-01 -1.302892e-01 1.888692e+00 -2.997806e-01 1.493768e-02 1.784895e+00 1.709277e-04 5.399290e-04 -1.464094e-03 2.662926e-05 -1.734064e-03 -6.076199e-04 1.110838e-01 1.167138e-01 8.585984e-02 1.023740e-01
<VARIANCE> 16
 2.912349e-02 6.277601e-02 1.472588e-02 3.458085e-03 1.698719e-02 1.253578e-02 1.353153e-03 2.409672e-03 5.338454e-03 1.000000e-03 1.000000e-03 3.796506e-03 1.000000e-03 1.000000e-03 1.000000e-03 1.000000e-03
<GCONST> -6.012463e+01
<STATE> 4
<MEAN> 16
 1.708200e-01 -1.089707e-01 1.628016e+00 -2.709855e-01 -5.724256e-02 1.570802e+00 5.122480e-03 -8.019633e-03 2.678834e-04 6.351523e-04 -4.777861e-03 7.305398e-05 9.288643e-02 8.534755e-02 7.623251e-02 8.829025e-02
<VARIANCE> 16
 4.821965e-02 3.350918e-02 2.335381e-02 9.011004e-03 2.595523e-02 2.941955e-02 1.448408e-03 1.266958e-03 2.902417e-03 1.000000e-03 1.000000e-03 2.495882e-03 1.000000e-03 1.000000e-03 1.000000e-03 1.000000e-03
<GCONST> -5.915596e+01
<STATE> 5
<MEAN> 16
 5.899602e-01 -6.921822e-01 1.859639e+00 -1.984339e-01 -5.873249e-01 1.806454e+00 5.635562e-03 -7.034570e-03 2.286445e-03 2.953358e-03 -9.224863e-03 3.567261e-03 1.156239e-01 1.075400e-01 9.752218e-02 7.231566e-02
<VARIANCE> 16
 1.618668e-02 3.956502e-03 1.615652e-02 1.662312e-02 1.022265e-02 8.600705e-03 1.000000e-03 1.000000e-03 1.592878e-03 1.000000e-03 1.000000e-03 1.627801e-03 1.000000e-03 1.000000e-03 1.000000e-03 1.000000e-03
<GCONST> -6.593616e+01
<TRANSP> 6
 0.000000e+00 1.000000e+00 0.000000e+00 0.000000e+00 0.000000e+00 0.000000e+00
 0.000000e+00 7.516834e-01 2.483166e-01 0.000000e+00 0.000000e+00 0.000000e+00
 0.000000e+00 0.000000e+00 9.735873e-01 2.641271e-02 0.000000e+00 0.000000e+00
 0.000000e+00 0.000000e+00 0.000000e+00 9.578463e-01 4.215362e-02 0.000000e+00
 0.000000e+00 0.000000e+00 0.000000e+00 0.000000e+00 9.628860e-01 3.711402e-02
 0.000000e+00 0.000000e+00 0.000000e+00 0.000000e+00 0.000000e+00 0.000000e+00
<ENDHMM>
~h "bumps_into"
<BEGINHMM>
<NUMSTATES> 6
<STATE> 2
<MEAN> 16
 3.974839e-01 -4.278179e-01 1.946043e+00 -2.950078e-01 -2.926653e-01 1.877010e+00 -1.305925e-02 3.083246e-02 3.054649e-03 -2.464375e-03 3.985235e-02 8.122647e-04 1.004064e-01 9.575708e-02 8.450556e-02 8.164708e-02
<VARIANCE> 16
 1.437737e-02 3.136365e-02 3.776856e-02 1.620814e-02 3.985818e-02 4.264593e-02 1.599338e-03 3.271468e-03 6.081051e-03 1.588631e-03 4.120761e-03 6.025518e-03 1.099117e-03 1.000000e-03 1.000000e-03 1.000000e-03
<GCONST> -5.392207e+01
<STATE> 3
<MEAN> 16
 2.488789e-01 -2.154890e-01 1.861354e+00 -2.029367e-01 -8.716200e-02 1.804580e+00 -1.988317e-02 3.994927e-02 -3.620044e-03 4.233751e-03 5.373584e-02 -4.792962e-03 1.075272e-01 1.041665e-01 8.231969e-02 7.995858e-02
<VARIANCE> 16
 4.343115e-02 6.599317e-02 3.500861e-02 2.649909e-02 3.475542e-02 3.194383e-02 8.723034e-03 7.295353e-03 1.521784e-02 8.636550e-03 1.550683e-02 1.540052e-02 1.220358e-03 1.065131e-03 1.000000e-03 1.000000e-03
<GCONST> -4.454271e+01
<STATE> 4
<MEAN> 16
 2.024747e-01 -9.691439e-02 1.661982e+00 -2.111475e-01 -1.755717e-02 1.627509e+00 -1.401439e-03 1.094512e-02 -1.230473e-02 -4.597048e-03 1.746756e-02 -1.209954e-02 1.094255e-01 1.066168e-01 8.149186e-02 8.008360e-02
<VARIANCE> 16
 3.555736e-02 5.922049e-02 4.058969e-02 2.388906e-02 2.866231e-02 3.070737e-02 5.634057e-03 2.797062e-03 1.135169e-02 4.227410e-03 3.816666e-03 1.001017e-02 1.000000e-03 1.000000e-03 1.000000e-03 1.000000e-03
<GCONST> -4.953729e+01
<STATE> 5
<MEAN> 16
 3.988502e-01 -5.502483e-01 1.870391e+00 -1.417892e-01 -2.636698e-01 1.859136e+00 1.734626e-03 -2.173005e-03 5.800264e-03 -3.806534e-03 -4.470767e-03 6.314495e-03 1.200562e-01 1.000032e-01 9.036595e-02 8.286259e-02
<VARIANCE> 16
 2.230343e-02 4.747860e-02 1.655394e-02 1.803893e-02 1.063218e-01 1.970959e-02 1.000000e-03 1.000000e-03 2.904321e-03 1.000000e-03 1.131345e-03 2.683892e-03 1.000000e-03 1.000000e-03 1.000000e-03 1.000000e-03
<GCONST> -5.862943e+01
<TRANSP> 6
 0.000000e+00 1.000000e+00 0.000000e+00 0.000000e+00 0.000000e+00 0.000000e+00
 0.000000e+00 7.186728e-01 2.813273e-01 0.000000e+00 0.000000e+00 0.000000e+00
 0.000000e+00 0.000000e+00 3.813505e-01 6.186495e-01 0.000000e+00 0.000000e+00
 0.000000e+00 0.000000e+00 0.000000e+00 6.697853e-01 3.302147e-01 0.000000e+00
 0.000000e+00 0.000000e+00 0.000000e+00 0.000000e+00 7.447082e-01 2.552919e-01
 0.000000e+00 0.000000e+00 0.000000e+00 0.000000e+00 0.000000e+00 0.000000e+00
<ENDHMM>
~h "goes_to"
<BEGINHMM>
<NUMSTATES> 6
<STATE> 2
<MEAN> 16
 3.870485e-01 -4.948314e-01 1.926566e+00 -2.867106e-01 -2.192268e-01 1.876158e+00 -5.863142e-03 1.328767e-02 2.521037e-03 -3.269818e-03 2.133112e-02 2.263879e-04 1.071507e-01 9.813345e-02 8.639817e-02 7.971256e-02
<VARIANCE> 16
 1.312622e-02 2.719625e-02 3.444505e-02 2.158809e-02 7.799207e-02 3.390195e-02 1.000000e-03 1.649419e-03 4.831434e-03 1.157075e-03 3.488991e-03 4.621049e-03 1.069559e-03 1.000000e-03 1.000000e-03 1.000000e-03
<GCONST> -5.567983e+01
<STATE> 3
<MEAN> 16
 2.739310e-01 -1.553379e-01 1.870231e+00 -3.242306e-01 -8.009214e-02 1.781469e+00 -2.998719e-03 5.365978e-03 -3.960132e-03 -3.486695e-04 2.037762e-03 -3.234642e-03 9.432925e-02 1.093766e-01 8.272427e-02 7.823184e-02
<VARIANCE> 16
 1.213940e-02 4.924594e-02 1.563423e-02 1.045647e-02 1.935760e-02 1.296552e-02 1.000000e-03 2.812095e-03 4.355839e-03 1.000000e-03 1.008534e-03 3.535618e-03 1.014108e-03 1.000000e-03 1.000000e-03 1.000000e-03
<GCONST> -6.031187e+01
<STATE> 4
<MEAN> 16
 1.212602e-01 -6.735371e-02 1.539844e+00 -3.147568e-01 -1.157253e-02 1.481684e+00 -3.080922e-03 -4.459852e-04 -1.029701e-03 -1.078057e-04 -6.931613e-04 -8.184701e-04 9.181211e-02 1.058900e-01 7.575856e-02 8.180749e-02
<VARIANCE> 16
 4.828552e-02 2.641766e-02 2.968372e-02 8.423884e-03 8.550298e-03 2.871244e-02 1.104283e-03 1.165433e-03 1.944730e-03 1.000000e-03 1.000000e-03 1.672427e-03 1.000000e-03 1.000000e-03 1.000000e-03 1.000000e-03
<GCONST> -6.151024e+01
<STATE> 5
<MEAN> 16
 2.724947e-01 -3.510565e-01 1.734345e+00 -3.024501e-01 -3.248761e-01 1.764154e+00 3.110724e-02 -4.148059e-02 2.800553e-02 -2.652972e-04 -4.083334e-02 2.978916e-02 1.011726e-01 1.024410e-01 7.998489e-02 7.378090e-02
<VARIANCE> 16
 2.901623e-02 3.256709e-02 3.904795e-02 1.599908e-02 8.187939e-02 2.185746e-02 3.635664e-03 4.222525e-03 8.807964e-03 1.423634e-03 3.367857e-03 7.226893e-03 1.123080e-03 1.225865e-03 1.000000e-03 1.000000e-03
<GCONST> -5.156789e+01
<TRANSP> 6
 0.000000e+00 1.000000e+00 0.000000e+00 0.000000e+00 0.000000e+00 0.000000e+00
 0.000000e+00 8.885757e-01 1.114243e-01 0.000000e+00 0.000000e+00 0.000000e+00
 0.000000e+00 0.000000e+00 9.444793e-01 5.552076e-02 0.000000e+00 0.000000e+00
 0.000000e+00 0.000000e+00 0.000000e+00 9.578897e-01 4.211032e-02 0.000000e+00
 0.000000e+00 0.000000e+00 0.000000e+00 0.000000e+00 6.460727e-01 3.539274e-01
 0.000000e+00 0.000000e+00 0.000000e+00 0.000000e+00 0.000000e+00 0.000000e+00
<ENDHMM>
