~o
<STREAMINFO> 1 16
<VECSIZE> 16<NULLD><USER><DIAGC>
~h "Monkey"
<BEGINHMM>
<NUMSTATES> 6
<STATE> 2
<NUMMIXES> 2
<MIXTURE> 1 5.729609e-01
<MEAN> 16
 6.231189e-01 -7.452325e-01 1.941402e+00 -1.425967e-01 -6.084903e-01 1.832335e+00 6.231189e-01 -7.452325e-01 1.941402e+00 -1.425967e-01 -6.084903e-01 1.832335e+00 1.113234e-01 1.142968e-01 9.541939e-02 7.400936e-02
<VARIANCE> 16
 7.614508e-03 1.000000e-03 4.352268e-03 2.809647e-03 5.167079e-03 3.602536e-03 7.614508e-03 1.000000e-03 4.352268e-03 2.809647e-03 5.167079e-03 3.602536e-03 1.000000e-03 1.000000e-03 1.000000e-03 1.000000e-03
<GCONST> -6.620255e+01
<MIXTURE> 2 4.270393e-01
<MEAN> 16
 5.620941e-01 -6.677253e-01 1.739381e+00 -3.026092e-01 -6.308932e-01 1.819308e+00 5.620941e-01 -6.677253e-01 1.739381e+00 -3.026092e-01 -6.308932e-01 1.819308e+00 1.207754e-01 9.902789e-02 9.915655e-02 6.728594e-02
<VARIANCE> 16
 2.058764e-03 1.566743e-03 8.117420e-03 2.714659e-02 1.172031e-02 1.317164e-02 2.058764e-03 1.566743e-03 8.117420e-03 2.714659e-02 1.172031e-02 1.317164e-02 1.000000e-03 1.000000e-03 1.000000e-03 1.000000e-03
<GCONST> -5.790654e+01
<STATE> 3
<NUMMIXES> 2
<MIXTURE> 1 7.092317e-01
<MEAN> 16
 6.128247e-01 -7.431397e-01 1.946527e+00 -1.447081e-01 -6.169612e-01 1.825828e+00 -1.566818e-03 2.531362e-03 5.810359e-04 -3.353087e-04 2.230938e-03 3.394384e-05 1.142526e-01 1.156767e-01 1.018915e-01 7.474914e-02
<VARIANCE> 16
 6.049151e-03 1.000000e-03 4.118538e-03 1.799546e-03 1.000000e-03 2.358883e-03 1.000000e-03 1.000000e-03 1.000000e-03 1.000000e-03 1.000000e-03 1.000000e-03 1.000000e-03 1.000000e-03 1.000000e-03 1.000000e-03
<GCONST> -7.645692e+01
<MIXTURE> 2 2.907676e-01
<MEAN> 16
 5.874700e-01 -7.118570e-01 1.834618e+00 -2.527985e-01 -6.549312e-01 1.859156e+00 -2.120271e-03 2.427169e-03 3.988342e-04 3.858001e-04 2.483172e-03 -6.276377e-03 1.185229e-01 1.034789e-01 9.805816e-02 6.913590e-02
<VARIANCE> 16
 3.366581e-03 2.189710e-03 1.127608e-02 2.232019e-02 1.285814e-02 1.447870e-02 1.000000e-03 1.000000e-03 1.920446e-03 1.000000e-03 1.000000e-03 5.765131e-03 1.000000e-03 1.000000e-03 1.000000e-03 1.000000e-03
<GCONST> -6.596117e+01
<STATE> 4
<NUMMIXES> 2
<MIXTURE> 1 5.725475e-01
<MEAN> 16
 5.288352e-01 -6.649511e-01 1.867383e+00 -1.365853e-01 -5.763174e-01 1.808911e+00 -2.974645e-02 2.146621e-02 -5.503894e-04 -4.346571e-03 8.543146e-03 3.264668e-03 1.110667e-01 1.073255e-01 9.072575e-02 7.529903e-02
<VARIANCE> 16
 3.717876e-03 2.039133e-03 1.359823e-02 5.042365e-03 6.565011e-03 7.868342e-03 1.662164e-03 1.453771e-03 1.800466e-03 1.000000e-03 1.000000e-03 1.179733e-03 1.056845e-03 1.000000e-03 1.031716e-03 1.000000e-03
<GCONST> -6.919783e+01
<MIXTURE> 2 4.274525e-01
<MEAN> 16
 5.581349e-01 -6.315603e-01 1.694734e+00 -4.317003e-01 -6.655747e-01 1.804108e+00 -2.305549e-03 4.897026e-03 -1.083910e-04 -3.228266e-03 7.757788e-03 -1.905999e-02 1.145167e-01 9.891296e-02 1.223609e-01 6.263886e-02
<VARIANCE> 16
 1.000000e-03 1.000000e-03 3.625610e-03 6.437099e-03 1.851948e-03 5.458873e-03 1.000000e-03 1.000000e-03 1.000000e-03 1.000000e-03 1.000000e-03 1.275071e-03 1.000000e-03 1.000000e-03 1.000000e-03 1.000000e-03
<GCONST> -7.541147e+01
<STATE> 5
<MEAN> 16
 3.789160e-01 -6.508279e-01 1.897019e+00 -1.601874e-01 -2.576247e-01 1.819517e+00 -6.582455e-03 4.875914e-03 -2.677090e-04 -3.862130e-03 1.611053e-02 3.393806e-04 1.247481e-01 1.092284e-01 8.084151e-02 7.830011e-02
<VARIANCE> 16
 2.028348e-02 3.303595e-03 9.423214e-03 1.198026e-02 1.282759e-01 1.150374e-02 1.000000e-03 1.000000e-03 3.300098e-03 1.000000e-03 3.685006e-03 2.865043e-03 1.000000e-03 1.000000e-03 1.000000e-03 1.000000e-03
<GCONST> -6.133914e+01
<TRANSP> 6
 0.000000e+00 1.000000e+00 0.000000e+00 0.000000e+00 0.000000e+00 0.000000e+00
 0.000000e+00 0.000000e+00 1.000000e+00 0.000000e+00 0.000000e+00 0.000000e+00
 0.000000e+00 0.000000e+00 8.134494e-01 1.865506e-01 0.000000e+00 0.000000e+00
 0.000000e+00 0.000000e+00 0.000000e+00 6.916498e-01 3.083502e-01 0.000000e+00
 0.000000e+00 0.000000e+00 0.000000e+00 0.000000e+00 8.878726e-01 1.121274e-01
 0.000000e+00 0.000000e+00 0.000000e+00 0.000000e+00 0.000000e+00 0.000000e+00
<ENDHMM>
~h "fence"
<BEGINHMM>
<NUMSTATES> 6
<STATE> 2
<NUMMIXES> 2
<MIXTURE> 1 3.764021e-01
<MEAN> 16
 4.237920e-01 -3.041840e-01 1.991652e+00 -3.559597e-01 -1.802217e-01 1.885263e+00 9.742239e-03 -1.199014e-02 2.627722e-02 -5.574772e-03 -6.015971e-03 1.971733e-02 1.146364e-01 1.540659e-01 9.459890e-02 9.299746e-02
<VARIANCE> 16
 7.937435e-03 1.925494e-02 1.586037e-02 2.211675e-03 1.162690e-02 8.538035e-03 1.000000e-03 1.000000e-03 3.725826e-03 1.000000e-03 1.000000e-03 3.033267e-03 1.222679e-03 1.000000e-03 1.000000e-03 1.000000e-03
<GCONST> -6.530730e+01
<MIXTURE> 2 6.235947e-01
<MEAN> 16
 2.482131e-01 -2.556665e-01 1.819929e+00 -2.946561e-01 -2.581032e-01 1.757643e+00 -4.701889e-03 2.988032e-03 -1.752276e-02 1.762869e-03 1.518582e-04 -1.379865e-02 8.561607e-02 1.446193e-01 8.165900e-02 8.695856e-02
<VARIANCE> 16
 2.861873e-02 1.803507e-02 1.652335e-02 2.039568e-03 6.636505e-03 9.472513e-03 1.000000e-03 1.774541e-03 3.176807e-03 1.000000e-03 1.000000e-03 2.445916e-03 1.000000e-03 1.000000e-03 1.000000e-03 1.000000e-03
<GCONST> -6.458935e+01
<STATE> 3
<NUMMIXES> 2
<MIXTURE> 1 4.282949e-01
<MEAN> 16
 3.029208e-01 -6.718928e-02 1.913055e+00 -3.491409e-01 -1.061474e-01 1.854365e+00 4.795319e-03 -3.611541e-03 1.658132e-02 -3.020112e-03 -3.111749e-03 1.504494e-02 1.181317e-01 1.635613e-01 9.246717e-02 9.610575e-02
<VARIANCE> 16
 3.806112e-02 5.812240e-02 1.208506e-02 4.325083e-03 2.771994e-03 1.061416e-02 1.303336e-03 2.859215e-03 3.494048e-03 1.000000e-03 1.000000e-03 3.165239e-03 1.000000e-03 1.000000e-03 1.000000e-03 1.000000e-03
<GCONST> -6.235939e+01
<MIXTURE> 2 5.717004e-01
<MEAN> 16
 1.722944e-01 -6.865035e-02 1.739160e+00 -3.807569e-01 -1.039492e-01 1.702214e+00 -5.783419e-03 -8.927831e-04 -1.204571e-02 2.505552e-03 1.034943e-04 -1.104547e-02 1.000553e-01 1.373166e-01 7.686497e-02 9.070443e-02
<VARIANCE> 16
 5.648122e-02 1.387875e-02 5.843630e-03 8.378958e-03 4.570961e-03 4.926171e-03 1.356879e-03 1.000000e-03 2.173803e-03 1.000000e-03 1.000000e-03 2.153541e-03 1.000000e-03 1.000000e-03 1.000000e-03 1.000000e-03
<GCONST> -6.559965e+01
<STATE> 4
<NUMMIXES> 2
<MIXTURE> 1 6.793081e-01
<MEAN> 16
 2.068928e-01 -9.908671e-02 1.553128e+00 -3.658135e-01 -3.596047e-02 1.491215e+00 -6.589639e-04 -9.362304e-04 1.262267e-03 -6.058445e-04 -6.691599e-04 1.727399e-03 9.583466e-02 1.423452e-01 8.088487e-02 8.425442e-02
<VARIANCE> 16
 4.182168e-02 2.396998e-02 2.619946e-02 6.765943e-03 2.134976e-03 1.625719e-02 1.000000e-03 1.000000e-03 1.000000e-03 1.000000e-03 1.000000e-03 1.000000e-03 1.000000e-03 1.000000e-03 1.000000e-03 1.000000e-03
<GCONST> -6.548321e+01
<MIXTURE> 2 3.206809e-01
<MEAN> 16
 1.864191e-01 -2.602933e-01 1.622607e+00 -3.098742e-01 -1.788809e-01 1.558477e+00 2.472319e-02 -2.988297e-02 5.324529e-03 5.289230e-03 -2.357352e-02 6.161142e-04 9.363858e-02 1.162795e-01 7.525846e-02 7.810392e-02
<VARIANCE> 16
 8.376346e-02 4.461037e-02 3.420804e-02 1.061615e-02 2.975599e-02 3.100844e-02 3.153014e-03 3.350842e-03 6.490334e-03 1.000000e-03 1.297051e-03 4.534650e-03 1.000000e-03 1.546163e-03 1.000000e-03 1.000000e-03
<GCONST> -5.373447e+01
<STATE> 5
<MEAN> 16
 5.781277e-01 -6.943586e-01 1.859813e+00 -1.874436e-01 -5.981811e-01 1.794797e+00 5.671540e-03 -6.453080e-03 2.037035e-03 3.327534e-03 -7.826108e-03 2.934505e-03 1.156550e-01 1.109276e-01 9.717473e-02 7.517135e-02
<VARIANCE> 16
 1.993568e-02 4.224216e-03 1.464827e-02 1.508701e-02 6.943108e-03 7.158626e-03 1.000000e-03 1.000000e-03 1.675282e-03 1.000000e-03 1.000000e-03 1.597608e-03 1.000000e-03 1.000000e-03 1.000000e-03 1.000000e-03
<GCONST> -6.639600e+01
<TRANSP> 6
 0.000000e+00 1.000000e+00 0.000000e+00 0.000000e+00 0.000000e+00 0.000000e+00
 0.000000e+00 9.549088e-01 4.509113e-02 0.000000e+00 0.000000e+00 0.000000e+00
 0.000000e+00 0.000000e+00 9.780421e-01 2.195794e-02 0.000000e+00 0.000000e+00
 0.000000e+00 0.000000e+00 0.000000e+00 9.643520e-01 3.564801e-02 0.000000e+00
 0.000000e+00 0.000000e+00 0.000000e+00 0.000000e+00 9.620366e-01 3.796349e-02
 0.000000e+00 0.000000e+00 0.000000e+00 0.000000e+00 0.000000e+00 0.000000e+00
<ENDHMM>
~h "Car"
<BEGINHMM>
<NUMSTATES> 6
<STATE> 2
<NUMMIXES> 2
<MIXTURE> 1 5.484605e-01
<MEAN> 16
 6.263114e-01 -7.411807e-01 1.926887e+00 -1.453830e-01 -6.016673e-01 1.826765e+00 6.263114e-01 -7.411807e-01 1.926887e+00 -1.453830e-01 -6.016673e-01 1.826765e+00 1.103999e-01 1.136067e-01 9.622029e-02 8.108860e-02
<VARIANCE> 16
 6.600956e-03 1.000000e-03 3.862025e-03 3.438876e-03 5.787231e-03 4.471104e-03 6.600956e-03 1.000000e-03 3.862025e-03 3.438876e-03 5.787231e-03 4.471104e-03 1.000000e-03 1.000000e-03 1.000000e-03 1.000000e-03
<GCONST> -6.566438e+01
<MIXTURE> 2 4.515392e-01
<MEAN> 16
 5.659593e-01 -6.758706e-01 1.738385e+00 -3.077556e-01 -6.438362e-01 1.825465e+00 5.659593e-01 -6.758706e-01 1.738385e+00 -3.077556e-01 -6.438362e-01 1.825465e+00 1.192821e-01 9.439874e-02 1.015308e-01 6.537239e-02
<VARIANCE> 16
 2.274300e-03 1.694982e-03 8.223034e-03 2.325892e-02 1.269217e-02 1.312925e-02 2.274300e-03 1.694982e-03 8.223034e-03 2.325892e-02 1.269217e-02 1.312925e-02 1.000000e-03 1.096448e-03 1.000000e-03 1.000000e-03
<GCONST> -5.758838e+01
<STATE> 3
<NUMMIXES> 2
<MIXTURE> 1 4.147813e-01
<MEAN> 16
 6.018848e-01 -7.350370e-01 1.931537e+00 -1.104001e-01 -1.647239e-01 1.785343e+00 2.710664e-03 -3.955410e-03 1.412535e-02 -1.481842e-03 1.393788e-02 1.018701e-02 1.232629e-01 1.138602e-01 9.172501e-02 8.193745e-02
<VARIANCE> 16
 3.607804e-03 1.000000e-03 6.043659e-03 1.266596e-02 1.148833e-01 8.336765e-03 1.000000e-03 1.000000e-03 3.717579e-03 1.770024e-03 4.735264e-03 4.275729e-03 1.000000e-03 1.000000e-03 1.000000e-03 1.000000e-03
<GCONST> -6.374038e+01
<MIXTURE> 2 5.852196e-01
<MEAN> 16
 5.896806e-01 -7.051980e-01 1.827214e+00 -2.515156e-01 -4.122266e-01 1.769184e+00 -1.950118e-03 5.231917e-03 -1.057927e-02 -2.032519e-03 2.009163e-03 -1.300893e-02 1.241746e-01 1.004529e-01 9.354763e-02 7.763452e-02
<VARIANCE> 16
 1.596560e-03 1.572846e-03 9.498022e-03 2.333779e-02 8.855225e-02 1.659718e-02 1.000000e-03 1.000000e-03 1.729728e-03 1.000000e-03 1.000000e-03 1.835059e-03 1.000000e-03 1.000000e-03 1.000000e-03 1.000000e-03
<GCONST> -6.634829e+01
<STATE> 4
<NUMMIXES> 2
<MIXTURE> 1 6.390367e-01
<MEAN> 16
 6.132958e-01 -7.351121e-01 1.912461e+00 -1.950945e-01 -6.207491e-01 1.853083e+00 -3.364655e-04 3.504076e-03 1.194027e-03 -1.547220e-03 3.794477e-03 -1.006627e-04 1.158198e-01 1.071873e-01 1.097023e-01 7.751280e-02
<VARIANCE> 16
 4.961032e-03 1.188488e-03 7.351633e-03 7.814615e-03 1.164689e-02 8.471921e-03 1.000000e-03 1.000000e-03 1.000000e-03 1.000000e-03 1.000000e-03 1.000000e-03 1.000000e-03 1.000000e-03 1.000000e-03 1.000000e-03
<GCONST> -7.070104e+01
<MIXTURE> 2 3.609620e-01
<MEAN> 16
 5.469855e-01 -6.378739e-01 1.673428e+00 -3.667286e-01 -6.409070e-01 1.774650e+00 -2.658282e-03 3.895819e-03 -2.098236e-04 -1.095385e-03 7.428639e-03 -1.298236e-02 1.163027e-01 9.621713e-02 1.223228e-01 6.183089e-02
<VARIANCE> 16
 1.090755e-03 1.049190e-03 2.441549e-03 1.884943e-02 3.450250e-03 5.232479e-03 1.000000e-03 1.000000e-03 1.000000e-03 1.000000e-03 1.000000e-03 1.000000e-03 1.000000e-03 1.000000e-03 1.000000e-03 1.000000e-03
<GCONST> -7.426072e+01
<STATE> 5
<MEAN> 16
 3.971080e-01 -6.327708e-01 1.878956e+00 -1.770736e-01 -5.982104e-01 1.830985e+00 -2.123800e-02 1.321743e-02 -8.284025e-04 -4.584169e-03 6.858103e-03 -5.067601e-04 1.166102e-01 1.128373e-01 8.351231e-02 7.388297e-02
<VARIANCE> 16
 2.104554e-02 2.465553e-03 9.132734e-03 7.284910e-03 7.032616e-03 6.413810e-03 1.270942e-03 1.019821e-03 2.929166e-03 1.000000e-03 1.000000e-03 2.068472e-03 1.000000e-03 1.000000e-03 1.000000e-03 1.000000e-03
<GCONST> -6.710136e+01
<TRANSP> 6
 0.000000e+00 1.000000e+00 0.000000e+00 0.000000e+00 0.000000e+00 0.000000e+00
 0.000000e+00 0.000000e+00 1.000000e+00 0.000000e+00 0.000000e+00 0.000000e+00
 0.000000e+00 0.000000e+00 7.593650e-01 2.406350e-01 0.000000e+00 0.000000e+00
 0.000000e+00 0.000000e+00 0.000000e+00 8.076501e-01 1.923499e-01 0.000000e+00
 0.000000e+00 0.000000e+00 0.000000e+00 0.000000e+00 7.939078e-01 2.060922e-01
 0.000000e+00 0.000000e+00 0.000000e+00 0.000000e+00 0.000000e+00 0.000000e+00
<ENDHMM>
~h "Man"
<BEGINHMM>
<NUMSTATES> 6
<STATE> 2
<NUMMIXES> 2
<MIXTURE> 1 2.130843e-01
<MEAN> 16
 6.626583e-01 -7.244039e-01 1.966724e+00 -1.533590e-01 -5.576217e-01 1.832029e+00 6.626583e-01 -7.244039e-01 1.966724e+00 -1.533590e-01 -5.576217e-01 1.832029e+00 1.113984e-01 1.046209e-01 1.008122e-01 7.494919e-02
<VARIANCE> 16
 9.398365e-02 3.412029e-02 4.973108e-03 1.348421e-02 4.135674e-02 1.622718e-02 9.398365e-02 3.412029e-02 4.973108e-03 1.348421e-02 4.135674e-02 1.622718e-02 1.000000e-03 1.000000e-03 1.000000e-03 1.000000e-03
<GCONST> -4.354305e+01
<MIXTURE> 2 7.869154e-01
<MEAN> 16
 5.669484e-01 -6.986554e-01 1.814201e+00 -2.327878e-01 -6.311202e-01 1.814649e+00 5.669484e-01 -6.986554e-01 1.814201e+00 -2.327878e-01 -6.311202e-01 1.814649e+00 1.155181e-01 1.054878e-01 1.002564e-01 7.066698e-02
<VARIANCE> 16
 1.907763e-03 2.166651e-03 1.646296e-02 2.134455e-02 5.086778e-03 7.390645e-03 1.907763e-03 2.166651e-03 1.646296e-02 2.134455e-02 5.086778e-03 7.390645e-03 1.000000e-03 1.000000e-03 1.000000e-03 1.000000e-03
<GCONST> -5.930229e+01
<STATE> 3
<NUMMIXES> 2
<MIXTURE> 1 5.716034e-01
<MEAN> 16
 7.605096e-01 -4.730146e-01 2.192710e+00 -2.662924e-01 -5.148464e-01 1.887854e+00 1.255350e+00 -4.129480e-01 9.002640e-02 5.480391e-01 -8.128529e-01 -1.507928e-02 1.155016e-01 1.143094e-01 1.061616e-01 7.747398e-02
<VARIANCE> 16
 1.268628e-01 3.400594e-02 1.217240e-01 5.814952e-02 2.972754e-02 4.309816e-02 7.024338e-01 7.814700e-02 1.240425e-01 2.016319e-01 2.967346e-01 1.954089e-01 1.000000e-03 1.000000e-03 1.000000e-03 1.000000e-03
<GCONST> -2.471994e+01
<MIXTURE> 2 4.283966e-01
<MEAN> 16
 -8.552278e-01 1.549853e-01 2.189115e+00 -1.014781e+00 6.031734e-01 1.932194e+00 -1.672538e+00 5.491787e-01 -1.195065e-01 -7.303810e-01 1.083896e+00 2.086489e-02 7.670223e-02 6.536625e-02 6.307598e-02 7.538801e-02
<VARIANCE> 16
 2.138241e-02 2.503665e-02 2.423901e-01 4.460040e-02 7.945865e-02 3.048621e-01 2.372988e-01 2.868805e-02 1.601636e-01 1.350811e-01 1.003559e-01 2.560066e-01 1.000000e-03 1.000000e-03 1.000000e-03 1.000000e-03
<GCONST> -2.648996e+01
<STATE> 4
<NUMMIXES> 2
<MIXTURE> 1 6.230023e-01
<MEAN> 16
 4.963739e-01 -6.949101e-01 1.933484e+00 -1.348792e-01 -6.131212e-01 1.859176e+00 -4.811591e-03 2.827697e-03 7.475466e-03 -1.942727e-03 1.338356e-03 6.708800e-03 1.190539e-01 1.127807e-01 9.449147e-02 7.543834e-02
<VARIANCE> 16
 2.887940e-02 4.126781e-03 5.084494e-03 2.725672e-03 1.026407e-03 4.588244e-03 1.000000e-03 1.000000e-03 1.000000e-03 1.000000e-03 1.000000e-03 1.000000e-03 1.000000e-03 1.000000e-03 1.000000e-03 1.000000e-03
<GCONST> -7.215895e+01
<MIXTURE> 2 3.769969e-01
<MEAN> 16
 4.397594e-01 -6.565105e-01 1.829522e+00 -1.705000e-01 -6.042475e-01 1.815318e+00 -2.263214e-02 9.390011e-03 -1.628601e-02 -3.577115e-04 3.304448e-03 -1.376545e-02 1.143080e-01 1.086797e-01 8.498055e-02 7.073966e-02
<VARIANCE> 16
 2.044853e-02 2.601000e-03 1.041297e-02 1.093508e-02 4.922801e-03 5.595572e-03 1.575037e-03 1.075613e-03 2.506469e-03 1.000000e-03 1.000000e-03 1.796150e-03 1.000000e-03 1.000000e-03 1.000000e-03 1.000000e-03
<GCONST> -6.706168e+01
<STATE> 5
<MEAN> 16
 4.718525e-01 -6.622374e-01 1.845904e+00 -1.900584e-01 -1.593619e-01 1.783656e+00 -2.047443e-03 4.243625e-03 1.656296e-03 -2.394777e-03 2.194838e-02 -2.200804e-03 1.226615e-01 1.010148e-01 9.948722e-02 7.963572e-02
<VARIANCE> 16
 1.910774e-02 3.983095e-03 1.994626e-02 2.291395e-02 1.319270e-01 1.966368e-02 1.000000e-03 1.000000e-03 2.666765e-03 1.000000e-03 4.969201e-03 2.932982e-03 1.000000e-03 1.000000e-03 1.000000e-03 1.000000e-03
<GCONST> -5.913995e+01
<TRANSP> 6
 0.000000e+00 1.000000e+00 0.000000e+00 0.000000e+00 0.000000e+00 0.000000e+00
 0.000000e+00 0.000000e+00 1.000000e+00 0.000000e+00 0.000000e+00 0.000000e+00
 0.000000e+00 0.000000e+00 8.594494e-01 1.405506e-01 0.000000e+00 0.000000e+00
 0.000000e+00 0.000000e+00 0.000000e+00 8.918185e-01 1.081815e-01 0.000000e+00
 0.000000e+00 0.000000e+00 0.000000e+00 0.000000e+00 8.773397e-01 1.226603e-01
 0.000000e+00 0.000000e+00 0.000000e+00 0.000000e+00 0.000000e+00 0.000000e+00
<ENDHMM>
~h "car"
<BEGINHMM>
<NUMSTATES> 6
<STATE> 2
<NUMMIXES> 2
<MIXTURE> 1 5.270402e-01
<MEAN> 16
 3.288037e-01 -4.619327e-01 2.094426e+00 -2.642991e-01 4.710313e-02 1.880559e+00 3.946148e-03 -8.780182e-04 6.305736e-03 -1.265475e-03 -7.790253e-03 3.106199e-03 1.021152e-01 1.336241e-01 9.359352e-02 8.522303e-02
<VARIANCE> 16
 1.249604e-02 6.303046e-03 1.307862e-02 1.199082e-03 1.182794e-02 8.628649e-03 1.000000e-03 1.000000e-03 1.177670e-03 1.000000e-03 1.000000e-03 1.000000e-03 1.000000e-03 1.000000e-03 1.000000e-03 1.000000e-03
<GCONST> -6.920998e+01
<MIXTURE> 2 4.729577e-01
<MEAN> 16
 3.056530e-01 -2.655677e-01 1.874534e+00 -2.924612e-01 -5.661185e-02 1.809362e+00 1.293317e-03 -1.227073e-02 -5.800222e-03 9.482767e-04 -3.174437e-03 -8.028234e-03 8.222502e-02 1.041661e-01 7.986098e-02 8.140089e-02
<VARIANCE> 16
 1.286887e-02 2.160904e-02 1.948478e-02 4.637041e-03 4.875808e-02 1.282915e-02 1.000000e-03 1.000000e-03 3.512554e-03 1.000000e-03 1.000000e-03 2.860323e-03 1.000000e-03 1.000000e-03 1.000000e-03 1.000000e-03
<GCONST> -6.224055e+01
<STATE> 3
<NUMMIXES> 2
<MIXTURE> 1 6.707002e-01
<MEAN> 16
 3.279698e-01 5.488127e-02 1.906152e+00 -3.086511e-01 5.002753e-02 1.881647e+00 3.879631e-03 1.473208e-03 2.770256e-03 -2.536796e-03 -2.083439e-03 4.029068e-03 1.173378e-01 1.378549e-01 8.912516e-02 8.244641e-02
<VARIANCE> 16
 2.586060e-02 2.382810e-02 1.382923e-02 2.304364e-03 2.378146e-03 1.393134e-02 1.000000e-03 2.240234e-03 1.322878e-03 1.000000e-03 1.000000e-03 1.099537e-03 1.000000e-03 1.000000e-03 1.000000e-03 1.000000e-03
<GCONST> -6.655114e+01
<MIXTURE> 2 3.292917e-01
<MEAN> 16
 2.570364e-01 -1.430349e-01 1.876334e+00 -2.875094e-01 -9.958278e-02 1.854528e+00 7.717202e-03 -1.412953e-02 -4.663193e-03 3.411098e-03 -1.098146e-02 -6.497141e-03 1.043833e-01 1.057492e-01 8.278780e-02 8.482463e-02
<VARIANCE> 16
 7.742196e-02 6.384980e-02 1.802833e-02 1.406179e-02 2.986116e-02 1.591549e-02 4.109655e-03 4.071381e-03 1.049343e-02 1.365529e-03 1.218827e-03 8.484307e-03 1.000000e-03 1.000000e-03 1.000000e-03 1.000000e-03
<GCONST> -5.309728e+01
<STATE> 4
<NUMMIXES> 2
<MIXTURE> 1 6.453930e-01
<MEAN> 16
 1.876896e-01 -1.990292e-02 1.727502e+00 -4.046033e-01 -4.094977e-02 1.656850e+00 -3.321575e-04 -1.642918e-03 6.042297e-03 -1.957683e-03 -1.039908e-03 6.078201e-03 9.281834e-02 1.182621e-01 7.087499e-02 8.054054e-02
<VARIANCE> 16
 3.091338e-02 1.827943e-02 1.426673e-02 2.613086e-03 3.939883e-03 6.622585e-03 1.000000e-03 1.000000e-03 1.138909e-03 1.000000e-03 1.000000e-03 1.000000e-03 1.000000e-03 1.000000e-03 1.000000e-03 1.000000e-03
<GCONST> -6.777092e+01
<MIXTURE> 2 3.545976e-01
<MEAN> 16
 2.321783e-01 -1.299896e-01 1.633164e+00 -3.525706e-01 -6.852882e-02 1.560864e+00 3.054483e-03 -1.516926e-02 -9.827431e-03 7.087819e-03 -1.519759e-02 -1.080371e-02 9.131259e-02 1.091505e-01 7.589181e-02 8.457337e-02
<VARIANCE> 16
 4.433761e-02 5.519189e-02 4.147502e-02 6.735899e-03 3.047083e-02 2.573863e-02 2.068694e-03 3.183405e-03 5.950378e-03 1.000000e-03 1.188724e-03 4.155696e-03 1.000000e-03 1.000000e-03 1.000000e-03 1.000000e-03
<GCONST> -5.575241e+01
<STATE> 5
<MEAN> 16
 5.790740e-01 -6.936204e-01 1.855516e+00 -1.938271e-01 -6.051573e-01 1.813819e+00 4.754009e-03 -6.185566e-03 1.254987e-03 3.606978e-03 -7.325144e-03 2.455905e-03 1.163488e-01 1.074931e-01 9.739386e-02 7.494064e-02
<VARIANCE> 16
 1.614697e-02 3.281962e-03 1.543537e-02 1.818816e-02 5.399172e-03 7.010706e-03 1.000000e-03 1.000000e-03 1.667546e-03 1.000000e-03 1.000000e-03 1.707027e-03 1.000000e-03 1.000000e-03 1.000000e-03 1.000000e-03
<GCONST> -6.683066e+01
<TRANSP> 6
 0.000000e+00 1.000000e+00 0.000000e+00 0.000000e+00 0.000000e+00 0.000000e+00
 0.000000e+00 9.029444e-01 9.705564e-02 0.000000e+00 0.000000e+00 0.000000e+00
 0.000000e+00 0.000000e+00 9.541982e-01 4.580177e-02 0.000000e+00 0.000000e+00
 0.000000e+00 0.000000e+00 0.000000e+00 9.682537e-01 3.174626e-02 0.000000e+00
 0.000000e+00 0.000000e+00 0.000000e+00 0.000000e+00 9.600763e-01 3.992369e-02
 0.000000e+00 0.000000e+00 0.000000e+00 0.000000e+00 0.000000e+00 0.000000e+00
<ENDHMM>
~h "weaves_and_bumps_into"
<BEGINHMM>
<NUMSTATES> 6
<STATE> 2
<NUMMIXES> 2
<MIXTURE> 1 3.674529e-01
<MEAN> 16
 3.098855e-01 -3.021803e-01 1.948949e+00 -2.483059e-01 -2.430033e-01 1.906506e+00 -2.999635e-02 6.159223e-02 9.816648e-03 1.590930e-03 6.076177e-02 1.006740e-02 1.068859e-01 9.758858e-02 8.680408e-02 8.356237e-02
<VARIANCE> 16
 2.282555e-02 3.322988e-02 4.510247e-02 1.780134e-02 2.761400e-02 4.284398e-02 5.374946e-03 8.135308e-03 1.853907e-02 5.416708e-03 8.917698e-03 1.659350e-02 1.128502e-03 1.000000e-03 1.000000e-03 1.000000e-03
<GCONST> -4.721735e+01
<MIXTURE> 2 6.325461e-01
<MEAN> 16
 4.389019e-01 -4.144780e-01 1.859713e+00 -3.669899e-01 -3.549935e-01 1.833171e+00 -2.039107e-02 3.194087e-02 -1.908396e-02 3.584216e-03 3.282013e-02 -1.806768e-02 9.314488e-02 8.886111e-02 7.807945e-02 7.654548e-02
<VARIANCE> 16
 5.379978e-03 1.114688e-02 4.919616e-02 1.116461e-02 1.387543e-02 4.799605e-02 1.000000e-03 1.981308e-03 4.586408e-03 1.000000e-03 1.940845e-03 3.973031e-03 1.000000e-03 1.000000e-03 1.000000e-03 1.000000e-03
<GCONST> -5.996490e+01
<STATE> 3
<NUMMIXES> 2
<MIXTURE> 1 3.848323e-01
<MEAN> 16
 2.253390e-01 -1.389525e-01 1.857872e+00 -2.350289e-01 -1.254862e-01 1.805241e+00 3.544177e-03 2.399853e-03 3.161830e-02 -6.043028e-03 1.642482e-05 2.898395e-02 9.756200e-02 9.587149e-02 8.765770e-02 7.808185e-02
<VARIANCE> 16
 2.229325e-02 4.828798e-02 1.559339e-02 1.127834e-02 2.552482e-02 9.609446e-03 1.007360e-03 2.443644e-03 4.256409e-03 1.000000e-03 1.519588e-03 3.856797e-03 1.000000e-03 1.000000e-03 1.000000e-03 1.000000e-03
<GCONST> -5.934694e+01
<MIXTURE> 2 6.151647e-01
<MEAN> 16
 2.396363e-01 -2.167274e-01 1.755716e+00 -2.752035e-01 -2.057628e-01 1.706223e+00 -5.982359e-03 3.371635e-03 -2.251723e-02 3.725517e-03 5.933923e-03 -2.074860e-02 8.247536e-02 8.199152e-02 7.722761e-02 7.715574e-02
<VARIANCE> 16
 1.717004e-02 1.459619e-02 9.093031e-03 3.437334e-03 6.169467e-03 7.644103e-03 1.000000e-03 1.316261e-03 3.289095e-03 1.000000e-03 1.000000e-03 2.798346e-03 1.000000e-03 1.000000e-03 1.000000e-03 1.000000e-03
<GCONST> -6.580394e+01
<STATE> 4
<NUMMIXES> 2
<MIXTURE> 1 3.616000e-01
<MEAN> 16
 2.499395e-01 -1.221808e-01 1.575063e+00 -3.256461e-01 2.003424e-02 1.463490e+00 8.465204e-03 -3.700955e-03 1.319668e-02 -6.740581e-03 2.117644e-03 1.043596e-02 9.168746e-02 1.137306e-01 8.444426e-02 8.960148e-02
<VARIANCE> 16
 2.251490e-02 5.342035e-02 2.805866e-02 9.962318e-03 1.504274e-02 1.697565e-02 1.496908e-03 2.548290e-03 2.297081e-03 1.000000e-03 1.086151e-03 1.547117e-03 1.000000e-03 1.000000e-03 1.000000e-03 1.000000e-03
<GCONST> -6.016041e+01
<MIXTURE> 2 6.383991e-01
<MEAN> 16
 2.058361e-01 -3.902238e-02 1.366414e+00 -2.965333e-01 1.339784e-02 1.346361e+00 -2.809678e-03 1.437036e-03 -8.409464e-03 2.475156e-03 1.122220e-04 -7.272346e-03 8.383840e-02 1.041483e-01 8.201400e-02 8.360656e-02
<VARIANCE> 16
 2.351099e-02 1.984653e-02 1.328973e-02 6.015254e-03 3.692383e-03 4.006136e-03 1.000000e-03 1.000000e-03 1.193912e-03 1.000000e-03 1.000000e-03 1.000000e-03 1.000000e-03 1.000000e-03 1.000000e-03 1.000000e-03
<GCONST> -6.771993e+01
<STATE> 5
<MEAN> 16
 3.136165e-01 -2.286858e-01 1.850992e+00 -2.410670e-01 2.730080e-02 1.797040e+00 1.514711e-02 -6.865124e-03 1.962833e-02 -1.294898e-02 3.986566e-03 1.738124e-02 1.125159e-01 1.122591e-01 8.479771e-02 8.551175e-02
<VARIANCE> 16
 1.610748e-02 8.606827e-02 3.542902e-02 1.650075e-02 5.581520e-02 2.693084e-02 6.527751e-03 5.143391e-03 1.269520e-02 2.589335e-03 7.155380e-03 8.678261e-03 1.004604e-03 1.000000e-03 1.000000e-03 1.000000e-03
<GCONST> -4.905769e+01
<TRANSP> 6
 0.000000e+00 1.000000e+00 0.000000e+00 0.000000e+00 0.000000e+00 0.000000e+00
 0.000000e+00 8.719512e-01 1.280489e-01 0.000000e+00 0.000000e+00 0.000000e+00
 0.000000e+00 0.000000e+00 9.411548e-01 5.884519e-02 0.000000e+00 0.000000e+00
 0.000000e+00 0.000000e+00 0.000000e+00 9.575238e-01 4.247621e-02 0.000000e+00
 0.000000e+00 0.000000e+00 0.000000e+00 0.000000e+00 7.103890e-01 2.896110e-01
 0.000000e+00 0.000000e+00 0.000000e+00 0.000000e+00 0.000000e+00 0.000000e+00
<ENDHMM>
~h "man"
<BEGINHMM>
<NUMSTATES> 6
<STATE> 2
<NUMMIXES> 2
<MIXTURE> 1 4.952932e-01
<MEAN> 16
 3.679767e-01 -5.910661e-01 1.944738e+00 -3.508338e-01 -1.470684e-01 1.863564e+00 5.992146e-03 3.969970e-04 2.140430e-02 -9.400387e-03 -8.511391e-03 1.285425e-02 1.164859e-01 9.158667e-02 8.431564e-02 9.712429e-02
<VARIANCE> 16
 2.068379e-02 1.702226e-02 1.624613e-02 1.392393e-02 7.108797e-03 1.925498e-02 1.000000e-03 1.000000e-03 2.672166e-03 1.000000e-03 1.000000e-03 1.439131e-03 1.000000e-03 1.000000e-03 1.000000e-03 1.000000e-03
<GCONST> -6.356669e+01
<MIXTURE> 2 5.047031e-01
<MEAN> 16
 3.708322e-01 -5.973343e-01 1.773138e+00 -3.636281e-01 -1.132886e-01 1.641515e+00 -5.662611e-03 8.325938e-03 -2.162529e-02 -6.652281e-03 -2.449374e-03 -1.740174e-02 1.182679e-01 7.288375e-02 8.755452e-02 9.079732e-02
<VARIANCE> 16
 1.129394e-02 4.719771e-03 1.291946e-02 1.723981e-02 7.769485e-03 2.385309e-02 1.000000e-03 1.000000e-03 2.501546e-03 1.000000e-03 1.000000e-03 1.165144e-03 1.000000e-03 1.000000e-03 1.000000e-03 1.000000e-03
<GCONST> -6.544421e+01
<STATE> 3
<NUMMIXES> 2
<MIXTURE> 1 5.105723e-01
<MEAN> 16
 2.302193e-01 -5.109605e-02 1.923150e+00 -3.691903e-01 -1.410924e-01 1.957187e+00 7.408732e-03 -1.868838e-03 1.541506e-02 -3.484544e-03 -3.751089e-03 1.503466e-02 1.086373e-01 9.883500e-02 8.457849e-02 1.015776e-01
<VARIANCE> 16
 4.685972e-02 4.212456e-02 9.389482e-03 7.563297e-03 7.915684e-03 1.144871e-02 1.195136e-03 2.674230e-03 3.261991e-03 1.000000e-03 1.000000e-03 3.126130e-03 1.000000e-03 1.000000e-03 1.000000e-03 1.000000e-03
<GCONST> -6.127659e+01
<MIXTURE> 2 4.894136e-01
<MEAN> 16
 1.383242e-01 -8.015219e-02 1.748720e+00 -3.769689e-01 -1.522317e-01 1.746167e+00 -8.349467e-03 4.638544e-03 -1.947249e-02 7.229613e-03 3.434096e-04 -1.705565e-02 9.499830e-02 7.350339e-02 7.212278e-02 8.689364e-02
<VARIANCE> 16
 4.495968e-02 2.223523e-02 9.376557e-03 9.501408e-03 4.705598e-03 8.566447e-03 1.931121e-03 2.524071e-03 4.053343e-03 1.000000e-03 1.000000e-03 3.635393e-03 1.000000e-03 1.000000e-03 1.000000e-03 1.000000e-03
<GCONST> -6.175012e+01
<STATE> 4
<NUMMIXES> 2
<MIXTURE> 1 6.875282e-01
<MEAN> 16
 2.269114e-01 -2.680782e-02 1.530651e+00 -3.460748e-01 -2.208247e-02 1.520517e+00 9.213588e-04 3.322711e-04 2.960213e-03 -3.399254e-04 -1.129870e-03 3.599352e-03 9.740508e-02 7.499880e-02 8.034104e-02 9.414689e-02
<VARIANCE> 16
 3.321470e-02 2.368366e-02 2.222986e-02 9.907098e-03 1.834787e-03 1.092475e-02 1.000000e-03 1.000000e-03 1.000000e-03 1.000000e-03 1.000000e-03 1.000000e-03 1.000000e-03 1.000000e-03 1.000000e-03 1.000000e-03
<GCONST> -6.605763e+01
<MIXTURE> 2 3.124668e-01
<MEAN> 16
 3.041484e-01 -2.129501e-01 1.560742e+00 -3.305559e-01 -1.528570e-01 1.544155e+00 1.377151e-02 -2.059038e-02 -5.685295e-03 4.297094e-03 -2.195276e-02 -8.273068e-03 9.215454e-02 7.501114e-02 7.604861e-02 8.116532e-02
<VARIANCE> 16
 4.712763e-02 6.490452e-02 2.823062e-02 1.454555e-02 3.793878e-02 1.859314e-02 2.616577e-03 3.942790e-03 4.597783e-03 1.055527e-03 1.740008e-03 3.805570e-03 1.000000e-03 1.000000e-03 1.000000e-03 1.000000e-03
<GCONST> -5.471210e+01
<STATE> 5
<MEAN> 16
 5.763208e-01 -6.884339e-01 1.853104e+00 -1.907638e-01 -5.983271e-01 1.810460e+00 6.302953e-03 -7.509356e-03 2.985473e-03 2.677107e-03 -8.716939e-03 3.469651e-03 1.162402e-01 1.064886e-01 9.493870e-02 7.537166e-02
<VARIANCE> 16
 1.943443e-02 4.303240e-03 1.566038e-02 1.698684e-02 6.154337e-03 7.982663e-03 1.000000e-03 1.000000e-03 2.485032e-03 1.000000e-03 1.000000e-03 1.897325e-03 1.000000e-03 1.000000e-03 1.000000e-03 1.000000e-03
<GCONST> -6.566291e+01
<TRANSP> 6
 0.000000e+00 1.000000e+00 0.000000e+00 0.000000e+00 0.000000e+00 0.000000e+00
 0.000000e+00 9.216994e-01 7.830060e-02 0.000000e+00 0.000000e+00 0.000000e+00
 0.000000e+00 0.000000e+00 9.729643e-01 2.703573e-02 0.000000e+00 0.000000e+00
 0.000000e+00 0.000000e+00 0.000000e+00 9.511880e-01 4.881196e-02 0.000000e+00
 0.000000e+00 0.000000e+00 0.000000e+00 0.000000e+00 9.588165e-01 4.118358e-02
 0.000000e+00 0.000000e+00 0.000000e+00 0.000000e+00 0.000000e+00 0.000000e+00
<ENDHMM>
~h "monkey"
<BEGINHMM>
<NUMSTATES> 6
<STATE> 2
<NUMMIXES> 2
<MIXTURE> 1 4.350708e-01
<MEAN> 16
 3.840675e-01 -4.974668e-01 2.189247e+00 -2.648444e-01 -1.230303e-02 1.965067e+00 2.458969e-03 7.198353e-04 6.992468e-03 9.385755e-04 -7.482954e-03 5.100382e-03 1.114814e-01 1.151432e-01 8.860337e-02 7.830057e-02
<VARIANCE> 16
 7.328359e-03 2.832450e-03 1.089501e-02 1.487182e-03 1.811601e-02 8.151630e-03 1.000000e-03 1.000000e-03 2.065246e-03 1.000000e-03 1.000000e-03 1.225856e-03 1.647388e-03 1.000000e-03 1.000000e-03 1.000000e-03
<GCONST> -6.887688e+01
<MIXTURE> 2 5.649261e-01
<MEAN> 16
 2.976577e-01 -4.008196e-01 1.966380e+00 -3.482847e-01 -1.417842e-03 1.760895e+00 -8.479982e-04 -2.201401e-03 -8.414777e-03 1.805552e-05 -1.444129e-03 -8.101664e-03 1.019691e-01 1.006904e-01 9.113310e-02 6.775101e-02
<VARIANCE> 16
 1.004294e-02 6.890745e-03 1.606726e-02 9.594805e-03 1.347763e-02 1.373416e-02 1.000000e-03 1.000000e-03 1.382014e-03 1.000000e-03 1.000000e-03 1.000000e-03 1.263823e-03 1.000000e-03 1.000000e-03 1.000000e-03
<GCONST> -6.606440e+01
<STATE> 3
<NUMMIXES> 2
<MIXTURE> 1 4.342695e-01
<MEAN> 16
 3.026774e-01 8.759627e-03 1.995745e+00 -3.040065e-01 -2.416812e-02 1.965526e+00 5.758490e-03 3.496981e-03 1.027405e-02 -3.862974e-03 -2.861084e-03 1.216011e-02 1.168645e-01 1.189948e-01 9.333568e-02 7.994506e-02
<VARIANCE> 16
 3.379871e-02 3.752181e-02 1.040444e-02 7.234995e-03 3.824350e-03 1.048399e-02 1.553110e-03 3.633157e-03 4.521075e-03 1.000000e-03 1.000000e-03 3.775756e-03 1.000000e-03 1.000000e-03 1.000000e-03 1.000000e-03
<GCONST> -6.139260e+01
<MIXTURE> 2 5.657220e-01
<MEAN> 16
 1.353618e-01 -4.502563e-02 1.803499e+00 -3.358104e-01 -6.751307e-02 1.788063e+00 -5.268908e-03 1.464668e-03 -1.240851e-02 3.876980e-03 -3.550645e-04 -9.801045e-03 9.749371e-02 9.852803e-02 7.764378e-02 6.516626e-02
<VARIANCE> 16
 4.551657e-02 2.174346e-02 8.124925e-03 1.199215e-02 7.423785e-03 7.809036e-03 1.426913e-03 1.285055e-03 2.866620e-03 1.000000e-03 1.000000e-03 2.520577e-03 1.000000e-03 1.000000e-03 1.000000e-03 1.000000e-03
<GCONST> -6.299757e+01
<STATE> 4
<NUMMIXES> 2
<MIXTURE> 1 6.336129e-01
<MEAN> 16
 2.292533e-01 -1.484250e-02 1.584512e+00 -3.014548e-01 5.695555e-02 1.568000e+00 -5.079024e-05 5.350747e-04 -1.098198e-03 -7.342863e-05 -7.316815e-04 9.249663e-05 1.022544e-01 1.012092e-01 8.108692e-02 6.810848e-02
<VARIANCE> 16
 2.894897e-02 2.101813e-02 1.598628e-02 3.315139e-03 2.432027e-03 1.008950e-02 1.000000e-03 1.000000e-03 1.000000e-03 1.000000e-03 1.000000e-03 1.000000e-03 1.000000e-03 1.000000e-03 1.000000e-03 1.000000e-03
<GCONST> -6.753669e+01
<MIXTURE> 2 3.663836e-01
<MEAN> 16
 3.927805e-01 -4.126432e-01 1.758061e+00 -2.626511e-01 -2.780288e-01 1.709876e+00 3.013718e-02 -5.308637e-02 1.275365e-02 9.922321e-03 -4.686192e-02 4.618824e-03 1.033808e-01 8.788119e-02 7.799495e-02 6.877966e-02
<VARIANCE> 16
 5.005707e-02 4.151586e-02 2.584216e-02 1.106467e-02 4.103262e-02 2.443801e-02 2.061354e-03 3.327703e-03 9.674202e-03 1.000000e-03 2.060443e-03 6.847040e-03 1.000000e-03 1.000000e-03 1.000000e-03 1.000000e-03
<GCONST> -5.407070e+01
<STATE> 5
<MEAN> 16
 5.805178e-01 -6.960282e-01 1.854809e+00 -1.958854e-01 -6.111668e-01 1.809419e+00 4.032664e-03 -4.517210e-03 1.268062e-04 1.698938e-03 -4.918159e-03 1.276400e-03 1.147961e-01 1.096768e-01 9.611757e-02 7.440113e-02
<VARIANCE> 16
 1.508858e-02 3.127984e-03 1.621561e-02 1.804573e-02 4.954095e-03 5.995863e-03 1.000000e-03 1.000000e-03 1.307631e-03 1.000000e-03 1.000000e-03 1.448822e-03 1.000000e-03 1.000000e-03 1.000000e-03 1.000000e-03
<GCONST> -6.755460e+01
<TRANSP> 6
 0.000000e+00 1.000000e+00 0.000000e+00 0.000000e+00 0.000000e+00 0.000000e+00
 0.000000e+00 9.241564e-01 7.584364e-02 0.000000e+00 0.000000e+00 0.000000e+00
 0.000000e+00 0.000000e+00 9.733928e-01 2.660722e-02 0.000000e+00 0.000000e+00
 0.000000e+00 0.000000e+00 0.000000e+00 9.442159e-01 5.578410e-02 0.000000e+00
 0.000000e+00 0.000000e+00 0.000000e+00 0.000000e+00 9.604699e-01 3.953013e-02
 0.000000e+00 0.000000e+00 0.000000e+00 0.000000e+00 0.000000e+00 0.000000e+00
<ENDHMM>
~h "bumps_into_each_other"
<BEGINHMM>
<NUMSTATES> 6
<STATE> 2
<NUMMIXES> 2
<MIXTURE> 1 4.087390e-01
<MEAN> 16
 3.985502e-01 -4.580554e-01 2.034152e+00 -3.268979e-01 -2.456049e-01 1.962767e+00 3.764335e-03 1.103597e-02 4.674350e-02 -1.526029e-02 2.896730e-02 4.095509e-02 1.099192e-01 9.714045e-02 9.531544e-02 8.562545e-02
<VARIANCE> 16
 1.269830e-02 2.187855e-02 3.111641e-02 1.669888e-02 6.612409e-02 4.444417e-02 1.362735e-03 1.913617e-03 6.589699e-03 2.482733e-03 5.646229e-03 6.508945e-03 1.317142e-03 1.000000e-03 1.000000e-03 1.000000e-03
<GCONST> -5.361925e+01
<MIXTURE> 2 5.912595e-01
<MEAN> 16
 4.430383e-01 -3.937739e-01 1.868282e+00 -4.035774e-01 -3.318141e-01 1.855283e+00 -1.879692e-02 2.464807e-02 -2.564203e-02 6.010998e-03 3.014686e-02 -2.751058e-02 8.746360e-02 8.685829e-02 8.111916e-02 8.049809e-02
<VARIANCE> 16
 5.739801e-03 1.087622e-02 4.343730e-02 9.152669e-03 1.504059e-02 4.042891e-02 1.000000e-03 1.985528e-03 4.221767e-03 1.000000e-03 1.857164e-03 4.032716e-03 1.000000e-03 1.000000e-03 1.000000e-03 1.000000e-03
<GCONST> -6.044876e+01
<STATE> 3
<NUMMIXES> 2
<MIXTURE> 1 4.751767e-01
<MEAN> 16
 3.222374e-01 -1.582624e-01 1.951299e+00 -2.511544e-01 -1.144082e-01 1.892595e+00 8.689994e-03 -9.247149e-04 3.051742e-02 -6.564558e-03 -2.050525e-03 2.912432e-02 9.565406e-02 1.031167e-01 9.127648e-02 8.525485e-02
<VARIANCE> 16
 1.169799e-02 4.703826e-02 1.211993e-02 5.567964e-03 3.152584e-02 9.643652e-03 1.098077e-03 2.910501e-03 4.796718e-03 1.000000e-03 1.563310e-03 4.318930e-03 1.000000e-03 1.000000e-03 1.000000e-03 1.000000e-03
<GCONST> -6.023906e+01
<MIXTURE> 2 5.248158e-01
<MEAN> 16
 2.904041e-01 -1.713860e-01 1.801054e+00 -2.209240e-01 -1.612390e-01 1.763916e+00 -1.096620e-02 9.975384e-03 -3.190973e-02 5.188480e-03 8.266906e-03 -2.935927e-02 7.984767e-02 8.499140e-02 7.446577e-02 7.290734e-02
<VARIANCE> 16
 1.055498e-02 2.432218e-02 7.661344e-03 7.067223e-03 1.538325e-02 7.076612e-03 1.096582e-03 3.542899e-03 4.862454e-03 1.000000e-03 2.488256e-03 4.283309e-03 1.000000e-03 1.000000e-03 1.000000e-03 1.000000e-03
<GCONST> -6.158335e+01
<STATE> 4
<NUMMIXES> 2
<MIXTURE> 1 4.410024e-01
<MEAN> 16
 3.116390e-01 -7.775845e-02 1.618589e+00 -3.486164e-01 7.781432e-02 1.553167e+00 1.024751e-02 -3.985873e-03 1.188058e-02 -1.028234e-02 3.790794e-04 1.093828e-02 9.552100e-02 1.115359e-01 8.293674e-02 8.288360e-02
<VARIANCE> 16
 1.512902e-02 5.470845e-02 2.617741e-02 1.071060e-02 1.158021e-02 1.551253e-02 1.000000e-03 1.000000e-03 1.277270e-03 1.000000e-03 1.000000e-03 1.006148e-03 1.000000e-03 1.000000e-03 1.000000e-03 1.000000e-03
<GCONST> -6.332149e+01
<MIXTURE> 2 5.589971e-01
<MEAN> 16
 2.344716e-01 -2.104662e-02 1.457502e+00 -3.064793e-01 5.822762e-02 1.437267e+00 -5.887696e-03 5.822328e-03 -1.201507e-02 5.442035e-03 1.080436e-03 -1.006303e-02 7.946273e-02 1.012429e-01 7.442316e-02 8.072326e-02
<VARIANCE> 16
 1.250219e-02 2.642909e-02 9.849314e-03 8.990824e-03 4.154498e-03 4.315004e-03 1.000000e-03 2.096059e-03 1.391975e-03 1.000000e-03 1.000000e-03 1.105243e-03 1.000000e-03 1.000000e-03 1.000000e-03 1.000000e-03
<GCONST> -6.677694e+01
<STATE> 5
<MEAN> 16
 4.377746e-01 -3.144176e-01 1.742442e+00 -3.636436e-01 -1.457035e-01 1.692761e+00 1.916887e-02 -4.928943e-02 3.130583e-02 -7.624748e-03 -4.245193e-02 2.265543e-02 8.947644e-02 9.084039e-02 7.738134e-02 7.611857e-02
<VARIANCE> 16
 1.481355e-02 3.013087e-02 4.994595e-02 1.341893e-02 3.575616e-02 3.819602e-02 1.000000e-03 1.739187e-03 5.811593e-03 1.000000e-03 3.467740e-03 5.866355e-03 1.000000e-03 1.000000e-03 1.000000e-03 1.000000e-03
<GCONST> -5.596389e+01
<TRANSP> 6
 0.000000e+00 1.000000e+00 0.000000e+00 0.000000e+00 0.000000e+00 0.000000e+00
 0.000000e+00 8.846784e-01 1.153216e-01 0.000000e+00 0.000000e+00 0.000000e+00
 0.000000e+00 0.000000e+00 9.644086e-01 3.559139e-02 0.000000e+00 0.000000e+00
 0.000000e+00 0.000000e+00 0.000000e+00 9.466692e-01 5.333086e-02 0.000000e+00
 0.000000e+00 0.000000e+00 0.000000e+00 0.000000e+00 5.055596e-01 4.944404e-01
 0.000000e+00 0.000000e+00 0.000000e+00 0.000000e+00 0.000000e+00 0.000000e+00
<ENDHMM>
~h "jumps_on"
<BEGINHMM>
<NUMSTATES> 6
<STATE> 2
<NUMMIXES> 2
<MIXTURE> 1 4.459121e-01
<MEAN> 16
 3.776971e-01 -3.958328e-01 2.080778e+00 -3.207859e-01 -3.265655e-01 2.044295e+00 -5.563203e-03 2.571031e-02 2.941322e-02 -4.644124e-03 3.108351e-02 2.241673e-02 9.841806e-02 9.653476e-02 9.100624e-02 8.613785e-02
<VARIANCE> 16
 1.396442e-02 1.961597e-02 2.905327e-02 1.098415e-02 3.810832e-02 2.918466e-02 2.255798e-03 5.670430e-03 8.696759e-03 2.763152e-03 1.002109e-02 9.805838e-03 1.128504e-03 1.000000e-03 1.000000e-03 1.000000e-03
<GCONST> -5.228888e+01
<MIXTURE> 2 5.540860e-01
<MEAN> 16
 3.958676e-01 -4.045456e-01 1.807428e+00 -3.185968e-01 -3.416281e-01 1.786610e+00 -2.693772e-02 4.027779e-02 -3.324089e-02 6.661062e-03 3.867787e-02 -2.949890e-02 9.281237e-02 8.733641e-02 7.746562e-02 7.573692e-02
<VARIANCE> 16
 1.031651e-02 1.239874e-02 3.366545e-02 1.828001e-02 2.285088e-02 3.383340e-02 1.000000e-03 2.648987e-03 4.599692e-03 1.000000e-03 2.335808e-03 3.849145e-03 1.000000e-03 1.000000e-03 1.000000e-03 1.000000e-03
<GCONST> -5.849762e+01
<STATE> 3
<NUMMIXES> 2
<MIXTURE> 1 4.852293e-01
<MEAN> 16
 2.905470e-01 -1.468772e-01 1.899223e+00 -2.424409e-01 -1.115169e-01 1.813580e+00 5.387309e-03 1.827517e-03 3.157293e-02 -5.449794e-03 -1.654723e-03 2.958365e-02 1.039034e-01 1.077068e-01 8.697172e-02 8.957649e-02
<VARIANCE> 16
 1.538516e-02 5.848601e-02 9.899608e-03 4.224818e-03 2.321107e-02 1.130244e-02 1.000000e-03 1.884539e-03 3.725578e-03 1.000000e-03 1.000000e-03 3.277937e-03 1.007503e-03 1.000000e-03 1.000000e-03 1.000000e-03
<GCONST> -6.186915e+01
<MIXTURE> 2 5.147657e-01
<MEAN> 16
 2.695597e-01 -1.531640e-01 1.761653e+00 -2.167959e-01 -1.453524e-01 1.698059e+00 -1.612542e-02 1.870710e-02 -3.593554e-02 7.225329e-03 8.935971e-03 -3.135226e-02 8.661555e-02 9.169713e-02 7.687171e-02 7.589875e-02
<VARIANCE> 16
 1.265334e-02 3.547077e-02 7.868127e-03 4.489284e-03 1.741627e-02 8.207137e-03 1.000000e-03 3.201801e-03 4.023380e-03 1.000000e-03 1.835411e-03 3.554973e-03 1.000000e-03 1.000000e-03 1.000000e-03 1.000000e-03
<GCONST> -6.205305e+01
<STATE> 4
<NUMMIXES> 2
<MIXTURE> 1 4.615268e-01
<MEAN> 16
 1.550521e-01 -5.118319e-02 1.649639e+00 -2.041640e-01 1.698046e-02 1.515141e+00 -3.214563e-04 1.737853e-03 8.851883e-03 -1.362878e-03 1.574222e-04 7.212329e-03 9.789217e-02 1.154126e-01 8.524865e-02 8.728871e-02
<VARIANCE> 16
 3.694320e-02 5.992495e-02 2.230449e-02 8.368970e-03 8.533228e-03 1.607993e-02 1.000000e-03 1.770935e-03 3.161134e-03 1.000000e-03 1.000000e-03 2.037264e-03 1.000000e-03 1.000000e-03 1.000000e-03 1.000000e-03
<GCONST> -6.083068e+01
<MIXTURE> 2 5.384710e-01
<MEAN> 16
 5.795107e-02 2.525591e-02 1.429294e+00 -1.656133e-01 -1.820570e-02 1.374790e+00 -6.056470e-03 4.258207e-03 -8.075370e-03 2.039813e-03 3.088778e-04 -7.082320e-03 9.070949e-02 9.195174e-02 7.053750e-02 8.113599e-02
<VARIANCE> 16
 4.126256e-02 3.792151e-02 1.460643e-02 4.976189e-03 3.247361e-03 6.679460e-03 1.000000e-03 1.149973e-03 1.000000e-03 1.000000e-03 1.000000e-03 1.000000e-03 1.000000e-03 1.000000e-03 1.000000e-03 1.000000e-03
<GCONST> -6.625983e+01
<STATE> 5
<MEAN> 16
 -8.343382e-02 -5.350772e-02 1.732965e+00 -8.902519e-02 -1.327610e-01 1.715458e+00 1.433787e-02 -1.503428e-02 1.656557e-03 -4.285095e-03 -2.899355e-03 3.382671e-03 9.120677e-02 8.780791e-02 7.151633e-02 8.177177e-02
<VARIANCE> 16
 4.530279e-02 3.680882e-02 1.756333e-02 1.995528e-02 2.319086e-02 1.821259e-02 5.430103e-03 2.705235e-03 6.626973e-03 5.597781e-03 3.655877e-03 8.425080e-03 1.000000e-03 1.455761e-03 1.000000e-03 1.000000e-03
<GCONST> -5.169003e+01
<TRANSP> 6
 0.000000e+00 1.000000e+00 0.000000e+00 0.000000e+00 0.000000e+00 0.000000e+00
 0.000000e+00 8.695331e-01 1.304669e-01 0.000000e+00 0.000000e+00 0.000000e+00
 0.000000e+00 0.000000e+00 9.499348e-01 5.006515e-02 0.000000e+00 0.000000e+00
 0.000000e+00 0.000000e+00 0.000000e+00 9.694763e-01 3.052368e-02 0.000000e+00
 0.000000e+00 0.000000e+00 0.000000e+00 0.000000e+00 8.813151e-01 1.186849e-01
 0.000000e+00 0.000000e+00 0.000000e+00 0.000000e+00 0.000000e+00 0.000000e+00
<ENDHMM>
~h "house"
<BEGINHMM>
<NUMSTATES> 6
<STATE> 2
<NUMMIXES> 2
<MIXTURE> 1 4.640992e-01
<MEAN> 16
 2.799370e-01 -7.901171e-03 1.954546e+00 -2.488684e-01 4.597770e-02 1.936202e+00 1.309512e-02 -1.643067e-02 3.423918e-02 -1.246879e-02 -1.144097e-02 2.869517e-02 1.596964e-01 1.519507e-01 9.579338e-02 9.963943e-02
<VARIANCE> 16
 1.039702e-02 7.645396e-02 1.404529e-02 8.396285e-03 5.213935e-02 1.234303e-02 1.000000e-03 1.477937e-03 4.549370e-03 1.000000e-03 1.969612e-03 3.730949e-03 1.000000e-03 1.000000e-03 1.000000e-03 1.000000e-03
<GCONST> -5.930263e+01
<MIXTURE> 2 5.358963e-01
<MEAN> 16
 2.948885e-01 -3.706621e-01 1.949506e+00 -3.032143e-01 -6.833585e-02 1.838919e+00 -3.247617e-03 -1.293624e-02 -2.391157e-02 1.337263e-03 2.362795e-03 -2.629888e-02 1.111144e-01 1.261826e-01 8.387113e-02 9.682111e-02
<VARIANCE> 16
 4.918986e-03 3.863157e-02 2.419397e-02 2.786453e-03 3.203771e-02 1.183605e-02 1.000000e-03 1.604626e-03 5.724543e-03 1.000000e-03 2.547610e-03 4.036931e-03 1.205520e-03 1.000000e-03 1.000000e-03 1.000000e-03
<GCONST> -6.098674e+01
<STATE> 3
<NUMMIXES> 2
<MIXTURE> 1 4.116465e-01
<MEAN> 16
 3.165194e-01 -9.073503e-02 1.947376e+00 -3.018743e-01 5.674500e-02 1.831692e+00 7.911738e-03 2.481338e-03 1.907032e-02 -4.799472e-03 -7.189678e-04 1.740526e-02 1.169445e-01 1.252633e-01 8.954418e-02 1.078749e-01
<VARIANCE> 16
 2.450754e-02 6.300822e-02 1.075657e-02 2.242805e-03 2.260557e-03 9.919154e-03 1.513825e-03 3.563380e-03 5.161650e-03 1.000000e-03 1.000000e-03 3.748281e-03 1.000000e-03 1.000000e-03 1.000000e-03 1.000000e-03
<GCONST> -6.283458e+01
<MIXTURE> 2 5.883469e-01
<MEAN> 16
 2.071129e-01 -5.143196e-02 1.786762e+00 -3.492078e-01 -9.658095e-03 1.662876e+00 -7.109364e-03 1.010271e-03 -1.612186e-02 2.871852e-03 -2.529438e-03 -1.334489e-02 1.044265e-01 1.114882e-01 7.648227e-02 9.326927e-02
<VARIANCE> 16
 2.852106e-02 2.398580e-02 1.214305e-02 2.776617e-03 6.132300e-03 6.956846e-03 1.361759e-03 1.337857e-03 4.131763e-03 1.000000e-03 1.000000e-03 3.119415e-03 1.000000e-03 1.000000e-03 1.000000e-03 1.000000e-03
<GCONST> -6.416247e+01
<STATE> 4
<NUMMIXES> 2
<MIXTURE> 1 5.386236e-01
<MEAN> 16
 1.595591e-01 -1.160753e-01 1.700393e+00 -2.515392e-01 -2.160129e-02 1.639699e+00 3.973299e-03 -5.836891e-03 1.188431e-02 -8.982034e-04 -2.654087e-03 1.070464e-02 9.705246e-02 8.712192e-02 7.850985e-02 9.140132e-02
<VARIANCE> 16
 6.364346e-02 3.371279e-02 1.503982e-02 8.042488e-03 2.576389e-02 1.113473e-02 1.000000e-03 1.000000e-03 1.516551e-03 1.000000e-03 1.000000e-03 1.324106e-03 1.000000e-03 1.000000e-03 1.000000e-03 1.000000e-03
<GCONST> -6.229522e+01
<MIXTURE> 2 4.613715e-01
<MEAN> 16
 2.738676e-01 -1.835508e-01 1.598275e+00 -2.955368e-01 -8.742400e-02 1.510385e+00 8.933922e-03 -1.751250e-02 -8.885528e-03 4.339533e-03 -1.415183e-02 -9.653556e-03 9.243320e-02 8.806767e-02 7.845177e-02 8.662736e-02
<VARIANCE> 16
 3.949489e-02 4.508267e-02 3.691901e-02 6.371561e-03 2.907665e-02 3.909218e-02 2.267576e-03 2.789638e-03 5.256258e-03 1.000000e-03 1.202516e-03 3.856718e-03 1.000000e-03 1.000000e-03 1.000000e-03 1.000000e-03
<GCONST> -5.609868e+01
<STATE> 5
<MEAN> 16
 5.839097e-01 -6.941070e-01 1.858935e+00 -1.996031e-01 -5.968853e-01 1.810105e+00 5.177228e-03 -5.755109e-03 1.431539e-03 2.645120e-03 -8.298417e-03 3.938025e-03 1.157886e-01 1.083051e-01 9.753803e-02 7.228273e-02
<VARIANCE> 16
 1.857407e-02 3.498815e-03 1.592277e-02 1.735677e-02 7.468868e-03 8.291520e-03 1.000000e-03 1.000000e-03 1.419419e-03 1.000000e-03 1.000000e-03 1.491264e-03 1.000000e-03 1.000000e-03 1.000000e-03 1.000000e-03
<GCONST> -6.644628e+01
<TRANSP> 6
 0.000000e+00 1.000000e+00 0.000000e+00 0.000000e+00 0.000000e+00 0.000000e+00
 0.000000e+00 9.401598e-01 5.984016e-02 0.000000e+00 0.000000e+00 0.000000e+00
 0.000000e+00 0.000000e+00 9.756355e-01 2.436457e-02 0.000000e+00 0.000000e+00
 0.000000e+00 0.000000e+00 0.000000e+00 9.704387e-01 2.956135e-02 0.000000e+00
 0.000000e+00 0.000000e+00 0.000000e+00 0.000000e+00 9.626434e-01 3.735659e-02
 0.000000e+00 0.000000e+00 0.000000e+00 0.000000e+00 0.000000e+00 0.000000e+00
<ENDHMM>
~h "bumps_into"
<BEGINHMM>
<NUMSTATES> 6
<STATE> 2
<NUMMIXES> 2
<MIXTURE> 1 4.232293e-01
<MEAN> 16
 3.837194e-01 -4.171473e-01 2.084545e+00 -3.525593e-01 -3.497125e-01 2.046124e+00 2.398720e-03 1.320754e-02 3.658955e-02 -9.796139e-03 1.835224e-02 2.913248e-02 9.395827e-02 9.019841e-02 8.606225e-02 8.605170e-02
<VARIANCE> 16
 1.720543e-02 2.223407e-02 2.355236e-02 1.519299e-02 1.759908e-02 2.248692e-02 2.079113e-03 2.961074e-03 1.003841e-02 2.300353e-03 3.258356e-03 9.768487e-03 1.000000e-03 1.000000e-03 1.000000e-03 1.000000e-03
<GCONST> -5.489301e+01
<MIXTURE> 2 5.767697e-01
<MEAN> 16
 4.224879e-01 -4.199400e-01 1.818988e+00 -3.442077e-01 -3.680596e-01 1.790743e+00 -2.107698e-02 3.159367e-02 -2.427681e-02 4.291554e-03 3.320180e-02 -2.447137e-02 9.075113e-02 8.894754e-02 7.996095e-02 7.633953e-02
<VARIANCE> 16
 1.162239e-02 1.176477e-02 3.612755e-02 1.810914e-02 1.533638e-02 3.348410e-02 1.000000e-03 1.894626e-03 3.167465e-03 1.000000e-03 1.752228e-03 2.986634e-03 1.000000e-03 1.000000e-03 1.000000e-03 1.000000e-03
<GCONST> -6.002826e+01
<STATE> 3
<NUMMIXES> 2
<MIXTURE> 1 2.252069e-01
<MEAN> 16
 3.075466e-01 -2.115272e-01 1.885405e+00 -2.138336e-01 -1.679008e-01 1.815287e+00 -2.973438e-02 5.268205e-02 -8.752078e-04 3.820496e-03 5.899750e-02 1.900564e-03 1.074584e-01 1.011839e-01 8.580925e-02 7.812767e-02
<VARIANCE> 16
 1.867806e-02 5.070545e-02 1.317076e-02 6.245625e-03 2.279971e-02 1.257026e-02 4.419252e-03 9.874669e-03 1.691535e-02 3.474249e-03 1.593482e-02 1.566807e-02 1.132040e-03 1.000000e-03 1.000000e-03 1.000000e-03
<GCONST> -5.070301e+01
<MIXTURE> 2 7.747911e-01
<MEAN> 16
 3.247445e-01 -1.602006e-01 1.785427e+00 -2.542384e-01 -1.506280e-01 1.729740e+00 -9.616554e-03 1.576922e-02 -1.174564e-02 2.708223e-03 9.741046e-03 -9.703129e-03 8.071439e-02 8.934286e-02 7.588927e-02 6.958024e-02
<VARIANCE> 16
 6.179522e-03 2.500987e-02 1.129104e-02 4.199985e-03 1.113214e-02 8.571078e-03 1.000000e-03 2.801232e-03 3.012071e-03 1.000000e-03 2.025577e-03 2.737131e-03 1.000000e-03 1.000000e-03 1.000000e-03 1.000000e-03
<GCONST> -6.381477e+01
<STATE> 4
<NUMMIXES> 2
<MIXTURE> 1 3.503309e-01
<MEAN> 16
 1.877353e-01 -4.064132e-02 1.748835e+00 -1.908561e-01 3.998357e-02 1.720287e+00 2.492772e-02 1.356016e-02 3.521652e-02 -3.043379e-02 2.602674e-02 3.833472e-02 1.219490e-01 1.167273e-01 8.768905e-02 8.582225e-02
<VARIANCE> 16
 2.252566e-02 7.226126e-02 3.901027e-02 1.279448e-02 2.861653e-02 3.027374e-02 8.906713e-03 2.547090e-03 9.201613e-03 7.391556e-03 4.071919e-03 8.951123e-03 1.000000e-03 1.000000e-03 1.000000e-03 1.000000e-03
<GCONST> -4.980864e+01
<MIXTURE> 2 6.496685e-01
<MEAN> 16
 9.698136e-02 -1.750058e-02 1.519405e+00 -1.498675e-01 -1.628767e-02 1.528833e+00 -1.596941e-02 1.309030e-02 -1.964844e-02 1.468223e-02 1.691760e-02 -1.748965e-02 8.525082e-02 8.353836e-02 7.058220e-02 6.949342e-02
<VARIANCE> 16
 1.674329e-02 1.517028e-02 2.595692e-02 1.457207e-02 1.178083e-02 2.243976e-02 2.346585e-03 1.431775e-03 3.357495e-03 2.563274e-03 1.075608e-03 2.908406e-03 1.000000e-03 1.000000e-03 1.000000e-03 1.000000e-03
<GCONST> -5.956302e+01
<STATE> 5
<MEAN> 16
 2.800611e-01 -2.159351e-01 1.824697e+00 -2.083987e-01 5.493641e-02 1.797372e+00 7.628076e-03 -1.207788e-02 7.867537e-03 -8.466024e-03 1.427311e-03 7.948661e-03 1.115517e-01 1.144635e-01 8.712423e-02 8.474387e-02
<VARIANCE> 16
 8.849726e-03 1.019922e-01 2.309084e-02 9.373001e-03 3.885965e-02 2.176166e-02 1.000000e-03 1.807277e-03 1.789987e-03 1.000000e-03 3.215784e-03 1.612907e-03 1.057035e-03 1.000000e-03 1.000000e-03 1.000000e-03
<GCONST> -5.931979e+01
<TRANSP> 6
 0.000000e+00 1.000000e+00 0.000000e+00 0.000000e+00 0.000000e+00 0.000000e+00
 0.000000e+00 8.578721e-01 1.421279e-01 0.000000e+00 0.000000e+00 0.000000e+00
 0.000000e+00 0.000000e+00 8.921113e-01 1.078887e-01 0.000000e+00 0.000000e+00
 0.000000e+00 0.000000e+00 0.000000e+00 8.130959e-01 1.869041e-01 0.000000e+00
 0.000000e+00 0.000000e+00 0.000000e+00 0.000000e+00 7.468360e-01 2.531640e-01
 0.000000e+00 0.000000e+00 0.000000e+00 0.000000e+00 0.000000e+00 0.000000e+00
<ENDHMM>
~h "goes_to"
<BEGINHMM>
<NUMSTATES> 6
<STATE> 2
<NUMMIXES> 2
<MIXTURE> 1 4.670824e-01
<MEAN> 16
 3.620658e-01 -3.858578e-01 2.022434e+00 -2.435252e-01 -2.563974e-01 1.978693e+00 -1.553764e-03 2.157576e-02 3.367889e-02 -5.978787e-03 2.730054e-02 3.033975e-02 1.044108e-01 9.750310e-02 9.011807e-02 8.306973e-02
<VARIANCE> 16
 1.878713e-02 5.220103e-02 2.869832e-02 2.848417e-02 8.578018e-02 2.964757e-02 2.098013e-03 5.854629e-03 8.631769e-03 3.165349e-03 6.604905e-03 7.939265e-03 1.152754e-03 1.000000e-03 1.000000e-03 1.000000e-03
<GCONST> -4.976471e+01
<MIXTURE> 2 5.329161e-01
<MEAN> 16
 4.179635e-01 -4.068438e-01 1.797948e+00 -3.205152e-01 -3.301615e-01 1.775801e+00 -3.221415e-02 4.880686e-02 -4.016805e-02 7.902285e-03 4.964164e-02 -3.604205e-02 9.196688e-02 8.645892e-02 7.651426e-02 7.467221e-02
<VARIANCE> 16
 9.639999e-03 1.624919e-02 3.859133e-02 1.851462e-02 2.848395e-02 3.600011e-02 1.256741e-03 3.412717e-03 6.133466e-03 1.000000e-03 3.455886e-03 5.404688e-03 1.000000e-03 1.000000e-03 1.000000e-03 1.000000e-03
<GCONST> -5.636251e+01
<STATE> 3
<NUMMIXES> 2
<MIXTURE> 1 4.569823e-01
<MEAN> 16
 2.821328e-01 -2.184334e-01 1.908841e+00 -2.775495e-01 -1.845307e-01 1.853279e+00 3.004706e-03 2.364526e-03 2.590691e-02 -5.620085e-03 -2.202838e-03 2.381806e-02 9.025809e-02 9.739175e-02 8.641458e-02 8.111387e-02
<VARIANCE> 16
 1.700055e-02 3.884076e-02 1.220409e-02 7.556147e-03 1.326453e-02 8.408790e-03 1.000000e-03 1.824205e-03 2.788381e-03 1.000000e-03 1.245043e-03 2.522218e-03 1.000000e-03 1.000000e-03 1.000000e-03 1.000000e-03
<GCONST> -6.261592e+01
<MIXTURE> 2 5.430151e-01
<MEAN> 16
 2.140425e-01 -1.910027e-01 1.758846e+00 -2.433559e-01 -1.895754e-01 1.737995e+00 -1.252294e-02 8.490850e-03 -2.516303e-02 6.312008e-03 7.625578e-03 -2.283584e-02 8.718846e-02 9.042002e-02 7.289555e-02 7.610969e-02
<VARIANCE> 16
 3.122883e-02 1.767844e-02 8.908701e-03 7.637213e-03 5.322196e-03 7.969688e-03 1.000000e-03 1.951641e-03 2.852224e-03 1.000000e-03 1.000000e-03 2.543152e-03 1.000000e-03 1.000000e-03 1.000000e-03 1.000000e-03
<GCONST> -6.418660e+01
<STATE> 4
<NUMMIXES> 2
<MIXTURE> 1 3.917467e-01
<MEAN> 16
 2.336043e-01 -1.496193e-01 1.603285e+00 -2.897637e-01 1.305006e-02 1.491536e+00 1.248976e-03 6.820309e-04 8.667562e-03 -3.747854e-03 2.053171e-03 6.363443e-03 9.305719e-02 1.019442e-01 8.033431e-02 8.466706e-02
<VARIANCE> 16
 1.947320e-02 5.536004e-02 2.160845e-02 1.048703e-02 1.071715e-02 1.960363e-02 1.000000e-03 2.320357e-03 2.564875e-03 1.000000e-03 1.000000e-03 1.695977e-03 1.000000e-03 1.000000e-03 1.000000e-03 1.000000e-03
<GCONST> -6.105249e+01
<MIXTURE> 2 6.082487e-01
<MEAN> 16
 1.038956e-01 -2.000976e-02 1.403413e+00 -2.877935e-01 1.361713e-02 1.375396e+00 -5.975856e-03 2.944669e-03 -7.666732e-03 1.911951e-03 5.563679e-04 -6.147115e-03 8.644785e-02 9.300531e-02 7.690918e-02 8.174270e-02
<VARIANCE> 16
 4.620471e-02 1.786949e-02 9.078266e-03 5.824959e-03 2.647364e-03 6.564748e-03 1.000000e-03 1.000000e-03 1.000000e-03 1.000000e-03 1.000000e-03 1.000000e-03 1.000000e-03 1.000000e-03 1.000000e-03 1.000000e-03
<GCONST> -6.757857e+01
<STATE> 5
<MEAN> 16
 1.995882e-01 -1.643227e-01 1.694716e+00 -2.494050e-01 -2.228780e-01 1.720211e+00 2.497308e-02 -1.261408e-02 6.991901e-03 -1.689472e-02 -1.085413e-02 1.383874e-02 9.597220e-02 1.001751e-01 7.852027e-02 7.757748e-02
<VARIANCE> 16
 4.322325e-02 3.533805e-02 4.991843e-02 2.537862e-02 9.629324e-02 3.844639e-02 1.038055e-02 4.967302e-03 1.226044e-02 7.150309e-03 5.557990e-03 1.130075e-02 1.000000e-03 1.161738e-03 1.000000e-03 1.000000e-03
<GCONST> -4.571939e+01
<TRANSP> 6
 0.000000e+00 1.000000e+00 0.000000e+00 0.000000e+00 0.000000e+00 0.000000e+00
 0.000000e+00 8.767170e-01 1.232830e-01 0.000000e+00 0.000000e+00 0.000000e+00
 0.000000e+00 0.000000e+00 9.353307e-01 6.466930e-02 0.000000e+00 0.000000e+00
 0.000000e+00 0.000000e+00 0.000000e+00 9.565200e-01 4.348000e-02 0.000000e+00
 0.000000e+00 0.000000e+00 0.000000e+00 0.000000e+00 7.263939e-01 2.736062e-01
 0.000000e+00 0.000000e+00 0.000000e+00 0.000000e+00 0.000000e+00 0.000000e+00
<ENDHMM>
