~o
<STREAMINFO> 1 16
<VECSIZE> 16<NULLD><USER><DIAGC>
~h "Monkey"
<BEGINHMM>
<NUMSTATES> 6
<STATE> 2
<NUMMIXES> 2
<MIXTURE> 1 5.011260e-01
<MEAN> 16
 6.194246e-01 -7.270980e-01 1.907396e+00 -1.637666e-01 -5.921223e-01 1.828996e+00 6.194246e-01 -7.270980e-01 1.907396e+00 -1.637666e-01 -5.921223e-01 1.828996e+00 1.164476e-01 1.118573e-01 9.785100e-02 7.568280e-02
<VARIANCE> 16
 7.143480e-03 1.860216e-03 1.034878e-02 1.059090e-02 9.200059e-03 7.904786e-03 7.143480e-03 1.860216e-03 1.034878e-02 1.059090e-02 9.200059e-03 7.904786e-03 1.000000e-03 1.000000e-03 1.000000e-03 1.000000e-03
<GCONST> -5.797719e+01
<MIXTURE> 2 4.988741e-01
<MEAN> 16
 5.745922e-01 -6.971023e-01 1.802630e+00 -2.583028e-01 -6.441092e-01 1.824538e+00 5.745922e-01 -6.971023e-01 1.802630e+00 -2.583028e-01 -6.441092e-01 1.824538e+00 1.142670e-01 1.036770e-01 9.617585e-02 6.657308e-02
<VARIANCE> 16
 4.151147e-03 2.841544e-03 1.606814e-02 2.390489e-02 5.617285e-03 7.545378e-03 4.151147e-03 2.841544e-03 1.606814e-02 2.390489e-02 5.617285e-03 7.545378e-03 1.000000e-03 1.000000e-03 1.000000e-03 1.000000e-03
<GCONST> -5.678718e+01
<STATE> 3
<NUMMIXES> 2
<MIXTURE> 1 5.118104e-01
<MEAN> 16
 6.129397e-01 -7.339164e-01 1.937035e+00 -1.504072e-01 -6.074485e-01 1.839307e+00 -2.523561e-03 2.852289e-03 6.155831e-03 -1.782868e-04 3.886749e-03 6.865591e-03 1.194314e-01 1.142661e-01 1.049349e-01 7.653019e-02
<VARIANCE> 16
 5.888511e-03 1.249110e-03 6.456717e-03 4.919744e-03 3.497859e-03 4.593455e-03 1.000000e-03 1.000000e-03 1.063534e-03 1.000000e-03 1.000000e-03 1.656761e-03 1.000000e-03 1.000000e-03 1.000000e-03 1.000000e-03
<GCONST> -7.232099e+01
<MIXTURE> 2 4.881891e-01
<MEAN> 16
 5.965722e-01 -7.324660e-01 1.893918e+00 -1.819893e-01 -6.406989e-01 1.825940e+00 -4.466626e-03 4.411665e-03 -5.075066e-03 -8.452428e-04 -6.143735e-04 -7.336479e-03 1.117707e-01 1.092481e-01 9.495114e-02 7.109936e-02
<VARIANCE> 16
 5.230495e-03 1.826161e-03 1.041170e-02 1.106288e-02 5.373850e-03 6.920833e-03 1.000000e-03 1.000000e-03 1.000000e-03 1.000000e-03 1.000000e-03 2.207321e-03 1.000000e-03 1.000000e-03 1.000000e-03 1.000000e-03
<GCONST> -6.970695e+01
<STATE> 4
<NUMMIXES> 2
<MIXTURE> 1 4.665926e-01
<MEAN> 16
 5.614778e-01 -6.642684e-01 1.816667e+00 -2.659425e-01 -6.039656e-01 1.819110e+00 -9.035650e-03 1.325078e-02 4.846931e-03 -3.657611e-03 1.263494e-02 -1.099228e-03 1.197787e-01 1.067287e-01 1.105019e-01 7.385578e-02
<VARIANCE> 16
 1.991283e-03 2.304560e-03 1.586121e-02 2.607417e-02 8.504135e-03 7.743596e-03 1.000000e-03 1.000000e-03 1.000000e-03 1.000000e-03 1.000000e-03 1.014878e-03 1.000000e-03 1.000000e-03 1.000000e-03 1.000000e-03
<GCONST> -6.936738e+01
<MIXTURE> 2 5.334081e-01
<MEAN> 16
 5.472480e-01 -6.505330e-01 1.745489e+00 -3.197284e-01 -6.447716e-01 1.802732e+00 -1.084149e-02 7.907350e-03 -5.427550e-03 -3.108407e-03 3.640159e-03 -1.744511e-02 1.092839e-01 1.007232e-01 1.070201e-01 6.327073e-02
<VARIANCE> 16
 1.615369e-03 1.645909e-03 1.155638e-02 2.663967e-02 4.339775e-03 7.238123e-03 1.000000e-03 1.000000e-03 1.000000e-03 1.000000e-03 1.000000e-03 1.207686e-03 1.000000e-03 1.000000e-03 1.000000e-03 1.000000e-03
<GCONST> -7.077467e+01
<STATE> 5
<MEAN> 16
 3.828880e-01 -6.517851e-01 1.899887e+00 -1.599696e-01 -2.831266e-01 1.823045e+00 -8.504630e-03 5.544329e-03 -2.171384e-04 -4.106961e-03 1.497947e-02 2.621998e-05 1.235912e-01 1.095301e-01 8.041590e-02 7.779919e-02
<VARIANCE> 16
 2.008271e-02 3.328205e-03 8.856416e-03 1.173662e-02 1.249714e-01 1.037649e-02 1.000000e-03 1.000000e-03 3.170899e-03 1.000000e-03 3.255693e-03 2.753872e-03 1.000000e-03 1.000000e-03 1.000000e-03 1.000000e-03
<GCONST> -6.175686e+01
<TRANSP> 6
 0.000000e+00 1.000000e+00 0.000000e+00 0.000000e+00 0.000000e+00 0.000000e+00
 0.000000e+00 0.000000e+00 1.000000e+00 0.000000e+00 0.000000e+00 0.000000e+00
 0.000000e+00 0.000000e+00 8.089172e-01 1.910827e-01 0.000000e+00 0.000000e+00
 0.000000e+00 0.000000e+00 0.000000e+00 6.615847e-01 3.384152e-01 0.000000e+00
 0.000000e+00 0.000000e+00 0.000000e+00 0.000000e+00 8.893036e-01 1.106965e-01
 0.000000e+00 0.000000e+00 0.000000e+00 0.000000e+00 0.000000e+00 0.000000e+00
<ENDHMM>
~h "fence"
<BEGINHMM>
<NUMSTATES> 6
<STATE> 2
<NUMMIXES> 2
<MIXTURE> 1 4.953653e-01
<MEAN> 16
 4.026083e-01 -2.759624e-01 1.951038e+00 -3.371959e-01 -1.843864e-01 1.850477e+00 6.261811e-03 -1.726984e-03 1.589349e-02 -3.926674e-03 -2.738651e-03 1.328961e-02 1.086273e-01 1.539659e-01 9.397002e-02 9.255888e-02
<VARIANCE> 16
 1.010376e-02 1.840242e-02 1.769503e-02 2.579065e-03 1.192687e-02 1.227586e-02 1.000000e-03 1.282475e-03 3.761529e-03 1.000000e-03 1.000000e-03 2.965080e-03 1.237102e-03 1.000000e-03 1.000000e-03 1.000000e-03
<GCONST> -6.421223e+01
<MIXTURE> 2 5.046308e-01
<MEAN> 16
 3.473420e-01 -2.934627e-01 1.881361e+00 -3.285053e-01 -2.343073e-01 1.783405e+00 -4.974212e-03 -2.942315e-03 -1.689774e-02 7.709877e-04 -2.982525e-03 -1.613310e-02 8.703419e-02 1.433950e-01 8.471683e-02 8.755244e-02
<VARIANCE> 16
 1.374199e-02 1.627922e-02 2.141826e-02 2.712682e-03 1.187090e-02 1.377603e-02 1.000000e-03 1.467717e-03 3.897729e-03 1.000000e-03 1.000000e-03 3.006584e-03 1.000000e-03 1.000000e-03 1.000000e-03 1.000000e-03
<GCONST> -6.370361e+01
<STATE> 3
<NUMMIXES> 2
<MIXTURE> 1 4.894889e-01
<MEAN> 16
 2.860919e-01 -5.099236e-02 1.875636e+00 -3.441491e-01 -1.059560e-01 1.828810e+00 5.279677e-03 5.083348e-04 1.458021e-02 -1.912055e-03 -1.295996e-03 1.379575e-02 1.162795e-01 1.598939e-01 9.103404e-02 9.601714e-02
<VARIANCE> 16
 3.602295e-02 4.308873e-02 1.473458e-02 5.163764e-03 5.143960e-03 1.228043e-02 1.310710e-03 2.168339e-03 3.268716e-03 1.000000e-03 1.000000e-03 2.876559e-03 1.000000e-03 1.000000e-03 1.000000e-03 1.000000e-03
<GCONST> -6.200742e+01
<MIXTURE> 2 5.105029e-01
<MEAN> 16
 2.071195e-01 -1.158350e-01 1.789493e+00 -3.561625e-01 -1.392069e-01 1.736289e+00 -5.699813e-03 -5.704291e-03 -1.413814e-02 2.499097e-03 -1.772285e-03 -1.352867e-02 9.927729e-02 1.412424e-01 7.925709e-02 8.906154e-02
<VARIANCE> 16
 4.662735e-02 3.170750e-02 1.155737e-02 7.354830e-03 8.063800e-03 9.029984e-03 1.461607e-03 1.974382e-03 3.219752e-03 1.000000e-03 1.000000e-03 2.730697e-03 1.000000e-03 1.000000e-03 1.000000e-03 1.000000e-03
<GCONST> -6.185505e+01
<STATE> 4
<NUMMIXES> 2
<MIXTURE> 1 5.111732e-01
<MEAN> 16
 1.831783e-01 -1.064883e-01 1.629350e+00 -3.545091e-01 -7.097002e-02 1.574174e+00 6.345875e-03 -1.809221e-03 9.176892e-03 -8.515917e-04 -1.759621e-03 8.812713e-03 1.000860e-01 1.416133e-01 8.014320e-02 8.779179e-02
<VARIANCE> 16
 5.572112e-02 2.790701e-02 2.254497e-02 1.124587e-02 7.071851e-03 1.915885e-02 1.361639e-03 1.000000e-03 1.602730e-03 1.000000e-03 1.000000e-03 1.222509e-03 1.000000e-03 1.000000e-03 1.000000e-03 1.000000e-03
<GCONST> -6.234312e+01
<MIXTURE> 2 4.888179e-01
<MEAN> 16
 1.346385e-01 -1.531322e-01 1.582059e+00 -3.524370e-01 -1.051286e-01 1.541599e+00 -5.353120e-05 -1.074774e-02 -7.927988e-03 2.938132e-03 -7.175874e-03 -8.006792e-03 9.098627e-02 1.276174e-01 7.296719e-02 8.127058e-02
<VARIANCE> 16
 6.655017e-02 2.592948e-02 2.462473e-02 1.070834e-02 1.271092e-02 2.342789e-02 1.385824e-03 1.156573e-03 1.808175e-03 1.000000e-03 1.000000e-03 1.573733e-03 1.000000e-03 1.077490e-03 1.000000e-03 1.000000e-03
<GCONST> -6.080140e+01
<STATE> 5
<MEAN> 16
 5.736926e-01 -6.904073e-01 1.857623e+00 -1.894204e-01 -5.920561e-01 1.792608e+00 6.747679e-03 -7.994923e-03 3.187706e-03 3.689284e-03 -9.283873e-03 3.595947e-03 1.155876e-01 1.108462e-01 9.678923e-02 7.516226e-02
<VARIANCE> 16
 2.127832e-02 4.839305e-03 1.510405e-02 1.506236e-02 8.384936e-03 7.511355e-03 1.000000e-03 1.000000e-03 1.970651e-03 1.000000e-03 1.000000e-03 1.773799e-03 1.000000e-03 1.000000e-03 1.000000e-03 1.000000e-03
<GCONST> -6.566209e+01
<TRANSP> 6
 0.000000e+00 1.000000e+00 0.000000e+00 0.000000e+00 0.000000e+00 0.000000e+00
 0.000000e+00 9.441175e-01 5.588253e-02 0.000000e+00 0.000000e+00 0.000000e+00
 0.000000e+00 0.000000e+00 9.766042e-01 2.339578e-02 0.000000e+00 0.000000e+00
 0.000000e+00 0.000000e+00 0.000000e+00 9.710134e-01 2.898663e-02 0.000000e+00
 0.000000e+00 0.000000e+00 0.000000e+00 0.000000e+00 9.631155e-01 3.688453e-02
 0.000000e+00 0.000000e+00 0.000000e+00 0.000000e+00 0.000000e+00 0.000000e+00
<ENDHMM>
~h "Car"
<BEGINHMM>
<NUMSTATES> 6
<STATE> 2
<NUMMIXES> 2
<MIXTURE> 1 4.937038e-01
<MEAN> 16
 6.191380e-01 -7.247673e-01 1.893546e+00 -1.719273e-01 -5.917399e-01 1.827591e+00 6.191380e-01 -7.247673e-01 1.893546e+00 -1.719273e-01 -5.917399e-01 1.827591e+00 1.152431e-01 1.110176e-01 9.953810e-02 8.062606e-02
<VARIANCE> 16
 6.412713e-03 1.659475e-03 9.365334e-03 1.143293e-02 9.548067e-03 7.426417e-03 6.412713e-03 1.659475e-03 9.365334e-03 1.143293e-02 9.548067e-03 7.426417e-03 1.000000e-03 1.000000e-03 1.000000e-03 1.000000e-03
<GCONST> -5.851870e+01
<MIXTURE> 2 5.062963e-01
<MEAN> 16
 5.794813e-01 -6.989393e-01 1.791284e+00 -2.643100e-01 -6.489561e-01 1.824801e+00 5.794813e-01 -6.989393e-01 1.791284e+00 -2.643100e-01 -6.489561e-01 1.824801e+00 1.135987e-01 9.900089e-02 9.772122e-02 6.752323e-02
<VARIANCE> 16
 3.931005e-03 2.540813e-03 1.460264e-02 2.200272e-02 7.531635e-03 9.308022e-03 3.931005e-03 2.540813e-03 1.460264e-02 2.200272e-02 7.531635e-03 9.308022e-03 1.000000e-03 1.000000e-03 1.000000e-03 1.000000e-03
<GCONST> -5.647058e+01
<STATE> 3
<NUMMIXES> 2
<MIXTURE> 1 4.862576e-01
<MEAN> 16
 6.039813e-01 -7.224586e-01 1.908870e+00 -1.589584e-01 -2.390283e-01 1.788927e+00 2.922500e-03 -1.795002e-03 1.147877e-02 6.490043e-04 1.129217e-02 8.465066e-03 1.296236e-01 1.121042e-01 9.623880e-02 8.494271e-02
<VARIANCE> 16
 2.463130e-03 1.370549e-03 8.414241e-03 2.015508e-02 1.203098e-01 1.115858e-02 1.000000e-03 1.000000e-03 2.982230e-03 1.081990e-03 2.912284e-03 3.123793e-03 1.000000e-03 1.000000e-03 1.000000e-03 1.000000e-03
<GCONST> -6.418629e+01
<MIXTURE> 2 5.137420e-01
<MEAN> 16
 5.853140e-01 -7.182681e-01 1.849593e+00 -2.119205e-01 -3.823578e-01 1.770535e+00 -2.586588e-03 4.238206e-03 -1.131025e-02 -3.738588e-03 3.399633e-03 -1.451616e-02 1.180113e-01 1.004783e-01 9.100799e-02 7.483073e-02
<VARIANCE> 16
 2.384890e-03 1.591010e-03 1.154072e-02 2.168964e-02 9.486744e-02 1.454508e-02 1.000000e-03 1.000000e-03 2.314257e-03 1.000000e-03 1.664086e-03 2.659487e-03 1.000000e-03 1.000000e-03 1.000000e-03 1.000000e-03
<GCONST> -6.470558e+01
<STATE> 4
<NUMMIXES> 2
<MIXTURE> 1 4.826643e-01
<MEAN> 16
 5.890744e-01 -6.903856e-01 1.810682e+00 -2.640736e-01 -6.053357e-01 1.821548e+00 -5.448532e-04 5.584605e-03 3.035480e-03 -1.590679e-03 7.148995e-03 5.944647e-04 1.208146e-01 1.033113e-01 1.169678e-01 7.350697e-02
<VARIANCE> 16
 3.966872e-03 3.275172e-03 1.551214e-02 2.020858e-02 1.989532e-02 1.134528e-02 1.000000e-03 1.000000e-03 1.000000e-03 1.000000e-03 1.000000e-03 1.000000e-03 1.000000e-03 1.000000e-03 1.000000e-03 1.000000e-03
<GCONST> -6.738670e+01
<MIXTURE> 2 5.173356e-01
<MEAN> 16
 5.653170e-01 -6.685977e-01 1.733804e+00 -3.266903e-01 -6.548917e-01 1.805909e+00 -2.164198e-03 3.965695e-03 -2.720120e-03 -9.132955e-04 4.108814e-03 -1.306326e-02 1.162397e-01 9.469949e-02 1.130851e-01 6.395870e-02
<VARIANCE> 16
 2.428742e-03 2.935675e-03 1.183838e-02 2.016371e-02 8.852880e-03 1.112526e-02 1.000000e-03 1.000000e-03 1.000000e-03 1.000000e-03 1.000000e-03 1.000000e-03 1.000000e-03 1.000000e-03 1.000000e-03 1.000000e-03
<GCONST> -6.908855e+01
<STATE> 5
<MEAN> 16
 4.469478e-01 -6.574172e-01 1.895791e+00 -1.750612e-01 -6.012749e-01 1.834052e+00 -1.670262e-02 1.031060e-02 -1.640481e-04 -3.932958e-03 5.643567e-03 -1.569428e-04 1.151036e-01 1.135839e-01 8.955323e-02 7.515334e-02
<VARIANCE> 16
 2.681413e-02 4.305256e-03 8.314217e-03 6.169698e-03 5.555608e-03 5.701153e-03 1.100103e-03 1.000000e-03 2.274971e-03 1.000000e-03 1.000000e-03 1.623874e-03 1.000000e-03 1.000000e-03 1.000000e-03 1.000000e-03
<GCONST> -6.757401e+01
<TRANSP> 6
 0.000000e+00 1.000000e+00 0.000000e+00 0.000000e+00 0.000000e+00 0.000000e+00
 0.000000e+00 0.000000e+00 1.000000e+00 0.000000e+00 0.000000e+00 0.000000e+00
 0.000000e+00 0.000000e+00 7.621830e-01 2.378170e-01 0.000000e+00 0.000000e+00
 0.000000e+00 0.000000e+00 0.000000e+00 7.388740e-01 2.611260e-01 0.000000e+00
 0.000000e+00 0.000000e+00 0.000000e+00 0.000000e+00 8.381642e-01 1.618359e-01
 0.000000e+00 0.000000e+00 0.000000e+00 0.000000e+00 0.000000e+00 0.000000e+00
<ENDHMM>
~h "Man"
<BEGINHMM>
<NUMSTATES> 6
<STATE> 2
<NUMMIXES> 2
<MIXTURE> 1 5.011517e-01
<MEAN> 16
 5.996371e-01 -7.173966e-01 1.910781e+00 -1.629698e-01 -5.869669e-01 1.831448e+00 5.996371e-01 -7.173966e-01 1.910781e+00 -1.629698e-01 -5.869669e-01 1.831448e+00 1.171318e-01 1.107166e-01 1.022204e-01 7.767904e-02
<VARIANCE> 16
 4.164308e-02 1.494376e-02 1.136460e-02 1.189505e-02 1.949224e-02 1.093701e-02 4.164308e-02 1.494376e-02 1.136460e-02 1.189505e-02 1.949224e-02 1.093701e-02 1.000000e-03 1.000000e-03 1.000000e-03 1.000000e-03
<GCONST> -4.771360e+01
<MIXTURE> 2 4.988483e-01
<MEAN> 16
 5.749915e-01 -6.908262e-01 1.782326e+00 -2.689998e-01 -6.440822e-01 1.805197e+00 5.749915e-01 -6.908262e-01 1.782326e+00 -2.689998e-01 -6.440822e-01 1.805197e+00 1.121373e-01 9.986461e-02 9.852084e-02 6.545170e-02
<VARIANCE> 16
 4.094155e-03 2.848688e-03 1.622698e-02 2.396662e-02 6.288577e-03 7.358609e-03 4.094155e-03 2.848688e-03 1.622698e-02 2.396662e-02 6.288577e-03 7.358609e-03 1.000000e-03 1.000000e-03 1.000000e-03 1.000000e-03
<GCONST> -5.660933e+01
<STATE> 3
<NUMMIXES> 2
<MIXTURE> 1 4.956519e-01
<MEAN> 16
 3.475727e-01 -2.448518e-01 2.326751e+00 -4.452797e-01 -1.807199e-01 1.973979e+00 5.426006e-01 -1.385479e-01 1.486663e-01 2.874621e-01 -3.158586e-01 4.720614e-02 1.049427e-01 1.027122e-01 9.688026e-02 7.800232e-02
<VARIANCE> 16
 7.196756e-01 1.117594e-01 1.142159e-01 1.603859e-01 3.067046e-01 1.143819e-01 2.601662e+00 2.669284e-01 1.300591e-01 5.216576e-01 9.893965e-01 2.236582e-01 1.000000e-03 1.629320e-03 1.256056e-03 1.000000e-03
<GCONST> -1.194256e+01
<MIXTURE> 2 5.043477e-01
<MEAN> 16
 -2.069927e-01 -1.627146e-01 2.058352e+00 -7.268417e-01 1.071971e-01 1.840492e+00 -5.313177e-01 1.347535e-01 -1.458976e-01 -2.816592e-01 3.095338e-01 -4.628410e-02 9.289223e-02 8.398811e-02 7.854619e-02 7.511630e-02
<VARIANCE> 16
 5.706056e-01 1.376940e-01 1.961667e-01 1.789794e-01 3.658199e-01 1.879222e-01 2.036098e+00 2.635452e-01 1.274049e-01 4.646100e-01 1.003941e+00 2.157417e-01 1.000000e-03 1.000000e-03 1.000000e-03 1.000000e-03
<GCONST> -1.177456e+01
<STATE> 4
<NUMMIXES> 2
<MIXTURE> 1 5.040262e-01
<MEAN> 16
 4.835395e-01 -6.716519e-01 1.937728e+00 -1.360441e-01 -6.086990e-01 1.857440e+00 -6.084203e-03 6.979578e-03 9.290809e-03 -2.313590e-03 3.197589e-03 8.245255e-03 1.195538e-01 1.130093e-01 9.613872e-02 7.572997e-02
<VARIANCE> 16
 3.218656e-02 1.189138e-02 6.515456e-03 3.800394e-03 1.728295e-03 5.049254e-03 1.000000e-03 1.000000e-03 1.644069e-03 1.000000e-03 1.000000e-03 1.523896e-03 1.000000e-03 1.000000e-03 1.000000e-03 1.000000e-03
<GCONST> -6.887659e+01
<MIXTURE> 2 4.959741e-01
<MEAN> 16
 4.468431e-01 -6.658130e-01 1.886227e+00 -1.633064e-01 -6.253545e-01 1.827403e+00 -1.939892e-02 5.040894e-03 -1.199890e-02 -1.878659e-03 7.242364e-04 -8.536221e-03 1.108600e-01 1.129158e-01 8.288098e-02 7.063016e-02
<VARIANCE> 16
 2.870830e-02 7.304106e-03 8.737452e-03 7.070554e-03 1.655196e-03 4.290459e-03 1.350508e-03 1.000000e-03 1.775710e-03 1.000000e-03 1.000000e-03 1.327217e-03 1.000000e-03 1.000000e-03 1.000000e-03 1.000000e-03
<GCONST> -6.853080e+01
<STATE> 5
<MEAN> 16
 4.823440e-01 -6.722909e-01 1.848301e+00 -1.865246e-01 -2.426744e-01 1.809660e+00 -1.934920e-03 3.711254e-03 1.288417e-03 -3.166827e-03 1.797368e-02 -2.747060e-03 1.242854e-01 1.016989e-01 9.947523e-02 7.859021e-02
<VARIANCE> 16
 1.763875e-02 3.311547e-03 1.524826e-02 2.291534e-02 1.312038e-01 1.501601e-02 1.000000e-03 1.000000e-03 2.146539e-03 1.000000e-03 3.938770e-03 2.391901e-03 1.000000e-03 1.000000e-03 1.000000e-03 1.000000e-03
<GCONST> -6.060159e+01
<TRANSP> 6
 0.000000e+00 1.000000e+00 0.000000e+00 0.000000e+00 0.000000e+00 0.000000e+00
 0.000000e+00 0.000000e+00 1.000000e+00 0.000000e+00 0.000000e+00 0.000000e+00
 0.000000e+00 0.000000e+00 8.593213e-01 1.406787e-01 0.000000e+00 0.000000e+00
 0.000000e+00 0.000000e+00 0.000000e+00 8.797345e-01 1.202655e-01 0.000000e+00
 0.000000e+00 0.000000e+00 0.000000e+00 0.000000e+00 8.792418e-01 1.207581e-01
 0.000000e+00 0.000000e+00 0.000000e+00 0.000000e+00 0.000000e+00 0.000000e+00
<ENDHMM>
~h "car"
<BEGINHMM>
<NUMSTATES> 6
<STATE> 2
<NUMMIXES> 2
<MIXTURE> 1 5.096210e-01
<MEAN> 16
 3.403969e-01 -4.171252e-01 2.066897e+00 -2.690361e-01 3.133122e-02 1.886743e+00 6.132445e-03 -1.592759e-03 1.200390e-02 -1.787711e-03 -4.501107e-03 8.627639e-03 9.919541e-02 1.284481e-01 9.217227e-02 8.719275e-02
<VARIANCE> 16
 1.273229e-02 1.549904e-02 1.881070e-02 1.623513e-03 2.025976e-02 8.917581e-03 1.000000e-03 1.111795e-03 2.083380e-03 1.000000e-03 1.000000e-03 1.207171e-03 1.000000e-03 1.000000e-03 1.000000e-03 1.000000e-03
<GCONST> -6.618921e+01
<MIXTURE> 2 4.903746e-01
<MEAN> 16
 3.045109e-01 -3.843700e-01 1.945741e+00 -2.840761e-01 -2.512953e-02 1.811706e+00 3.057684e-04 -9.113301e-03 -7.867890e-03 1.459595e-03 -1.010588e-02 -1.227896e-02 8.504970e-02 1.140420e-01 8.427597e-02 8.123553e-02
<VARIANCE> 16
 1.169153e-02 1.848757e-02 3.026582e-02 4.268735e-03 4.159579e-02 1.353102e-02 1.000000e-03 1.000000e-03 2.319033e-03 1.000000e-03 1.000000e-03 1.679128e-03 1.000000e-03 1.000000e-03 1.000000e-03 1.000000e-03
<GCONST> -6.318835e+01
<STATE> 3
<NUMMIXES> 2
<MIXTURE> 1 5.095431e-01
<MEAN> 16
 3.151421e-01 3.791608e-02 1.932615e+00 -3.042915e-01 2.573253e-02 1.899009e+00 9.635812e-03 3.865492e-03 1.439007e-02 -3.356594e-03 -1.585838e-03 1.446331e-02 1.175820e-01 1.335482e-01 9.037670e-02 8.465941e-02
<VARIANCE> 16
 3.431702e-02 3.537328e-02 1.370131e-02 5.350237e-03 9.731081e-03 1.345038e-02 1.393023e-03 2.860812e-03 3.860109e-03 1.000000e-03 1.000000e-03 3.219326e-03 1.000000e-03 1.000000e-03 1.000000e-03 1.000000e-03
<GCONST> -6.094505e+01
<MIXTURE> 2 4.904531e-01
<MEAN> 16
 2.790985e-01 -8.098935e-02 1.853243e+00 -3.176505e-01 -7.249082e-02 1.816649e+00 -2.039109e-03 -7.913161e-03 -1.736947e-02 2.321134e-03 -6.257168e-03 -1.535850e-02 1.010576e-01 1.138587e-01 8.196939e-02 7.974891e-02
<VARIANCE> 16
 3.989759e-02 3.955428e-02 1.472496e-02 6.902661e-03 1.998389e-02 1.379049e-02 1.961040e-03 2.605188e-03 4.616225e-03 1.000000e-03 1.000000e-03 3.482082e-03 1.000000e-03 1.000000e-03 1.000000e-03 1.000000e-03
<GCONST> -5.910552e+01
<STATE> 4
<NUMMIXES> 2
<MIXTURE> 1 5.056738e-01
<MEAN> 16
 2.159384e-01 -2.872988e-02 1.686587e+00 -3.814145e-01 -2.226102e-02 1.623863e+00 4.848126e-03 -1.860247e-03 1.161810e-02 -1.978012e-03 -1.624979e-03 1.031371e-02 9.706913e-02 1.169110e-01 7.459459e-02 8.305166e-02
<VARIANCE> 16
 3.028579e-02 2.938104e-02 2.317869e-02 4.840973e-03 9.004600e-03 1.591791e-02 1.022048e-03 1.332134e-03 2.144098e-03 1.000000e-03 1.000000e-03 1.551160e-03 1.000000e-03 1.000000e-03 1.000000e-03 1.000000e-03
<GCONST> -6.313119e+01
<MIXTURE> 2 4.943190e-01
<MEAN> 16
 2.023911e-01 -8.726904e-02 1.626804e+00 -3.746572e-01 -5.161176e-02 1.584730e+00 -3.500018e-03 -1.041172e-02 -1.127993e-02 4.272639e-03 -8.561121e-03 -1.071608e-02 8.518374e-02 1.077745e-01 6.793507e-02 7.861046e-02
<VARIANCE> 16
 3.701285e-02 2.953224e-02 2.314480e-02 5.506306e-03 1.691302e-02 1.798213e-02 1.000000e-03 1.505949e-03 2.187054e-03 1.000000e-03 1.000000e-03 1.876105e-03 1.000000e-03 1.000000e-03 1.000000e-03 1.000000e-03
<GCONST> -6.173501e+01
<STATE> 5
<MEAN> 16
 5.775164e-01 -6.910874e-01 1.855546e+00 -1.954331e-01 -6.015037e-01 1.812921e+00 5.003217e-03 -7.470196e-03 2.052405e-03 4.021539e-03 -8.747635e-03 2.980310e-03 1.163383e-01 1.070418e-01 9.721240e-02 7.490747e-02
<VARIANCE> 16
 1.686328e-02 3.622996e-03 1.555268e-02 1.819238e-02 6.126514e-03 7.239447e-03 1.000000e-03 1.000000e-03 1.936900e-03 1.000000e-03 1.000000e-03 1.864087e-03 1.000000e-03 1.000000e-03 1.000000e-03 1.000000e-03
<GCONST> -6.628435e+01
<TRANSP> 6
 0.000000e+00 1.000000e+00 0.000000e+00 0.000000e+00 0.000000e+00 0.000000e+00
 0.000000e+00 8.908036e-01 1.091964e-01 0.000000e+00 0.000000e+00 0.000000e+00
 0.000000e+00 0.000000e+00 9.601565e-01 3.984346e-02 0.000000e+00 0.000000e+00
 0.000000e+00 0.000000e+00 0.000000e+00 9.644202e-01 3.557980e-02 0.000000e+00
 0.000000e+00 0.000000e+00 0.000000e+00 0.000000e+00 9.608799e-01 3.912008e-02
 0.000000e+00 0.000000e+00 0.000000e+00 0.000000e+00 0.000000e+00 0.000000e+00
<ENDHMM>
~h "weaves_and_bumps_into"
<BEGINHMM>
<NUMSTATES> 6
<STATE> 2
<NUMMIXES> 2
<MIXTURE> 1 4.918533e-01
<MEAN> 16
 3.804113e-01 -3.589043e-01 1.972334e+00 -3.039927e-01 -2.945695e-01 1.930709e+00 -1.708177e-02 4.748403e-02 1.849433e-02 1.262870e-03 5.046191e-02 1.620528e-02 1.051188e-01 9.830895e-02 8.892732e-02 8.545553e-02
<VARIANCE> 16
 1.646137e-02 2.229214e-02 4.126535e-02 1.588100e-02 2.144531e-02 4.301669e-02 2.818026e-03 5.223235e-03 9.692979e-03 2.486901e-03 6.020240e-03 8.945412e-03 1.122472e-03 1.000000e-03 1.000000e-03 1.000000e-03
<GCONST> -5.192717e+01
<MIXTURE> 2 5.081442e-01
<MEAN> 16
 4.057721e-01 -4.032053e-01 1.836328e+00 -3.413295e-01 -3.441010e-01 1.807914e+00 -2.911411e-02 3.853995e-02 -3.194990e-02 1.820160e-03 3.788184e-02 -3.062192e-02 9.049629e-02 8.655460e-02 7.607378e-02 7.382411e-02
<VARIANCE> 16
 1.130097e-02 1.592027e-02 4.766810e-02 1.487963e-02 1.797375e-02 4.474462e-02 1.925173e-03 4.087203e-03 9.255540e-03 1.780527e-03 3.844878e-03 7.870019e-03 1.000000e-03 1.000000e-03 1.000000e-03 1.000000e-03
<GCONST> -5.439662e+01
<STATE> 3
<NUMMIXES> 2
<MIXTURE> 1 4.744948e-01
<MEAN> 16
 2.465371e-01 -1.480329e-01 1.824219e+00 -2.524281e-01 -1.274866e-01 1.768183e+00 5.014999e-04 8.045296e-03 1.695525e-02 -1.447326e-03 5.905968e-03 1.603637e-02 9.607927e-02 9.705491e-02 8.660466e-02 7.812369e-02
<VARIANCE> 16
 1.816297e-02 3.659683e-02 1.374016e-02 9.260950e-03 1.949055e-02 1.026753e-02 1.000000e-03 2.039935e-03 3.950791e-03 1.000000e-03 1.187269e-03 3.490448e-03 1.000000e-03 1.000000e-03 1.000000e-03 1.000000e-03
<GCONST> -6.096515e+01
<MIXTURE> 2 5.255003e-01
<MEAN> 16
 2.288473e-01 -1.984363e-01 1.759854e+00 -2.775218e-01 -1.835614e-01 1.710423e+00 -6.843995e-03 -3.101112e-04 -1.841870e-02 2.071699e-03 3.667428e-03 -1.763190e-02 8.022735e-02 8.267003e-02 7.520162e-02 7.300096e-02
<VARIANCE> 16
 1.600676e-02 2.380022e-02 1.126559e-02 6.716851e-03 1.215081e-02 8.475473e-03 1.000000e-03 1.784013e-03 3.641826e-03 1.000000e-03 1.120565e-03 3.209029e-03 1.000000e-03 1.000000e-03 1.000000e-03 1.000000e-03
<GCONST> -6.306326e+01
<STATE> 4
<NUMMIXES> 2
<MIXTURE> 1 4.908852e-01
<MEAN> 16
 2.321212e-01 -4.185326e-02 1.485853e+00 -3.106608e-01 3.926491e-02 1.424752e+00 5.369063e-03 3.987003e-03 7.811947e-03 -2.524694e-03 3.981623e-03 7.196750e-03 9.343410e-02 1.126016e-01 8.579879e-02 8.838458e-02
<VARIANCE> 16
 2.285175e-02 3.543433e-02 3.072335e-02 8.885677e-03 7.174921e-03 1.354440e-02 1.080893e-03 1.402045e-03 1.686072e-03 1.000000e-03 1.000000e-03 1.126018e-03 1.000000e-03 1.000000e-03 1.000000e-03 1.000000e-03
<GCONST> -6.317851e+01
<MIXTURE> 2 5.091134e-01
<MEAN> 16
 2.083978e-01 -8.416026e-02 1.404035e+00 -3.028138e-01 6.742887e-03 1.362181e+00 -3.236999e-03 -3.715161e-03 -9.866302e-03 1.311872e-03 -2.064913e-03 -9.553871e-03 8.267061e-02 1.025612e-01 7.915080e-02 8.282530e-02
<VARIANCE> 16
 2.379110e-02 2.903418e-02 2.368190e-02 6.246861e-03 5.728973e-03 7.792898e-03 1.000000e-03 1.268350e-03 1.600213e-03 1.000000e-03 1.000000e-03 1.008902e-03 1.000000e-03 1.000000e-03 1.000000e-03 1.000000e-03
<GCONST> -6.506802e+01
<STATE> 5
<MEAN> 16
 3.206823e-01 -2.409426e-01 1.844206e+00 -2.559968e-01 4.351851e-03 1.778417e+00 1.323363e-02 -6.505291e-03 1.848799e-02 -1.068588e-02 2.925410e-03 1.792752e-02 1.099993e-01 1.099340e-01 8.724085e-02 8.739643e-02
<VARIANCE> 16
 1.751244e-02 7.627362e-02 4.005031e-02 1.788602e-02 5.909600e-02 3.123846e-02 5.765651e-03 4.419507e-03 1.209887e-02 2.434388e-03 5.813596e-03 8.429320e-03 1.000000e-03 1.000000e-03 1.000000e-03 1.000000e-03
<GCONST> -4.931318e+01
<TRANSP> 6
 0.000000e+00 1.000000e+00 0.000000e+00 0.000000e+00 0.000000e+00 0.000000e+00
 0.000000e+00 8.669738e-01 1.330262e-01 0.000000e+00 0.000000e+00 0.000000e+00
 0.000000e+00 0.000000e+00 9.407483e-01 5.925173e-02 0.000000e+00 0.000000e+00
 0.000000e+00 0.000000e+00 0.000000e+00 9.590963e-01 4.090377e-02 0.000000e+00
 0.000000e+00 0.000000e+00 0.000000e+00 0.000000e+00 7.825611e-01 2.174389e-01
 0.000000e+00 0.000000e+00 0.000000e+00 0.000000e+00 0.000000e+00 0.000000e+00
<ENDHMM>
~h "man"
<BEGINHMM>
<NUMSTATES> 6
<STATE> 2
<NUMMIXES> 2
<MIXTURE> 1 4.961875e-01
<MEAN> 16
 3.841618e-01 -5.840144e-01 1.892407e+00 -3.329952e-01 -1.176034e-01 1.794330e+00 3.588051e-03 5.394106e-03 1.279847e-02 -8.289956e-03 -4.974466e-03 5.383914e-03 1.217749e-01 8.771785e-02 9.106931e-02 9.715462e-02
<VARIANCE> 16
 1.771511e-02 1.079284e-02 2.293761e-02 1.787615e-02 7.305359e-03 3.624886e-02 1.000000e-03 1.000000e-03 2.697080e-03 1.000000e-03 1.000000e-03 1.389704e-03 1.000000e-03 1.000000e-03 1.000000e-03 1.000000e-03
<GCONST> -6.294823e+01
<MIXTURE> 2 5.038092e-01
<MEAN> 16
 3.556536e-01 -6.075135e-01 1.821890e+00 -3.732213e-01 -1.386669e-01 1.709084e+00 -3.917662e-03 4.381840e-03 -1.588131e-02 -7.689088e-03 -5.233734e-03 -1.217834e-02 1.134699e-01 7.542931e-02 8.131807e-02 9.089568e-02
<VARIANCE> 16
 1.222656e-02 7.633588e-03 1.971630e-02 1.472682e-02 8.345501e-03 2.902406e-02 1.000000e-03 1.000000e-03 2.826929e-03 1.000000e-03 1.000000e-03 1.492818e-03 1.000000e-03 1.000000e-03 1.000000e-03 1.000000e-03
<GCONST> -6.398107e+01
<STATE> 3
<NUMMIXES> 2
<MIXTURE> 1 4.954266e-01
<MEAN> 16
 2.228128e-01 -3.454388e-02 1.887323e+00 -3.612751e-01 -1.274326e-01 1.917915e+00 5.681586e-03 4.152999e-03 1.274337e-02 -1.242814e-03 -1.458989e-03 1.249190e-02 1.087555e-01 9.801304e-02 8.369065e-02 9.958154e-02
<VARIANCE> 16
 4.425725e-02 3.516658e-02 1.402554e-02 8.683614e-03 6.575438e-03 1.724910e-02 1.428749e-03 2.692016e-03 3.624549e-03 1.000000e-03 1.000000e-03 3.428414e-03 1.000000e-03 1.000000e-03 1.000000e-03 1.000000e-03
<GCONST> -6.036760e+01
<MIXTURE> 2 5.045610e-01
<MEAN> 16
 1.554438e-01 -1.028973e-01 1.789726e+00 -3.765570e-01 -1.624501e-01 1.790088e+00 -6.227705e-03 -1.777409e-03 -1.629185e-02 4.790154e-03 -1.904274e-03 -1.379601e-02 9.513306e-02 7.676850e-02 7.320123e-02 8.824023e-02
<VARIANCE> 16
 4.686233e-02 2.747734e-02 1.405447e-02 8.097220e-03 5.742636e-03 1.541520e-02 1.710631e-03 2.537125e-03 3.968851e-03 1.000000e-03 1.000000e-03 3.484119e-03 1.000000e-03 1.000000e-03 1.000000e-03 1.000000e-03
<GCONST> -6.064516e+01
<STATE> 4
<NUMMIXES> 2
<MIXTURE> 1 5.096717e-01
<MEAN> 16
 2.416747e-01 -5.666042e-02 1.557303e+00 -3.319640e-01 -4.662466e-02 1.534494e+00 6.925628e-03 -1.642419e-04 9.913797e-03 -5.323562e-04 -2.800719e-03 7.934007e-03 9.942926e-02 7.599133e-02 8.219220e-02 9.245085e-02
<VARIANCE> 16
 3.790369e-02 4.683904e-02 2.393190e-02 1.292150e-02 1.108417e-02 1.317241e-02 1.283913e-03 1.451162e-03 1.607195e-03 1.000000e-03 1.000000e-03 1.109964e-03 1.000000e-03 1.000000e-03 1.000000e-03 1.000000e-03
<GCONST> -6.171745e+01
<MIXTURE> 2 4.903176e-01
<MEAN> 16
 2.282757e-01 -1.065582e-01 1.494993e+00 -3.492156e-01 -8.339877e-02 1.489543e+00 8.559796e-04 -8.655194e-03 -9.210748e-03 2.482676e-03 -9.420307e-03 -8.599720e-03 8.990920e-02 7.079443e-02 7.636571e-02 8.645151e-02
<VARIANCE> 16
 4.569774e-02 4.191491e-02 2.046162e-02 1.145852e-02 1.727402e-02 1.027714e-02 1.231851e-03 1.629185e-03 1.727394e-03 1.000000e-03 1.000000e-03 1.400857e-03 1.000000e-03 1.000000e-03 1.000000e-03 1.000000e-03
<GCONST> -6.134366e+01
<STATE> 5
<MEAN> 16
 5.750525e-01 -6.868775e-01 1.852528e+00 -1.922332e-01 -5.946949e-01 1.808631e+00 6.618535e-03 -8.396978e-03 3.271830e-03 2.701648e-03 -9.684782e-03 3.651484e-03 1.162367e-01 1.062805e-01 9.476790e-02 7.523563e-02
<VARIANCE> 16
 1.981904e-02 4.578269e-03 1.587003e-02 1.710128e-02 7.062362e-03 8.489242e-03 1.000000e-03 1.000000e-03 2.606031e-03 1.000000e-03 1.063875e-03 1.995730e-03 1.000000e-03 1.000000e-03 1.000000e-03 1.000000e-03
<GCONST> -6.520217e+01
<TRANSP> 6
 0.000000e+00 1.000000e+00 0.000000e+00 0.000000e+00 0.000000e+00 0.000000e+00
 0.000000e+00 9.216443e-01 7.835576e-02 0.000000e+00 0.000000e+00 0.000000e+00
 0.000000e+00 0.000000e+00 9.737747e-01 2.622530e-02 0.000000e+00 0.000000e+00
 0.000000e+00 0.000000e+00 0.000000e+00 9.487722e-01 5.122779e-02 0.000000e+00
 0.000000e+00 0.000000e+00 0.000000e+00 0.000000e+00 9.594960e-01 4.050404e-02
 0.000000e+00 0.000000e+00 0.000000e+00 0.000000e+00 0.000000e+00 0.000000e+00
<ENDHMM>
~h "monkey"
<BEGINHMM>
<NUMSTATES> 6
<STATE> 2
<NUMMIXES> 2
<MIXTURE> 1 4.993289e-01
<MEAN> 16
 3.666744e-01 -4.579450e-01 2.130689e+00 -2.799861e-01 2.982726e-03 1.909353e+00 6.405058e-03 3.264001e-03 9.775719e-03 -4.265342e-04 -3.018166e-03 8.417987e-03 1.123947e-01 1.136974e-01 9.298693e-02 7.765102e-02
<VARIANCE> 16
 9.250467e-03 5.855238e-03 1.820997e-02 5.496660e-03 1.627679e-02 1.583159e-02 1.000000e-03 1.000000e-03 1.936304e-03 1.000000e-03 1.000000e-03 1.085291e-03 1.434633e-03 1.000000e-03 1.000000e-03 1.000000e-03
<GCONST> -6.586464e+01
<MIXTURE> 2 5.006667e-01
<MEAN> 16
 3.198702e-01 -4.447246e-01 2.023532e+00 -3.324417e-01 -4.691210e-02 1.824862e+00 -3.880372e-03 -6.673391e-03 -1.109395e-02 1.531908e-03 -6.612393e-03 -1.209944e-02 9.592578e-02 1.007988e-01 8.751550e-02 6.878244e-02
<VARIANCE> 16
 1.128714e-02 6.387170e-03 2.308717e-02 8.997376e-03 2.101263e-02 1.607770e-02 1.000000e-03 1.000000e-03 1.630908e-03 1.000000e-03 1.000000e-03 1.160168e-03 1.196321e-03 1.000000e-03 1.000000e-03 1.000000e-03
<GCONST> -6.486438e+01
<STATE> 3
<NUMMIXES> 2
<MIXTURE> 1 4.872040e-01
<MEAN> 16
 2.715453e-01 8.691351e-03 1.949236e+00 -2.924929e-01 -3.269697e-02 1.925944e+00 6.163936e-03 4.746563e-03 1.271727e-02 -1.904639e-03 -1.708829e-03 1.365274e-02 1.150516e-01 1.150884e-01 9.147736e-02 7.882203e-02
<VARIANCE> 16
 3.944963e-02 3.377160e-02 1.529867e-02 9.549438e-03 6.170208e-03 1.462429e-02 1.548235e-03 2.787358e-03 4.026411e-03 1.000000e-03 1.000000e-03 3.428734e-03 1.000000e-03 1.000000e-03 1.000000e-03 1.000000e-03
<GCONST> -6.034947e+01
<MIXTURE> 2 5.127831e-01
<MEAN> 16
 1.654912e-01 -7.767577e-02 1.834030e+00 -3.301938e-01 -8.584779e-02 1.808657e+00 -5.398421e-03 -3.979576e-03 -1.696061e-02 3.618905e-03 -3.857375e-03 -1.371409e-02 9.705154e-02 9.862176e-02 7.793790e-02 6.627209e-02
<VARIANCE> 16
 5.038115e-02 2.774312e-02 1.230307e-02 1.101140e-02 9.686268e-03 1.089394e-02 1.611810e-03 2.253391e-03 4.029485e-03 1.000000e-03 1.000000e-03 3.401016e-03 1.000000e-03 1.000000e-03 1.000000e-03 1.000000e-03
<GCONST> -6.040025e+01
<STATE> 4
<NUMMIXES> 2
<MIXTURE> 1 5.049015e-01
<MEAN> 16
 2.655034e-01 -1.076750e-01 1.657103e+00 -2.915636e-01 -8.818811e-03 1.622628e+00 9.259140e-03 -7.206339e-03 1.341226e-02 2.633922e-04 -7.419290e-03 1.101435e-02 1.058802e-01 9.935141e-02 8.321628e-02 6.886869e-02
<VARIANCE> 16
 4.030374e-02 5.443030e-02 2.032511e-02 3.921682e-03 2.194142e-02 1.459414e-02 1.142743e-03 1.706436e-03 2.152656e-03 1.000000e-03 1.000000e-03 1.419322e-03 1.000000e-03 1.000000e-03 1.000000e-03 1.000000e-03
<GCONST> -6.149260e+01
<MIXTURE> 2 4.950942e-01
<MEAN> 16
 2.588703e-01 -1.738541e-01 1.612017e+00 -2.952679e-01 -6.471420e-02 1.583781e+00 3.791077e-03 -1.734857e-02 -1.069522e-02 5.316924e-03 -1.485546e-02 -1.080738e-02 9.453512e-02 9.323466e-02 7.588123e-02 6.551676e-02
<VARIANCE> 16
 4.112237e-02 5.460175e-02 1.976517e-02 5.295783e-03 3.346512e-02 1.608637e-02 1.131026e-03 2.107012e-03 2.450057e-03 1.000000e-03 1.137863e-03 1.820266e-03 1.000000e-03 1.000000e-03 1.000000e-03 1.000000e-03
<GCONST> -5.996949e+01
<STATE> 5
<MEAN> 16
 5.753811e-01 -6.928352e-01 1.854337e+00 -1.951879e-01 -6.072906e-01 1.808940e+00 4.982065e-03 -5.864681e-03 1.313037e-03 2.044986e-03 -6.930796e-03 1.919460e-03 1.148857e-01 1.091231e-01 9.558316e-02 7.432138e-02
<VARIANCE> 16
 1.681862e-02 3.443418e-03 1.629724e-02 1.769924e-02 5.521474e-03 6.276822e-03 1.000000e-03 1.000000e-03 1.668060e-03 1.000000e-03 1.000000e-03 1.656089e-03 1.000000e-03 1.000000e-03 1.000000e-03 1.000000e-03
<GCONST> -6.683296e+01
<TRANSP> 6
 0.000000e+00 1.000000e+00 0.000000e+00 0.000000e+00 0.000000e+00 0.000000e+00
 0.000000e+00 9.223922e-01 7.760783e-02 0.000000e+00 0.000000e+00 0.000000e+00
 0.000000e+00 0.000000e+00 9.744879e-01 2.551211e-02 0.000000e+00 0.000000e+00
 0.000000e+00 0.000000e+00 0.000000e+00 9.305186e-01 6.948134e-02 0.000000e+00
 0.000000e+00 0.000000e+00 0.000000e+00 0.000000e+00 9.617389e-01 3.826103e-02
 0.000000e+00 0.000000e+00 0.000000e+00 0.000000e+00 0.000000e+00 0.000000e+00
<ENDHMM>
~h "bumps_into_each_other"
<BEGINHMM>
<NUMSTATES> 6
<STATE> 2
<NUMMIXES> 2
<MIXTURE> 1 4.938985e-01
<MEAN> 16
 4.222729e-01 -4.383937e-01 1.978512e+00 -3.344363e-01 -2.197784e-01 1.904274e+00 -1.317941e-03 1.875857e-02 2.517718e-02 -1.095949e-03 3.586834e-02 2.167364e-02 1.098582e-01 9.495315e-02 9.651456e-02 8.746905e-02
<VARIANCE> 16
 1.060926e-02 1.814044e-02 3.630218e-02 1.684514e-02 6.141012e-02 5.250831e-02 1.005967e-03 1.687334e-03 5.725924e-03 1.487439e-03 3.866879e-03 5.223477e-03 1.486963e-03 1.000000e-03 1.000000e-03 1.000000e-03
<GCONST> -5.529019e+01
<MIXTURE> 2 5.060987e-01
<MEAN> 16
 4.241598e-01 -4.426250e-01 1.874958e+00 -3.674443e-01 -2.973478e-01 1.828731e+00 -1.698485e-02 1.702689e-02 -1.888493e-02 -2.723836e-03 3.017849e-02 -2.165552e-02 9.451988e-02 8.657996e-02 8.202851e-02 7.757162e-02
<VARIANCE> 16
 7.868312e-03 1.514713e-02 4.349928e-02 1.384717e-02 3.847596e-02 4.310663e-02 1.000000e-03 1.969254e-03 5.139984e-03 1.398649e-03 3.045286e-03 5.202540e-03 1.035501e-03 1.000000e-03 1.000000e-03 1.000000e-03
<GCONST> -5.707503e+01
<STATE> 3
<NUMMIXES> 2
<MIXTURE> 1 4.918146e-01
<MEAN> 16
 3.302074e-01 -1.259677e-01 1.908473e+00 -2.393758e-01 -9.768523e-02 1.861227e+00 5.645059e-03 7.054195e-03 2.018075e-02 -2.499903e-03 1.233859e-03 2.033128e-02 9.626185e-02 1.036293e-01 8.868364e-02 8.264438e-02
<VARIANCE> 16
 1.125793e-02 3.912164e-02 1.396872e-02 6.146433e-03 2.260198e-02 1.219309e-02 1.168160e-03 3.348848e-03 5.257595e-03 1.000000e-03 1.972084e-03 4.622473e-03 1.000000e-03 1.000000e-03 1.000000e-03 1.000000e-03
<GCONST> -5.972497e+01
<MIXTURE> 2 5.081816e-01
<MEAN> 16
 2.918185e-01 -1.941615e-01 1.823967e+00 -2.412222e-01 -1.672947e-01 1.782704e+00 -8.909410e-03 3.466836e-03 -2.454527e-02 1.905941e-03 4.130489e-03 -2.294793e-02 7.869460e-02 8.389420e-02 7.641874e-02 7.418811e-02
<VARIANCE> 16
 1.012654e-02 2.739942e-02 1.153150e-02 6.537999e-03 1.605886e-02 9.376826e-03 1.126353e-03 3.240213e-03 5.416576e-03 1.000000e-03 2.119634e-03 4.822798e-03 1.000000e-03 1.000000e-03 1.000000e-03 1.000000e-03
<GCONST> -6.084647e+01
<STATE> 4
<NUMMIXES> 2
<MIXTURE> 1 5.013056e-01
<MEAN> 16
 2.884416e-01 -1.469261e-02 1.586729e+00 -3.203722e-01 7.329874e-02 1.543070e+00 5.611091e-03 4.417698e-03 8.348007e-03 -4.780232e-03 1.698351e-03 8.981272e-03 9.799431e-02 1.069430e-01 8.357791e-02 8.282659e-02
<VARIANCE> 16
 1.593658e-02 3.308212e-02 2.247196e-02 1.170645e-02 6.730437e-03 1.293364e-02 1.000000e-03 1.251429e-03 1.430464e-03 1.000000e-03 1.000000e-03 1.083348e-03 1.000000e-03 1.000000e-03 1.000000e-03 1.000000e-03
<GCONST> -6.414922e+01
<MIXTURE> 2 4.986934e-01
<MEAN> 16
 2.587926e-01 -5.759103e-02 1.513565e+00 -3.204066e-01 4.447022e-02 1.480336e+00 -3.366464e-03 -1.633495e-03 -1.211381e-02 1.783342e-03 -1.237827e-03 -1.099364e-02 8.049700e-02 9.983732e-02 7.457083e-02 7.999051e-02
<VARIANCE> 16
 1.358808e-02 3.208434e-02 1.991862e-02 9.677273e-03 6.196536e-03 1.115658e-02 1.000000e-03 1.571742e-03 1.389299e-03 1.000000e-03 1.000000e-03 1.166495e-03 1.000000e-03 1.000000e-03 1.000000e-03 1.000000e-03
<GCONST> -6.460806e+01
<STATE> 5
<MEAN> 16
 4.521367e-01 -3.108661e-01 1.742479e+00 -3.629963e-01 -1.661015e-01 1.696676e+00 2.081719e-02 -5.381396e-02 3.294357e-02 -3.843628e-03 -4.434532e-02 2.247652e-02 8.953821e-02 8.972045e-02 7.578135e-02 7.665271e-02
<VARIANCE> 16
 1.386163e-02 2.565584e-02 4.247970e-02 1.260410e-02 3.449470e-02 3.491008e-02 1.000000e-03 1.644242e-03 6.423261e-03 1.000000e-03 2.958215e-03 5.911064e-03 1.000000e-03 1.000000e-03 1.000000e-03 1.000000e-03
<GCONST> -5.664892e+01
<TRANSP> 6
 0.000000e+00 1.000000e+00 0.000000e+00 0.000000e+00 0.000000e+00 0.000000e+00
 0.000000e+00 9.008341e-01 9.916583e-02 0.000000e+00 0.000000e+00 0.000000e+00
 0.000000e+00 0.000000e+00 9.630612e-01 3.693884e-02 0.000000e+00 0.000000e+00
 0.000000e+00 0.000000e+00 0.000000e+00 9.571854e-01 4.281451e-02 0.000000e+00
 0.000000e+00 0.000000e+00 0.000000e+00 0.000000e+00 6.241638e-01 3.758362e-01
 0.000000e+00 0.000000e+00 0.000000e+00 0.000000e+00 0.000000e+00 0.000000e+00
<ENDHMM>
~h "jumps_on"
<BEGINHMM>
<NUMSTATES> 6
<STATE> 2
<NUMMIXES> 2
<MIXTURE> 1 4.815911e-01
<MEAN> 16
 3.884755e-01 -3.924759e-01 1.998393e+00 -3.023583e-01 -2.974752e-01 1.958315e+00 -9.627090e-03 3.971234e-02 1.977021e-02 1.476067e-03 4.145288e-02 1.642098e-02 1.035433e-01 9.766096e-02 9.125640e-02 8.672481e-02
<VARIANCE> 16
 1.260954e-02 1.800691e-02 4.555518e-02 1.324567e-02 3.471886e-02 4.543968e-02 1.931029e-03 4.633361e-03 7.810567e-03 1.783801e-03 6.414672e-03 7.506398e-03 1.134298e-03 1.000000e-03 1.000000e-03 1.000000e-03
<GCONST> -5.310067e+01
<MIXTURE> 2 5.184081e-01
<MEAN> 16
 3.908123e-01 -4.193060e-01 1.852024e+00 -3.212058e-01 -3.534333e-01 1.832840e+00 -2.590372e-02 3.101735e-02 -2.889597e-02 3.110779e-03 3.154036e-02 -2.791799e-02 8.999783e-02 8.521134e-02 7.810530e-02 7.413626e-02
<VARIANCE> 16
 1.241165e-02 1.499275e-02 4.852845e-02 1.763849e-02 3.197116e-02 4.727244e-02 1.430458e-03 3.834903e-03 6.281587e-03 1.355405e-03 5.685301e-03 6.008791e-03 1.000000e-03 1.000000e-03 1.000000e-03 1.000000e-03
<GCONST> -5.444389e+01
<STATE> 3
<NUMMIXES> 2
<MIXTURE> 1 4.866465e-01
<MEAN> 16
 2.881880e-01 -1.149332e-01 1.866323e+00 -2.417566e-01 -7.281648e-02 1.778880e+00 1.173881e-03 1.102294e-02 1.884975e-02 -2.081315e-03 3.528569e-03 1.833403e-02 1.045978e-01 1.113738e-01 8.602865e-02 8.747834e-02
<VARIANCE> 16
 1.454737e-02 5.719441e-02 1.161327e-02 6.561591e-03 2.295206e-02 1.213687e-02 1.000000e-03 2.603792e-03 4.249458e-03 1.000000e-03 1.171700e-03 3.665346e-03 1.000000e-03 1.000000e-03 1.000000e-03 1.000000e-03
<GCONST> -6.057001e+01
<MIXTURE> 2 5.133545e-01
<MEAN> 16
 2.631470e-01 -1.565278e-01 1.794535e+00 -2.531085e-01 -1.369777e-01 1.710890e+00 -1.019682e-02 6.341055e-03 -2.298709e-02 3.534013e-03 1.500551e-03 -2.049261e-02 8.608092e-02 9.525081e-02 7.644646e-02 7.707494e-02
<VARIANCE> 16
 1.337380e-02 4.133657e-02 1.100572e-02 7.405672e-03 1.755872e-02 9.277827e-03 1.000000e-03 2.298708e-03 3.992929e-03 1.000000e-03 1.215465e-03 3.392781e-03 1.000000e-03 1.000000e-03 1.000000e-03 1.000000e-03
<GCONST> -6.167552e+01
<STATE> 4
<NUMMIXES> 2
<MIXTURE> 1 4.852267e-01
<MEAN> 16
 1.131579e-01 1.448693e-02 1.578921e+00 -1.904281e-01 1.473628e-02 1.476536e+00 -1.395993e-03 8.405794e-03 1.074466e-02 -3.466996e-04 2.066684e-03 8.735890e-03 9.901845e-02 1.087537e-01 8.181059e-02 8.508597e-02
<VARIANCE> 16
 3.765552e-02 5.083229e-02 2.918550e-02 7.056141e-03 6.243665e-03 1.606210e-02 1.000000e-03 1.377848e-03 2.062659e-03 1.000000e-03 1.000000e-03 1.360752e-03 1.000000e-03 1.000000e-03 1.000000e-03 1.000000e-03
<GCONST> -6.227289e+01
<MIXTURE> 2 5.147706e-01
<MEAN> 16
 7.494406e-02 -1.685868e-02 1.471089e+00 -1.862205e-01 -1.350914e-02 1.390041e+00 -5.838533e-03 -1.964532e-03 -1.132077e-02 1.416642e-03 -1.748809e-03 -1.015485e-02 8.862572e-02 9.437786e-02 7.176164e-02 8.005404e-02
<VARIANCE> 16
 4.581117e-02 4.634465e-02 2.377054e-02 7.500067e-03 4.555280e-03 1.115141e-02 1.000000e-03 1.408646e-03 1.650926e-03 1.000000e-03 1.000000e-03 1.190440e-03 1.000000e-03 1.000000e-03 1.000000e-03 1.000000e-03
<GCONST> -6.332792e+01
<STATE> 5
<MEAN> 16
 -7.228012e-02 -5.216832e-02 1.732882e+00 -1.222949e-01 -1.447353e-01 1.711728e+00 1.809196e-02 -2.020562e-02 2.652338e-03 -4.796073e-03 -6.471361e-03 4.610397e-03 9.118707e-02 9.215368e-02 7.207441e-02 8.265828e-02
<VARIANCE> 16
 5.692517e-02 3.558473e-02 2.033029e-02 2.313359e-02 2.268208e-02 1.794297e-02 5.278076e-03 2.728510e-03 6.804124e-03 4.828101e-03 3.245804e-03 8.081286e-03 1.000000e-03 1.312882e-03 1.000000e-03 1.000000e-03
<GCONST> -5.164379e+01
<TRANSP> 6
 0.000000e+00 1.000000e+00 0.000000e+00 0.000000e+00 0.000000e+00 0.000000e+00
 0.000000e+00 8.714448e-01 1.285551e-01 0.000000e+00 0.000000e+00 0.000000e+00
 0.000000e+00 0.000000e+00 9.598076e-01 4.019239e-02 0.000000e+00 0.000000e+00
 0.000000e+00 0.000000e+00 0.000000e+00 9.678866e-01 3.211339e-02 0.000000e+00
 0.000000e+00 0.000000e+00 0.000000e+00 0.000000e+00 9.021748e-01 9.782524e-02
 0.000000e+00 0.000000e+00 0.000000e+00 0.000000e+00 0.000000e+00 0.000000e+00
<ENDHMM>
~h "house"
<BEGINHMM>
<NUMSTATES> 6
<STATE> 2
<NUMMIXES> 2
<MIXTURE> 1 5.000849e-01
<MEAN> 16
 2.966173e-01 -1.117331e-01 1.994834e+00 -2.648633e-01 1.975187e-02 1.947469e+00 9.724032e-03 -1.174628e-02 3.017894e-02 -8.863754e-03 -3.451506e-04 2.226839e-02 1.530581e-01 1.507223e-01 9.663539e-02 1.038997e-01
<VARIANCE> 16
 8.827228e-03 9.722240e-02 1.541264e-02 7.772032e-03 5.351806e-02 1.078940e-02 1.000000e-03 1.355285e-03 4.976733e-03 1.000000e-03 2.402738e-03 4.115682e-03 1.049330e-03 1.000000e-03 1.000000e-03 1.000000e-03
<GCONST> -5.897056e+01
<MIXTURE> 2 4.999121e-01
<MEAN> 16
 2.952682e-01 -2.468830e-01 1.925988e+00 -2.924319e-01 -7.364523e-02 1.858811e+00 1.580324e-03 -2.355153e-02 -1.904960e-02 -3.419946e-03 -1.120881e-02 -1.984270e-02 1.227861e-01 1.332774e-01 8.561541e-02 9.376147e-02
<VARIANCE> 16
 7.027360e-03 6.556204e-02 2.364220e-02 4.697160e-03 3.996449e-02 1.397333e-02 1.000000e-03 1.541885e-03 6.096862e-03 1.000000e-03 2.746469e-03 4.602592e-03 1.478832e-03 1.000000e-03 1.000000e-03 1.000000e-03
<GCONST> -5.878115e+01
<STATE> 3
<NUMMIXES> 2
<MIXTURE> 1 4.696903e-01
<MEAN> 16
 3.084829e-01 -7.509243e-02 1.927305e+00 -3.065683e-01 5.489159e-02 1.808135e+00 8.591760e-03 6.232667e-03 1.887218e-02 -3.987249e-03 -1.873385e-04 1.676908e-02 1.177844e-01 1.241367e-01 8.918788e-02 1.077934e-01
<VARIANCE> 16
 2.476699e-02 6.142057e-02 1.357460e-02 2.557677e-03 3.585099e-03 1.207399e-02 1.331792e-03 2.746989e-03 4.811195e-03 1.000000e-03 1.000000e-03 3.531954e-03 1.000000e-03 1.000000e-03 1.000000e-03 1.000000e-03
<GCONST> -6.234583e+01
<MIXTURE> 2 5.303034e-01
<MEAN> 16
 2.441256e-01 -1.036310e-01 1.839513e+00 -3.347227e-01 7.501799e-03 1.705683e+00 -7.346124e-03 -3.055417e-03 -2.090763e-02 2.928530e-03 -4.094238e-03 -1.768650e-02 1.060099e-01 1.133741e-01 7.857688e-02 9.585362e-02
<VARIANCE> 16
 2.836107e-02 4.460939e-02 1.403497e-02 3.227989e-03 6.625694e-03 1.123369e-02 1.494252e-03 2.313447e-03 4.980535e-03 1.000000e-03 1.000000e-03 3.511793e-03 1.000000e-03 1.000000e-03 1.000000e-03 1.000000e-03
<GCONST> -6.174979e+01
<STATE> 4
<NUMMIXES> 2
<MIXTURE> 1 4.974475e-01
<MEAN> 16
 2.023516e-01 -1.145052e-01 1.697211e+00 -2.787150e-01 -3.001832e-02 1.626444e+00 7.650420e-03 -5.761704e-03 1.482857e-02 -4.881665e-04 -3.683241e-03 1.277126e-02 9.894530e-02 9.329245e-02 8.081995e-02 9.390291e-02
<VARIANCE> 16
 4.917224e-02 3.652170e-02 2.239825e-02 8.401510e-03 2.422779e-02 2.161262e-02 1.292034e-03 1.330736e-03 3.041512e-03 1.000000e-03 1.000000e-03 2.419749e-03 1.000000e-03 1.000000e-03 1.000000e-03 1.000000e-03
<GCONST> -5.958868e+01
<MIXTURE> 2 5.025418e-01
<MEAN> 16
 1.959554e-01 -1.713171e-01 1.631193e+00 -3.060772e-01 -1.024023e-01 1.556884e+00 9.412136e-04 -1.317049e-02 -1.156276e-02 3.316170e-03 -9.279070e-03 -1.053185e-02 8.909941e-02 8.612984e-02 7.422816e-02 8.510222e-02
<VARIANCE> 16
 5.281695e-02 3.443849e-02 2.568001e-02 6.473378e-03 2.436329e-02 2.785815e-02 1.396626e-03 1.642851e-03 3.212665e-03 1.000000e-03 1.000000e-03 2.523277e-03 1.000000e-03 1.000000e-03 1.000000e-03 1.000000e-03
<GCONST> -5.905528e+01
<STATE> 5
<MEAN> 16
 5.836965e-01 -6.941889e-01 1.859114e+00 -1.991851e-01 -5.963590e-01 1.809867e+00 5.229328e-03 -5.867024e-03 1.450015e-03 2.689125e-03 -8.421847e-03 3.907996e-03 1.158382e-01 1.082370e-01 9.753199e-02 7.229656e-02
<VARIANCE> 16
 1.863219e-02 3.483917e-03 1.587679e-02 1.724418e-02 7.581128e-03 8.304254e-03 1.000000e-03 1.000000e-03 1.426703e-03 1.000000e-03 1.000000e-03 1.488163e-03 1.000000e-03 1.000000e-03 1.000000e-03 1.000000e-03
<GCONST> -6.643733e+01
<TRANSP> 6
 0.000000e+00 1.000000e+00 0.000000e+00 0.000000e+00 0.000000e+00 0.000000e+00
 0.000000e+00 9.274969e-01 7.250312e-02 0.000000e+00 0.000000e+00 0.000000e+00
 0.000000e+00 0.000000e+00 9.725958e-01 2.740424e-02 0.000000e+00 0.000000e+00
 0.000000e+00 0.000000e+00 0.000000e+00 9.739568e-01 2.604316e-02 0.000000e+00
 0.000000e+00 0.000000e+00 0.000000e+00 0.000000e+00 9.626566e-01 3.734342e-02
 0.000000e+00 0.000000e+00 0.000000e+00 0.000000e+00 0.000000e+00 0.000000e+00
<ENDHMM>
~h "bumps_into"
<BEGINHMM>
<NUMSTATES> 6
<STATE> 2
<NUMMIXES> 2
<MIXTURE> 1 4.882601e-01
<MEAN> 16
 4.081634e-01 -4.045511e-01 1.992147e+00 -3.422542e-01 -3.416170e-01 1.953044e+00 -2.834496e-03 2.855069e-02 2.581078e-02 -3.849516e-03 3.308091e-02 1.994296e-02 9.928540e-02 9.457346e-02 8.952025e-02 8.709884e-02
<VARIANCE> 16
 1.498800e-02 1.892659e-02 3.795528e-02 1.532406e-02 1.468402e-02 4.120424e-02 1.304385e-03 2.644718e-03 7.345072e-03 1.473446e-03 2.960946e-03 7.250049e-03 1.000000e-03 1.000000e-03 1.000000e-03 1.000000e-03
<GCONST> -5.601266e+01
<MIXTURE> 2 5.117400e-01
<MEAN> 16
 4.063463e-01 -4.267415e-01 1.862434e+00 -3.630032e-01 -3.875486e-01 1.841981e+00 -1.825595e-02 1.939419e-02 -1.947244e-02 -3.652687e-05 2.408194e-02 -2.126019e-02 8.639962e-02 8.398587e-02 7.654007e-02 7.528079e-02
<VARIANCE> 16
 1.312658e-02 1.634711e-02 4.701597e-02 1.686484e-02 1.477192e-02 4.381385e-02 1.193200e-03 2.398769e-03 5.656223e-03 1.065376e-03 2.251599e-03 5.338491e-03 1.000000e-03 1.000000e-03 1.000000e-03 1.000000e-03
<GCONST> -5.726671e+01
<STATE> 3
<NUMMIXES> 2
<MIXTURE> 1 4.642623e-01
<MEAN> 16
 3.172046e-01 -1.929979e-01 1.852277e+00 -2.249945e-01 -1.233725e-01 1.795990e+00 -2.411542e-02 6.370385e-02 4.750847e-03 1.026368e-02 6.857018e-02 3.879375e-03 1.040196e-01 9.983024e-02 8.246036e-02 8.190614e-02
<VARIANCE> 16
 1.252718e-02 5.077901e-02 2.028484e-02 6.264618e-03 2.995369e-02 1.639817e-02 3.208925e-03 7.879520e-03 9.576413e-03 2.536519e-03 1.498398e-02 9.861603e-03 1.285176e-03 1.000000e-03 1.000000e-03 1.000000e-03
<GCONST> -5.195424e+01
<MIXTURE> 2 5.357364e-01
<MEAN> 16
 3.216500e-01 -2.204141e-01 1.769575e+00 -2.467140e-01 -1.772929e-01 1.719841e+00 -3.555819e-02 4.389955e-02 -4.551987e-02 7.860225e-03 4.813514e-02 -3.799812e-02 8.240237e-02 7.696985e-02 7.001221e-02 6.921928e-02
<VARIANCE> 16
 8.840392e-03 3.647490e-02 2.154940e-02 7.510881e-03 2.506828e-02 1.741994e-02 2.405688e-03 6.945409e-03 7.990781e-03 2.277325e-03 8.543856e-03 7.653598e-03 1.017815e-03 1.000000e-03 1.000000e-03 1.000000e-03
<GCONST> -5.426093e+01
<STATE> 4
<NUMMIXES> 2
<MIXTURE> 1 4.559568e-01
<MEAN> 16
 1.541966e-01 -4.309681e-03 1.716990e+00 -1.458936e-01 4.777586e-02 1.694504e+00 1.077837e-02 2.221235e-02 2.370692e-02 -4.044326e-03 2.784095e-02 2.529742e-02 1.215751e-01 1.160860e-01 8.807853e-02 8.608851e-02
<VARIANCE> 16
 2.207675e-02 5.057257e-02 3.496279e-02 1.402943e-02 2.400717e-02 2.828987e-02 5.816411e-03 1.468787e-03 6.054385e-03 4.869661e-03 1.839880e-03 5.940105e-03 1.000000e-03 1.000000e-03 1.000000e-03 1.000000e-03
<GCONST> -5.346347e+01
<MIXTURE> 2 5.440407e-01
<MEAN> 16
 1.176540e-01 -6.548186e-02 1.591771e+00 -1.477093e-01 -2.739381e-02 1.577952e+00 -1.350114e-02 1.351925e-02 -2.247071e-02 -2.904499e-04 1.984898e-02 -2.046158e-02 9.508248e-02 9.120198e-02 7.668847e-02 7.390866e-02
<VARIANCE> 16
 2.691259e-02 3.619182e-02 3.695539e-02 1.670955e-02 1.476215e-02 2.753273e-02 4.966277e-03 1.253768e-03 5.491072e-03 5.404490e-03 1.373783e-03 4.683141e-03 1.000000e-03 1.000000e-03 1.000000e-03 1.000000e-03
<GCONST> -5.472278e+01
<STATE> 5
<MEAN> 16
 2.802961e-01 -2.310975e-01 1.842657e+00 -2.063012e-01 4.901038e-02 1.806828e+00 4.000864e-03 -9.012346e-03 6.128121e-03 -7.103368e-03 2.056232e-03 6.680902e-03 1.090372e-01 1.126018e-01 8.725292e-02 8.320689e-02
<VARIANCE> 16
 9.803947e-03 1.057773e-01 2.192166e-02 8.803866e-03 4.349908e-02 2.042641e-02 1.000000e-03 1.581027e-03 1.757800e-03 1.000000e-03 3.579374e-03 1.625320e-03 1.138275e-03 1.000000e-03 1.000000e-03 1.000000e-03
<GCONST> -5.920916e+01
<TRANSP> 6
 0.000000e+00 1.000000e+00 0.000000e+00 0.000000e+00 0.000000e+00 0.000000e+00
 0.000000e+00 8.562148e-01 1.437852e-01 0.000000e+00 0.000000e+00 0.000000e+00
 0.000000e+00 0.000000e+00 7.239974e-01 2.760026e-01 0.000000e+00 0.000000e+00
 0.000000e+00 0.000000e+00 0.000000e+00 7.696289e-01 2.303711e-01 0.000000e+00
 0.000000e+00 0.000000e+00 0.000000e+00 0.000000e+00 7.915627e-01 2.084373e-01
 0.000000e+00 0.000000e+00 0.000000e+00 0.000000e+00 0.000000e+00 0.000000e+00
<ENDHMM>
~h "goes_to"
<BEGINHMM>
<NUMSTATES> 6
<STATE> 2
<NUMMIXES> 2
<MIXTURE> 1 4.892144e-01
<MEAN> 16
 3.921683e-01 -4.018008e-01 1.954822e+00 -2.499257e-01 -2.149423e-01 1.904082e+00 -9.806423e-03 3.711501e-02 2.126526e-02 2.037103e-03 4.411429e-02 1.868740e-02 1.062923e-01 9.804726e-02 9.066460e-02 8.525641e-02
<VARIANCE> 16
 1.554494e-02 3.983191e-02 4.312215e-02 2.405322e-02 7.975680e-02 4.455486e-02 1.822582e-03 5.037738e-03 7.939327e-03 2.227911e-03 6.188295e-03 7.335010e-03 1.134223e-03 1.000000e-03 1.000000e-03 1.000000e-03
<GCONST> -5.053828e+01
<MIXTURE> 2 5.107821e-01
<MEAN> 16
 3.919825e-01 -4.236963e-01 1.827302e+00 -2.903242e-01 -2.943181e-01 1.798786e+00 -2.509541e-02 3.099334e-02 -3.100498e-02 2.457806e-03 3.454082e-02 -2.716033e-02 9.118669e-02 8.595927e-02 7.677781e-02 7.416084e-02
<VARIANCE> 16
 1.310103e-02 2.744245e-02 4.725961e-02 2.303072e-02 5.472121e-02 4.182280e-02 1.697422e-03 3.994694e-03 7.702213e-03 1.594123e-03 5.019003e-03 6.819314e-03 1.000000e-03 1.000000e-03 1.000000e-03 1.000000e-03
<GCONST> -5.255020e+01
<STATE> 3
<NUMMIXES> 2
<MIXTURE> 1 4.735630e-01
<MEAN> 16
 2.679630e-01 -1.600526e-01 1.844790e+00 -2.510553e-01 -1.410489e-01 1.798566e+00 -1.684313e-03 1.053468e-02 1.485200e-02 -4.049669e-04 4.703651e-03 1.435815e-02 9.711882e-02 1.012129e-01 8.474650e-02 7.991502e-02
<VARIANCE> 16
 1.705660e-02 3.654553e-02 1.448765e-02 8.552600e-03 1.482810e-02 1.153933e-02 1.000000e-03 2.070347e-03 3.332735e-03 1.000000e-03 1.215884e-03 2.942984e-03 1.000000e-03 1.000000e-03 1.000000e-03 1.000000e-03
<GCONST> -6.151474e+01
<MIXTURE> 2 5.264352e-01
<MEAN> 16
 2.333626e-01 -2.020767e-01 1.775623e+00 -2.683790e-01 -1.770404e-01 1.742240e+00 -9.409377e-03 2.931550e-03 -1.771369e-02 2.293700e-03 3.269469e-03 -1.604441e-02 8.299071e-02 8.720067e-02 7.240048e-02 7.503337e-02
<VARIANCE> 16
 2.108995e-02 2.802022e-02 1.292398e-02 9.214795e-03 1.041430e-02 1.032025e-02 1.000000e-03 2.036328e-03 3.214504e-03 1.000000e-03 1.014322e-03 2.800514e-03 1.000000e-03 1.000000e-03 1.000000e-03 1.000000e-03
<GCONST> -6.235631e+01
<STATE> 4
<NUMMIXES> 2
<MIXTURE> 1 4.861282e-01
<MEAN> 16
 1.830760e-01 -5.150039e-02 1.524903e+00 -2.801840e-01 2.675984e-02 1.452872e+00 7.123655e-05 5.090656e-03 8.084700e-03 -1.438190e-03 3.316671e-03 7.415758e-03 9.493194e-02 1.039310e-01 8.100043e-02 8.582961e-02
<VARIANCE> 16
 3.486007e-02 3.447419e-02 2.457006e-02 9.487136e-03 5.943952e-03 1.550966e-02 1.000000e-03 1.249462e-03 1.532910e-03 1.000000e-03 1.000000e-03 1.080825e-03 1.000000e-03 1.000000e-03 1.000000e-03 1.000000e-03
<GCONST> -6.332359e+01
<MIXTURE> 2 5.138667e-01
<MEAN> 16
 1.229208e-01 -7.917358e-02 1.439023e+00 -2.938461e-01 4.722442e-03 1.384099e+00 -6.166914e-03 -1.378182e-03 -1.038617e-02 7.670195e-04 -1.564764e-03 -9.576635e-03 8.489678e-02 9.392955e-02 7.575375e-02 8.170988e-02
<VARIANCE> 16
 4.532104e-02 3.217600e-02 1.808278e-02 7.128816e-03 4.360450e-03 1.062480e-02 1.000000e-03 1.148264e-03 1.325575e-03 1.000000e-03 1.000000e-03 1.072633e-03 1.000000e-03 1.000000e-03 1.000000e-03 1.000000e-03
<GCONST> -6.464798e+01
<STATE> 5
<MEAN> 16
 2.205353e-01 -1.957953e-01 1.693429e+00 -2.693259e-01 -2.521010e-01 1.724667e+00 3.348466e-02 -2.044117e-02 1.431872e-02 -1.804603e-02 -1.717626e-02 1.950224e-02 9.292868e-02 9.853339e-02 7.689860e-02 7.569288e-02
<VARIANCE> 16
 4.052757e-02 3.599006e-02 5.476978e-02 2.467148e-02 9.178110e-02 3.743074e-02 8.836603e-03 4.486745e-03 1.169552e-02 6.261269e-03 5.248580e-03 1.085906e-02 1.000000e-03 1.115877e-03 1.000000e-03 1.000000e-03
<GCONST> -4.635593e+01
<TRANSP> 6
 0.000000e+00 1.000000e+00 0.000000e+00 0.000000e+00 0.000000e+00 0.000000e+00
 0.000000e+00 8.835093e-01 1.164907e-01 0.000000e+00 0.000000e+00 0.000000e+00
 0.000000e+00 0.000000e+00 9.387904e-01 6.120962e-02 0.000000e+00 0.000000e+00
 0.000000e+00 0.000000e+00 0.000000e+00 9.577417e-01 4.225830e-02 0.000000e+00
 0.000000e+00 0.000000e+00 0.000000e+00 0.000000e+00 7.520633e-01 2.479367e-01
 0.000000e+00 0.000000e+00 0.000000e+00 0.000000e+00 0.000000e+00 0.000000e+00
<ENDHMM>
