~o
<STREAMINFO> 1 16
<VECSIZE> 16<NULLD><USER><DIAGC>
~h "weaves_and_bumps_into"
<BEGINHMM>
<NUMSTATES> 6
<STATE> 2
<MEAN> 16
 3.176000e-01 -2.812266e-01 1.791021e+00 -2.806371e-01 -1.978362e-01 1.734028e+00 3.521487e-03 -4.146324e-03 1.075543e-02 -1.175382e-03 -3.600416e-03 1.059311e-02 1.034848e-01 1.065047e-01 8.499368e-02 8.181690e-02
<VARIANCE> 16
 2.000000e+00 2.000000e+00 2.000000e+00 2.000000e+00 2.000000e+00 2.000000e+00 2.000000e+00 2.000000e+00 2.000000e+00 2.000000e+00 2.000000e+00 2.000000e+00 2.000000e+00 2.000000e+00 2.000000e+00 2.000000e+00
<GCONST> 4.049637e+01
<STATE> 3
<MEAN> 16
 3.176000e-01 -2.812266e-01 1.791021e+00 -2.806371e-01 -1.978362e-01 1.734028e+00 3.521487e-03 -4.146324e-03 1.075543e-02 -1.175382e-03 -3.600416e-03 1.059311e-02 1.034848e-01 1.065047e-01 8.499368e-02 8.181690e-02
<VARIANCE> 16
 2.000000e+00 2.000000e+00 2.000000e+00 2.000000e+00 2.000000e+00 2.000000e+00 2.000000e+00 2.000000e+00 2.000000e+00 2.000000e+00 2.000000e+00 2.000000e+00 2.000000e+00 2.000000e+00 2.000000e+00 2.000000e+00
<GCONST> 4.049637e+01
<STATE> 4
<MEAN> 16
 3.176000e-01 -2.812266e-01 1.791021e+00 -2.806371e-01 -1.978362e-01 1.734028e+00 3.521487e-03 -4.146324e-03 1.075543e-02 -1.175382e-03 -3.600416e-03 1.059311e-02 1.034848e-01 1.065047e-01 8.499368e-02 8.181690e-02
<VARIANCE> 16
 2.000000e+00 2.000000e+00 2.000000e+00 2.000000e+00 2.000000e+00 2.000000e+00 2.000000e+00 2.000000e+00 2.000000e+00 2.000000e+00 2.000000e+00 2.000000e+00 2.000000e+00 2.000000e+00 2.000000e+00 2.000000e+00
<GCONST> 4.049637e+01
<STATE> 5
<MEAN> 16
 3.176000e-01 -2.812266e-01 1.791021e+00 -2.806371e-01 -1.978362e-01 1.734028e+00 3.521487e-03 -4.146324e-03 1.075543e-02 -1.175382e-03 -3.600416e-03 1.059311e-02 1.034848e-01 1.065047e-01 8.499368e-02 8.181690e-02
<VARIANCE> 16
 2.000000e+00 2.000000e+00 2.000000e+00 2.000000e+00 2.000000e+00 2.000000e+00 2.000000e+00 2.000000e+00 2.000000e+00 2.000000e+00 2.000000e+00 2.000000e+00 2.000000e+00 2.000000e+00 2.000000e+00 2.000000e+00
<GCONST> 4.049637e+01
<TRANSP> 6
 0.000000e+00 1.000000e+00 0.000000e+00 0.000000e+00 0.000000e+00 0.000000e+00
 0.000000e+00 6.000000e-01 4.000000e-01 0.000000e+00 0.000000e+00 0.000000e+00
 0.000000e+00 0.000000e+00 6.000000e-01 4.000000e-01 0.000000e+00 0.000000e+00
 0.000000e+00 0.000000e+00 0.000000e+00 6.000000e-01 4.000000e-01 0.000000e+00
 0.000000e+00 0.000000e+00 0.000000e+00 0.000000e+00 6.000000e-01 4.000000e-01
 0.000000e+00 0.000000e+00 0.000000e+00 0.000000e+00 0.000000e+00 0.000000e+00
<ENDHMM>
